-0.143431
0.097581
-0.010074
0.039339
-0.022820
-0.039135
0.032745
0.000652
0.140646
-0.076261
-0.080450
0.068308
0.023752
0.156374
0.044023
0.008704
-0.012693
0.130789
0.081283
0.099458
0.071994
-0.093134
-0.070870
0.023350
-0.028051
-0.081081
0.110342
0.004375
-0.052680
-0.007370
-0.019219
0.090599
-0.004951
0.036083
0.054551
-0.011283
-0.090545
0.028489
0.070855
-0.162976
0.045515
0.017009
-0.004354
-0.048557
0.009983
-0.070885
0.122197
0.059373
0.048998
-0.137323
-0.012227
0.080649
0.023739
0.072955
0.006224
-0.053813
0.116860
0.035647
0.048019
-0.078462
0.001712
0.086807
0.133744
0.039532
-0.130292
0.074537
-0.152743
0.016445
-0.014532
-0.121879
-0.007764
-0.010281
-0.000168
-0.108995
-0.070797
-0.031841
0.003912
0.007201
0.059304
-0.081312
-0.006449
-0.035016
-0.020341
0.056792
-0.176365
0.026134
0.023096
0.009004
-0.045046
-0.010144
-0.061056
0.104648
-0.040346
-0.070677
-0.058684
0.007608
-0.076475
0.030423
-0.029558
-0.121549
0.061278
0.050315
-0.026900
-0.132123
-0.005174
-0.079594
-0.072405
0.068805
0.132995
0.203049
0.011492
-0.106370
0.010447
-0.010298
0.089130
-0.128694
-0.030494
-0.035817
0.082603
0.076079
0.053854
-0.046384
-0.017691
-0.150639
-0.024650
-0.008475
-0.000783
-0.139209
-0.102413
0.036289
-0.041525
0.001888
0.148765
0.079013
-0.102153
0.082876
0.042015
-0.097720
-0.028314
-0.127158
0.263319
-0.045402
-0.098538
-0.131797
-0.011691
-0.016817
-0.147225
0.006352
0.118793
-0.093847
-0.070992
0.038230
0.056688
0.093913
0.157676
0.106766
-0.148316
-0.034285
0.130580
-0.014124
0.051478
-0.053442
-0.075557
0.056533
-0.118922
0.169546
0.039947
-0.082956
0.067772
-0.147511
-0.149742
-0.050027
-0.042855
-0.022025
-0.016900
-0.188434
0.051944
-0.099474
-0.123804
-0.066325
0.076415
-0.002071
0.066015
-0.065382
-0.016802
0.025886
-0.054582
-0.033522
-0.038537
0.132725
-0.012943
0.016297
-0.016569
0.058460
-0.048718
-0.015969
-0.052270
0.027767
0.119433
0.055611
-0.023570
0.045616
-0.025182
-0.173654
-0.085428
0.135497
0.031359
0.161818
0.018782
0.062254
-0.021416
0.009615
-0.137031
0.063818
-0.107583
0.038092
0.074428
0.119121
0.150435
-0.123822
-0.135893
0.009450
0.048312
-0.044500
0.020691
0.014831
0.059151
0.112790
0.008566
0.016216
-0.062585
0.006135
-0.143379
-0.105480
0.202313
-0.043802
0.057618
0.124895
-0.033351
0.048421
-0.075644
0.240011
-0.229776
-0.166619
-0.086399
-0.100993
0.096984
-0.033729
0.042884
-0.024275
0.009720
0.033377
-0.100970
-0.020467
0.179042
-0.063714
0.001427
-0.055760
0.044826
0.024712
-0.095333
0.066555
0.076379
-0.057861
-0.012913
0.043758
0.025760
-0.106274
0.055301
0.040533
-0.028960
0.132792
-0.096235
0.058820
-0.019841
0.022892
0.014132
0.029097
0.044991
-0.075280
0.029544
-0.073770
0.034734
0.059168
-0.098067
0.067995
-0.094319
-0.010266
0.092181
0.067777
-0.136370
0.024330
-0.066715
-0.005891
0.044366
0.037651
0.054325
0.001042
-0.003058
-0.123538
0.003085
0.000654
0.007845
-0.054639
-0.021837
0.023088
0.100708
-0.082096
0.010831
0.003322
0.023707
-0.077381
0.036657
-0.035453
0.033486
0.030211
-0.073055
0.068784
-0.044225
-0.049904
-0.073768
0.135068
0.001978
0.038113
-0.035810
0.026452
-0.151470
-0.114876
-0.011139
0.056425
0.003870
-0.019011
0.060357
0.142715
-0.010096
-0.067224
-0.063742
-0.088405
-0.012974
0.039977
-0.071683
-0.007258
-0.020537
-0.072307
0.010153
-0.031387
0.139186
-0.004745
0.150248
-0.114871
-0.077250
0.024803
0.069874
-0.075047
0.027206
-0.028078
-0.057142
0.146486
0.042369
0.009111
-0.010106
0.055453
-0.024733
0.074202
-0.080451
0.095260
0.064352
0.085674
-0.109099
0.093401
-0.026023
-0.083454
0.005266
-0.052923
0.119544
0.082064
0.160842
-0.045323
0.002250
0.109837
-0.080852
0.131332
0.035382
0.099609
-0.080143
-0.007323
0.002334
0.004052
-0.151572
0.018327
0.134221
-0.055048
-0.115603
0.037956
-0.000085
0.092649
0.017748
0.069576
-0.022795
0.081762
-0.146490
-0.073958
0.057724
0.109542
0.047839
0.130500
-0.037611
0.112478
0.020557
0.032494
0.050034
-0.062114
-0.107439
-0.169961
-0.083345
0.154457
-0.015750
0.044828
0.137978
-0.038651
-0.192083
0.005725
0.051820
0.001946
0.220722
-0.093161
0.047092
-0.070443
0.148186
0.069305
0.028309
-0.055564
0.132006
0.043242
-0.132105
0.063034
-0.044598
-0.153521
0.023883
0.121807
0.052314
0.074468
-0.063723
0.067116
0.096790
-0.027243
-0.026960
-0.097937
-0.151219
-0.093456
0.027053
-0.094930
-0.023387
0.082131
0.126261
-0.238068
-0.087821
0.079892
-0.123039
-0.064189
0.005171
-0.091328
-0.112163
-0.075501
0.021889
-0.030651
-0.102590
-0.037341
-0.085417
-0.218252
-0.043071
-0.010509
-0.034274
0.063321
0.221901
-0.102662
-0.074778
-0.031413
-0.054117
0.017623
0.068774
-0.062777
0.027190
-0.024292
-0.072587
-0.087380
-0.076365
-0.054844
-0.043183
0.148734
-0.006488
0.025793
-0.176146
-0.080346
0.079761
-0.145308
-0.097123
-0.168098
0.067284
-0.033669
-0.111357
-0.079804
-0.042919
0.041992
-0.016531
0.059519
0.029336
0.069564
-0.081363
0.222165
-0.034693
-0.036247
0.039765
-0.002837
-0.038630
0.004342
0.072868
-0.013673
0.002037
0.030667
-0.058939
-0.003942
-0.002518
0.033129
-0.101099
-0.087646
-0.099150
0.014623
-0.004219
0.086344
-0.097230
0.099598
-0.064616
0.013203
-0.139794
-0.211962
0.123296
-0.036300
-0.007511
0.010796
-0.020964
-0.044766
-0.206885
-0.007040
-0.055147
0.090963
-0.006337
0.038017
0.021846
0.007524
-0.072815
-0.007230
-0.126759
0.006335
0.127123
0.077945
-0.045428
0.016473
0.078876
-0.041341
-0.100039
-0.083423
-0.159343
-0.070717
0.022089
0.094810
-0.017175
0.037231
0.037274
-0.059696
-0.108754
-0.100751
0.002492
0.089249
-0.024496
-0.011696
0.068520
0.134468
0.128291
-0.055738
0.049155
-0.113940
-0.090539
-0.078542
0.017697
0.072360
0.049777
0.116363
-0.046133
-0.003566
0.008604
0.015482
0.028250
0.094689
-0.000481
0.121196
-0.072690
-0.107377
0.014083
0.081792
-0.030853
-0.000422
-0.070256
0.084939
0.055868
-0.103708
-0.080125
-0.077525
-0.031819
-0.021409
0.045271
-0.076222
0.073874
0.006587
-0.041607
0.109418
0.108143
-0.034298
-0.007174
0.085462
0.088897
-0.063373
0.076098
-0.056608
0.030017
-0.073982
-0.036913
-0.043102
-0.003213
-0.020174
-0.011713
0.015540
0.109423
0.087868
0.006948
-0.126678
-0.042303
-0.000242
-0.002781
-0.210066
0.063661
-0.002269
-0.007847
-0.027716
0.016848
-0.056976
0.060943
-0.020654
0.028332
-0.057238
0.014543
-0.027074
0.072437
-0.090445
-0.026772
-0.130143
0.084896
0.251668
0.005013
-0.077584
-0.108562
0.056525
-0.050633
0.020709
-0.099097
0.010688
-0.051560
0.051511
-0.048600
-0.046901
0.015783
-0.031465
0.235031
0.065834
0.019691
0.012780
0.000414
0.010764
-0.117189
0.028198
0.133343
-0.106960
0.121960
0.051487
0.180307
-0.173244
0.036074
-0.156225
0.057625
0.013313
0.089734
0.053565
-0.069591
0.061427
-0.066320
0.054924
-0.071143
0.121399
0.060371
0.003186
-0.126737
0.175528
0.042250
-0.133089
0.077689
-0.028718
-0.054741
0.068077
0.072323
-0.043885
-0.156825
0.014382
-0.001094
0.002494
-0.087850
-0.004806
-0.029923
-0.037965
0.011484
0.088427
-0.013959
0.076227
-0.020525
-0.181866
0.032819
0.106502
0.041134
0.024340
0.096398
-0.127122
0.106331
-0.000096
-0.110314
0.054434
0.022201
-0.044808
0.017739
0.023208
-0.045698
0.015399
0.059309
-0.028512
0.036885
-0.086932
-0.011322
-0.022738
0.038017
-0.012560
-0.089853
0.050346
-0.035165
0.085048
0.051781
-0.052689
0.132948
-0.074873
0.040993
0.077132
0.058225
-0.048538
0.012018
-0.172809
0.078944
-0.068270
0.019979
-0.069146
-0.116705
0.003824
0.114652
-0.072411
0.001951
-0.097636
0.043016
-0.026339
-0.070203
0.043235
-0.132251
0.163528
-0.067143
0.038340
-0.055790
-0.232132
0.041050
0.141514
