-0.011484
0.095365
-0.046695
-0.024591
0.042463
0.102713
-0.013314
0.024813
-0.019944
0.035803
0.016587
-0.089714
0.006581
0.010862
0.001967
-0.075711
-0.094843
0.035755
-0.014331
0.045561
0.074789
0.081263
0.068968
0.010077
0.055274
-0.019175
0.058903
-0.051180
0.023900
0.104867
0.042227
-0.031239
-0.015321
0.020767
-0.249235
0.092066
0.024388
-0.003224
0.016404
-0.026288
-0.014340
-0.045280
0.057389
-0.001074
0.020103
0.004041
-0.039683
-0.076264
0.059554
-0.076325
0.148319
0.001238
0.093114
0.018620
-0.042187
0.042787
0.018897
0.091654
0.020106
0.518608
-0.022455
0.118445
-0.044292
-0.055944
-0.023484
0.049178
-0.001952
0.074055
-0.034382
0.070740
-0.074550
-0.056841
0.160407
0.001800
-0.037401
-0.009988
-0.068322
-0.075567
0.011581
-0.105494
0.041624
-0.055464
-0.103501
-0.037912
-0.078589
0.024113
0.198010
0.085957
0.009329
0.043802
0.034990
-0.009207
-0.012049
-0.069906
0.015266
0.024552
-0.035477
-0.022247
0.001465
-0.132252
-0.126436
0.089720
-0.052323
0.074538
-0.028370
0.002895
0.376999
-0.097948
0.092037
0.093108
-0.016402
0.026498
0.045628
-0.039417
0.186061
0.108956
-0.022483
0.000686
0.051847
0.008250
0.045393
-0.012051
-0.182673
0.038780
-0.059997
-0.011913
-0.165613
0.051019
0.018733
0.034744
-0.044578
-0.102453
0.047138
0.022659
-0.030935
-0.044759
0.045929
0.063639
0.012579
0.038102
0.108514
-0.055420
0.130981
-0.071265
0.001806
0.037689
-0.038635
0.002377
0.073564
-0.105160
0.006601
-0.009615
0.042656
0.071454
-0.006452
0.048995
0.045407
0.015295
-0.022606
0.073357
0.006779
-0.063103
0.077531
0.058141
-0.059306
0.059998
0.044839
-0.005387
-0.053054
-0.012367
0.027766
0.061813
-0.049597
0.036954
0.059201
0.042003
0.004859
0.141987
0.009352
-0.116103
0.007955
0.042069
0.007719
-0.009881
0.013063
-0.080801
0.097028
-0.056512
0.056570
0.022451
0.065087
0.043386
0.041909
0.155266
0.618707
-0.031411
