-0.003580
0.090987
-0.051209
-0.021173
0.058233
0.112609
-0.000127
0.043184
-0.011382
0.039385
0.030586
-0.101352
0.007000
0.030060
0.004193
-0.062821
-0.083000
0.024798
-0.015974
0.047448
0.053739
0.089648
0.080938
-0.006691
0.063851
-0.026932
0.068895
-0.061676
0.029187
0.119063
0.044332
-0.016521
-0.006867
0.024143
-0.226451
0.084050
0.021604
-0.028111
0.021525
-0.028521
-0.009139
-0.051263
0.070626
-0.043168
0.015245
-0.002470
-0.050974
-0.077106
0.048823
-0.061863
0.115157
-0.004225
0.105920
0.026145
-0.045313
0.039018
0.022279
0.093182
0.045209
0.500620
-0.009334
0.135253
-0.036599
-0.046580
-0.049008
0.041942
0.011030
0.074804
-0.007142
0.055904
-0.086683
-0.073030
0.127626
0.015803
-0.036616
-0.007465
-0.073017
-0.072707
0.001826
-0.102321
0.024653
-0.072646
-0.100423
-0.029081
-0.080761
0.036840
0.175044
0.049294
0.007346
0.051374
0.005801
0.001466
-0.017498
-0.066267
0.002215
0.015496
-0.041363
-0.026693
0.004692
-0.150310
-0.125309
0.081043
-0.042626
0.082282
-0.032824
-0.008929
0.374985
-0.111307
0.097011
0.084289
-0.022679
0.031936
0.036808
-0.036573
0.161587
0.114827
-0.003302
0.000321
0.056443
0.016722
0.017969
0.002698
-0.155773
0.042456
-0.044942
-0.011391
-0.161056
0.021899
0.014704
0.038456
-0.051821
-0.078160
0.047186
0.008241
-0.051978
-0.031794
0.053784
0.056968
-0.004083
0.026630
0.116221
-0.074340
0.125705
-0.066628
0.012103
0.042773
-0.039292
-0.001331
0.090765
-0.095048
0.019055
-0.010146
0.047585
0.066324
-0.016593
0.043376
0.055102
0.004423
-0.011032
0.074792
0.000658
-0.056241
0.057726
0.065514
-0.059651
0.063739
0.046014
-0.001666
-0.053221
-0.006593
0.025613
0.042250
-0.055916
0.037677
0.068097
0.041303
0.006423
0.147254
-0.002423
-0.096765
-0.006247
0.047085
0.004512
-0.006024
0.017602
-0.075475
0.103735
-0.076489
0.073456
0.029697
0.061825
0.026496
0.041406
0.132002
0.613587
-0.030868
