0.146470 -0.097133 -0.124212 -0.016560 -0.037121 0.085884 0.074352 0.080448 -0.217729 0.100549 0.071982 -0.011908 0.132419 0.022101 -0.066923 -0.020442 0.075419 0.020478 0.100240 -0.226121 0.028604 -0.033777 0.008561 0.047834 -0.037238 0.061836 -0.032766 -0.068943 0.005229 -0.140157 0.099621 -0.069530 0.092024 -0.031958 0.062900 -0.073442 0.051527 0.196728 0.036728 0.021729 0.121062 -0.022967 0.221511 -0.310011 0.055815 -0.085433 0.029818 -0.172515 -0.072593 -0.126432 -0.012128 0.069688 -0.100803 0.054200 0.120626 -0.069994 0.003926 -0.116508 -0.040465 0.005713 0.017678 -0.108577 0.073977 0.156703 0.045398 0.096504 0.068937 -0.128809 -0.079500 0.124481 0.067178 -0.036694 -0.143178 -0.096625 0.133504 0.045700 0.111050 -0.124418 -0.084260 -0.055255 0.096786 0.091414 -0.138737 -0.039064 -0.171419 -0.089448 0.030974 -0.006030 -0.186576 -0.055803 -0.050820 -0.115529 0.044416 -0.091775 -0.006363 0.176180 -0.000050 -0.047682 -0.095229 0.029376 -0.056537 -0.039354 -0.067760 0.019253 0.029203 0.011584 -0.040667 -0.040920 0.060390 0.036467 -0.063632 0.036893 -0.048689 0.110853 -0.062906 0.179110 0.063572 -0.045804 0.025417 0.067603 -0.004064 0.081276 -0.041215 -0.014959 0.056474 -0.005035 -0.008250 0.159643 0.042909 -0.067403 0.109357 -0.108554 0.139255 -0.005720 0.250598 0.060364 -0.056532 -0.054737 -0.054754 0.124496 0.032007 -0.148953 -0.005477 -0.033967 -0.043149 0.102349 0.105446 -0.009119 -0.057604 -0.036671 -0.206353 0.025779 0.220635 0.079536 0.179400 0.002973 -0.097366 -0.080717 0.056088 0.044965 -0.023489 -0.198264 -0.103897 -0.029286 0.158913 0.085135 -0.039110 0.074565 0.114785 -0.009142 0.098801 -0.015751 -0.019021 -0.017212 -0.159158 -0.035307 0.003540 -0.016955 -0.028289 0.011959 -0.062781 0.046463 0.011499 -0.093911 0.044835 -0.013191 -0.015676 -0.099562 0.076701 -0.000235 0.086991 -0.002870 -0.129097 0.085465 0.001312 -0.022929
-0.091446 -0.019982 -0.052056 0.188545 -0.049499 -0.178476 -0.124281 0.080389 -0.032111 -0.082061 0.100778 -0.078784 0.077058 0.018056 0.198174 0.007830 0.027439 0.000598 0.078935 -0.019833 -0.157007 -0.033053 -0.043678 -0.089554 0.075431 -0.049299 0.075526 0.025379 0.114635 0.069480 -0.024162 0.100503 0.050206 -0.175745 0.070740 0.032088 -0.026138 -0.002040 -0.061106 0.089081 -0.084075 -0.064791 0.054168 -0.084459 0.143078 0.059489 0.019221 -0.089445 -0.010301 0.010603 0.025291 -0.052327 0.100864 0.068742 -0.006475 -0.079338 0.134274 0.138570 0.112575 0.013767 0.158327 0.051892 -0.014329 0.077884 -0.080229 -0.084599 -0.012333 0.024698 0.057564 -0.111336 -0.155337 -0.068808 0.050446 0.152052 -0.005341 -0.008234 0.049803 -0.031036 -0.127728 0.122744 -0.051102 0.002674 -0.025511 -0.108368 0.133884 -0.034745 0.127602 -0.199055 0.070829 0.083005 -0.189516 0.082974 0.102745 -0.047534 -0.050352 -0.095539 -0.097480 -0.031705 -0.115557 0.031565 0.113098 0.016812 -0.170233 0.041317 0.180998 -0.125186 0.079867 0.019385 -0.083246 -0.079027 -0.156618 0.057780 -0.052037 -0.128763 0.134816 0.147636 0.049399 -0.034958 -0.038666 0.069475 -0.018630 0.178218 -0.075407 -0.036552 0.020420 -0.015192 0.017464 -0.060324 -0.013410 0.028047 -0.087362 0.183853 0.120531 -0.066444 -0.027152 -0.001471 0.106279 -0.048691 0.062887 -0.084224 -0.027370 -0.252659 -0.015580 -0.025649 -0.184917 0.108223 0.072509 0.059714 0.158561 -0.040816 -0.028840 0.026824 0.186228 0.162067 0.096144 -0.116657 0.209814 -0.062372 0.027857 0.086471 0.119048 -0.058576 -0.053700 0.167152 -0.006869 0.040184 -0.137063 -0.050456 0.137728 0.077867 0.076079 -0.131480 0.017881 -0.118113 -0.037661 0.095912 -0.084470 0.085393 -0.132568 0.052928 0.027556 0.072440 -0.171658 -0.130177 0.173512 -0.128436 0.214417 -0.095617 0.070587 0.060679 -0.073148 0.024419 -0.157950 -0.119190 -0.036657 0.006122
-0.016773 -0.081691 -0.010163 -0.012345 0.131967 0.144577 0.108039 0.167078 -0.073357 -0.122441 0.018084 0.144166 -0.027094 0.011587 0.134451 -0.050016 -0.015327 -0.054273 0.026178 0.076410 -0.167088 -0.021517 -0.045924 -0.016243 0.024862 -0.004572 0.181193 0.017160 0.163639 -0.093665 -0.070939 0.065985 0.030058 -0.098319 0.089092 0.001550 -0.016216 -0.075457 -0.032602 0.059271 -0.181180 0.098180 -0.150764 0.149331 -0.011713 0.028204 -0.003598 0.083537 0.105300 0.056934 -0.018356 -0.164098 0.037340 -0.048703 0.064272 0.007054 0.030854 -0.114748 0.001147 -0.018464 -0.085760 -0.077048 -0.173005 0.070334 0.176806 -0.006009 -0.085489 -0.026463 0.187418 -0.001487 -0.148946 0.046197 0.067197 -0.244983 0.038208 -0.263274 -0.028053 -0.063621 -0.008669 -0.199639 0.043192 -0.009129 0.172896 0.016326 -0.071684 -0.176156 -0.033837 -0.258770 0.052056 -0.141555 0.056213 0.052141 0.113411 0.086487 -0.044997 0.066457 0.037812 0.191944 0.151667 0.070104 0.053040 -0.109908 -0.106419 -0.175304 -0.084326 0.061329 -0.047097 -0.061149 0.176608 0.094857 -0.035928 -0.000004 -0.003264 -0.039935 0.121017 -0.039009 0.018205 0.072150 0.057617 -0.109546 -0.060078 -0.093210 0.100043 -0.009686 0.042827 -0.066002 0.117651 -0.261595 -0.079750 0.033121 0.132093 0.075305 0.088208 0.025485 -0.095659 -0.133159 -0.077776 -0.069635 -0.122428 -0.048200 0.036033 0.100462 -0.022882 0.085864 0.044350 0.117353 0.013877 -0.065610 0.096008 -0.085716 -0.022677 -0.084788 -0.015133 -0.015187 -0.065643 0.076972 -0.158126 -0.088777 0.042127 0.032124 -0.052295 -0.000753 -0.064007 -0.116058 -0.050434 0.064444 0.108015 -0.098905 -0.012025 0.089173 -0.057825 0.115809 0.078973 -0.018721 0.196087 0.045030 -0.004795 0.007474 0.007008 -0.020435 -0.091980 0.254199 -0.109126 -0.044936 0.059661 -0.095381 0.074469 0.058633 0.083073 -0.133778 -0.107195 -0.042908 0.004022 0.185516 0.040225 -0.124000
-0.038573 0.010077 0.095719 0.073318 0.061765 0.182731 0.316742 -0.115427 -0.036847 -0.015719 0.130045 0.020828 -0.044656 0.179411 0.014981 0.040001 -0.055465 -0.002431 -0.060853 -0.019082 0.038969 -0.093482 -0.037895 -0.264530 -0.048491 0.005404 0.022455 0.071314 -0.017627 -0.006627 0.010590 0.057533 -0.110037 -0.091212 0.047094 -0.048138 -0.007116 0.001525 0.067300 -0.046387 0.150608 -0.058378 -0.051086 -0.012347 0.110758 -0.015599 -0.147987 0.038598 0.073616 -0.083027 0.071591 -0.100227 0.031334 0.080700 0.018652 -0.116064 0.008234 0.101574 0.050859 -0.094839 0.093504 0.074900 0.036279 -0.030753 -0.157000 -0.031972 -0.047653 -0.137538 0.086207 -0.119863 0.020970 -0.068692 -0.127987 -0.149130 -0.080314 -0.006224 -0.018558 -0.070791 -0.003754 -0.077774 0.137098 -0.159529 -0.110369 -0.055749 -0.121447 -0.087585 -0.103661 -0.033567 0.040831 -0.108739 0.064547 -0.106310 0.056722 0.129102 0.145046 -0.004241 -0.076251 -0.171751 0.080170 0.135210 -0.005449 0.001887 -0.103737 -0.011376 0.089081 -0.174140 0.034214 -0.114975 -0.061687 0.060900 0.125954 0.147225 -0.024215 0.155635 -0.127436 0.004944 -0.010130 0.055187 -0.022581 0.015274 0.105987 -0.074412 -0.022420 0.092279 -0.121556 0.125919 0.034069 -0.005258 0.002468 -0.013276 0.009282 -0.080917 0.109479 -0.163181 0.069196 0.089640 0.014819 -0.000627 -0.103109 0.066055 -0.095409 0.012032 -0.093070 -0.015385 0.086947 0.027431 0.026465 0.032389 0.001800 -0.061065 -0.156693 0.052952 -0.166254 -0.060507 0.061678 -0.018869 -0.105050 -0.080695 0.061129 0.059141 -0.059479 0.003982 -0.062929 -0.208206 0.009564 0.089294 -0.027985 0.011305 -0.039382 -0.104651 -0.015844 -0.011494 -0.040777 -0.008343 -0.076173 -0.094809 0.081696 0.071813 0.035197 -0.067088 0.022369 -0.092460 0.040742 0.077875 0.079520 -0.059024 0.085207 -0.013096 0.070172 0.045690 -0.078368 0.167171 -0.056937 -0.081512 0.030287 0.072741
0.065089 0.000593 -0.044020 -0.112957 0.055710 0.016992 -0.093359 0.068125 0.045763 0.137645 -0.121003 -0.013271 0.001006 -0.057727 0.048781 0.158313 -0.060329 -0.046608 -0.056407 0.010778 -0.096333 -0.005767 -0.182159 -0.000798 0.157791 0.171709 0.024585 -0.000741 -0.057175 0.104302 -0.041012 -0.047527 0.034676 0.103797 0.082129 0.013228 0.101170 0.146730 -0.017817 0.116780 -0.075108 -0.018403 -0.135780 0.207381 -0.032523 0.131333 0.002237 0.025751 -0.168527 -0.025883 0.107659 0.015172 0.004487 -0.038190 -0.024844 0.052829 -0.094525 0.092978 0.070167 -0.093237 0.139377 0.079643 -0.157103 0.039918 0.057903 0.033097 -0.141371 -0.063581 -0.095364 -0.141746 0.108407 -0.022176 0.052445 0.008492 -0.075773 -0.116796 -0.198849 0.074197 -0.017783 -0.053098 -0.088015 0.197927 -0.032309 -0.051309 0.067132 -0.107274 -0.034985 -0.033338 0.096507 0.001474 0.153067 0.013166 0.077239 0.028992 0.114935 -0.055155 0.138699 -0.072955 0.064480 -0.112177 0.021581 0.035431 0.023666 -0.099097 0.001563 0.024878 -0.112086 -0.055610 -0.047006 -0.091011 -0.049127 -0.116176 0.041730 0.017191 0.108502 0.048186 -0.166735 0.068009 -0.000401 0.047559 0.057057 0.126918 0.073755 -0.005335 0.048642 -0.085423 -0.033283 0.037084 0.069236 0.211298 -0.001970 -0.117889 0.020061 -0.060669 -0.036049 -0.077898 -0.095583 0.084874 0.220146 0.102641 0.143099 -0.129287 -0.084096 -0.121372 -0.089941 0.036712 -0.062420 -0.023373 0.090499 0.044432 0.014717 -0.074106 0.204406 -0.074105 -0.021754 -0.041512 -0.029614 -0.113679 -0.058813 0.225081 0.044207 -0.058658 0.043755 -0.103498 0.091343 0.059129 -0.059330 0.016798 -0.190570 -0.061651 0.162131 0.140086 -0.094568 0.175552 -0.195246 0.047219 0.037415 0.023025 0.020182 0.017119 -0.098780 0.004881 0.089258 0.085332 0.010636 -0.006985 -0.162521 -0.028675 0.060832 -0.019386 -0.050033 0.154934 0.109682 0.075920 -0.003435 0.032951
0.095593 -0.031684 0.046034 -0.071606 0.177762 -0.020740 -0.051211 -0.045520 0.186103 0.055971 0.108065 -0.192296 -0.064881 -0.092001 -0.071907 -0.043326 -0.061109 0.023449 0.060475 -0.041272 -0.108320 -0.004369 0.028109 -0.002157 0.156908 0.140848 0.014111 -0.106399 0.082626 -0.016080 -0.023535 0.046104 0.068839 -0.086297 -0.062069 0.022200 0.003049 0.032618 0.017125 -0.099626 0.039681 -0.002688 0.114772 -0.176798 -0.010268 -0.122396 0.043820 0.012153 0.008436 0.016369 0.094159 -0.088225 0.088144 -0.021461 0.119386 -0.072730 0.068346 0.085269 -0.084983 0.103493 -0.027610 0.085123 0.166733 0.013620 0.009024 0.049429 -0.055840 -0.048411 -0.003597 0.052377 -0.040544 0.063575 -0.137104 0.054642 -0.110745 0.105772 -0.069432 -0.112601 -0.017136 0.037002 0.084827 -0.098316 0.030183 0.011252 0.075744 0.204087 0.036288 0.032405 -0.168039 0.141601 -0.177774 -0.065658 -0.075656 0.094606 0.226070 0.078715 0.087615 -0.001787 -0.089018 -0.061416 0.035971 -0.067339 -0.039630 0.002456 -0.039476 -0.074732 -0.050635 0.162650 -0.043067 -0.127233 -0.027126 -0.132274 0.068461 -0.120939 -0.042177 0.092509 -0.039537 -0.021160 -0.007493 0.122042 -0.126366 -0.007569 0.196098 -0.086652 0.056111 -0.038794 0.035422 -0.000581 -0.112725 0.019799 -0.128369 -0.043364 -0.028086 -0.086113 -0.032335 0.108691 0.021876 0.030401 -0.042857 0.011643 -0.019978 -0.026294 0.044431 -0.034279 0.017820 -0.103039 -0.113653 -0.034317 -0.019758 0.001587 0.088546 -0.081183 -0.048510 -0.097868 -0.125141 0.059695 -0.099225 -0.049896 -0.117215 -0.057133 -0.067897 0.021686 -0.095342 0.306493 0.097341 -0.110908 -0.026922 0.198744 -0.002848 -0.069501 0.037270 -0.033770 -0.116258 0.050483 0.016670 -0.072498 0.054375 0.066845 -0.056460 -0.022024 0.054183 0.057628 0.099841 -0.051921 -0.030449 0.000526 -0.030075 -0.094329 -0.179532 -0.031484 0.024034 -0.073896 0.015771 0.000781 -0.040382 -0.044301
0.135894 0.037590 -0.064618 -0.069702 0.015038 -0.016704 0.081095 0.011043 -0.064239 -0.059097 0.026968 0.119932 0.136386 0.036391 0.059220 0.048851 0.177556 -0.163839 -0.015286 -0.072394 0.024552 0.196465 0.109330 -0.053128 -0.054897 0.080631 -0.123343 -0.142899 0.170934 0.031923 0.153887 -0.025162 -0.134069 -0.002645 0.022469 0.090543 0.001815 -0.141061 0.101923 0.114008 0.069623 0.043916 -0.035513 -0.109492 -0.197149 0.092328 -0.140460 0.014669 0.001982 0.115809 0.004540 0.060298 -0.012995 0.005651 -0.051345 0.073344 -0.138970 -0.041951 0.167483 0.034406 -0.018239 0.095985 -0.086363 -0.011549 0.089870 0.083538 0.023074 0.062304 0.103208 0.010756 -0.157171 -0.132244 0.061464 0.029008 0.082246 -0.027906 -0.098812 0.151985 -0.076947 0.048686 -0.145938 -0.002311 -0.069208 0.092128 -0.083907 0.127179 -0.013356 -0.157724 0.073222 -0.064013 0.048377 -0.088027 -0.135482 0.046815 -0.088994 -0.105997 -0.019249 0.005577 -0.009553 0.002664 -0.146912 0.130962 0.157787 -0.147319 -0.084826 0.017254 -0.150966 -0.039883 0.008873 -0.112020 -0.070746 0.134722 -0.012287 0.005007 -0.005989 -0.079332 0.054317 -0.073263 -0.245398 0.021474 -0.134850 0.086231 -0.061041 -0.082466 0.047392 0.129661 -0.090225 -0.100276 -0.049810 -0.030090 0.053687 -0.043573 -0.131311 -0.033355 0.114247 0.008891 0.003478 0.033429 0.037011 0.085726 0.039121 0.018620 0.175661 0.057182 -0.072685 0.114053 -0.130763 -0.012930 0.033924 0.046274 -0.061358 -0.096191 0.026947 -0.048149 0.049046 -0.049264 -0.124291 -0.114675 0.092122 -0.079153 -0.037411 0.028434 -0.030644 -0.074536 0.063290 0.053818 0.079237 0.093772 0.029358 0.012124 -0.042451 -0.023122 -0.133623 -0.089497 -0.105359 0.059972 -0.046349 -0.031238 0.078800 -0.225795 -0.031724 0.031987 0.137691 0.114932 -0.012488 0.064761 0.113195 -0.152851 -0.047012 0.084445 0.001769 -0.107580 -0.037998 -0.014393 0.048643 0.037535
-0.025207 -0.043437 -0.055978 0.003384 -0.048511 -0.046638 -0.044403 0.074358 -0.217048 0.115986 -0.158433 -0.076528 -0.002717 0.019038 0.048667 -0.003554 0.045590 -0.092243 -0.019121 0.052943 -0.101598 -0.039203 0.055164 -0.050964 -0.010620 -0.073676 -0.050456 0.089087 0.016958 0.134093 0.044679 -0.000862 0.084718 -0.030588 0.064929 -0.032225 0.002907 -0.070407 -0.080985 -0.181302 -0.047681 -0.149707 -0.032036 -0.052719 0.018979 0.182860 -0.019823 -0.045409 -0.181009 -0.052649 -0.010171 -0.071275 0.037226 0.075997 -0.003612 -0.032488 -0.064404 -0.026550 0.106078 0.068010 0.064833 0.133547 -0.111877 -0.043105 -0.085512 -0.017837 0.022160 -0.174919 0.063839 -0.077175 0.110125 -0.007863 0.257816 -0.193160 0.021402 -0.093787 0.050028 -0.094287 0.046059 0.128581 -0.009959 -0.083878 0.010254 -0.026228 -0.039337 -0.029138 -0.034653 -0.149523 -0.081093 -0.027722 -0.023130 0.093955 -0.178550 -0.166626 0.062975 0.182755 0.076801 0.069446 0.121239 -0.137140 0.118910 0.045040 -0.065569 0.043466 0.009894 -0.044843 -0.006446 0.043478 0.075606 0.026489 -0.016772 -0.129860 -0.160610 -0.035491 -0.059451 -0.005605 0.031271 -0.056954 0.105177 -0.117843 -0.056586 -0.010198 -0.013249 0.022493 0.059626 0.044575 -0.052428 0.161527 0.084389 0.145942 -0.022724 0.014704 -0.073383 0.011247 -0.035301 0.063707 -0.117883 -0.060943 -0.084922 -0.058853 0.057635 -0.167737 -0.005602 0.019103 0.074305 -0.041770 -0.028727 -0.112747 -0.085174 0.093258 0.041930 0.080802 -0.114065 -0.076932 0.113522 -0.058233 -0.047087 -0.132973 0.072424 0.173560 -0.073544 -0.043438 -0.062387 0.099805 0.066563 -0.107705 0.127056 -0.029616 0.050946 -0.122348 -0.027753 -0.026285 0.097507 0.121395 0.025447 -0.045492 0.036870 -0.002893 -0.103520 -0.032284 0.118099 0.071192 -0.007078 0.179016 -0.002264 -0.011615 -0.144354 -0.023510 0.211002 0.088511 0.048097 0.009735 0.068505 0.037185 -0.025969 0.083570
0.042007 -0.036838 -0.063427 -0.012831 0.027178 0.100618 -0.207710 -0.139467 -0.085124 -0.111477 -0.063983 -0.044737 0.161352 -0.047579 0.084036 -0.140993 -0.016976 0.076207 0.027314 0.067537 0.079226 -0.011245 -0.031507 -0.001906 -0.090449 -0.055907 0.032763 0.027963 0.160938 0.031719 -0.004468 -0.056628 -0.003964 -0.193716 -0.036200 0.058743 -0.048203 -0.001397 -0.142451 0.280586 0.072791 0.142548 -0.073282 0.063349 0.100475 -0.045439 -0.133179 0.093143 0.070732 0.016665 0.072368 0.080001 0.049801 -0.033691 0.049657 -0.017735 -0.050160 0.066799 -0.118974 -0.026397 -0.133643 -0.037520 -0.104694 0.020353 -0.013410 0.103847 -0.127412 0.043025 0.048378 -0.051595 -0.048327 0.007237 0.122808 0.061850 0.131530 0.109419 -0.143099 0.095559 0.238125 -0.013406 0.036140 -0.087028 0.046352 -0.060030 -0.009484 0.246024 0.100364 -0.059696 -0.029841 0.001642 -0.061563 -0.089337 0.095038 -0.043596 0.016308 0.125612 -0.215096 -0.117664 0.017104 0.135444 -0.049586 0.004918 -0.025110 -0.104325 -0.032840 -0.012733 0.064752 0.034546 0.099257 0.282251 0.012418 -0.106329 0.025657 -0.216435 0.064957 0.080294 0.031579 -0.046054 -0.109541 -0.065921 -0.070099 0.065881 -0.062140 -0.119951 -0.129700 -0.114594 -0.107184 0.015958 0.001220 0.042095 -0.031185 -0.143563 0.010374 0.006489 0.178833 0.032718 -0.063298 0.170596 0.040917 -0.180297 0.067747 0.032948 -0.040993 0.056566 -0.076039 0.093813 -0.011236 -0.006187 -0.157208 0.000648 -0.015222 -0.053801 0.149047 0.031239 0.109303 0.027850 -0.062873 -0.230427 -0.051633 -0.018326 0.008159 0.059576 -0.034239 0.028099 -0.093735 0.017673 0.200700 -0.016887 0.063285 -0.175326 0.009791 -0.057421 -0.035818 0.037594 -0.033017 0.061147 -0.021394 0.105696 -0.139973 0.116168 0.047639 -0.063782 0.059448 -0.053699 0.050871 -0.157019 0.105920 -0.061217 -0.052922 0.106657 0.056541 -0.077351 -0.056398 -0.073451 0.013716 -0.248093
0.100010 -0.105327 -0.007613 -0.029296 0.026327 0.122270 0.163130 -0.020422 -0.119682 -0.095672 0.036765 0.054476 -0.025664 0.022612 0.017903 0.065535 -0.076795 -0.041427 -0.062457 0.096197 0.181938 -0.223227 -0.016399 0.145739 -0.068659 -0.137334 0.182872 0.004147 -0.187537 -0.020079 0.012129 -0.045167 -0.091766 0.134684 0.030174 -0.141706 -0.143076 0.020212 0.152171 -0.022384 -0.063854 0.006053 -0.045391 -0.000819 -0.072164 -0.121218 -0.121926 -0.106781 0.086830 0.037902 0.053590 -0.028618 0.151425 -0.015315 0.014537 0.054501 0.049934 0.037516 -0.075707 -0.097095 0.014143 0.036051 0.002056 0.009800 -0.245713 -0.019603 0.015962 -0.059872 0.045592 0.025031 -0.014983 -0.144331 -0.230113 0.098460 -0.102789 -0.040071 -0.057504 -0.006551 -0.264053 0.020275 -0.073243 -0.023126 -0.137929 0.054965 -0.023800 0.020025 0.043207 0.110432 -0.075400 0.088456 0.019331 -0.019437 0.156945 0.158926 0.044251 -0.011219 0.045969 0.020311 -0.049406 0.009043 -0.042642 -0.031040 0.095236 0.037769 -0.064203 -0.095812 -0.074019 -0.037229 0.013100 -0.017338 0.101920 0.072213 0.091163 -0.014606 0.117429 -0.142958 0.085864 -0.024521 -0.052730 0.057229 -0.172034 0.119219 -0.046915 -0.004576 -0.061906 0.237942 -0.161616 -0.101693 -0.030182 0.024955 -0.024485 -0.012068 -0.097073 -0.040673 0.075892 0.009278 -0.076109 -0.055593 -0.007179 -0.057083 0.163338 0.053370 0.065864 -0.203606 0.062894 -0.072182 0.097674 0.020540 -0.001708 0.098895 0.043146 0.018930 -0.064627 -0.054758 -0.003988 -0.062916 0.147262 -0.027564 0.003859 -0.009922 -0.077715 -0.048063 0.244420 -0.069529 -0.107035 0.000476 0.030127 -0.031807 0.097914 -0.047672 -0.005778 -0.027220 0.014806 0.010917 0.012684 0.028207 -0.050706 -0.099262 -0.019083 -0.059628 -0.260972 -0.141323 -0.070857 0.095341 0.071833 -0.005801 -0.061038 -0.001611 -0.008836 -0.173385 -0.076455 0.024365 0.018238 -0.086161 -0.064295 -0.061484
