0.141992 0.003422 -0.029428 -0.103165 -0.041031 0.058648 0.177336 -0.032860 -0.053389 -0.053493 -0.038134 0.134581 0.024271 -0.064814 -0.058079 0.169597 0.062478 0.018619 -0.014406 0.002851 -0.092435 -0.030617 -0.074609 -0.100444 0.016986 0.042268 -0.023004 -0.110945 0.077839 -0.051951 -0.104659 0.027681 -0.060588 -0.173301 -0.054703 -0.000724 0.002383 0.018551 0.152572 -0.066843 -0.018187 0.068066 0.004774 0.037393 -0.200344 -0.065241 0.012228 -0.097398 0.035378 -0.021066 -0.024239 0.001199 -0.033065 0.055155 0.069945 0.015657 -0.060890 -0.042116 0.086401 -0.015014 0.008116 0.029199 0.099610 -0.204504 0.112744 0.008028 0.200245 -0.177825 -0.004553 0.061428 0.056811 -0.009135 -0.043926 -0.023653 0.110810 -0.097654 0.035834 -0.087899 -0.057358 -0.116081 -0.053102 -0.059071 -0.000177 -0.005508 -0.088077 0.102282 -0.006145 -0.030155 -0.035340 -0.060935 0.012701 -0.122196 0.051715 -0.001478 -0.135747 -0.031123 0.001389 -0.023600 0.075583 -0.029507 0.071681 -0.011238 -0.105390 -0.021048 -0.048563 -0.054307 0.109520 0.156989 -0.056652 0.107571 0.010563 0.005988 -0.010546 -0.053959 0.078334 -0.039656 0.059379 0.023911 -0.075102 0.070138 -0.002573 -0.070974 -0.028890 0.061660 0.065460 -0.119556 -0.041740 0.082869 -0.132955 -0.020597 -0.068383 -0.144392 -0.053664 0.077469 0.104632 0.001330 -0.149009 0.001700 0.107531 0.048823 0.073217 0.007222 -0.081374 -0.012191 0.035510 -0.031014 0.052305 -0.130830 -0.075597 0.000423 0.040868 0.058446 -0.045476 0.066694 0.062882 -0.149022 0.154635 0.092986 -0.066666 0.037298 0.003057 -0.015597 -0.021961 -0.090479 -0.033771 0.075444 -0.081128 0.009861 -0.033919 0.020052 -0.143732 -0.163848 0.001928 -0.071156 -0.046012 -0.069327 0.094478 -0.034482 -0.059451 -0.082410 -0.026447 -0.004357 0.050196 0.029390 0.071206 0.012723 0.059037 -0.001023 -0.054091 -0.121325 0.025703 0.057527 -0.031981 -0.087440 -0.124783 0.059006
-0.001965 -0.042481 0.108607 0.104083 0.026157 0.009898 -0.069724 0.130226 0.040804 -0.102642 -0.018237 -0.031675 -0.091369 0.054692 -0.067433 0.019605 -0.071729 -0.114812 0.009118 0.075241 -0.146954 -0.020751 0.137100 0.117610 0.054674 0.056274 0.130589 -0.034366 0.016606 0.042711 -0.010052 -0.034006 0.094208 0.056268 -0.075536 -0.137866 -0.054284 0.173386 0.002116 0.017240 -0.012822 -0.069117 0.147937 0.069360 -0.010988 0.101120 -0.060921 -0.056977 0.028140 0.005205 0.076754 -0.013853 -0.117443 0.057348 0.109434 0.054552 -0.036708 0.045082 -0.076667 -0.041076 0.093826 -0.036782 -0.032590 -0.043487 -0.060878 -0.093875 0.021283 -0.054189 -0.086048 0.018794 -0.097311 0.038194 -0.056766 0.050220 0.079892 0.019322 0.078032 0.062922 0.013525 -0.006373 0.071593 -0.077292 0.011178 0.057358 0.062622 -0.106519 0.003148 0.013479 0.026626 -0.040093 0.065071 -0.054129 0.048384 -0.030598 -0.005394 -0.023669 -0.098201 0.055280 -0.008812 -0.063723 0.068137 0.014659 0.079463 0.037749 0.073782 -0.047921 -0.097862 0.112970 0.238886 0.167786 0.042080 -0.018505 -0.101272 0.021493 -0.032621 0.009971 -0.065456 0.074279 0.077102 -0.011935 0.147751 -0.064691 -0.143430 -0.051662 -0.066486 -0.079507 0.045341 -0.112644 0.134414 0.061281 -0.055690 -0.120306 -0.103570 -0.063200 0.075705 0.026070 -0.062173 0.080904 -0.068730 -0.102979 0.031446 0.054491 -0.034380 -0.042899 0.146070 0.120399 0.035402 -0.060602 0.000115 -0.041934 -0.070406 0.029868 -0.030098 0.076631 -0.110225 -0.010333 0.088600 0.014381 0.027178 0.003279 0.046986 0.001028 -0.035315 0.100886 -0.058310 0.065017 0.046554 0.012348 -0.015970 0.037188 -0.070728 0.051373 -0.131006 0.005185 0.022475 0.086283 -0.087035 -0.068120 0.048301 0.033689 0.072807 0.059153 0.013754 0.080356 -0.128873 0.093881 0.004152 0.045681 -0.053837 -0.054485 0.037668 0.105292 0.028685 0.051582 -0.005328 -0.026552
0.066398 0.077865 -0.015566 -0.056041 -0.000012 0.013573 -0.151632 0.125806 -0.012502 0.011910 -0.030064 -0.032522 -0.046926 -0.079164 -0.063002 0.008298 -0.062314 -0.042875 -0.019600 0.115188 0.099915 0.006771 0.036306 0.050293 0.111379 0.030969 -0.026239 -0.021347 -0.067572 -0.012976 -0.066008 0.044756 -0.026443 0.026572 0.008187 0.191928 0.029219 -0.011509 -0.137764 0.068142 0.012656 0.062517 0.007759 -0.085723 -0.096333 0.056458 -0.000379 -0.057075 -0.110352 -0.002494 -0.101295 0.063082 -0.034350 0.251735 -0.021393 -0.001874 -0.021038 -0.009126 -0.007395 0.047792 0.021346 0.007234 -0.009879 0.063112 -0.117429 -0.027946 -0.129980 0.047446 -0.068112 -0.052931 -0.041853 -0.036442 0.059283 -0.030942 -0.013021 0.025894 -0.021324 0.074245 -0.001827 0.031378 0.075952 0.094182 0.025330 -0.058474 -0.015836 0.123203 0.052275 -0.052052 -0.077658 0.044075 -0.110660 -0.096040 -0.012804 0.079357 -0.028442 -0.045522 0.119037 0.032651 0.021364 -0.055810 -0.146697 -0.061080 -0.066996 -0.040089 -0.022379 -0.012887 0.043307 0.070741 -0.059710 0.009246 0.014059 -0.037112 0.136061 -0.112980 0.060524 0.093951 0.069882 -0.155707 0.011739 0.065995 -0.128907 -0.015452 0.025637 -0.011203 -0.015119 0.164052 0.011638 -0.054531 -0.002541 -0.124830 -0.021225 0.027745 0.007407 -0.068112 0.020837 0.192697 -0.038488 -0.083609 -0.040381 -0.103134 -0.023291 -0.047464 0.052970 0.037373 -0.073170 -0.011477 -0.157960 0.029483 -0.131407 -0.065536 -0.017958 -0.026686 -0.032587 -0.038733 -0.096785 0.102807 -0.048468 -0.067477 0.041894 0.131519 0.020180 -0.002608 -0.025294 -0.067067 0.023552 -0.096840 -0.094682 -0.061665 0.027590 -0.060298 -0.044836 -0.027357 0.059475 0.141254 -0.025012 -0.012583 0.056982 -0.010782 -0.015099 0.042167 -0.042596 0.075239 0.002309 -0.121373 0.063954 0.049483 -0.054327 -0.072388 0.108314 0.059770 0.021627 -0.128717 -0.065171 -0.135129 0.029702 -0.068547
-0.106269 -0.060789 -0.173058 0.220392 -0.044098 -0.059944 0.056573 0.066226 0.075560 -0.013431 -0.048288 0.014003 -0.120761 -0.081882 0.151662 0.133493 0.125250 -0.081455 -0.133978 0.015673 -0.114386 -0.074090 0.060117 -0.129052 -0.002063 -0.078096 0.088712 0.109884 -0.112008 -0.042084 0.000930 0.101607 0.149516 0.027178 0.016263 0.145794 0.037019 -0.031547 0.008099 0.086073 0.077409 -0.050793 0.078437 0.038558 0.087544 -0.090813 -0.021653 0.110089 0.123337 -0.074646 -0.005372 -0.038688 0.052764 -0.016423 0.001517 -0.005071 0.056527 0.069539 -0.002414 -0.018319 -0.112694 0.007819 -0.001800 0.062938 -0.062881 -0.090195 -0.112007 0.025951 0.077529 0.113698 -0.038863 -0.057795 -0.000903 0.014200 0.009469 0.141343 0.003950 -0.028011 -0.069691 0.121105 0.028498 0.109310 0.005419 -0.092954 -0.071256 0.002055 -0.010313 0.050057 0.023309 0.085163 -0.089417 -0.043228 -0.047905 0.032847 -0.028810 -0.038182 0.117094 -0.031175 -0.068756 -0.055102 0.148412 0.063462 0.102062 0.064254 -0.025110 -0.026503 -0.014576 -0.142363 0.008414 -0.051413 -0.013746 0.038533 -0.055427 -0.009026 0.009155 0.020542 -0.054376 0.037548 0.024684 -0.014487 0.151385 -0.094968 0.022944 0.032916 -0.114118 -0.000150 -0.131096 0.059893 0.097270 -0.089715 0.042296 0.117816 0.088516 -0.049632 -0.063408 0.122336 0.037857 0.276414 0.102725 0.063091 0.059514 0.030585 0.019205 0.077105 -0.008021 0.050699 -0.080300 0.109355 -0.029483 -0.014237 0.006960 0.191043 -0.099871 0.077585 0.077817 0.060493 -0.007280 0.007940 0.188482 0.025504 0.072201 0.084265 -0.058414 -0.108876 -0.041427 0.059197 0.009508 -0.000291 0.055200 -0.021593 0.043897 0.053056 0.076810 0.045667 -0.141866 0.009091 0.010302 -0.074523 -0.008286 -0.082217 -0.033620 -0.020505 0.039104 0.031048 0.015017 0.069627 -0.044426 -0.021802 -0.048647 -0.013814 -0.016593 0.110186 -0.063944 -0.061387 0.018221 -0.100382
-0.103100 -0.114001 -0.039484 0.009589 0.079248 -0.038274 -0.028724 -0.171373 -0.036416 -0.087780 0.095183 0.048064 0.073268 0.193491 0.043596 0.094862 0.114683 -0.069893 -0.025583 0.077924 -0.048739 -0.026686 0.035040 0.058810 -0.018850 -0.033148 0.032766 0.079136 -0.065971 -0.160338 -0.076597 -0.104259 -0.024058 -0.005057 0.099793 -0.018835 -0.117462 -0.177960 0.018568 0.010245 -0.162983 0.030094 -0.125402 -0.059715 0.041311 -0.098277 0.034029 -0.056171 0.047365 -0.073564 -0.058926 -0.015757 -0.114145 -0.008255 0.019945 -0.038604 -0.089194 0.107754 0.019569 -0.058121 0.090427 0.124848 -0.082064 0.079121 -0.040380 -0.100337 -0.104636 0.166289 -0.139832 0.019364 -0.114416 -0.017305 0.049917 0.010438 -0.178423 0.192128 -0.078177 0.029030 -0.094269 -0.075902 0.088610 -0.101054 -0.056251 -0.002607 0.125199 0.017042 -0.026185 -0.079448 -0.101548 -0.013469 0.012773 0.037866 -0.145037 -0.061067 -0.018200 0.131789 0.104290 -0.075831 0.105649 0.046678 -0.070643 -0.115689 0.020807 -0.054768 -0.152572 -0.019848 -0.061057 0.067725 0.165671 -0.118960 -0.088717 -0.022115 -0.122814 -0.020309 0.123303 -0.046964 0.112449 0.178209 -0.115245 -0.028858 -0.082741 -0.019889 -0.060515 -0.027496 -0.054984 -0.008999 -0.169935 -0.067556 0.076535 0.041693 0.057479 -0.014952 -0.041841 -0.029424 -0.124507 0.093496 0.066480 -0.083537 0.001610 0.151498 0.043590 0.049749 0.129450 -0.010890 0.102902 0.055962 0.053033 0.070406 -0.091835 -0.005462 -0.052128 0.066030 0.034193 -0.067248 0.063641 -0.088332 -0.033947 -0.062145 0.037114 0.104409 0.054979 -0.039157 0.060413 0.045073 0.007819 -0.032106 -0.031672 0.097354 0.016574 0.038877 -0.153602 0.039771 -0.012790 0.050577 0.093233 -0.029512 0.035425 -0.047490 0.084656 0.130459 0.092123 0.102095 -0.060768 -0.070792 0.054920 -0.027549 -0.085761 -0.166006 -0.005388 0.027421 -0.048903 0.029428 0.038781 0.010408 0.040020 -0.130357
-0.062129 0.051618 0.077084 -0.068433 0.014947 0.059227 0.053579 -0.015383 0.103059 0.081257 -0.000843 0.001152 -0.037299 -0.033590 0.014232 -0.155747 0.105205 0.147542 -0.087449 -0.021830 0.054116 0.183758 -0.020861 -0.054275 0.073893 0.135842 -0.041473 0.011050 0.068627 -0.058341 -0.086424 -0.032787 0.064176 0.081764 0.047875 0.216034 -0.048547 -0.032304 -0.057924 -0.057577 -0.064994 0.112118 -0.027666 0.028742 0.000222 0.028254 0.048217 -0.036469 -0.069621 0.060747 0.043228 0.113279 0.054707 0.026735 -0.037586 -0.079825 0.089581 0.054661 -0.005056 -0.078387 -0.046239 -0.052147 0.028468 0.045244 -0.021450 -0.012584 0.074075 -0.030229 0.032323 -0.059844 -0.052117 0.097732 -0.183606 0.099479 -0.010759 -0.007784 -0.090029 0.196496 -0.104670 0.045537 0.034000 0.020789 -0.008932 0.024469 0.079737 -0.018423 0.006629 -0.070249 -0.023532 0.063423 -0.039880 0.064435 -0.000516 0.007940 -0.010457 0.067994 0.071212 0.162519 0.027215 0.001726 -0.129390 0.040660 0.014988 0.023261 0.035064 -0.107472 -0.040869 -0.076617 -0.064717 0.010973 0.004821 0.082197 -0.057848 -0.088625 -0.060886 0.007178 -0.033077 -0.011327 0.027454 0.082043 0.017794 -0.143097 0.074021 0.045607 0.081580 0.055371 -0.242379 0.075099 -0.002947 0.103282 0.039938 -0.043240 -0.004082 0.115659 0.034565 -0.115176 -0.144780 -0.061261 0.034519 0.070459 0.172751 0.014537 0.128067 0.006459 -0.069698 -0.086934 -0.117192 0.046089 -0.060937 -0.068566 0.137787 -0.083625 0.000202 -0.081036 -0.039310 -0.142531 -0.124589 0.001061 0.141342 -0.082609 0.027626 -0.035204 -0.062636 0.044192 0.119119 0.122754 0.063211 -0.039917 0.108874 0.127725 -0.009260 0.029311 0.066038 0.040879 0.053896 0.016621 -0.048435 -0.061400 -0.133564 -0.042639 -0.010963 0.158237 -0.091605 -0.047588 0.074814 -0.022316 0.104751 0.052972 -0.063183 -0.033419 -0.071449 0.041258 0.135338 0.035002 0.007592 -0.010136
0.051760 -0.128925 0.066465 -0.097760 -0.052276 -0.103145 0.134320 -0.007313 0.016943 -0.050915 -0.076189 0.120386 -0.030601 -0.019564 0.086148 -0.003474 0.008144 0.057108 -0.028447 0.055101 -0.040908 0.000140 -0.080851 -0.203442 -0.045141 -0.045902 0.027323 0.065160 0.149756 -0.076368 -0.007306 0.065031 -0.040189 -0.051313 0.008173 0.040370 0.064103 -0.086123 0.212237 0.000819 -0.003158 -0.016600 -0.055069 0.030357 -0.159829 -0.010749 -0.084803 -0.026625 0.048027 0.082307 0.079965 -0.021283 -0.174614 0.122301 0.282463 0.047025 -0.009392 0.003584 0.016057 -0.022862 -0.017364 -0.027376 0.012991 0.038313 0.060440 -0.023926 -0.078924 0.000650 0.000559 -0.003698 -0.043646 -0.031482 0.069240 -0.025389 -0.009658 -0.058643 -0.080366 -0.035423 0.127986 0.069810 -0.145166 0.011300 -0.248388 -0.005236 -0.023821 -0.019054 -0.085627 -0.059922 0.031211 0.093237 -0.051679 0.026374 0.067041 0.161684 -0.055448 -0.134916 0.006486 -0.008102 -0.099577 0.055271 -0.128539 0.072435 -0.075257 -0.085578 0.081629 0.140871 0.094574 -0.062597 -0.090311 -0.181138 -0.094993 0.055055 -0.023576 -0.091415 -0.031464 0.004334 -0.020036 0.038193 -0.040389 -0.078300 -0.029329 0.056456 0.081838 0.053148 0.024521 -0.131022 -0.111326 -0.032007 0.031542 -0.006380 -0.088225 0.075350 -0.042604 -0.039232 0.136391 -0.151069 -0.071176 -0.024224 -0.001744 0.071303 0.077159 0.010076 -0.089124 0.050409 -0.013106 0.025471 -0.032467 0.024601 0.026143 -0.050645 -0.057540 0.071300 0.074954 -0.066668 0.096448 -0.008034 -0.060440 0.124274 -0.015687 -0.044249 -0.010374 0.022574 -0.129910 -0.078113 0.073425 0.034867 0.075142 -0.071089 0.039916 0.034270 -0.001126 0.172232 -0.068151 0.050028 0.059355 -0.081337 0.012305 0.012323 -0.065472 0.080754 0.008996 -0.004440 -0.061074 0.008041 0.006931 0.034333 -0.075657 0.000014 0.232365 -0.098274 0.048366 0.170937 -0.082140 0.024577 -0.001932 -0.040292
0.042307 -0.054144 -0.030291 -0.047931 0.098269 0.129271 0.045934 -0.068556 0.103906 0.079534 0.060023 -0.102230 -0.021941 0.068033 -0.092036 -0.023380 0.013984 -0.072100 0.031827 -0.085333 0.000458 -0.110558 0.007559 0.025476 -0.036708 -0.091219 0.086218 -0.039426 -0.056255 -0.067175 -0.089638 -0.054920 -0.012403 0.058033 -0.014151 0.002935 0.068996 -0.054059 0.015786 0.008448 -0.085306 -0.197538 0.040245 0.079628 0.160918 0.029283 0.012208 -0.047738 0.045171 -0.049127 0.043830 0.008860 0.038500 -0.043568 -0.167184 -0.117617 -0.036949 0.001510 -0.121628 -0.043847 -0.132532 -0.033547 -0.063798 -0.119421 0.146164 0.083971 -0.099398 -0.009919 -0.054503 0.138176 -0.053682 0.110914 -0.000456 -0.018755 0.127060 -0.017924 -0.061235 0.054956 -0.043867 0.007265 0.047209 0.078759 0.011816 0.015686 -0.028224 -0.038454 -0.071496 0.076270 -0.133712 0.007576 -0.031738 -0.048404 -0.060689 0.118176 -0.074825 -0.004164 0.038471 0.184967 0.012097 -0.025826 0.003338 -0.078311 -0.116174 -0.007540 0.059760 -0.101833 0.042093 -0.056339 0.005710 -0.085857 0.023275 -0.006747 -0.021511 -0.053657 0.013122 -0.040609 0.018378 0.007506 -0.007025 -0.032037 -0.132456 0.029708 0.004161 0.044642 -0.021892 0.058103 0.036289 0.014916 0.069515 -0.074478 0.071716 -0.034552 0.080456 -0.071419 -0.054840 -0.103177 -0.108358 0.006095 0.064718 -0.080467 -0.035249 0.051440 -0.073021 -0.057225 0.093194 0.106946 0.058610 -0.121388 -0.033962 0.056217 -0.013441 -0.090833 0.027957 0.101079 0.047384 -0.017147 -0.056249 0.112880 -0.036737 0.050190 0.000289 -0.017200 -0.027342 0.040562 0.029901 0.001195 -0.002678 -0.003560 -0.020498 0.005414 -0.088539 -0.000871 0.014604 0.019925 -0.013127 -0.013329 0.061286 -0.047322 -0.044800 -0.035314 0.034717 -0.107483 0.002877 0.003335 0.011719 0.066143 -0.089129 -0.103768 -0.039607 0.038465 -0.012899 -0.055504 -0.059249 -0.001509 -0.022508 -0.059129
-0.031198 -0.021046 0.159846 0.075614 -0.010477 -0.097918 0.050378 0.119223 0.041042 0.070324 -0.005132 0.045373 0.001286 0.037819 -0.127806 -0.002195 -0.026260 -0.051937 0.053829 0.033682 -0.004425 0.040916 0.010801 -0.064646 -0.005500 0.000715 -0.014100 0.102993 0.019723 -0.063296 -0.200972 0.028711 -0.155343 -0.181639 0.075490 0.018107 0.077933 0.007054 -0.056345 -0.008746 -0.042670 -0.110515 -0.032477 -0.131073 0.027147 -0.014330 -0.001185 0.053296 -0.012551 0.025410 -0.007945 -0.022490 0.129362 0.049580 -0.045966 0.084730 -0.019131 0.112259 0.005385 0.068109 -0.082974 -0.006812 0.025158 -0.010290 -0.066436 -0.069627 -0.043606 -0.036897 -0.136149 0.060907 -0.113814 -0.030758 0.069859 -0.043728 -0.104496 -0.069667 -0.091120 0.080967 0.048371 -0.078018 0.187901 -0.121949 0.059862 0.187362 -0.041446 0.067977 -0.072838 -0.034647 0.089361 0.048472 -0.025736 0.095558 -0.088297 0.075024 -0.011184 -0.135958 -0.044002 -0.043760 0.013498 0.052647 -0.016435 0.120307 0.118698 0.089797 -0.011425 -0.032259 0.043905 0.049211 0.036241 0.105992 -0.036235 0.228150 0.064325 -0.075147 -0.022677 -0.017514 0.043293 -0.029078 0.087104 0.003108 -0.032411 0.109492 -0.036371 0.155062 -0.004519 -0.008891 0.132344 0.124735 0.053166 -0.012451 -0.010837 0.198829 0.052562 0.037001 -0.020896 -0.004989 -0.029917 0.159602 -0.027217 -0.184040 -0.157244 -0.142687 0.079838 -0.059926 0.015464 -0.176042 0.057323 0.164833 -0.040799 0.011575 0.071385 -0.068157 -0.054045 -0.066350 -0.022049 -0.114849 -0.056404 0.053951 -0.139960 0.019963 0.199993 -0.059132 0.110051 -0.054084 0.004759 0.031343 -0.139737 -0.185197 0.016447 -0.039804 -0.025465 -0.038719 -0.029999 -0.096154 -0.047884 -0.032339 -0.196046 -0.059981 -0.038886 0.114790 0.178736 0.139502 -0.075333 -0.014960 -0.082913 0.105207 -0.061154 -0.018329 0.104953 -0.156961 -0.198189 0.001469 0.046510 -0.053139 0.057429 -0.022633
-0.115832 -0.159833 -0.093806 -0.089708 -0.018329 0.040516 0.076130 -0.089193 0.022856 0.001230 -0.012785 0.016919 -0.099369 -0.063086 0.068953 -0.023859 -0.113070 0.022889 0.035890 -0.068101 -0.001910 0.113635 0.036404 0.005012 0.018825 0.124763 -0.152732 -0.014212 0.186940 -0.123524 0.043647 -0.013870 -0.025661 0.095129 0.077513 -0.067196 0.115760 0.121238 -0.075312 0.259897 0.078434 0.022548 0.079213 -0.017956 0.084317 -0.025614 -0.080821 -0.013366 0.019841 0.011129 0.017797 0.051016 -0.073144 -0.024951 -0.100824 0.102984 0.045863 -0.176308 0.090237 -0.025185 0.123069 -0.029673 0.100240 -0.124705 -0.018517 0.040155 -0.032925 -0.108925 -0.064398 -0.043814 -0.121147 0.086472 0.099623 0.176595 -0.005210 -0.043208 0.041709 0.007332 -0.002432 0.043551 0.060071 0.037128 -0.104722 -0.004089 0.015771 0.125626 -0.050715 0.016158 -0.094968 0.022291 0.015368 0.014133 -0.017964 0.011953 0.034438 0.006188 -0.016975 0.024469 -0.020030 0.086892 0.116426 0.021001 0.011969 -0.050256 0.066802 -0.123940 0.055466 0.026269 0.114857 -0.083911 0.165008 -0.050542 0.027507 -0.015733 0.069832 -0.004256 0.029070 0.048173 -0.049949 -0.023761 -0.004305 0.013422 -0.012139 -0.062476 0.035549 0.002219 0.009802 -0.140164 0.040487 -0.124909 -0.015173 -0.056505 -0.021920 0.058416 0.079769 0.141809 0.028691 -0.009983 -0.079148 0.009020 -0.102269 0.017755 0.084700 0.012401 0.098026 0.072040 0.032531 -0.060476 -0.097245 -0.107240 -0.098154 0.057040 -0.008237 -0.094787 0.115200 -0.062312 -0.018001 -0.130545 -0.034388 0.055625 -0.099755 -0.101023 -0.108386 0.173779 -0.010853 0.107041 0.095980 -0.015181 0.008556 0.099543 -0.078531 -0.060087 0.006668 0.088369 0.052177 -0.114158 0.000274 -0.161920 0.015486 0.038761 -0.083021 0.018174 -0.125546 0.010545 0.053056 -0.031560 0.008488 0.215342 0.025663 0.014650 0.024333 0.153652 -0.089121 -0.072227 -0.073188 -0.127940
