0.436924
0.357703
0.206090
0.159046
0.292418
0.447393
-0.498185
0.104599
0.077337
0.297670
0.073106
0.140260
-0.287814
-0.522638
0.278279
-0.391948
-0.472075
0.174728
-0.164871
0.521459
-0.142034
0.218157
-0.537839
-0.159232
-0.529094
-0.404876
-0.251806
0.178991
0.488092
0.404977
-0.427884
0.333171
0.006135
0.146477
-0.179583
-0.308779
0.053546
0.438966
0.270916
0.226964
-0.043669
-0.025053
-0.212226
-0.349543
0.276698
0.149880
-0.201486
0.170889
0.344112
0.534861
0.122927
-0.277764
0.010554
-0.481708
0.353255
-0.335070
-0.407180
-0.459964
0.396006
-0.018865
-0.375347
0.256927
-0.460191
0.014191
-0.016415
0.107567
-0.553642
0.330909
-0.101516
0.382046
-0.436112
0.532935
-0.444225
0.351563
0.183565
-0.465557
0.003738
0.491792
-0.104244
-0.234759
0.306191
0.124008
0.502717
0.500194
-0.407345
-0.022341
-0.164993
0.447167
-0.188250
0.203728
-0.322673
0.040970
-0.181443
0.264626
-0.119304
-0.330773
-0.109534
0.261531
-0.005320
0.102574
0.321316
0.427577
0.072228
0.012804
0.024328
-0.247927
0.088242
-0.384597
0.384043
0.469634
-0.347332
0.243648
0.448386
0.310055
-0.391226
-0.428897
-0.292405
-0.464914
-0.350929
0.048466
-0.414178
0.258487
0.431105
0.040995
-0.422400
0.213043
-0.333714
0.293883
-0.097926
0.421706
-0.253819
-0.337769
0.179886
-0.092296
0.384423
-0.017946
0.373050
-0.471192
-0.066702
0.295561
0.347298
-0.312252
0.097769
0.476688
0.016498
-0.464005
0.323827
0.009583
0.132003
-0.390245
0.272421
-0.367453
-0.484374
0.336588
0.314187
-0.298084
0.123576
0.423920
0.394712
0.003142
0.542549
-0.210984
0.476325
-0.173521
0.548790
-0.410752
-0.306002
0.200519
-0.391360
-0.424107
-0.110001
-0.191125
-0.077913
0.204079
0.470975
-0.366213
-0.021116
-0.100444
0.202774
-0.325145
0.353955
-0.035785
-0.308711
-0.339246
-0.013394
0.285532
0.148689
-0.130197
-0.453548
-0.486327
-0.038797
0.426849
-0.033045
-0.324276
0.427011
-0.523519
0.416548
0.166016
-0.054217
-0.410323
-0.541443
0.039784
-0.281389
-0.087156
0.223093
0.340311
-0.137269
0.355962
0.456506
0.153978
0.408544
0.517408
-0.359637
-0.099453
-0.071285
0.110482
0.029479
0.336197
-0.399153
-0.248359
0.549653
-0.301400
0.032397
0.291584
0.076644
-0.261244
-0.011218
0.145629
-0.324135
-0.137376
0.013949
0.047573
-0.074501
-0.128942
-0.537213
-0.453306
-0.309908
0.381230
-0.361032
-0.018001
0.140446
-0.009882
0.098064
0.438999
-0.183593
-0.395666
-0.235135
-0.274069
0.211787
-0.038707
0.205480
0.132927
-0.312402
-0.186846
0.507190
-0.289034
0.316374
0.014627
0.396887
-0.405303
-0.091973
0.209629
0.135772
-0.398327
-0.004907
0.375520
-0.521935
-0.115532
-0.156215
-0.157137
0.387705
0.372194
0.470132
0.021778
0.477667
-0.418026
-0.089666
0.213310
-0.344442
-0.286325
0.502053
-0.201081
-0.543990
-0.126022
-0.302223
0.436255
0.026106
0.295419
0.040171
-0.525237
-0.527743
-0.478534
-0.423462
0.188220
0.340353
0.194209
-0.308782
-0.268297
0.146031
0.508519
0.288903
-0.222574
-0.312066
0.534878
-0.088950
0.084384
0.375698
-0.118280
-0.405125
0.223021
-0.472606
0.126935
-0.079056
0.355766
-0.279110
-0.126996
-0.501744
0.489829
0.206110
0.332659
-0.072472
-0.415019
0.001108
0.456612
-0.362951
0.029903
0.300786
0.025151
0.030651
0.540223
-0.541003
0.217843
-0.483921
-0.433245
0.373066
-0.410606
0.462137
0.046804
-0.356141
-0.110114
-0.541967
-0.473622
0.273058
0.039857
0.129263
-0.556056
-0.189713
-0.518371
0.033862
0.161694
-0.271071
-0.442943
-0.133871
0.224511
-0.132189
-0.497057
0.426360
-0.067426
-0.311169
0.533403
-0.471623
-0.459205
-0.041147
-0.306712
-0.288743
0.135192
-0.176333
0.002619
-0.117885
0.124162
-0.453276
-0.307410
-0.044619
-0.494403
0.480901
-0.391365
0.047088
-0.203492
-0.488691
-0.181904
0.462772
0.457113
0.177115
0.133410
0.490671
0.485394
0.090305
-0.465144
0.137893
-0.487495
-0.325385
0.331862
0.522101
0.530402
0.376833
-0.526611
0.285493
-0.441969
0.012595
0.376090
-0.117547
0.332353
0.147743
0.111547
-0.466638
-0.278789
0.148363
0.422300
-0.494587
-0.167568
-0.338885
0.178123
0.327492
0.096102
0.162561
0.095189
-0.018764
-0.525467
-0.215290
-0.344353
-0.509635
-0.125395
0.352540
-0.471666
-0.418768
-0.345818
0.080057
0.112227
-0.552069
-0.463048
0.259492
0.354100
-0.352951
0.516570
0.371679
-0.109738
0.501728
0.176466
-0.394726
0.307243
0.390862
0.405288
-0.080164
0.530333
-0.112377
-0.075189
-0.118960
0.277045
-0.170798
0.157898
-0.526268
-0.048015
0.363545
0.298288
0.111424
0.448399
-0.024792
0.298238
-0.358096
-0.460098
-0.425605
-0.340363
0.100572
-0.192868
-0.376061
-0.168037
0.374508
-0.445304
0.202899
0.127474
-0.399071
-0.352825
0.154120
-0.430327
-0.223722
0.366127
0.241626
0.440112
-0.016837
0.535986
0.444077
0.270228
0.488782
-0.539395
-0.274852
-0.507192
0.454316
-0.019964
0.007421
0.054200
0.186989
-0.276426
0.242157
-0.344591
-0.153246
-0.045035
-0.053872
0.400763
0.468498
0.074241
0.452702
-0.227704
0.304299
-0.319797
-0.174706
0.315672
-0.012066
0.373846
0.447872
0.287841
0.111330
-0.196200
0.202018
-0.504355
-0.451655
0.290608
-0.206128
0.539049
-0.478020
-0.455566
-0.533606
0.359900
-0.495430
0.443970
0.028676
-0.183539
0.436563
0.360018
-0.275983
0.487095
0.112984
-0.531071
0.153061
-0.099964
-0.079281
0.333210
-0.281514
-0.126925
-0.539295
0.286067
0.465587
-0.062349
-0.100837
-0.300135
-0.474022
-0.487114
0.324313
-0.120755
-0.013708
0.136454
-0.279625
-0.160221
0.393978
-0.043079
0.204970
0.325586
0.148476
0.427022
0.180109
0.539132
0.146990
0.381460
0.074978
-0.210145
0.128598
-0.387576
0.288175
-0.200739
0.226149
0.468953
0.545813
0.446787
-0.330793
0.363399
0.037478
-0.413101
0.500410
0.014270
-0.510516
-0.008437
-0.050379
-0.072227
-0.363867
-0.050334
-0.233214
-0.135494
0.182522
0.516380
0.144483
-0.057530
-0.010020
-0.063033
-0.115691
-0.428899
-0.347456
0.204199
-0.525620
0.378812
0.320576
-0.443261
-0.300756
0.504570
-0.474268
-0.168662
-0.382399
0.292764
-0.027518
-0.474381
0.001686
0.373755
0.104638
-0.234142
0.197341
-0.300900
-0.531459
-0.076738
-0.161004
0.385742
-0.385954
-0.526140
-0.253010
0.163157
0.358740
-0.530464
0.408003
-0.377717
-0.145892
-0.021154
0.506557
0.508540
0.500135
0.447965
-0.073567
-0.131105
0.344011
0.403867
-0.112059
-0.138157
0.179941
-0.372320
0.410399
0.188408
-0.155301
-0.180847
-0.488339
-0.390645
-0.270019
0.156918
-0.002734
0.173876
0.295045
-0.077451
0.371358
-0.436120
0.074534
-0.488356
0.388607
-0.114950
0.254219
-0.026316
-0.029665
-0.302910
0.529498
-0.462504
0.363202
-0.325407
-0.217472
-0.341592
0.330105
-0.018235
-0.217508
-0.382868
0.467243
0.462960
0.035665
-0.381395
-0.191858
-0.192029
-0.092763
-0.371062
-0.021438
-0.160279
-0.152319
0.111118
-0.192008
-0.371129
-0.078035
-0.413827
0.421479
-0.417210
0.365508
-0.418378
0.115282
0.029923
0.007982
-0.115648
0.173412
0.165929
0.491520
-0.098043
0.356365
-0.469401
-0.040092
0.454355
0.466192
-0.268528
0.476592
-0.421053
0.323204
0.228459
0.068996
-0.057788
0.288031
-0.355344
-0.332818
0.412003
0.423376
-0.295451
-0.510184
0.312975
-0.209938
0.385932
-0.363578
-0.160197
0.511581
0.250200
-0.323824
0.053024
-0.040830
0.474214
0.503196
-0.239945
0.046994
0.360897
0.285857
-0.252053
-0.193708
-0.077530
-0.335875
-0.545237
0.385837
0.369259
-0.143943
0.106200
-0.160270
0.149850
-0.465257
0.387075
-0.387566
-0.011505
0.187693
0.461831
-0.079346
-0.286296
0.073546
0.121863
-0.533499
0.054076
-0.251868
-0.425339
0.298392
0.530245
0.073256
-0.165474
0.240040
0.392837
0.547757
-0.226296
-0.182082
0.264914
0.415657
-0.061581
-0.473241
0.013289
-0.374086
-0.233113
-0.077276
-0.451929
0.187572
-0.353503
0.115731
-0.081726
0.220693
-0.003500
