0.007325 -0.080255 0.075175 0.045820 0.038742 -0.030241 -0.026725 0.010150 0.092894 -0.001225 -0.067890 0.016418 0.082644 0.069043 -0.078077 0.123251 -0.060082 0.026827 0.031012 -0.011534 -0.020787 0.014026 -0.097888 0.090775 0.013592 -0.050269 0.053635 -0.074396 -0.053366 0.056468 -0.024984 -0.079314 0.076242 -0.105006 -0.097225 0.007797 -0.009443 0.026700 -0.075100 0.016731 0.027683 0.053048 0.069685 -0.031440 -0.032834 -0.016637 -0.020186 0.000446 0.003186 0.085168 -0.033817 0.105459 -0.004211 0.005130 0.160929 0.097791 0.024967 -0.020975 -0.014337 -0.034964 0.070241 -0.025977 0.037975 0.015260 -0.021039 0.108054 0.006636 -0.065739 -0.041640 0.041565 0.019147 0.048489 0.016647 0.062672 -0.009830 0.116798 0.065416 -0.122203 -0.026808 0.044047 0.073209 -0.050586 -0.020926 0.016170 0.049307 0.064680 0.052425 0.029097 -0.073521 -0.032992 0.046485 0.012944 0.036237 -0.021422 0.023250 0.023360 -0.058373 0.065130 0.003862 0.104756 0.011835 0.053281 -0.080009 -0.041488 0.043667 0.027276 -0.001573 -0.088702 -0.045534 0.105477 0.043830 0.068360 0.014970 0.083220 0.050503 0.030315 -0.034661 -0.038207 -0.068373 -0.007205 0.024166 -0.023726 -0.008118 0.033204 -0.048606 -0.000330 0.029781 -0.027501 -0.082920 0.013178 0.025751 0.042496 -0.095135 0.020500 -0.011285 0.046215 0.042737 0.092388 -0.005060 -0.077022 -0.017915 0.029325 -0.000007 0.026414 -0.023527 0.017155 0.020976 0.012650 0.086130 0.036778 -0.013317 -0.025793 -0.030334 0.012479 -0.031400 -0.056386 -0.034219 -0.017691 -0.067342 -0.050629 0.106480 0.003374 -0.061073 0.026512 -0.041817 0.000559 -0.003196 0.082071 0.084381 -0.087264 -0.076195 0.022905 -0.033976 0.052626 -0.014768 0.107598 0.016673 -0.002739 -0.032859 -0.024646 -0.037127 -0.039868 -0.036034 0.027001 0.109656 -0.061298 0.153857 0.009021 -0.030298 -0.034682 -0.004859 -0.027519 0.052740 0.039194 0.035699 0.035265 -0.058524 -0.013512 -0.032220 -0.114288 -0.019618 -0.016950 -0.018973 -0.020698 0.100472 -0.012773 0.072855 0.015132 0.018363 -0.065416 0.041672 -0.004833 -0.013415 -0.085106 -0.071955 0.024634 0.004674 0.034057 -0.023293 -0.051318 0.002038 0.025817 0.009172 0.036535 -0.030638 -0.049793 0.011910 0.027367 -0.009317 -0.004256 -0.015315 -0.016443 0.053910 0.035445 -0.020147 -0.091917 0.011861 -0.035369 -0.119134 0.070233 -0.064111 -0.081611 0.021780 -0.009310 0.019065 0.012920 -0.027277 -0.016633 0.060472 -0.081999 -0.003508 -0.032096 -0.008800 0.179929 0.025778 -0.003354 0.097532 0.006020 -0.012728 -0.003320 -0.027967 -0.105096 -0.080006 0.064231 -0.037703 0.086864 -0.027167 0.069764 0.077462 0.065469 -0.015599 -0.004557 0.000937 0.084945 0.059888 -0.007200 -0.018779 0.067965 0.022260 -0.008589 -0.066011 -0.035261 0.019321 0.003897 -0.108391 -0.122066 0.041795 -0.013743 -0.066708 -0.017954 0.023440 -0.055192 -0.062876 -0.055076 -0.021944 -0.012514 -0.024085 -0.008620 -0.012954 0.045861 0.018401 -0.044460 0.047487 -0.051426 0.031574 0.037367 0.032756 -0.010002 -0.076719 0.013655 -0.003568 -0.071095 -0.028470 0.072049 0.013037 0.020421 -0.027150 -0.009397 -0.078552 -0.107331 -0.087343 -0.094937 -0.077593 0.030009 -0.028399 -0.008855 -0.033205 0.005887 -0.005694 -0.042912 0.037476 -0.068649 0.020033 0.032507 -0.001888 0.011258 0.018765 0.001570 0.043570 0.040010 0.063447 0.017287 0.045927 0.033145 -0.005273 0.038178 0.049869 -0.023850 -0.033460 -0.037000 0.084942 -0.079308 -0.045220 0.067533 0.004901 0.007416 0.130712 -0.084712 0.083259 -0.028504 -0.009771 0.014522 -0.045824 -0.021041 0.086471 0.027491 -0.032379 0.002087 0.012411 -0.011838 0.010595 -0.042226 -0.026941 -0.062512 -0.009761 0.048087 -0.090177 -0.025977 -0.026438 0.040774 0.038996 0.030575 0.032685 0.005353 -0.043838 -0.004185 0.089546 -0.049245 -0.015479 0.006440 0.014675 0.009339 0.081558 0.107065 -0.052391 0.024754 -0.019203 0.006156 -0.053896 0.026817 -0.086547 0.023099 0.077289 0.028545 0.020904 -0.008906 -0.043734 0.090407 -0.089323 -0.069781 0.031510 -0.036783 -0.030297 -0.053440 -0.014346 0.127484 -0.028463 0.105269 0.111412 -0.119174 0.013668 -0.092766 -0.029454 0.044268 0.091910 0.028741 -0.023747 -0.012503 0.053152 -0.044258 0.062806 -0.046003 0.058460 0.036662 0.042865 0.048442 0.021255 -0.028530 -0.016296 0.018646 -0.025148 -0.006157 0.077251 0.044633 -0.015659 -0.053921 0.014124 0.037084 0.047735 0.006908 0.063534 -0.021502 -0.010334 0.043303 -0.002591 -0.055182 -0.029209 0.097464 -0.022811 -0.067819 0.015482 -0.011163 -0.068250 -0.089769 0.035918 0.074948 -0.018643 0.019051 -0.010154 0.028505 0.010938 -0.123782 -0.093111 0.058164 -0.006042 0.016224 -0.042646 0.043650 -0.016839 0.149064 -0.004728 0.046911 0.026929 0.004541 0.056326 -0.017732 0.051869 -0.091530 0.053162 0.024713 -0.063070 -0.014973 0.014284 -0.092086 -0.009382 -0.036138 0.000395 0.018114 0.036899 -0.009599 -0.066653 0.024692 0.019703 0.050489 -0.034625 -0.007981 0.063332 0.066281 -0.049507 0.087161 0.014076 -0.031709 0.025896 0.003209 0.100455 -0.069236 0.027374 -0.021867 -0.060897 0.007809 -0.082778 -0.063965 -0.065001 0.038067 -0.033771 -0.072258 0.051895 -0.008100 0.011433 0.014267 0.176328 0.038121 -0.032768 -0.042137 -0.014641 0.067292 -0.033481 -0.049122 0.054139 0.007596 0.002061 -0.030200 0.076140 -0.005917 -0.009078 -0.057534 -0.006677 0.098342 0.014297 0.007109 0.051080 -0.037859 -0.055082 0.031646 0.014153 -0.017408 0.005980 0.025329 0.064778 0.037284 0.045098 -0.039015 -0.088516 0.010937 0.011143 -0.033701 0.066541 0.005629 0.063353 -0.002426 0.015678 -0.028707 0.044592 -0.035603 0.030175 0.003778 0.023404 -0.083259 -0.064865 0.084737 -0.002100 -0.003032 0.124129 -0.075038 0.013585 0.060636 -0.075870 -0.004900 -0.028177 0.046594 0.020768 -0.059236 0.030685 -0.052132 0.072966 -0.053623 -0.049936 0.027694 -0.027336 -0.000702 0.016602 -0.030013 0.005856 0.049361 0.010773 0.025788 0.075692 0.112439 -0.051095 0.049235 0.005797 0.030912 0.016602 -0.010517 -0.011057 -0.003642 -0.048696 -0.032437 0.057484 -0.033012 -0.048647 0.040763 0.004669 0.030928 0.012275 -0.019939 -0.033882 0.046208 0.069532 0.046417 -0.048838 0.078764 0.065600 -0.092021 0.041400 0.102407 -0.029682 -0.029070 -0.027128 -0.036743 0.024346 0.025440 0.035575 -0.142264 -0.147192 -0.082172 -0.082634 -0.052437 0.011957 0.075986 -0.020805 0.099564 -0.111794 -0.063149 -0.004957 -0.006479 -0.031931 0.044515 0.071092 -0.063249 -0.031278 -0.056252 0.002230 -0.045497 -0.006872 0.017249 -0.070966 0.027610 0.070538 -0.023893 -0.073150 0.013140 -0.034699 0.032644 0.053461 -0.022560 -0.048726 -0.003583 0.065478 -0.089483 -0.090054 0.025209 -0.023032 0.013830 -0.000231 -0.020766 -0.006817 0.071041 0.000132 0.037204 -0.047330 0.012544 0.040289 0.018945 -0.006945 -0.085358 -0.018197 -0.051162 0.064135 0.073285 -0.045455 0.021615 0.064840 -0.085078 -0.031145 0.005355 -0.059148 0.061544 -0.057744 -0.013255 -0.083628 0.064771 0.011273 0.029608 -0.006261 -0.088449 -0.072244 0.026832 -0.067294 0.002029 -0.188319 -0.006749 0.027869 0.020064 -0.040945 0.042982 -0.022868 0.014334 -0.048820 0.017848 0.008626 0.003530 0.105386 -0.024941 0.012734 0.051145 -0.004911 0.002301 -0.012545 0.028171 -0.015833 -0.029742 -0.016152 0.033692 0.018557 0.013356 0.035599 0.087330 -0.052973 0.079214 -0.034078 -0.064900 -0.009766 -0.059142 -0.049308 -0.033847 0.090634 0.028651 -0.015643 -0.008472 0.072753 -0.022400 -0.003005 -0.043869 0.031348 0.012214 -0.061338 -0.027660 0.009279 0.024577 0.038118 -0.044462 0.074273 0.074995 0.003388 0.040698 0.024292 -0.052160 -0.097207 0.044969 -0.021507 -0.024339 0.105779 -0.005660
-0.019895 0.034093 -0.048236 0.045685 -0.006159 -0.053399 -0.016527 0.033226 0.002066 0.009484 -0.059461 -0.026517 -0.028654 0.023362 0.060150 0.028730 -0.011737 -0.008042 -0.036405 0.089734 0.068422 -0.014102 0.018587 0.086158 -0.057539 -0.051454 -0.037371 0.034510 0.000415 -0.014321 -0.000559 0.060074 -0.026572 0.047407 -0.017885 -0.039643 0.078651 0.004343 0.023278 -0.082037 0.019192 -0.075826 0.016634 0.022963 0.005974 -0.046131 0.095166 0.043810 -0.027139 -0.033934 -0.095786 -0.044750 0.028663 0.136860 -0.082120 -0.012239 -0.071647 -0.027310 0.085019 -0.003472 -0.016401 0.019773 -0.004553 0.050274 -0.018007 -0.052276 -0.057717 0.072431 0.008447 -0.064988 0.017247 0.044878 0.047479 -0.006693 0.060626 -0.029625 -0.041235 -0.031302 0.003905 0.068224 0.055265 -0.064289 -0.039416 0.056378 -0.070698 0.021671 -0.006539 -0.018306 0.110442 0.028368 0.025992 0.014627 -0.005938 0.026161 0.055978 0.023506 0.079059 -0.031000 0.036639 0.021199 0.031976 -0.030156 -0.044953 0.040988 0.117021 -0.007851 -0.062521 0.027566 0.034788 0.013227 -0.044251 0.096491 0.001189 0.018753 -0.024868 0.038866 0.016921 0.054973 -0.005195 0.027388 0.044439 0.035308 -0.082794 -0.055267 -0.017903 -0.017552 -0.047209 -0.075342 -0.020431 -0.000399 0.038371 0.049291 -0.084273 -0.053665 -0.076480 -0.010639 -0.004670 0.040946 0.004606 0.031055 0.051056 0.010623 0.009635 -0.039301 0.034313 0.001652 -0.043263 0.027808 -0.056381 0.030540 -0.032485 -0.089518 0.000712 0.002787 0.062675 0.016598 0.096561 0.040425 0.051765 -0.045810 -0.034010 -0.153083 0.000033 -0.015850 0.058482 -0.087138 -0.008746 -0.069937 -0.030626 -0.084025 -0.047991 -0.024809 -0.008898 0.092672 -0.008249 -0.038681 0.002450 0.056182 -0.069498 0.028723 -0.009413 -0.001448 -0.064990 -0.011638 -0.010427 -0.010066 0.044866 -0.016683 0.040256 0.052469 0.119914 0.029625 0.045037 0.032913 -0.056255 0.010425 -0.000981 -0.043038 0.031062 0.031695 -0.050433 -0.071745 -0.050077 -0.054765 -0.001502 0.037702 0.047575 -0.049974 -0.044246 -0.005391 0.045371 -0.048365 -0.043271 0.002782 -0.084180 0.015854 -0.052605 -0.042215 0.051391 -0.053294 -0.013781 0.006464 -0.052986 -0.007341 -0.026067 -0.095032 0.002781 -0.030403 0.067114 0.053842 0.063981 0.002433 0.021785 0.041392 -0.051594 0.013044 -0.013069 0.064679 -0.061321 0.051703 -0.012525 -0.016424 0.066296 -0.020233 0.038580 -0.025438 -0.032527 0.024203 -0.034391 0.009770 0.040499 0.004975 0.112346 -0.033715 0.005838 -0.008512 -0.005191 0.022662 -0.011763 -0.022588 0.047234 0.071706 0.050267 0.027884 0.001303 0.021239 0.029664 0.053703 0.049745 -0.111218 -0.011279 0.004295 0.044636 0.102769 -0.106152 0.055978 -0.003299 -0.020627 0.067482 -0.049273 0.054392 -0.119906 -0.031458 -0.006724 -0.023324 -0.031572 -0.087779 0.056575 0.035011 -0.014614 0.040784 0.000415 0.016061 0.009896 -0.020695 0.018296 0.060437 -0.017935 -0.031518 -0.034903 0.084901 0.046176 0.088911 -0.005895 0.090200 -0.102600 0.073785 -0.038165 0.099245 0.135553 -0.020580 -0.034546 0.008723 0.041984 -0.003150 -0.009995 0.014187 0.010063 0.053044 0.058586 0.012419 0.011557 -0.080274 -0.038268 -0.029509 0.003702 -0.047046 0.067330 -0.000169 -0.002290 0.021143 0.060270 0.010365 0.047697 0.017367 0.042616 0.114114 -0.015000 0.008842 -0.068794 -0.034938 0.028702 0.039635 0.029646 -0.069393 0.014118 -0.007981 -0.007013 -0.019975 -0.004555 0.063405 0.027061 -0.045381 -0.057243 -0.001064 0.065841 0.045812 0.049340 -0.028196 0.006833 -0.097223 -0.030074 0.094652 0.036505 -0.090911 0.047089 0.004628 0.035383 -0.007096 -0.021121 0.106645 0.035200 0.040925 -0.060711 0.043439 0.043413 -0.001137 0.007765 0.021358 0.050926 0.021796 -0.005800 -0.056464 -0.061451 0.034310 0.012268 -0.047260 0.050962 0.057531 -0.012544 0.006765 0.083749 0.007271 -0.037066 -0.033132 -0.056961 -0.037446 -0.050474 0.049005 0.005147 -0.066660 -0.032091 0.002776 0.041651 -0.003973 -0.015472 0.044832 0.037354 -0.000179 0.057281 0.064090 0.054892 0.037909 0.070452 -0.034368 0.069427 -0.062137 -0.021000 0.073115 -0.042067 -0.081201 0.018122 0.085427 0.065261 -0.073062 0.017599 0.004601 0.061076 0.038324 -0.064151 -0.025501 -0.056805 0.027432 -0.049489 -0.013542 0.012377 0.084069 -0.035369 0.083168 0.009284 0.048228 0.025840 -0.067810 0.156744 -0.066144 -0.070305 0.037555 -0.010347 0.027915 -0.017989 0.047830 -0.133218 0.079866 0.107095 0.034222 0.105315 -0.028801 -0.003612 0.023004 0.049771 0.081417 0.073334 0.027687 0.038682 0.088004 0.046695 0.027821 -0.027409 0.002749 -0.064902 0.033003 -0.047290 -0.051594 0.038045 0.023006 0.017185 -0.011284 0.020474 -0.028142 -0.015616 0.108397 0.023753 -0.011921 0.062640 -0.015744 0.001694 0.000157 0.032589 0.035817 0.076176 -0.067039 0.071594 -0.019948 -0.000788 0.020366 -0.074152 0.115058 -0.033319 0.001329 -0.005497 -0.038424 0.063293 -0.024472 -0.033680 -0.087938 -0.007719 -0.017406 0.015239 -0.034927 0.028073 -0.010707 -0.035461 -0.024089 0.006340 -0.017801 -0.008397 0.015936 0.068116 0.033092 -0.019292 0.040436 -0.034661 -0.033162 -0.039444 0.127135 -0.041529 -0.021541 0.135947 -0.076850 -0.001395 -0.032021 -0.056988 0.044403 -0.020100 0.002899 0.028204 0.027640 -0.015707 -0.059834 -0.033776 -0.081754 0.048030 0.006011 -0.079376 -0.005153 -0.007830 0.044601 0.010776 -0.000509 -0.063798 0.041388 -0.071063 0.041300 0.001433 0.018561 0.034086 0.044739 0.110683 0.086304 0.033239 -0.055882 0.075191 -0.056060 -0.044630 -0.001248 -0.012405 0.105437 0.043724 0.007619 0.025304 0.001057 0.128762 -0.058004 -0.011687 -0.027462 -0.034886 0.056758 0.024581 0.029555 -0.001306 -0.025804 -0.048411 0.011406 -0.014229 0.012131 0.019556 -0.031114 -0.051820 0.088832 0.052883 0.016093 0.012994 0.045403 -0.017778 0.148820 0.026985 -0.041584 -0.027035 0.094262 0.137301 -0.091888 0.049431 -0.033226 -0.044587 -0.006480 -0.011081 0.035298 -0.022265 -0.033734 0.005810 0.003056 -0.030045 0.038147 0.006598 -0.089606 0.000247 -0.055275 -0.107178 -0.073926 -0.106642 -0.000426 0.046770 -0.027927 0.058413 0.051392 0.003550 0.010531 0.015857 -0.042386 0.117108 0.080142 -0.051145 0.084087 0.052538 0.006242 0.084108 0.004560 -0.040966 0.004908 0.093586 -0.093038 0.016184 -0.041809 -0.092015 0.007517 0.018698 -0.030359 0.042694 0.031465 -0.088334 0.013144 0.010966 -0.022871 -0.071273 0.082798 -0.023614 0.000497 0.048566 0.032187 0.136391 -0.036214 -0.069492 -0.040134 -0.045560 -0.021174 -0.006638 0.117505 -0.004603 0.049403 0.045522 -0.112673 -0.015304 -0.035589 0.072919 0.062715 0.065602 -0.068878 -0.003355 -0.060187 0.056413 -0.054337 -0.072559 -0.071290 -0.094539 0.098613 -0.031365 0.022406 -0.047176 -0.108998 -0.035476 0.090308 -0.000264 0.060692 -0.002027 0.020621 0.051086 -0.106789 -0.069014 -0.033994 -0.058449 0.009902 -0.026688 0.006140 0.019775 -0.052445 0.055830 -0.103267 0.002481 0.011299 0.003267 -0.012135 -0.051352 0.027319 -0.065790 0.029169 0.064119 0.070693 0.003793 -0.035415 -0.031418 0.043997 0.046856 -0.054003 -0.001445 -0.072852 -0.020069 -0.061784 -0.060797 0.049971 0.053786 -0.050531 -0.007447 -0.004528 0.028412 -0.036284 0.062306 -0.071890 -0.029166 -0.112285 0.072827 -0.068760 -0.006410 -0.097089 0.001144 -0.045244 0.048405 -0.055344 -0.047591 0.043800 -0.091180 -0.082558 0.034691 -0.030838 -0.007170 0.043269 -0.096047 -0.040436 0.053130 -0.079389 -0.034704 0.073814 -0.027325 0.024916 -0.069334 0.000401 0.018996 -0.017221 -0.088102 0.003635 -0.027679 -0.071278 -0.112982 -0.033667 0.071207 -0.012324 0.092556 0.024839 -0.064538 0.097023 0.056794 -0.000319 0.109844 0.091756 -0.081073
0.059251 0.055023 -0.017948 -0.051991 0.070456 0.022104 0.028704 0.082751 0.024637 -0.061270 -0.073655 0.049572 0.038400 0.062389 -0.033779 0.004878 -0.071073 -0.032831 0.059006 -0.038337 -0.055733 -0.053622 -0.000195 -0.003021 -0.051290 -0.035871 0.014538 0.012406 0.025293 0.057689 -0.052045 -0.020958 0.010334 -0.055945 0.031465 -0.009714 -0.019695 -0.097954 0.007105 0.000501 -0.030493 0.009353 -0.002442 -0.051942 0.072361 -0.018969 0.006169 -0.043624 -0.035789 0.006560 0.007048 0.038006 -0.008726 -0.092427 -0.011986 -0.037323 -0.038351 0.077919 0.056340 0.039510 -0.027183 -0.018819 -0.062314 -0.039351 -0.036057 -0.036161 0.031171 0.019531 0.005120 -0.119397 -0.054855 -0.014193 -0.044609 0.050114 -0.003362 -0.006729 -0.040486 0.084810 -0.070674 -0.020804 0.091434 0.015467 0.009418 -0.062922 0.078221 -0.000704 -0.075931 -0.064204 0.000182 0.036999 0.005657 -0.014356 -0.048776 0.010045 -0.003617 -0.046636 0.005015 -0.016396 0.001820 0.023596 -0.008498 -0.061857 -0.013816 0.033804 -0.037852 -0.054147 0.036747 -0.013662 0.022703 -0.119658 0.046996 0.025855 -0.003638 0.041146 0.030821 -0.010248 0.065897 0.051930 0.009327 0.007445 -0.015817 -0.028230 0.004690 0.006150 0.040784 0.020378 -0.017474 0.027726 -0.000100 -0.032230 -0.029909 -0.109473 0.040873 0.064616 -0.000154 0.006484 0.116954 0.068007 0.008945 -0.095848 0.035752 0.028902 -0.095279 0.043540 0.077828 -0.051245 0.059288 -0.039091 -0.024042 0.069211 0.080644 0.034900 0.031081 -0.077105 0.000540 -0.021053 0.027917 0.084361 -0.076391 -0.066509 -0.084708 0.094977 0.014505 0.107350 -0.046516 0.004564 0.004418 -0.006845 0.162915 0.084368 0.034357 0.072747 0.000581 -0.033072 -0.043183 -0.010407 0.012842 -0.014143 -0.008561 0.035703 -0.090026 0.037993 0.035775 0.005981 -0.002441 -0.010248 0.003340 -0.107221 -0.025860 0.120230 -0.003840 -0.055362 0.004532 0.035271 -0.000318 0.059997 -0.019833 -0.027312 0.024103 -0.127464 -0.007118 0.061307 -0.019332 0.022213 -0.095059 -0.005632 -0.080557 -0.051297 0.073825 -0.027858 0.013836 -0.023362 -0.023532 -0.076723 -0.043059 -0.008708 0.021103 -0.059319 -0.063273 -0.037105 -0.051832 -0.025550 -0.002558 0.007843 -0.054970 0.046779 -0.045381 -0.007797 0.001407 0.080939 0.082542 0.061476 -0.021450 -0.003516 -0.014359 0.100264 -0.060444 0.124814 -0.074964 0.100039 -0.037964 0.021746 -0.099177 -0.011995 -0.034601 -0.007183 -0.044432 0.042838 -0.092097 0.032880 -0.036794 -0.085358 0.028837 -0.024592 -0.178632 -0.006854 -0.017169 0.034033 0.039269 0.064706 -0.075969 -0.008920 -0.026609 0.025487 -0.071839 0.068082 0.060468 -0.002694 -0.017454 0.045633 0.030152 0.038194 -0.006852 -0.015272 0.018343 -0.006126 -0.029288 -0.087330 0.004482 0.058900 -0.022002 0.039295 0.016694 -0.017056 0.061198 -0.040619 0.068364 -0.014324 0.043082 -0.052011 -0.037643 -0.024466 -0.027958 -0.001951 -0.027667 0.050478 0.025517 -0.002518 -0.034961 -0.000851 0.041546 -0.014915 0.059785 0.028009 -0.065205 0.027904 0.042124 -0.038113 0.038716 -0.027742 0.048163 0.008162 0.074332 -0.081476 0.136721 0.028465 -0.001300 -0.065570 0.076811 -0.015973 0.001788 0.035418 -0.080749 -0.012978 0.064855 -0.015676 0.005185 -0.005531 -0.000977 0.040940 -0.002922 0.016219 -0.074740 -0.065855 -0.026963 -0.088826 0.080126 0.076093 -0.007063 -0.001203 -0.010301 -0.024343 0.024487 -0.038648 0.046887 -0.034208 0.027759 0.013635 -0.064091 0.026942 -0.030148 0.028867 0.061168 -0.044248 0.010604 -0.025688 -0.009157 -0.009421 -0.041459 0.031459 -0.013850 -0.049942 -0.043846 0.085357 -0.017641 0.032554 0.016565 -0.117782 -0.011166 -0.027224 0.066618 -0.061213 0.110920 0.032188 0.005316 0.076462 -0.034442 -0.085335 0.006259 0.005861 -0.045719 -0.018673 -0.073687 -0.024223 0.053793 0.040690 0.009709 0.022979 -0.053661 0.037812 -0.021162 -0.083165 -0.008880 0.084753 0.071742 -0.061868 0.039834 0.075862 0.023480 -0.013384 -0.011066 0.046684 -0.025056 0.027316 0.021111 0.049507 -0.000420 -0.042270 -0.062693 -0.140509 -0.010089 -0.011493 -0.027215 -0.026328 0.005189 -0.013890 0.002631 -0.020955 -0.063080 -0.083275 0.042632 0.003054 -0.051638 0.037508 -0.043103 0.097099 0.011115 0.013371 -0.015204 0.016480 0.087261 0.068503 0.011853 -0.063407 0.043874 0.037962 0.050357 0.010635 0.006879 -0.018375 0.009435 0.053569 -0.012441 -0.013950 0.006883 -0.001462 -0.044745 -0.065383 -0.007948 -0.002753 0.073868 -0.012851 -0.052536 -0.029486 -0.061119 0.104971 0.041678 -0.033771 0.005246 0.050651 -0.022996 0.060550 -0.049934 0.053956 -0.039200 0.003770 -0.019151 -0.002770 -0.026080 0.016636 0.024332 0.066493 -0.067927 0.053968 0.035664 -0.016465 -0.031647 0.033576 0.016599 0.045887 -0.080291 0.062098 -0.042787 -0.013772 -0.054202 0.022971 -0.074672 0.006452 -0.013197 -0.027476 -0.061331 0.044307 -0.041473 0.068000 0.058710 -0.055863 0.045659 -0.008802 0.010307 0.042984 0.006441 -0.011333 0.050101 -0.007803 0.028440 0.037727 -0.051594 -0.011504 -0.017563 -0.082421 -0.019212 0.067454 -0.008219 0.090333 0.001600 0.063393 -0.018527 0.101296 0.033083 0.037066 0.072853 0.056518 0.010128 0.052026 0.016394 -0.021321 0.044025 -0.023451 -0.007831 0.018936 0.032894 -0.052873 0.074296 0.069121 0.001454 0.035058 0.017880 -0.018286 -0.019907 -0.068620 -0.030449 0.078640 0.055289 0.083155 0.001946 0.061788 0.052301 -0.015166 -0.013761 -0.006248 -0.019867 -0.036622 -0.054403 0.015505 -0.016757 -0.031954 -0.015563 -0.017941 0.020874 -0.035758 0.017267 0.056030 0.036444 -0.001420 0.026365 0.074787 -0.010980 -0.138825 -0.040462 0.119488 0.117177 0.124467 0.007708 -0.029364 0.099519 0.070041 0.088300 0.086328 -0.073153 0.033943 -0.034254 0.052318 -0.055439 -0.005596 -0.079779 0.094474 -0.089323 0.016457 -0.035059 0.070946 -0.000950 -0.008566 -0.053575 0.067688 -0.003198 -0.011564 -0.022140 -0.072120 -0.023399 -0.044236 -0.055932 0.040208 -0.031965 -0.026112 0.024457 0.039095 0.049155 0.074349 -0.024642 0.019153 -0.001853 0.011511 0.090538 -0.081106 -0.066089 -0.021668 0.020951 0.022286 0.077818 0.035113 0.010684 0.005972 0.007246 0.036743 -0.084303 0.052390 0.026706 -0.010121 -0.021766 0.118907 -0.049021 -0.033115 0.038479 0.042001 -0.025029 0.025432 0.000859 0.040215 -0.021080 0.001834 -0.050699 -0.014253 -0.032734 0.098423 -0.005624 -0.055931 -0.035603 -0.032642 0.015718 0.031615 0.032762 0.049783 0.002046 -0.067962 0.065811 0.114906 -0.029866 -0.039149 -0.021945 0.026885 -0.099071 0.032781 -0.101003 0.083417 -0.064904 -0.003500 -0.000064 0.067763 0.044180 -0.101480 -0.131885 -0.008362 0.031734 0.080169 -0.013583 0.062209 -0.011246 0.024194 -0.021977 -0.058663 0.039923 -0.014747 0.069692 0.074664 0.023924 -0.005587 0.090919 -0.044362 -0.016584 0.031453 -0.031674 -0.086634 0.114974 -0.030200 -0.011247 0.018493 -0.024344 0.021543 -0.095095 -0.007079 0.049121 -0.030730 -0.030979 0.065838 0.065314 0.066798 0.051712 -0.116061 -0.012251 -0.024521 -0.013288 -0.018263 0.071203 -0.020445 -0.045070 -0.092009 -0.029965 -0.039564 -0.026163 0.006791 -0.036540 -0.025016 -0.025063 -0.130583 0.073938 0.082534 0.034641 -0.010583 0.034429 -0.042767 -0.023800 -0.006188 -0.072216 0.022677 -0.002012 0.047397 0.024522 0.015042 -0.059299 0.088849 -0.095436 0.006602 0.029873 -0.025703 -0.030574 0.062416 -0.097207 -0.047095 0.057873 -0.040553 -0.056719 0.035023 -0.057301 0.020044 0.061444 -0.039140 0.018976 0.000870 0.009142 0.008841 0.057124 0.021010 -0.020374 0.138591 -0.015293 0.030760 -0.048355 0.027748 -0.010527 -0.009657 0.019644 0.001153 0.020966 -0.065950 0.014749 0.034504 -0.005139 -0.005154 -0.125564 0.012808 -0.030983 0.041147 -0.018498 0.010082
-0.023007 -0.011499 -0.065995 -0.022907 -0.037687 0.025305 -0.064293 -0.037359 0.128662 -0.004281 0.018204 -0.052516 0.026723 0.024361 -0.065604 -0.061698 -0.041312 0.038553 -0.077345 -0.118970 -0.000440 -0.054543 -0.092661 0.046506 -0.026506 -0.024379 -0.038532 0.038303 0.007093 0.004552 -0.081334 0.037968 0.020391 -0.015501 0.036203 -0.001305 0.019558 -0.010935 0.043483 0.006160 0.045840 0.085677 -0.028081 0.026877 -0.018304 -0.023339 0.025123 0.063312 -0.041070 -0.023513 0.012581 -0.025221 -0.059289 0.019474 0.049174 0.020319 0.092441 0.000390 0.046910 0.041039 0.069086 0.054297 -0.064957 -0.059094 -0.009606 -0.027065 -0.103992 0.036030 -0.035259 -0.081353 0.003475 0.017354 -0.068884 0.019042 0.031305 0.007388 -0.042982 -0.029280 -0.039450 -0.044939 -0.032480 0.016457 -0.048809 -0.003956 0.096969 0.010175 -0.050880 -0.033721 0.055374 -0.037434 0.055285 0.026000 0.015147 0.038733 -0.003042 0.011464 0.068924 0.124565 0.057553 -0.043730 -0.012522 0.021718 0.006053 -0.038865 0.056807 -0.031832 0.001658 0.056799 0.011241 0.016311 -0.021803 0.056381 0.012445 -0.006153 -0.028186 -0.040206 0.028308 -0.021699 0.011116 0.026619 -0.012566 -0.096209 0.000363 -0.056530 0.034102 0.037442 0.060536 -0.044186 -0.024742 -0.027451 -0.012588 -0.027750 0.030880 -0.042719 -0.064838 0.024201 0.043526 -0.029906 0.095752 0.000708 0.037295 -0.033778 -0.056163 -0.077911 -0.017384 -0.036464 -0.076517 0.016142 -0.037167 -0.058658 0.030605 0.006404 0.003005 0.068464 0.070149 -0.035063 -0.054258 0.001957 0.012674 -0.021965 0.010477 0.016676 0.013157 0.009941 -0.008713 -0.018740 -0.030682 0.051519 0.016281 -0.077952 -0.049351 -0.023315 0.074794 0.008169 0.010187 -0.043626 -0.147652 0.048394 -0.013554 0.032001 -0.007617 -0.105441 -0.022258 -0.090605 -0.040947 -0.048715 0.043903 0.063006 0.029957 0.053633 -0.086897 0.059956 0.044529 0.045383 0.024186 -0.018772 0.026858 -0.017887 -0.060097 -0.058781 0.077711 -0.001329 0.051987 0.014164 -0.079010 -0.001289 -0.058454 -0.040942 0.033817 -0.047868 0.024388 0.036191 -0.053981 0.042043 -0.005098 0.004951 -0.043012 0.032675 -0.028218 0.000424 -0.014491 -0.026597 -0.023223 0.060751 0.082510 0.057535 0.020462 -0.031485 -0.059044 0.024695 0.025606 -0.028894 0.016148 0.020331 -0.045474 0.033361 -0.032520 0.049986 0.004628 -0.017510 0.033401 -0.095997 0.044402 -0.019408 -0.029250 0.050033 0.026181 0.044444 0.033424 0.014432 -0.029274 -0.046713 0.021953 0.022926 0.025017 0.053419 0.040695 0.040181 -0.072339 0.046239 0.051079 -0.022436 -0.035877 -0.092513 -0.022513 -0.036613 -0.009855 -0.000667 0.029224 0.115007 -0.044979 -0.041902 -0.009471 0.019237 -0.129904 -0.080238 0.020470 0.037624 -0.017946 0.037731 -0.066839 -0.019767 0.020469 0.044424 0.008690 -0.023058 0.029420 0.026834 -0.077097 0.031196 0.010825 -0.013687 -0.015795 0.021199 -0.039145 0.036599 0.038885 0.005378 -0.006000 -0.045634 -0.008336 0.033588 0.055241 -0.038930 -0.007344 -0.019258 -0.013049 -0.041650 0.024741 0.012406 0.013332 -0.040748 -0.034138 0.005469 0.037116 -0.005411 -0.029379 0.005631 -0.010817 -0.069136 0.035473 -0.027615 -0.069379 0.027871 0.084819 -0.086075 0.028581 -0.020139 -0.025998 -0.012813 -0.092505 -0.000025 0.093879 0.061979 -0.095743 -0.021068 0.028222 -0.005621 0.070663 0.054341 0.016313 -0.121021 0.099455 -0.006713 -0.017700 0.075489 -0.006823 0.019954 0.026440 -0.060579 -0.029007 -0.058462 -0.048012 -0.013686 0.054347 0.006797 0.041172 0.096298 0.057736 -0.113749 0.023980 -0.027345 -0.109428 -0.007339 -0.053291 0.005960 -0.008318 -0.033980 -0.031280 -0.045212 -0.029954 -0.052368 0.074794 0.022588 -0.021779 0.038975 -0.042453 0.033665 0.048459 0.022881 0.018843 0.007213 0.061378 0.000686 0.041572 -0.046901 0.005713 -0.067212 0.022008 -0.034820 0.012700 -0.062345 0.051992 0.040440 -0.036316 0.006210 0.046076 0.036057 -0.054565 0.019232 0.007567 0.052075 -0.047393 0.039798 0.106850 0.092665 0.004027 0.000904 0.000106 -0.087503 -0.022417 0.043481 0.047836 -0.088528 -0.007433 -0.027029 0.047221 0.003875 0.003713 -0.080974 0.045292 -0.009505 -0.025165 -0.027261 -0.012965 -0.054506 0.096564 0.013839 0.008727 0.061085 0.061429 -0.112610 -0.023299 -0.035992 0.026501 0.022125 -0.082283 -0.007061 0.057156 -0.069177 0.046500 -0.001154 0.028276 -0.001112 0.112339 0.030511 0.022189 0.051817 0.022058 0.033325 -0.050415 -0.004445 0.011577 0.044104 -0.046035 -0.035618 -0.034634 -0.015568 0.009451 -0.038298 0.045533 0.036276 0.007481 0.008103 -0.060012 -0.030249 0.017591 -0.020342 -0.044909 0.039082 0.020555 -0.063274 -0.063492 -0.063652 0.019052 0.014884 0.022190 0.002847 -0.062755 0.028924 0.023262 0.034126 0.017595 0.040714 0.068113 -0.108380 -0.110818 -0.025493 0.082166 -0.027063 -0.003749 -0.087039 -0.029659 -0.009673 -0.070333 0.031254 0.013974 0.017310 0.009896 -0.047540 -0.003423 0.018539 0.035118 -0.011429 -0.009726 -0.116547 0.058938 -0.022783 -0.005730 0.000345 0.100127 0.055648 0.061648 -0.047336 0.091762 -0.004898 -0.052760 -0.134631 -0.024256 0.011760 -0.066466 -0.076042 0.037649 0.025483 0.020060 -0.066738 0.025770 -0.042898 0.064920 0.009715 -0.013835 -0.009172 -0.076997 0.033001 -0.070606 0.012334 -0.115544 0.005647 -0.073177 0.021640 0.065713 0.069943 -0.008733 0.091611 -0.026259 0.115974 0.001761 -0.029226 0.101072 0.073006 0.011278 -0.011844 -0.008529 0.007623 0.002285 0.019170 -0.058592 0.001997 0.022305 -0.016067 0.010715 -0.008837 0.045191 -0.066507 -0.057677 0.007001 0.034108 0.032211 0.044314 0.006095 0.023802 -0.047477 0.058653 -0.008900 -0.043367 0.008550 0.006618 0.005368 -0.028388 -0.049316 0.091424 0.000246 -0.067944 -0.038382 0.016064 -0.068266 0.057943 0.009366 0.048663 -0.019986 -0.027818 0.035322 -0.027299 0.001841 0.006203 -0.010549 0.060587 0.013346 -0.058288 0.043900 0.070934 -0.078542 -0.053025 -0.002042 -0.058502 -0.053467 -0.040616 0.010234 -0.076348 -0.051636 0.000905 0.031108 0.068031 -0.015806 -0.108471 0.057698 0.011733 0.030094 0.004805 0.110911 0.043655 0.014317 -0.024565 0.019022 0.066528 -0.071346 -0.026381 -0.020324 -0.029186 0.062763 -0.034965 -0.034779 0.009889 -0.009003 -0.082085 -0.023857 0.022637 -0.030815 0.054502 0.004909 -0.026676 -0.087362 0.016466 -0.019712 0.012545 -0.023136 -0.055231 0.024282 -0.007748 -0.001515 0.020154 0.009099 0.078290 0.000170 -0.055619 -0.085008 0.035184 -0.028310 -0.065008 0.070752 -0.056035 -0.034733 0.029796 0.004266 0.055117 0.071446 -0.018622 0.116790 0.055111 -0.035568 -0.032143 -0.004476 0.112890 -0.023438 -0.033806 0.030493 -0.009787 0.069487 0.011291 -0.049024 0.011577 0.054581 0.066167 0.047583 0.015581 -0.021414 0.041462 0.012987 -0.049012 -0.020488 -0.051234 -0.027760 -0.134271 0.075551 -0.019798 0.031547 0.156378 0.008411 -0.006340 0.013073 -0.045852 -0.075919 0.064031 0.088117 -0.083038 0.036492 0.016496 0.095065 -0.052944 -0.031289 -0.023346 -0.003094 -0.018291 -0.035684 0.032117 -0.011177 -0.000491 0.013907 -0.006233 -0.080510 0.064365 -0.114021 -0.065519 0.015036 -0.029202 0.030970 0.123705 0.045325 0.004506 -0.005522 -0.053581 -0.022509 0.076363 -0.036462 0.025418 0.020883 -0.011538 -0.047896 0.044923 0.031503 -0.011249 -0.041716 -0.114514 0.108108 0.025583 -0.015360 -0.065553 -0.018397 -0.099806 0.061312 -0.073090 0.017781 -0.012402 0.052207 -0.040040 0.061045 0.002795 -0.007670 -0.038734 -0.043118 -0.007489 -0.030480 -0.046881 0.001880 -0.048251 0.030747 -0.046492 0.040101 -0.027605 -0.049906 -0.016364 -0.002931 -0.019097 -0.044397 0.103019 -0.061928 -0.011293 -0.057540 0.017023 0.019397 -0.033430 0.059166 0.016734 0.027216
0.135030 -0.107564 -0.037626 0.009082 -0.005116 0.048305 0.032526 -0.064664 -0.079154 0.042781 -0.039362 0.009887 0.023194 -0.052138 -0.023505 -0.073498 -0.046307 -0.020372 0.000810 -0.025954 0.013819 -0.012998 -0.039568 -0.030968 -0.040364 -0.029196 0.023523 0.010659 -0.049737 0.048911 -0.061649 -0.044223 0.081379 -0.011883 0.003548 0.025528 0.025699 0.058028 0.009336 0.012367 -0.043437 0.051797 0.004012 -0.047506 -0.042837 -0.062489 0.044547 -0.056561 -0.068019 -0.009701 0.048348 -0.057643 -0.083516 0.019382 -0.027247 -0.090738 -0.079182 0.067250 0.067671 0.032601 -0.017658 -0.062523 0.021753 -0.025991 0.005439 0.042282 0.049527 0.037821 -0.077925 0.022367 0.094517 -0.006715 -0.011448 -0.022244 -0.019805 0.087777 -0.022986 -0.014527 0.054980 0.027063 0.087651 -0.018055 0.054167 0.028169 -0.138820 -0.012066 -0.032747 -0.008579 0.079319 0.090873 -0.023016 0.082592 0.015500 0.000363 0.001956 -0.022893 0.022813 -0.027786 0.069025 -0.020672 -0.017849 -0.033224 -0.090571 0.038975 0.034079 -0.014370 -0.033322 0.005932 -0.120762 -0.097047 0.041009 0.057000 0.028631 0.072159 0.039351 -0.104318 0.020786 -0.037229 -0.017959 0.028382 0.004868 0.052119 -0.058318 -0.004171 -0.038809 -0.045287 -0.089374 -0.059643 -0.037700 -0.001994 0.011231 0.015927 -0.062024 -0.012983 0.069317 0.044031 -0.003554 -0.130921 -0.042064 -0.024357 0.012625 0.080860 -0.035967 -0.055752 0.016232 -0.026224 -0.065128 -0.005313 -0.010128 0.011210 0.035644 -0.077340 0.074720 -0.000587 -0.055743 0.054271 -0.037881 0.032546 -0.015000 -0.056376 0.022731 -0.051257 0.033213 0.035132 -0.069195 0.116000 0.050951 0.022066 0.150528 -0.053929 -0.096919 -0.005474 0.012456 0.006802 -0.041185 0.007186 0.085555 -0.010328 0.004511 0.031239 0.022850 0.004604 -0.010241 -0.000650 -0.029344 -0.078251 0.042059 -0.038459 0.002285 0.038424 0.058097 -0.018396 0.028044 -0.071469 0.021921 -0.025757 -0.001286 0.024378 0.064178 -0.040037 -0.061555 0.085782 0.095540 0.089596 -0.020249 0.007226 0.005758 0.068379 0.011355 -0.014387 0.050746 0.077771 -0.078797 0.048347 0.034655 0.020068 0.028638 0.039922 -0.064804 0.056506 -0.013563 0.021345 -0.085176 -0.027705 0.068761 0.016968 0.001878 0.007530 0.039565 -0.055288 0.032855 -0.030091 -0.030434 0.115676 0.094186 -0.094847 -0.006398 -0.096849 0.033431 -0.000135 -0.082878 0.001180 -0.037447 -0.002132 -0.001730 0.024729 0.030782 0.071235 -0.023601 0.087962 0.014958 0.040060 0.063545 -0.065344 -0.007123 0.041494 0.024305 0.045378 -0.038406 0.093042 -0.063250 0.013130 0.064785 0.075995 -0.030683 0.043055 0.088587 -0.028128 0.008418 -0.036551 -0.009988 -0.001162 0.000314 0.016992 -0.016159 -0.067202 0.007658 0.124626 0.101967 0.002908 0.028354 -0.116843 -0.025985 0.019897 0.070028 0.070771 0.004740 0.020957 0.050368 0.008445 -0.009219 0.002592 0.059873 0.022484 -0.094311 -0.000126 0.097967 0.011470 0.065599 0.001684 0.080542 0.077948 0.060075 0.050445 -0.001452 0.051451 -0.009521 -0.012935 0.036781 -0.063280 -0.014120 0.021911 -0.022885 0.087935 -0.050427 0.014483 0.063015 0.043562 -0.101022 -0.011200 -0.041788 -0.070602 0.031525 0.103443 0.004456 0.050704 -0.051171 -0.005426 -0.043329 0.023919 0.063230 0.049200 0.049004 -0.059697 -0.021703 0.044069 0.017058 -0.019635 0.013971 0.027420 -0.013156 -0.007268 0.012296 -0.023536 0.023016 0.048372 0.013520 -0.018615 -0.037313 0.034479 -0.138825 -0.003343 0.027359 -0.043332 -0.041497 -0.057284 -0.034159 0.089040 0.013633 0.044512 -0.026828 0.078048 0.040735 -0.006211 0.034440 -0.027340 -0.013583 0.004770 0.112923 0.010696 0.067643 0.059337 -0.006946 0.097432 0.081199 0.034566 -0.024305 -0.063994 0.057334 0.030056 -0.055780 -0.040808 0.097613 0.046016 0.023675 -0.014209 -0.048218 0.070924 0.021006 -0.017842 0.054836 0.106314 -0.060380 0.134413 0.040757 -0.036728 0.063146 -0.032565 -0.002521 -0.016579 -0.015020 -0.061747 0.107566 -0.004416 -0.070175 -0.001163 -0.084328 -0.099975 0.081518 0.034961 -0.023309 -0.032298 -0.003873 -0.028248 0.000428 -0.035989 0.029572 -0.052147 -0.056629 0.001555 -0.044134 0.098055 -0.032674 -0.060579 0.052183 0.053117 -0.042906 0.003773 0.063265 0.005029 0.010233 -0.069891 -0.050475 0.003259 -0.024421 -0.027226 0.113056 -0.092973 0.045905 -0.020998 -0.007569 -0.016210 -0.009408 0.001687 0.074926 0.021670 -0.047934 0.019348 0.067184 0.068218 0.108526 -0.026449 -0.061065 0.070975 0.025408 -0.021085 -0.013837 -0.074197 -0.037679 0.035110 0.067453 -0.086839 0.043308 -0.011204 0.124520 0.026964 -0.069260 -0.015495 0.078925 0.015626 0.035120 0.017417 -0.032479 -0.010519 0.046203 -0.054535 -0.030492 0.029258 0.057706 0.012272 0.005559 0.038655 0.029554 0.086760 0.013872 0.029314 0.013505 -0.011257 -0.031174 -0.001332 0.108225 -0.100180 0.038619 -0.001047 0.002445 0.064846 -0.072163 0.000700 0.115746 0.033437 -0.023973 0.013827 -0.048620 -0.016551 -0.009014 0.017010 0.006357 -0.011745 0.052718 -0.007794 0.010109 0.057764 0.066044 0.044640 -0.034240 -0.023914 0.017097 0.026779 -0.029597 0.098529 0.044708 0.008848 0.040882 0.022772 0.044840 0.003136 0.037916 -0.040205 -0.013240 -0.056314 0.023208 0.003077 -0.041688 0.044578 -0.061974 0.032550 -0.024163 -0.028561 0.005605 -0.027843 0.048033 -0.052368 0.006202 -0.035211 0.029685 0.032042 0.012990 -0.090316 0.031952 0.018397 0.016640 0.061218 -0.062492 -0.059896 0.061441 0.056618 0.024651 -0.003062 -0.000570 -0.040837 0.086844 -0.010018 0.032402 -0.019821 -0.007952 0.010837 0.060606 -0.055878 -0.038246 -0.032488 0.030418 0.065006 0.058413 -0.013358 0.051328 -0.010595 -0.048811 0.028719 0.090835 0.014687 -0.033246 -0.003585 -0.044897 -0.039301 0.004662 -0.026147 -0.017694 0.024713 0.026799 -0.044568 -0.090679 -0.017483 -0.012512 -0.089459 0.074591 0.053172 0.093183 0.079629 0.031227 0.025025 0.151481 -0.012165 -0.061376 0.062132 0.026583 -0.001372 -0.007550 0.057955 0.069905 0.125170 0.093356 0.064737 -0.036353 -0.005595 -0.011038 0.060597 -0.042707 -0.046915 0.043654 0.093618 0.011454 0.080128 -0.000628 -0.033965 0.088044 0.058118 -0.028519 0.002652 -0.108488 0.031902 0.053038 0.083583 -0.057610 0.041443 0.080380 0.010247 -0.026527 0.064597 -0.060522 -0.005979 -0.048469 -0.016114 -0.029656 0.044016 0.015603 0.030247 0.055102 0.025339 0.056329 -0.010675 0.061720 -0.010488 0.001250 0.052579 0.056788 0.036432 0.053169 -0.011977 0.055196 -0.001094 -0.072009 -0.070688 -0.044967 -0.052790 0.047006 -0.017575 0.038758 -0.067055 0.088071 -0.023197 0.030369 -0.054808 -0.071598 0.003796 -0.048156 0.078144 0.046271 -0.082492 0.051705 0.043087 -0.032814 0.066522 -0.000074 -0.001707 -0.086454 -0.054838 -0.017286 -0.000796 -0.026532 0.096034 -0.092583 0.019261 0.061574 -0.023614 -0.113253 0.026820 -0.012865 -0.091615 0.055990 0.053061 -0.112192 -0.011922 0.045917 0.034544 -0.031657 -0.037804 0.043294 0.019075 0.021957 -0.037545 0.068098 0.020374 0.030439 -0.053739 -0.008272 -0.024626 0.060788 0.022537 0.055838 -0.083514 -0.023782 -0.038498 -0.030712 -0.038020 0.051486 -0.041515 -0.011471 -0.027506 0.000149 0.015863 -0.080398 0.054807 -0.019324 0.002306 -0.040897 0.076587 0.071359 0.005209 -0.077408 0.034347 0.003357 -0.056604 -0.015835 -0.013655 -0.137249 -0.015176 -0.007031 0.046781 -0.032919 -0.058357 0.026754 -0.056760 0.014086 0.035662 0.003229 -0.033566 0.064016 0.075642 0.029295 0.026993 0.051498 -0.020837 -0.025594 0.000715 -0.028675 -0.053059 -0.063682 0.015703 -0.029170 0.033319 0.010454 -0.030434 -0.093720 0.054564 -0.014653 0.013374 -0.125464 0.044332 0.074248 -0.011477 -0.037276 0.080734 0.043502 -0.016334
0.005626 0.009086 0.011778 -0.038378 -0.001083 0.038121 0.074313 0.037554 0.014067 0.052975 -0.058134 0.008610 0.057752 -0.041400 -0.015282 0.020459 -0.009010 -0.015720 0.070807 -0.037780 0.061000 -0.026947 -0.031252 0.082527 0.070327 -0.008971 0.009202 0.053706 0.050907 0.041579 -0.047819 0.007962 -0.054401 -0.089060 0.026334 0.060481 0.003946 0.093157 0.004421 0.055878 -0.024010 -0.019500 0.014610 -0.017924 0.010100 -0.021316 0.008068 0.021801 0.056506 0.026338 -0.083714 0.023513 0.027775 0.019641 0.002867 0.089501 -0.046659 -0.003723 -0.002599 -0.033017 0.035348 0.034917 0.097061 0.050855 0.072339 0.042216 0.072267 0.036756 0.001618 -0.038072 0.051649 -0.044518 -0.014859 0.010005 -0.095718 -0.015842 0.015024 0.013496 -0.018374 0.021896 -0.025175 -0.013641 0.060161 -0.006912 -0.091174 0.021355 -0.026811 0.035553 -0.036350 -0.026874 0.088958 0.008382 0.068596 -0.034499 -0.007068 -0.020883 0.111893 0.113847 0.034968 0.045262 0.070769 0.029076 -0.054963 0.011820 -0.028219 -0.035963 0.032191 0.016262 -0.017690 -0.029116 0.072753 0.043166 0.006751 0.001610 0.054995 -0.002860 -0.020634 0.099030 0.021503 0.014364 -0.045381 -0.012773 -0.016273 0.079547 0.104810 0.026892 0.049308 -0.027568 0.059521 -0.016702 0.021001 0.101758 0.024842 0.047301 0.014965 -0.059973 0.049720 0.075772 -0.017577 0.020750 0.024531 0.099823 -0.032357 0.020399 -0.035510 -0.010859 -0.008158 -0.072056 0.052193 -0.060431 -0.030025 -0.008135 0.021055 -0.066032 0.040811 -0.005678 0.064129 -0.094090 -0.016701 -0.028048 -0.067610 -0.008490 -0.032105 0.026361 -0.005216 0.050923 -0.061082 -0.043595 -0.022320 0.043321 -0.002096 0.023372 -0.013066 -0.033737 0.012974 -0.030503 0.090381 -0.029837 -0.022268 0.053781 -0.089951 0.010147 0.092766 -0.056796 -0.071408 0.041923 0.011489 -0.030936 0.099050 -0.007428 0.031499 0.049186 -0.041779 -0.070983 -0.011534 0.017539 -0.057153 0.083192 -0.057673 -0.043554 -0.017042 -0.021698 0.026783 -0.063069 0.048877 0.028853 0.011141 -0.011028 0.051018 0.014885 0.045455 0.052702 0.028512 -0.019944 0.081094 0.064356 0.008591 -0.026961 -0.049838 -0.011558 -0.048568 -0.020892 0.036740 -0.009544 -0.036145 0.029574 -0.099064 0.003152 0.047238 0.000614 -0.085537 -0.031084 0.065959 -0.033050 0.077606 -0.035016 0.056650 0.086416 0.028616 0.003566 0.023555 -0.013672 0.002245 -0.034358 0.099761 0.028434 -0.010415 -0.012549 -0.008008 0.010012 -0.016788 0.051472 -0.066744 -0.017193 0.020183 0.028701 -0.033231 -0.061188 0.056112 0.008420 0.101039 -0.001668 0.006070 -0.005466 -0.033573 -0.003858 0.013493 0.043131 -0.004328 -0.003114 0.021881 0.010154 0.024316 0.068371 0.051591 -0.073447 -0.014687 0.052298 0.026664 -0.006060 0.072569 -0.009907 -0.007048 -0.025029 0.024518 -0.072283 0.035481 -0.023963 -0.028325 0.022165 0.087073 0.092357 -0.005271 -0.018082 -0.047585 0.047977 0.012181 0.033677 0.064063 -0.053153 -0.085701 0.022409 -0.069683 -0.022146 -0.121022 -0.053470 -0.036198 0.004793 -0.001910 -0.023349 -0.010312 -0.038807 0.025969 -0.024238 0.002777 0.012757 0.065317 -0.071798 0.057351 0.006801 0.019584 0.086451 0.129829 0.088340 -0.031176 -0.029548 0.001783 -0.107827 0.010763 -0.006067 0.120554 -0.000799 0.056115 0.008176 0.006417 -0.001248 -0.006138 0.120278 -0.013439 0.115167 -0.048973 -0.045316 -0.014018 -0.021788 0.119851 -0.003964 0.053873 0.023034 0.148939 -0.008741 -0.034555 -0.086420 0.069034 -0.031619 0.007890 0.029585 0.068912 -0.019629 -0.020442 -0.067577 0.107224 0.116306 0.018974 -0.112916 -0.008072 0.025520 0.015526 -0.031009 -0.023087 -0.044280 0.074040 -0.065016 0.017140 -0.050227 0.050480 0.005765 -0.036023 0.023878 -0.034138 0.030963 0.051911 -0.010339 -0.010558 -0.031316 0.068648 -0.095894 0.046292 0.029725 0.111275 0.085440 0.005060 -0.030087 0.004480 -0.032960 -0.117998 -0.065150 -0.054912 0.018665 -0.025890 0.085548 0.044309 -0.086933 0.102365 0.030684 0.063812 0.034350 0.010947 0.057289 0.091294 -0.034074 0.064440 0.116827 0.010868 0.049234 -0.120573 -0.072593 -0.021318 0.008772 0.031470 0.016184 0.002188 0.091371 0.020363 0.006606 -0.051971 0.011737 -0.032642 -0.042611 0.019557 -0.037167 0.054795 -0.002923 -0.001334 0.077740 0.007964 0.042783 0.037221 0.068173 -0.031398 0.093547 -0.045393 0.024300 0.051742 -0.012836 -0.022659 -0.013984 -0.004273 0.055575 0.036859 -0.070295 0.061090 -0.021311 0.002198 0.036601 0.012036 0.032798 -0.053721 0.007554 0.014063 -0.119771 -0.040450 0.001395 0.039981 0.116723 0.079222 0.076987 0.028761 -0.005859 -0.047167 -0.037554 -0.003114 0.021602 0.008530 0.047195 -0.047927 0.028753 0.128307 -0.061042 -0.009713 -0.044962 -0.054598 0.018928 -0.005821 -0.051179 -0.002426 -0.056790 -0.016654 0.039368 -0.040056 -0.008672 -0.005568 0.045215 0.000822 0.010580 0.005104 0.058205 -0.003116 0.040456 0.051128 0.020817 0.096316 -0.054738 -0.043300 0.022398 -0.004900 0.077715 -0.032272 -0.052905 0.029291 0.014064 0.027109 0.004831 -0.003713 -0.053646 0.077541 0.004889 0.037693 -0.006924 0.110857 0.018095 -0.015105 0.004926 0.001205 -0.108901 -0.008338 -0.042466 0.026544 -0.052769 -0.010829 0.004766 0.016479 -0.033942 -0.042053 0.063163 0.124756 0.011596 -0.013470 0.065980 0.023547 -0.018853 -0.007714 -0.030078 0.079622 0.075340 -0.002545 -0.054981 0.046104 0.124385 -0.051328 -0.060250 0.030621 0.015809 0.068304 -0.020748 0.005042 0.054732 0.071673 0.055587 -0.033950 0.034087 -0.126711 0.032964 -0.003948 -0.041011 -0.042358 0.025546 -0.033517 0.065376 0.003063 0.026400 0.027066 -0.018976 0.017113 0.046883 -0.003883 0.017236 0.057923 0.074754 0.066040 -0.026213 -0.049821 0.051292 0.020903 0.019774 -0.025306 0.061365 -0.075458 0.040239 0.011175 0.027737 -0.043385 0.036470 0.003664 -0.001351 -0.014295 0.015404 0.017933 -0.061883 -0.024141 0.068657 0.011199 -0.017693 0.039424 0.051706 -0.024683 -0.009728 0.057055 0.073884 0.043801 -0.040173 0.051246 -0.075492 0.005148 -0.014798 0.063446 0.024660 -0.056343 -0.091830 -0.027477 -0.005100 0.080472 -0.065138 0.030438 -0.014747 0.009051 0.007493 0.023127 -0.043240 0.050862 -0.031139 0.027331 -0.005936 0.004528 -0.045178 -0.048164 -0.003049 0.005676 0.029120 0.020096 -0.089644 0.049131 -0.041670 0.031611 0.033710 0.078637 0.018772 -0.033222 0.032250 -0.019208 -0.060555 -0.021246 -0.043452 -0.032110 0.026073 -0.005828 0.009983 0.033629 0.022700 0.001373 0.019890 0.044349 0.022676 0.002024 0.071836 0.006324 0.013440 -0.132557 0.057241 -0.010491 0.042299 0.039535 0.122338 0.097571 0.019712 0.030072 0.009423 0.035640 0.080785 -0.046234 -0.032509 0.003859 0.039130 0.001210 -0.065409 0.051550 0.027896 0.094284 -0.021125 0.038318 -0.081949 0.006819 -0.029315 0.034191 -0.003230 0.008805 -0.063913 -0.061839 -0.117530 -0.080559 0.009028 0.020518 0.102971 0.016628 -0.017145 0.003824 -0.069986 -0.012721 0.027623 -0.007030 0.010342 -0.032917 -0.044562 -0.035381 -0.037558 -0.028347 -0.037609 -0.137105 0.000253 0.097499 0.050390 -0.014646 0.016263 0.032356 0.002526 -0.072704 -0.054886 0.008638 0.000067 0.052357 -0.076572 0.017305 -0.027311 0.049414 0.000873 -0.026661 0.052641 -0.017979 0.002702 0.010550 -0.055797 0.074971 -0.037841 -0.051962 -0.014874 0.071445 0.033628 -0.015985 -0.058044 0.021707 0.074740 0.040744 0.035731 -0.055457 -0.018597 0.070423 -0.022134 -0.005786 0.050139 0.025737 0.078695 -0.044997 0.036135 -0.008839 -0.013220 -0.011023 -0.045540 -0.059379 -0.014816 -0.016158 -0.042266 0.016214 -0.035807 -0.024624 -0.017865 -0.050036 -0.037352 0.056470 -0.005313 0.014820 0.006488 0.029753 -0.016867 -0.030118 -0.018169
-0.045874 -0.002175 -0.016242 0.036579 -0.015378 -0.066089 0.022325 -0.009115 -0.078168 -0.053833 0.043519 0.029406 -0.091954 -0.020574 -0.034441 0.035099 -0.108859 0.027650 -0.042861 -0.040211 -0.021537 0.018674 0.055040 -0.015886 -0.024410 -0.039683 -0.039334 -0.097513 -0.011669 0.054355 0.040502 0.008631 0.013615 0.029565 0.089422 -0.094498 0.014753 0.026872 0.077029 0.003561 0.056735 -0.043233 0.011660 -0.036237 0.043572 0.040973 0.014584 0.028011 0.035880 0.017566 -0.059684 -0.066667 0.007423 0.031935 0.028670 0.039583 -0.113527 0.007274 0.022024 0.016817 0.086443 0.008704 0.033314 -0.038607 0.087443 0.006398 0.055647 -0.025585 -0.054987 0.015349 0.013985 -0.063447 -0.013634 -0.001715 -0.038183 0.006587 0.022863 -0.032968 0.054306 -0.071059 -0.025228 0.039124 -0.037131 -0.052453 0.022298 0.027383 -0.049125 -0.046868 0.043378 0.005240 -0.023297 0.003472 0.037501 -0.037546 0.084785 -0.018253 -0.065362 0.003745 -0.026892 0.138320 0.015484 0.064869 -0.014961 -0.013966 -0.028798 0.001343 0.013011 0.059638 0.014059 0.009231 -0.067565 0.000704 -0.004878 0.018486 0.000712 0.048732 -0.073816 -0.012716 -0.036591 -0.062210 0.020251 -0.011874 -0.014564 0.029380 -0.040646 -0.040396 -0.009217 0.028871 -0.021411 -0.058600 0.027640 0.014259 0.055164 -0.001121 -0.028988 -0.024444 0.040628 0.088182 -0.006657 -0.038479 0.077078 0.019063 -0.001416 -0.085582 -0.004954 0.021563 -0.028057 0.008426 0.009537 -0.016180 -0.064433 0.048813 0.094223 -0.003813 -0.023040 -0.001552 0.086454 -0.032751 0.067438 0.001631 -0.020498 0.022267 0.046958 -0.127627 0.040463 -0.014597 0.095766 0.015758 0.026022 -0.016809 0.045322 -0.015879 -0.015904 -0.088028 0.043226 0.002242 -0.010228 0.040060 0.080096 -0.015988 0.045844 -0.037233 -0.022714 0.092332 -0.018762 0.024805 -0.030755 -0.014945 0.018018 -0.041196 0.007665 -0.078861 -0.030473 -0.033839 0.025383 -0.056537 0.085855 -0.111917 0.075970 0.037145 -0.004664 -0.123972 0.056204 0.010710 -0.037865 0.076376 -0.029023 -0.039499 0.005209 -0.002172 0.002657 0.110993 -0.018220 -0.016824 0.008560 -0.058535 0.103387 -0.075008 -0.007350 -0.030468 -0.084148 -0.064833 0.025809 -0.021120 -0.015126 -0.086227 0.103073 0.027395 0.009738 -0.008812 0.063808 -0.028774 0.056393 -0.035255 -0.000916 0.031411 0.002509 -0.049948 0.048793 0.037475 0.087921 0.068203 0.074747 -0.042178 0.081598 -0.087392 -0.058965 0.030807 -0.028568 -0.015058 0.058003 0.034010 0.067062 -0.067478 0.011779 -0.029797 -0.024442 0.058883 -0.076041 -0.005714 0.088177 0.007727 0.012064 0.016955 0.033319 -0.054076 -0.068404 0.036800 -0.033860 -0.018496 -0.049772 0.020892 0.027707 0.010452 0.001794 0.016313 -0.003982 -0.055646 0.005494 -0.028493 -0.052527 -0.015990 0.103642 0.050798 -0.062395 0.006422 0.075330 0.030905 0.066102 -0.048344 0.070137 0.018095 0.003208 0.035233 0.028601 0.015673 0.010568 0.026675 0.099527 0.019495 -0.100887 -0.013004 -0.042268 0.041545 0.002960 -0.060552 -0.019499 -0.026287 0.080868 -0.102203 0.014337 -0.042213 0.026617 0.038922 -0.084764 -0.041425 -0.066571 -0.041169 -0.100650 0.029702 0.015241 -0.086119 -0.181075 -0.001353 -0.022092 0.030085 0.079915 0.007493 -0.065049 -0.016298 -0.027975 -0.053651 -0.029501 -0.041341 0.037056 -0.021807 0.028274 0.039815 -0.018861 -0.002359 -0.073028 -0.108234 -0.001006 -0.080385 -0.009593 -0.017909 0.007610 0.032082 0.040371 0.014632 0.063843 -0.100246 -0.001270 -0.057914 -0.003379 0.023754 0.077146 -0.032459 0.066492 -0.018009 -0.002612 -0.100453 0.019949 -0.055759 -0.041992 0.001428 -0.015311 0.005200 -0.027142 0.006780 0.086745 0.037123 0.035051 0.026829 0.058311 0.096295 0.093023 0.043248 -0.032850 0.003410 -0.015947 -0.027227 0.047152 0.038948 -0.013697 -0.038779 0.059016 -0.017044 0.038731 0.049580 -0.072837 -0.028631 0.049490 -0.031808 0.033077 0.026844 -0.094245 0.037257 -0.026877 -0.088406 -0.029211 0.027451 -0.039823 0.010268 -0.034809 -0.011347 0.034989 0.121887 0.059652 0.055947 -0.065175 -0.066344 0.056878 0.053620 0.009374 0.048096 -0.009369 0.095557 -0.071995 0.025616 0.035910 -0.057222 -0.019088 0.011183 -0.040382 0.045286 -0.057048 -0.054259 0.088070 0.052433 -0.004544 0.062067 0.031372 -0.040961 -0.031421 0.048516 -0.046148 0.019340 -0.029826 -0.063943 0.028974 0.055514 0.002018 0.012588 -0.006997 0.009861 -0.030994 -0.104751 -0.042831 0.018537 -0.011130 0.013069 -0.040747 -0.050821 -0.027100 -0.035509 0.076744 -0.028333 0.062204 -0.030516 -0.030406 -0.034470 0.075616 0.023601 -0.022580 0.040432 0.016025 -0.012800 0.021976 0.040284 -0.046691 -0.005678 -0.035606 -0.036608 0.000763 -0.090137 0.001965 0.024857 -0.000389 0.087905 0.000185 0.014235 -0.041264 0.032159 0.024533 0.054903 0.073106 -0.007658 -0.003431 0.073692 0.015466 -0.075521 -0.079518 -0.010821 0.050462 0.021392 -0.016719 -0.036330 -0.080509 -0.034856 0.004438 0.040525 0.058036 0.082394 -0.026478 0.033482 0.078373 0.086781 0.013325 0.072780 -0.004479 0.005423 0.069829 -0.080393 0.032722 0.087673 0.029874 0.103336 0.083289 0.068246 -0.081550 0.061823 -0.069841 0.086832 0.007582 0.050229 -0.028620 0.002830 -0.066770 -0.017397 0.075472 -0.029981 0.003080 0.023766 0.049380 -0.026283 -0.024854 0.061231 0.095372 0.061048 0.046748 -0.041031 -0.029231 0.001198 0.000113 -0.063413 -0.004239 -0.020225 -0.003875 -0.046939 0.033664 -0.067939 0.076757 0.012055 -0.082520 -0.020365 0.053709 -0.065628 0.171089 -0.055078 0.057108 0.071692 -0.002631 -0.009955 0.065782 0.002724 0.058815 -0.004829 -0.007019 -0.041036 -0.028332 -0.035356 0.002228 -0.024920 0.043447 0.053463 0.024434 0.008892 -0.064470 0.047176 -0.009024 0.014387 -0.012998 0.011632 0.023793 0.045930 0.101412 -0.015253 -0.107986 -0.030898 0.089232 0.089877 0.016650 0.004338 -0.058286 -0.005699 0.039216 0.090355 -0.045518 0.023907 0.017275 0.063957 -0.054520 -0.000543 0.051706 0.040052 -0.012263 -0.025274 0.092796 0.035430 0.013608 0.070435 0.060533 -0.002664 -0.054438 0.030085 0.065330 0.029967 -0.058424 -0.056537 -0.009228 -0.022357 -0.000816 -0.016837 -0.076977 0.002480 0.070764 -0.036563 0.001935 -0.037492 -0.016003 0.026460 -0.020892 0.046614 0.024260 -0.002773 -0.034331 0.076696 0.069873 -0.085796 0.032789 -0.001929 -0.028760 -0.018146 -0.020166 0.066549 0.030832 0.048755 -0.021398 0.053122 -0.087793 0.003144 0.014145 0.064534 0.042265 -0.026761 -0.043311 -0.072103 -0.007541 0.006968 0.030039 0.049100 -0.070739 0.036606 0.001494 -0.001586 -0.092754 0.031371 -0.015713 -0.006087 -0.017996 0.056559 0.042862 -0.035056 -0.070811 0.061125 -0.080493 -0.015753 0.071072 -0.078820 -0.014179 -0.037179 0.041251 0.000629 -0.079567 0.052636 0.006727 0.062519 0.027868 -0.003139 0.089020 -0.017765 0.006881 -0.030044 0.073876 -0.090343 0.049712 -0.064082 -0.024524 -0.023375 -0.072030 0.031721 0.005486 0.054338 0.074752 0.020665 -0.020619 -0.026404 -0.068956 0.044126 0.005710 0.019863 0.049542 -0.017860 -0.040975 0.047500 -0.047899 -0.090952 -0.113794 -0.038509 -0.046220 0.007847 -0.064886 0.018577 -0.053277 -0.063262 0.025441 0.014338 0.035787 0.121570 0.030140 -0.057438 0.003160 -0.068112 -0.105561 -0.008400 0.070295 0.080962 -0.004960 0.024129 -0.000054 -0.055702 -0.052810 0.018489 -0.058526 -0.078040 0.021269 0.024498 -0.063363 0.024019 0.060209 0.005489 -0.052428 -0.031499 -0.003129 0.020224 0.048878 0.009887 0.012324 -0.074401 -0.023811 0.007696 0.022015 0.087639 0.010015 0.025747 -0.049189 0.013603 -0.071481 -0.065254 -0.059005 0.016266 -0.025210 -0.035846 -0.076044 0.048366 0.085371 0.026533 0.014174 0.004927 0.029497 0.003666 -0.080378 -0.009302
0.026990 -0.020740 -0.090852 0.063990 0.060807 0.022198 0.044375 0.030211 0.061518 0.001324 0.127709 0.054608 -0.078438 0.068054 -0.016993 -0.073487 0.049698 -0.009661 -0.004558 -0.011900 0.102280 -0.007200 0.044441 -0.035935 0.067796 0.025713 0.016209 0.062393 -0.057345 -0.096979 -0.009759 0.005034 -0.057724 0.080308 -0.069507 -0.040362 -0.016089 0.000529 -0.046250 0.000531 -0.040169 0.054601 -0.021772 -0.022578 -0.004353 0.038574 0.006955 0.016066 -0.027726 -0.030568 0.095809 -0.042662 -0.089326 0.050220 0.021845 -0.003528 0.006358 -0.037524 0.066992 -0.050930 -0.006798 -0.014119 0.014001 -0.063460 0.044598 0.007226 -0.065539 -0.011262 -0.000161 0.005413 -0.070325 0.004466 0.053957 -0.028242 -0.030042 0.065398 0.064590 -0.025696 0.009186 -0.081359 0.031018 0.035525 -0.104137 -0.013609 0.041417 0.002549 0.035180 -0.089618 0.020972 0.060460 0.002308 -0.046010 0.004181 0.077597 0.044196 0.050338 -0.022747 0.011454 -0.034332 -0.018719 0.088426 0.104220 -0.062612 0.028221 -0.007112 -0.044760 0.093497 -0.041912 -0.021860 0.028719 -0.020694 -0.036481 -0.022279 -0.007464 0.012979 0.083476 0.054872 0.020363 -0.007815 0.015603 0.044031 -0.052903 0.023232 -0.002857 -0.029551 0.071143 -0.015736 0.059421 -0.089670 -0.004754 -0.030211 0.114998 0.031005 -0.020006 -0.019932 0.001994 0.063234 -0.007308 0.092863 -0.005898 0.026589 0.033032 -0.008105 0.006972 -0.020818 0.039060 0.090768 -0.037083 -0.033356 -0.049941 0.057998 0.032973 -0.035610 0.020862 -0.004165 0.052775 -0.060794 -0.050167 0.029924 -0.102990 0.044451 -0.042478 -0.036077 0.014745 0.014936 -0.078451 -0.005304 -0.047115 -0.040204 -0.005083 0.061720 0.026058 -0.137936 0.048546 -0.023859 -0.011246 -0.052273 -0.034914 -0.012207 -0.055043 -0.076921 -0.024783 0.005501 -0.015954 -0.062167 0.118081 -0.055906 -0.016084 0.031319 0.053795 0.052677 -0.026755 0.068766 0.069109 -0.013456 0.036389 0.026999 0.040760 -0.034165 0.014297 -0.023672 0.050279 -0.003128 -0.001167 -0.018233 -0.100006 -0.022280 0.022880 0.024989 -0.058367 0.008192 -0.018451 -0.007623 0.038099 0.010376 -0.008779 0.014799 0.004745 0.055295 -0.010186 -0.073273 0.016344 0.003358 -0.060949 -0.020251 0.012000 -0.012016 -0.061127 -0.017547 -0.004375 0.103452 0.020311 -0.066751 -0.006676 -0.037326 -0.023962 0.055851 -0.016381 0.033296 0.012412 0.009576 -0.023413 0.047003 -0.144407 -0.009537 0.055865 0.024723 -0.025621 0.001439 0.035537 0.010177 -0.064323 0.014360 0.001253 -0.056371 -0.022851 0.058899 0.021149 0.020383 -0.059386 -0.007544 -0.058251 -0.032456 -0.003300 0.004253 -0.130321 0.075070 0.077526 -0.010131 0.015519 -0.062810 0.017719 -0.037316 0.079986 -0.014252 -0.010882 0.008999 -0.000201 -0.009076 -0.011906 -0.021156 0.003018 0.014186 -0.029670 -0.084851 0.056363 -0.052916 0.019439 0.008399 0.013884 0.002814 0.009586 -0.110505 0.075813 0.050012 -0.007748 0.018734 0.005622 -0.065912 -0.050660 -0.018591 -0.034102 0.017144 -0.007943 -0.053180 0.012047 0.044325 -0.052392 -0.035633 -0.019457 -0.054226 0.048211 -0.044605 -0.029426 0.071214 -0.089037 0.031232 -0.060844 0.047981 0.041209 0.025662 0.035688 -0.012014 -0.012363 -0.100625 -0.054240 -0.027739 0.035402 -0.000707 -0.044466 -0.047893 0.002578 -0.031100 -0.053827 -0.016925 -0.013516 0.003087 -0.020961 -0.015168 -0.015342 -0.027617 -0.020702 -0.029057 0.068393 0.075122 -0.051275 -0.112334 -0.034189 -0.115853 0.013675 -0.026870 -0.035575 -0.043407 0.044026 -0.036789 0.040517 0.044286 0.019066 -0.038767 -0.031340 -0.010010 0.007727 0.038378 -0.029769 0.022232 0.043108 -0.066892 -0.039558 -0.086811 0.010733 0.055014 0.080199 0.040241 -0.002335 -0.019537 -0.049462 0.049629 -0.029990 0.009335 0.024733 -0.015321 -0.038374 -0.030342 0.044505 -0.044304 0.040818 -0.018853 0.009178 -0.019241 0.035129 0.059213 0.002152 0.035540 -0.047333 0.056767 0.028288 -0.028967 -0.051988 -0.044032 0.039265 -0.003509 -0.055580 0.021405 -0.041779 -0.056134 0.058804 0.091873 0.094917 0.042672 0.085295 -0.042972 -0.025925 0.058356 -0.040912 -0.096022 -0.116199 -0.040430 0.088922 0.022257 0.048886 -0.017824 -0.017414 -0.056884 0.059860 -0.033384 0.032519 -0.034161 0.001816 0.041980 0.012093 -0.056997 -0.065860 0.143187 0.040524 -0.036513 0.021929 0.011793 -0.006755 0.052319 0.071602 -0.050642 0.027589 -0.047704 0.010761 -0.041452 0.014227 0.027512 -0.004547 0.015767 -0.075069 -0.000680 0.025912 0.058257 -0.009430 0.091338 -0.019151 -0.028548 -0.005815 0.060476 -0.056299 0.027519 0.021817 0.077697 -0.008650 0.106777 -0.002835 0.019865 -0.028302 0.014469 0.008382 -0.045661 -0.005993 -0.009666 0.000363 -0.087609 0.073762 -0.020635 -0.020436 0.001284 -0.057016 0.054507 -0.045625 0.052048 0.046948 0.003657 -0.004273 -0.075331 -0.017605 0.100798 -0.040721 -0.000054 -0.000581 0.080405 -0.065134 0.001041 0.059633 -0.067403 -0.015398 0.044915 -0.100284 0.013191 0.033365 0.037271 -0.063129 -0.019825 0.027033 -0.045497 0.067001 -0.035879 0.000405 0.000255 -0.040406 0.030292 -0.011654 -0.006407 0.025356 -0.046899 0.125840 0.063325 0.060059 -0.018467 -0.063983 -0.062472 0.093206 0.103592 0.005577 0.031556 0.033251 0.069719 0.067542 0.012936 0.027088 -0.050054 0.003768 0.092739 -0.045864 0.020373 0.033599 0.046629 -0.000277 0.036448 0.007621 -0.016082 -0.045124 -0.015463 -0.002111 -0.013593 0.003907 0.083860 0.004672 -0.067553 0.024900 -0.000373 0.049689 -0.090608 -0.010825 -0.037627 -0.040281 -0.001669 -0.037484 0.036051 -0.037653 0.028241 0.013764 0.036276 -0.036445 -0.046242 -0.016263 0.007970 -0.054893 0.041913 -0.030794 0.003623 0.061551 0.050959 0.055284 0.003676 0.042166 0.025543 0.011112 0.085493 0.002503 0.081780 -0.030602 0.020860 0.003221 -0.024108 0.021537 -0.024473 0.055403 0.063079 -0.021305 0.021902 0.003879 0.023059 -0.032112 -0.004850 0.034685 -0.031037 -0.016464 0.020961 0.039968 0.079436 -0.007323 -0.107262 0.012382 0.038112 0.001833 0.022053 -0.051101 0.026151 -0.069070 0.018769 -0.025556 0.048873 -0.021287 0.011407 0.069319 -0.039735 -0.089478 0.083080 -0.045541 0.100914 0.021540 -0.014026 0.039502 -0.004706 0.023284 0.032680 -0.081729 0.047681 0.028520 -0.012418 -0.024546 0.000233 0.037089 0.059732 0.050149 -0.049631 -0.081505 0.010398 -0.041119 -0.025976 0.041738 0.019518 -0.014825 0.004291 0.056546 0.026851 -0.070638 0.049691 0.000061 -0.002128 -0.025423 -0.091593 0.057308 0.046047 -0.058446 -0.044985 -0.043820 -0.021038 -0.013175 0.010787 0.038600 -0.008803 0.035381 0.096381 0.012072 0.110006 0.077533 -0.003531 -0.024380 -0.056276 -0.078137 -0.056002 -0.039600 -0.022560 -0.008870 0.067129 -0.060925 0.044446 0.089813 0.033606 -0.055698 0.063540 -0.089583 0.023085 0.051988 -0.051948 -0.069365 -0.051860 0.006990 -0.068707 -0.015579 0.037578 0.032861 0.059049 -0.024420 0.103100 -0.066505 -0.025891 0.019971 0.025667 -0.052458 0.048542 -0.084001 0.004401 -0.064024 0.118888 0.000074 -0.099096 -0.019569 0.068289 0.016852 -0.003616 -0.036032 -0.002630 0.068444 -0.027071 -0.033477 0.067030 -0.055268 -0.023299 -0.035860 -0.033317 0.027263 0.027570 -0.036870 -0.025386 0.084824 0.030396 0.023085 -0.051872 0.009306 0.018928 -0.015352 -0.012372 -0.006212 -0.046741 0.051571 -0.019679 0.025211 0.040492 0.000203 -0.038043 0.007180 0.035575 -0.048519 -0.014170 -0.000647 0.032804 0.084753 -0.030920 -0.096525 -0.013982 -0.065604 0.031242 0.028279 0.026957 -0.029082 -0.030759 -0.030195 -0.037722 -0.061361 -0.046818 -0.009741 -0.070462 -0.012160 0.061877 -0.129883 -0.031032 0.040858 0.028379 0.015125 0.118300 -0.032130 0.050110 0.065891 -0.016970 -0.044562 0.040615 0.113254 -0.079479 0.002117
0.061104 0.093741 0.008688 0.009714 -0.062477 -0.041926 0.022419 -0.092630 -0.008230 -0.064674 0.029714 -0.027895 0.009456 -0.014167 0.065258 -0.044759 0.131308 -0.003904 0.033390 0.078186 -0.013701 -0.094184 0.034462 0.002326 0.080798 -0.038607 0.012256 -0.010546 0.056847 -0.001712 -0.067974 -0.052555 0.030658 0.043293 -0.020795 -0.061283 0.028352 0.039106 -0.005838 0.009038 0.001157 0.144378 0.005304 0.061331 -0.053206 0.034882 -0.082909 0.025537 0.000660 0.025412 0.164342 -0.055914 -0.061716 0.023781 0.051748 0.035252 -0.028999 -0.030304 -0.020481 -0.067808 -0.004608 -0.020436 -0.045244 -0.052800 0.016073 -0.039860 0.102140 -0.010490 -0.066638 0.020108 -0.080711 -0.075040 0.008375 0.006997 -0.012334 -0.059833 0.029965 0.000227 -0.027595 0.032603 -0.006367 -0.019808 -0.011859 -0.057700 0.028556 -0.000239 0.042858 0.010837 0.057550 0.045457 -0.039913 -0.012817 -0.043554 -0.057170 -0.037924 0.012114 -0.043936 0.004889 -0.051055 0.031994 0.028104 0.040309 -0.043212 -0.011590 -0.065207 -0.010504 0.059841 0.055269 0.027716 -0.070099 0.035929 0.019231 0.019521 -0.077266 0.002946 -0.044035 -0.066700 0.074199 0.009763 0.097670 -0.014371 0.037784 -0.038497 0.050524 -0.014188 -0.022468 0.048128 0.040510 -0.057341 0.012089 0.068706 -0.046490 0.014606 0.043894 -0.139866 0.035415 0.058802 -0.001868 0.011192 0.015172 -0.051259 -0.021592 -0.001019 -0.029817 0.023800 -0.056479 -0.007280 -0.010404 0.042125 -0.098125 0.005422 -0.015029 0.038093 0.021564 -0.062038 0.030616 0.046067 -0.062625 -0.010663 0.033917 0.032075 -0.003265 -0.009747 0.058211 -0.037647 -0.036609 -0.144253 0.030273 -0.017101 -0.015529 0.035202 0.036902 0.001735 0.060791 -0.001080 -0.022936 -0.011721 -0.013769 0.011744 -0.057711 0.023670 0.012730 0.081741 0.013079 -0.018223 -0.012871 -0.005785 0.017886 -0.087387 -0.034593 0.061107 -0.019837 0.018214 -0.028523 -0.075279 -0.033162 0.039769 -0.001309 -0.024271 -0.035308 -0.014947 -0.018285 -0.039157 0.005091 -0.081514 -0.023668 0.007376 -0.062053 0.052195 -0.024276 -0.015034 -0.024416 0.077458 -0.118576 -0.004939 0.081038 -0.020473 0.029480 -0.068394 0.062317 0.056055 0.019590 -0.032617 0.009245 -0.046561 0.085081 -0.011777 -0.028840 -0.068286 -0.007496 -0.070369 -0.026156 -0.034315 0.008232 0.009337 -0.051287 0.030958 -0.021992 -0.040615 0.028568 -0.000760 0.033817 -0.008004 -0.023788 0.034671 0.004142 -0.047824 -0.038438 -0.069443 -0.020718 0.077114 0.060733 -0.018935 -0.051075 -0.066132 0.011719 -0.028242 0.063780 0.023029 0.042101 0.021794 0.014329 -0.032545 -0.042270 -0.077291 -0.013569 -0.007822 0.006436 0.108015 -0.047257 0.029103 -0.016735 -0.026938 0.047933 -0.018030 0.117671 0.018612 -0.000394 -0.038371 -0.029846 -0.043542 0.040405 0.006780 -0.076137 0.009481 -0.021333 -0.012051 -0.001420 0.154772 -0.051696 0.083102 -0.011186 0.006783 0.066665 -0.034894 0.048267 -0.060621 -0.013249 0.066469 -0.085305 0.018951 0.017201 -0.063900 0.054004 0.064859 0.032872 0.017555 -0.023294 0.018851 -0.042138 0.050563 0.014897 -0.104346 -0.026770 0.093641 -0.001030 -0.000212 -0.033116 -0.052405 0.112757 0.072637 0.032815 0.011625 -0.047638 0.013365 -0.047254 -0.068178 -0.065684 0.004198 0.019643 -0.042739 0.015710 0.033995 0.001053 0.036179 -0.019180 0.021784 -0.019468 -0.039250 -0.085176 -0.020907 -0.065391 -0.019933 0.001531 -0.053832 0.000392 0.062944 -0.052376 0.016482 0.026542 0.046668 -0.040557 -0.020252 0.003324 -0.052695 0.019523 -0.044688 0.034273 -0.014162 -0.063549 -0.056600 -0.015016 -0.032075 0.023508 0.038966 -0.109536 -0.022906 -0.051898 0.070264 -0.001270 0.005623 -0.038948 0.004892 0.006105 -0.010426 -0.018791 0.025692 0.022581 -0.000981 0.058970 0.107218 0.020194 0.065042 0.000030 -0.011253 0.020012 0.049581 0.041550 -0.082095 0.065192 0.025462 -0.059692 0.040993 0.007342 0.022876 0.003178 -0.022282 0.040065 0.047914 -0.011813 0.021519 0.031934 0.084611 -0.003717 -0.014432 0.034668 0.046993 0.009405 0.013341 0.025364 0.013041 -0.051955 0.117359 -0.002966 -0.036180 -0.021197 -0.062565 0.010646 -0.001479 0.090291 0.000183 0.016282 0.040179 -0.000878 -0.028481 0.040739 0.044009 0.019611 0.062740 -0.056126 0.000738 0.023165 0.008208 -0.014040 0.018908 0.087482 0.036533 -0.018673 0.080994 0.054583 -0.042301 -0.017429 -0.024577 0.008760 -0.025238 0.052514 0.035622 0.002172 0.060154 -0.033748 0.067016 0.093423 -0.043383 0.060309 0.042472 -0.019908 0.035318 0.045213 -0.084516 0.100051 0.108342 -0.024067 0.016369 0.090385 -0.068501 0.068819 0.007444 -0.052630 -0.033159 0.011989 0.078385 0.021029 -0.057796 0.087341 0.069824 -0.022238 0.019080 0.077346 -0.009742 -0.011797 0.008460 0.002775 0.059272 0.004931 -0.078312 0.110209 0.099012 -0.047280 0.020321 0.147057 0.046944 0.070317 -0.003450 -0.054190 0.037012 0.007956 -0.008892 -0.020516 -0.006588 -0.056021 0.006759 0.047750 0.036287 0.009211 -0.015833 -0.022389 0.044912 -0.045264 0.027110 -0.018525 -0.065723 0.034865 -0.095422 -0.015733 0.010846 0.013061 0.005758 0.055746 -0.102518 0.016370 0.075773 0.001370 0.064429 -0.036889 -0.023346 -0.013374 0.027125 0.073465 -0.037584 -0.001980 -0.068587 0.056995 0.039002 -0.000032 -0.003129 0.003085 0.049254 -0.096625 0.005475 0.049855 0.061897 0.000212 -0.013989 0.039463 0.086906 0.066030 -0.000713 -0.020622 -0.005210 0.054807 -0.060127 -0.006468 -0.073082 0.000180 0.061562 -0.004147 0.017151 0.016800 -0.077517 0.066957 -0.010082 -0.051431 0.038129 0.041808 -0.035455 -0.069999 -0.021021 0.012668 0.114313 -0.048817 -0.054712 0.018548 0.021058 -0.043434 -0.064484 0.024606 -0.142136 -0.034997 0.008542 0.079246 0.078037 0.054834 0.051207 -0.038540 0.034084 0.002669 -0.049772 -0.073793 -0.028919 0.101098 0.063854 0.033307 0.033792 0.018271 0.075474 -0.053179 -0.048688 0.096002 -0.063779 0.078210 0.032423 -0.115201 0.048019 -0.023828 -0.046648 0.056570 -0.021376 0.051523 -0.033945 0.055469 0.012636 0.014105 0.046041 -0.000106 -0.005119 -0.018412 0.019638 -0.015471 -0.000938 -0.013108 -0.006509 -0.022782 -0.069910 0.063913 0.046719 -0.014224 -0.060219 -0.010488 0.014034 -0.014468 0.041376 0.059691 0.031465 0.027546 0.044073 -0.051414 0.022173 -0.020663 0.036103 0.031400 0.050875 -0.079978 0.025126 -0.072331 -0.018862 -0.063061 0.032857 -0.051597 -0.023773 0.039588 0.032134 -0.047126 -0.018753 0.013011 0.066542 0.100856 -0.060845 -0.038025 0.001910 -0.023320 -0.013148 0.003149 0.048320 -0.044226 0.007606 -0.053901 0.019444 0.078799 -0.051235 -0.017125 -0.015062 0.028621 -0.008481 0.005423 0.095930 -0.007658 0.024277 -0.033456 0.050308 -0.066768 -0.029318 0.027024 -0.059138 -0.022066 -0.022681 0.093782 0.028788 0.059289 0.009384 -0.070840 0.034637 -0.008428 0.020526 -0.000378 -0.105658 0.086021 -0.011419 -0.020720 0.009207 0.098535 -0.033793 -0.061039 -0.052215 0.055377 0.030562 -0.002974 0.000689 0.029603 0.039330 0.020911 -0.043488 -0.052629 0.036600 0.089984 0.074642 -0.037570 -0.047232 0.062400 0.037441 0.020089 0.033062 0.004390 0.000278 -0.099985 -0.003159 0.086471 -0.065487 -0.003239 -0.013461 0.062278 0.011126 0.015480 0.047365 -0.057830 0.066068 0.017338 -0.005286 -0.014499 -0.015177 0.041210 0.033320 -0.066996 -0.017797 0.011809 -0.025762 -0.008728 -0.054500 -0.033711 0.048083 0.057940 0.038871 0.003375 -0.067048 -0.007173 -0.005771 0.077799 -0.055166 0.019103 0.013567 0.031921 -0.014489 -0.069313 -0.003272 -0.062721 0.009144 -0.004511 0.033605 -0.013731 -0.014869 -0.047166 -0.015188 -0.033718 -0.037979 0.083552 -0.075389 0.065833 0.041617 -0.024258 0.062930 0.022583 0.083869 0.003577 -0.010501 -0.052462
0.001685 -0.059943 0.028460 -0.017344 -0.046138 0.026817 0.095025 -0.020742 0.042242 0.044830 0.015957 -0.027309 -0.023441 -0.006432 0.035857 -0.093271 0.127453 -0.002225 -0.006590 0.007561 0.085251 0.025805 0.019494 -0.039498 0.062806 0.024900 -0.048126 0.002811 -0.042352 -0.034485 0.001590 -0.072849 -0.001254 -0.020562 -0.057871 -0.028927 -0.070784 0.038542 -0.043769 -0.083309 -0.039348 0.023193 0.018804 -0.015465 0.067465 -0.070410 0.058147 0.010897 -0.040177 -0.053993 0.041924 -0.087785 0.040820 -0.058607 -0.018246 0.007609 0.060927 0.001940 -0.005123 0.000612 0.049014 0.001135 0.076296 -0.078511 -0.062012 0.005073 -0.084773 0.004878 -0.038118 0.073199 0.068935 0.002106 -0.040727 -0.070197 0.039691 -0.040950 -0.046791 0.037311 -0.046971 0.007492 -0.082906 -0.014200 0.012485 0.097224 -0.017858 -0.006166 -0.014258 0.044738 -0.073622 0.023536 -0.047126 0.062514 0.019995 -0.046368 0.063098 0.009789 0.018681 0.049797 -0.032784 -0.054126 0.033802 0.031746 0.054096 0.026026 -0.024933 -0.023094 -0.034658 -0.116381 0.045659 -0.136951 -0.119482 -0.114027 0.047065 0.030147 -0.004806 0.032514 0.032498 -0.017926 0.046088 -0.005946 -0.008875 -0.011315 0.016758 0.012622 -0.096795 -0.071060 -0.056692 0.007302 -0.060341 0.004054 -0.032445 0.023213 -0.004354 -0.008634 -0.032906 0.043227 0.111590 0.006174 -0.039895 0.044312 -0.145472 0.082554 0.075436 0.070631 0.021934 -0.010786 0.018791 -0.004956 0.048874 0.041394 -0.094380 -0.024391 -0.064765 -0.017405 0.094008 -0.026364 -0.031999 0.026040 -0.049759 0.093512 -0.080731 -0.006882 0.061089 -0.005211 0.114258 -0.000278 0.019529 0.092083 -0.040847 0.001801 0.035273 0.011391 0.030636 -0.022926 0.032263 -0.146268 0.045698 0.061701 0.027436 0.011056 0.074893 -0.088834 -0.056576 0.040059 0.052253 -0.008809 0.077933 -0.021806 0.034779 0.007050 0.088396 -0.038600 -0.020905 0.001371 0.086963 0.075671 0.033598 0.015103 -0.034912 -0.077348 0.010092 -0.038408 -0.047921 0.053176 0.068103 -0.005350 -0.137845 -0.004934 0.070462 0.007089 -0.000438 -0.036125 -0.092745 0.002162 -0.058115 0.006489 -0.053381 -0.045411 -0.002741 0.024332 0.033422 -0.009758 -0.086702 -0.027501 -0.025922 0.106081 -0.037727 -0.012333 -0.062137 -0.027156 0.069691 -0.019000 -0.056367 0.012845 0.033901 -0.002238 -0.047113 0.071838 -0.041085 -0.064982 0.020075 0.064997 -0.052486 0.099604 -0.002065 -0.055530 0.060683 -0.023083 0.021025 0.009019 -0.062935 0.041363 0.068551 0.081080 -0.077174 0.156745 0.024149 -0.002708 -0.034269 -0.039185 -0.024184 -0.006351 0.041146 -0.034111 -0.004514 -0.118311 -0.061968 0.018416 0.014591 -0.023750 -0.026929 -0.061954 0.057751 -0.021301 -0.041921 -0.017774 -0.009446 -0.015018 0.007732 0.054616 0.054337 0.030337 0.017744 0.029005 0.075639 0.056084 -0.062190 0.072729 0.029206 -0.011141 0.004188 0.019149 0.030221 -0.016400 0.053657 0.065743 -0.037271 -0.004555 0.020788 -0.001317 -0.007605 -0.017803 0.036906 -0.020262 0.045694 0.050661 0.048456 -0.019941 0.056707 -0.027108 -0.120709 0.049094 0.000892 -0.026401 0.008969 -0.041128 0.057684 -0.011775 -0.014186 -0.012316 0.048457 -0.055252 -0.054657 -0.034780 -0.021718 0.084024 -0.055910 0.029459 -0.005817 -0.053811 0.045444 0.027141 0.000378 -0.002651 -0.038631 -0.034228 0.066327 -0.021313 0.055827 -0.061780 0.026497 0.084655 -0.005507 -0.055048 -0.009240 -0.049592 -0.046370 0.009412 0.004946 -0.011794 -0.078856 0.046501 0.022553 0.047664 -0.038963 -0.019563 0.036362 0.019883 -0.003257 -0.017411 -0.073395 0.002081 -0.037330 -0.007787 -0.067737 -0.018864 -0.100102 0.024604 0.032779 -0.041127 -0.048449 -0.016133 -0.062119 -0.080707 -0.005752 -0.056432 -0.100752 -0.022588 -0.073031 -0.018495 -0.017938 0.004517 0.047640 -0.024003 0.001414 -0.034323 0.005756 -0.008065 0.002924 -0.028814 -0.042912 -0.006482 0.008657 -0.007699 0.012039 0.029740 0.016924 -0.029697 -0.023477 -0.027232 -0.006544 -0.026625 -0.038461 0.056853 -0.061914 -0.004208 -0.016727 -0.046567 -0.013546 -0.020871 -0.081792 -0.027964 -0.004847 -0.052011 0.038607 -0.117984 0.032995 0.011208 0.072014 -0.013471 0.044015 0.022346 0.011459 0.021216 0.077961 -0.047415 -0.013882 0.023026 0.005140 -0.003090 0.034103 0.000865 0.033605 0.030525 0.018206 0.059931 0.014190 0.015477 0.013769 0.004754 -0.044157 -0.023668 0.045969 0.019370 -0.076719 0.007036 -0.060682 0.113753 -0.086385 -0.037408 -0.036059 -0.048749 0.086716 0.012997 0.035717 0.019927 0.002790 -0.100030 -0.022391 0.083303 -0.092076 0.017245 0.080307 0.028137 -0.056436 -0.043341 -0.074908 0.008459 -0.047459 0.020883 0.034839 -0.001658 -0.007431 0.038178 0.081375 -0.070470 0.074770 -0.038278 0.031627 -0.015818 0.069996 0.068094 0.033022 0.004658 -0.084938 0.017796 0.067042 -0.060833 -0.026880 -0.033977 -0.091348 0.069278 -0.087117 -0.005878 0.076802 -0.084206 -0.043721 0.050130 -0.043074 -0.062175 -0.086923 0.023127 0.005913 0.000281 -0.012320 0.066503 -0.006765 0.035187 -0.007681 -0.040802 0.028344 -0.028088 -0.029847 -0.143515 0.060199 -0.099035 -0.017265 -0.041619 -0.090141 0.047707 0.030515 -0.023941 0.033975 -0.025136 -0.062802 0.022950 -0.024383 -0.039141 0.040238 0.006052 -0.040198 -0.070285 0.044270 -0.059272 0.003346 0.042631 0.112075 -0.032534 0.062655 0.060276 -0.017331 -0.038292 0.068735 -0.072867 -0.033844 0.001277 -0.048914 0.060290 -0.044673 -0.038909 -0.025525 0.008307 -0.061427 -0.022813 0.057954 0.089210 -0.019417 -0.065631 0.045499 0.070474 0.045937 -0.080056 -0.000902 -0.007321 0.031658 0.050658 0.039109 -0.026074 0.012812 -0.040319 -0.073659 0.037553 0.046426 -0.035772 0.055572 0.039434 0.038285 0.010350 -0.002430 0.007037 -0.014929 0.025357 -0.019875 0.067731 0.009074 -0.036178 -0.027718 -0.035957 0.073607 0.015069 0.051037 -0.092354 -0.030501 0.041096 0.086723 -0.047801 0.039942 0.017076 -0.024057 -0.072612 0.094758 -0.008979 0.053074 0.004404 0.066121 0.016636 0.015771 0.011627 -0.002940 -0.046548 -0.039658 -0.039534 -0.070195 0.045965 0.020965 0.015478 0.087112 0.083563 -0.004723 0.030403 0.084538 -0.014444 -0.007159 0.094233 0.033168 -0.066109 0.046863 0.008284 -0.026863 0.074987 -0.019230 0.033935 0.063736 0.008296 -0.028244 0.024233 -0.012246 -0.028083 0.055457 0.031844 0.102089 -0.086130 0.022157 -0.009603 -0.122462 0.033791 -0.019655 0.021897 0.077448 -0.021746 0.067112 -0.014734 -0.064646 0.063725 0.026465 -0.077335 0.034021 0.000146 -0.019266 0.042367 0.024827 -0.111501 0.043787 -0.014232 0.051672 0.066077 -0.015130 -0.014415 -0.001439 -0.004992 -0.048598 0.016667 -0.024874 -0.109555 0.028590 -0.022189 -0.078021 0.073326 0.008574 0.021746 -0.001172 -0.013156 -0.000055 0.023323 0.014797 -0.051418 0.028714 -0.005266 -0.016365 -0.027210 0.067769 0.087587 -0.004965 0.013996 -0.031024 0.016285 0.038290 0.031052 -0.025613 0.085501 -0.048627 0.077352 0.077250 0.037353 -0.031270 -0.058234 -0.002641 -0.034527 0.003399 0.033668 0.057638 0.106872 0.017692 -0.017280 0.004053 -0.004553 -0.118468 -0.010150 0.058600 -0.061572 -0.059259 -0.003613 -0.064542 0.024696 -0.053154 0.031071 0.017154 0.069359 -0.010419 -0.066243 0.043697 -0.006770 0.031084 -0.074713 -0.064618 0.066891 -0.049751 -0.055269 -0.067129 -0.020399 0.007587 0.023269 0.076426 -0.063142 0.042150 0.042369 0.005417 0.041546 0.053224 0.084443 -0.012945 -0.006254 0.003572 0.039986 -0.011025 -0.041343 -0.082197 -0.073389 -0.088182 0.005432 -0.015388 -0.027011 0.033708 0.059564 0.020526 -0.033446 -0.014402 -0.043654 0.044819 0.013246 -0.043706 0.080078 0.060454 -0.038458 -0.044429 -0.022127 -0.008872 0.043688 -0.043988 -0.017057 -0.041330 -0.081505 -0.021533 -0.132805
-0.004385 0.044079 0.090215 0.058743 -0.023978 -0.033093 -0.007458 0.070963 -0.046323 0.022672 -0.053592 -0.023022 0.029777 0.039485 0.024734 0.008432 -0.050299 0.013651 0.011819 -0.056621 0.026609 0.045935 -0.040986 0.022717 -0.022930 -0.044846 0.029701 -0.045390 -0.014019 -0.095744 -0.060856 -0.005460 -0.066669 -0.037098 0.065443 0.022964 -0.041748 0.025710 0.037406 0.031429 0.047811 0.021926 -0.038702 0.043070 0.076004 0.008153 0.044149 -0.085875 0.012576 0.023636 0.020956 -0.051479 0.096531 0.016158 0.027660 0.015330 0.074278 0.006005 -0.004492 0.013915 -0.016286 0.028714 -0.030115 0.017174 0.023871 0.018330 -0.046462 -0.091168 0.062626 0.020984 -0.008175 -0.037004 -0.014269 -0.016159 -0.024375 0.044259 -0.056517 0.056003 0.033958 -0.097054 0.023675 -0.110190 -0.044338 -0.083091 0.113193 0.004614 0.011811 -0.000011 0.038439 -0.017948 -0.095669 0.002353 -0.021597 0.041738 0.035232 0.021232 -0.002127 -0.009540 -0.139319 0.072437 0.069759 0.006718 -0.061390 -0.023364 0.007323 -0.015445 0.068531 -0.022832 0.056440 -0.044170 -0.082184 0.084274 0.094100 0.016946 -0.092010 0.004927 0.052351 -0.019440 -0.015673 0.001160 0.076592 -0.057745 -0.044920 -0.083687 0.002929 -0.018286 -0.041371 -0.005634 -0.052974 -0.006937 -0.052442 -0.017514 0.036811 0.026567 -0.032004 0.082633 0.119943 -0.018098 -0.006767 -0.007152 -0.004195 -0.059138 0.120719 0.001361 -0.042907 0.096177 0.029456 -0.038490 0.016775 0.038267 0.021565 0.075817 -0.043101 0.072543 -0.054881 -0.142988 -0.006749 -0.082185 0.004782 0.068736 0.036674 0.053641 0.040440 -0.040570 -0.025514 -0.016241 -0.055745 0.026518 -0.023232 0.006850 -0.076074 -0.031338 0.032393 0.045578 -0.032446 0.035596 0.032699 0.054720 -0.110820 0.025634 0.129934 -0.021685 0.032909 0.016076 -0.059798 -0.065832 0.013385 0.000894 -0.002130 -0.025541 -0.096692 0.017651 -0.008732 0.058885 -0.058109 0.043879 0.081141 0.108788 -0.072518 -0.088184 -0.010598 0.110080 -0.050608 0.049362 0.055263 0.001015 -0.032472 -0.052319 0.058002 -0.053453 -0.070242 0.010516 -0.122306 0.013957 -0.072397 -0.007559 0.008822 -0.014752 -0.010060 -0.040753 -0.071183 -0.004018 0.034485 -0.017260 -0.032323 0.022960 -0.023667 -0.003083 0.099682 -0.058785 -0.026987 -0.024783 -0.059310 -0.047590 0.014903 -0.023990 -0.089325 -0.052105 -0.024796 -0.014768 0.058949 -0.017236 0.057568 -0.058010 -0.087469 -0.066463 0.034881 0.024077 0.022529 -0.080133 -0.027428 0.060414 -0.009183 -0.081124 -0.000349 -0.005095 -0.008965 0.009506 -0.031546 0.004038 -0.003975 -0.082232 0.080729 -0.034848 0.053512 -0.074897 -0.010112 -0.005152 -0.019821 0.068632 0.061420 0.068820 -0.006986 0.010659 -0.068929 -0.061167 0.047890 0.038819 0.042074 -0.029379 0.006332 -0.042724 -0.011243 -0.038817 0.022813 -0.094244 -0.036173 0.014278 0.029207 -0.019324 0.038541 0.041482 0.025544 -0.097582 0.053207 -0.011759 -0.071396 -0.068693 -0.011563 -0.039883 -0.046089 -0.037047 -0.062073 -0.003638 -0.033815 -0.071115 0.026005 0.056087 -0.068192 -0.048862 -0.066075 0.011047 -0.028446 0.063559 -0.084425 -0.082772 -0.002876 -0.023015 -0.098054 0.036211 -0.044243 0.062305 -0.027317 -0.006479 -0.036371 -0.048017 0.041048 0.011744 -0.010776 -0.065055 -0.069919 -0.072878 0.076535 -0.008750 -0.021769 0.048925 -0.012199 -0.013249 0.037821 0.020947 -0.020824 -0.045308 0.023993 -0.019089 0.032623 -0.019843 -0.021024 0.036277 0.002106 -0.021573 0.003547 -0.002285 0.044498 -0.040943 0.040424 -0.094984 -0.038080 -0.010381 0.068291 0.014147 0.049124 0.051112 -0.094460 0.078919 0.035385 -0.041611 -0.036677 0.017173 -0.058070 -0.042018 0.062125 -0.037227 0.002668 0.059050 -0.033384 -0.004320 -0.057379 0.030501 -0.004608 -0.055615 -0.048266 -0.032642 0.022222 0.006045 0.116155 -0.023022 -0.066562 -0.037904 -0.010910 0.033384 0.016954 -0.079564 -0.052899 0.025873 0.044562 -0.006693 0.000820 0.017826 -0.037425 0.001522 -0.005429 0.012477 -0.028073 -0.088038 -0.032151 -0.023332 -0.024063 -0.032750 0.010617 -0.087981 -0.036519 -0.005929 -0.034902 0.073008 0.016570 -0.042942 -0.041270 -0.006814 -0.009340 0.045546 0.039520 0.050653 0.006481 -0.085490 -0.044588 -0.024746 0.042356 0.086638 0.054769 0.040563 -0.023518 -0.030594 -0.002923 -0.062744 0.043727 -0.104469 0.019594 0.042139 -0.067329 -0.061714 0.023743 -0.036770 -0.004538 0.054133 -0.022074 0.092199 0.094401 0.014666 0.029878 0.044289 -0.051883 0.021155 -0.036807 0.029247 -0.034359 -0.060354 0.040614 0.050343 -0.040627 -0.115875 -0.058804 0.067066 -0.029010 -0.019086 -0.027757 0.064131 -0.011506 -0.099313 0.124565 -0.099292 -0.065481 -0.049661 -0.026669 0.063457 -0.017109 -0.048318 -0.056396 0.061651 0.028407 -0.056147 -0.063314 -0.126561 0.026567 0.050273 -0.070710 0.006183 -0.048791 0.007179 -0.005879 -0.035871 0.027403 0.017400 0.028850 0.042712 -0.043475 0.047147 -0.068217 0.013336 -0.063954 0.025083 -0.024344 -0.015590 -0.053802 -0.047234 0.035366 0.040772 0.034553 0.049750 0.055542 -0.019157 0.062117 0.036214 -0.034344 0.075483 -0.018199 0.076659 -0.122904 -0.013719 -0.028716 -0.016689 -0.084943 0.092027 0.079180 -0.005770 0.006850 0.021909 -0.039135 0.028565 0.046546 0.066462 -0.031760 0.035317 -0.033078 0.006871 0.009034 -0.022131 0.007410 0.019130 -0.073148 -0.022910 -0.100857 -0.077038 -0.017036 -0.035903 -0.057663 0.021512 0.000249 -0.037370 -0.051310 0.008442 0.017788 -0.005341 -0.055793 -0.050652 -0.004690 0.026597 -0.030531 0.148655 -0.011741 -0.083597 0.034643 0.052279 -0.016062 -0.048805 -0.074187 0.067843 0.043588 -0.018681 -0.041101 0.056268 -0.089534 0.019454 -0.097646 0.055206 0.096634 -0.024558 0.006503 -0.039959 0.001695 0.010798 -0.033344 -0.083320 -0.068947 0.022611 -0.052734 0.081099 -0.026460 0.109619 0.023577 0.012811 -0.014351 0.000785 -0.028728 -0.089041 0.069987 -0.073671 -0.024544 0.027579 -0.069292 -0.006552 -0.034703 -0.068517 -0.056242 -0.111893 0.064039 0.050764 -0.085738 -0.093374 -0.043849 -0.024131 0.052023 -0.068321 0.010517 -0.013761 -0.119861 -0.056575 0.108949 -0.069712 -0.051874 0.013468 -0.004396 0.022262 -0.076270 -0.022886 -0.130883 0.011658 -0.032296 0.058663 -0.005530 0.046315 0.009054 0.016368 0.056578 0.066362 -0.063541 0.107397 -0.060535 0.011825 0.031272 0.006202 -0.074118 -0.010386 0.045768 0.117665 -0.017970 0.048050 0.049425 -0.048090 0.028002 -0.045069 0.051925 -0.034222 0.044491 0.044282 0.060164 -0.075447 -0.020908 0.037021 -0.001451 0.142266 0.011996 -0.064566 0.032901 -0.002079 -0.019671 0.031768 -0.006413 0.049103 -0.006334 0.078556 -0.099491 0.019501 0.043673 -0.015979 0.071436 0.022984 -0.051715 0.012040 -0.076455 -0.044159 0.011157 -0.073252 0.085124 0.049885 -0.050556 0.003902 -0.052959 -0.003433 -0.014429 0.093989 0.036603 -0.035582 0.089880 -0.077222 0.025792 -0.029883 -0.057522 -0.059460 -0.109277 0.032699 -0.016867 -0.001512 0.108734 0.043079 0.006589 -0.024467 0.045247 -0.058234 0.007212 -0.047393 0.040635 -0.064108 0.010044 0.038601 0.014497 0.045290 -0.075264 0.021082 0.028305 0.059731 0.036134 0.028334 -0.068014 -0.023365 -0.071706 -0.010490 -0.103223 -0.051220 -0.002403 -0.017541 -0.093861 0.019501 0.018075 -0.007151 0.073681 -0.036726 0.066693 0.025074 -0.063463 -0.000712 0.004094 -0.021504 0.022732 0.029502 0.060819 0.052259 0.086927 -0.128271 -0.054061 0.082577 -0.072357 0.038520 -0.054959 -0.055543 0.038159 -0.072771 0.102986 0.033792 -0.075525 0.042896 0.020359 0.039466 0.096795 -0.114326 0.093248 -0.036079 0.011035 0.091956 -0.028736 -0.029376 -0.004702 0.017146 -0.041995 0.011256 0.040742 -0.041354 -0.015111 0.064713 -0.003640 -0.086543 0.016852 0.007083 0.029607 0.021681
0.028922 -0.034482 -0.030705 0.004468 -0.033020 -0.069847 0.091887 -0.025131 -0.037576 0.042016 0.034007 0.010241 0.060314 0.019556 0.054411 0.043188 0.085277 0.042444 0.028799 -0.025635 -0.005364 -0.094061 -0.046228 -0.004575 -0.045143 0.076777 -0.013382 -0.060111 0.049152 -0.007833 -0.028505 -0.075311 -0.012694 -0.065886 -0.008709 -0.030381 -0.028376 0.021063 -0.028740 0.013837 0.015585 0.071263 -0.034242 0.043405 -0.061157 -0.024901 -0.082976 -0.004606 0.032109 0.082050 0.050627 -0.057690 -0.001720 -0.033619 -0.104173 -0.039200 0.032534 0.009256 -0.032943 -0.068097 -0.035630 0.062268 0.000773 -0.046809 0.057673 -0.003749 -0.049068 0.123276 -0.075159 0.041986 0.054983 0.006158 -0.120785 -0.007380 0.009129 -0.050171 -0.010121 -0.008224 0.004273 0.008796 0.035626 0.035546 -0.020088 0.016800 0.003556 0.036569 0.076172 0.123596 -0.030149 0.007990 0.001097 0.052005 -0.017416 0.028959 -0.024372 -0.000555 -0.060596 0.016222 0.027266 0.022644 0.028475 0.007457 -0.006320 0.028823 0.054016 -0.023341 -0.094029 -0.031049 0.077144 0.043679 -0.005279 0.010801 0.097277 0.009035 -0.007927 -0.070559 -0.057678 -0.080774 -0.004958 0.000728 -0.011208 0.013775 -0.028269 0.068934 0.006774 0.042706 0.091869 -0.036756 -0.004288 0.042945 -0.102092 0.096514 -0.054020 0.035131 -0.020278 -0.028248 -0.006182 0.021016 -0.056541 0.016638 -0.034806 -0.052025 0.052991 0.033591 0.057525 0.051359 -0.057418 -0.071677 -0.019582 0.047157 0.027942 0.091491 0.003931 -0.002279 0.094043 0.051813 0.034550 0.058239 0.046790 0.032096 0.093254 -0.108433 -0.051738 -0.039499 -0.026377 -0.012865 -0.012681 -0.079987 0.006573 -0.014284 -0.037001 -0.069496 0.116502 -0.063789 0.011959 -0.017463 -0.003186 0.115318 0.032270 0.037164 -0.106803 0.013875 -0.068881 0.010905 0.009082 -0.044202 0.046548 0.062011 0.054142 0.028041 0.088314 -0.102980 -0.018993 -0.076410 0.033933 0.016692 0.062906 -0.046509 -0.010812 -0.063297 0.026153 -0.005994 -0.029385 -0.056677 -0.040194 0.040819 0.072387 0.050406 0.095155 0.027168 0.063749 0.005227 0.077661 -0.057450 0.048335 0.024519 -0.057476 0.101579 -0.011473 0.007331 -0.019114 -0.085637 0.147066 0.002848 0.002634 -0.038201 -0.050887 0.079484 0.018825 -0.062585 -0.129069 0.036331 0.036319 0.072297 -0.004348 -0.016732 0.030778 -0.027876 0.026816 -0.062697 -0.049441 0.080352 0.108556 -0.057365 0.067049 0.047015 0.011001 0.052136 0.023810 -0.003878 0.021503 -0.018846 0.040639 -0.094033 0.090344 0.038541 0.066409 0.008695 -0.098713 0.022117 -0.039897 0.084253 -0.041392 -0.056406 0.053474 -0.036993 0.043079 -0.034516 -0.007332 0.025286 0.026869 -0.030647 0.015579 0.040427 0.043886 -0.114044 0.024698 0.034632 0.056663 0.004506 0.025498 0.023864 -0.022024 -0.002152 0.002539 -0.090610 -0.047092 -0.010030 -0.068238 0.038101 -0.065005 0.070296 0.091598 -0.008979 0.055531 0.097381 -0.004896 0.041975 0.052033 0.013517 0.011955 -0.066599 0.018891 -0.034974 -0.000647 -0.065929 0.032774 -0.042985 0.051313 0.044063 -0.052927 0.090312 0.070843 -0.032953 -0.013692 0.008054 0.078385 0.106582 0.049207 0.077867 0.090157 0.074874 -0.019801 -0.060319 0.112187 -0.031943 -0.087973 0.095254 -0.023013 -0.074198 0.093957 -0.036617 0.003125 0.014279 0.119892 -0.001936 0.037803 -0.044657 -0.012210 -0.006836 0.006377 -0.071125 0.020974 0.004593 0.040335 0.088550 -0.042094 0.036549 0.096016 -0.070163 -0.014065 0.041407 0.011807 0.059437 0.028200 -0.037647 0.016874 0.039012 0.081798 -0.007750 0.095604 0.070162 -0.040137 0.021020 0.013013 -0.010159 0.000662 0.006166 -0.033941 0.036478 0.054955 -0.002305 0.019672 -0.036152 0.008614 -0.037454 -0.134654 -0.042739 0.015729 -0.009808 -0.000367 0.105519 0.140599 0.040422 -0.062856 0.018723 0.066126 0.068530 -0.002940 -0.011908 0.043698 0.004214 0.011877 -0.046926 0.009778 -0.075694 0.030889 -0.037788 -0.013073 -0.013807 0.039882 0.113462 -0.013965 -0.031901 0.076764 0.008037 0.006553 -0.009754 0.033332 0.017697 -0.051727 -0.097179 -0.008367 -0.015986 -0.009809 -0.021874 0.008786 0.018450 0.020868 0.007269 -0.058201 -0.052846 -0.040172 0.010723 -0.000795 -0.134478 -0.035255 0.094428 -0.017308 0.008202 -0.039657 -0.023438 0.047256 -0.059984 0.002599 -0.014782 0.027035 -0.099116 -0.001182 -0.055773 -0.080747 -0.071114 0.028210 -0.000627 -0.012930 0.079059 -0.054599 -0.044051 -0.026523 0.006157 -0.037192 -0.045861 0.076993 0.082786 -0.005663 -0.035692 -0.077540 0.061609 -0.028792 -0.022237 0.037342 0.024406 -0.091717 0.013416 -0.100674 -0.066304 -0.034506 0.011678 0.016636 -0.017804 -0.012945 0.009205 -0.030722 0.071526 -0.028224 0.050068 0.050770 -0.011165 -0.032245 0.102747 0.122214 -0.051796 -0.029835 -0.051434 0.000438 0.003439 -0.020360 0.067111 -0.013978 -0.040897 0.009848 0.057996 0.030171 0.052730 0.077241 -0.054699 0.007104 0.064895 -0.052821 -0.037496 -0.031778 0.032351 0.069458 -0.013159 0.016187 0.062643 -0.066509 -0.039022 0.014103 0.070108 -0.064738 -0.028262 -0.019880 0.010846 -0.010469 -0.035699 -0.006522 -0.045203 -0.003421 -0.021356 0.042034 -0.023626 0.077807 -0.031021 0.010064 0.066923 -0.005821 0.097581 -0.071989 0.012011 -0.068504 0.070634 -0.072987 0.000391 0.008309 0.013672 -0.070615 -0.051303 -0.007923 -0.013542 -0.019121 0.062094 -0.022279 -0.048100 0.012545 0.018032 -0.013759 0.020638 0.003903 0.037604 -0.004130 0.016442 0.047602 0.012667 -0.081250 0.006565 -0.053880 -0.059581 -0.024586 -0.000254 0.022122 -0.155215 -0.086893 0.017785 0.129340 -0.006440 -0.024163 -0.006099 -0.028029 -0.085266 0.088702 -0.040868 0.050698 0.025296 0.044733 -0.003777 -0.012218 -0.060919 -0.028566 0.070584 -0.011782 0.010473 0.004367 0.037241 -0.104018 -0.015540 -0.014701 -0.051595 0.042887 0.008564 0.120226 -0.016191 0.021265 -0.081178 0.033145 -0.039931 0.022801 -0.062429 0.019016 0.038871 0.042396 -0.026966 0.055333 0.015036 -0.007570 -0.057603 0.061562 -0.025795 0.051816 -0.085197 0.012987 -0.039026 -0.006464 0.106638 0.072691 0.107321 -0.023814 -0.021444 0.075704 -0.040934 -0.018503 0.025438 0.000581 0.045006 -0.002462 0.012826 0.046480 -0.048050 0.037106 -0.022848 -0.059776 -0.023367 -0.001988 0.017142 0.133156 0.024386 -0.072060 -0.138817 0.042456 -0.015836 0.039325 -0.082448 -0.055109 0.008076 -0.082795 -0.064948 -0.053283 -0.002045 -0.027332 -0.027612 -0.024650 -0.007287 -0.036832 -0.000744 -0.024812 0.043938 0.017772 0.010608 -0.016637 -0.023738 0.022680 0.098787 0.024031 0.077216 -0.004347 0.023231 -0.024715 0.068828 0.088102 0.013734 0.000299 0.053718 0.042572 0.023936 -0.028995 -0.049344 0.003638 0.086472 0.067970 -0.027027 -0.055313 0.032292 0.027360 0.044886 0.026054 -0.053055 0.051161 -0.070410 0.041627 -0.110077 -0.094820 0.042731 0.021722 0.025989 -0.004136 -0.046306 0.026324 0.024899 0.056949 0.005288 0.032999 0.072506 0.017015 0.037571 0.039535 0.028877 -0.006017 0.073006 -0.018647 -0.019845 0.049931 0.010058 -0.091116 0.022134 0.052183 0.036862 0.046092 -0.048169 -0.000533 -0.002266 -0.143926 -0.016331 0.096014 0.070929 0.003760 0.037202 -0.021247 -0.008205 -0.014729 -0.017849 -0.018575 0.004143 -0.020736 0.031537 0.022153 -0.026705 -0.049129 -0.054386 -0.051067 0.059505 -0.006298 -0.041792 0.044200 -0.073560 -0.000734 -0.065385 0.013219 0.021182 -0.000499 0.039834 -0.000385 -0.032874 0.048737 -0.081874 0.050740 -0.072983 0.001412 0.038409 -0.024212 0.004370 0.009181 0.007009 0.039697 0.062523 -0.005840 0.028803 -0.034494 -0.041071 -0.044220 0.008234 -0.025846 0.009522 0.090005 -0.079706 0.006525 0.040730 0.024030 0.004325 0.017983 -0.053002 0.028999 -0.013373 0.046715 -0.016506
-0.046124 -0.085470 0.042009 -0.007925 0.026014 -0.019924 0.035975 -0.049674 0.012124 0.035921 -0.035546 0.006312 -0.029939 0.060520 0.004854 0.086463 -0.085519 0.020562 -0.010838 -0.014193 -0.079846 0.045211 0.054087 -0.016291 0.070460 -0.104546 -0.013796 -0.034091 0.032230 0.143513 -0.057985 0.073320 0.078598 -0.061883 -0.037890 -0.091677 -0.060476 -0.044397 0.004791 -0.049094 0.105935 0.025044 0.036406 0.106063 -0.011192 -0.027101 0.022019 -0.010355 0.020454 -0.001508 0.035113 -0.074130 -0.013742 0.044052 0.011597 0.021950 0.055793 0.015333 -0.063867 0.024444 0.064532 0.016907 0.034090 -0.010805 -0.022451 0.038337 -0.069906 -0.010065 0.060977 0.035931 -0.128796 -0.071320 -0.055926 -0.044996 -0.038706 -0.083486 0.089898 -0.062428 -0.019841 0.048602 0.020581 -0.070238 0.012151 0.003584 -0.019964 0.071308 -0.015742 -0.047421 -0.003148 -0.023392 -0.099784 0.048943 0.002972 0.033842 0.091791 -0.047781 -0.044507 -0.062119 0.028307 -0.073214 0.006921 -0.048477 0.003609 0.051771 0.011179 -0.010355 -0.024498 0.016962 -0.027248 0.015440 -0.012644 0.047453 0.049214 0.073821 -0.022349 0.047023 -0.023413 -0.018103 0.029740 -0.015421 0.004225 0.004396 -0.009003 0.038100 0.028707 0.023176 0.034469 -0.061084 0.041121 -0.043659 0.094472 0.011013 0.061695 0.031223 -0.099386 0.003507 -0.005484 -0.025254 0.037403 -0.044263 0.111475 0.034435 -0.028956 -0.055064 -0.047033 0.079678 -0.088274 0.094228 0.021519 0.061995 0.010619 -0.023053 -0.007693 0.011526 0.023996 0.001116 -0.072308 -0.081332 -0.067802 -0.019891 0.062669 0.037537 -0.038653 -0.072712 0.071812 -0.010783 0.018659 -0.041599 0.012114 -0.014755 -0.137578 -0.057199 0.020499 -0.027909 0.108029 0.113875 0.009453 0.018647 -0.005743 0.040908 -0.066084 0.026244 0.032348 -0.019094 -0.088240 -0.042668 -0.033930 -0.053616 0.019472 -0.045595 0.023929 0.062339 0.020982 0.008939 -0.037526 -0.007027 0.070576 0.009793 0.033555 0.036971 0.134630 -0.051684 -0.032506 -0.014611 0.064910 -0.005957 0.000789 0.052797 -0.028661 -0.014215 -0.020467 -0.005607 -0.019014 -0.033369 -0.040670 -0.022324 -0.022209 0.003611 -0.015912 -0.092581 -0.025841 -0.071015 -0.007088 -0.040030 0.049543 0.003760 -0.056936 -0.025726 0.010624 -0.070940 -0.037339 0.016082 0.009367 -0.047283 -0.015885 0.134502 0.026688 0.011167 -0.030461 0.090681 0.037938 0.036985 0.015911 0.002705 -0.104907 0.026593 -0.018786 -0.061886 0.027657 0.018056 0.013339 -0.010800 -0.005664 0.016929 -0.049885 -0.064487 0.104111 0.012201 -0.101193 -0.017000 -0.068219 -0.026953 0.045694 0.010476 0.038662 -0.010357 0.057011 0.014610 -0.032924 0.064383 -0.014235 0.028116 0.008500 0.005227 -0.002715 0.105286 -0.007024 -0.055448 0.034941 -0.072733 -0.038862 0.018330 -0.042931 0.005948 0.076186 0.030115 0.050982 0.045817 0.009967 -0.011041 0.021296 0.010712 -0.053519 -0.012925 0.094124 0.022404 0.037608 0.021582 0.119759 0.051697 -0.005279 0.034808 0.044662 0.057849 0.019457 -0.023999 -0.098407 -0.070612 -0.079151 -0.057539 0.077047 0.059041 -0.041197 -0.018161 -0.042843 -0.048697 0.056542 0.008739 0.036447 -0.014887 0.040794 0.060493 -0.015219 0.050681 0.058507 -0.067522 0.034898 -0.011509 -0.062587 0.049926 0.033727 0.002256 0.019074 -0.042233 0.055690 -0.165833 0.109826 -0.056134 -0.089292 -0.009140 0.000193 0.063915 0.013565 -0.033726 0.035554 -0.023183 -0.019603 -0.046348 -0.125436 0.034151 0.007869 0.012532 0.045117 0.056343 -0.022773 0.006334 0.067932 0.027333 0.022734 0.047046 -0.024136 -0.045384 0.039176 0.049990 0.068198 0.041358 -0.040103 0.075793 -0.074234 -0.015235 -0.023352 -0.020441 0.037019 -0.007107 0.031599 0.038259 0.000546 -0.108604 0.025220 0.005064 0.010847 0.040621 0.002716 0.127175 0.019282 -0.100630 -0.079181 0.090145 -0.065392 -0.085538 -0.007291 0.044448 -0.039257 -0.072608 0.038326 0.053191 0.032284 -0.032186 0.070405 0.004352 0.016184 0.031907 0.009183 -0.019429 -0.011609 -0.087943 0.001695 0.051019 -0.099736 0.057247 0.059489 -0.003515 0.030071 0.031726 -0.079844 -0.011814 -0.061721 0.060878 -0.028604 0.010574 -0.068913 -0.011677 -0.037990 0.012675 0.054950 -0.101711 -0.053274 -0.004545 0.018153 -0.031509 0.075990 -0.014077 -0.040272 0.051021 0.060436 -0.025863 0.065804 -0.053651 0.067180 0.011297 -0.074805 -0.073009 0.003221 -0.034043 -0.026761 0.013892 0.030428 -0.020969 -0.015462 0.020309 -0.037059 -0.005462 0.029637 -0.003277 -0.004689 -0.024391 -0.111771 -0.041940 -0.040501 0.026412 0.042683 -0.016401 0.012624 -0.049168 0.050819 0.063582 0.028084 -0.053494 0.063726 -0.040384 -0.011341 -0.033444 0.004731 0.023608 0.005513 0.006840 0.031301 -0.021113 0.048073 -0.030916 0.020652 0.064845 -0.030927 0.014785 0.107260 0.028075 0.086479 0.004448 0.006790 0.016298 -0.042013 0.087363 -0.087857 0.032096 0.064149 -0.066730 0.054856 -0.063009 -0.013666 -0.003848 -0.018410 0.078759 0.015663 0.049846 0.009231 -0.000325 0.032275 -0.034232 -0.035614 0.012279 -0.027078 -0.000929 -0.008840 -0.000008 0.108569 0.062739 0.018414 0.036991 0.037965 -0.000310 -0.032735 0.014894 -0.083722 0.028987 0.047857 0.037169 -0.074940 0.050577 0.061792 0.007047 -0.035992 -0.046809 0.092922 0.085168 -0.063294 0.055301 -0.042868 0.000725 -0.020816 -0.025221 -0.049895 0.042778 0.015718 -0.002995 -0.053522 -0.001658 -0.051561 0.029758 0.100391 -0.056749 0.040540 0.001265 0.071602 -0.018965 -0.050411 0.047357 0.130021 0.015572 0.009654 0.121931 0.001730 0.063850 -0.073136 -0.062994 -0.020635 0.065038 -0.077475 0.057245 0.059629 0.006377 -0.027949 -0.019800 -0.022207 0.005017 -0.029801 -0.005609 -0.037489 0.052357 -0.040681 -0.012308 0.001951 0.046583 0.025219 0.030494 -0.061302 0.036724 -0.003651 0.025356 0.101202 -0.022970 -0.004735 0.018111 0.006266 -0.035235 -0.035766 0.020507 0.035713 0.022213 -0.014090 -0.050775 0.135720 -0.018265 -0.024389 -0.015332 0.002101 0.022175 -0.095120 0.008276 -0.020145 -0.027352 -0.040756 0.054053 -0.020247 -0.077874 -0.084578 0.076414 -0.094855 0.047594 -0.034281 -0.048732 0.014390 0.024163 0.102627 0.026151 0.083850 0.038744 -0.018920 -0.050710 0.013920 0.046018 -0.005487 -0.001788 0.005153 -0.046450 0.101344 -0.013166 0.026900 -0.014516 0.036912 0.033098 0.015536 -0.008052 0.055917 -0.001130 0.127141 0.005439 0.036380 -0.024913 0.031880 -0.031623 -0.011646 0.020239 0.029669 -0.089895 0.000833 0.024469 0.056160 -0.057055 0.120706 0.022219 0.045449 -0.094051 -0.014808 0.024993 0.097658 0.027701 0.028034 -0.062429 0.062280 -0.072228 0.053419 0.010042 -0.085249 -0.003116 -0.011281 0.012939 0.061188 -0.035456 -0.122879 -0.087956 -0.068914 -0.094465 0.028050 -0.061085 0.039901 -0.027821 -0.045446 0.000302 -0.059666 0.060052 0.030786 -0.102208 0.012680 -0.003822 0.038157 -0.109215 0.054903 -0.112160 -0.013185 0.093695 0.028176 -0.086178 0.024629 0.042749 0.030635 -0.002008 0.049878 -0.091807 -0.029483 -0.038502 -0.078647 -0.021751 0.001959 -0.017675 0.047538 0.075214 0.006529 -0.000003 0.050693 0.058902 0.064994 0.001476 0.014128 -0.068982 -0.035675 -0.011863 -0.058250 0.132559 0.038078 -0.039854 -0.011416 0.041959 0.010310 0.060962 -0.054818 -0.000001 -0.034841 -0.059409 0.000803 0.012494 -0.063218 0.088818 0.022427 0.047729 0.029521 0.074089 0.001215 -0.057474 0.011149 -0.130639 0.011509 0.080504 -0.022394 -0.008946 0.047403 0.045014 -0.038225 0.051024 0.037632 -0.000181 0.005997 0.024068 -0.032376 0.032323 -0.001932 -0.105711 -0.027958 0.049685 0.007174 0.099293 -0.078889 0.058385 0.089955 -0.019734 -0.096611 -0.041565 0.029659 0.013761 0.043508 0.002432 0.007556 -0.012177 -0.006376 0.082600
