-0.136286 0.015124 -0.071758 -0.060360 -0.114955 0.099113 -0.052233 -0.173486 -0.167603 -0.000823 0.011248 -0.105782 0.149999 0.166225 0.190519 -0.033452 -0.194788 0.167719 -0.003054 -0.088249 -0.122425 -0.075828 -0.033925 0.102829 -0.009645 -0.078674 -0.080468 0.127062 -0.100512 -0.007029 -0.069932 -0.062991 0.050675 -0.035035 0.045588 -0.226574 0.108956 0.155802 0.025544 0.011554 -0.031982 0.020521 0.090349 0.113330 0.047082 0.057926 0.105297 -0.035146 -0.065903 -0.230540 -0.084155 -0.039091 0.041167 -0.114111 0.136885 0.025233 0.065229 0.013139 -0.285384 0.122591 0.039957 0.093790 0.156351 0.103007 0.030505 -0.137935 -0.087554 -0.167738 -0.106056 0.119561 -0.112233 0.055526 0.044212 0.018798 0.082002 0.052406 0.102068 -0.000753 0.029496 0.096770 -0.084548 -0.111497 0.041648 0.006537 -0.146461 -0.195796 0.078294 -0.036427 0.099456 0.089753 -0.052737 0.041901 0.081255 -0.122367 0.025468 0.154265 0.139970 -0.067979 0.045294 -0.115327
0.029437 -0.006682 -0.052253 0.101277 -0.177741 0.003981 0.029261 0.094121 0.194312 0.118665 0.197893 0.001794 0.143177 0.071591 0.155152 0.018699 -0.224326 -0.039602 0.388637 0.118618 -0.097408 0.042371 0.013759 0.034687 0.037752 -0.273560 0.104736 0.114167 0.023206 -0.231751 -0.084024 -0.143769 0.109657 0.042188 0.032653 -0.112101 -0.108258 -0.032118 0.009633 -0.153558 0.129485 -0.077005 -0.122433 -0.210106 -0.002414 -0.138201 -0.258605 0.038614 0.058147 -0.012357 -0.070980 0.078317 -0.171214 -0.136512 -0.223610 -0.174248 0.023361 -0.265408 0.154250 -0.004559 -0.096325 0.043744 0.015596 -0.077541 -0.136299 -0.173256 0.002965 0.115935 -0.020658 -0.002706 0.009207 -0.063463 0.064243 -0.065928 0.087023 -0.009554 0.209121 0.069118 -0.079233 0.147672 -0.004429 -0.127446 -0.052945 -0.027089 0.022034 0.092555 0.207316 0.077419 0.015188 -0.069177 -0.085227 0.210587 0.183466 -0.055263 0.103711 0.133545 -0.078992 0.046128 -0.219513 0.127408
0.009427 -0.240431 0.071864 0.020547 0.153004 -0.106177 -0.043390 -0.027903 -0.025784 -0.029141 -0.039532 0.013798 0.148444 -0.002824 0.011540 -0.077189 -0.333700 -0.105753 -0.078115 -0.045298 0.062820 0.097547 0.019762 -0.019005 -0.040191 0.119047 0.033944 0.064626 -0.092520 0.134276 -0.043221 -0.141489 0.280384 0.084138 -0.054332 -0.069018 0.029625 0.099919 0.166281 0.035865 0.038292 0.051194 0.265414 0.055967 -0.081038 0.024628 0.234543 0.044102 0.034784 -0.188938 0.045587 -0.037853 -0.076156 -0.026704 0.149324 0.114157 0.037132 0.028168 -0.138482 0.017079 -0.029730 0.161274 -0.017511 -0.056716 -0.012473 0.083182 0.305330 -0.208435 0.083020 0.203938 0.085805 0.041387 0.049408 0.121863 0.034923 -0.073041 0.207673 0.084647 0.043105 -0.022632 0.075358 -0.025708 -0.116339 -0.118892 -0.081089 0.326921 0.093070 -0.022360 -0.114319 -0.080697 0.005988 0.072185 0.026786 0.017157 0.071743 0.122829 0.062092 -0.035635 -0.100797 -0.203096
0.003757 -0.141094 -0.016250 -0.005218 -0.020670 -0.066231 0.007530 0.090839 0.060020 -0.101551 -0.066565 -0.076571 -0.021218 -0.047956 -0.004262 -0.024730 0.051090 -0.116922 -0.052316 0.013871 0.146147 -0.071948 0.029029 0.110499 0.054311 -0.025841 -0.082752 -0.230540 0.006680 0.095152 -0.090993 0.052885 -0.088999 -0.004316 0.100754 0.125460 0.039430 0.057709 0.113013 0.172341 0.201250 -0.112431 -0.152171 0.017327 -0.095784 -0.079420 -0.251362 -0.004914 0.123913 0.125413 -0.181737 -0.087511 -0.167973 -0.039810 -0.493164 -0.021781 0.024901 -0.055666 -0.008968 0.045638 0.035974 0.092013 0.169089 -0.021976 0.036107 0.110839 -0.244016 -0.023903 0.034650 -0.043354 -0.077208 0.052250 0.071190 -0.077990 -0.036178 0.218552 0.004429 -0.083361 0.051852 0.044773 0.135843 -0.105015 -0.098873 0.139024 -0.289621 -0.028365 0.285426 -0.067445 -0.112538 0.059195 -0.011079 -0.154778 0.057694 0.044590 0.051303 -0.174116 -0.036585 -0.098284 0.066006 0.009507
-0.092737 0.207106 -0.025230 -0.052804 -0.045761 -0.002135 0.133036 -0.040328 -0.168345 -0.023912 -0.191181 0.027087 -0.123033 -0.127359 0.155052 -0.076582 0.152546 -0.008411 -0.185578 0.028070 0.128358 -0.068198 0.073446 -0.009489 0.014060 -0.142230 0.038809 0.048427 -0.084578 -0.057716 0.082687 0.008555 -0.071642 -0.234497 -0.201597 0.044307 -0.083702 -0.067612 -0.108608 -0.048324 0.130512 0.224455 0.219483 -0.191650 -0.022372 0.124372 0.044086 -0.001741 0.029519 -0.059622 -0.122659 -0.029581 0.243252 0.248806 0.137618 0.202175 -0.016491 -0.112415 -0.116365 -0.004351 -0.131324 0.262132 0.065021 -0.105604 -0.016384 0.180347 0.072708 -0.014040 -0.056942 -0.027316 0.006763 0.022660 0.047150 -0.070027 0.085590 -0.222531 0.099730 0.139466 -0.015322 0.125589 -0.024581 -0.144056 -0.151699 0.088503 0.089576 0.028948 -0.055149 -0.034641 -0.093928 0.018455 -0.111653 -0.069502 -0.060102 0.044704 0.138598 -0.255694 0.180907 -0.110743 0.166523 -0.184950
-0.000927 -0.168692 -0.031812 -0.074869 0.256472 0.105828 -0.066151 0.150607 -0.088448 0.009836 -0.105803 0.128404 -0.058078 0.017604 -0.086979 -0.079890 0.083872 0.030969 0.116381 0.184008 0.135714 0.026103 0.053393 -0.133672 0.176478 0.083794 -0.294674 -0.269091 0.128128 -0.107749 0.110297 -0.113137 0.186451 -0.018751 -0.138494 -0.039399 -0.019751 0.030813 0.021694 0.472328 -0.197254 0.110451 -0.268338 -0.058564 -0.066564 0.102646 -0.191752 -0.184480 -0.103067 -0.052992 -0.001104 0.107896 0.167692 -0.056665 -0.021899 0.056269 0.151232 0.147378 0.048850 0.133095 -0.116794 -0.117054 0.047081 0.095048 0.102104 -0.181268 0.050303 -0.149135 0.120804 -0.031799 -0.063349 0.070757 0.218243 -0.155858 0.060122 -0.127154 -0.098214 -0.083692 0.207102 -0.177382 0.053336 0.028030 -0.049534 -0.027047 0.257829 0.323026 -0.034397 0.065500 0.034001 0.074627 0.014928 0.265656 0.176953 -0.065325 0.034229 0.029279 0.114934 0.157933 0.152097 -0.004178
-0.050743 -0.008455 0.059332 0.017811 0.120746 0.046522 -0.017257 0.065712 -0.126305 0.135177 0.152814 -0.084108 0.085329 0.244213 0.150247 0.046059 0.073746 -0.097854 -0.225439 -0.168515 -0.059067 -0.104384 0.003680 0.093049 0.034021 -0.066441 -0.031549 0.107826 0.026460 -0.052106 0.036172 0.160776 0.054142 0.191268 -0.044097 0.075085 0.019250 -0.033819 0.035082 -0.216269 0.129415 0.073308 0.000279 -0.005848 -0.110279 0.006499 -0.052382 -0.144456 -0.067044 0.002827 0.182988 0.108811 -0.075880 -0.023877 -0.122122 -0.025522 -0.071313 0.107532 0.189172 -0.159278 -0.114805 0.055793 0.037229 0.349461 0.159785 -0.166814 -0.013120 -0.026798 -0.135919 0.095351 -0.034732 -0.060033 0.103161 0.022538 0.023189 0.238850 0.064993 0.113645 0.022497 -0.031840 -0.173842 -0.241170 -0.200482 -0.159217 -0.206549 0.285852 0.072676 0.046934 -0.057293 0.011120 0.193605 -0.039835 0.254267 0.138373 0.081655 -0.114502 -0.025443 -0.003678 -0.140446 -0.025990
0.005991 -0.207110 0.085969 -0.020270 0.093784 0.260488 0.058462 0.020310 -0.002802 0.261819 0.185343 0.036727 0.004235 -0.010027 0.124191 0.037432 0.002824 0.050252 0.014656 -0.240859 0.202568 0.034331 -0.101938 -0.100632 0.012553 0.248575 -0.086300 -0.054116 0.080820 0.031953 0.016603 -0.109352 0.195055 0.108749 -0.052618 0.068345 -0.037166 -0.241871 -0.028942 0.042561 0.107536 -0.005771 -0.123674 -0.050221 -0.028320 -0.112996 0.009345 -0.062669 0.004351 -0.214836 0.059262 -0.043500 0.083666 0.000930 -0.059059 -0.020526 0.208578 0.057852 -0.052309 -0.148881 0.062644 -0.004051 -0.113260 -0.043497 0.209999 0.347070 0.020758 -0.120094 -0.054575 0.097135 -0.077807 0.027299 -0.129467 0.091031 0.080595 0.122289 -0.003649 -0.051190 0.098106 -0.013455 0.093220 -0.067266 -0.080049 -0.058051 0.070779 0.167127 -0.040223 -0.106206 0.082049 -0.182699 0.112750 -0.062884 -0.116813 -0.168918 -0.013085 0.116050 0.018256 0.027223 -0.309115 -0.185581
-0.000891 -0.007073 0.101716 0.071106 0.124128 0.051207 0.055952 -0.039599 -0.015479 -0.022882 -0.218023 0.075805 0.083898 0.066194 0.078098 0.189492 0.078162 -0.046500 0.177940 0.064394 -0.173306 -0.127648 -0.000493 0.283873 -0.033248 0.018552 0.034878 -0.128545 0.235406 -0.025269 -0.114771 -0.137778 -0.160889 -0.155324 0.221769 -0.008597 -0.043157 -0.006802 0.075725 0.182843 -0.057642 0.048806 -0.252403 0.027833 0.006509 -0.262575 -0.159705 0.066438 -0.099306 0.053223 0.376531 -0.084742 -0.155871 0.163737 -0.367465 -0.044771 0.075646 -0.123554 0.027037 0.072667 0.025010 0.030401 0.000892 -0.018205 0.100897 0.035771 0.245433 -0.232916 -0.051029 -0.003588 -0.010721 0.131775 -0.014146 0.228789 -0.273374 -0.064458 0.006164 -0.131907 0.076350 -0.070076 0.135077 -0.029033 0.081196 0.009679 0.048765 -0.002450 0.120235 0.148853 -0.204478 -0.041706 -0.100564 0.041826 0.215821 0.033858 -0.081178 -0.100392 -0.119402 0.102777 0.272259 0.018957
-0.050236 -0.095477 -0.020628 0.010994 -0.131263 -0.291369 0.076695 0.227527 0.032717 0.039384 -0.016581 0.003554 0.057583 0.069778 0.012082 0.009654 0.135133 -0.064959 0.041402 -0.078181 -0.052507 0.084136 0.067900 0.009992 0.181259 -0.157030 0.097227 0.042293 -0.035025 -0.072895 -0.015380 0.023220 -0.194459 0.053931 0.046893 0.175049 0.034406 0.033276 0.091989 -0.065420 -0.080167 -0.110182 0.053746 0.008704 0.075704 0.026684 -0.085512 -0.149653 0.151185 0.129053 0.122567 0.038457 -0.122874 0.202020 -0.040390 -0.026040 0.012061 -0.072506 -0.096221 -0.038661 0.193849 0.079417 0.086075 0.154052 -0.056032 0.132392 -0.005842 0.123709 -0.004541 0.147701 0.045935 0.171836 -0.019539 -0.080423 -0.157309 -0.100688 0.145591 0.054861 0.041115 -0.014948 0.073721 0.076584 0.285135 0.139081 0.037029 0.119413 -0.089394 0.124131 -0.100048 0.099661 0.027518 -0.072729 -0.038901 0.204126 0.233674 0.097407 -0.208532 0.177222 0.057209 0.195856
