-1.000000 -1.000000 -1.000000 -1.000000 -1.000000 -1.000000 -1.000000 -1.000000 -1.000000 -1.000000 -1.000000 -1.000000 -1.000000 -1.000000 -1.000000 -1.000000 -1.000000 -1.000000 -1.000000 -1.000000 -1.000000 -1.000000 -1.000000 -1.000000 -1.000000 -1.000000 -1.000000 -1.000000 -1.000000 -1.000000 -1.000000 -1.000000 -1.000000 -1.000000 -1.000000 -1.000000 -1.000000 -1.000000 -1.000000 -1.000000 -1.000000 -1.000000 -1.000000 -1.000000 -1.000000 -1.000000 -1.000000 -1.000000 -1.000000 -1.000000 -1.000000 -1.000000 -1.000000 -1.000000 -1.000000 -1.000000 -1.000000 -1.000000 -1.000000 -1.000000 -1.000000 -1.000000 -1.000000 -1.000000 -1.000000 -1.000000 -1.000000 -1.000000 -1.000000 -1.000000 -1.000000 -1.000000 -1.000000 -1.000000 -1.000000 -1.000000 -1.000000 -1.000000 -1.000000 -1.000000 -1.000000 -1.000000 -1.000000 -1.000000 -1.000000 -1.000000 -1.000000 -1.000000 -1.000000 -1.000000 -0.988463 -0.912621 -0.923551 -0.999449 -0.999498 -0.999659 -0.999988 -1.000000 -0.999983 -0.999188 -0.999140 -0.999983 -1.000000 -1.000000 -1.000000 -1.000000 -1.000000 -1.000000 -1.000000 -1.000000 -1.000000 -1.000000 -1.000000 -1.000000 -1.000000 -1.000000 -1.000000 -0.999973 -0.980749 -0.905259 -0.907617 -0.988704 -0.999296 -0.999778 -0.999984 -0.999625 -0.998519 -0.997461 -0.997528 -0.998871 -0.999968 -0.995256 -0.998437 -0.999142 -0.999837 -1.000000 -1.000000 -1.000000 -1.000000 -1.000000 -1.000000 -1.000000 -1.000000 -1.000000 -1.000000 -0.999925 -0.978044 -0.870961 -0.921948 -0.910762 -0.891389 -0.971074 -0.972207 -0.922592 -0.920082 -0.919980 -0.923033 -0.933262 -0.968707 -0.962042 -0.939278 -0.875446 -0.900495 -0.946563 -0.946566 -1.000000 -1.000000 -1.000000 -1.000000 -1.000000 -1.000000 -1.000000 -0.999983 -0.996818 -0.869113 -0.794612 -0.774796 -0.815761 -0.851849 -0.908438 -0.914322 -0.907879 -0.906282 -0.908521 -0.907230 -0.890048 -0.871775 -0.847497 -0.825841 -0.799295 -0.831495 -0.943545 -0.974611 -1.000000 -1.000000 -1.000000 -1.000000 -1.000000 -1.000000 -0.999997 -0.994910 -0.954635 -0.793536 -0.665682 -0.704122 -0.677986 -0.590278 -0.760585 -0.884014 -0.878042 -0.868962 -0.828965 -0.790207 -0.764601 -0.678257 -0.640986 -0.678406 -0.627713 -0.817861 -0.942828 -0.990522 -0.999855 -1.000000 -1.000000 -1.000000 -1.000000 -0.999996 -0.999994 -0.970132 -0.873928 -0.677160 -0.480444 -0.417922 -0.357755 -0.267957 -0.602361 -0.613870 -0.566968 -0.440030 -0.310153 -0.428808 -0.431170 -0.526520 -0.450626 -0.410125 -0.470599 -0.666625 -0.892984 -0.925091 -0.984104 -1.000000 -1.000000 -1.000000 -1.000000 -0.999397 -0.997312 -0.923475 -0.784925 -0.431329 -0.352927 -0.286781 0.080416 -0.025553 -0.240928 -0.168654 -0.222050 -0.096557 0.061713 -0.007173 -0.126628 -0.353852 -0.307363 -0.314274 -0.438081 -0.519111 -0.598409 -0.603700 -0.758989 -0.819192 -1.000000 -1.000000 -1.000000 -0.964340 -0.924472 -0.812185 -0.648892 -0.459931 -0.505726 0.168431 0.409628 0.070323 -0.168776 -0.199071 -0.298728 -0.065490 0.075424 0.092568 0.062217 -0.180554 -0.249620 -0.302754 -0.304706 -0.025657 -0.148580 -0.403784 -0.700300 -0.835714 -1.000000 -1.000000 -1.000000 -0.936136 -0.876948 -0.730572 -0.528628 -0.526635 -0.287122 0.461689 0.643667 0.231716 -0.212955 -0.365859 -0.363220 -0.074697 0.207159 0.191475 0.274799 0.256400 -0.100325 -0.185827 -0.015825 0.142766 -0.089395 -0.523891 -0.787680 -0.985344 -1.000000 -1.000000 -1.000000 -0.960437 -0.852373 -0.635308 -0.512807 -0.378051 0.085060 0.603764 0.649677 0.133604 -0.208937 -0.454508 -0.252315 0.049556 0.521754 0.376918 0.431487 0.189901 -0.015153 0.005302 0.153204 0.130811 -0.249540 -0.508549 -0.601361 -0.748744 -0.999869 -1.000000 -1.000000 -0.987822 -0.847353 -0.290494 -0.039323 0.025053 0.244815 0.779737 0.603572 0.015029 -0.118251 0.015079 0.169490 0.398463 0.691083 0.417506 0.321335 0.181908 -0.042999 0.113535 0.163705 0.085515 -0.102064 -0.398114 -0.457266 -0.826308 -0.999449 -1.000000 -1.000000 -0.984284 -0.893234 0.036528 0.165263 0.254607 0.633020 0.923583 0.602746 0.049686 -0.033812 0.272542 0.664297 0.796725 0.505009 0.302340 0.568707 0.554634 0.767811 0.859912 0.627240 0.449948 0.017965 -0.510284 -0.669288 -0.991262 -0.999571 -1.000000 -0.999998 -0.997238 -0.925363 -0.233424 0.048003 0.315529 0.755188 0.899308 0.451989 0.105873 0.198845 0.431806 0.559398 0.475598 0.508172 0.817165 0.931313 0.981195 1.000000 0.982603 0.769950 0.317663 -0.012216 -0.640399 -0.760677 -0.965983 -0.999967 -1.000000 -0.999992 -0.961533 -0.827913 -0.461351 -0.226952 0.059067 0.709263 0.908669 0.544535 0.138561 0.079225 0.112217 0.484625 0.603349 0.689504 0.784037 0.741648 0.410128 0.429259 0.582665 0.299783 0.016927 -0.326189 -0.539198 -0.700117 -0.947233 -0.980423 -1.000000 -0.999987 -0.989243 -0.832023 -0.689255 -0.448413 -0.073895 0.841684 0.886685 0.615692 0.476585 0.616583 0.787500 0.890071 0.896042 0.819741 0.678001 0.331851 -0.040804 0.042182 0.022320 -0.106462 -0.446002 -0.483588 -0.467366 -0.688846 -0.868469 -0.912210 -1.000000 -0.999988 -0.999994 -0.887762 -0.820733 -0.600606 -0.210180 0.371441 0.694626 0.630884 0.603527 0.510798 0.590166 0.463788 0.163118 0.182756 0.222897 -0.051798 -0.125761 -0.202276 -0.223391 -0.460972 -0.584880 -0.702132 -0.820313 -0.957975 -0.994968 -0.998323 -1.000000 -1.000000 -1.000000 -0.953897 -0.893849 -0.643185 -0.331531 0.005564 0.064436 0.009255 -0.053312 -0.293539 -0.427105 -0.629849 -0.597148 -0.370888 -0.117704 -0.270873 -0.374056 -0.384283 -0.397986 -0.550803 -0.631185 -0.812902 -0.891812 -0.983201 -1.000000 -1.000000 -1.000000 -1.000000 -1.000000 -0.999992 -0.985647 -0.923629 -0.763062 -0.546933 -0.448251 -0.658522 -0.731838 -0.854059 -0.881854 -0.889321 -0.859044 -0.566831 -0.288705 -0.536472 -0.524920 -0.636644 -0.662712 -0.732748 -0.857524 -0.889840 -0.964858 -0.999915 -1.000000 -1.000000 -1.000000 -1.000000 -1.000000 -1.000000 -0.973943 -0.946859 -0.882045 -0.801698 -0.751268 -0.840773 -0.895057 -0.895058 -0.889325 -0.885242 -0.829092 -0.703595 -0.637573 -0.747120 -0.594779 -0.569798 -0.608462 -0.820796 -0.889827 -0.935266 -0.999746 -1.000000 -1.000000 -1.000000 -1.000000 -1.000000 -1.000000 -1.000000 -0.995392 -0.933101 -0.912750 -0.876189 -0.808979 -0.820705 -0.920138 -0.914067 -0.908854 -0.901095 -0.863055 -0.893180 -0.892241 -0.831915 -0.685946 -0.672686 -0.739401 -0.916763 -0.965467 -0.996173 -0.999975 -1.000000 -1.000000 -1.000000 -1.000000 -1.000000 -1.000000 -1.000000 -0.999999 -0.945141 -0.948099 -0.925685 -0.843258 -0.903451 -0.956912 -0.916046 -0.915297 -0.915473 -0.916789 -0.910131 -0.906512 -0.889993 -0.857378 -0.925069 -0.989266 -0.998812 -0.999970 -0.999984 -1.000000 -1.000000 -1.000000 -1.000000 -1.000000 -1.000000 -1.000000 -1.000000 -0.999999 -0.988916 -0.985785 -0.931590 -0.924285 -0.998725 -0.994304 -0.973176 -0.973035 -0.958444 -0.929727 -0.943349 -0.976687 -0.925714 -0.924461 -0.986530 -0.999761 -0.999898 -1.000000 -1.000000 -1.000000 -1.000000 -1.000000 -1.000000 -1.000000 -1.000000 -1.000000 -1.000000 -1.000000 -0.999999 -0.999713 -0.971490 -0.972495 -0.999885 -0.999991 -0.999999 -1.000000 -1.000000 -1.000000 -1.000000 -1.000000 -0.990262 -0.989929 -0.999909 -1.000000 -1.000000 -1.000000 -1.000000 -1.000000 -1.000000 -1.000000 -1.000000 -1.000000 -1.000000 -1.000000 -1.000000 -1.000000 -1.000000 -0.999997 -0.985019 -0.966122 -0.997760 -1.000000 -1.000000 -1.000000 -1.000000 -1.000000 -1.000000 -1.000000 -0.999942 -0.999777 -0.999993 -1.000000 -1.000000 -1.000000 -1.000000 -1.000000 -1.000000 -1.000000 -1.000000 -1.000000 -1.000000 -1.000000 -1.000000 -1.000000 -1.000000 -1.000000 -0.999580 -0.973401 -0.997480 -1.000000 -1.000000 -1.000000 -1.000000 -1.000000 -1.000000 -1.000000 -1.000000 -1.000000 -1.000000 -1.000000 -1.000000 -1.000000 -1.000000 -1.000000 -1.000000 -1.000000 -1.000000
-1.000000 -1.000000 -1.000000 -1.000000 -1.000000 -1.000000 -1.000000 -1.000000 -1.000000 -1.000000 -1.000000 -1.000000 -1.000000 -1.000000 -1.000000 -1.000000 -1.000000 -1.000000 -1.000000 -1.000000 -1.000000 -1.000000 -1.000000 -1.000000 -1.000000 -1.000000 -1.000000 -1.000000 -1.000000 -1.000000 -1.000000 -1.000000 -1.000000 -1.000000 -1.000000 -1.000000 -1.000000 -1.000000 -1.000000 -1.000000 -1.000000 -1.000000 -1.000000 -1.000000 -1.000000 -1.000000 -1.000000 -1.000000 -1.000000 -1.000000 -1.000000 -1.000000 -1.000000 -1.000000 -1.000000 -1.000000 -1.000000 -1.000000 -1.000000 -1.000000 -1.000000 -1.000000 -1.000000 -1.000000 -1.000000 -1.000000 -1.000000 -1.000000 -1.000000 -1.000000 -1.000000 -1.000000 -1.000000 -1.000000 -1.000000 -1.000000 -1.000000 -1.000000 -1.000000 -1.000000 -1.000000 -1.000000 -1.000000 -1.000000 -1.000000 -1.000000 -1.000000 -1.000000 -1.000000 -1.000000 -0.987792 -0.907663 -0.919277 -0.999552 -0.999539 -0.999666 -0.999988 -1.000000 -0.999984 -0.999240 -0.999195 -0.999984 -1.000000 -1.000000 -1.000000 -1.000000 -1.000000 -1.000000 -1.000000 -1.000000 -1.000000 -1.000000 -1.000000 -1.000000 -1.000000 -1.000000 -1.000000 -0.999973 -0.979680 -0.899954 -0.903462 -0.988900 -0.999372 -0.999783 -0.999985 -0.999649 -0.998613 -0.997623 -0.997685 -0.998943 -0.999970 -0.995353 -0.998565 -0.999227 -0.999854 -1.000000 -1.000000 -1.000000 -1.000000 -1.000000 -1.000000 -1.000000 -1.000000 -1.000000 -1.000000 -0.999926 -0.976893 -0.862742 -0.919615 -0.910147 -0.890200 -0.971913 -0.975579 -0.932577 -0.930182 -0.930094 -0.933040 -0.941865 -0.972004 -0.963048 -0.940792 -0.878772 -0.903084 -0.947277 -0.947280 -1.000000 -1.000000 -1.000000 -1.000000 -1.000000 -1.000000 -1.000000 -0.999983 -0.995294 -0.856369 -0.777531 -0.768081 -0.812103 -0.848322 -0.915419 -0.924661 -0.918688 -0.917265 -0.919451 -0.918222 -0.901706 -0.883298 -0.856180 -0.830383 -0.804104 -0.835505 -0.944446 -0.975099 -1.000000 -1.000000 -1.000000 -1.000000 -1.000000 -1.000000 -0.999997 -0.994637 -0.947607 -0.776023 -0.646775 -0.690719 -0.668512 -0.581764 -0.769016 -0.897101 -0.890588 -0.880883 -0.842131 -0.811600 -0.790521 -0.705816 -0.668536 -0.689229 -0.631692 -0.819003 -0.944261 -0.990829 -0.999859 -1.000000 -1.000000 -1.000000 -1.000000 -0.999996 -0.999994 -0.965583 -0.859231 -0.655615 -0.453015 -0.395282 -0.340487 -0.264342 -0.617907 -0.635848 -0.588644 -0.464584 -0.329261 -0.459645 -0.463033 -0.556452 -0.475916 -0.422819 -0.466655 -0.658431 -0.895671 -0.925643 -0.984224 -1.000000 -1.000000 -1.000000 -1.000000 -0.999451 -0.997552 -0.914911 -0.763321 -0.403534 -0.325078 -0.268152 0.089558 -0.039328 -0.262512 -0.188655 -0.241379 -0.110310 0.050967 -0.029608 -0.154157 -0.377278 -0.323824 -0.321486 -0.432953 -0.509017 -0.595034 -0.597057 -0.758321 -0.818025 -1.000000 -1.000000 -1.000000 -0.966219 -0.927603 -0.801467 -0.625972 -0.440761 -0.500466 0.178197 0.409739 0.056634 -0.183111 -0.211903 -0.301506 -0.056071 0.082771 0.098626 0.061084 -0.187700 -0.260648 -0.313649 -0.300648 -0.002999 -0.131582 -0.394245 -0.698564 -0.834322 -1.000000 -1.000000 -1.000000 -0.939186 -0.877358 -0.720595 -0.508946 -0.516259 -0.289178 0.474255 0.652259 0.234383 -0.216670 -0.360680 -0.344000 -0.055992 0.231130 0.216074 0.291925 0.262417 -0.109551 -0.205011 -0.016844 0.161015 -0.070876 -0.513865 -0.785802 -0.984998 -1.000000 -1.000000 -1.000000 -0.962029 -0.850292 -0.624315 -0.496945 -0.383382 0.078265 0.617880 0.663198 0.144771 -0.193064 -0.433513 -0.228616 0.074349 0.557585 0.408904 0.460023 0.191590 -0.036875 -0.014758 0.157060 0.146548 -0.235343 -0.493918 -0.590848 -0.741194 -0.999872 -1.000000 -1.000000 -0.987824 -0.844817 -0.283729 -0.039154 0.016195 0.249069 0.797189 0.617032 0.021459 -0.102173 0.045263 0.203098 0.436136 0.729889 0.441417 0.329287 0.164468 -0.068897 0.103204 0.178675 0.112227 -0.083438 -0.380476 -0.439977 -0.821195 -0.999463 -1.000000 -1.000000 -0.984505 -0.889410 0.042690 0.163424 0.243264 0.639298 0.943375 0.611655 0.054239 -0.020970 0.310908 0.712702 0.843190 0.540064 0.309852 0.554917 0.544841 0.760969 0.872573 0.659057 0.477472 0.029023 -0.497134 -0.656517 -0.990880 -0.999581 -1.000000 -0.999998 -0.997329 -0.923105 -0.231726 0.047726 0.302882 0.767228 0.919306 0.455524 0.108966 0.224105 0.480967 0.615259 0.520997 0.533522 0.828338 0.930047 0.973299 0.999842 1.000000 0.804819 0.337030 -0.003347 -0.630907 -0.749752 -0.964178 -0.999968 -1.000000 -0.999992 -0.962773 -0.832293 -0.453673 -0.227025 0.051031 0.718071 0.921886 0.547023 0.144270 0.109396 0.154925 0.529738 0.632548 0.713670 0.806300 0.744920 0.402154 0.423348 0.594124 0.310039 0.023343 -0.324028 -0.530099 -0.691497 -0.946524 -0.980317 -1.000000 -0.999988 -0.989589 -0.836906 -0.688785 -0.443893 -0.069835 0.850154 0.878941 0.595123 0.464817 0.631777 0.816401 0.922205 0.926302 0.843153 0.690271 0.322880 -0.054341 0.032245 0.019401 -0.111400 -0.443172 -0.478514 -0.460860 -0.688754 -0.867770 -0.911733 -1.000000 -0.999988 -0.999994 -0.890909 -0.825403 -0.597278 -0.199654 0.378368 0.686180 0.612068 0.597338 0.511047 0.602724 0.486005 0.183604 0.201456 0.221981 -0.062997 -0.128933 -0.198508 -0.223822 -0.457521 -0.581639 -0.691096 -0.816737 -0.956963 -0.994941 -0.998314 -1.000000 -1.000000 -1.000000 -0.955174 -0.896658 -0.635934 -0.314963 0.018996 0.064631 -0.003527 -0.066608 -0.306782 -0.444287 -0.638807 -0.595108 -0.365459 -0.114550 -0.275808 -0.374433 -0.379896 -0.383929 -0.544228 -0.625169 -0.806490 -0.887219 -0.982400 -1.000000 -1.000000 -1.000000 -1.000000 -1.000000 -0.999993 -0.985732 -0.921852 -0.758113 -0.533950 -0.442771 -0.658922 -0.740275 -0.873981 -0.897424 -0.902089 -0.863056 -0.575853 -0.289345 -0.535355 -0.521290 -0.630863 -0.656871 -0.731185 -0.850375 -0.884363 -0.963349 -0.999918 -1.000000 -1.000000 -1.000000 -1.000000 -1.000000 -1.000000 -0.974096 -0.947534 -0.882950 -0.801213 -0.747964 -0.847796 -0.905722 -0.911064 -0.907243 -0.900785 -0.839761 -0.717767 -0.648115 -0.744035 -0.588205 -0.561357 -0.601769 -0.815231 -0.883585 -0.931536 -0.999753 -1.000000 -1.000000 -1.000000 -1.000000 -1.000000 -1.000000 -1.000000 -0.995419 -0.934204 -0.913774 -0.877048 -0.805372 -0.818105 -0.928472 -0.924882 -0.920969 -0.913029 -0.879737 -0.903701 -0.900794 -0.834635 -0.683747 -0.667379 -0.734349 -0.912503 -0.963486 -0.995954 -0.999974 -1.000000 -1.000000 -1.000000 -1.000000 -1.000000 -1.000000 -1.000000 -0.999999 -0.946066 -0.948720 -0.926364 -0.840729 -0.900456 -0.962172 -0.926558 -0.925876 -0.926029 -0.926945 -0.919250 -0.915137 -0.896561 -0.852838 -0.919823 -0.988620 -0.998776 -0.999970 -0.999983 -1.000000 -1.000000 -1.000000 -1.000000 -1.000000 -1.000000 -1.000000 -1.000000 -0.999999 -0.989079 -0.985704 -0.932177 -0.925595 -0.998749 -0.994686 -0.976323 -0.976247 -0.963898 -0.939439 -0.951178 -0.979587 -0.923736 -0.918502 -0.985496 -0.999766 -0.999901 -1.000000 -1.000000 -1.000000 -1.000000 -1.000000 -1.000000 -1.000000 -1.000000 -1.000000 -1.000000 -1.000000 -0.999999 -0.999714 -0.971564 -0.972629 -0.999889 -0.999991 -0.999999 -1.000000 -1.000000 -1.000000 -1.000000 -1.000000 -0.989494 -0.989182 -0.999916 -1.000000 -1.000000 -1.000000 -1.000000 -1.000000 -1.000000 -1.000000 -1.000000 -1.000000 -1.000000 -1.000000 -1.000000 -1.000000 -1.000000 -0.999997 -0.985048 -0.966186 -0.997764 -1.000000 -1.000000 -1.000000 -1.000000 -1.000000 -1.000000 -1.000000 -0.999944 -0.999784 -0.999993 -1.000000 -1.000000 -1.000000 -1.000000 -1.000000 -1.000000 -1.000000 -1.000000 -1.000000 -1.000000 -1.000000 -1.000000 -1.000000 -1.000000 -1.000000 -0.999581 -0.973451 -0.997485 -1.000000 -1.000000 -1.000000 -1.000000 -1.000000 -1.000000 -1.000000 -1.000000 -1.000000 -1.000000 -1.000000 -1.000000 -1.000000 -1.000000 -1.000000 -1.000000 -1.000000 -1.000000
-1.000000 -1.000000 -1.000000 -1.000000 -1.000000 -1.000000 -1.000000 -1.000000 -1.000000 -1.000000 -1.000000 -1.000000 -1.000000 -1.000000 -1.000000 -1.000000 -1.000000 -1.000000 -1.000000 -1.000000 -1.000000 -1.000000 -1.000000 -1.000000 -1.000000 -1.000000 -1.000000 -1.000000 -1.000000 -1.000000 -1.000000 -1.000000 -1.000000 -1.000000 -1.000000 -1.000000 -1.000000 -1.000000 -1.000000 -1.000000 -1.000000 -1.000000 -1.000000 -1.000000 -1.000000 -1.000000 -1.000000 -1.000000 -1.000000 -1.000000 -1.000000 -1.000000 -1.000000 -1.000000 -1.000000 -1.000000 -1.000000 -1.000000 -1.000000 -1.000000 -1.000000 -1.000000 -1.000000 -1.000000 -1.000000 -1.000000 -1.000000 -1.000000 -1.000000 -1.000000 -1.000000 -1.000000 -1.000000 -1.000000 -1.000000 -1.000000 -1.000000 -1.000000 -1.000000 -1.000000 -1.000000 -1.000000 -1.000000 -1.000000 -1.000000 -1.000000 -1.000000 -1.000000 -1.000000 -1.000000 -0.987496 -0.905371 -0.917251 -0.999500 -0.999507 -0.999647 -0.999988 -1.000000 -0.999983 -0.999177 -0.999129 -0.999983 -1.000000 -1.000000 -1.000000 -1.000000 -1.000000 -1.000000 -1.000000 -1.000000 -1.000000 -1.000000 -1.000000 -1.000000 -1.000000 -1.000000 -1.000000 -0.999972 -0.979171 -0.897452 -0.901156 -0.988656 -0.999324 -0.999770 -0.999984 -0.999621 -0.998500 -0.997431 -0.997498 -0.998857 -0.999967 -0.995188 -0.998397 -0.999124 -0.999834 -1.000000 -1.000000 -1.000000 -1.000000 -1.000000 -1.000000 -1.000000 -1.000000 -1.000000 -1.000000 -0.999922 -0.976436 -0.860544 -0.917810 -0.906794 -0.885969 -0.972288 -0.977881 -0.939337 -0.936914 -0.936794 -0.939772 -0.947574 -0.973915 -0.963109 -0.941930 -0.877652 -0.904180 -0.945364 -0.945367 -1.000000 -1.000000 -1.000000 -1.000000 -1.000000 -1.000000 -1.000000 -0.999983 -0.994736 -0.854182 -0.774289 -0.763428 -0.809170 -0.849359 -0.920786 -0.931414 -0.925275 -0.923784 -0.926008 -0.924636 -0.907578 -0.889377 -0.860626 -0.830395 -0.802912 -0.834436 -0.942294 -0.974036 -1.000000 -1.000000 -1.000000 -1.000000 -1.000000 -1.000000 -0.999997 -0.994337 -0.945565 -0.772670 -0.640438 -0.685539 -0.672537 -0.589441 -0.778095 -0.903996 -0.896886 -0.886317 -0.846020 -0.815436 -0.794766 -0.712282 -0.675094 -0.690355 -0.629193 -0.812711 -0.940747 -0.990276 -0.999852 -1.000000 -1.000000 -1.000000 -1.000000 -0.999996 -0.999994 -0.963583 -0.856805 -0.648756 -0.445372 -0.394163 -0.342978 -0.272101 -0.625811 -0.638353 -0.591846 -0.464793 -0.321529 -0.459619 -0.463185 -0.564523 -0.486054 -0.429279 -0.463113 -0.652851 -0.888818 -0.922870 -0.983660 -1.000000 -1.000000 -1.000000 -1.000000 -0.999448 -0.997540 -0.913667 -0.763674 -0.397679 -0.321623 -0.269297 0.086178 -0.038563 -0.263395 -0.184531 -0.237679 -0.095589 0.075502 -0.020995 -0.154757 -0.387337 -0.335690 -0.325356 -0.426756 -0.501502 -0.583448 -0.588216 -0.750786 -0.812135 -1.000000 -1.000000 -1.000000 -0.965426 -0.925849 -0.801528 -0.628609 -0.435477 -0.501864 0.175375 0.402558 0.056226 -0.179791 -0.208109 -0.291394 -0.035791 0.107571 0.107900 0.058801 -0.195902 -0.267272 -0.311374 -0.291609 0.011734 -0.115950 -0.379995 -0.689343 -0.828684 -1.000000 -1.000000 -1.000000 -0.937608 -0.875948 -0.721628 -0.509665 -0.512124 -0.285638 0.478183 0.651286 0.237108 -0.213242 -0.355636 -0.339170 -0.045710 0.248979 0.227296 0.292668 0.263390 -0.105722 -0.193827 0.001303 0.181010 -0.052252 -0.502256 -0.780007 -0.984299 -1.000000 -1.000000 -1.000000 -0.961030 -0.850435 -0.626350 -0.498291 -0.381844 0.084197 0.627961 0.668176 0.154526 -0.188128 -0.432882 -0.228480 0.082398 0.580471 0.427420 0.473556 0.196600 -0.029495 -0.003963 0.173238 0.163465 -0.224127 -0.492507 -0.592210 -0.745178 -0.999864 -1.000000 -1.000000 -0.987542 -0.847208 -0.279635 -0.032310 0.025390 0.258841 0.812190 0.638484 0.033976 -0.094646 0.052980 0.213380 0.448870 0.756515 0.462925 0.344228 0.178366 -0.059007 0.112225 0.186712 0.115541 -0.077363 -0.383450 -0.442305 -0.823824 -0.999429 -1.000000 -1.000000 -0.984055 -0.892793 0.046401 0.176170 0.259754 0.657969 0.963725 0.641546 0.070087 -0.012987 0.322281 0.732142 0.869710 0.569805 0.333437 0.576093 0.560905 0.773615 0.876616 0.659350 0.483055 0.038226 -0.498705 -0.654436 -0.990960 -0.999550 -1.000000 -0.999998 -0.997226 -0.927372 -0.235081 0.055815 0.325476 0.787797 0.943395 0.484378 0.125164 0.234339 0.491607 0.633898 0.546337 0.569404 0.857188 0.945533 0.982824 1.000000 0.995200 0.806906 0.352009 0.020194 -0.627347 -0.746937 -0.964758 -0.999966 -1.000000 -0.999991 -0.961364 -0.834153 -0.461059 -0.226809 0.065040 0.734792 0.933563 0.566048 0.155179 0.114188 0.158683 0.540172 0.652780 0.736174 0.824663 0.745668 0.392175 0.416669 0.592384 0.318341 0.043291 -0.305755 -0.521275 -0.685861 -0.945662 -0.979848 -1.000000 -0.999986 -0.989194 -0.838364 -0.691531 -0.447247 -0.063429 0.860105 0.886877 0.606854 0.472458 0.638061 0.824184 0.935871 0.945408 0.862173 0.701564 0.324968 -0.058663 0.023342 0.013056 -0.107619 -0.437938 -0.467346 -0.448537 -0.681327 -0.864656 -0.909631 -1.000000 -0.999987 -0.999994 -0.893371 -0.827803 -0.599015 -0.195315 0.386900 0.691883 0.619588 0.609759 0.519127 0.611575 0.498376 0.198453 0.219561 0.232893 -0.059766 -0.128954 -0.205672 -0.230015 -0.456071 -0.577580 -0.684774 -0.813678 -0.956625 -0.994820 -0.998274 -1.000000 -1.000000 -1.000000 -0.956355 -0.899130 -0.636152 -0.315461 0.020455 0.066536 0.001928 -0.053647 -0.299908 -0.436879 -0.633794 -0.592399 -0.357816 -0.109249 -0.278271 -0.381505 -0.386371 -0.386860 -0.544314 -0.618691 -0.799240 -0.884725 -0.982534 -1.000000 -1.000000 -1.000000 -1.000000 -1.000000 -0.999992 -0.985146 -0.920294 -0.756528 -0.530841 -0.438608 -0.662039 -0.743119 -0.876328 -0.897843 -0.902011 -0.863433 -0.581290 -0.290643 -0.542713 -0.530067 -0.634187 -0.660100 -0.730508 -0.846526 -0.881008 -0.962413 -0.999941 -1.000000 -1.000000 -1.000000 -1.000000 -1.000000 -1.000000 -0.973033 -0.945504 -0.879888 -0.794644 -0.738854 -0.847198 -0.911064 -0.917778 -0.911144 -0.904554 -0.842741 -0.723572 -0.648826 -0.747955 -0.592108 -0.560161 -0.599886 -0.811382 -0.880249 -0.929835 -0.999730 -1.000000 -1.000000 -1.000000 -1.000000 -1.000000 -1.000000 -1.000000 -0.995231 -0.931781 -0.910904 -0.871421 -0.796821 -0.811157 -0.933905 -0.931706 -0.927829 -0.919588 -0.885528 -0.909374 -0.905967 -0.838283 -0.687644 -0.667285 -0.731399 -0.909839 -0.962566 -0.995853 -0.999973 -1.000000 -1.000000 -1.000000 -1.000000 -1.000000 -1.000000 -1.000000 -0.999999 -0.944125 -0.947206 -0.922876 -0.833395 -0.897198 -0.965845 -0.933408 -0.932722 -0.932862 -0.933661 -0.925350 -0.920880 -0.901772 -0.854089 -0.919245 -0.988213 -0.998703 -0.999968 -0.999982 -1.000000 -1.000000 -1.000000 -1.000000 -1.000000 -1.000000 -1.000000 -1.000000 -0.999999 -0.988686 -0.985548 -0.928958 -0.920476 -0.998741 -0.994931 -0.978440 -0.978360 -0.967647 -0.946326 -0.956731 -0.981616 -0.925422 -0.919181 -0.985608 -0.999749 -0.999893 -1.000000 -1.000000 -1.000000 -1.000000 -1.000000 -1.000000 -1.000000 -1.000000 -1.000000 -1.000000 -1.000000 -0.999999 -0.999708 -0.971120 -0.972219 -0.999888 -0.999991 -0.999999 -1.000000 -1.000000 -1.000000 -1.000000 -1.000000 -0.989579 -0.989248 -0.999913 -1.000000 -1.000000 -1.000000 -1.000000 -1.000000 -1.000000 -1.000000 -1.000000 -1.000000 -1.000000 -1.000000 -1.000000 -1.000000 -1.000000 -0.999997 -0.984811 -0.965652 -0.997729 -1.000000 -1.000000 -1.000000 -1.000000 -1.000000 -1.000000 -1.000000 -0.999939 -0.999764 -0.999993 -1.000000 -1.000000 -1.000000 -1.000000 -1.000000 -1.000000 -1.000000 -1.000000 -1.000000 -1.000000 -1.000000 -1.000000 -1.000000 -1.000000 -1.000000 -0.999574 -0.973032 -0.997445 -1.000000 -1.000000 -1.000000 -1.000000 -1.000000 -1.000000 -1.000000 -1.000000 -1.000000 -1.000000 -1.000000 -1.000000 -1.000000 -1.000000 -1.000000 -1.000000 -1.000000 -1.000000
1.000000 1.000000 1.000000 1.000000 1.000000 1.000000 1.000000 1.000000 1.000000 1.000000 1.000000 1.000000 1.000000 1.000000 1.000000 1.000000 1.000000 1.000000 1.000000 1.000000 1.000000 1.000000 1.000000 1.000000 1.000000 1.000000 1.000000 1.000000 1.000000 1.000000 1.000000 1.000000 1.000000 1.000000 1.000000 1.000000 1.000000 1.000000 1.000000 1.000000 1.000000 1.000000 1.000000 1.000000 1.000000 1.000000 1.000000 1.000000 1.000000 1.000000 1.000000 1.000000 1.000000 1.000000 1.000000 1.000000 1.000000 1.000000 1.000000 1.000000 1.000000 1.000000 1.000000 1.000000 1.000000 1.000000 1.000000 1.000000 1.000000 1.000000 1.000000 1.000000 1.000000 1.000000 1.000000 1.000000 1.000000 1.000000 1.000000 1.000000 1.000000 1.000000 1.000000 1.000000 1.000000 1.000000 1.000000 1.000000 1.000000 1.000000 0.987880 0.908227 0.919711 0.999413 0.999505 0.999677 0.999989 1.000000 0.999983 0.999202 0.999155 0.999983 1.000000 1.000000 1.000000 1.000000 1.000000 1.000000 1.000000 1.000000 1.000000 1.000000 1.000000 1.000000 1.000000 1.000000 1.000000 0.999975 0.979784 0.900481 0.903993 0.988823 0.999296 0.999790 0.999985 0.999642 0.998555 0.997539 0.997598 0.998892 0.999969 0.995365 0.998526 0.999167 0.999842 1.000000 1.000000 1.000000 1.000000 1.000000 1.000000 1.000000 1.000000 1.000000 1.000000 0.999931 0.976993 0.862651 0.920122 0.910914 0.891266 0.972447 0.976370 0.934536 0.932168 0.932048 0.934943 0.943477 0.972628 0.963750 0.942806 0.880847 0.905715 0.947454 0.947457 1.000000 1.000000 1.000000 1.000000 1.000000 1.000000 1.000000 0.999984 0.994156 0.853388 0.775399 0.770627 0.813993 0.850085 0.917494 0.926897 0.920799 0.919278 0.921349 0.919896 0.903093 0.885394 0.859253 0.834027 0.807699 0.838410 0.944591 0.975202 1.000000 1.000000 1.000000 1.000000 1.000000 1.000000 0.999997 0.994646 0.944773 0.774282 0.647467 0.692176 0.671830 0.586369 0.771249 0.897664 0.889649 0.878470 0.832727 0.800218 0.780944 0.699285 0.663494 0.686837 0.634255 0.818010 0.943797 0.990889 0.999858 1.000000 1.000000 1.000000 1.000000 0.999996 0.999994 0.963476 0.856371 0.654422 0.452837 0.399366 0.345114 0.268846 0.612013 0.623308 0.573785 0.448801 0.312278 0.446046 0.453422 0.550086 0.469763 0.414795 0.453240 0.654161 0.895125 0.926104 0.984291 1.000000 1.000000 1.000000 1.000000 0.999433 0.997469 0.912938 0.758419 0.405429 0.329470 0.274290 -0.091330 0.036372 0.254618 0.177046 0.228180 0.096522 -0.066775 0.017112 0.144503 0.370082 0.319186 0.313066 0.417930 0.501399 0.597587 0.600371 0.758039 0.816782 1.000000 1.000000 1.000000 0.965423 0.926170 0.798887 0.623638 0.446443 0.503691 -0.179778 -0.412208 -0.064036 0.171195 0.199728 0.292027 0.058663 -0.081021 -0.096301 -0.055592 0.196297 0.264722 0.304397 0.289018 -0.004892 0.131850 0.398133 0.697974 0.833103 1.000000 1.000000 1.000000 0.937836 0.876628 0.719102 0.507783 0.521355 0.290018 -0.475152 -0.654557 -0.240837 0.205909 0.354647 0.347489 0.062470 -0.227819 -0.208319 -0.280285 -0.246104 0.117605 0.195881 0.002564 -0.171282 0.066449 0.517543 0.786683 0.984832 1.000000 1.000000 1.000000 0.961216 0.849852 0.624912 0.496165 0.380680 -0.079422 -0.618418 -0.664089 -0.151185 0.188306 0.439924 0.238811 -0.064789 -0.551592 -0.399666 -0.445131 -0.172845 0.034595 0.006294 -0.167627 -0.157436 0.226872 0.501129 0.596428 0.743408 0.999877 1.000000 1.000000 0.987558 0.843800 0.273742 0.027793 -0.022984 -0.253508 -0.796862 -0.622939 -0.034267 0.093896 -0.036637 -0.190627 -0.426493 -0.722316 -0.430432 -0.317698 -0.157069 0.060570 -0.110808 -0.185137 -0.120296 0.077244 0.388880 0.448282 0.822705 0.999483 1.000000 1.000000 0.983962 0.888978 -0.055592 -0.174635 -0.248232 -0.643296 -0.946187 -0.620540 -0.064867 0.016795 -0.303160 -0.699216 -0.836823 -0.540385 -0.306029 -0.546340 -0.537337 -0.766716 -0.877692 -0.666752 -0.486518 -0.028804 0.503268 0.662674 0.990922 0.999598 1.000000 0.999998 0.997339 0.924195 0.228686 -0.056057 -0.307470 -0.767730 -0.918923 -0.459846 -0.107426 -0.218655 -0.469755 -0.604389 -0.518510 -0.534329 -0.823149 -0.919191 -0.969487 -0.995162 -1.000000 -0.809498 -0.348735 -0.002140 0.636849 0.754249 0.964236 0.999970 1.000000 0.999992 0.963288 0.836970 0.460250 0.231353 -0.040970 -0.707313 -0.912596 -0.538028 -0.129648 -0.096213 -0.147618 -0.523726 -0.627334 -0.706723 -0.795528 -0.735667 -0.396230 -0.418646 -0.594325 -0.313040 -0.026642 0.324736 0.536251 0.696798 0.947434 0.980710 1.000000 0.999989 0.989734 0.841678 0.693758 0.452281 0.083445 -0.832488 -0.869847 -0.591597 -0.457718 -0.625414 -0.810578 -0.917464 -0.919243 -0.831123 -0.677356 -0.319587 0.058219 -0.030856 -0.021063 0.112602 0.448280 0.485712 0.467430 0.692684 0.870431 0.913497 1.000000 0.999989 0.999995 0.894586 0.830144 0.602775 0.209826 -0.364768 -0.682201 -0.616121 -0.606884 -0.520098 -0.604377 -0.486857 -0.181395 -0.202411 -0.229087 0.052496 0.122165 0.191672 0.220040 0.463134 0.589548 0.696766 0.818256 0.957289 0.995042 0.998348 1.000000 1.000000 1.000000 0.956743 0.899967 0.643010 0.321586 -0.007843 -0.060062 -0.008064 0.054300 0.295009 0.433137 0.624424 0.578043 0.345300 0.095214 0.259445 0.361325 0.370578 0.384560 0.554960 0.633368 0.807722 0.887988 0.982534 1.000000 1.000000 1.000000 1.000000 1.000000 0.999993 0.985942 0.923159 0.759558 0.536627 0.445167 0.657732 0.734249 0.862817 0.884019 0.887260 0.844290 0.556417 0.269888 0.521096 0.510738 0.634725 0.662310 0.736819 0.852188 0.885213 0.963529 0.999919 1.000000 1.000000 1.000000 1.000000 1.000000 1.000000 0.974477 0.948057 0.883981 0.802116 0.750223 0.848174 0.906631 0.907214 0.896367 0.889438 0.824629 0.701778 0.633641 0.738682 0.589674 0.565804 0.607710 0.816756 0.884430 0.932036 0.999755 1.000000 1.000000 1.000000 1.000000 1.000000 1.000000 1.000000 0.995486 0.934505 0.914249 0.877186 0.807742 0.820468 0.930327 0.926448 0.921163 0.913168 0.873984 0.904103 0.900354 0.835087 0.690096 0.672835 0.737207 0.912929 0.963760 0.995989 0.999976 1.000000 1.000000 1.000000 1.000000 1.000000 1.000000 1.000000 0.999999 0.946238 0.949103 0.925936 0.842179 0.902568 0.963409 0.928377 0.927673 0.927845 0.928808 0.921256 0.917108 0.898715 0.855502 0.921141 0.988701 0.998789 0.999971 0.999984 1.000000 1.000000 1.000000 1.000000 1.000000 1.000000 1.000000 1.000000 0.999999 0.989113 0.985906 0.931680 0.924525 0.998816 0.994921 0.977049 0.976914 0.964918 0.941225 0.952617 0.980137 0.925357 0.920324 0.985823 0.999774 0.999904 1.000000 1.000000 1.000000 1.000000 1.000000 1.000000 1.000000 1.000000 1.000000 1.000000 1.000000 0.999999 0.999713 0.971496 0.972700 0.999897 0.999993 0.999999 1.000000 1.000000 1.000000 1.000000 1.000000 0.989729 0.989426 0.999920 1.000000 1.000000 1.000000 1.000000 1.000000 1.000000 1.000000 1.000000 1.000000 1.000000 1.000000 1.000000 1.000000 1.000000 0.999997 0.984990 0.966056 0.997755 1.000000 1.000000 1.000000 1.000000 1.000000 1.000000 1.000000 0.999945 0.999788 0.999993 1.000000 1.000000 1.000000 1.000000 1.000000 1.000000 1.000000 1.000000 1.000000 1.000000 1.000000 1.000000 1.000000 1.000000 1.000000 0.999579 0.973349 0.997475 1.000000 1.000000 1.000000 1.000000 1.000000 1.000000 1.000000 1.000000 1.000000 1.000000 1.000000 1.000000 1.000000 1.000000 1.000000 1.000000 1.000000 1.000000
1.000000 1.000000 1.000000 1.000000 1.000000 1.000000 1.000000 1.000000 1.000000 1.000000 1.000000 1.000000 1.000000 1.000000 1.000000 1.000000 1.000000 1.000000 1.000000 1.000000 1.000000 1.000000 1.000000 1.000000 1.000000 1.000000 1.000000 1.000000 1.000000 1.000000 1.000000 1.000000 1.000000 1.000000 1.000000 1.000000 1.000000 1.000000 1.000000 1.000000 1.000000 1.000000 1.000000 1.000000 1.000000 1.000000 1.000000 1.000000 1.000000 1.000000 1.000000 1.000000 1.000000 1.000000 1.000000 1.000000 1.000000 1.000000 1.000000 1.000000 1.000000 1.000000 1.000000 1.000000 1.000000 1.000000 1.000000 1.000000 1.000000 1.000000 1.000000 1.000000 1.000000 1.000000 1.000000 1.000000 1.000000 1.000000 1.000000 1.000000 1.000000 1.000000 1.000000 1.000000 1.000000 1.000000 1.000000 1.000000 1.000000 1.000000 0.988539 0.913033 0.923810 0.999210 0.999408 0.999650 0.999988 1.000000 0.999983 0.999168 0.999119 0.999983 1.000000 1.000000 1.000000 1.000000 1.000000 1.000000 1.000000 1.000000 1.000000 1.000000 1.000000 1.000000 1.000000 1.000000 1.000000 0.999972 0.980788 0.905556 0.908184 0.988632 0.999125 0.999773 0.999984 0.999624 0.998491 0.997425 0.997488 0.998844 0.999967 0.995311 0.998365 0.999056 0.999821 1.000000 1.000000 1.000000 1.000000 1.000000 1.000000 1.000000 1.000000 1.000000 1.000000 0.999921 0.977895 0.868425 0.922450 0.912713 0.893780 0.972485 0.975681 0.932964 0.930400 0.930253 0.933419 0.942117 0.972095 0.963168 0.939508 0.877203 0.901264 0.948440 0.948443 1.000000 1.000000 1.000000 1.000000 1.000000 1.000000 1.000000 0.999982 0.995224 0.859114 0.783048 0.774185 0.818482 0.853495 0.916669 0.924717 0.918198 0.916566 0.918728 0.917324 0.900325 0.882516 0.854571 0.827739 0.802149 0.833914 0.945341 0.975363 1.000000 1.000000 1.000000 1.000000 1.000000 1.000000 0.999996 0.994606 0.947245 0.780012 0.655237 0.697042 0.680627 0.596889 0.772814 0.894883 0.887203 0.876237 0.834133 0.799328 0.777231 0.691541 0.653318 0.680959 0.627664 0.820187 0.944407 0.990642 0.999857 1.000000 1.000000 1.000000 1.000000 0.999996 0.999993 0.965382 0.859234 0.663146 0.464884 0.410041 0.359285 0.279965 0.614095 0.623653 0.576027 0.450230 0.316214 0.441102 0.443817 0.537130 0.459010 0.407447 0.456359 0.656643 0.895119 0.926451 0.984381 1.000000 1.000000 1.000000 1.000000 0.999384 0.997251 0.915493 0.766451 0.413394 0.337549 0.276990 -0.078481 0.038868 0.252550 0.178817 0.230697 0.102091 -0.060197 0.014833 0.137284 0.359871 0.305595 0.304557 0.420417 0.504777 0.600122 0.605905 0.760782 0.819049 1.000000 1.000000 1.000000 0.964349 0.924431 0.799101 0.624965 0.443999 0.499949 -0.170682 -0.396769 -0.058712 0.173750 0.202415 0.293937 0.059541 -0.084614 -0.103308 -0.066453 0.176534 0.247684 0.295605 0.288149 0.010533 0.146973 0.406693 0.701442 0.835490 1.000000 1.000000 1.000000 0.936341 0.873702 0.714514 0.503627 0.513149 0.284774 -0.459513 -0.629640 -0.225895 0.209716 0.353473 0.345457 0.062155 -0.223069 -0.211147 -0.287648 -0.260074 0.102503 0.182499 0.001450 -0.157163 0.086315 0.525266 0.788172 0.985260 1.000000 1.000000 1.000000 0.960223 0.845354 0.617301 0.488107 0.364282 -0.088984 -0.597347 -0.637431 -0.130820 0.202761 0.440599 0.239229 -0.060337 -0.540711 -0.398239 -0.446504 -0.188344 0.018440 -0.008359 -0.170417 -0.146971 0.243089 0.512240 0.605673 0.751758 0.999867 1.000000 1.000000 0.986873 0.837038 0.269140 0.018653 -0.035935 -0.253129 -0.770274 -0.591259 -0.010829 0.114006 -0.026512 -0.180606 -0.416567 -0.709836 -0.434598 -0.330216 -0.176001 0.044885 -0.121514 -0.186333 -0.103539 0.096705 0.402921 0.462272 0.828340 0.999441 1.000000 1.000000 0.983083 0.883245 -0.057550 -0.184547 -0.260081 -0.625099 -0.911551 -0.587886 -0.042403 0.031496 -0.288556 -0.681808 -0.816796 -0.526973 -0.312124 -0.560819 -0.550806 -0.765830 -0.871579 -0.651224 -0.461481 -0.014149 0.513897 0.670859 0.991113 0.999565 1.000000 0.999998 0.997237 0.918954 0.214059 -0.067529 -0.316543 -0.742549 -0.881907 -0.435839 -0.095464 -0.205232 -0.454235 -0.582736 -0.499200 -0.520338 -0.821130 -0.917176 -0.967470 -1.000000 -0.996900 -0.792800 -0.334331 0.011889 0.642452 0.761706 0.965435 0.999967 1.000000 0.999992 0.962015 0.827435 0.441003 0.209226 -0.062252 -0.702811 -0.896142 -0.530054 -0.126524 -0.085376 -0.131803 -0.503123 -0.611836 -0.691267 -0.784752 -0.730094 -0.395237 -0.427981 -0.596626 -0.316957 -0.021983 0.330358 0.545053 0.703632 0.947798 0.980762 1.000000 0.999987 0.989377 0.832546 0.683516 0.434326 0.065490 -0.833921 -0.869248 -0.595125 -0.457937 -0.612066 -0.790660 -0.895672 -0.902136 -0.821280 -0.671362 -0.317427 0.050562 -0.046709 -0.034197 0.097902 0.441797 0.487711 0.478353 0.695590 0.870702 0.913729 1.000000 0.999988 0.999994 0.887874 0.820157 0.594521 0.204005 -0.363055 -0.673790 -0.607236 -0.591866 -0.507220 -0.591333 -0.471431 -0.174357 -0.193040 -0.222708 0.052432 0.123683 0.192455 0.209934 0.447974 0.580664 0.701987 0.824759 0.958817 0.995055 0.998352 1.000000 1.000000 1.000000 0.953945 0.893635 0.641012 0.326575 -0.000632 -0.051258 0.004790 0.060798 0.295384 0.430351 0.623193 0.584233 0.359971 0.111388 0.266457 0.364480 0.374450 0.379301 0.539934 0.628240 0.813155 0.892831 0.983494 1.000000 1.000000 1.000000 1.000000 1.000000 0.999991 0.985890 0.923919 0.762231 0.546935 0.458195 0.665306 0.738590 0.860770 0.880299 0.885115 0.848737 0.564522 0.287893 0.533740 0.516333 0.622923 0.646670 0.725232 0.855200 0.890044 0.965089 0.999924 1.000000 1.000000 1.000000 1.000000 1.000000 1.000000 0.974384 0.948039 0.884168 0.804439 0.756720 0.850763 0.905195 0.905799 0.896433 0.888299 0.827270 0.706221 0.642455 0.750439 0.593010 0.560349 0.601287 0.818914 0.889615 0.935657 0.999735 1.000000 1.000000 1.000000 1.000000 1.000000 1.000000 1.000000 0.995470 0.935125 0.914583 0.878461 0.813690 0.826247 0.928831 0.924182 0.919215 0.910950 0.873060 0.902417 0.899981 0.837044 0.685146 0.666022 0.736754 0.916332 0.965664 0.996190 0.999973 1.000000 1.000000 1.000000 1.000000 1.000000 1.000000 1.000000 0.999999 0.946922 0.949551 0.927172 0.847416 0.905428 0.962343 0.926151 0.925386 0.925577 0.926823 0.919569 0.915614 0.897237 0.853181 0.919557 0.988554 0.998760 0.999969 0.999982 1.000000 1.000000 1.000000 1.000000 1.000000 1.000000 1.000000 1.000000 0.999999 0.989292 0.985929 0.932920 0.926753 0.998728 0.994608 0.976274 0.976129 0.964048 0.940127 0.951733 0.979790 0.923854 0.918450 0.985463 0.999759 0.999898 1.000000 1.000000 1.000000 1.000000 1.000000 1.000000 1.000000 1.000000 1.000000 1.000000 1.000000 0.999999 0.999710 0.971227 0.972353 0.999891 0.999992 0.999999 1.000000 1.000000 1.000000 1.000000 1.000000 0.989488 0.989142 0.999905 1.000000 1.000000 1.000000 1.000000 1.000000 1.000000 1.000000 1.000000 1.000000 1.000000 1.000000 1.000000 1.000000 1.000000 0.999997 0.984863 0.965769 0.997737 1.000000 1.000000 1.000000 1.000000 1.000000 1.000000 1.000000 0.999941 0.999771 0.999993 1.000000 1.000000 1.000000 1.000000 1.000000 1.000000 1.000000 1.000000 1.000000 1.000000 1.000000 1.000000 1.000000 1.000000 1.000000 0.999576 0.973124 0.997454 1.000000 1.000000 1.000000 1.000000 1.000000 1.000000 1.000000 1.000000 1.000000 1.000000 1.000000 1.000000 1.000000 1.000000 1.000000 1.000000 1.000000 1.000000
1.000000 1.000000 1.000000 1.000000 1.000000 1.000000 1.000000 1.000000 1.000000 1.000000 1.000000 1.000000 1.000000 1.000000 1.000000 1.000000 1.000000 1.000000 1.000000 1.000000 1.000000 1.000000 1.000000 1.000000 1.000000 1.000000 1.000000 1.000000 1.000000 1.000000 1.000000 1.000000 1.000000 1.000000 1.000000 1.000000 1.000000 1.000000 1.000000 1.000000 1.000000 1.000000 1.000000 1.000000 1.000000 1.000000 1.000000 1.000000 1.000000 1.000000 1.000000 1.000000 1.000000 1.000000 1.000000 1.000000 1.000000 1.000000 1.000000 1.000000 1.000000 1.000000 1.000000 1.000000 1.000000 1.000000 1.000000 1.000000 1.000000 1.000000 1.000000 1.000000 1.000000 1.000000 1.000000 1.000000 1.000000 1.000000 1.000000 1.000000 1.000000 1.000000 1.000000 1.000000 1.000000 1.000000 1.000000 1.000000 1.000000 1.000000 0.987774 0.907496 0.919121 0.999547 0.999513 0.999639 0.999987 1.000000 0.999982 0.999160 0.999111 0.999982 1.000000 1.000000 1.000000 1.000000 1.000000 1.000000 1.000000 1.000000 1.000000 1.000000 1.000000 1.000000 1.000000 1.000000 1.000000 0.999970 0.979638 0.899779 0.902342 0.988246 0.999343 0.999765 0.999984 0.999619 0.998475 0.997396 0.997461 0.998834 0.999967 0.995079 0.998500 0.999210 0.999850 1.000000 1.000000 1.000000 1.000000 1.000000 1.000000 1.000000 1.000000 1.000000 1.000000 0.999917 0.976825 0.862005 0.918370 0.909986 0.890821 0.971714 0.974935 0.930619 0.928148 0.928046 0.931050 0.940091 0.970951 0.961614 0.940146 0.877209 0.901994 0.946862 0.946865 1.000000 1.000000 1.000000 1.000000 1.000000 1.000000 1.000000 0.999982 0.995094 0.855983 0.777590 0.768165 0.813324 0.849876 0.914233 0.922543 0.916231 0.914753 0.917011 0.915743 0.899081 0.880316 0.853035 0.828194 0.802049 0.833704 0.943798 0.974616 1.000000 1.000000 1.000000 1.000000 1.000000 1.000000 0.999996 0.994770 0.948201 0.777873 0.648249 0.691678 0.673107 0.587328 0.768503 0.894008 0.887027 0.876685 0.836195 0.804779 0.784142 0.698314 0.662026 0.689755 0.636369 0.820640 0.942866 0.990347 0.999848 1.000000 1.000000 1.000000 1.000000 0.999996 0.999993 0.965951 0.862761 0.659735 0.461663 0.409828 0.352445 0.273290 0.618494 0.630771 0.582965 0.458364 0.321990 0.452270 0.455368 0.550141 0.477077 0.429821 0.475841 0.666939 0.893627 0.924208 0.983977 1.000000 1.000000 1.000000 1.000000 0.999431 0.997467 0.917521 0.772151 0.419608 0.341951 0.284525 -0.074216 0.043429 0.260482 0.184010 0.234471 0.104138 -0.057925 0.024973 0.151199 0.378621 0.329417 0.327953 0.441993 0.519329 0.598059 0.597688 0.758213 0.818501 1.000000 1.000000 1.000000 0.965729 0.926951 0.806648 0.640144 0.456040 0.508884 -0.163669 -0.394877 -0.054332 0.176779 0.204448 0.294925 0.051820 -0.088137 -0.096362 -0.053827 0.197423 0.267363 0.319710 0.311521 0.020778 0.142933 0.394656 0.697996 0.833859 1.000000 1.000000 1.000000 0.938466 0.878202 0.728446 0.524687 0.527561 0.296082 -0.459460 -0.637380 -0.227269 0.214458 0.357619 0.344592 0.055395 -0.229206 -0.208920 -0.282719 -0.248728 0.115965 0.205770 0.024243 -0.147714 0.081078 0.515785 0.783873 0.984349 1.000000 1.000000 1.000000 0.961350 0.851835 0.635447 0.509512 0.388291 -0.073899 -0.613285 -0.655457 -0.139785 0.199283 0.439149 0.232595 -0.071271 -0.552582 -0.401719 -0.447666 -0.182448 0.035876 0.014122 -0.152271 -0.139478 0.236509 0.500793 0.595362 0.745468 0.999861 1.000000 1.000000 0.986967 0.846143 0.293256 0.043501 -0.011531 -0.246477 -0.797606 -0.618447 -0.023584 0.104579 -0.036527 -0.198609 -0.433601 -0.726671 -0.438960 -0.327660 -0.168236 0.060322 -0.104084 -0.170905 -0.103890 0.085771 0.388852 0.449354 0.823988 0.999417 1.000000 1.000000 0.983190 0.890855 -0.030810 -0.160004 -0.241101 -0.639147 -0.945982 -0.619593 -0.059981 0.018696 -0.306807 -0.705493 -0.836356 -0.538633 -0.318359 -0.564407 -0.549968 -0.763574 -0.867271 -0.647127 -0.470759 -0.028341 0.501380 0.661834 0.990828 0.999544 1.000000 0.999998 0.997230 0.924645 0.245365 -0.039215 -0.303402 -0.764493 -0.918267 -0.466287 -0.119385 -0.225154 -0.473601 -0.604439 -0.513422 -0.533445 -0.828664 -0.932282 -0.976474 -1.000000 -0.993477 -0.794847 -0.336916 -0.003089 0.630441 0.754206 0.964333 0.999965 1.000000 0.999991 0.961874 0.829794 0.467089 0.236709 -0.045531 -0.706209 -0.915950 -0.548876 -0.147478 -0.101790 -0.143950 -0.513780 -0.622244 -0.701213 -0.793911 -0.737096 -0.400788 -0.420016 -0.584079 -0.304132 -0.024613 0.321252 0.532260 0.695886 0.946515 0.980332 1.000000 0.999986 0.989337 0.834175 0.690760 0.453518 0.078931 -0.834785 -0.872907 -0.594882 -0.462870 -0.617085 -0.797752 -0.903200 -0.909113 -0.830505 -0.675617 -0.315017 0.054723 -0.026285 -0.008664 0.118387 0.447354 0.485274 0.466694 0.691141 0.867777 0.911801 1.000000 0.999987 0.999994 0.889416 0.823137 0.599265 0.207246 -0.368658 -0.681161 -0.608263 -0.586038 -0.497336 -0.585699 -0.470891 -0.173111 -0.193060 -0.216684 0.064222 0.135124 0.210557 0.235397 0.465407 0.591766 0.698489 0.817387 0.957357 0.994945 0.998315 1.000000 1.000000 1.000000 0.954635 0.895344 0.636147 0.319826 -0.009521 -0.058392 0.005759 0.073077 0.311706 0.444668 0.637073 0.595532 0.367297 0.116530 0.275741 0.379009 0.390087 0.399583 0.556604 0.634385 0.806799 0.886749 0.982585 1.000000 1.000000 1.000000 1.000000 1.000000 0.999992 0.985286 0.921183 0.758577 0.541041 0.450888 0.662341 0.740653 0.869184 0.893478 0.898113 0.860690 0.574626 0.290759 0.535904 0.524393 0.633623 0.661425 0.735769 0.850841 0.883767 0.963128 0.999927 1.000000 1.000000 1.000000 1.000000 1.000000 1.000000 0.973287 0.946186 0.881375 0.800709 0.752458 0.847072 0.903604 0.907455 0.902519 0.896536 0.835386 0.712795 0.643526 0.741985 0.587400 0.562416 0.603486 0.815585 0.883516 0.931395 0.999731 1.000000 1.000000 1.000000 1.000000 1.000000 1.000000 1.000000 0.995276 0.933202 0.912772 0.875887 0.809622 0.822384 0.927205 0.922732 0.918452 0.910303 0.875842 0.901850 0.898848 0.832398 0.684019 0.669121 0.734706 0.912646 0.963394 0.995937 0.999971 1.000000 1.000000 1.000000 1.000000 1.000000 1.000000 1.000000 0.999999 0.945414 0.948251 0.925055 0.843644 0.903813 0.961202 0.924531 0.923824 0.923977 0.925064 0.917836 0.913963 0.895673 0.854843 0.922336 0.988933 0.998773 0.999968 0.999981 1.000000 1.000000 1.000000 1.000000 1.000000 1.000000 1.000000 1.000000 0.999999 0.988976 0.985651 0.930933 0.924022 0.998720 0.994590 0.975718 0.975622 0.962905 0.937741 0.949810 0.979111 0.925473 0.921426 0.985999 0.999751 0.999894 1.000000 1.000000 1.000000 1.000000 1.000000 1.000000 1.000000 1.000000 1.000000 1.000000 1.000000 0.999999 0.999704 0.970740 0.971827 0.999885 0.999991 0.999999 1.000000 1.000000 1.000000 1.000000 1.000000 0.989868 0.989529 0.999910 1.000000 1.000000 1.000000 1.000000 1.000000 1.000000 1.000000 1.000000 1.000000 1.000000 1.000000 1.000000 1.000000 1.000000 0.999997 0.984616 0.965211 0.997700 1.000000 1.000000 1.000000 1.000000 1.000000 1.000000 1.000000 0.999938 0.999760 0.999992 1.000000 1.000000 1.000000 1.000000 1.000000 1.000000 1.000000 1.000000 1.000000 1.000000 1.000000 1.000000 1.000000 1.000000 1.000000 0.999569 0.972686 0.997412 1.000000 1.000000 1.000000 1.000000 1.000000 1.000000 1.000000 1.000000 1.000000 1.000000 1.000000 1.000000 1.000000 1.000000 1.000000 1.000000 1.000000 1.000000
-1.000000 -1.000000 -1.000000 -1.000000 -1.000000 -1.000000 -1.000000 -1.000000 -1.000000 -1.000000 -1.000000 -1.000000 -1.000000 -1.000000 -1.000000 -1.000000 -1.000000 -1.000000 -1.000000 -1.000000 -1.000000 -1.000000 -1.000000 -1.000000 -1.000000 -1.000000 -1.000000 -1.000000 -1.000000 -1.000000 -1.000000 -1.000000 -1.000000 -1.000000 -1.000000 -1.000000 -1.000000 -1.000000 -1.000000 -1.000000 -1.000000 -1.000000 -1.000000 -1.000000 -1.000000 -1.000000 -1.000000 -1.000000 -1.000000 -1.000000 -1.000000 -1.000000 -1.000000 -1.000000 -1.000000 -1.000000 -1.000000 -1.000000 -1.000000 -1.000000 -1.000000 -1.000000 -1.000000 -1.000000 -1.000000 -1.000000 -1.000000 -1.000000 -1.000000 -1.000000 -1.000000 -1.000000 -1.000000 -1.000000 -1.000000 -1.000000 -1.000000 -1.000000 -1.000000 -1.000000 -1.000000 -1.000000 -1.000000 -1.000000 -1.000000 -1.000000 -1.000000 -1.000000 -1.000000 -1.000000 -0.987924 -0.908620 -0.920100 -0.999550 -0.999505 -0.999630 -0.999987 -1.000000 -0.999982 -0.999126 -0.999075 -0.999982 -1.000000 -1.000000 -1.000000 -1.000000 -1.000000 -1.000000 -1.000000 -1.000000 -1.000000 -1.000000 -1.000000 -1.000000 -1.000000 -1.000000 -1.000000 -0.999970 -0.979885 -0.900997 -0.905199 -0.989480 -0.999334 -0.999759 -0.999983 -0.999599 -0.998408 -0.997275 -0.997345 -0.998786 -0.999965 -0.995477 -0.998404 -0.999142 -0.999837 -1.000000 -1.000000 -1.000000 -1.000000 -1.000000 -1.000000 -1.000000 -1.000000 -1.000000 -1.000000 -0.999916 -0.977205 -0.866699 -0.920972 -0.908401 -0.886965 -0.971177 -0.975046 -0.930983 -0.928517 -0.928428 -0.931403 -0.940376 -0.971577 -0.963525 -0.937801 -0.872361 -0.897664 -0.946086 -0.946089 -1.000000 -1.000000 -1.000000 -1.000000 -1.000000 -1.000000 -1.000000 -0.999981 -0.996898 -0.865687 -0.788310 -0.768362 -0.811545 -0.850318 -0.914596 -0.922824 -0.916505 -0.915073 -0.917438 -0.916226 -0.899775 -0.881940 -0.853250 -0.822259 -0.794908 -0.827817 -0.942943 -0.974197 -1.000000 -1.000000 -1.000000 -1.000000 -1.000000 -1.000000 -0.999996 -0.994561 -0.952902 -0.785796 -0.654370 -0.695299 -0.676919 -0.592491 -0.770438 -0.893791 -0.888497 -0.880142 -0.843638 -0.809117 -0.785048 -0.697563 -0.659602 -0.683751 -0.626810 -0.817819 -0.941926 -0.990158 -0.999848 -1.000000 -1.000000 -1.000000 -1.000000 -0.999996 -0.999993 -0.968822 -0.868181 -0.665005 -0.466926 -0.410432 -0.357067 -0.275688 -0.615653 -0.632896 -0.588587 -0.463042 -0.328718 -0.453615 -0.453919 -0.547077 -0.471298 -0.424452 -0.477881 -0.666281 -0.891749 -0.925070 -0.984227 -1.000000 -1.000000 -1.000000 -1.000000 -0.999451 -0.997555 -0.920274 -0.778499 -0.417176 -0.339595 -0.282979 0.071815 -0.039668 -0.255784 -0.184525 -0.238163 -0.105844 0.050233 -0.025989 -0.149498 -0.374765 -0.321157 -0.324736 -0.446740 -0.520234 -0.595569 -0.600993 -0.763377 -0.822585 -1.000000 -1.000000 -1.000000 -0.966552 -0.928463 -0.810207 -0.640502 -0.447509 -0.501660 0.165023 0.396366 0.055253 -0.181882 -0.210098 -0.299117 -0.051092 0.082582 0.093784 0.059882 -0.184069 -0.255091 -0.314627 -0.310879 -0.022979 -0.144444 -0.399620 -0.704358 -0.838100 -1.000000 -1.000000 -1.000000 -0.939853 -0.879458 -0.729106 -0.521560 -0.517760 -0.285554 0.463188 0.633417 0.223084 -0.221468 -0.361880 -0.343849 -0.053424 0.223606 0.211919 0.291383 0.272253 -0.097117 -0.200120 -0.029103 0.142449 -0.085206 -0.516564 -0.786571 -0.985081 -1.000000 -1.000000 -1.000000 -0.962186 -0.853225 -0.630169 -0.503663 -0.376930 0.087605 0.604185 0.644644 0.133004 -0.199828 -0.435474 -0.225459 0.075175 0.550011 0.409775 0.463783 0.206338 -0.029417 -0.017507 0.144746 0.131361 -0.242910 -0.499274 -0.596401 -0.749131 -0.999858 -1.000000 -1.000000 -0.987237 -0.847891 -0.289435 -0.035263 0.025648 0.252331 0.783907 0.603114 0.014912 -0.106016 0.047807 0.207597 0.434623 0.723504 0.447407 0.338382 0.173481 -0.068178 0.093350 0.164201 0.095509 -0.098033 -0.390712 -0.449553 -0.826458 -0.999403 -1.000000 -1.000000 -0.983657 -0.892079 0.038767 0.168882 0.256944 0.636863 0.928190 0.604393 0.054160 -0.020020 0.310850 0.711747 0.835943 0.529848 0.314910 0.564299 0.545519 0.749941 0.853516 0.637207 0.462876 0.024814 -0.502959 -0.658812 -0.990693 -0.999536 -1.000000 -0.999998 -0.997159 -0.923791 -0.231400 0.050047 0.319158 0.760239 0.906805 0.459536 0.118976 0.224742 0.476641 0.603480 0.507402 0.525009 0.821864 0.923651 0.968234 1.000000 0.990051 0.788804 0.334844 0.004085 -0.628053 -0.750081 -0.963743 -0.999965 -1.000000 -0.999991 -0.960450 -0.822572 -0.452690 -0.221516 0.065336 0.711270 0.913299 0.557121 0.156594 0.107066 0.135282 0.501929 0.610742 0.691054 0.788524 0.733437 0.402876 0.430181 0.594083 0.318529 0.034966 -0.313005 -0.526904 -0.690397 -0.946120 -0.980220 -1.000000 -0.999986 -0.988939 -0.826727 -0.682251 -0.439296 -0.063039 0.845504 0.877341 0.600631 0.469428 0.611230 0.783214 0.889612 0.902497 0.827466 0.679848 0.324464 -0.039850 0.040926 0.023932 -0.098811 -0.434119 -0.470689 -0.457652 -0.685960 -0.867055 -0.911301 -1.000000 -0.999986 -0.999993 -0.884108 -0.816247 -0.590800 -0.196482 0.378656 0.682030 0.605502 0.579488 0.486919 0.576344 0.460708 0.175917 0.197267 0.221976 -0.062016 -0.127643 -0.200435 -0.220570 -0.450408 -0.575011 -0.688498 -0.816311 -0.957008 -0.994916 -0.998306 -1.000000 -1.000000 -1.000000 -0.952376 -0.890780 -0.630414 -0.316213 0.018456 0.061846 -0.012008 -0.071489 -0.311336 -0.442315 -0.637791 -0.600394 -0.375004 -0.125192 -0.282618 -0.382075 -0.385541 -0.386064 -0.538590 -0.620046 -0.804922 -0.887436 -0.982612 -1.000000 -1.000000 -1.000000 -1.000000 -1.000000 -0.999992 -0.985386 -0.920902 -0.759592 -0.541486 -0.448754 -0.664367 -0.741295 -0.867945 -0.892053 -0.899046 -0.868302 -0.585844 -0.304198 -0.547377 -0.534657 -0.631312 -0.654022 -0.727252 -0.849805 -0.884688 -0.963380 -0.999920 -1.000000 -1.000000 -1.000000 -1.000000 -1.000000 -1.000000 -0.973468 -0.945918 -0.880338 -0.798252 -0.745601 -0.845198 -0.903819 -0.908125 -0.903199 -0.897066 -0.841512 -0.722553 -0.656180 -0.754511 -0.595222 -0.560101 -0.597233 -0.814613 -0.884311 -0.932216 -0.999727 -1.000000 -1.000000 -1.000000 -1.000000 -1.000000 -1.000000 -1.000000 -0.995308 -0.932194 -0.911732 -0.874540 -0.803033 -0.816021 -0.927190 -0.923513 -0.919303 -0.911095 -0.876315 -0.901731 -0.900739 -0.838321 -0.681622 -0.663426 -0.732161 -0.912984 -0.963819 -0.995985 -0.999971 -1.000000 -1.000000 -1.000000 -1.000000 -1.000000 -1.000000 -1.000000 -0.999999 -0.944474 -0.947603 -0.924974 -0.838702 -0.899740 -0.961435 -0.925272 -0.924589 -0.924723 -0.925633 -0.917836 -0.913691 -0.896178 -0.855450 -0.921071 -0.988594 -0.998717 -0.999966 -0.999981 -1.000000 -1.000000 -1.000000 -1.000000 -1.000000 -1.000000 -1.000000 -1.000000 -0.999999 -0.988803 -0.985760 -0.930983 -0.923465 -0.998690 -0.994580 -0.975880 -0.975815 -0.963219 -0.938259 -0.950229 -0.979208 -0.924640 -0.920410 -0.985813 -0.999736 -0.999888 -1.000000 -1.000000 -1.000000 -1.000000 -1.000000 -1.000000 -1.000000 -1.000000 -1.000000 -1.000000 -1.000000 -0.999999 -0.999707 -0.970990 -0.971931 -0.999878 -0.999990 -0.999998 -1.000000 -1.000000 -1.000000 -1.000000 -1.000000 -0.989738 -0.989393 -0.999906 -1.000000 -1.000000 -1.000000 -1.000000 -1.000000 -1.000000 -1.000000 -1.000000 -1.000000 -1.000000 -1.000000 -1.000000 -1.000000 -1.000000 -0.999997 -0.984770 -0.965558 -0.997723 -1.000000 -1.000000 -1.000000 -1.000000 -1.000000 -1.000000 -1.000000 -0.999939 -0.999763 -0.999992 -1.000000 -1.000000 -1.000000 -1.000000 -1.000000 -1.000000 -1.000000 -1.000000 -1.000000 -1.000000 -1.000000 -1.000000 -1.000000 -1.000000 -1.000000 -0.999573 -0.972958 -0.997438 -1.000000 -1.000000 -1.000000 -1.000000 -1.000000 -1.000000 -1.000000 -1.000000 -1.000000 -1.000000 -1.000000 -1.000000 -1.000000 -1.000000 -1.000000 -1.000000 -1.000000 -1.000000
1.000000 1.000000 1.000000 1.000000 1.000000 1.000000 1.000000 1.000000 1.000000 1.000000 1.000000 1.000000 1.000000 1.000000 1.000000 1.000000 1.000000 1.000000 1.000000 1.000000 1.000000 1.000000 1.000000 1.000000 1.000000 1.000000 1.000000 1.000000 1.000000 1.000000 1.000000 1.000000 1.000000 1.000000 1.000000 1.000000 1.000000 1.000000 1.000000 1.000000 1.000000 1.000000 1.000000 1.000000 1.000000 1.000000 1.000000 1.000000 1.000000 1.000000 1.000000 1.000000 1.000000 1.000000 1.000000 1.000000 1.000000 1.000000 1.000000 1.000000 1.000000 1.000000 1.000000 1.000000 1.000000 1.000000 1.000000 1.000000 1.000000 1.000000 1.000000 1.000000 1.000000 1.000000 1.000000 1.000000 1.000000 1.000000 1.000000 1.000000 1.000000 1.000000 1.000000 1.000000 1.000000 1.000000 1.000000 1.000000 1.000000 1.000000 0.988225 0.910720 0.921849 0.999387 0.999415 0.999589 0.999986 1.000000 0.999981 0.999077 0.999023 0.999981 1.000000 1.000000 1.000000 1.000000 1.000000 1.000000 1.000000 1.000000 1.000000 1.000000 1.000000 1.000000 1.000000 1.000000 1.000000 0.999963 0.980301 0.903178 0.905178 0.988114 0.999188 0.999732 0.999981 0.999570 0.998311 0.997104 0.997181 0.998717 0.999961 0.994901 0.998131 0.998973 0.999805 1.000000 1.000000 1.000000 1.000000 1.000000 1.000000 1.000000 1.000000 1.000000 1.000000 0.999897 0.977500 0.866224 0.919892 0.909602 0.890163 0.971311 0.974972 0.931281 0.928573 0.928433 0.931751 0.940623 0.971028 0.960817 0.937076 0.871367 0.897425 0.944256 0.944261 1.000000 1.000000 1.000000 1.000000 1.000000 1.000000 1.000000 0.999975 0.994971 0.856315 0.777775 0.767161 0.814864 0.852497 0.914933 0.922406 0.915507 0.913920 0.916357 0.915180 0.897737 0.878813 0.849371 0.820025 0.792353 0.825567 0.940808 0.973103 1.000000 1.000000 1.000000 1.000000 1.000000 0.999999 0.999995 0.994486 0.945122 0.773611 0.644867 0.687246 0.682299 0.599617 0.771387 0.891336 0.883793 0.872835 0.831657 0.798149 0.776162 0.687034 0.649156 0.676479 0.619912 0.812530 0.939415 0.989527 0.999834 1.000000 1.000000 1.000000 1.000000 0.999994 0.999990 0.964456 0.854196 0.653845 0.453010 0.403311 0.359246 0.279302 0.609737 0.620975 0.575032 0.448389 0.312252 0.440716 0.443643 0.534605 0.458943 0.405774 0.452013 0.650932 0.887394 0.922796 0.983725 1.000000 1.000000 1.000000 1.000000 0.999380 0.997237 0.913487 0.762618 0.404510 0.326552 0.277444 -0.066538 0.042957 0.250077 0.173139 0.224919 0.094322 -0.067096 0.013718 0.139026 0.361601 0.303362 0.298707 0.415316 0.497936 0.593191 0.601844 0.760897 0.821701 1.000000 1.000000 1.000000 0.963730 0.922898 0.795903 0.625981 0.434202 0.496091 -0.161459 -0.389057 -0.057868 0.165533 0.192100 0.280739 0.038693 -0.100338 -0.112584 -0.071437 0.168603 0.234867 0.284512 0.276209 -0.001429 0.139713 0.399864 0.701212 0.836207 1.000000 1.000000 1.000000 0.935112 0.870453 0.713759 0.505848 0.504876 0.278256 -0.461069 -0.633183 -0.237067 0.196029 0.341936 0.330229 0.038227 -0.242939 -0.228978 -0.305089 -0.280319 0.088617 0.174255 -0.001663 -0.166378 0.072029 0.514428 0.783289 0.984166 1.000000 1.000000 1.000000 0.959411 0.841709 0.618898 0.488969 0.356959 -0.100785 -0.605393 -0.644752 -0.147568 0.184774 0.428398 0.223847 -0.085595 -0.575059 -0.430211 -0.476093 -0.208938 0.017851 -0.008962 -0.174590 -0.157275 0.227269 0.500490 0.600393 0.755750 0.999840 1.000000 1.000000 0.986561 0.834155 0.274409 0.024204 -0.036306 -0.268673 -0.779436 -0.601414 -0.019616 0.106512 -0.041420 -0.211689 -0.458501 -0.754267 -0.473789 -0.353973 -0.185794 0.044127 -0.122275 -0.189231 -0.113713 0.087855 0.395136 0.455028 0.830837 0.999326 1.000000 1.000000 0.982571 0.881397 -0.045085 -0.180375 -0.262333 -0.638232 -0.918190 -0.597703 -0.052024 0.019041 -0.308821 -0.721004 -0.857926 -0.562468 -0.337824 -0.578346 -0.557073 -0.761391 -0.864471 -0.647279 -0.463496 -0.025090 0.504964 0.658049 0.990420 0.999464 1.000000 0.999997 0.997162 0.918123 0.221562 -0.062592 -0.326456 -0.761630 -0.903122 -0.462376 -0.126466 -0.239783 -0.491511 -0.624582 -0.534050 -0.541926 -0.830689 -0.924547 -0.969208 -1.000000 -0.995234 -0.792925 -0.341737 -0.005785 0.623738 0.748791 0.963244 0.999958 1.000000 0.999988 0.961206 0.823055 0.443019 0.202732 -0.079847 -0.726184 -0.924948 -0.571273 -0.173603 -0.127747 -0.165693 -0.523939 -0.624586 -0.700933 -0.793328 -0.730682 -0.391960 -0.422782 -0.590860 -0.320345 -0.033488 0.311968 0.527767 0.692846 0.947238 0.980887 1.000000 0.999982 0.989145 0.827957 0.679722 0.430732 0.050956 -0.852991 -0.887188 -0.616421 -0.484274 -0.620085 -0.790671 -0.893460 -0.902555 -0.821918 -0.673396 -0.323534 0.041887 -0.048900 -0.035844 0.091841 0.433153 0.476253 0.464943 0.694064 0.871274 0.914292 1.000000 0.999982 0.999992 0.884646 0.816348 0.586659 0.192693 -0.384218 -0.688851 -0.616563 -0.593677 -0.499991 -0.582474 -0.466654 -0.178337 -0.196411 -0.223626 0.046226 0.110605 0.181163 0.205149 0.441496 0.572708 0.689672 0.820126 0.958085 0.995087 0.998363 1.000000 1.000000 1.000000 0.952606 0.890889 0.633244 0.314806 -0.023547 -0.072308 -0.001485 0.059210 0.302210 0.435650 0.624792 0.583011 0.360847 0.110644 0.263222 0.358019 0.366006 0.369943 0.531771 0.619579 0.804602 0.888859 0.983060 1.000000 1.000000 1.000000 1.000000 1.000000 0.999990 0.984762 0.920764 0.756134 0.532852 0.437392 0.656921 0.734518 0.862842 0.884855 0.889422 0.852771 0.569927 0.291264 0.532333 0.511546 0.614796 0.640887 0.726050 0.851084 0.885919 0.963646 0.999922 1.000000 1.000000 1.000000 1.000000 1.000000 1.000000 0.972340 0.943827 0.876970 0.792322 0.739019 0.841932 0.902275 0.905926 0.898845 0.891475 0.830068 0.708813 0.644369 0.745283 0.580627 0.547705 0.589921 0.814483 0.886100 0.933770 0.999677 1.000000 1.000000 1.000000 1.000000 1.000000 1.000000 1.000000 0.995108 0.929831 0.908397 0.869588 0.798089 0.812164 0.926643 0.922703 0.918151 0.909649 0.873290 0.900954 0.898274 0.832152 0.675146 0.655855 0.729367 0.913992 0.964596 0.996057 0.999965 1.000000 1.000000 1.000000 1.000000 1.000000 1.000000 1.000000 0.999998 0.942616 0.945540 0.921755 0.834773 0.897715 0.961361 0.924654 0.923883 0.924034 0.925330 0.917986 0.914090 0.894711 0.847646 0.916727 0.988267 0.998649 0.999962 0.999977 1.000000 1.000000 1.000000 1.000000 1.000000 1.000000 1.000000 1.000000 0.999999 0.988429 0.984988 0.928047 0.920583 0.998590 0.994312 0.975632 0.975535 0.963342 0.939106 0.950912 0.979459 0.921416 0.915145 0.984849 0.999699 0.999872 1.000000 1.000000 1.000000 1.000000 1.000000 1.000000 1.000000 1.000000 1.000000 1.000000 1.000000 0.999998 0.999693 0.969808 0.970806 0.999872 0.999988 0.999998 1.000000 1.000000 1.000000 1.000000 1.000000 0.989053 0.988633 0.999886 1.000000 1.000000 1.000000 1.000000 1.000000 1.000000 1.000000 1.000000 1.000000 1.000000 1.000000 1.000000 1.000000 1.000000 0.999996 0.984147 0.964151 0.997630 1.000000 1.000000 1.000000 1.000000 1.000000 1.000000 1.000000 0.999924 0.999706 0.999991 1.000000 1.000000 1.000000 1.000000 1.000000 1.000000 1.000000 1.000000 1.000000 1.000000 1.000000 1.000000 1.000000 1.000000 1.000000 0.999556 0.971853 0.997333 1.000000 1.000000 1.000000 1.000000 1.000000 1.000000 1.000000 1.000000 1.000000 1.000000 1.000000 1.000000 1.000000 1.000000 1.000000 1.000000 1.000000 1.000000
1.000000 1.000000 1.000000 1.000000 1.000000 1.000000 1.000000 1.000000 1.000000 1.000000 1.000000 1.000000 1.000000 1.000000 1.000000 1.000000 1.000000 1.000000 1.000000 1.000000 1.000000 1.000000 1.000000 1.000000 1.000000 1.000000 1.000000 1.000000 1.000000 1.000000 1.000000 1.000000 1.000000 1.000000 1.000000 1.000000 1.000000 1.000000 1.000000 1.000000 1.000000 1.000000 1.000000 1.000000 1.000000 1.000000 1.000000 1.000000 1.000000 1.000000 1.000000 1.000000 1.000000 1.000000 1.000000 1.000000 1.000000 1.000000 1.000000 1.000000 1.000000 1.000000 1.000000 1.000000 1.000000 1.000000 1.000000 1.000000 1.000000 1.000000 1.000000 1.000000 1.000000 1.000000 1.000000 1.000000 1.000000 1.000000 1.000000 1.000000 1.000000 1.000000 1.000000 1.000000 1.000000 1.000000 1.000000 1.000000 1.000000 1.000000 0.987987 0.908993 0.920361 0.999384 0.999463 0.999646 0.999988 1.000000 0.999983 0.999179 0.999130 0.999983 1.000000 1.000000 1.000000 1.000000 1.000000 1.000000 1.000000 1.000000 1.000000 1.000000 1.000000 1.000000 1.000000 1.000000 1.000000 0.999972 0.979939 0.901296 0.904112 0.988415 0.999238 0.999769 0.999984 0.999624 0.998506 0.997442 0.997508 0.998859 0.999967 0.995161 0.998394 0.999110 0.999831 1.000000 1.000000 1.000000 1.000000 1.000000 1.000000 1.000000 1.000000 1.000000 1.000000 0.999922 0.977162 0.864753 0.919821 0.910422 0.891054 0.971612 0.974608 0.929913 0.927367 0.927256 0.930386 0.939537 0.970966 0.961886 0.938225 0.874027 0.899144 0.947086 0.947089 1.000000 1.000000 1.000000 1.000000 1.000000 1.000000 1.000000 0.999982 0.995188 0.858360 0.780659 0.770283 0.814458 0.850777 0.913739 0.921525 0.915128 0.913684 0.915929 0.914732 0.897930 0.879193 0.850926 0.823894 0.797641 0.830245 0.943999 0.974752 1.000000 1.000000 1.000000 1.000000 1.000000 1.000000 0.999996 0.994625 0.947916 0.779475 0.651461 0.694010 0.675461 0.589779 0.768176 0.892626 0.885811 0.875631 0.833595 0.799779 0.777874 0.689748 0.651705 0.680387 0.626872 0.818470 0.943048 0.990438 0.999852 1.000000 1.000000 1.000000 1.000000 0.999996 0.999993 0.965539 0.861598 0.660722 0.461739 0.406591 0.351383 0.271395 0.614259 0.627940 0.579258 0.452593 0.314099 0.440675 0.441139 0.537439 0.461470 0.413235 0.463193 0.660542 0.893379 0.926248 0.984461 1.000000 1.000000 1.000000 1.000000 0.999409 0.997367 0.916640 0.770064 0.415153 0.338752 0.280374 -0.077739 0.040820 0.261388 0.186097 0.237411 0.104953 -0.062391 0.009923 0.133436 0.363332 0.312175 0.311637 0.429853 0.510850 0.598605 0.602680 0.758833 0.815458 1.000000 1.000000 1.000000 0.965046 0.925705 0.804604 0.636659 0.450698 0.506743 -0.166112 -0.397487 -0.053062 0.181830 0.210568 0.303908 0.062167 -0.087770 -0.102894 -0.066218 0.184483 0.253590 0.304761 0.297200 0.012060 0.141709 0.399413 0.696982 0.832233 1.000000 1.000000 1.000000 0.937394 0.876449 0.725071 0.518846 0.520968 0.290126 -0.462321 -0.634983 -0.225447 0.217176 0.362779 0.352083 0.064133 -0.227069 -0.212156 -0.289543 -0.259598 0.106697 0.193695 0.013216 -0.154335 0.078053 0.516214 0.784104 0.984973 1.000000 1.000000 1.000000 0.960861 0.850572 0.631517 0.502728 0.373098 -0.087506 -0.607011 -0.646375 -0.135198 0.200956 0.444618 0.240210 -0.060229 -0.547767 -0.405661 -0.456524 -0.192861 0.026972 0.005299 -0.157143 -0.139878 0.238258 0.502759 0.598023 0.747603 0.999864 1.000000 1.000000 0.987161 0.846074 0.284019 0.030811 -0.028778 -0.256357 -0.786597 -0.609750 -0.018032 0.108424 -0.032290 -0.188324 -0.419878 -0.721138 -0.445273 -0.339370 -0.179735 0.052615 -0.109600 -0.171576 -0.099724 0.090047 0.392356 0.451565 0.825494 0.999432 1.000000 1.000000 0.983616 0.891426 -0.043440 -0.172930 -0.254812 -0.638211 -0.933195 -0.609790 -0.056169 0.024066 -0.295960 -0.690964 -0.824625 -0.535948 -0.321131 -0.571549 -0.557351 -0.766747 -0.866248 -0.644794 -0.465628 -0.024850 0.506009 0.663506 0.991201 0.999560 1.000000 0.999998 0.997176 0.924201 0.230934 -0.051765 -0.312984 -0.759153 -0.908092 -0.460216 -0.113829 -0.217214 -0.461419 -0.587519 -0.503326 -0.530829 -0.829182 -0.931887 -0.978074 -1.000000 -0.994095 -0.790224 -0.332320 0.002877 0.636819 0.755912 0.965876 0.999967 1.000000 0.999991 0.960673 0.824738 0.454776 0.223271 -0.052876 -0.710707 -0.913883 -0.551245 -0.141734 -0.091891 -0.129734 -0.501978 -0.617321 -0.700483 -0.794474 -0.736090 -0.396005 -0.421463 -0.588101 -0.308619 -0.020694 0.325347 0.537258 0.697352 0.947543 0.980570 1.000000 0.999987 0.989002 0.828931 0.684377 0.443721 0.076198 -0.841974 -0.879260 -0.603066 -0.461519 -0.612412 -0.789164 -0.895368 -0.904287 -0.823472 -0.674106 -0.316487 0.056287 -0.031861 -0.018118 0.108371 0.447491 0.485494 0.468056 0.690844 0.869474 0.912870 1.000000 0.999987 0.999994 0.885782 0.818711 0.593768 0.204869 -0.374226 -0.686895 -0.616271 -0.593054 -0.502080 -0.586527 -0.468880 -0.168084 -0.191802 -0.220927 0.058658 0.131212 0.202769 0.222257 0.456200 0.584505 0.698328 0.820042 0.957606 0.995006 0.998336 1.000000 1.000000 1.000000 0.953071 0.892397 0.636527 0.319776 -0.013070 -0.064113 -0.000842 0.061562 0.302832 0.437753 0.632580 0.593734 0.363954 0.111483 0.272455 0.374783 0.381380 0.385907 0.543839 0.627022 0.808148 0.888587 0.982864 1.000000 1.000000 1.000000 1.000000 1.000000 0.999993 0.985476 0.922561 0.759051 0.541407 0.449370 0.661127 0.736831 0.863113 0.887825 0.893469 0.857152 0.569006 0.284998 0.534852 0.521610 0.628576 0.653977 0.729172 0.852316 0.885705 0.963715 0.999927 1.000000 1.000000 1.000000 1.000000 1.000000 1.000000 0.973632 0.946758 0.881296 0.799291 0.748853 0.845579 0.902419 0.904507 0.897588 0.891892 0.830616 0.706864 0.637456 0.743051 0.585689 0.557396 0.598707 0.815712 0.885209 0.932607 0.999740 1.000000 1.000000 1.000000 1.000000 1.000000 1.000000 1.000000 0.995337 0.933636 0.912581 0.874660 0.806175 0.819202 0.926083 0.921553 0.916825 0.908632 0.871761 0.899811 0.897120 0.832235 0.680642 0.663860 0.732381 0.913397 0.964053 0.996013 0.999973 1.000000 1.000000 1.000000 1.000000 1.000000 1.000000 1.000000 0.999999 0.945714 0.948228 0.924211 0.841021 0.901666 0.960675 0.923444 0.922710 0.922876 0.924026 0.916616 0.912650 0.894638 0.853776 0.921126 0.988674 0.998767 0.999970 0.999982 1.000000 1.000000 1.000000 1.000000 1.000000 1.000000 1.000000 1.000000 0.999999 0.989028 0.985364 0.930086 0.923542 0.998684 0.994445 0.975340 0.975241 0.962468 0.937168 0.949348 0.978883 0.924497 0.920530 0.985842 0.999763 0.999899 1.000000 1.000000 1.000000 1.000000 1.000000 1.000000 1.000000 1.000000 1.000000 1.000000 1.000000 0.999999 0.999700 0.970209 0.971304 0.999883 0.999991 0.999999 1.000000 1.000000 1.000000 1.000000 1.000000 0.989754 0.989423 0.999911 1.000000 1.000000 1.000000 1.000000 1.000000 1.000000 1.000000 1.000000 1.000000 1.000000 1.000000 1.000000 1.000000 1.000000 0.999997 0.984339 0.964584 0.997658 1.000000 1.000000 1.000000 1.000000 1.000000 1.000000 1.000000 0.999941 0.999772 0.999993 1.000000 1.000000 1.000000 1.000000 1.000000 1.000000 1.000000 1.000000 1.000000 1.000000 1.000000 1.000000 1.000000 1.000000 1.000000 0.999561 0.972193 0.997366 1.000000 1.000000 1.000000 1.000000 1.000000 1.000000 1.000000 1.000000 1.000000 1.000000 1.000000 1.000000 1.000000 1.000000 1.000000 1.000000 1.000000 1.000000
-1.000000 -1.000000 -1.000000 -1.000000 -1.000000 -1.000000 -1.000000 -1.000000 -1.000000 -1.000000 -1.000000 -1.000000 -1.000000 -1.000000 -1.000000 -1.000000 -1.000000 -1.000000 -1.000000 -1.000000 -1.000000 -1.000000 -1.000000 -1.000000 -1.000000 -1.000000 -1.000000 -1.000000 -1.000000 -1.000000 -1.000000 -1.000000 -1.000000 -1.000000 -1.000000 -1.000000 -1.000000 -1.000000 -1.000000 -1.000000 -1.000000 -1.000000 -1.000000 -1.000000 -1.000000 -1.000000 -1.000000 -1.000000 -1.000000 -1.000000 -1.000000 -1.000000 -1.000000 -1.000000 -1.000000 -1.000000 -1.000000 -1.000000 -1.000000 -1.000000 -1.000000 -1.000000 -1.000000 -1.000000 -1.000000 -1.000000 -1.000000 -1.000000 -1.000000 -1.000000 -1.000000 -1.000000 -1.000000 -1.000000 -1.000000 -1.000000 -1.000000 -1.000000 -1.000000 -1.000000 -1.000000 -1.000000 -1.000000 -1.000000 -1.000000 -1.000000 -1.000000 -1.000000 -1.000000 -1.000000 -0.988278 -0.911180 -0.922267 -0.999386 -0.999444 -0.999630 -0.999987 -1.000000 -0.999982 -0.999159 -0.999109 -0.999982 -1.000000 -1.000000 -1.000000 -1.000000 -1.000000 -1.000000 -1.000000 -1.000000 -1.000000 -1.000000 -1.000000 -1.000000 -1.000000 -1.000000 -1.000000 -0.999970 -0.980413 -0.903660 -0.906374 -0.988633 -0.999214 -0.999759 -0.999983 -0.999609 -0.998463 -0.997361 -0.997432 -0.998830 -0.999966 -0.995201 -0.998315 -0.999051 -0.999820 -1.000000 -1.000000 -1.000000 -1.000000 -1.000000 -1.000000 -1.000000 -1.000000 -1.000000 -1.000000 -0.999917 -0.977632 -0.868094 -0.921277 -0.911040 -0.891619 -0.972218 -0.975879 -0.933426 -0.930963 -0.930849 -0.933853 -0.942510 -0.972080 -0.962384 -0.937564 -0.872191 -0.897488 -0.945415 -0.945418 -1.000000 -1.000000 -1.000000 -1.000000 -1.000000 -1.000000 -1.000000 -0.999983 -0.996129 -0.864731 -0.789437 -0.773775 -0.814605 -0.850481 -0.916376 -0.925035 -0.918652 -0.917195 -0.919574 -0.918342 -0.900952 -0.882347 -0.852092 -0.821445 -0.794081 -0.827000 -0.942362 -0.974125 -1.000000 -1.000000 -1.000000 -1.000000 -1.000000 -1.000000 -0.999996 -0.994575 -0.951996 -0.788819 -0.661383 -0.700667 -0.673975 -0.588702 -0.771092 -0.896172 -0.890285 -0.881012 -0.844060 -0.809965 -0.785590 -0.696882 -0.658711 -0.684057 -0.630513 -0.819240 -0.941971 -0.990406 -0.999851 -1.000000 -1.000000 -1.000000 -1.000000 -0.999996 -0.999993 -0.967654 -0.870000 -0.672264 -0.479274 -0.419834 -0.352700 -0.273112 -0.622786 -0.635087 -0.587188 -0.460229 -0.322007 -0.446528 -0.448587 -0.548752 -0.477988 -0.431752 -0.484299 -0.674145 -0.892845 -0.925502 -0.984181 -1.000000 -1.000000 -1.000000 -1.000000 -0.999430 -0.997458 -0.921413 -0.784721 -0.433733 -0.357460 -0.290439 0.072030 -0.038983 -0.260634 -0.186888 -0.240738 -0.108316 0.060513 -0.015727 -0.142347 -0.381714 -0.335516 -0.334790 -0.454246 -0.530376 -0.598453 -0.599380 -0.756724 -0.815089 -1.000000 -1.000000 -1.000000 -0.964641 -0.924592 -0.811003 -0.651678 -0.463822 -0.515377 0.155241 0.391297 0.051850 -0.184817 -0.213725 -0.304601 -0.056479 0.092671 0.106560 0.062356 -0.197897 -0.274021 -0.330727 -0.323132 -0.038449 -0.149077 -0.394829 -0.694850 -0.831406 -1.000000 -1.000000 -1.000000 -0.936271 -0.877051 -0.732429 -0.533972 -0.530862 -0.297497 0.455457 0.628982 0.214909 -0.228018 -0.366890 -0.351135 -0.059149 0.228479 0.213540 0.282182 0.245151 -0.121806 -0.212145 -0.033013 0.131544 -0.090851 -0.514708 -0.781872 -0.984567 -1.000000 -1.000000 -1.000000 -0.960378 -0.852908 -0.639515 -0.517856 -0.384370 0.082903 0.607721 0.640166 0.119659 -0.217210 -0.444480 -0.238055 0.064860 0.543154 0.399753 0.447764 0.183326 -0.036930 -0.019547 0.137928 0.118374 -0.251099 -0.502353 -0.595800 -0.746129 -0.999858 -1.000000 -1.000000 -0.987687 -0.849410 -0.296707 -0.042282 0.020856 0.250973 0.784301 0.601176 0.002731 -0.121645 0.029696 0.187113 0.416903 0.714659 0.441538 0.340219 0.181171 -0.061730 0.097351 0.153084 0.079450 -0.099427 -0.391299 -0.451734 -0.824428 -0.999404 -1.000000 -1.000000 -0.984057 -0.895295 0.029323 0.163633 0.249103 0.630714 0.928553 0.602058 0.042460 -0.033426 0.289000 0.684828 0.818454 0.529382 0.326812 0.583409 0.564261 0.764748 0.856286 0.627622 0.456056 0.028022 -0.503512 -0.666088 -0.991038 -0.999537 -1.000000 -0.999998 -0.997183 -0.926491 -0.245296 0.037398 0.309935 0.752864 0.900675 0.451469 0.105603 0.203990 0.451456 0.579507 0.496063 0.534614 0.842651 0.945424 0.984983 1.000000 0.980917 0.776315 0.325562 0.003777 -0.633794 -0.758067 -0.965360 -0.999965 -1.000000 -0.999991 -0.960807 -0.823549 -0.465115 -0.233590 0.054781 0.704788 0.905373 0.539731 0.135266 0.084789 0.119870 0.499173 0.623280 0.707595 0.803865 0.742919 0.397922 0.413069 0.571663 0.296886 0.024175 -0.317618 -0.535612 -0.697654 -0.947030 -0.980455 -1.000000 -0.999986 -0.989039 -0.827210 -0.686700 -0.450790 -0.074894 0.842611 0.876095 0.600407 0.465400 0.618492 0.794590 0.898038 0.908942 0.833330 0.683759 0.317451 -0.059495 0.018895 0.001407 -0.114873 -0.441705 -0.480127 -0.467287 -0.688795 -0.868566 -0.912355 -1.000000 -0.999986 -0.999994 -0.884226 -0.817058 -0.597775 -0.209919 0.369189 0.685074 0.617624 0.593691 0.502111 0.587363 0.465587 0.161853 0.186244 0.216899 -0.067220 -0.148470 -0.227677 -0.242440 -0.460854 -0.584943 -0.698388 -0.819930 -0.957598 -0.994976 -0.998326 -1.000000 -1.000000 -1.000000 -0.952404 -0.891026 -0.637412 -0.323838 0.006913 0.058892 -0.009038 -0.069229 -0.310355 -0.441950 -0.642071 -0.609942 -0.383222 -0.130101 -0.291356 -0.397975 -0.405545 -0.404236 -0.548812 -0.629064 -0.808865 -0.889995 -0.982948 -1.000000 -1.000000 -1.000000 -1.000000 -1.000000 -0.999992 -0.985813 -0.923152 -0.760082 -0.548299 -0.458710 -0.670752 -0.747490 -0.872411 -0.896085 -0.902776 -0.871988 -0.587270 -0.307919 -0.559148 -0.542902 -0.631696 -0.654229 -0.728970 -0.853129 -0.887663 -0.964271 -0.999914 -1.000000 -1.000000 -1.000000 -1.000000 -1.000000 -1.000000 -0.974244 -0.946722 -0.880091 -0.799288 -0.751906 -0.848859 -0.906162 -0.911385 -0.907427 -0.901810 -0.842142 -0.720167 -0.652636 -0.758355 -0.598810 -0.561665 -0.599765 -0.816074 -0.887375 -0.934203 -0.999731 -1.000000 -1.000000 -1.000000 -1.000000 -1.000000 -1.000000 -1.000000 -0.995445 -0.931909 -0.911050 -0.874320 -0.808761 -0.822138 -0.929547 -0.925624 -0.921753 -0.913714 -0.880442 -0.904423 -0.902515 -0.839630 -0.687207 -0.666566 -0.733874 -0.914740 -0.964889 -0.996102 -0.999972 -1.000000 -1.000000 -1.000000 -1.000000 -1.000000 -1.000000 -1.000000 -0.999999 -0.943968 -0.947177 -0.924613 -0.842922 -0.903754 -0.962734 -0.927359 -0.926651 -0.926800 -0.927790 -0.920143 -0.916021 -0.898637 -0.859112 -0.923752 -0.988762 -0.998735 -0.999968 -0.999981 -1.000000 -1.000000 -1.000000 -1.000000 -1.000000 -1.000000 -1.000000 -1.000000 -0.999999 -0.988678 -0.985641 -0.930658 -0.923164 -0.998702 -0.994711 -0.976606 -0.976505 -0.964443 -0.940551 -0.952075 -0.979914 -0.927739 -0.924288 -0.986489 -0.999747 -0.999892 -1.000000 -1.000000 -1.000000 -1.000000 -1.000000 -1.000000 -1.000000 -1.000000 -1.000000 -1.000000 -1.000000 -0.999999 -0.999706 -0.970906 -0.971841 -0.999878 -0.999990 -0.999999 -1.000000 -1.000000 -1.000000 -1.000000 -1.000000 -0.990239 -0.989884 -0.999904 -1.000000 -1.000000 -1.000000 -1.000000 -1.000000 -1.000000 -1.000000 -1.000000 -1.000000 -1.000000 -1.000000 -1.000000 -1.000000 -1.000000 -0.999997 -0.984727 -0.965462 -0.997716 -1.000000 -1.000000 -1.000000 -1.000000 -1.000000 -1.000000 -1.000000 -0.999938 -0.999759 -0.999992 -1.000000 -1.000000 -1.000000 -1.000000 -1.000000 -1.000000 -1.000000 -1.000000 -1.000000 -1.000000 -1.000000 -1.000000 -1.000000 -1.000000 -1.000000 -0.999572 -0.972883 -0.997431 -1.000000 -1.000000 -1.000000 -1.000000 -1.000000 -1.000000 -1.000000 -1.000000 -1.000000 -1.000000 -1.000000 -1.000000 -1.000000 -1.000000 -1.000000 -1.000000 -1.000000 -1.000000
1.000000 1.000000 1.000000 1.000000 1.000000 1.000000 1.000000 1.000000 1.000000 1.000000 1.000000 1.000000 1.000000 1.000000 1.000000 1.000000 1.000000 1.000000 1.000000 1.000000 1.000000 1.000000 1.000000 1.000000 1.000000 1.000000 1.000000 1.000000 1.000000 1.000000 1.000000 1.000000 1.000000 1.000000 1.000000 1.000000 1.000000 1.000000 1.000000 1.000000 1.000000 1.000000 1.000000 1.000000 1.000000 1.000000 1.000000 1.000000 1.000000 1.000000 1.000000 1.000000 1.000000 1.000000 1.000000 1.000000 1.000000 1.000000 1.000000 1.000000 1.000000 1.000000 1.000000 1.000000 1.000000 1.000000 1.000000 1.000000 1.000000 1.000000 1.000000 1.000000 1.000000 1.000000 1.000000 1.000000 1.000000 1.000000 1.000000 1.000000 1.000000 1.000000 1.000000 1.000000 1.000000 1.000000 1.000000 1.000000 1.000000 1.000000 0.987860 0.907989 0.919454 0.999304 0.999456 0.999663 0.999988 1.000000 0.999983 0.999193 0.999145 0.999983 1.000000 1.000000 1.000000 1.000000 1.000000 1.000000 1.000000 1.000000 1.000000 1.000000 1.000000 1.000000 1.000000 1.000000 1.000000 0.999974 0.979707 0.900160 0.903477 0.988522 0.999209 0.999781 0.999985 0.999634 0.998534 0.997498 0.997560 0.998879 0.999968 0.995276 0.998467 0.999136 0.999836 1.000000 1.000000 1.000000 1.000000 1.000000 1.000000 1.000000 1.000000 1.000000 1.000000 0.999926 0.976860 0.861587 0.919528 0.910362 0.890734 0.971712 0.975005 0.930729 0.928320 0.928229 0.931163 0.940252 0.971430 0.962831 0.940023 0.876867 0.901455 0.947361 0.947364 1.000000 1.000000 1.000000 1.000000 1.000000 1.000000 1.000000 0.999983 0.993679 0.850853 0.772527 0.769214 0.813501 0.849698 0.914460 0.923001 0.916900 0.915404 0.917548 0.916257 0.899536 0.881175 0.853883 0.828129 0.801759 0.833449 0.944388 0.975047 1.000000 1.000000 1.000000 1.000000 1.000000 1.000000 0.999997 0.994761 0.943434 0.771630 0.644518 0.689592 0.672470 0.586338 0.768081 0.894009 0.885606 0.874327 0.829174 0.798674 0.780116 0.694375 0.657293 0.684726 0.631739 0.820303 0.943918 0.990726 0.999858 1.000000 1.000000 1.000000 1.000000 0.999996 0.999994 0.962922 0.855373 0.652889 0.453990 0.404471 0.350541 0.271295 0.612520 0.623193 0.572668 0.447085 0.311332 0.445064 0.449998 0.543627 0.467418 0.416674 0.459580 0.659217 0.895381 0.926202 0.984405 1.000000 1.000000 1.000000 1.000000 0.999442 0.997512 0.913716 0.763066 0.408675 0.333595 0.283088 -0.077851 0.043093 0.257037 0.179418 0.230653 0.099003 -0.061398 0.017446 0.144168 0.369889 0.318163 0.314588 0.426750 0.508534 0.600846 0.603291 0.761141 0.819902 1.000000 1.000000 1.000000 0.965702 0.926627 0.801767 0.630386 0.445117 0.506168 -0.166709 -0.398354 -0.053478 0.174827 0.203738 0.297304 0.056838 -0.082913 -0.093469 -0.054779 0.193072 0.260886 0.307624 0.295815 0.008679 0.145435 0.401774 0.701488 0.836030 1.000000 1.000000 1.000000 0.938259 0.877021 0.722373 0.513957 0.519657 0.292198 -0.462531 -0.638547 -0.228201 0.210603 0.356847 0.345159 0.056356 -0.226673 -0.203122 -0.278522 -0.250627 0.112474 0.196653 0.012970 -0.155142 0.080062 0.520162 0.786252 0.985152 1.000000 1.000000 1.000000 0.961401 0.850309 0.630619 0.499128 0.375964 -0.078812 -0.610870 -0.650735 -0.142152 0.194247 0.436246 0.230559 -0.070515 -0.547568 -0.396709 -0.443338 -0.182544 0.035171 0.009811 -0.156746 -0.142764 0.235583 0.499930 0.594439 0.744440 0.999871 1.000000 1.000000 0.987489 0.844600 0.282314 0.030789 -0.025311 -0.255169 -0.790488 -0.614279 -0.023818 0.101644 -0.039270 -0.196802 -0.428453 -0.718852 -0.430794 -0.322407 -0.163476 0.064624 -0.104885 -0.174359 -0.107411 0.082344 0.387036 0.447109 0.823375 0.999461 1.000000 1.000000 0.983937 0.889668 -0.042962 -0.171157 -0.251635 -0.640035 -0.939507 -0.613430 -0.060590 0.018195 -0.302788 -0.699707 -0.832054 -0.535565 -0.311707 -0.557329 -0.543068 -0.759984 -0.868727 -0.652165 -0.473195 -0.027525 0.500967 0.661480 0.991029 0.999582 1.000000 0.999998 0.997217 0.923088 0.235664 -0.050278 -0.312071 -0.763606 -0.914688 -0.462379 -0.117914 -0.221483 -0.468767 -0.597574 -0.508753 -0.530050 -0.828143 -0.928754 -0.974490 -0.998650 -1.000000 -0.798890 -0.338644 -0.001856 0.632705 0.754318 0.964849 0.999969 1.000000 0.999992 0.961275 0.828245 0.460420 0.230323 -0.047135 -0.708415 -0.916981 -0.547078 -0.141346 -0.095958 -0.143187 -0.512455 -0.622711 -0.705204 -0.797667 -0.739945 -0.401814 -0.424704 -0.594211 -0.312887 -0.026687 0.322667 0.533319 0.696386 0.947380 0.980629 1.000000 0.999988 0.989171 0.832858 0.688991 0.450762 0.080662 -0.835977 -0.875892 -0.598964 -0.462660 -0.617672 -0.798152 -0.906263 -0.911818 -0.829836 -0.675044 -0.315305 0.055454 -0.034640 -0.022282 0.105799 0.443401 0.485402 0.464555 0.690469 0.869847 0.913134 1.000000 0.999988 0.999994 0.888662 0.822537 0.599168 0.209725 -0.367401 -0.683662 -0.614151 -0.593482 -0.504261 -0.589977 -0.476148 -0.175399 -0.192689 -0.218791 0.058033 0.126838 0.197581 0.220019 0.455551 0.587156 0.698841 0.816668 0.956716 0.995021 0.998341 1.000000 1.000000 1.000000 0.954292 0.894970 0.639312 0.322190 -0.010636 -0.061742 0.000858 0.064255 0.303426 0.438326 0.628402 0.586309 0.359443 0.108926 0.269782 0.369887 0.376461 0.384385 0.548554 0.632616 0.808755 0.887272 0.982220 1.000000 1.000000 1.000000 1.000000 1.000000 0.999993 0.985794 0.923233 0.759937 0.540506 0.449558 0.661509 0.737912 0.864362 0.888363 0.892287 0.850793 0.564649 0.281276 0.528480 0.515502 0.628755 0.656669 0.733457 0.852742 0.884977 0.963279 0.999906 1.000000 1.000000 1.000000 1.000000 1.000000 1.000000 0.974208 0.947771 0.882630 0.801928 0.752084 0.847377 0.903766 0.905591 0.898659 0.892901 0.826898 0.702717 0.635451 0.736692 0.581575 0.558076 0.602359 0.816556 0.884473 0.931908 0.999744 1.000000 1.000000 1.000000 1.000000 1.000000 1.000000 1.000000 0.995439 0.934412 0.914265 0.877783 0.808959 0.821177 0.927168 0.922888 0.918127 0.910167 0.873601 0.901432 0.897089 0.830401 0.682949 0.666691 0.733903 0.913129 0.963686 0.995975 0.999974 1.000000 1.000000 1.000000 1.000000 1.000000 1.000000 1.000000 0.999999 0.946218 0.949145 0.926512 0.843347 0.902841 0.961289 0.924728 0.924035 0.924194 0.925201 0.917853 0.913900 0.895709 0.854274 0.921249 0.988856 0.998799 0.999971 0.999983 1.000000 1.000000 1.000000 1.000000 1.000000 1.000000 1.000000 1.000000 0.999999 0.989102 0.985930 0.932265 0.925475 0.998771 0.994665 0.975808 0.975712 0.962927 0.937658 0.949742 0.979079 0.924475 0.919987 0.985754 0.999768 0.999901 1.000000 1.000000 1.000000 1.000000 1.000000 1.000000 1.000000 1.000000 1.000000 1.000000 1.000000 0.999999 0.999712 0.971447 0.972590 0.999892 0.999992 0.999999 1.000000 1.000000 1.000000 1.000000 1.000000 0.989684 0.989366 0.999915 1.000000 1.000000 1.000000 1.000000 1.000000 1.000000 1.000000 1.000000 1.000000 1.000000 1.000000 1.000000 1.000000 1.000000 0.999997 0.984975 0.966021 0.997753 1.000000 1.000000 1.000000 1.000000 1.000000 1.000000 1.000000 0.999943 0.999777 0.999993 1.000000 1.000000 1.000000 1.000000 1.000000 1.000000 1.000000 1.000000 1.000000 1.000000 1.000000 1.000000 1.000000 1.000000 1.000000 0.999579 0.973322 0.997472 1.000000 1.000000 1.000000 1.000000 1.000000 1.000000 1.000000 1.000000 1.000000 1.000000 1.000000 1.000000 1.000000 1.000000 1.000000 1.000000 1.000000 1.000000
-1.000000 -1.000000 -1.000000 -1.000000 -1.000000 -1.000000 -1.000000 -1.000000 -1.000000 -1.000000 -1.000000 -1.000000 -1.000000 -1.000000 -1.000000 -1.000000 -1.000000 -1.000000 -1.000000 -1.000000 -1.000000 -1.000000 -1.000000 -1.000000 -1.000000 -1.000000 -1.000000 -1.000000 -1.000000 -1.000000 -1.000000 -1.000000 -1.000000 -1.000000 -1.000000 -1.000000 -1.000000 -1.000000 -1.000000 -1.000000 -1.000000 -1.000000 -1.000000 -1.000000 -1.000000 -1.000000 -1.000000 -1.000000 -1.000000 -1.000000 -1.000000 -1.000000 -1.000000 -1.000000 -1.000000 -1.000000 -1.000000 -1.000000 -1.000000 -1.000000 -1.000000 -1.000000 -1.000000 -1.000000 -1.000000 -1.000000 -1.000000 -1.000000 -1.000000 -1.000000 -1.000000 -1.000000 -1.000000 -1.000000 -1.000000 -1.000000 -1.000000 -1.000000 -1.000000 -1.000000 -1.000000 -1.000000 -1.000000 -1.000000 -1.000000 -1.000000 -1.000000 -1.000000 -1.000000 -1.000000 -0.988136 -0.910126 -0.921358 -0.999414 -0.999470 -0.999641 -0.999988 -1.000000 -0.999983 -0.999193 -0.999146 -0.999983 -1.000000 -1.000000 -1.000000 -1.000000 -1.000000 -1.000000 -1.000000 -1.000000 -1.000000 -1.000000 -1.000000 -1.000000 -1.000000 -1.000000 -1.000000 -0.999971 -0.980188 -0.902541 -0.905485 -0.988695 -0.999255 -0.999766 -0.999984 -0.999628 -0.998528 -0.997478 -0.997544 -0.998878 -0.999967 -0.995231 -0.998363 -0.999098 -0.999829 -1.000000 -1.000000 -1.000000 -1.000000 -1.000000 -1.000000 -1.000000 -1.000000 -1.000000 -1.000000 -0.999918 -0.977356 -0.866276 -0.920625 -0.910786 -0.891361 -0.972788 -0.976873 -0.936500 -0.933996 -0.933858 -0.936957 -0.945134 -0.972998 -0.963048 -0.941558 -0.880126 -0.904674 -0.946784 -0.946788 -1.000000 -1.000000 -1.000000 -1.000000 -1.000000 -1.000000 -1.000000 -0.999982 -0.996249 -0.862564 -0.785948 -0.771480 -0.814653 -0.851086 -0.918725 -0.928080 -0.921710 -0.920217 -0.922490 -0.921395 -0.905681 -0.887704 -0.860234 -0.832359 -0.805472 -0.836532 -0.943629 -0.974523 -1.000000 -1.000000 -1.000000 -1.000000 -1.000000 -1.000000 -0.999997 -0.994577 -0.951399 -0.784966 -0.656305 -0.697560 -0.674111 -0.589477 -0.773471 -0.898827 -0.893192 -0.884512 -0.847022 -0.814746 -0.793763 -0.711237 -0.673689 -0.692970 -0.632481 -0.817026 -0.942600 -0.990284 -0.999853 -1.000000 -1.000000 -1.000000 -1.000000 -0.999996 -0.999994 -0.967656 -0.866897 -0.666153 -0.464845 -0.401742 -0.348150 -0.271708 -0.617353 -0.635931 -0.589432 -0.465273 -0.330428 -0.457707 -0.465455 -0.559719 -0.479901 -0.431700 -0.475259 -0.660898 -0.892484 -0.926429 -0.984548 -1.000000 -1.000000 -1.000000 -1.000000 -0.999411 -0.997375 -0.918972 -0.774482 -0.413159 -0.332265 -0.270138 0.086008 -0.036556 -0.258582 -0.186938 -0.240013 -0.110574 0.049930 -0.029553 -0.155349 -0.377881 -0.327338 -0.328150 -0.439957 -0.513387 -0.595139 -0.602889 -0.762581 -0.819538 -1.000000 -1.000000 -1.000000 -0.966841 -0.929887 -0.810105 -0.636381 -0.444927 -0.498304 0.177832 0.404913 0.055806 -0.184168 -0.213616 -0.302412 -0.064302 0.074003 0.091288 0.057931 -0.188833 -0.261573 -0.312599 -0.303427 -0.015631 -0.141120 -0.400769 -0.701787 -0.835833 -1.000000 -1.000000 -1.000000 -0.941023 -0.881843 -0.728850 -0.517925 -0.515073 -0.280689 0.475641 0.640840 0.226429 -0.222835 -0.361709 -0.348666 -0.073352 0.210799 0.204274 0.282883 0.261864 -0.106705 -0.203954 -0.026289 0.149543 -0.080890 -0.516508 -0.785542 -0.985219 -1.000000 -1.000000 -1.000000 -0.962987 -0.855885 -0.631658 -0.503488 -0.377702 0.090723 0.614183 0.648856 0.133288 -0.198728 -0.438467 -0.241147 0.053768 0.533684 0.399171 0.457219 0.195789 -0.034734 -0.020405 0.148453 0.137934 -0.239943 -0.496709 -0.593767 -0.746072 -0.999862 -1.000000 -1.000000 -0.987303 -0.850017 -0.285060 -0.036899 0.031043 0.257390 0.790930 0.606344 0.014896 -0.106873 0.037779 0.191860 0.415425 0.712165 0.440756 0.338979 0.172084 -0.064394 0.098314 0.171246 0.101896 -0.091197 -0.385489 -0.444333 -0.824441 -0.999421 -1.000000 -1.000000 -0.983730 -0.892887 0.040682 0.166361 0.261246 0.643751 0.934545 0.606453 0.051327 -0.028222 0.301246 0.699578 0.827951 0.533066 0.315990 0.563392 0.547122 0.762491 0.868261 0.653846 0.473865 0.029565 -0.500243 -0.657230 -0.990887 -0.999548 -1.000000 -0.999998 -0.997220 -0.925677 -0.236109 0.044746 0.314276 0.760105 0.907568 0.451551 0.104807 0.213663 0.468359 0.600807 0.512227 0.535968 0.829781 0.924477 0.969549 1.000000 0.994930 0.799265 0.342549 0.005302 -0.629983 -0.750472 -0.964491 -0.999966 -1.000000 -0.999991 -0.961416 -0.833264 -0.458526 -0.230405 0.055764 0.706570 0.902284 0.541168 0.136942 0.095082 0.135014 0.508585 0.619216 0.703327 0.794083 0.729588 0.395094 0.422658 0.592703 0.314124 0.033430 -0.314701 -0.527877 -0.689983 -0.945765 -0.979969 -1.000000 -0.999986 -0.989209 -0.837968 -0.691710 -0.446245 -0.075563 0.837076 0.866633 0.588862 0.455842 0.619900 0.800770 0.907002 0.913249 0.832879 0.683343 0.320632 -0.050590 0.030417 0.017048 -0.107415 -0.440935 -0.472776 -0.456898 -0.683589 -0.865364 -0.910176 -1.000000 -0.999987 -0.999994 -0.893009 -0.826596 -0.600178 -0.206465 0.370376 0.673121 0.601245 0.589032 0.503995 0.594097 0.475302 0.180195 0.196815 0.217464 -0.066528 -0.133725 -0.207224 -0.230255 -0.459495 -0.578594 -0.691845 -0.818549 -0.957118 -0.994852 -0.998284 -1.000000 -1.000000 -1.000000 -0.956197 -0.898529 -0.639512 -0.323532 0.009190 0.053416 -0.012037 -0.062965 -0.302955 -0.438788 -0.633834 -0.595119 -0.370891 -0.125718 -0.288175 -0.389039 -0.394466 -0.392630 -0.544111 -0.622010 -0.807191 -0.888969 -0.982730 -1.000000 -1.000000 -1.000000 -1.000000 -1.000000 -0.999992 -0.985418 -0.921505 -0.757930 -0.539513 -0.452083 -0.667997 -0.744466 -0.870996 -0.891396 -0.897196 -0.863317 -0.581602 -0.301167 -0.548108 -0.538425 -0.642892 -0.666311 -0.731251 -0.851807 -0.886328 -0.963799 -0.999913 -1.000000 -1.000000 -1.000000 -1.000000 -1.000000 -1.000000 -0.973528 -0.946370 -0.880346 -0.797908 -0.746015 -0.849963 -0.908997 -0.912912 -0.905747 -0.898506 -0.840298 -0.721554 -0.655266 -0.755970 -0.605206 -0.575187 -0.612263 -0.819048 -0.886017 -0.933388 -0.999725 -1.000000 -1.000000 -1.000000 -1.000000 -1.000000 -1.000000 -1.000000 -0.995318 -0.933079 -0.911944 -0.874334 -0.802898 -0.816706 -0.931369 -0.928183 -0.923934 -0.915769 -0.880864 -0.906771 -0.905114 -0.841861 -0.693099 -0.676947 -0.741565 -0.914297 -0.964443 -0.996053 -0.999971 -1.000000 -1.000000 -1.000000 -1.000000 -1.000000 -1.000000 -1.000000 -0.999999 -0.945264 -0.947731 -0.924394 -0.838630 -0.899482 -0.964237 -0.930007 -0.929275 -0.929436 -0.930543 -0.923042 -0.918988 -0.900870 -0.857344 -0.921961 -0.988650 -0.998722 -0.999967 -0.999981 -1.000000 -1.000000 -1.000000 -1.000000 -1.000000 -1.000000 -1.000000 -1.000000 -0.999999 -0.988954 -0.985289 -0.930307 -0.923827 -0.998707 -0.994758 -0.977424 -0.977311 -0.966009 -0.943563 -0.954504 -0.980843 -0.926835 -0.921789 -0.986059 -0.999739 -0.999889 -1.000000 -1.000000 -1.000000 -1.000000 -1.000000 -1.000000 -1.000000 -1.000000 -1.000000 -1.000000 -1.000000 -0.999999 -0.999702 -0.970450 -0.971529 -0.999883 -0.999991 -0.999999 -1.000000 -1.000000 -1.000000 -1.000000 -1.000000 -0.989915 -0.989573 -0.999908 -1.000000 -1.000000 -1.000000 -1.000000 -1.000000 -1.000000 -1.000000 -1.000000 -1.000000 -1.000000 -1.000000 -1.000000 -1.000000 -1.000000 -0.999997 -0.984466 -0.964872 -0.997677 -1.000000 -1.000000 -1.000000 -1.000000 -1.000000 -1.000000 -1.000000 -0.999939 -0.999762 -0.999992 -1.000000 -1.000000 -1.000000 -1.000000 -1.000000 -1.000000 -1.000000 -1.000000 -1.000000 -1.000000 -1.000000 -1.000000 -1.000000 -1.000000 -1.000000 -0.999565 -0.972419 -0.997387 -1.000000 -1.000000 -1.000000 -1.000000 -1.000000 -1.000000 -1.000000 -1.000000 -1.000000 -1.000000 -1.000000 -1.000000 -1.000000 -1.000000 -1.000000 -1.000000 -1.000000 -1.000000
-1.000000 -1.000000 -1.000000 -1.000000 -1.000000 -1.000000 -1.000000 -1.000000 -1.000000 -1.000000 -1.000000 -1.000000 -1.000000 -1.000000 -1.000000 -1.000000 -1.000000 -1.000000 -1.000000 -1.000000 -1.000000 -1.000000 -1.000000 -1.000000 -1.000000 -1.000000 -1.000000 -1.000000 -1.000000 -1.000000 -1.000000 -1.000000 -1.000000 -1.000000 -1.000000 -1.000000 -1.000000 -1.000000 -1.000000 -1.000000 -1.000000 -1.000000 -1.000000 -1.000000 -1.000000 -1.000000 -1.000000 -1.000000 -1.000000 -1.000000 -1.000000 -1.000000 -1.000000 -1.000000 -1.000000 -1.000000 -1.000000 -1.000000 -1.000000 -1.000000 -1.000000 -1.000000 -1.000000 -1.000000 -1.000000 -1.000000 -1.000000 -1.000000 -1.000000 -1.000000 -1.000000 -1.000000 -1.000000 -1.000000 -1.000000 -1.000000 -1.000000 -1.000000 -1.000000 -1.000000 -1.000000 -1.000000 -1.000000 -1.000000 -1.000000 -1.000000 -1.000000 -1.000000 -1.000000 -1.000000 -0.987668 -0.906634 -0.918340 -0.999489 -0.999457 -0.999604 -0.999986 -1.000000 -0.999981 -0.999113 -0.999061 -0.999982 -1.000000 -1.000000 -1.000000 -1.000000 -1.000000 -1.000000 -1.000000 -1.000000 -1.000000 -1.000000 -1.000000 -1.000000 -1.000000 -1.000000 -1.000000 -0.999968 -0.979436 -0.898816 -0.902423 -0.988724 -0.999262 -0.999742 -0.999982 -0.999591 -0.998382 -0.997229 -0.997301 -0.998767 -0.999964 -0.995214 -0.998366 -0.999106 -0.999831 -1.000000 -1.000000 -1.000000 -1.000000 -1.000000 -1.000000 -1.000000 -1.000000 -1.000000 -1.000000 -0.999911 -0.976608 -0.862316 -0.918555 -0.907985 -0.887372 -0.971127 -0.974845 -0.930599 -0.928037 -0.927932 -0.931048 -0.940110 -0.971293 -0.962707 -0.940802 -0.877304 -0.902664 -0.945763 -0.945767 -1.000000 -1.000000 -1.000000 -1.000000 -1.000000 -1.000000 -1.000000 -0.999980 -0.996250 -0.860003 -0.781241 -0.765243 -0.810431 -0.848806 -0.913870 -0.922158 -0.915622 -0.914187 -0.916558 -0.915555 -0.898890 -0.880963 -0.854855 -0.829016 -0.801840 -0.833409 -0.942629 -0.974095 -1.000000 -1.000000 -1.000000 -1.000000 -1.000000 -1.000000 -0.999996 -0.994658 -0.951235 -0.780540 -0.647764 -0.690324 -0.672626 -0.587041 -0.768056 -0.893310 -0.887725 -0.878893 -0.842669 -0.810368 -0.787509 -0.703565 -0.668006 -0.691291 -0.634509 -0.817331 -0.941611 -0.990153 -0.999843 -1.000000 -1.000000 -1.000000 -1.000000 -0.999995 -0.999993 -0.967894 -0.865947 -0.659647 -0.459189 -0.403320 -0.345860 -0.267217 -0.618522 -0.635281 -0.589099 -0.463002 -0.324942 -0.452843 -0.456930 -0.555400 -0.480951 -0.433255 -0.480323 -0.665404 -0.891071 -0.924083 -0.983957 -1.000000 -1.000000 -1.000000 -1.000000 -0.999421 -0.997417 -0.918932 -0.774180 -0.414421 -0.335288 -0.274673 0.081408 -0.035946 -0.259273 -0.185549 -0.236997 -0.103387 0.060178 -0.022552 -0.150489 -0.382664 -0.331871 -0.331655 -0.445572 -0.519042 -0.591077 -0.592435 -0.756301 -0.815489 -1.000000 -1.000000 -1.000000 -0.965427 -0.926391 -0.807252 -0.639739 -0.450435 -0.504780 0.170410 0.404036 0.059425 -0.180467 -0.208531 -0.297234 -0.046206 0.093225 0.103088 0.062053 -0.192198 -0.261382 -0.317563 -0.310784 -0.015118 -0.130136 -0.385298 -0.694294 -0.831472 -1.000000 -1.000000 -1.000000 -0.937998 -0.877196 -0.727819 -0.523023 -0.523183 -0.290136 0.473209 0.649139 0.233609 -0.218703 -0.359561 -0.341304 -0.050865 0.236611 0.221441 0.295702 0.264487 -0.101281 -0.200402 -0.019543 0.156565 -0.070640 -0.505626 -0.780249 -0.984367 -1.000000 -1.000000 -1.000000 -0.961213 -0.850915 -0.632423 -0.509797 -0.391340 0.083274 0.625311 0.668386 0.146268 -0.194076 -0.433287 -0.225158 0.080307 0.565806 0.418157 0.466004 0.196659 -0.029137 -0.010463 0.158053 0.146971 -0.231737 -0.493562 -0.591959 -0.745961 -0.999847 -1.000000 -1.000000 -0.987241 -0.845465 -0.293801 -0.049254 0.009340 0.253862 0.808372 0.625486 0.025213 -0.101739 0.044236 0.208838 0.443287 0.739807 0.455524 0.339896 0.175459 -0.062126 0.103996 0.175591 0.108336 -0.084010 -0.383190 -0.443844 -0.824216 -0.999361 -1.000000 -1.000000 -0.983561 -0.890488 0.026850 0.155360 0.242140 0.646934 0.950600 0.622895 0.059097 -0.019933 0.311694 0.714822 0.845934 0.547041 0.324641 0.570635 0.552090 0.761266 0.866013 0.647817 0.475111 0.036218 -0.495827 -0.655195 -0.990495 -0.999506 -1.000000 -0.999998 -0.997191 -0.924527 -0.245626 0.037445 0.306873 0.773610 0.926684 0.470987 0.120184 0.229361 0.481974 0.615265 0.522588 0.540609 0.831315 0.935669 0.975264 1.000000 0.990558 0.793717 0.337447 0.006710 -0.623780 -0.747946 -0.963285 -0.999963 -1.000000 -0.999990 -0.961097 -0.830723 -0.463550 -0.233095 0.056536 0.719653 0.927226 0.562928 0.157929 0.113974 0.152770 0.525812 0.632682 0.710812 0.802892 0.744033 0.404116 0.422836 0.585348 0.306431 0.029475 -0.314421 -0.525028 -0.688855 -0.945605 -0.980072 -1.000000 -0.999985 -0.989118 -0.835347 -0.688927 -0.448563 -0.070216 0.849218 0.884500 0.603666 0.473085 0.631178 0.814568 0.919153 0.924797 0.847539 0.694845 0.331154 -0.046137 0.030348 0.011102 -0.114247 -0.441432 -0.476032 -0.457246 -0.685658 -0.865980 -0.910636 -1.000000 -0.999986 -0.999993 -0.890977 -0.823589 -0.596067 -0.200177 0.382576 0.692332 0.616385 0.596205 0.506296 0.598737 0.482759 0.184523 0.208047 0.231969 -0.057294 -0.129067 -0.206965 -0.235472 -0.463668 -0.585926 -0.692037 -0.814980 -0.956365 -0.994878 -0.998293 -1.000000 -1.000000 -1.000000 -0.955310 -0.896621 -0.632368 -0.313435 0.022548 0.069723 -0.000846 -0.066896 -0.309256 -0.443613 -0.638840 -0.598754 -0.365786 -0.112125 -0.276483 -0.381077 -0.390546 -0.398649 -0.553164 -0.628169 -0.803514 -0.885149 -0.982102 -1.000000 -1.000000 -1.000000 -1.000000 -1.000000 -0.999992 -0.985148 -0.919903 -0.755785 -0.535580 -0.442472 -0.658459 -0.739371 -0.872070 -0.896517 -0.902860 -0.869063 -0.579213 -0.290917 -0.541389 -0.530371 -0.636271 -0.663376 -0.735902 -0.849169 -0.882595 -0.962643 -0.999912 -1.000000 -1.000000 -1.000000 -1.000000 -1.000000 -1.000000 -0.973039 -0.945574 -0.879693 -0.796780 -0.744565 -0.843607 -0.902726 -0.909359 -0.907070 -0.900976 -0.842636 -0.720190 -0.649708 -0.748113 -0.591943 -0.563772 -0.602105 -0.814157 -0.882304 -0.930778 -0.999720 -1.000000 -1.000000 -1.000000 -1.000000 -1.000000 -1.000000 -1.000000 -0.995232 -0.932103 -0.911685 -0.873926 -0.802564 -0.815735 -0.926671 -0.922748 -0.919058 -0.910926 -0.878720 -0.902173 -0.900421 -0.835155 -0.684710 -0.668667 -0.733694 -0.911678 -0.963052 -0.995895 -0.999969 -1.000000 -1.000000 -1.000000 -1.000000 -1.000000 -1.000000 -1.000000 -0.999999 -0.944440 -0.947557 -0.924573 -0.838325 -0.899887 -0.961131 -0.924478 -0.923758 -0.923910 -0.925035 -0.917676 -0.913773 -0.895887 -0.854744 -0.921414 -0.988739 -0.998734 -0.999967 -0.999980 -1.000000 -1.000000 -1.000000 -1.000000 -1.000000 -1.000000 -1.000000 -1.000000 -0.999999 -0.988761 -0.985711 -0.930607 -0.922662 -0.998655 -0.994457 -0.975619 -0.975538 -0.962981 -0.938078 -0.950082 -0.979184 -0.924891 -0.920621 -0.985850 -0.999737 -0.999888 -1.000000 -1.000000 -1.000000 -1.000000 -1.000000 -1.000000 -1.000000 -1.000000 -1.000000 -1.000000 -1.000000 -0.999999 -0.999710 -0.971330 -0.972211 -0.999877 -0.999990 -0.999999 -1.000000 -1.000000 -1.000000 -1.000000 -1.000000 -0.989762 -0.989411 -0.999906 -1.000000 -1.000000 -1.000000 -1.000000 -1.000000 -1.000000 -1.000000 -1.000000 -1.000000 -1.000000 -1.000000 -1.000000 -1.000000 -1.000000 -0.999997 -0.984956 -0.965980 -0.997750 -1.000000 -1.000000 -1.000000 -1.000000 -1.000000 -1.000000 -1.000000 -0.999936 -0.999751 -0.999992 -1.000000 -1.000000 -1.000000 -1.000000 -1.000000 -1.000000 -1.000000 -1.000000 -1.000000 -1.000000 -1.000000 -1.000000 -1.000000 -1.000000 -1.000000 -0.999578 -0.973289 -0.997469 -1.000000 -1.000000 -1.000000 -1.000000 -1.000000 -1.000000 -1.000000 -1.000000 -1.000000 -1.000000 -1.000000 -1.000000 -1.000000 -1.000000 -1.000000 -1.000000 -1.000000 -1.000000
