-0.023650
0.002178
0.046353
-0.013119
0.069845
0.034269
0.035255
-0.030250
-0.005682
-0.035249
0.081747
-0.039813
0.068988
0.089495
0.068273
0.004627
-0.122222
-0.025730
-0.062820
0.022491
0.014971
0.022573
-0.035538
0.052487
0.020709
-0.086145
-0.113206
-0.119236
0.053101
-0.007114
-0.032634
0.006388
-0.067372
0.001789
-0.063549
-0.010326
-0.053021
0.024655
-0.030303
-0.037382
0.020601
-0.045009
-0.020180
0.021425
0.066106
0.010948
0.020248
0.005250
0.099183
0.025608
0.057479
0.038289
-0.028984
-0.083459
0.110072
-0.043476
0.116087
-0.043874
0.021506
0.052693
0.062967
-0.018064
-0.060760
0.100182
-0.037654
0.052712
0.074729
0.083938
-0.042083
0.065433
-0.021317
-0.056615
0.028783
-0.024369
-0.033565
-0.036645
-0.014841
0.004280
0.057353
0.036331
0.047080
0.027631
-0.004525
0.031433
0.023754
-0.012586
0.082586
-0.031345
-0.105573
-0.064694
0.057890
0.025446
-0.005209
0.027734
-0.016016
-0.110180
-0.021244
0.046445
-0.006945
0.023697
-0.007077
-0.041492
0.006167
0.080492
-0.014930
0.055822
0.075009
0.035825
0.038459
0.043706
0.055744
0.057085
-0.002399
-0.033469
0.054232
0.022155
-0.007762
0.056791
0.001752
0.110892
0.013417
-0.070233
0.026840
0.017659
0.054064
-0.013212
0.072485
-0.046681
-0.004025
0.005840
-0.000479
-0.053885
0.014845
-0.029019
-0.027579
-0.049441
0.033949
-0.016024
-0.052580
-0.011253
0.004605
0.024788
-0.018865
0.032259
0.057724
0.041612
0.009332
0.037434
-0.061960
-0.003331
-0.005994
0.094627
0.095786
-0.027090
0.015901
0.015009
-0.043482
-0.010632
-0.077962
-0.070469
0.005330
0.002451
-0.052214
0.017846
-0.023535
0.003721
0.053340
0.016065
0.130861
0.033276
0.045543
0.009893
-0.020564
-0.005262
0.002421
-0.038950
0.027943
-0.009734
-0.094420
-0.082565
-0.139907
0.133101
0.007083
0.009887
0.026659
0.072296
0.060501
0.133405
-0.108780
0.025328
-0.029366
-0.022777
0.034562
-0.072323
-0.129416
0.032052
