-0.000806 0.057984 0.025710 0.075321 -0.028399 -0.140063 0.034837 0.088858 0.004804 -0.039913 0.030694 0.017025 0.090210 -0.047466 -0.038861 0.063035 0.036059 0.148485 -0.161344 0.006310 0.047123 0.151480 -0.011269 -0.079500 0.044147 -0.040151 0.020473 -0.036953 0.116492 -0.091363 -0.050685 0.086127 -0.089492 -0.026623 -0.128320 -0.055348 0.115770 0.050935 -0.043433 -0.061747 -0.050034 0.106617 -0.025649 0.162455 0.053972 0.085278 0.045208 0.061545 0.034839 -0.003864 0.145518 -0.015072 0.049794 -0.010241 0.054664 -0.009712 -0.078332 0.043796 0.036163 0.096040 0.151155 0.025836 -0.077170 -0.056197 -0.001496 -0.039478 0.054502 0.019409 0.022925 0.053298 -0.035251 0.009319 0.037802 -0.144052 -0.058601 0.084770 -0.027873 -0.045862 -0.021055 -0.046992 0.069660 -0.049133 0.075712 0.119183 0.021773 -0.037093 -0.038753 0.009237 0.166340 0.091328 -0.056395 0.089818 -0.003355 -0.030472 -0.140005 -0.106632 0.021394 0.094459 -0.006789 0.069861 0.019727 0.044300 -0.002145 -0.011967 0.004268 0.050797 -0.027818 0.121312 -0.072174 0.027045 -0.092392 0.028561 0.063528 -0.043362 -0.012332 0.008561 0.063093 0.132269 -0.038618 -0.115528 0.095262 0.014579 0.174886 0.065496 0.120355 -0.011785 0.108669 0.007285 0.060065 -0.048484 0.028682 -0.092308 -0.044379 -0.003618 0.119140 -0.033818 -0.002060 -0.085708 -0.023556 0.069726 -0.187631 0.002180 -0.019826 -0.070093 0.025395 0.025156 0.022066 -0.009825 -0.102081 -0.031066 0.031898 0.011720 0.082455 0.084958 0.056005 -0.235959 -0.019446 -0.012565 0.000294 -0.118284 -0.097994 0.040459 0.036509 -0.005133 -0.155639 0.075424 -0.103616 -0.070651 0.068943 0.078146 -0.023732 0.002176 0.024169 -0.140339 0.023447 0.003040 -0.032928 -0.018551 -0.164438 -0.060411 -0.158635 0.045417 -0.020867 0.034199 -0.105507 -0.060144 0.013839 0.128908 -0.180511 0.004351 -0.003897 0.008728 0.001269 -0.091201 0.130633 0.058970
-0.022197 -0.123687 0.039061 -0.010727 0.071130 0.058691 -0.070215 -0.090999 -0.011296 -0.135988 -0.047035 -0.112735 -0.092939 -0.082510 -0.127850 -0.083594 0.087921 -0.062120 -0.096613 -0.054574 -0.114085 -0.033212 0.110094 0.026346 -0.037914 -0.153983 -0.069808 -0.034090 0.018116 -0.001661 0.019258 0.042253 0.020525 0.069792 -0.000329 -0.008789 -0.013883 -0.110072 0.119617 -0.017391 -0.051661 0.087654 -0.026479 -0.009886 0.180166 0.004088 -0.001811 -0.068037 0.156485 0.026204 0.065124 0.244146 0.114439 -0.032358 -0.033562 -0.002242 -0.084072 -0.093927 -0.031092 0.049183 -0.096749 0.005778 0.005335 -0.065178 0.098848 0.063482 -0.119663 0.008440 -0.192298 0.014903 -0.179377 0.034340 -0.017290 0.083793 0.008230 0.110345 -0.045148 -0.268770 0.096261 0.011983 -0.137821 0.027324 0.036323 -0.003104 -0.018719 -0.007855 -0.051744 -0.069222 -0.002024 0.190357 0.070701 -0.080847 0.079188 0.081667 0.121473 -0.043140 0.151009 0.139084 0.057057 0.041470 -0.037713 -0.138506 -0.152444 -0.101633 -0.059630 -0.024209 0.120311 -0.145217 -0.021256 -0.024810 -0.033458 0.145705 -0.012631 -0.120932 -0.018246 0.088400 0.038201 0.140211 -0.141256 -0.074428 0.074408 -0.068056 0.201659 -0.053558 -0.042898 -0.075759 0.017867 0.110476 -0.145544 0.044208 -0.161109 -0.104220 0.046624 -0.007009 -0.034112 -0.058268 0.044668 0.079780 -0.046435 0.076604 0.040910 0.121317 -0.054479 0.018697 -0.117385 0.053839 0.113512 0.012244 -0.005493 -0.006600 0.009547 0.115146 -0.034961 -0.174145 0.094575 0.086735 0.046263 0.133943 0.152429 0.003985 -0.101186 -0.052258 -0.029401 -0.049015 0.041002 0.110129 0.051992 -0.037067 -0.004052 0.004564 -0.018298 -0.008532 -0.003144 0.040606 -0.114377 -0.024459 -0.049799 -0.010004 0.071338 0.114857 -0.024761 0.082430 0.121051 0.106692 0.094291 -0.193939 0.129250 -0.006347 0.057928 0.058977 0.029994 -0.195134 -0.071460 0.077524 0.099007 -0.118211
0.048821 -0.069340 0.008137 0.050867 0.112391 -0.010550 0.025343 -0.137001 0.026317 0.041302 -0.016929 0.031725 0.008243 0.098998 -0.088729 -0.043596 0.027453 0.042329 -0.177260 0.049576 0.112304 -0.090355 -0.046452 0.106465 -0.069782 -0.072313 -0.036030 -0.004605 -0.022980 -0.031049 0.062204 -0.052365 0.111407 -0.007027 0.045253 0.157204 -0.026025 0.182472 0.018287 0.024598 -0.013880 0.074524 -0.106058 -0.039287 0.016603 0.043735 -0.154899 0.029891 -0.113956 -0.164349 0.043407 0.056841 -0.087940 0.031031 -0.021365 -0.077182 -0.058995 -0.058728 -0.039486 0.132750 0.119909 0.159425 0.022158 -0.027750 -0.013803 0.028197 -0.144768 0.126454 -0.001764 -0.069608 -0.042699 -0.023667 0.055004 -0.221060 -0.008066 -0.025086 -0.030041 0.046135 0.080685 0.052701 -0.093133 -0.013219 -0.029905 0.031602 -0.034107 -0.042346 -0.036594 0.140560 0.014468 0.047243 -0.038234 0.017663 -0.026877 0.118291 0.050034 0.082783 0.039953 0.069373 -0.032255 0.087322 -0.169524 -0.092185 -0.044792 0.003073 -0.097388 0.017177 0.016438 -0.028453 -0.074324 -0.008319 -0.076191 -0.037904 -0.050047 0.187907 -0.020841 -0.117705 0.076823 -0.047865 0.002555 -0.058106 -0.109019 0.101603 0.012711 0.074044 -0.145675 -0.018198 0.064016 0.106233 -0.108662 0.029600 0.029242 -0.031803 0.103548 -0.035233 -0.036791 -0.051605 -0.014501 -0.066110 -0.078623 -0.084799 -0.049070 -0.056113 -0.081434 0.090592 0.036157 0.018655 0.044110 -0.132654 0.068924 0.143226 0.036624 0.123000 0.096144 -0.009583 0.073798 -0.121452 -0.125329 0.046284 0.002467 0.035231 0.047195 0.104224 0.072664 0.057558 -0.066632 -0.005780 0.088362 0.111930 -0.068808 -0.033024 0.057681 -0.059384 0.098432 0.066484 -0.044614 0.083312 0.069928 0.184966 -0.076410 0.019850 0.123588 0.045562 0.038513 0.118521 -0.021933 -0.024268 -0.084195 -0.047574 0.169986 0.050732 -0.023910 0.165497 0.049469 0.056852 -0.054257 -0.030320
-0.026229 -0.002018 -0.076113 0.095573 -0.112056 0.014540 0.032634 -0.045306 0.015212 -0.099585 0.054671 -0.141906 -0.014342 0.024165 0.023845 -0.039827 0.050824 -0.014916 0.048916 0.108346 0.032022 0.032858 -0.052671 0.084632 0.055005 0.173011 -0.081381 0.045586 -0.050242 -0.071625 -0.008769 -0.015826 -0.147844 0.045407 0.135800 -0.065936 -0.000071 -0.007023 -0.113156 0.094132 0.087985 0.020523 0.040296 -0.136811 -0.031406 0.044225 -0.050268 0.017063 0.020490 0.004797 -0.049302 -0.130901 0.110629 0.060983 0.087964 -0.026332 -0.145131 -0.024248 0.061069 0.127667 0.014351 0.059336 -0.009459 0.028793 -0.019662 0.137598 0.140871 0.057820 0.080722 0.049603 -0.083954 -0.158456 0.064682 0.059763 -0.027952 0.005776 -0.030204 0.103208 0.057520 -0.081841 -0.047097 -0.088673 0.039727 0.046781 -0.057568 0.007631 -0.018114 0.156065 -0.063226 0.116122 0.008025 -0.026151 0.016868 -0.070901 -0.038415 0.003640 0.016594 0.080049 0.077458 0.132276 0.074258 0.035030 -0.037297 -0.028199 0.081226 -0.088127 -0.096581 0.007007 0.130758 0.045895 -0.004104 -0.082450 -0.086286 -0.027962 0.002188 0.197625 0.082442 0.018130 -0.064862 0.165254 0.009110 0.078554 -0.206770 0.010644 0.070988 -0.014571 -0.128591 0.033507 -0.125260 0.000244 -0.033488 0.055629 0.021855 -0.010486 -0.076620 0.008456 0.022480 0.044426 0.048878 -0.082402 -0.126584 -0.003374 0.092399 0.069120 -0.078697 -0.012183 -0.084154 0.030523 -0.030846 -0.034186 0.014389 -0.015054 -0.031408 0.054990 0.063666 0.156368 -0.040639 -0.020057 0.090823 -0.064527 -0.051621 -0.008399 -0.024832 -0.122515 0.017784 -0.155017 0.077630 0.029973 0.028428 0.002977 -0.063730 0.138642 0.063796 0.029481 -0.068329 0.013581 -0.043527 -0.036944 0.042678 0.013390 0.132496 -0.007485 -0.043856 0.167142 -0.024547 -0.028006 -0.025925 -0.042591 -0.047430 0.091422 -0.103500 -0.069008 -0.122082 -0.081108 0.145362 -0.004953
-0.000369 -0.082877 -0.143941 0.046404 0.086257 0.048478 -0.056763 -0.042606 0.036812 0.000363 0.075411 0.004824 -0.123660 0.032954 -0.089690 -0.114835 0.087511 0.116580 0.063896 0.083606 0.057750 -0.058597 0.090144 -0.098145 0.086319 -0.004005 -0.142665 -0.032137 0.006160 0.007304 0.020767 0.040011 -0.087112 -0.018713 0.038683 -0.155210 0.002555 -0.019914 -0.070493 -0.027751 -0.005375 0.009417 -0.059951 -0.003666 0.099847 0.124002 0.055568 0.007997 0.107783 0.014834 -0.086358 -0.016282 0.080083 -0.177070 0.079946 -0.002536 -0.147804 0.000678 0.068453 -0.039461 0.035814 -0.084029 0.114787 -0.046371 -0.074810 -0.071559 -0.043006 -0.007537 -0.164379 0.056245 -0.147555 -0.038210 -0.015681 0.140537 -0.036730 0.130867 0.091524 0.071480 0.012625 0.024031 -0.021293 -0.011394 0.061298 -0.122663 -0.155246 -0.067291 -0.007082 0.036378 -0.053165 -0.095244 -0.117096 0.018788 0.084136 0.128206 -0.029872 0.010011 0.052909 -0.138959 0.123791 0.036634 0.107774 0.022769 -0.085622 -0.147454 0.083631 -0.146530 -0.045524 0.036066 0.029324 -0.066447 0.071723 0.054390 -0.019679 -0.054590 -0.026268 0.130989 0.008942 0.133220 -0.106932 -0.053291 -0.018202 0.036956 -0.120343 0.118654 0.022558 0.027822 0.096047 -0.028749 -0.039462 -0.036213 0.045601 -0.132916 0.047434 0.004926 0.072191 -0.022352 -0.058231 -0.013578 0.117785 -0.005366 -0.064871 0.009842 -0.018246 0.112324 0.099321 0.054673 -0.007666 0.075265 0.035612 0.086058 -0.037838 -0.000641 0.123661 0.014979 -0.065244 -0.072478 -0.002492 -0.057952 0.027456 0.010555 0.136650 -0.111588 0.060300 -0.099007 -0.001549 0.134638 -0.012270 0.090617 0.075959 0.099216 0.062847 0.028077 -0.163261 0.050566 0.066725 -0.178985 0.063538 -0.015028 -0.014243 0.138681 -0.016280 0.117384 -0.009431 -0.032239 -0.112161 -0.018714 0.041839 -0.060064 0.178118 -0.019149 0.080566 0.065595 0.117082 -0.193883 -0.074244 0.026581
-0.028215 0.130026 0.062104 0.093569 -0.028456 -0.005368 -0.095331 -0.023238 0.012252 -0.036446 0.094817 -0.005385 0.037647 -0.090405 -0.024500 -0.077238 0.016100 -0.079096 0.127865 -0.018455 0.164403 -0.103601 -0.056615 0.045841 0.080049 -0.042855 0.035770 -0.001371 -0.036884 0.079074 -0.119562 0.152295 -0.021719 0.057555 -0.013406 0.122851 -0.025516 0.063574 -0.003740 0.086365 0.072069 -0.073581 -0.033236 0.043070 -0.041935 0.005359 0.094403 -0.026968 0.070126 -0.025048 -0.085633 -0.016413 0.066952 0.045649 0.133262 -0.089642 -0.014733 0.169307 -0.070096 -0.046886 -0.146868 -0.005772 0.001145 0.050350 0.074767 0.114765 -0.005316 -0.037715 -0.043722 0.035914 -0.039295 0.019130 -0.056988 0.035939 0.171403 -0.068466 -0.065728 -0.037004 0.145039 0.031174 -0.057603 0.066879 0.128500 0.039989 -0.054093 0.006859 0.008011 0.011226 -0.058785 0.034105 -0.151233 0.025234 0.108330 -0.058635 0.116234 -0.021346 -0.116908 -0.086565 0.178493 -0.112433 -0.020315 0.091567 0.049316 0.167764 -0.059335 0.038806 0.169925 0.056539 -0.099570 0.003370 -0.135285 0.117288 0.076087 0.052103 -0.065107 0.114378 0.084280 -0.033965 -0.106391 -0.076535 -0.004843 -0.001008 0.006098 0.041211 -0.040745 -0.197777 0.028280 0.002081 -0.026638 0.231380 0.017336 -0.031441 -0.020549 -0.007970 -0.156137 -0.082776 -0.060881 0.226970 -0.015189 0.053546 -0.150652 0.130868 -0.038826 0.012127 -0.080019 0.025014 0.216705 -0.108571 -0.130349 0.058729 0.002339 -0.088470 0.067091 0.046164 0.031687 0.253223 -0.013047 -0.030242 -0.041039 0.054147 0.054141 0.033116 -0.026540 -0.049409 -0.135162 -0.111304 -0.053530 -0.115172 0.001670 -0.092869 -0.225541 -0.086822 0.049061 0.115322 0.043348 0.078343 -0.175333 -0.038131 -0.105096 -0.085922 0.014475 -0.022376 -0.033132 -0.044477 0.094518 0.083551 0.194015 -0.110089 -0.099290 -0.045834 0.031107 0.127708 -0.003766 0.051861 0.055894 -0.033676
0.038974 -0.015653 0.033773 0.136916 -0.146040 0.007943 0.037735 0.043748 -0.027724 0.025916 -0.018881 0.049273 0.068500 -0.073630 0.028998 0.043716 -0.052779 0.054533 -0.027454 0.008850 0.155480 0.113955 -0.043040 -0.030007 0.097160 0.089260 -0.112734 -0.158431 -0.088228 -0.025738 0.005664 0.050900 -0.150917 -0.061894 -0.062072 -0.070494 0.008667 -0.025103 -0.060576 -0.086663 -0.084170 0.049248 -0.137208 0.064139 -0.137917 -0.043457 -0.096356 -0.019886 -0.076854 -0.064015 -0.087143 0.044369 -0.242024 -0.072221 -0.021045 -0.001440 -0.168236 0.098357 -0.089403 0.019210 0.005957 -0.060522 0.095287 0.016844 -0.079206 0.049872 -0.101835 0.032339 0.075338 0.036953 -0.098791 0.140710 0.068142 0.173174 -0.002792 0.082669 -0.111275 0.142351 -0.242662 -0.005734 0.151399 -0.006951 -0.041140 0.153575 0.020652 0.172148 -0.102158 -0.099789 -0.104143 -0.004441 -0.050271 0.096764 -0.030380 -0.007772 0.076916 -0.031902 -0.094154 0.177007 -0.067036 -0.048743 -0.066578 0.099970 0.163697 -0.031426 -0.077234 -0.057017 -0.007553 -0.063568 -0.074645 0.101208 0.158342 0.173584 0.062173 -0.145996 0.019663 0.150779 -0.047867 0.056743 -0.092440 -0.028571 -0.059720 0.046414 -0.079936 -0.119356 0.003064 0.184810 0.039816 -0.023980 0.059359 0.151571 -0.039809 0.032480 -0.031063 0.068113 -0.159659 -0.075676 -0.143148 -0.032606 0.129349 -0.040084 0.098595 0.015177 -0.093128 -0.055365 -0.069635 0.011487 0.061268 -0.066806 -0.036084 -0.029938 0.161127 0.048177 -0.009609 -0.041079 -0.146355 0.011978 -0.098040 -0.029088 -0.061105 0.006570 0.104377 0.028503 0.055805 0.058805 -0.012405 0.020125 -0.143840 -0.087476 0.061807 0.018953 0.076664 -0.004232 -0.097095 -0.084317 0.060914 -0.070092 0.095647 -0.214018 -0.104971 -0.106840 -0.079609 0.036172 0.012508 -0.057007 -0.128411 0.093165 0.091161 -0.055087 0.150944 -0.181892 0.055467 0.011520 0.048666 0.106204 0.127827 -0.004055
0.026577 -0.028882 -0.049844 -0.006367 -0.062335 0.002726 -0.039940 -0.116171 0.130532 -0.052050 0.065904 -0.103250 0.060096 0.096216 0.123067 -0.057589 0.108085 0.102688 -0.030863 -0.009177 -0.036257 -0.152319 0.013584 0.076403 0.030760 -0.071749 -0.064957 0.098056 0.079355 0.077663 -0.015629 -0.054570 0.090625 -0.058878 -0.025017 0.023843 0.062262 0.265710 0.013663 0.012310 0.081612 0.036052 -0.023638 0.049001 -0.008689 -0.014221 -0.035713 0.099345 0.079428 0.069179 -0.087669 -0.036946 -0.001975 0.087828 0.133738 -0.023939 0.041949 0.017772 -0.009837 -0.044120 0.036988 0.061036 0.009788 -0.052749 -0.101625 0.081208 0.192033 0.118113 -0.127068 -0.062586 0.004587 -0.143008 0.015603 -0.092369 -0.057219 -0.063916 -0.137474 -0.136784 0.088762 -0.043754 -0.054460 -0.010769 0.095835 -0.074830 0.005759 0.078087 0.039703 -0.106787 -0.110609 -0.120218 -0.074037 -0.010927 0.053735 0.035165 0.009246 -0.104900 0.022295 -0.040809 0.053354 0.023189 -0.016738 0.166288 0.058965 -0.199730 0.061096 0.045371 -0.020781 0.054330 -0.005817 -0.057197 0.011009 0.040734 -0.035201 0.097426 0.120600 0.057589 0.100778 -0.039260 -0.049473 0.126379 0.045960 0.025918 -0.037996 0.075209 0.058362 -0.013019 -0.009131 0.079222 -0.015566 0.122465 0.034910 -0.068413 -0.016569 -0.001797 0.055961 0.008970 0.011164 -0.030919 -0.016989 -0.105793 -0.041355 0.026896 0.097796 -0.060775 0.025161 0.034317 0.012044 0.025850 0.032367 -0.015561 -0.076127 0.009739 -0.074267 0.013686 -0.021215 -0.072490 -0.112986 -0.013299 -0.049641 -0.022389 -0.172813 0.046384 -0.155297 -0.133887 -0.030262 0.090366 -0.018426 -0.069882 0.001019 0.073301 -0.046501 0.034252 0.057154 0.066229 -0.024388 -0.057242 0.123206 -0.083804 -0.186861 -0.058672 -0.023853 0.085659 -0.052889 0.151842 0.040898 -0.023901 -0.138764 0.090994 0.072416 0.017556 0.003236 -0.022844 -0.030172 -0.091568 -0.053692 0.022537
0.036344 0.139466 -0.055327 -0.014188 -0.145059 -0.102326 0.024513 0.083781 0.048108 0.115568 0.056776 0.004812 -0.021484 0.059021 0.024410 0.107755 0.008027 -0.048067 -0.036302 0.000027 0.139759 0.008267 0.018266 -0.047680 0.025041 -0.049956 0.055591 0.000368 -0.122884 0.041820 0.093201 -0.094773 0.089088 -0.024977 -0.089231 -0.052458 0.120492 0.082505 0.169491 -0.210114 -0.109822 -0.112492 -0.166085 0.040326 -0.065069 0.167824 -0.018871 0.069006 -0.033436 0.053956 0.030939 -0.043482 0.073466 0.040203 0.144513 0.137545 0.187693 -0.049463 -0.015311 0.013245 0.149334 0.077373 -0.020328 -0.012887 -0.144562 -0.018481 0.074958 -0.017773 0.096702 -0.154859 -0.029337 0.032336 -0.168594 0.077893 -0.104702 -0.006816 0.085356 -0.077527 -0.029993 -0.029247 -0.026254 0.020052 -0.048806 0.003555 0.102869 -0.088449 0.122021 0.171442 0.084588 0.071607 -0.106404 0.054658 0.074689 -0.074331 0.019540 -0.140625 0.035017 -0.116379 0.017230 -0.049205 -0.041102 0.129100 -0.047360 -0.031719 -0.082546 0.214846 0.099897 0.014678 -0.117346 0.018367 0.031217 0.029502 0.151523 0.048792 -0.076811 0.048711 -0.124347 -0.070135 -0.045401 0.030631 -0.091274 -0.050302 0.036666 -0.013607 0.008872 0.012097 -0.096380 -0.061030 0.042854 -0.138384 -0.013677 -0.072016 -0.126307 0.025772 -0.050877 -0.055377 -0.057031 -0.130365 -0.085888 -0.003205 -0.036861 0.085503 0.000642 0.085420 0.025527 0.022225 -0.085115 -0.123210 -0.019443 -0.005432 -0.018009 -0.257043 -0.087559 -0.094376 -0.057161 0.083586 0.155229 0.097358 0.048097 0.028597 0.000183 0.091329 -0.031949 0.011656 0.113758 -0.065045 -0.054010 -0.034270 0.085069 0.185597 -0.009033 0.059336 -0.170500 0.023866 -0.172271 0.060604 0.123044 0.010301 0.110886 0.049209 0.119051 0.160629 -0.004661 -0.058194 -0.110351 -0.046769 -0.037569 0.110298 -0.079283 -0.059882 -0.063645 0.143417 -0.028533 -0.038778 -0.071007 0.007324
0.043907 0.018787 0.002234 0.032957 0.011662 0.189884 0.015607 -0.018731 0.144558 -0.147511 -0.022368 -0.031166 0.016414 -0.080402 0.034291 -0.075619 0.098349 -0.027976 0.068040 -0.051724 -0.088675 -0.016700 0.042036 0.207544 0.014070 -0.064591 -0.051638 -0.036880 0.079227 -0.104721 0.018877 0.019795 0.082731 0.123842 0.025173 0.059575 -0.052422 0.016919 0.032104 0.179897 -0.115496 -0.027389 0.011407 -0.094031 0.094361 -0.007071 -0.007921 -0.028776 -0.159618 -0.168492 0.092375 -0.040786 -0.119183 0.001155 -0.118391 0.035824 0.078615 0.105348 -0.081051 -0.012755 0.100829 -0.040004 0.035109 -0.032825 0.022579 0.025387 0.074988 0.092862 0.088018 -0.074169 -0.005529 -0.093633 0.059711 0.132043 0.056941 -0.161352 0.094267 0.003312 -0.003814 0.033264 -0.126893 -0.077393 -0.041113 -0.093639 -0.034909 -0.013938 -0.055997 -0.075981 0.098215 0.046114 -0.036384 -0.035920 0.042502 -0.065008 -0.078783 0.017534 -0.072631 0.197730 0.013773 0.034293 -0.038366 0.049394 -0.056458 0.077762 0.035592 0.124724 0.067151 -0.001073 -0.096091 0.078922 -0.328701 0.007968 -0.073949 -0.005353 -0.021867 0.081337 -0.039880 0.055423 -0.049049 0.049774 0.010987 -0.063046 0.043340 -0.032675 -0.080168 -0.019626 -0.004345 -0.068535 0.001017 -0.002441 0.011489 0.018380 -0.008941 0.019525 0.060993 0.097486 -0.224026 -0.014861 0.034124 -0.015091 -0.056091 0.108798 0.042919 -0.204141 -0.079395 -0.040349 0.100881 0.007650 0.062908 -0.090862 -0.043267 0.033356 -0.066493 -0.039138 -0.028101 -0.008156 0.124136 -0.009913 -0.067959 -0.110197 -0.106018 -0.012980 -0.014405 0.011780 -0.033268 -0.012111 -0.010547 -0.094724 0.026337 -0.011107 -0.052007 -0.019067 -0.103296 -0.081786 -0.052781 -0.023472 0.017142 0.000653 -0.196152 -0.109487 -0.038789 0.067398 -0.175346 -0.140976 -0.081956 -0.009468 -0.111610 0.010196 -0.017449 -0.021239 -0.072192 -0.051967 -0.069514 0.060519 0.034022 -0.108418
