0.483763 0.168580 0.134832 0.154053 0.457614 0.298120 0.103204 0.338414 0.181218 0.320158 0.411792 0.299603 0.206126 0.370623 0.013389 0.074301 0.233984 0.316562 0.296122 0.026653 0.253630 0.317325 0.213354 0.467930 0.257311 0.466321 0.430838 0.473365 0.473588 0.193846 0.098982 0.153572 0.313740 0.355119 0.442302 0.479387 0.100702 0.137001 0.365747 0.141452 0.290405 0.092357 0.051676 0.426307 0.210036 0.040501 0.341193 0.254320 0.103559 0.439568 0.368944 0.018187 0.273733 0.100878 0.326623 0.035295 0.417273 0.237200 0.369227 0.485998 0.291730 0.497041 0.364910 0.092172 0.446576 0.018430 0.225315 0.461540 0.231435 0.243541 0.043120 0.037979 0.228192 0.044344 0.003359 0.456509 0.280744 0.055224 0.340268 0.168579 0.150629 0.268212 0.226290 0.236441 0.496718 0.008322 0.202714 0.139515 0.354732 0.231052 0.418147 0.409209 0.068222 0.221439 0.370619 0.297857 0.409208 0.426705 0.373870 0.326965 0.367316 0.274094 0.455547 0.017711 0.294565 0.143486 0.144810 0.360881 0.282449 0.197792 0.120890 0.427914 0.181428 0.448939 0.279277 0.233761 0.160025 0.444074 0.013723 0.249030 0.465914 0.233949 0.204356 0.450740 0.137741 0.130836 0.202631 0.099549 0.365482 0.296553 0.232734 0.059689 0.260097 0.205853 0.014824 0.029163 0.390664 0.425635 0.325323 0.498341 0.464538 0.450293 0.322155 0.172356 0.196464 0.335115 0.196295 0.295449 0.215398 0.367316 -0.011218 0.253101 -0.099319 0.261900 -0.047768 -0.087794 -0.198218 0.287441 -0.094506 0.360425 0.267886 0.232793 0.251183 0.188311 0.406909 0.046329 0.146304 0.106849 0.078953 0.493902 0.351985 0.398095 0.384704 0.181985 0.415685 0.054771 -0.030693 0.275180 -0.021017 -0.059474 0.229951 -0.078611 -0.276078 0.085454 -0.197777 -0.185197 -0.018242 0.125625 -0.112699 0.137546 -0.006928 0.362484 0.208802 0.126074 0.115860 0.039990 0.117531 0.187268 0.228023 0.296456 0.132844 0.289049 0.385082 0.339840 0.285135 -0.181232 0.000459 0.175016 -0.047515 -0.094766 0.015649 -0.171695 0.022187 -0.085303 -0.091705 0.006679 -0.040368 0.228810 0.060823 0.218949 0.098187 0.111629 0.044189 0.263501 0.497472 0.106161 0.211059 0.168202 0.353592 0.107395 -0.006196 0.295459 -0.163711 0.075705 0.081662 -0.336163 -0.095708 -0.069774 -0.354080 -0.143441 0.038195 -0.027211 -0.207613 -0.408920 -0.336774 0.128303 0.136911 0.230258 0.356092 0.385303 0.279913 0.187530 0.416840 0.295654 0.360807 0.354934 0.303909 0.201397 -0.088398 0.182153 -0.093375 0.106205 -0.102322 0.042720 -0.184193 -0.296768 0.081580 -0.149578 -0.145349 -0.127289 -0.255595 0.051311 -0.297088 -0.317545 -0.029566 -0.150817 0.030147 0.275623 0.266985 0.211851 0.100218 0.303941 0.283390 0.188207 0.229073 0.027704 -0.140942 0.002586 0.125324 -0.246418 -0.178882 -0.264580 0.051349 -0.176691 -0.171736 0.158393 -0.231806 0.144598 0.100101 0.085714 0.082009 -0.268012 -0.076886 -0.205318 -0.035921 0.097760 0.227904 0.237764 0.173965 0.195972 0.215392 0.037604 0.029558 0.303577 -0.278516 -0.064424 -0.227519 0.139859 -0.306290 -0.253398 0.189681 -0.031408 0.187770 0.050252 0.154647 0.287238 0.281441 -0.123310 -0.031619 -0.289399 -0.489032 -0.126012 0.104934 0.394863 0.411235 0.293959 0.306400 0.394790 0.344316 0.347716 0.191931 0.041628 0.007441 0.058748 0.104553 0.006809 -0.265088 -0.012685 0.045268 0.298014 0.176368 0.332588 0.051147 -0.004320 0.106381 0.323888 -0.004644 0.093509 -0.037353 0.043122 0.007556 0.075031 0.428775 0.469525 0.173627 0.057152 0.473796 0.165282 -0.009703 -0.250379 -0.066246 -0.216635 0.008139 0.097071 0.168073 0.131816 0.319114 0.080508 0.029874 0.256828 0.170787 0.153127 0.090967 0.037533 -0.171427 -0.022561 -0.179478 0.021330 -0.013994 0.353833 0.329374 0.196345 0.195363 0.258877 0.293844 0.219435 0.018770 0.035437 -0.344133 -0.256675 0.021395 0.141177 0.149442 0.103036 0.093525 0.145740 0.124468 0.296738 0.216611 0.097301 0.186017 0.041903 0.144919 -0.136907 -0.308679 0.091700 0.174961 0.135173 0.448466 0.247427 0.241028 0.362895 0.039564 0.035298 0.349486 -0.059378 0.054089 -0.322200 0.168895 0.094723 0.265867 0.464278 0.342422 0.302025 0.164485 0.363409 0.221956 0.026809 0.178192 -0.030895 0.031550 0.068814 -0.168631 0.118007 0.092433 0.467465 0.091721 0.357504 0.461251 0.452362 0.487967 0.228416 -0.036226 -0.110672 -0.374769 -0.057588 0.153440 0.138480 0.339186 0.020346 0.352964 0.326683 0.284039 0.344168 0.254326 0.256220 -0.006172 -0.213877 -0.320094 -0.091535 -0.015801 0.210337 0.044951 0.048387 0.466807 0.485877 0.062641 0.013667 0.213422 0.357596 0.148414 -0.107202 0.041525 -0.125616 -0.214755 -0.177299 0.304805 0.218778 0.076764 0.234494 0.325404 0.087163 0.320572 -0.201032 0.189787 -0.076766 0.009701 -0.180099 -0.141752 0.009835 0.170456 0.170384 0.132448 0.354493 0.341180 0.220640 0.346824 0.068498 0.011786 0.079748 -0.331892 -0.146869 -0.181867 -0.035932 -0.032328 -0.072072 0.206261 -0.057574 -0.071845 0.071090 -0.102051 -0.062920 -0.283752 -0.127477 0.133055 0.109478 0.159127 0.183363 0.292157 0.048877 0.093715 0.091246 0.122967 0.067869 0.070686 0.336463 0.116931 -0.143739 -0.234154 -0.180270 -0.242714 0.004599 -0.278515 -0.270517 -0.001612 -0.205815 -0.184483 -0.064868 0.092117 -0.052679 0.013224 -0.112085 -0.198198 -0.210023 -0.126412 0.301644 0.005189 0.278541 0.224532 0.071262 0.330240 0.493891 0.119768 0.046917 0.187755 -0.042041 -0.216979 -0.147866 -0.034321 -0.006060 -0.298694 0.049325 -0.248054 -0.321367 -0.159268 -0.173788 -0.046994 -0.252388 -0.267615 -0.026581 0.121050 0.011680 0.069022 0.069102 0.412636 0.261671 0.332411 0.101866 0.056083 0.312585 0.207912 0.384644 0.162552 0.348479 -0.027886 -0.018162 -0.001012 0.018873 -0.296158 -0.280037 0.103454 0.075659 -0.314587 -0.286579 0.041283 0.093184 0.067110 0.023710 0.118203 0.196696 0.168764 0.431135 0.365765 0.002942 0.478846 0.078646 0.494615 0.015913 0.366121 0.080413 0.229985 0.329001 0.148404 0.093374 -0.035158 -0.092604 -0.053485 -0.095727 0.016583 -0.148613 -0.337616 0.145639 -0.232025 0.170812 -0.239819 0.291087 0.198187 0.182292 0.231119 0.409108 0.401735 0.058227 0.173664 0.108418 0.058538 0.468172 0.340507 0.233391 0.466928 0.256799 0.400746 0.313599 0.250680 0.366907 -0.093313 0.290591 0.139026 -0.121098 0.016203 -0.202976 0.173348 -0.005970 -0.006361 0.319711 0.363836 0.356032 0.074467 0.048917 0.405049 0.171091 0.287693 0.427893 0.317486 0.167892 0.291610 0.015083 0.146721 0.153112 0.343288 0.485171 0.430510 0.388127 0.163340 0.393262 0.114048 0.334502 0.146127 0.071274 0.070679 -0.011140 0.034274 0.134372 0.226314 0.438571 0.393911 0.354544 0.050236 0.228196 0.102435 0.212665 0.170014 0.426452 0.338447 0.208741 0.094860 0.377297 0.089457 0.454847 0.039619 0.196702 0.053021 0.165936 0.284069 0.268501 0.475254 0.271394 0.049137 0.014019 0.376875 0.261837 0.159248 0.230754 0.367723 0.311462 0.026328 0.359767 0.402282 0.221315 0.043223 0.176043 0.348622 0.142454 0.301919 0.122992 0.060290 0.061836 0.460594 0.429703 0.315148 0.268602 0.334966 0.355561 0.048215 0.192883 0.445213 0.132642 0.445042 0.034464 0.219228 0.124102 0.233058 0.222248 0.258346 0.214835 0.384871 0.071953 0.007606 0.061442 0.060780 0.260822 0.266157 0.100169 0.015583 0.163443 0.450386 0.420330 0.294139 0.084438 0.147209 0.041525 0.028519 0.171730 0.234405 0.189780 0.424998 0.388894 0.376584 0.421389 0.207022 0.290779 0.275979 0.345457 0.483782 0.224958
