-0.046067 -0.133262 0.142381 0.009951 -0.004977 0.060879 0.044858 0.131640 -0.111750 -0.005892 0.101323 -0.061632 -0.061897 -0.080749 -0.128153 -0.160929 0.021969 -0.059855 0.103372 -0.238231 -0.102000 -0.155704 0.086531 0.140296 0.029564 0.053979 -0.133979 -0.021860 0.080876 0.052138 -0.010215 0.074570 -0.023729 -0.044023 0.057978 0.206470 0.006814 -0.044358 -0.037262 -0.246225 -0.091288 -0.073981 -0.075943 0.158361 0.020568 -0.058715 -0.119037 -0.090797 -0.127614 -0.013937 -0.066461 -0.173959 0.077238 0.102634 0.011918 0.228572 0.040998 0.039925 -0.034417 0.047344 0.075071 0.011397 0.105583 0.039161 0.083847 0.078825 0.133428 0.030878 -0.005877 -0.060283 0.009368 -0.141221 0.056550 0.172493 -0.080256 -0.096256 0.012058 0.091948 0.011777 -0.156520 -0.002909 -0.086526 0.023595 -0.013305 -0.182033 -0.119001 -0.209436 0.003951 0.054594 -0.147730 -0.027809 -0.052487 -0.175979 0.086946 0.008862 -0.093162 0.082496 -0.083554 -0.172529 -0.006381 -0.064853 0.125683 -0.051872 0.002401 0.127494 -0.085904 0.120218 0.051492 -0.131153 -0.053072 -0.079516 0.193823 -0.071468 -0.061272 0.105279 0.002276 -0.112692 0.095258 0.152588 -0.105900 -0.028729 0.054907 -0.022301 0.249673 -0.192683 -0.025541 -0.053099 -0.010526 0.121609 -0.148705 0.022717 0.093973 -0.026394 0.017719 0.060655 0.177250 -0.013388 -0.054857 -0.086133 -0.016580 0.112865 -0.075111 -0.159048 0.027901 -0.041701 -0.072229 0.219336 0.129152 -0.126681 -0.032794 0.136329 -0.001993 0.103713 -0.014627 0.126713 -0.036246 -0.067246 -0.056582 0.100391 0.065461 -0.156837 0.076843 0.133019 -0.112173 -0.010626 -0.072065 -0.034819 -0.017930 0.031272 -0.105681 -0.134211 -0.189423 -0.046376 -0.092745 -0.013806 -0.003224 -0.263455 -0.064507 -0.036960 -0.004860 0.108290 -0.037450 0.075966 -0.260062 0.081114 -0.031544 -0.090124 0.117845 -0.041281 0.013131 -0.020197 -0.057375 -0.149346 0.037979 -0.035695 -0.107836
-0.161448 -0.157344 0.006206 0.059454 0.108693 -0.224049 0.181498 0.097088 -0.161974 0.051078 -0.030991 -0.019110 0.038238 0.065409 0.039955 0.079360 -0.106192 -0.024817 0.229347 0.018850 -0.070132 0.068338 -0.075520 0.072573 0.047318 -0.022067 0.091009 -0.017495 0.082587 0.097227 0.084591 -0.058766 -0.007189 -0.054800 0.092923 -0.079627 -0.057760 0.068125 -0.202018 0.151093 0.030285 -0.021760 -0.144999 -0.105017 -0.080082 -0.040659 -0.098569 -0.002697 0.049174 -0.198948 0.035973 0.013220 -0.090299 -0.026765 0.071862 -0.017882 -0.067399 0.170152 -0.137627 -0.018490 0.110515 0.028537 0.097235 0.000979 0.066081 -0.030008 -0.027795 0.062001 0.153166 0.157352 -0.207561 0.148729 0.254358 0.071038 -0.021428 0.092217 -0.085787 -0.179916 0.148994 -0.112303 0.025801 -0.256162 -0.137687 -0.008662 -0.033966 0.182430 0.176556 -0.107693 -0.170239 -0.067857 -0.128787 0.092427 -0.067485 -0.066782 0.002421 -0.028035 0.175128 0.005966 -0.211400 0.161682 0.041623 -0.133674 0.028915 0.022881 0.102836 0.076846 -0.072773 -0.037551 0.131397 -0.040640 -0.261199 -0.124116 -0.108020 0.055275 0.028799 0.104933 0.243986 0.148527 -0.003477 0.025672 -0.090461 0.064426 -0.016128 -0.047885 0.124845 0.032717 0.005607 0.131283 -0.027398 -0.110700 -0.004541 -0.053870 0.170110 -0.029758 0.057915 -0.003577 0.152311 -0.025975 0.122399 -0.013495 -0.091190 0.027264 0.158493 -0.013581 -0.051068 -0.039881 0.115205 0.006479 0.064518 0.159116 -0.061284 0.020988 -0.181551 -0.071939 -0.068771 0.050512 0.064297 0.020865 -0.071901 -0.234869 0.203164 0.144956 -0.021989 -0.109608 0.012513 -0.061185 0.098172 0.110525 -0.111638 -0.133646 0.113315 0.082180 -0.114777 0.016134 -0.230670 0.133791 0.027315 0.083059 0.020981 -0.209417 -0.051377 0.027871 0.145411 0.100846 -0.008987 -0.113014 -0.095524 -0.158052 -0.165512 0.082210 -0.018764 0.004576 -0.068144 0.009437 0.170492 0.017607
0.097793 0.018123 0.141032 0.101050 -0.094633 0.051193 0.079100 -0.061120 -0.050161 -0.126906 -0.055916 -0.005864 -0.037760 0.018997 0.120383 -0.025886 0.050171 -0.134061 0.198211 -0.066868 -0.073802 -0.068280 0.027099 0.168719 -0.170908 0.026681 0.035306 -0.012197 0.009006 0.090090 0.249692 -0.000223 0.005439 0.089344 0.050003 -0.098869 -0.072474 -0.140454 -0.037848 -0.196481 0.052072 0.211440 0.180925 -0.011497 0.039907 -0.124937 -0.167543 -0.104266 -0.183020 0.066629 0.028403 0.213358 0.054070 -0.039771 -0.195153 -0.004339 -0.017503 0.029537 -0.132045 0.015834 -0.027048 0.061127 -0.089881 0.049429 0.048853 -0.079983 0.019168 0.082796 -0.007115 -0.199332 0.024479 -0.156744 -0.095606 -0.302437 -0.064490 -0.065716 0.088652 -0.090423 -0.080770 0.121818 0.023559 -0.021198 -0.125230 0.149509 0.001157 -0.009331 -0.144687 0.097967 0.094794 0.106857 -0.152848 -0.093509 0.189896 -0.159827 0.018004 0.013152 -0.026084 -0.013450 -0.010916 -0.002217 -0.007448 0.087853 -0.011980 -0.074457 0.066927 0.065554 -0.088755 0.040932 -0.054364 0.001724 0.013895 0.192366 -0.124901 0.124727 0.091506 0.166862 -0.211897 0.095673 -0.019406 0.076537 -0.018779 0.030259 0.043740 -0.013185 0.164966 0.147587 -0.079669 -0.027694 -0.043571 0.002604 0.207386 -0.180608 0.048036 0.038084 -0.075754 -0.005429 0.150155 -0.150002 -0.022185 0.040822 0.011871 0.012958 -0.212760 -0.149644 -0.117262 0.105253 0.088789 0.080598 -0.144917 -0.044082 -0.108762 0.165727 -0.123201 -0.049040 0.090789 0.025227 -0.019544 -0.114781 0.031046 0.037232 -0.044400 -0.031073 -0.141690 0.165735 0.145164 -0.040369 0.186789 -0.052776 0.061616 -0.118600 -0.073473 0.165287 -0.086898 0.033872 -0.036795 0.019868 0.047337 -0.009088 -0.235519 0.030922 0.070011 0.116795 0.040890 -0.039464 -0.082451 0.033777 -0.115820 0.044118 0.066804 -0.023814 -0.214005 -0.022033 0.031403 0.059677 -0.028859 -0.085858
-0.039784 0.173270 -0.066967 -0.029820 0.025609 -0.074848 0.015112 -0.024165 -0.077168 -0.077444 0.017953 0.179276 0.049487 -0.014911 -0.035857 -0.082955 0.074080 -0.028682 -0.083196 0.120567 -0.075996 -0.176034 0.067647 -0.088238 -0.025570 0.063555 -0.077672 0.090393 -0.043903 0.005948 -0.234974 -0.116160 -0.097509 -0.154853 0.068376 -0.051554 0.015378 0.167658 -0.086087 -0.059678 0.082473 -0.196363 -0.156167 0.046499 -0.067555 0.035963 -0.064565 0.045211 0.001198 0.193473 0.099153 0.092292 -0.085249 -0.107720 -0.061562 -0.135336 0.153559 0.098065 -0.117169 -0.110292 0.104152 -0.007071 -0.075486 0.024795 0.142136 -0.006849 -0.260781 0.115710 0.077516 -0.067690 -0.143286 0.073070 -0.097447 -0.142543 0.140517 0.068028 0.053533 0.023094 0.013299 0.004425 0.066656 0.014739 -0.030722 -0.011066 0.058292 0.042923 -0.141025 0.153730 0.070429 -0.030589 0.145754 0.155515 0.184998 -0.154839 0.089210 -0.158577 -0.153470 -0.102328 0.138671 0.127144 -0.075770 -0.025906 -0.111045 -0.037738 0.136778 -0.018342 0.110264 -0.012909 0.005795 0.069910 0.091342 -0.135568 0.025766 0.052326 0.047492 0.036543 -0.178489 -0.157972 0.109989 0.035554 0.010079 -0.030439 -0.156572 -0.003536 0.039831 -0.070267 -0.049262 0.155323 0.096720 -0.081255 0.054942 0.154841 0.029511 -0.062472 0.085944 -0.060133 0.071219 0.006143 0.163379 0.015865 -0.023645 -0.225030 -0.201466 -0.030775 -0.023340 -0.108013 0.022599 -0.060789 0.130238 -0.159156 -0.000793 0.049084 0.107391 -0.012642 -0.129280 0.031504 0.038108 -0.151095 0.057001 -0.089065 0.102515 0.067006 -0.095954 0.031546 0.159299 -0.043620 0.252506 0.096425 -0.277521 -0.232829 -0.177138 -0.160119 0.110404 0.005822 -0.016232 -0.088592 -0.072583 -0.228511 -0.117958 0.015385 -0.077424 0.045209 -0.161158 -0.004216 0.054974 0.043748 0.021454 -0.130082 -0.266978 -0.064888 -0.101108 -0.100495 0.129960 0.109421 -0.235801 0.064380
-0.202344 -0.064091 0.024551 -0.012116 0.041762 0.054371 0.199801 0.058421 0.004610 -0.087885 -0.053110 0.260064 0.219490 -0.071652 -0.098803 -0.050016 -0.126641 -0.012362 0.037925 0.037820 -0.114324 -0.072453 0.044685 0.047095 0.027094 0.069284 0.039659 0.084944 -0.069405 0.126273 0.265459 -0.187722 -0.073057 -0.037901 -0.055165 -0.009371 0.102127 -0.173505 0.016762 0.077291 0.077486 -0.064448 -0.239359 -0.107507 0.071679 -0.084294 0.064645 0.025166 0.024198 -0.068019 -0.075736 -0.138562 0.035999 -0.124706 -0.243162 -0.219289 0.024715 0.117884 0.043754 0.138216 0.037995 0.047237 -0.026264 0.054423 0.188635 -0.083893 0.004531 0.132853 -0.323446 0.072458 -0.136314 0.040943 -0.021336 -0.091826 -0.040056 -0.016715 0.026569 -0.064972 -0.127471 0.095670 0.024778 -0.005091 0.008435 0.078617 0.148344 0.227792 -0.071734 0.093896 -0.124944 -0.050948 -0.172392 -0.041019 -0.198748 -0.100180 -0.078122 0.003936 -0.032435 -0.026620 0.060223 0.071686 -0.024368 -0.162576 0.067418 0.107699 -0.149423 0.028736 0.062325 0.098278 0.093197 -0.010376 -0.086352 -0.014564 0.080107 0.174046 0.039087 -0.037884 -0.268533 0.019244 0.080035 0.114853 -0.147458 -0.058610 0.013016 -0.116643 0.078834 -0.139333 -0.013041 -0.036098 0.075488 0.006797 0.046833 0.028486 0.068387 -0.009012 -0.058530 0.069645 -0.031410 -0.027722 0.080442 -0.086539 0.010018 -0.041869 0.096692 0.026889 -0.057577 0.030846 0.162952 0.062822 -0.015412 0.120659 -0.045496 0.049332 -0.060634 -0.142526 -0.212356 0.136757 0.055504 0.058177 -0.001801 0.064548 -0.021548 0.032400 -0.060323 0.174624 0.090440 0.177378 0.021420 0.012419 0.178637 0.024268 -0.187106 0.001298 0.121807 0.214620 -0.127788 -0.021883 -0.023685 0.014341 0.256485 0.112054 0.059771 0.051057 0.029026 -0.010177 0.057260 -0.029183 -0.036921 0.089968 -0.028384 -0.137423 0.094258 0.029206 0.032667 0.124858 0.132023 -0.062574
-0.112816 0.093781 -0.125781 -0.105962 -0.044803 -0.021898 -0.079190 -0.019681 -0.048179 0.148231 0.012573 -0.045657 -0.103377 0.012809 0.247727 0.040497 -0.086711 -0.030599 0.082850 0.017669 -0.010558 0.213884 -0.060893 0.183779 0.013956 -0.081915 -0.162388 0.128875 0.197657 0.082000 0.169156 0.068014 0.086776 -0.063907 0.085519 -0.052906 0.075768 -0.029050 -0.048960 0.057268 0.013503 0.037262 -0.062928 -0.010401 -0.054264 -0.092197 0.086233 -0.039179 -0.003510 -0.070776 -0.255219 0.005007 0.076132 0.068220 0.040552 0.020700 -0.113763 0.059125 -0.149374 -0.285459 0.043922 0.219002 -0.092373 0.022108 0.073498 -0.005558 -0.033498 -0.206593 -0.126364 -0.111327 -0.009551 -0.092655 -0.084769 -0.004319 -0.075092 -0.072326 0.040786 0.033777 0.036318 0.140543 -0.038260 0.160325 0.033122 0.005135 0.115387 -0.059194 -0.041895 0.035751 -0.011862 0.162962 0.035294 0.134623 0.013643 0.155881 -0.089397 0.105743 -0.154536 -0.013531 0.047627 0.162292 -0.012467 0.032071 -0.203699 0.084241 0.122910 -0.143404 0.024174 0.032964 -0.091847 0.114571 0.014455 0.056868 -0.012082 -0.263945 -0.052396 -0.030856 0.121320 0.009504 -0.126917 -0.130723 0.058860 -0.072894 0.058128 0.094885 -0.095588 0.108120 -0.142849 0.034166 0.169585 0.078511 -0.006590 0.103209 -0.029408 -0.107766 -0.062827 -0.116141 -0.191779 -0.099672 0.280815 -0.029354 -0.007796 -0.072424 0.011227 -0.075089 0.067775 -0.020171 0.042179 0.000007 -0.071297 0.021609 0.166534 -0.090343 0.039277 -0.077819 0.040681 0.010992 0.091358 0.057178 0.051034 -0.072361 -0.053673 0.052733 0.035175 -0.041732 0.132078 0.065742 0.093947 0.031629 -0.090926 -0.079487 -0.007332 0.003153 0.098056 0.230888 -0.127218 0.082748 0.038401 0.096752 0.081598 0.164129 -0.072118 -0.022031 -0.070643 -0.135993 0.047579 -0.032895 -0.070949 -0.135106 0.061531 0.220447 -0.084820 0.184059 0.061263 0.125428 0.003366 0.017564
0.059833 -0.113767 0.036922 -0.054772 0.029582 -0.004242 0.029242 -0.108715 -0.095742 0.168513 0.081300 0.003571 -0.137621 -0.170732 -0.082622 -0.069710 0.128143 -0.081636 -0.141376 0.296698 0.032811 -0.002551 0.042939 0.069798 -0.088953 0.023366 0.061713 0.132502 0.202769 0.014745 0.046140 0.029336 0.018278 -0.014816 0.143057 -0.031507 0.122052 -0.133146 -0.039228 0.103007 0.115063 -0.164174 0.068293 0.101302 -0.118707 -0.210307 -0.257292 -0.105988 -0.048811 -0.111040 -0.092879 -0.046633 -0.133422 -0.144557 0.067104 0.269169 -0.093081 -0.026724 -0.188048 -0.075371 -0.055390 -0.051013 -0.047288 0.105960 0.102715 0.005926 -0.135883 0.075322 -0.072124 0.087331 -0.004105 0.114264 -0.053969 -0.066233 0.030695 0.048222 0.101730 -0.015685 -0.034257 0.021129 0.167805 -0.078244 0.029509 0.087067 -0.066563 0.143092 -0.156805 0.067466 -0.090107 0.059998 0.213491 -0.081583 -0.004902 -0.074813 -0.063565 -0.036405 -0.011478 -0.001247 0.114472 -0.024314 -0.019864 -0.203405 0.102541 -0.240757 0.079501 -0.089257 -0.010197 0.075491 -0.095752 -0.167583 -0.202109 -0.022192 -0.101962 -0.050677 -0.046013 -0.045262 0.046170 0.069299 -0.094347 0.150929 -0.088128 -0.092827 0.063022 0.044594 0.171968 0.152440 -0.069902 0.106482 0.178405 -0.059912 -0.046723 -0.075085 -0.113561 -0.088894 -0.122939 -0.016673 0.054503 -0.059577 0.033708 0.081245 -0.014182 -0.064257 -0.047783 0.007396 0.028838 0.148501 -0.073890 0.060002 -0.043434 0.087458 0.062084 0.018603 -0.125976 -0.076083 0.140211 -0.119284 -0.002078 0.060773 0.061663 -0.093995 0.013932 0.098767 0.020801 -0.050836 -0.179458 -0.041337 0.086116 -0.010621 0.113781 -0.128166 0.141843 0.018146 0.089097 -0.070223 0.035268 -0.079004 0.189767 0.029491 0.074884 -0.091799 -0.042921 0.021181 0.050792 0.091499 -0.103759 -0.095486 0.104856 0.036727 0.017738 0.120511 -0.063252 0.145338 0.073941 -0.004403 0.248275 0.096169
-0.044132 -0.007456 -0.007890 0.128380 -0.048189 0.007982 -0.089363 -0.112303 0.008248 -0.086021 0.132520 -0.165805 0.043541 0.090585 -0.095454 0.138752 -0.036316 0.126866 0.072912 -0.060263 0.116601 -0.043047 -0.051822 0.040720 -0.195601 0.083701 -0.011124 0.008118 -0.172796 -0.072352 -0.178474 -0.045122 -0.060221 0.120799 0.007875 0.077040 -0.192079 -0.078989 -0.007853 0.092825 -0.120994 0.103882 0.005694 0.050809 0.057105 -0.050694 0.112631 0.022298 0.121699 0.234514 0.021212 0.077638 0.130097 -0.058933 0.071144 -0.036159 0.010588 0.028326 0.151587 0.064154 0.071266 -0.008462 0.024606 0.067047 -0.093695 -0.006225 0.007986 0.185898 0.125810 -0.014945 0.031974 0.059772 0.080634 -0.016798 -0.058505 0.035755 -0.043820 0.007128 0.026469 0.095427 -0.020799 0.137261 0.071157 0.054685 0.042502 0.118990 -0.122398 0.048804 -0.185815 -0.233083 -0.016302 -0.007286 0.047144 -0.027114 0.055030 0.065197 0.072214 0.026585 -0.161160 -0.026561 0.061110 0.147056 -0.012585 0.106266 0.077380 -0.182801 -0.049377 -0.026555 0.223364 0.045240 -0.078462 0.031685 -0.047946 -0.107492 -0.025552 -0.174315 0.155702 -0.291446 0.270799 0.123158 -0.246261 -0.056471 -0.008697 0.021825 -0.105032 -0.002295 0.065077 0.221871 0.031914 -0.002829 0.021085 -0.017301 -0.007974 -0.076984 0.120042 -0.028061 0.014987 -0.058113 0.082256 -0.026585 0.193125 0.077257 0.118257 0.139921 -0.142778 0.008169 -0.207740 0.014877 0.099629 0.093705 -0.146347 0.057906 -0.024388 0.097429 0.067001 0.008893 0.238167 0.043491 0.006265 0.011053 0.037847 -0.072597 0.015078 -0.016484 0.018325 -0.128073 0.008406 0.015448 0.085693 -0.061615 0.007859 0.060531 0.105112 -0.233137 0.144707 0.011351 0.077782 -0.056865 0.010262 -0.197957 -0.048940 -0.132095 -0.006576 0.080425 0.046766 0.084657 -0.021587 0.020844 0.016659 0.039454 0.028788 0.021095 -0.040497 -0.157565 0.044072 0.002208
0.031155 0.162912 0.137197 -0.004427 0.109176 0.079748 -0.050304 -0.021266 0.058286 0.078101 -0.061497 -0.014103 0.020765 0.011680 -0.189412 0.058567 0.046533 0.127814 0.020011 -0.090185 0.051418 0.217354 0.089278 -0.080333 0.002128 0.027696 -0.120219 0.160710 0.136666 0.008920 -0.182292 0.042686 0.066133 -0.032267 -0.034858 0.062606 0.066024 0.073630 0.149857 -0.040656 -0.163126 0.007705 -0.092277 -0.096820 0.080067 0.139422 -0.009369 -0.107321 0.089153 0.091555 0.006608 -0.066883 -0.152516 0.102189 -0.065818 0.139202 -0.069968 0.231190 0.051928 0.105853 0.010876 -0.039860 0.172543 0.029539 0.134253 0.029724 0.062156 0.023976 0.002282 -0.029388 0.041865 -0.183376 0.030673 -0.075132 -0.131309 0.131337 0.150727 0.106539 -0.129360 0.150107 -0.033239 -0.045294 0.029487 0.027541 -0.031122 0.005177 -0.172419 -0.026375 -0.139282 -0.070567 0.019271 0.076816 0.127403 0.133930 0.076404 -0.045964 -0.164760 -0.146181 -0.055280 0.264379 -0.077529 -0.021605 0.215064 -0.230529 -0.139092 0.097255 0.138612 -0.120664 0.107570 0.000997 0.009636 0.136161 -0.084677 0.142865 0.043215 -0.025798 -0.076468 0.017190 -0.103254 -0.094096 -0.008042 0.062918 -0.083089 0.129527 -0.005466 0.066282 0.051048 0.078803 0.035330 0.052655 0.191050 0.022488 0.100821 -0.125774 -0.252860 0.123832 -0.049485 -0.072422 -0.013302 0.091029 -0.086499 -0.024520 -0.028679 0.042750 -0.018241 -0.008651 -0.022775 0.011450 0.078391 0.015520 0.156306 0.060458 -0.019194 -0.028643 0.100559 0.016870 -0.063345 -0.003304 -0.012062 -0.199406 0.186788 -0.111079 -0.051574 -0.032980 0.246641 0.098088 -0.037330 -0.123611 -0.037082 -0.280387 -0.041540 -0.151960 0.144301 -0.083389 0.084197 0.174133 0.183059 0.012385 0.189136 0.026872 -0.002327 -0.072136 0.045970 -0.101427 -0.005929 0.135138 -0.001971 -0.038732 0.052704 0.079810 0.095449 0.008170 -0.010464 0.083356 -0.063542 -0.087228
-0.191913 -0.203794 0.016189 0.082492 0.010378 0.013516 -0.062663 0.087772 -0.063533 0.029323 0.064053 0.020813 0.017411 -0.036250 -0.036167 0.054117 0.100863 0.068808 -0.026738 0.005248 0.108461 0.150205 -0.000452 -0.196442 -0.095087 0.160626 -0.114034 0.108675 -0.122525 0.025305 -0.011467 0.110440 0.076244 -0.050125 0.017623 -0.007601 -0.087816 -0.135682 -0.183902 -0.059273 0.055733 -0.150470 0.077981 0.176044 -0.001851 -0.078995 -0.184249 0.085410 0.019481 -0.045326 -0.050828 -0.020802 0.029652 0.004711 0.121315 -0.089232 0.025764 -0.028356 -0.115348 -0.093544 -0.113085 0.010936 -0.019215 0.094917 -0.322763 0.072290 -0.039765 -0.100493 0.219756 0.147395 -0.000345 0.151029 0.210405 0.037796 -0.035909 0.280141 0.120365 -0.160481 -0.046994 0.088794 0.034336 -0.078979 -0.035601 -0.076931 -0.032623 -0.070842 -0.057766 -0.173945 0.018777 0.145332 0.018059 0.029876 -0.204263 -0.010581 -0.222589 0.077796 0.204495 0.004295 -0.126265 -0.133324 0.052617 0.108013 0.024659 0.001237 0.117052 -0.193726 -0.002984 0.104099 0.013507 0.007160 0.141128 0.033221 -0.084336 -0.047980 -0.001227 -0.010478 -0.021227 0.128100 -0.021217 -0.070733 0.029322 -0.047204 -0.100849 -0.007929 -0.119521 -0.109623 0.188249 -0.035946 0.068610 -0.010696 -0.065024 0.009054 -0.011637 0.174983 -0.114766 -0.010139 -0.026225 0.199220 -0.043614 -0.206973 0.165206 -0.153028 -0.053185 0.160177 0.010260 -0.018899 -0.088376 -0.025748 0.051529 0.115721 -0.105323 -0.044674 0.041106 -0.050075 -0.090554 0.188849 0.095687 -0.127335 0.089566 -0.139453 0.020577 0.084612 -0.225785 -0.119279 -0.186250 -0.142276 -0.006553 0.003009 -0.024925 0.214289 -0.101734 0.066101 0.019362 0.085431 0.069805 -0.048020 -0.040558 0.122962 0.114136 -0.045420 -0.124267 0.040661 0.062151 -0.130285 -0.107083 -0.117989 0.075379 0.107846 0.100228 -0.131791 0.085086 0.104919 -0.004860 -0.097847 -0.056174 0.024813
0.056405 -0.016830 -0.265057 -0.248827 0.022426 0.076427 -0.085085 0.010009 0.253941 -0.016704 -0.024902 -0.204814 0.024257 0.086035 0.078935 0.012584 0.009435 0.212603 -0.072447 0.045325 -0.007678 0.277636 -0.052194 0.033472 0.196217 0.055609 -0.024572 -0.110112 0.064646 -0.191243 0.091753 0.016228 -0.161853 0.065669 -0.007154 -0.202353 -0.078439 0.012103 -0.015430 -0.010023 0.079981 0.017359 0.023791 -0.095436 0.014801 -0.029410 0.011185 0.042877 0.045448 0.190824 -0.173830 0.122266 0.093284 -0.126851 0.111641 0.111850 -0.007219 0.109310 0.076859 0.046721 -0.220778 -0.005365 -0.002111 0.121344 -0.035960 0.113015 -0.047588 0.053216 0.194191 0.046980 0.071650 0.030637 -0.039633 -0.097423 -0.097662 0.005636 -0.013131 0.043782 0.112849 -0.051723 0.044641 0.005736 -0.093527 0.153784 -0.128316 0.043561 0.028430 -0.123836 -0.112421 0.012383 0.135993 -0.002501 0.035113 0.078893 0.038054 0.125743 -0.033596 0.043143 0.004143 0.031066 0.196812 0.114158 0.050492 0.098691 -0.065439 -0.024840 -0.158548 -0.115386 -0.043418 -0.084240 -0.082609 0.031863 0.053135 0.116416 0.036645 -0.193320 0.028120 0.080897 0.174122 -0.090856 0.068003 0.072593 0.006424 -0.112762 -0.093864 0.046031 -0.054619 -0.167312 0.079550 -0.090344 -0.027700 0.013937 0.165453 0.083585 -0.102010 0.123038 -0.154176 0.015655 0.189238 -0.003529 0.090759 0.045214 0.089936 -0.089833 -0.029624 0.129190 0.176799 0.004441 0.074481 0.013290 -0.028301 -0.024417 -0.076989 0.054513 0.004523 0.030290 0.011375 -0.134598 0.027516 0.054062 -0.010412 0.002721 -0.106696 -0.114951 0.112745 -0.202361 -0.132525 0.125164 0.082067 -0.008095 0.211882 -0.059889 -0.011626 -0.147606 -0.074051 -0.129737 0.138229 0.021378 0.009330 0.032121 -0.108696 -0.087089 0.047439 -0.028524 0.002885 -0.060655 -0.001751 0.055143 0.168252 -0.060351 0.109265 0.101943 0.019712 -0.001636 -0.184993 -0.062773
-0.207574 -0.067104 -0.110606 0.078359 0.063193 0.079630 0.131132 0.134731 0.139199 0.040965 -0.011927 -0.028892 0.069164 -0.016864 -0.091022 0.132802 0.069188 -0.108288 -0.116519 -0.032173 -0.012030 -0.135538 -0.011580 -0.204689 0.150014 0.010724 0.003398 -0.105441 -0.037537 -0.037604 -0.047318 0.030276 0.147319 -0.063654 -0.032778 0.145631 0.028920 -0.132368 0.036353 0.022277 -0.058412 -0.005293 0.133642 0.089710 0.008954 -0.051567 0.022889 0.121301 0.079327 0.101178 -0.137223 -0.023195 -0.116583 -0.113098 -0.020145 0.158668 -0.014088 -0.050294 -0.137524 -0.001269 0.090676 0.037471 -0.085998 -0.070765 -0.209651 0.052974 -0.087827 -0.022528 0.087082 0.100701 0.061982 0.041017 -0.029627 -0.024101 0.006326 0.105634 -0.030937 -0.079893 -0.043201 -0.015590 -0.019176 -0.106810 -0.004295 0.138241 -0.050931 -0.018906 -0.124844 0.047625 -0.001176 0.106999 -0.096815 -0.007753 0.040972 0.095741 -0.166333 -0.070620 -0.039395 -0.082122 -0.091048 -0.124961 0.018968 0.344335 0.185717 -0.042710 -0.050226 0.180657 0.098131 -0.105044 -0.035680 0.213013 0.191071 -0.063600 0.027849 0.022749 0.101067 -0.072528 0.158997 0.064335 -0.040935 0.106900 0.034780 -0.071089 0.070130 0.075880 -0.016376 0.147125 -0.000975 0.043769 0.059018 -0.047735 -0.087413 0.084162 -0.061257 0.141754 0.046761 -0.195835 -0.141197 -0.030504 0.037578 0.096488 0.088832 -0.024875 0.159361 -0.101126 0.050012 0.035199 -0.012986 0.007106 0.102563 -0.072287 0.064286 -0.047475 0.021264 0.171222 0.120894 -0.056376 0.250953 -0.070261 -0.112297 -0.190773 -0.091894 -0.089017 -0.013682 0.042879 0.049798 -0.003142 -0.072582 0.010919 0.105165 0.007867 -0.117977 -0.044776 0.120500 0.050727 -0.205214 -0.119056 0.086613 0.019937 -0.143727 0.099477 0.086372 0.050749 -0.046124 -0.073590 0.055827 0.111550 0.088677 0.080552 -0.015804 0.123447 0.114444 -0.032518 -0.212322 -0.052253 -0.059870 0.010498
-0.070339 0.149743 0.185513 -0.036912 -0.048611 -0.012061 -0.233020 -0.011980 -0.020242 0.083398 0.031607 0.120056 0.094836 -0.027354 -0.052454 -0.170757 0.120205 0.106050 0.025879 0.000082 0.097830 0.150494 -0.041479 -0.051107 -0.099051 0.068771 -0.088875 -0.217940 -0.084266 0.138185 -0.036536 -0.153771 -0.052614 -0.142233 -0.034998 0.022625 0.001530 0.026245 -0.208921 -0.038498 0.113166 -0.069620 -0.067228 0.089607 0.019958 0.020838 -0.035956 -0.022444 0.099064 -0.121018 0.118163 0.075893 -0.130876 -0.143954 -0.049387 0.060797 0.031305 0.185944 0.035664 0.009387 -0.162806 -0.069374 -0.024459 0.061408 0.118203 -0.056613 0.008060 0.017573 -0.046422 -0.063221 0.047124 0.060886 -0.142287 -0.093193 -0.058125 -0.118294 -0.004631 0.016817 0.003870 0.053996 0.056066 0.059568 0.073418 -0.176829 0.004104 -0.070059 0.042049 0.116275 0.069272 0.073107 0.000746 0.054877 0.022326 0.058715 0.080117 -0.240627 -0.073171 0.031956 -0.055190 0.036131 0.079789 0.018153 0.022008 0.128453 -0.065806 -0.053640 -0.010344 -0.048920 -0.115579 0.011586 0.040769 -0.003312 -0.151872 -0.109421 -0.020294 0.027712 0.041763 -0.090452 0.047444 -0.086625 0.027451 -0.058283 0.144383 0.032136 -0.011993 0.118044 0.139499 0.127507 -0.077485 0.051086 0.010725 -0.014699 0.014736 -0.133924 0.011972 0.108909 -0.251180 -0.026782 0.050934 -0.151112 0.036265 -0.223159 -0.029125 -0.051247 0.109932 -0.106346 0.070203 0.059486 -0.033207 -0.097971 0.022891 0.020641 0.071585 0.014417 0.032330 -0.019226 -0.101212 0.140959 0.053750 0.105814 0.064126 0.060605 0.053600 -0.085803 -0.126811 -0.017095 0.148872 0.025890 0.037804 -0.143637 -0.039190 0.091572 -0.004071 0.018233 -0.090383 0.118558 -0.023943 -0.064362 -0.034349 0.109546 0.087950 -0.022917 -0.146249 0.071947 -0.015851 0.053272 0.008821 0.030509 0.030023 0.021925 -0.172687 0.124007 0.154972 0.079487 0.201928 0.056761
0.037566 0.045536 -0.006976 0.009281 0.039779 0.030720 0.077303 0.069062 -0.078726 0.318079 -0.143800 -0.096289 0.081283 -0.125716 -0.047375 -0.064269 -0.077370 -0.000829 0.126118 -0.139785 0.052905 -0.016231 0.125892 -0.008320 0.061457 0.007563 0.071407 -0.026115 0.052955 0.012252 0.134194 -0.075906 -0.116016 -0.239988 -0.197217 -0.051282 -0.009429 0.004440 -0.001544 -0.007273 -0.129997 0.076138 0.198596 -0.026040 0.019691 -0.109251 -0.206243 0.018122 -0.029975 0.055625 -0.209271 -0.171904 0.058017 -0.123009 -0.081342 -0.107680 -0.150928 0.109346 -0.114431 -0.168643 -0.095084 -0.136041 0.128135 -0.110245 -0.010850 0.038426 -0.133991 -0.081177 -0.004848 0.180575 0.015714 -0.123258 0.116603 -0.180566 -0.117826 0.030999 0.100941 0.106100 0.097725 0.046502 -0.057930 0.040493 -0.026051 -0.023109 -0.032337 -0.061942 -0.094850 -0.018531 -0.136467 -0.175561 0.022286 -0.080692 -0.108655 -0.143317 -0.016280 -0.030096 0.014682 0.135980 -0.075278 -0.051644 -0.023930 -0.058935 0.052473 0.089596 0.006045 -0.209889 0.148361 -0.166203 -0.062623 -0.070144 -0.019842 0.038463 -0.039243 0.118518 -0.008659 0.077110 -0.137780 0.006467 -0.018074 -0.258690 0.076879 0.022420 -0.109301 0.077595 0.078610 -0.042399 0.106174 0.054904 -0.029697 -0.116360 0.120630 0.161366 -0.168615 0.170444 0.237057 0.105688 0.146032 -0.047752 0.035259 -0.088323 -0.035049 0.093409 0.061301 -0.015010 0.128330 0.043764 0.244481 0.090309 -0.001235 -0.162303 0.026188 -0.035284 -0.162946 -0.101535 -0.148200 -0.043951 0.109945 0.029501 -0.200211 0.069631 0.082065 -0.129957 -0.003729 -0.061914 -0.061466 -0.090891 -0.080649 -0.033813 -0.105174 0.016568 -0.221194 0.150065 0.007564 0.003045 0.027442 0.092415 0.128434 0.053369 -0.010723 0.020754 -0.030468 0.014753 0.130649 0.075522 0.054759 -0.033867 0.073367 0.008547 0.002242 -0.066420 -0.190805 -0.076823 -0.048681 0.107568 0.095389 -0.012810
-0.023089 -0.016699 0.124121 -0.104678 -0.053006 -0.109584 0.085524 -0.259401 -0.195732 -0.031177 0.131826 -0.183986 -0.054154 0.006296 0.164455 0.047260 -0.211000 0.069914 -0.127812 -0.116044 0.013253 -0.005615 -0.141957 -0.110880 0.097678 0.157011 0.108117 0.008119 0.051096 -0.117937 -0.090249 0.060438 -0.188973 -0.065675 -0.118489 -0.034729 -0.102626 0.014852 0.171955 -0.001971 -0.047363 -0.343266 -0.114302 0.028662 -0.098409 -0.007092 0.059117 -0.067011 0.001221 0.009082 -0.077806 0.062412 -0.216647 -0.080872 -0.018735 0.040548 -0.177121 0.075360 -0.065322 -0.012678 0.025296 0.082048 0.004032 0.073881 0.119690 0.015236 -0.024074 0.143807 0.155247 -0.022694 -0.104440 -0.091565 -0.035814 -0.024213 0.210310 -0.198065 0.018839 -0.028622 0.055631 0.193989 0.080272 -0.031305 -0.023964 -0.053435 -0.032362 0.030833 0.218320 -0.103809 0.158279 0.001792 -0.042713 -0.068406 0.197232 -0.122929 -0.068665 -0.021549 0.038501 -0.211773 0.151046 -0.102911 0.010855 0.058419 0.012531 0.177590 -0.296581 0.092122 -0.083916 0.051291 0.209482 -0.063201 0.042700 -0.191571 -0.070624 -0.126816 -0.127785 0.019258 0.086869 -0.154652 -0.175912 -0.188504 -0.072261 0.006697 0.051782 -0.045220 -0.083333 0.170814 0.010052 0.011783 0.095799 -0.121750 0.132518 -0.150040 0.061761 0.018253 0.093173 -0.030306 0.075660 -0.043105 0.061171 0.040894 -0.218312 0.017359 -0.000394 0.186231 0.076549 -0.143370 0.048705 -0.020265 -0.112142 0.035392 0.100251 -0.107267 -0.056351 0.096058 0.062539 0.071919 -0.008172 0.015045 -0.003154 0.103492 0.083614 0.039997 -0.066041 0.014667 0.037451 0.093325 -0.012640 0.018377 -0.070042 -0.043281 0.006733 0.004060 0.113539 -0.014107 -0.044996 -0.009095 -0.025870 0.043981 0.104676 -0.083677 -0.030535 -0.013900 0.093046 0.013759 0.051781 0.005375 0.011534 -0.092639 -0.091338 0.043702 0.173955 -0.038689 0.088194 -0.007905 0.022496 -0.051518
-0.072760 -0.122515 0.112070 -0.053024 -0.002718 0.066021 -0.074939 -0.102909 -0.110035 0.105853 -0.066357 0.019536 -0.102846 0.010032 0.011969 -0.043478 0.032436 0.003290 0.125167 0.131539 0.054038 0.163785 -0.033665 0.071754 0.061629 0.106610 -0.098421 0.088206 0.006640 -0.005920 0.111511 0.014772 -0.029958 -0.075428 0.044411 0.098705 0.021425 -0.162775 0.185395 0.009453 0.107577 -0.013897 -0.075605 0.017787 0.009015 -0.130800 -0.026216 0.226802 0.058325 0.050267 -0.096323 0.221934 -0.005509 -0.010205 -0.011082 0.226665 -0.083145 -0.079873 -0.119203 -0.161090 0.134895 -0.146434 -0.027973 -0.006218 0.060527 0.022453 -0.062556 0.075893 0.027677 -0.063789 -0.097257 0.031991 0.030319 -0.021628 -0.020021 -0.177564 0.013741 -0.160889 -0.219280 0.114248 -0.086089 -0.044160 0.050577 0.030143 -0.035344 -0.145883 0.025055 -0.030982 -0.188834 0.044999 0.056091 0.039139 0.046376 0.063406 0.122516 0.018083 -0.087373 -0.028586 -0.126131 0.033516 0.077391 -0.281286 0.074713 -0.132082 0.068578 -0.016507 -0.090039 -0.066753 -0.001634 0.040497 0.037504 0.053535 -0.113369 0.010848 0.091277 -0.159197 -0.066620 -0.042004 0.087521 0.238289 0.112565 0.094474 0.041382 0.051906 0.030276 0.048539 -0.155839 -0.082284 0.001434 -0.009959 0.141979 0.001736 -0.129334 0.065713 0.256850 -0.003186 -0.139008 0.026942 -0.027903 0.023013 -0.082075 0.101812 0.175167 -0.013220 0.050897 0.140059 0.132951 0.061274 0.283572 -0.016427 0.073522 0.069118 -0.092063 -0.045257 0.147128 -0.092599 0.054429 0.069981 -0.087851 0.137418 0.169584 0.031475 -0.098446 0.043326 0.051474 0.144098 0.035584 -0.095445 0.262426 -0.006207 -0.063127 -0.151676 -0.129341 0.110287 -0.148098 0.057044 -0.150527 -0.203120 0.153883 -0.176255 -0.011615 0.001363 -0.170376 0.062087 0.007977 0.077813 -0.061034 0.043172 0.006672 0.047005 -0.039436 -0.083377 0.132500 -0.049016 0.073908 0.004833
0.056243 0.083223 0.079600 0.078262 -0.101326 -0.172321 -0.084754 -0.094751 0.219909 -0.111291 0.117477 0.070472 0.037706 0.104349 -0.130338 0.040309 0.138630 -0.146251 0.047904 0.120458 -0.199123 0.033529 0.023122 0.017714 -0.040836 -0.016173 0.003680 -0.063760 0.021389 0.108690 -0.121257 0.092374 -0.190205 0.023924 0.033406 -0.111553 -0.039669 0.023764 -0.047150 -0.143963 -0.040952 0.034103 -0.146315 -0.020940 -0.115904 -0.043908 0.014207 0.047927 -0.154447 0.006256 -0.034726 -0.034415 0.044318 0.018875 0.144723 -0.005012 0.071168 -0.150981 0.043824 -0.034893 -0.162228 -0.098523 -0.073282 0.003246 -0.005479 -0.039353 -0.060741 -0.119369 0.035618 0.300748 -0.018244 0.031224 -0.053384 0.010440 -0.000445 0.001537 -0.114644 0.157401 -0.025413 0.045364 0.042233 -0.210774 0.127449 0.105955 -0.000865 -0.020564 0.083287 0.190639 0.083830 0.091463 -0.153742 0.110852 0.140878 -0.122803 -0.017481 0.151481 -0.022261 0.010088 0.041399 0.093394 -0.233101 0.277848 0.010919 -0.038399 0.138588 0.084978 0.016407 -0.122330 0.159647 -0.050829 -0.003504 0.017058 0.133155 -0.013313 0.066923 0.038695 -0.019645 -0.041988 -0.087218 -0.056565 -0.114732 0.328147 -0.040786 -0.046128 0.093337 0.117941 0.012544 -0.073686 0.176632 -0.108818 -0.012158 0.080529 -0.191039 -0.083326 -0.078519 -0.073158 -0.042404 0.056104 -0.140421 -0.251747 -0.082908 -0.119807 -0.108163 -0.043668 0.008864 -0.063150 0.067369 -0.143552 0.038758 -0.116558 0.129159 0.043051 0.021402 -0.006207 -0.027040 -0.105935 -0.003296 0.322565 0.017665 0.203510 0.036652 0.022867 -0.013629 -0.020461 0.125296 -0.022326 0.035803 0.013734 -0.004503 0.013384 -0.014163 0.189018 0.065014 0.047537 0.070265 0.078823 0.002225 -0.083203 0.026324 -0.044182 0.065344 0.173067 0.032035 0.022907 0.056554 0.054227 -0.125127 0.006200 -0.127402 0.097057 0.031839 -0.151925 -0.106424 -0.059660 0.056678 -0.117218
0.150841 0.122490 0.070393 -0.078406 -0.013793 -0.221436 -0.054034 0.037157 0.050782 -0.047657 -0.040366 -0.018333 -0.137545 0.159217 -0.144186 0.105665 -0.019176 -0.133706 -0.126764 -0.074630 0.020067 -0.171168 0.165555 -0.088267 0.128614 0.037337 -0.131670 0.138310 -0.060267 0.122306 0.001914 0.025149 -0.179186 -0.079812 -0.019991 0.114170 -0.059053 0.066993 -0.102519 -0.034707 0.023021 0.016093 -0.062980 -0.005895 -0.087363 0.051808 -0.076562 0.150429 -0.006286 0.016041 -0.004994 -0.071180 0.031763 0.135578 0.049003 0.091319 -0.094871 0.182238 0.137212 0.092845 -0.046042 -0.146656 -0.141238 0.026451 -0.046469 -0.031981 -0.208740 0.067019 0.000908 -0.039816 0.088727 0.030810 -0.060148 0.068958 -0.158374 0.027005 0.056777 -0.064840 0.064460 -0.078640 0.061769 0.007013 0.035377 0.127553 0.007367 -0.066647 -0.154126 -0.008718 0.220089 0.156737 0.120386 0.131815 0.094672 0.143991 -0.096609 0.155624 0.044587 -0.038701 -0.047791 0.197145 0.044313 -0.168131 -0.218880 0.185234 0.152441 -0.170750 -0.000953 -0.013928 -0.046637 -0.096432 -0.177277 -0.055697 -0.078411 0.232131 -0.078483 0.111844 -0.195657 -0.067952 0.096264 -0.202781 0.139596 -0.003490 0.023789 -0.023755 -0.002716 0.204381 0.028445 -0.102238 0.017206 -0.044739 -0.227002 -0.161918 -0.022857 -0.099663 0.095299 0.110203 -0.105398 -0.083995 0.102421 -0.044885 0.019078 -0.057055 -0.078320 -0.056765 0.036175 0.036325 0.008038 0.020744 0.054740 -0.030460 0.155876 -0.003831 -0.085006 -0.151162 -0.225785 0.113723 -0.101991 0.061923 0.028585 0.093536 0.069397 0.028203 0.038429 -0.020868 0.187352 -0.001586 -0.006202 -0.045545 -0.069156 -0.124662 0.006108 0.057995 0.149389 -0.179434 -0.074393 -0.154614 -0.008715 -0.075592 0.034076 0.033134 -0.132929 -0.057381 -0.087379 -0.062296 0.009570 0.056483 0.116236 -0.012696 0.017459 0.114236 0.105097 0.028876 0.083634 -0.228136 0.055725 0.165341
0.200661 0.229655 0.087369 -0.008175 -0.019775 -0.035905 -0.075637 0.041597 0.088619 -0.066857 0.010712 0.026381 0.011758 -0.051221 -0.190990 -0.009128 0.236334 -0.046466 -0.059602 0.074166 0.119253 0.046436 -0.011937 -0.039832 0.193778 -0.002361 0.171725 -0.043834 0.096060 -0.011961 0.051077 0.111412 -0.065890 0.075208 -0.165636 -0.101469 0.067624 -0.121850 -0.049587 0.303224 -0.034394 0.056169 -0.145224 -0.060934 -0.081482 0.128555 -0.186401 -0.066558 0.033340 0.029910 0.046589 0.047634 -0.021141 0.007873 -0.067029 -0.011999 -0.130028 0.001038 -0.152674 0.058447 0.016571 -0.033072 -0.036646 0.083791 -0.003324 0.020268 -0.120407 -0.005722 0.167283 -0.055341 0.015989 0.103044 -0.046662 0.092539 0.130637 0.006448 0.042054 -0.154992 0.036733 0.023830 -0.072278 -0.020847 0.112095 -0.171124 -0.017662 0.135183 0.015590 -0.112792 -0.024953 0.063008 -0.132647 -0.089501 -0.015950 0.052272 -0.039500 -0.027135 -0.106006 0.171524 -0.038615 -0.023830 -0.092861 0.164359 -0.050237 0.046440 -0.096167 -0.037228 0.103042 0.148913 -0.257138 -0.028820 -0.074780 -0.087251 0.065782 -0.021899 0.054226 0.102980 0.072475 -0.096161 0.097795 -0.016999 0.048491 0.074484 0.046825 0.015758 -0.099057 0.074347 0.047535 0.070449 0.085562 0.002562 -0.094658 0.111669 -0.086437 -0.083549 0.176496 -0.060341 0.143626 0.006985 -0.013615 -0.018264 0.032893 0.103346 -0.002873 -0.263882 0.093411 -0.107235 -0.075161 0.079849 -0.095722 0.121534 -0.045504 -0.100250 0.140353 0.101911 0.283708 0.097532 -0.059979 -0.108110 0.045817 0.115186 -0.073536 -0.026744 -0.045639 -0.076790 0.096049 -0.094694 0.007573 -0.007350 0.253198 0.146082 -0.017491 0.043381 -0.168304 -0.024436 0.041869 0.064141 -0.039026 0.078955 0.021174 0.146364 0.123779 -0.072200 -0.144132 -0.037469 0.085956 0.045524 0.142687 0.225661 -0.171841 0.133872 -0.040917 -0.138249 -0.073189 -0.083589 0.046447 -0.113415
0.051225 0.094278 0.132547 0.169471 0.090478 0.019263 0.030799 -0.030284 0.045471 0.178094 0.049408 0.133671 0.111181 0.180255 -0.037932 0.016751 0.020524 -0.021145 0.065874 -0.113488 -0.044707 0.008516 0.038764 -0.059289 -0.039125 -0.055055 0.009523 0.053249 -0.080206 0.025683 0.053515 0.020711 0.013119 0.053387 0.111750 0.045796 -0.035800 0.071473 -0.061568 0.184780 0.026161 0.053073 0.009170 0.036625 0.234125 -0.098429 -0.143760 -0.005379 -0.088076 -0.035952 0.030186 -0.053410 0.028919 0.016513 -0.093438 0.025541 0.067900 -0.146384 0.062599 -0.100592 0.022469 -0.008868 0.044989 -0.058739 0.090437 0.089056 -0.009901 0.010135 -0.094232 0.087019 0.012370 -0.098831 -0.072885 0.039635 -0.008514 0.029969 -0.142769 -0.050423 -0.044477 0.153843 -0.134279 0.015474 -0.058188 0.084485 -0.033646 0.125664 -0.181658 -0.055695 -0.077845 0.046179 -0.052422 0.181324 0.118008 0.048876 0.043309 0.029287 -0.132836 -0.058378 -0.159205 0.154482 0.065786 -0.018372 0.067386 -0.045667 -0.122349 0.026223 0.222887 -0.143976 0.054047 -0.097362 -0.337969 -0.066909 0.097036 -0.069412 -0.055027 -0.091656 0.041564 -0.139786 -0.066578 -0.081751 -0.128904 0.174865 -0.116256 -0.234481 -0.190647 -0.000922 -0.170952 -0.145178 0.017984 0.073370 -0.135433 0.230715 -0.145533 -0.011674 -0.034000 -0.061186 0.000591 0.046259 0.067828 0.006650 -0.045698 0.103139 0.000075 -0.069613 0.099741 -0.083203 0.122259 0.035062 0.094007 0.042318 -0.034106 -0.293801 -0.157578 -0.123238 -0.015688 0.107053 0.015054 -0.153727 -0.208289 0.022449 0.010894 0.072017 0.012541 -0.010912 0.088791 -0.041894 0.004115 0.060636 -0.064979 0.026571 0.026771 0.022764 -0.042698 0.030657 0.061630 0.145744 -0.071093 -0.120516 -0.132312 0.030842 -0.094172 -0.290813 0.021055 -0.059731 0.011241 0.035465 -0.062479 -0.236565 0.163297 0.021076 0.049594 -0.072172 -0.040309 -0.031830 -0.029287 -0.065356
-0.109738 -0.007337 -0.035888 0.045261 0.004850 0.077158 0.063694 0.168222 0.154282 -0.077785 0.046699 -0.113727 -0.026620 0.097938 0.118825 0.027670 0.031791 -0.160696 -0.043635 0.040185 -0.077385 0.077456 0.015817 -0.051152 0.089723 0.021099 -0.037857 0.058569 -0.040158 0.009340 -0.187874 0.250884 0.035179 -0.119460 -0.046876 0.014525 0.018828 0.031966 0.041769 0.088301 -0.339827 -0.008641 0.110241 0.104860 0.051538 -0.071699 -0.074315 0.051598 -0.063970 0.016116 -0.057137 -0.027489 -0.112590 -0.062843 -0.096890 -0.156667 -0.024509 0.146256 -0.041545 0.002530 -0.044661 0.021782 -0.192751 -0.049173 -0.199906 -0.054051 0.061300 0.146328 -0.028529 0.024270 0.014976 0.218310 0.069331 0.006814 0.008156 -0.078860 0.037461 0.122327 -0.046381 0.062690 0.115453 0.101151 0.205323 -0.013098 -0.162739 -0.169057 0.032582 -0.026690 0.040970 0.113384 -0.008002 0.019341 0.016520 0.076017 0.131398 0.139940 0.068639 0.069711 0.135114 -0.144617 -0.006115 -0.081876 0.134651 -0.030060 -0.035178 -0.078250 -0.107950 0.030052 -0.143608 -0.049632 0.193795 -0.013062 0.191471 0.082438 0.193222 0.008494 -0.045309 0.010303 0.263198 0.029246 -0.107552 -0.073713 0.055677 0.057208 0.005855 -0.026658 0.207615 0.037572 0.158244 -0.161949 -0.078686 -0.018020 0.041432 -0.126159 0.014541 -0.043544 -0.028550 -0.157642 -0.045090 -0.007894 0.045594 -0.156818 0.123233 -0.114255 0.047658 0.111106 -0.035094 0.074869 0.060810 0.042543 0.019401 -0.022422 -0.104979 0.043576 0.019447 -0.083544 0.125827 -0.038123 0.000909 -0.071592 -0.036186 -0.014422 0.016401 0.133871 0.047830 0.105110 -0.033546 0.094752 0.061250 0.032059 -0.143799 0.073638 -0.089923 -0.000718 -0.031721 -0.002871 0.039250 0.010193 -0.005011 -0.090811 0.204704 -0.019792 0.023261 -0.010982 -0.051674 0.155510 0.006178 -0.078781 -0.130481 0.112195 0.065975 0.068075 -0.075920 0.040811 -0.128543 -0.059562
-0.045091 0.010580 -0.012707 0.078663 -0.001503 0.072811 0.040586 -0.032514 0.000979 0.195392 0.088881 0.055224 0.245348 -0.142944 -0.094735 0.051197 0.012748 0.041188 -0.132211 0.080212 -0.175468 0.024874 0.119867 -0.035218 -0.125000 -0.104486 0.130646 -0.165552 -0.023415 0.008255 -0.044256 -0.099124 -0.062070 -0.050216 0.130229 -0.021308 0.054277 0.092153 0.058454 0.065278 0.156503 0.023879 0.040277 -0.035449 -0.078620 0.045482 0.145830 0.010264 -0.169695 -0.035731 0.074728 0.021517 -0.010304 -0.040789 -0.009112 -0.075137 -0.100271 0.002820 0.007063 0.016402 -0.069045 0.260594 0.013036 -0.035531 -0.019065 -0.084216 -0.028323 -0.142667 -0.114484 -0.067461 0.355371 -0.341252 -0.066835 0.006552 0.136971 -0.010400 0.024655 0.111226 -0.061544 -0.132068 -0.281873 -0.120635 -0.005161 0.087705 -0.050721 -0.042914 -0.132659 -0.119965 -0.015656 -0.061652 0.133339 -0.025736 0.041867 -0.018813 -0.021413 -0.050770 0.166238 0.059641 -0.000338 0.055026 0.010867 0.255587 0.134096 -0.155952 -0.139284 0.021529 -0.075866 -0.013195 0.124093 0.026561 -0.033710 0.052672 -0.010358 0.124204 0.078511 0.005028 -0.030715 0.109031 -0.095725 0.060310 0.008226 -0.156200 -0.030169 0.075635 0.036523 0.044241 0.098521 -0.142834 -0.018891 -0.034751 -0.074319 -0.136764 0.040363 0.064129 -0.130302 -0.134256 -0.077937 0.079541 0.211238 -0.014562 -0.052646 -0.009679 0.176222 0.009594 -0.119269 0.177647 0.046083 0.019826 0.054753 0.017775 -0.015645 -0.154700 -0.094232 -0.071045 0.079505 0.029567 0.010394 -0.127465 -0.110982 -0.104246 -0.021293 -0.111246 0.098855 0.054255 0.034284 -0.155659 -0.041750 -0.071722 0.058948 0.099422 0.022720 0.186000 0.019612 -0.111364 0.073291 -0.124725 0.085958 0.092087 -0.026054 0.191870 -0.055676 0.182372 0.058180 0.088895 0.105499 0.181159 0.070739 -0.115185 0.255966 -0.213347 -0.008880 0.138389 0.012713 0.024747 -0.006572 0.222674
0.158710 0.150058 0.099699 -0.101816 -0.147128 0.047393 0.071569 0.103162 -0.206529 -0.049938 -0.060355 -0.031374 -0.049221 0.058864 0.072956 0.034814 0.095202 0.083672 -0.035045 -0.195572 0.008147 0.001720 -0.208696 0.082204 -0.014753 -0.105580 0.059370 0.106680 -0.077394 -0.088222 0.063436 -0.041468 0.083447 -0.121985 -0.030674 -0.027079 0.148940 -0.008901 0.023971 -0.231270 0.045915 -0.021236 -0.102888 -0.060468 0.054721 -0.021622 -0.047002 0.122569 -0.021490 0.034160 0.040133 -0.062728 0.011307 -0.218558 0.042808 0.053325 -0.249529 0.080709 0.034068 0.175760 0.039777 -0.006843 -0.033110 -0.098098 0.075284 0.040665 0.018724 -0.050560 0.066261 0.154395 0.138608 0.039120 -0.083905 0.161056 -0.013149 -0.057988 0.020421 -0.061795 -0.014298 -0.134129 0.000430 0.056558 0.124288 0.087215 0.134288 0.072471 0.076924 0.081998 0.166981 -0.092128 0.120367 -0.011969 0.116730 0.014829 0.007890 0.030149 0.055533 -0.111946 0.064818 0.025487 -0.232939 0.045419 0.043278 0.151080 0.113109 -0.120797 0.047709 0.025559 -0.024346 0.052211 -0.061319 -0.112560 0.034456 -0.106019 0.008859 0.041319 -0.087978 -0.045444 -0.105062 -0.097934 -0.018143 0.017475 -0.081716 -0.149420 0.066419 -0.041924 0.119685 0.038783 -0.077948 0.014457 0.099757 0.024215 0.026361 0.004576 0.286838 -0.157684 -0.007996 -0.138664 0.249443 0.023754 -0.000412 0.123250 0.031783 0.015244 -0.035449 -0.111902 -0.038693 -0.032135 -0.030841 0.004281 -0.274060 -0.019054 -0.099795 -0.052687 -0.133173 -0.111418 -0.058192 0.044685 -0.011742 -0.136533 -0.040392 0.024611 -0.019235 0.171966 0.044362 -0.063509 -0.057868 0.027881 -0.118858 -0.026398 -0.057070 0.072301 0.075604 0.045513 0.034474 0.161941 0.080140 -0.066994 -0.000022 0.032156 -0.036555 -0.106110 0.071692 0.068701 0.013703 -0.096521 -0.248845 -0.223141 -0.063808 0.008432 0.089845 -0.060547 0.007662 -0.119845 0.007295 -0.167595
0.163452 -0.067312 0.130462 -0.129550 0.142036 0.169474 0.038361 -0.046692 -0.040601 0.010558 -0.042408 0.035710 0.035354 -0.061609 0.056828 -0.121589 0.144490 -0.000777 0.146507 -0.155541 -0.096571 -0.156404 -0.061762 -0.006975 -0.057473 0.006590 0.077222 0.020811 0.155393 0.043080 0.126627 -0.010270 -0.057307 -0.126203 -0.029388 0.033941 0.121230 -0.169182 -0.156378 -0.278860 0.051702 -0.071214 0.173660 0.071136 0.098186 -0.079463 -0.012770 0.122733 -0.101691 0.102269 0.061254 -0.161727 -0.114084 -0.075700 -0.062894 -0.182153 -0.029529 -0.032525 -0.130134 -0.008931 0.139198 0.007136 0.170032 0.055958 0.103586 -0.026060 -0.102840 -0.128933 0.058143 -0.000010 -0.021783 0.035105 0.199235 0.146270 -0.017288 -0.047877 -0.142274 0.005029 0.091411 0.099080 0.008582 0.022101 0.123391 -0.125191 0.037430 0.054059 -0.047468 -0.042392 0.102651 -0.027752 -0.070374 0.121536 -0.114925 -0.101398 -0.178559 -0.082406 0.037793 -0.019737 -0.032092 -0.030900 0.045370 0.010563 0.053251 0.063841 -0.000235 -0.111728 -0.013722 -0.042277 0.103890 -0.017762 0.179658 -0.041230 -0.046925 0.133762 -0.101017 -0.107262 -0.047186 -0.072884 0.011443 0.062681 0.044937 0.065797 0.025567 0.034815 0.051687 0.072289 -0.157818 -0.046873 0.065165 -0.089502 0.003288 -0.030881 -0.086092 -0.117249 0.134870 0.138053 0.033206 -0.013513 0.114210 0.130685 0.033228 0.012412 -0.045416 0.256829 0.071918 0.037791 -0.119689 0.104281 -0.008245 -0.091785 0.013962 -0.048774 0.056908 -0.025844 -0.073799 -0.066421 -0.086738 0.035467 0.028339 0.091151 0.073206 -0.027952 0.110295 0.109440 0.089186 -0.011188 0.029321 0.110819 -0.063074 -0.072382 0.096862 -0.014838 -0.070056 0.155213 -0.027987 0.046716 0.159148 -0.161225 -0.037709 -0.189481 0.119412 -0.071536 -0.236476 -0.033193 -0.079689 -0.024225 -0.044178 -0.019157 0.088246 -0.093859 0.271852 -0.090586 0.085004 -0.161821 0.163364 -0.027220
0.075532 -0.044549 -0.125935 -0.116743 0.139479 -0.073019 0.047583 0.381004 -0.164496 0.037856 -0.042772 -0.031765 -0.087466 0.041464 -0.062546 0.031189 -0.063242 0.168463 0.170782 -0.016773 0.083924 -0.053041 0.052559 0.078895 -0.044777 0.054680 0.052511 0.043097 -0.023255 -0.007945 -0.079038 0.143121 -0.055993 -0.059284 0.156521 -0.053794 -0.018886 -0.052429 -0.095449 0.165768 -0.014702 0.130520 -0.224915 -0.056584 0.021805 0.134038 0.183714 -0.014187 0.077815 0.063762 0.086370 -0.027537 0.057548 -0.115965 -0.078180 -0.203650 -0.247740 -0.116190 0.024505 -0.113674 0.045067 0.219215 0.007710 0.074076 0.102070 0.095213 0.067639 -0.078469 -0.010133 -0.024024 -0.101465 -0.067947 0.023810 -0.016158 0.135654 -0.042292 0.052598 -0.202453 -0.068886 -0.086813 0.040251 -0.101174 -0.029267 0.117282 0.022615 0.013069 0.049439 -0.008498 -0.041387 0.003333 0.104743 -0.056505 -0.126184 -0.049063 -0.093339 0.111849 -0.074188 0.065436 0.106489 0.069086 0.196323 0.007456 0.010944 0.020435 0.134351 0.000685 -0.146884 0.053426 0.195314 0.004690 -0.010612 -0.215497 -0.100380 0.139741 -0.150339 0.046238 0.153549 -0.191353 -0.084463 0.099940 0.155253 -0.027377 0.050336 0.085643 -0.213907 -0.132257 0.294770 -0.062328 0.055411 0.073576 0.134932 0.223796 0.192610 0.090730 0.073859 -0.044671 -0.021468 0.117182 -0.099524 0.037822 -0.071516 -0.152426 0.133877 0.095828 -0.001804 -0.055198 -0.200011 0.011023 0.004355 -0.113454 0.074754 -0.080216 0.019387 0.075441 -0.048601 0.162673 0.125910 0.031523 -0.060812 0.337207 -0.154244 0.085062 -0.054104 -0.152537 0.106175 -0.158113 -0.119649 -0.029607 -0.060273 -0.005400 0.039263 0.006610 0.037763 0.117575 -0.065912 -0.054044 0.006419 0.044030 -0.084522 0.234135 -0.111858 -0.042175 0.123271 0.087399 0.160694 0.035664 0.055526 0.110013 0.067473 0.008193 0.060739 -0.010751 0.109551 -0.192465 -0.130581 -0.155847
0.053615 0.109788 0.050427 0.090006 -0.141001 -0.063917 -0.044792 -0.010792 -0.078220 0.057118 0.057736 0.055967 -0.037328 -0.044757 0.041478 -0.152713 -0.032497 0.027121 -0.067117 -0.033125 0.088493 -0.077676 0.108057 -0.214285 -0.092431 0.099803 0.101439 -0.049601 -0.063511 0.208655 0.083449 0.014180 0.187713 0.141691 0.025707 -0.024823 -0.031044 0.064844 0.096997 0.002812 -0.004059 0.108872 -0.109665 0.077427 0.047590 -0.109973 -0.023477 -0.025548 -0.404303 -0.027836 -0.070034 -0.007107 0.130523 -0.035018 -0.106095 0.021506 -0.011598 0.082706 -0.045464 0.179810 -0.036200 -0.017726 -0.167089 -0.109790 -0.106443 -0.031493 0.142020 -0.076711 0.156888 0.057451 0.016908 -0.112881 -0.098470 -0.050000 0.033112 0.113497 -0.102937 0.026105 0.083634 -0.083577 -0.038960 -0.047111 0.081458 0.091991 0.035577 -0.097254 0.011079 -0.005346 0.038619 -0.096097 0.088234 -0.048342 -0.085585 0.019016 -0.177001 -0.046362 -0.023208 0.009907 0.014544 -0.038393 -0.141130 0.114470 0.096019 0.004896 -0.057213 -0.078673 0.108292 -0.007962 0.034172 0.010256 0.038172 0.116937 0.025295 0.210101 -0.063028 -0.092598 0.115864 0.132791 0.124812 0.195609 -0.018472 0.026584 0.122514 0.012263 0.125595 -0.216452 -0.114345 0.022977 -0.041829 0.026359 -0.003371 -0.109210 -0.099651 0.181222 0.055977 -0.130013 0.076198 0.020316 0.090679 0.091874 -0.003354 0.223589 -0.092928 0.197145 -0.048926 -0.001168 -0.053875 -0.158092 0.019769 -0.109548 -0.212683 -0.100693 0.168478 0.070705 -0.122785 0.014960 0.031900 0.048519 0.030930 -0.128017 -0.083253 -0.023720 -0.019646 0.105564 -0.060288 -0.141099 0.048032 -0.165229 0.162902 0.070959 0.007510 -0.028191 -0.081368 -0.165748 -0.144714 0.226057 -0.011924 -0.157921 -0.060710 -0.024792 -0.011490 0.047461 0.122078 0.047272 -0.000356 -0.004453 -0.006580 0.157731 -0.096395 -0.024640 0.080527 -0.093615 0.155646 0.082561 -0.007567 0.050697
0.083371 0.124726 -0.051987 0.139082 -0.087080 0.054335 -0.014356 0.028646 -0.173596 0.061828 0.019956 0.100610 -0.148660 0.152853 0.211976 -0.212352 0.166307 0.148045 -0.172784 0.087857 -0.204122 -0.198651 0.018289 -0.158100 0.038983 0.103323 -0.167706 0.077168 -0.045983 0.118833 -0.157536 0.006300 -0.080470 -0.064314 0.160932 0.121895 0.162812 0.013648 -0.051076 -0.068480 0.180475 -0.040658 -0.227431 -0.020850 -0.019854 0.111686 -0.119933 -0.088811 0.107182 0.002659 0.057422 -0.076413 -0.121005 -0.011619 -0.035898 0.126683 -0.106219 -0.032185 -0.068607 0.119909 -0.058085 -0.018564 -0.011025 -0.023158 -0.159140 0.012195 -0.044088 0.147355 0.009932 -0.018802 0.215188 -0.084147 0.032946 -0.056185 0.153787 -0.106925 0.126173 0.230275 0.251337 -0.046476 -0.136567 0.011934 0.131432 -0.057183 -0.110853 -0.096501 0.006297 -0.143269 -0.155693 0.042495 -0.038275 0.061532 -0.122379 -0.136519 0.002748 0.008114 -0.008202 -0.197443 -0.187723 -0.014185 0.009901 0.020689 -0.085273 -0.145323 -0.043905 -0.075198 -0.076060 0.019908 -0.038825 -0.090537 -0.049676 0.029847 -0.187332 0.088330 -0.058384 0.109751 -0.034673 -0.045748 -0.042438 -0.183338 0.051179 -0.017098 0.245362 0.047605 0.118850 0.029052 -0.162658 0.016022 0.173244 0.139902 -0.201342 0.051382 -0.107251 -0.102266 -0.015245 0.015248 0.014553 -0.097632 0.043572 0.125818 0.046922 0.010541 -0.146389 -0.030076 0.154858 -0.013325 -0.079206 -0.055989 0.049201 0.019197 -0.009122 0.277588 -0.021831 0.149793 0.076628 -0.058904 -0.053700 0.052684 -0.100674 -0.027579 0.158615 -0.001776 0.020559 -0.077853 0.095605 0.106412 -0.049754 -0.108208 -0.126141 0.076188 0.057923 -0.007475 -0.042077 0.087421 -0.098216 0.108692 -0.094326 -0.040718 0.024627 -0.106712 0.001478 -0.079400 0.247048 -0.053140 -0.276368 0.216400 -0.040550 0.073644 -0.219480 -0.131615 0.062521 -0.129466 0.002050 0.132711 -0.130515 -0.144408
-0.151745 0.008873 0.166269 -0.065139 -0.043257 -0.167729 -0.140275 0.037483 -0.102837 -0.048998 0.060687 -0.058446 -0.023168 0.015394 0.071796 -0.060640 -0.039753 -0.095910 -0.063026 -0.031994 0.070188 -0.086022 -0.025228 0.199856 0.033880 -0.055522 -0.050463 0.024931 -0.084524 -0.026681 -0.015023 0.055434 -0.038962 -0.201179 0.007705 0.026862 0.075571 0.097058 -0.136681 0.016019 0.172811 -0.041396 -0.023864 -0.082492 -0.003848 -0.102999 0.051999 -0.058571 -0.168599 -0.063937 -0.126037 -0.027484 -0.085061 0.076243 -0.150519 -0.149411 0.019523 -0.017855 0.067361 -0.031682 -0.084111 -0.016213 -0.154773 -0.172090 -0.002224 -0.075906 -0.068941 -0.011352 -0.081375 0.109387 0.091124 -0.016750 -0.032526 0.036215 0.029452 0.053929 0.008460 -0.081302 0.224976 -0.097031 -0.011977 0.113485 0.002094 0.052458 -0.046202 0.080603 0.068118 0.120038 -0.135750 0.125217 -0.045216 0.030963 0.014778 0.154844 -0.022157 0.120062 0.153882 -0.000968 -0.050503 -0.079167 -0.104315 -0.102236 0.125514 0.155845 0.026295 0.153886 -0.032874 0.097567 0.010624 0.140641 0.011845 -0.073992 -0.063719 0.110539 -0.084190 0.076852 -0.114513 -0.087690 -0.147457 0.028303 0.019245 -0.107004 0.054713 0.146166 -0.068542 0.079543 -0.060351 -0.104022 0.109654 -0.018390 0.032181 -0.173615 0.005048 0.004994 -0.048844 0.159435 0.100508 -0.147504 0.180325 0.006475 -0.038364 -0.008785 0.087524 0.145711 0.154960 -0.046383 -0.078596 -0.062646 -0.020868 0.019426 -0.020563 0.099237 -0.045100 0.015708 0.041110 -0.051005 -0.066680 -0.032403 0.029272 -0.121446 -0.093541 -0.068653 -0.101899 -0.039141 -0.009376 -0.032897 -0.114516 0.098784 0.005017 -0.049791 0.038539 -0.017615 0.100428 0.079712 -0.069005 -0.150388 -0.043562 -0.072539 0.156443 0.036910 0.089243 -0.071925 -0.048414 0.061939 -0.044201 -0.050483 0.009260 -0.130762 -0.161065 0.032147 -0.026537 0.084357 0.098142 0.035347 -0.042512 0.063175
0.169561 -0.037677 -0.002314 0.073794 0.279854 0.112178 0.032650 0.023425 -0.026183 -0.134206 -0.146066 0.090325 0.093598 0.060261 0.199640 -0.018588 0.085289 0.159738 0.059589 -0.187310 0.036585 -0.083892 -0.043958 -0.115573 -0.040201 -0.012050 0.104699 -0.136590 0.062080 0.166626 0.007220 -0.266624 -0.039820 -0.283451 0.076027 0.032194 0.070379 0.011058 -0.054712 0.016391 -0.055084 0.023985 0.127870 -0.085126 -0.018491 0.190402 0.035861 -0.006444 -0.004115 0.037665 0.173284 0.001875 0.007159 0.083822 -0.075267 -0.008478 0.092697 0.074594 -0.082385 0.029323 0.006855 -0.166780 -0.082288 -0.178186 0.089310 -0.166800 0.003903 0.054807 0.106903 -0.061299 0.067205 -0.020564 0.002041 -0.069951 -0.133167 -0.025736 0.009747 -0.042964 -0.077055 -0.085933 -0.037192 -0.044908 0.019772 0.025548 -0.056226 -0.019275 0.060995 -0.120004 0.079061 0.034948 0.104649 -0.072246 -0.066415 -0.089318 0.020942 -0.017231 0.079401 0.159534 0.044028 0.031564 0.006393 0.005553 -0.028009 -0.010830 0.013424 -0.023916 0.114821 0.028529 0.001175 0.188187 0.031817 0.068355 -0.102752 0.123127 0.099271 -0.006543 -0.059621 0.099443 -0.088870 0.022137 -0.102118 -0.090283 -0.048980 -0.019252 0.043606 0.084980 -0.047557 0.101004 0.029513 -0.013387 -0.065602 0.070662 -0.052549 0.136208 0.042550 -0.083267 -0.013075 -0.066320 -0.072525 0.055894 0.030782 0.205631 0.197049 0.078330 0.129343 0.075138 -0.096743 -0.044555 -0.130901 -0.118892 -0.089138 -0.040200 0.003867 0.011781 -0.079441 0.027986 0.031242 0.007274 0.022921 0.086594 0.035005 -0.010018 0.105970 0.176435 -0.065433 -0.126890 0.122091 -0.087724 -0.113010 -0.110332 0.104828 0.182149 -0.010791 0.121555 -0.135970 -0.000114 0.118977 0.042816 0.101149 -0.031176 0.117962 0.231959 0.101440 0.075038 0.039600 -0.081390 -0.054302 -0.030699 -0.005911 0.092136 0.044095 -0.027124 -0.157702 0.109407 -0.045424 0.093652
-0.123290 0.020198 0.048096 0.016539 -0.064881 0.076420 0.008905 -0.085679 0.021313 -0.055569 0.160442 -0.023300 0.049034 0.151884 0.011595 0.033149 -0.075693 -0.075073 0.027462 -0.158219 -0.012137 0.049640 -0.074271 -0.191793 -0.121542 0.019591 0.030556 -0.033731 -0.047475 0.109137 0.015213 -0.047310 0.123214 -0.005666 -0.171130 -0.005149 0.030245 0.106818 -0.066778 0.036322 -0.049465 -0.158338 0.106813 0.098902 -0.161152 0.020243 0.035364 -0.004162 -0.068252 0.133361 -0.109385 0.103406 0.028774 0.147405 -0.015998 0.009400 -0.106635 -0.148843 0.133154 0.071952 -0.031069 0.009152 0.105018 0.065956 -0.101000 0.218164 0.148304 -0.078399 0.002870 0.050973 0.081661 -0.086115 0.022418 -0.022895 -0.021867 0.007435 0.042488 0.177801 0.171407 -0.098879 0.069482 0.035414 0.030949 -0.023458 -0.042153 -0.008090 0.033820 0.191601 0.173342 0.000447 0.016766 -0.025041 -0.035211 -0.030226 0.055693 -0.120721 0.372269 0.161606 -0.023950 -0.049481 0.051842 0.009425 0.096937 0.110735 -0.156328 -0.021229 -0.197441 -0.028250 -0.007712 -0.026421 0.161393 0.133668 0.184012 -0.106433 -0.042360 0.016362 0.033705 0.060453 0.028106 -0.040702 0.001488 -0.004160 0.096630 -0.004030 -0.070516 0.052001 -0.048477 -0.000439 -0.038712 0.108040 -0.251322 -0.005240 0.019357 0.070680 0.108196 -0.111021 0.066147 -0.013158 0.044241 0.053664 -0.040569 0.063204 0.061227 0.102070 0.002676 0.009001 0.040940 0.112606 0.075401 0.008002 -0.031541 -0.020454 -0.018266 0.074291 -0.000421 0.232836 0.073776 0.091915 -0.075661 0.021695 -0.030225 0.005119 -0.058681 0.083772 -0.067918 -0.028177 -0.019353 -0.126276 0.142312 0.009632 -0.045296 -0.225113 -0.081036 -0.260908 -0.036197 0.004681 -0.072417 0.210316 -0.072795 -0.107939 0.005316 0.036496 0.149310 -0.092803 -0.008573 0.150523 0.092365 -0.004088 -0.104537 -0.016979 0.001088 -0.058693 -0.057385 0.020774 0.109645 0.042455
0.125981 -0.036967 0.081609 -0.123656 0.058662 0.092581 -0.089237 0.121154 0.027340 0.119335 -0.086376 0.043870 0.214564 0.077497 0.095224 -0.122646 -0.123295 -0.032715 0.138726 -0.155905 -0.025474 0.150815 0.051077 0.129581 0.035575 0.103462 0.152091 -0.094529 0.132865 -0.051808 0.080187 0.004665 0.073930 -0.065805 -0.179928 0.140512 0.010347 -0.133342 -0.002837 -0.024607 0.180249 -0.021475 0.092853 -0.218972 -0.198760 -0.100463 -0.219392 0.083648 0.199589 -0.002186 0.023189 0.055818 0.001658 -0.089533 -0.052765 0.027861 -0.102079 0.053918 -0.039535 -0.018990 0.003649 -0.062340 -0.028758 -0.127065 0.038695 -0.003179 0.051328 -0.074751 0.084702 -0.069733 0.152610 -0.011966 0.100123 0.059755 0.027677 0.007989 0.043921 0.062325 0.088694 0.104158 -0.089034 0.072171 -0.013847 0.083536 -0.040231 0.048657 -0.097670 0.179846 0.105207 0.036837 -0.100400 -0.164200 -0.025531 0.035982 -0.119183 -0.021456 -0.190730 -0.023327 -0.040061 0.096617 0.187509 0.085828 -0.043016 -0.118126 0.081865 -0.048006 -0.006028 -0.105136 -0.076256 -0.121375 -0.125009 0.021933 -0.131742 -0.119412 -0.158539 0.050192 0.072222 -0.040731 0.047792 0.041480 0.022922 0.093811 0.052743 0.203368 0.018195 0.093127 0.010838 0.067214 0.017811 0.008123 -0.094926 -0.278153 -0.015987 0.083397 0.012111 -0.058789 0.054445 0.071091 0.093097 -0.142308 -0.070886 0.101163 -0.006483 -0.015606 0.032825 -0.000312 0.048887 0.037414 -0.022983 0.024713 -0.107118 0.106229 -0.004633 0.025978 0.031371 -0.017049 -0.168092 0.019418 0.162257 0.156201 -0.063520 0.069558 0.092017 0.154990 0.161978 -0.018827 0.267414 -0.050820 -0.213244 -0.004857 0.141152 0.079511 0.180681 0.179803 0.056551 0.127170 0.042838 -0.147369 0.011153 -0.143566 0.155621 0.031763 -0.019345 -0.043129 0.145561 -0.246797 -0.004079 0.196321 0.017103 -0.073585 0.050990 -0.068007 0.022558 0.099927 -0.239479 -0.066365
-0.008774 -0.277470 -0.101825 0.147375 -0.148161 -0.236190 -0.113193 0.109741 -0.053618 0.049985 -0.028488 -0.156422 -0.180675 0.067294 0.007561 -0.023919 0.187679 -0.137688 -0.027171 0.161489 -0.054137 -0.163145 0.153670 -0.159003 -0.116363 0.154130 0.023951 -0.258411 0.123314 0.047017 0.001614 0.147858 -0.210620 -0.038482 -0.146475 0.051201 -0.024733 -0.082668 0.022012 -0.058746 -0.006330 -0.023492 -0.015476 0.110198 -0.100949 0.045951 0.000951 -0.045219 -0.213496 0.003018 0.141719 -0.009365 0.195108 0.079163 0.056559 -0.051919 0.032057 -0.052566 -0.024961 0.013076 -0.084866 0.097294 0.002156 -0.042693 -0.041240 0.121884 0.041912 -0.117490 0.061455 0.011386 -0.042550 0.024037 0.102941 0.062674 0.075273 0.046808 0.047973 -0.160877 -0.167048 -0.027230 0.047353 -0.171388 0.000494 -0.049463 -0.086700 0.033302 -0.118719 -0.085853 -0.131991 0.021063 -0.239598 0.046497 -0.022217 0.161184 -0.014085 0.035861 -0.084940 -0.151792 -0.082541 0.056389 -0.154000 -0.147804 -0.003617 0.054756 0.059408 -0.113431 -0.089536 0.026984 0.021711 -0.235359 0.088217 0.013661 -0.185992 -0.252613 -0.063102 -0.010805 0.019986 -0.152078 0.135169 0.188635 0.082851 0.008806 -0.063664 -0.033057 -0.008557 0.102301 0.069771 -0.113943 -0.236408 0.016370 0.038604 -0.065650 -0.028417 -0.028964 0.089861 -0.054605 -0.124778 0.093877 0.078471 -0.028747 0.052605 -0.009109 0.056124 0.081692 -0.281888 0.122032 0.221624 0.070254 0.114574 0.009176 -0.017781 -0.023701 -0.084525 -0.021281 -0.015123 0.024405 0.040413 -0.206236 0.000782 0.111539 -0.035080 0.017237 -0.064770 0.070721 0.044449 -0.028286 -0.040539 0.126082 0.115945 -0.028051 -0.232819 -0.018526 0.057240 -0.164357 -0.123424 0.079659 0.078023 0.254498 0.084516 0.044157 0.139781 -0.010466 0.037040 0.117277 -0.080228 0.026261 0.217812 0.194665 0.081504 -0.022688 0.094285 -0.057680 -0.117284 -0.211053 0.024219 0.099173
-0.067833 0.017770 0.135261 -0.141278 0.086057 -0.100199 -0.066475 -0.066997 -0.069901 -0.072427 -0.090101 -0.034075 -0.125516 -0.051592 0.022279 -0.098485 0.047603 0.032032 -0.076781 0.213130 -0.102975 -0.005335 0.088099 -0.078365 0.129903 0.149584 -0.097170 0.120717 -0.068984 0.067377 0.099126 -0.005803 -0.062111 -0.006183 -0.169325 -0.050366 -0.111135 -0.001363 -0.036006 -0.106406 0.006463 -0.094130 -0.008901 0.013063 0.048158 -0.092801 0.054700 0.108280 0.115101 -0.052400 0.086201 -0.106099 0.037522 0.024393 -0.147363 -0.180459 0.021276 0.190273 0.220471 -0.004783 -0.006000 -0.050663 0.038012 0.159545 0.135455 -0.215999 0.008375 0.059072 0.023937 -0.111984 0.033276 0.000876 -0.013684 0.011369 0.007786 -0.108657 0.056147 0.158647 0.064393 -0.129240 -0.055906 -0.180157 -0.153877 -0.112262 -0.164892 0.132071 0.097801 0.085702 0.112861 -0.097306 0.085863 -0.205780 -0.275004 0.157457 -0.004598 0.119360 0.097140 -0.005758 -0.012775 -0.102797 0.119113 -0.002985 0.161576 -0.161905 0.002705 0.129475 0.109309 0.039750 0.046433 -0.114329 0.030465 0.009990 -0.111574 0.041415 0.069944 0.045600 -0.205385 0.222316 -0.089164 0.165002 -0.016933 0.121561 0.068222 0.205920 0.058114 0.089565 -0.182742 0.091426 0.078719 -0.076672 -0.004408 -0.109237 -0.094939 -0.008715 -0.006345 0.042664 0.097586 0.084262 -0.013950 -0.009232 0.071143 -0.058690 -0.064093 0.169254 0.061729 -0.099775 0.043296 0.005109 -0.005607 0.267155 -0.085030 0.116572 0.018345 -0.072124 -0.054857 -0.041851 -0.087168 -0.163427 0.021897 -0.164334 -0.031672 -0.033053 0.008561 0.025764 -0.087305 -0.007516 0.013208 -0.169606 -0.190030 0.054119 0.097027 0.067595 0.029382 0.144714 -0.000649 -0.024164 0.078702 -0.108543 -0.065593 0.031583 -0.030259 0.159892 -0.151146 -0.084879 -0.141368 0.094654 -0.130332 0.032144 -0.009815 0.147478 -0.083673 -0.134187 0.024110 0.098376 0.027416 -0.188882
-0.087499 0.156628 -0.064879 -0.136414 -0.070374 0.014056 0.123682 -0.096322 0.053659 0.138083 0.130490 0.026875 0.021754 0.091261 0.050049 0.041214 0.057936 0.080807 -0.017173 0.109124 0.006184 0.001788 -0.162557 0.064038 -0.005566 -0.099218 0.021078 -0.023569 0.130288 0.048232 -0.040119 0.059713 -0.075085 -0.001243 -0.101575 -0.019028 -0.206637 -0.182655 0.129173 -0.038656 -0.146856 -0.213702 0.001643 -0.016092 0.006121 -0.057585 -0.055917 0.004403 -0.142525 -0.134301 0.002389 -0.030392 -0.267415 0.033593 0.138498 -0.032509 -0.185105 -0.166842 0.053585 0.059661 0.078272 -0.020437 0.006356 0.023514 -0.026340 0.162386 -0.205300 -0.001646 0.007815 0.063640 0.041464 -0.060018 0.114254 0.131974 0.060869 -0.074387 -0.028605 -0.023998 0.152755 0.123471 0.018484 -0.025161 0.185407 -0.183249 -0.157323 0.030292 0.034244 -0.022625 -0.068178 -0.030983 -0.123223 0.070654 0.186391 0.028263 -0.105549 0.129784 -0.086013 0.028022 -0.059660 0.159093 0.094691 -0.052136 0.069985 -0.020097 -0.032106 -0.081069 -0.128238 -0.055235 -0.045738 -0.219459 -0.082479 -0.098543 -0.133468 0.011891 -0.093334 0.057642 -0.189883 0.063122 0.058896 0.071942 0.100120 -0.112935 0.025118 0.056035 -0.090041 0.146749 0.083302 -0.020192 -0.181025 0.124091 -0.098809 -0.098788 -0.003815 0.064997 -0.097729 -0.050670 0.042781 -0.147764 -0.117928 -0.119968 -0.090992 0.012199 0.144113 0.009935 -0.067935 -0.043011 -0.033151 0.068569 -0.062633 0.021114 0.170415 0.014471 0.122747 -0.135265 -0.094261 -0.204809 -0.118207 0.041036 0.026779 -0.090056 -0.056092 -0.118372 -0.147183 0.073539 -0.006281 -0.032738 -0.114005 -0.064912 -0.041195 0.009292 -0.128291 -0.292494 0.067215 0.097268 0.009369 0.151047 -0.255640 -0.021840 0.059872 0.081088 -0.215259 -0.109414 0.102870 0.014379 0.043200 0.052773 -0.133708 -0.197483 -0.039624 0.134685 -0.057299 -0.092358 0.107422 -0.011348 0.091823 0.142451
-0.227597 0.011480 -0.249459 -0.026667 -0.028698 -0.096720 0.062058 0.072104 -0.056465 0.002917 -0.101622 0.029698 0.032831 -0.126779 0.039703 0.067304 0.044224 -0.036320 -0.063975 0.071109 0.064625 0.056605 -0.158997 0.313466 -0.053748 -0.013092 -0.041259 0.031503 0.005632 0.000619 0.049575 -0.019683 0.066031 0.040666 0.016406 -0.067705 0.068445 -0.059495 0.160479 -0.130856 -0.077259 0.083792 0.041170 -0.051863 0.314862 0.174657 0.172959 0.076179 -0.027191 -0.098690 -0.096100 -0.041552 0.057853 -0.010970 0.046336 -0.009254 -0.145940 0.079258 -0.148425 -0.036454 0.010055 -0.008710 0.184454 -0.070557 0.034728 -0.008692 -0.074071 -0.019894 0.022265 0.006923 -0.107671 -0.075448 -0.036221 0.017706 0.029963 0.074786 -0.086528 -0.022623 0.049794 0.075582 -0.107190 0.162876 0.209502 -0.002665 -0.113230 -0.060199 -0.008743 -0.222072 0.069562 0.022738 0.003681 -0.156014 -0.017254 -0.055262 0.041470 -0.017481 0.118460 -0.005586 -0.118942 -0.012543 0.112310 -0.019806 -0.046074 0.048830 -0.064718 -0.172206 0.078320 -0.108538 -0.034253 -0.226049 0.145931 0.011924 -0.063726 0.033285 0.009698 0.085517 0.033289 -0.000140 -0.021677 -0.056748 -0.064175 -0.050660 0.004706 0.005647 0.001045 0.133116 0.102375 0.063789 0.094120 -0.090306 0.126062 -0.106753 -0.031449 -0.101203 -0.138429 0.049830 0.016299 0.136654 0.023124 0.051507 0.135254 0.062519 0.106493 0.043800 -0.003715 -0.120262 0.014823 0.014962 0.119350 0.141722 0.050118 -0.161308 -0.009242 -0.163698 0.141315 0.011349 -0.000579 0.041140 -0.011478 -0.044556 0.343107 0.110938 -0.149180 -0.041221 0.048359 -0.081740 -0.067852 0.146355 0.038359 0.037155 -0.086166 0.018686 -0.048306 0.072805 0.001067 -0.041573 -0.031435 -0.157050 0.165962 0.023256 0.096447 -0.107193 0.022722 -0.090871 0.057419 0.074493 -0.135010 0.020355 0.041651 0.164062 -0.053802 0.109881 0.176516 -0.076279 -0.218142 0.079325
0.067517 0.039165 0.140847 0.081379 0.129510 0.060518 -0.085802 -0.001037 0.083843 -0.144125 0.051415 0.194848 -0.041772 0.148959 0.097800 -0.008172 0.006754 -0.244713 -0.028741 0.016475 0.017434 -0.068946 0.157970 -0.121449 -0.026546 -0.019719 0.088908 0.047375 -0.036674 -0.050945 0.069694 -0.048649 0.022687 -0.006785 0.125471 -0.208581 -0.084999 0.019472 0.050218 0.036935 0.070528 -0.212114 -0.042428 0.083285 0.101786 0.147602 0.106304 0.057140 -0.164909 0.139161 -0.050448 -0.315210 -0.038365 -0.144251 -0.241533 -0.069471 -0.059529 -0.042095 0.236734 -0.033330 -0.032582 0.080467 -0.004851 0.274064 0.115600 -0.120709 0.002024 -0.113806 -0.151925 0.137448 0.225089 -0.120057 -0.011986 0.071298 0.081407 0.140942 -0.073725 0.066107 0.024836 -0.054568 0.037186 -0.011392 -0.003105 -0.031013 0.003260 -0.141017 -0.012479 -0.018132 -0.067378 -0.064045 0.254559 0.031604 0.026805 0.011428 0.017829 0.045358 -0.029185 -0.118908 0.025199 0.035967 0.096041 0.042555 -0.201330 -0.160629 0.161594 0.054197 -0.085069 0.081937 0.020705 0.075966 0.139873 -0.273976 -0.020359 -0.116414 -0.036846 0.000616 0.053883 0.184659 0.128529 -0.097560 -0.073347 -0.018446 -0.009175 0.157399 0.025891 -0.004173 0.168433 -0.197833 -0.104049 0.087771 -0.180545 0.187669 -0.044988 -0.093253 0.153637 0.013354 -0.102179 0.088814 -0.097677 0.034926 -0.004303 0.038866 0.090797 -0.053634 -0.032238 -0.051109 0.072840 0.076804 -0.079549 -0.028151 0.044301 -0.080795 -0.029013 0.156770 0.028643 0.039224 -0.065165 0.105395 -0.102145 0.058871 -0.074252 -0.063978 0.077614 -0.092157 -0.079141 -0.064185 0.105892 0.157583 -0.113031 -0.012553 0.034455 -0.143210 -0.004741 0.033819 -0.010846 0.045508 -0.114385 -0.120255 -0.036047 0.040836 -0.029963 0.122667 -0.031146 -0.150242 0.058798 -0.079021 0.142197 0.055995 -0.059304 -0.063476 0.054401 -0.125006 -0.174726 -0.000894 -0.032549 0.154796
0.058915 0.077781 0.027935 -0.111808 0.037904 0.119549 0.070494 -0.043631 -0.077733 0.059736 -0.025850 -0.094785 -0.023818 -0.109579 0.213371 -0.153396 -0.150388 -0.117729 0.054082 -0.088386 -0.017496 0.124470 0.003077 -0.017279 0.014553 -0.157684 -0.045116 -0.047724 -0.058455 0.235359 -0.057114 -0.024314 -0.011580 0.072660 -0.197003 0.012144 0.060967 -0.132695 0.039545 -0.044298 -0.061637 -0.145735 -0.202526 0.163865 -0.054373 -0.063618 0.042509 -0.054384 -0.047566 0.005732 0.057461 -0.004679 -0.131003 0.215414 0.065865 -0.004823 -0.027991 0.090314 -0.135814 0.002004 -0.029434 -0.020533 0.055777 -0.089910 -0.037682 0.105247 -0.104724 0.270582 0.086135 0.038096 -0.143090 0.039992 -0.001480 -0.159135 -0.000391 -0.201136 -0.041698 0.147513 0.125780 0.067296 0.125384 -0.077271 0.088653 -0.031265 -0.073204 0.167000 0.255709 0.112464 -0.087377 -0.066732 -0.121975 -0.014688 -0.031581 0.049259 -0.101397 -0.053247 0.169449 0.054604 0.097870 -0.019267 -0.007882 0.168954 -0.199538 -0.089129 0.033222 -0.120551 -0.009102 0.050848 0.063705 0.100454 -0.071688 -0.154955 -0.087991 -0.203151 -0.183400 -0.022960 0.029156 0.103617 -0.182064 -0.064846 -0.056533 0.052647 0.133505 0.074433 -0.038867 0.106642 -0.005372 0.122435 0.020705 -0.072528 0.068133 0.122939 -0.100677 -0.034035 -0.020915 -0.116799 0.024125 -0.089134 0.063307 -0.067781 -0.042243 0.096670 0.035734 -0.108390 0.033798 0.071932 0.177356 -0.151916 0.017668 -0.263509 0.020127 0.131716 -0.127552 0.055661 -0.034762 0.105749 -0.043025 0.115313 -0.220327 0.049408 0.061077 -0.077138 0.144568 0.017753 0.090608 0.185759 -0.006254 0.006329 -0.058611 -0.279538 -0.034792 0.140960 0.018982 0.246803 -0.025626 -0.105101 0.099689 0.054576 -0.126073 -0.134182 0.029291 -0.063381 0.010538 0.141948 0.010776 0.152788 -0.074445 -0.272522 -0.083332 0.041150 0.095917 -0.014022 0.037483 -0.005230 0.226815 0.119570
0.012758 -0.157074 0.057598 0.100060 0.056406 -0.031439 0.023516 0.182909 0.041462 -0.018729 0.008078 0.207259 -0.165508 0.274866 -0.072679 0.135941 -0.000530 0.015250 -0.156609 -0.162340 0.042622 0.146274 0.370684 -0.120660 -0.033582 -0.314868 0.018389 -0.088229 -0.126757 -0.038378 0.050686 -0.213198 0.106921 0.272526 0.270932 -0.179145 0.066427 0.249551 0.155696 0.096035 -0.199040 0.093831 0.111599 -0.029322 0.053590 0.244071 0.044263 -0.125362 -0.022488 -0.000684 0.113918 0.009968 0.216996 -0.097389 -0.124096 -0.010367 0.153930 0.031323 0.081758 0.063731 -0.026874 0.027347 -0.012495 -0.025885 -0.018841 0.226391 -0.096232 -0.125473 0.054033 -0.032901 0.118942 0.031265 0.107644 0.114256 -0.049606 0.203775 0.091084 0.040102 -0.200593 0.011008 0.002343 -0.154490 0.064056 0.046940 0.085834 -0.001152 -0.065092 0.034750 0.034388 -0.022643 0.000222 -0.128178 -0.254647 0.040723 -0.010333 0.146265 0.071767 -0.141307 -0.058578 -0.050014 -0.075372 0.116088 -0.084970 -0.051165 -0.139561 0.009673 -0.105132 -0.034147 -0.043145 0.104513 0.023752 0.025702 0.125812 0.188391 0.172475 -0.122519 0.041497 0.059053 0.082979 -0.006548 0.115322 -0.220406 -0.134798 0.005240 0.062819 -0.152942 0.062759 -0.003760 0.054245 -0.036197 0.093285 0.140209 -0.032916 0.129134 0.126916 -0.031971 -0.117534 0.191174 -0.139513 0.046571 -0.032830 0.018725 0.065089 -0.195647 -0.150142 0.015584 0.124562 -0.089896 -0.041344 0.345599 -0.081034 0.076261 -0.040659 0.077167 0.123683 0.027351 0.000248 -0.220217 -0.099399 0.216445 -0.036369 -0.111137 -0.043835 0.035797 -0.108608 -0.208588 -0.202188 0.014804 0.061700 0.104626 -0.048467 -0.082562 0.004223 -0.075389 0.123557 -0.055043 0.064244 -0.003217 -0.033853 0.013953 0.097145 0.064474 0.154818 0.263094 0.219665 -0.126834 0.047658 -0.013445 -0.071351 -0.137557 -0.188851 0.076437 -0.085162 -0.117414 0.038482 -0.044114
0.022794 -0.132294 0.013339 -0.076952 0.121860 -0.155556 0.047101 -0.181377 -0.009321 0.011025 0.050362 0.077756 0.017900 0.061768 -0.011787 -0.041044 0.070549 -0.068671 0.135730 0.012063 0.055819 -0.180404 0.009396 0.064316 0.151674 0.003260 -0.029165 -0.113928 -0.127736 0.003593 0.062969 0.064482 0.150876 -0.001557 -0.009574 0.225164 -0.053535 -0.100173 -0.068557 -0.116655 0.070245 0.106353 -0.226951 0.014716 -0.133488 -0.065696 -0.099225 -0.167494 0.028926 0.035781 0.048426 0.176230 0.068377 0.019262 -0.080524 0.014013 -0.038222 0.013721 -0.184026 -0.042705 0.021624 0.027777 -0.039614 0.082030 0.148707 0.009135 -0.007004 -0.084900 0.135838 0.015409 -0.037013 0.042613 -0.109710 -0.144246 -0.033640 -0.111632 -0.041705 -0.232801 0.061657 0.071858 -0.082550 0.027991 -0.093213 0.107237 0.052799 -0.216507 -0.147003 -0.113459 -0.018680 0.096602 -0.006136 0.094099 0.032547 -0.059971 -0.025901 0.104775 0.100201 -0.082593 -0.217158 -0.004534 -0.108377 0.094393 0.085647 -0.129906 -0.063613 -0.105338 -0.044093 0.119211 0.002674 -0.101571 0.120054 -0.192251 -0.011410 -0.027441 -0.113464 0.005674 -0.147841 0.215964 -0.029717 0.069850 -0.026772 0.167624 -0.000699 -0.084895 0.318752 0.064700 -0.000060 -0.037146 -0.044923 -0.032648 -0.070294 -0.013827 -0.043289 0.012847 0.026987 0.001089 -0.115078 0.043839 -0.033430 -0.124456 -0.110888 -0.087708 0.019282 -0.014731 -0.003305 0.067518 0.095705 0.004593 0.012310 -0.069137 -0.130884 0.012284 0.001236 -0.050122 -0.144612 -0.156414 -0.191201 0.024703 0.225125 0.005624 0.015437 0.084691 -0.180956 0.125305 0.089847 0.051606 -0.047894 -0.097459 -0.073981 -0.135294 0.103386 0.109032 0.211838 -0.136201 0.125525 0.060297 -0.014532 0.005138 -0.003980 -0.131000 -0.011020 0.015679 0.055326 0.080858 0.010730 0.036625 0.007244 0.022846 0.126867 0.043269 -0.001019 0.168642 0.153853 -0.157617 0.092844 -0.021162
-0.022424 0.061493 -0.180245 -0.002377 0.004439 0.052967 0.064309 -0.055255 -0.082075 0.036799 0.021610 -0.171087 -0.069036 -0.064225 0.078170 -0.020001 -0.151546 -0.054432 0.112068 -0.084835 0.121661 -0.037547 0.001226 0.004717 -0.077453 -0.037548 -0.061901 -0.102192 0.243302 -0.041139 0.030832 -0.067375 -0.068760 0.076716 -0.006568 -0.026172 0.045454 -0.100345 0.210481 0.153249 -0.003065 0.055925 -0.020744 0.049550 0.029967 -0.212385 -0.004807 -0.068814 0.158529 0.040058 0.089025 -0.118501 -0.175679 0.136297 0.085873 0.043288 -0.044243 0.001591 0.086757 0.134848 0.113222 0.033425 -0.064336 -0.044410 0.140272 0.160473 0.007612 -0.065259 -0.065846 0.081779 0.023102 0.028369 -0.032526 -0.023224 -0.056518 0.042098 -0.123417 -0.016717 -0.089261 0.055615 0.128442 0.019265 -0.221238 0.019450 0.123128 -0.045050 0.203543 -0.045034 0.049019 0.021153 0.020543 0.027810 0.068422 -0.066527 -0.012271 -0.078121 0.049071 0.183228 -0.191346 -0.079736 0.011151 -0.045158 0.163477 0.077444 0.026766 0.051781 -0.001984 0.035262 0.058171 0.102891 -0.075721 -0.066336 -0.183306 0.231327 -0.174608 0.057854 -0.014440 0.065042 0.041906 -0.038359 0.117779 0.021748 -0.116192 0.048102 0.016885 -0.094243 -0.033793 0.097792 -0.292460 0.031204 -0.056192 0.123432 0.052507 0.074790 -0.092588 -0.093605 0.007083 -0.207100 -0.047577 0.009630 -0.015531 0.129513 -0.137464 0.215948 0.089794 0.104839 0.019303 0.049740 0.138208 0.009315 0.179939 -0.033106 -0.042373 -0.038018 0.070721 0.025975 -0.144773 0.013603 -0.002881 -0.163042 0.066687 -0.086486 0.092231 -0.025987 0.135002 0.103346 -0.007073 -0.132470 -0.237456 -0.081775 -0.046163 -0.098023 0.097968 0.099251 0.036738 0.004783 -0.034244 -0.050445 0.047072 -0.053272 -0.070618 -0.118927 0.070340 0.096801 -0.124700 0.090336 0.054339 0.033341 0.159550 0.053102 -0.047819 -0.239617 0.095375 -0.148450 0.176293 0.041839
-0.172667 -0.140865 0.106291 0.038619 -0.058273 -0.048093 -0.165592 -0.058221 -0.068878 -0.031665 0.021156 0.069126 -0.107951 -0.105694 -0.073645 0.192665 -0.159478 -0.056470 -0.026025 0.146056 0.009083 0.063278 -0.058073 -0.110793 -0.000834 -0.098912 -0.019002 0.023409 -0.080174 -0.039763 -0.025327 0.130458 -0.002330 0.147589 -0.050317 0.159933 0.018651 -0.066411 0.033899 0.102936 -0.184338 0.022630 -0.032247 0.049648 -0.178585 -0.137453 0.078250 -0.050855 0.061565 -0.133408 -0.008259 -0.051777 0.070465 0.041000 -0.062650 -0.036002 -0.056277 0.046670 0.071626 -0.169346 0.050908 0.027184 -0.068012 0.119890 -0.085656 0.123226 0.011524 0.253249 0.037954 0.012236 0.114032 -0.138480 0.094417 0.049849 0.042767 0.002724 0.068819 0.028345 0.123661 -0.057036 -0.026399 -0.010934 0.090383 0.083161 -0.021615 -0.086697 -0.117805 0.030603 -0.084578 0.079680 0.103791 -0.045298 -0.121503 0.047106 0.018591 -0.113546 0.038878 -0.077052 0.046722 -0.112311 0.176605 0.040930 0.024588 -0.000945 -0.100521 0.178665 0.101452 0.055886 0.015252 0.179610 0.022899 0.103124 -0.064832 0.024211 -0.136007 -0.020387 0.017703 -0.180568 -0.041540 -0.099642 -0.044215 -0.047440 0.004716 -0.013730 0.162944 0.081282 -0.250015 0.101507 -0.181973 -0.015617 0.031341 -0.117664 -0.151479 0.072963 0.013474 -0.087501 0.089124 -0.097576 -0.036666 -0.012989 -0.101659 0.039896 -0.073089 0.003515 -0.127633 -0.195621 0.083123 -0.118475 0.086157 0.096989 -0.065492 -0.048671 0.142697 -0.021956 -0.147861 -0.049138 0.076872 -0.118187 0.022001 -0.294529 0.106010 -0.060288 0.123793 0.150363 0.122677 -0.035102 0.110788 0.043700 0.006461 0.055860 0.143191 -0.304031 -0.008954 -0.144171 -0.025078 0.025709 -0.170674 -0.020819 -0.025147 -0.052487 0.005691 -0.061678 0.043265 0.095482 -0.105857 -0.222161 0.008432 0.068930 0.018436 0.123063 0.174382 -0.040884 -0.003793 0.001619 0.047017 -0.073924
0.177574 -0.099404 0.007334 0.028113 0.007620 0.167356 0.118312 -0.065088 0.020486 -0.104968 -0.131372 0.167524 0.017911 0.000734 -0.018457 -0.136820 -0.153978 -0.084791 -0.088647 -0.050163 0.191948 0.132264 0.009733 0.051378 0.089611 0.035498 0.105471 0.075212 -0.080395 0.107476 -0.022180 0.020723 0.002477 -0.227827 -0.034263 0.005154 0.192552 -0.083641 -0.023956 0.068039 -0.056759 -0.154181 0.047856 0.016700 -0.219124 -0.022969 -0.046410 0.222483 0.037577 -0.000071 -0.070033 -0.125887 -0.075549 0.081344 -0.058594 0.013674 -0.169151 -0.099477 -0.098183 -0.086279 0.044614 0.079062 0.008809 0.038945 0.070892 0.004109 0.000087 0.196887 -0.038697 -0.130758 0.034808 -0.137209 -0.197989 -0.056215 0.104118 0.092219 0.095881 -0.111576 0.024356 0.073730 -0.174151 0.081543 0.260367 -0.007401 0.095147 0.117242 -0.031931 0.069101 -0.138752 -0.038347 0.029211 0.074565 0.087865 -0.129886 0.003053 -0.033288 -0.060840 -0.110372 0.040375 -0.066933 -0.048256 -0.089895 -0.010743 0.044620 -0.060152 0.026100 0.015074 -0.154733 0.025744 -0.006183 -0.012702 -0.095784 -0.243499 0.139811 0.028317 -0.093579 0.110330 0.068836 -0.158133 -0.059830 0.070119 -0.007404 0.156810 0.145051 -0.100681 0.298057 -0.051487 -0.119415 -0.034669 -0.024081 0.010649 -0.043414 -0.057597 0.056683 -0.147367 -0.176168 0.042988 0.135707 -0.015326 0.005842 0.044423 -0.196244 0.147002 -0.164589 0.013128 0.132754 -0.055658 -0.010258 0.007185 -0.085824 0.143498 -0.096870 0.102532 0.137190 -0.230123 0.089397 0.109163 -0.016787 0.094790 -0.047105 0.010687 0.058827 0.168144 -0.103922 0.145646 0.010946 -0.074875 -0.021524 -0.046556 -0.227237 0.094176 0.011573 0.093505 0.270949 0.046047 0.119759 0.037196 0.078316 -0.077394 0.009957 -0.035495 -0.104799 0.013497 0.053538 -0.109095 -0.058369 -0.000780 0.000986 0.060096 0.133916 0.006951 0.018424 0.061330 0.004512 -0.020318 -0.244406
0.135138 0.160067 -0.039353 -0.092293 0.074570 -0.072372 0.200044 -0.151706 -0.143613 0.117984 0.015119 0.073438 -0.066405 -0.185636 0.011783 -0.009491 0.035581 -0.020352 -0.033310 -0.020287 0.140825 -0.068640 0.075107 -0.110558 0.081407 -0.138668 -0.023130 0.076685 -0.022900 0.037754 0.043062 0.235975 0.087676 -0.085241 0.013837 0.102896 -0.057495 -0.102077 0.030965 0.010601 0.076013 0.055535 0.044295 -0.165610 -0.195529 0.105661 -0.160838 0.159465 0.005012 0.133220 -0.293633 -0.113582 -0.020841 0.015421 0.025291 -0.107067 0.080005 -0.063483 -0.091642 0.078866 -0.022072 -0.124864 -0.128835 -0.162643 0.106929 -0.095772 0.109449 -0.095298 -0.102782 0.081067 -0.090175 -0.152020 -0.007694 0.172920 0.096138 -0.026469 0.042237 0.069115 -0.181271 -0.280593 -0.149309 -0.053468 -0.066970 0.139419 -0.022778 -0.158170 0.264983 -0.017606 0.083479 -0.041362 0.049600 -0.116900 0.287469 0.101722 -0.003725 -0.024245 0.107369 0.099056 0.047384 -0.050513 0.062167 0.002877 -0.018314 0.221507 -0.089929 0.120140 0.032571 -0.223042 0.055660 0.229154 0.002954 -0.036973 -0.056803 -0.120443 0.015823 -0.056882 0.132546 0.042007 -0.019775 -0.014794 -0.062628 0.071420 -0.074306 -0.152811 -0.035084 -0.124592 0.056849 0.009678 0.003692 -0.058335 -0.005812 -0.073953 -0.036525 -0.075489 -0.156213 0.133908 0.067630 -0.135391 0.148964 0.016033 0.049707 0.007149 -0.194906 0.206948 0.027637 -0.145582 -0.031481 -0.081484 0.042835 0.066935 0.009924 0.000626 0.061955 0.016290 -0.133920 0.034608 0.002411 0.020537 0.041481 -0.000200 -0.039121 0.026128 0.058487 -0.036318 -0.044893 -0.081011 0.070159 -0.056943 -0.068910 -0.012737 -0.048339 -0.164263 -0.010766 0.012357 -0.190444 -0.054929 0.184086 -0.180810 -0.121780 0.161165 0.100451 -0.057442 0.116952 -0.002882 -0.117015 0.085034 -0.105718 0.067540 -0.014847 0.110607 -0.010329 -0.042409 -0.028390 0.012905 -0.162914 0.190063
0.161570 0.069565 -0.059349 -0.004248 -0.083582 0.205786 -0.053359 0.051544 -0.100770 -0.013077 -0.017258 0.168089 -0.038904 0.245862 -0.043900 0.052676 0.065471 -0.045816 0.067377 0.047989 -0.169079 -0.058334 -0.133072 -0.001491 -0.101738 0.027346 -0.149300 -0.066718 0.031569 -0.082558 0.003364 0.109490 0.172745 0.081338 0.000380 -0.129646 -0.174154 -0.045540 0.081722 -0.010075 0.065058 -0.102961 -0.174376 0.143673 -0.018749 0.074612 0.099502 -0.098347 0.041647 0.046241 -0.164003 -0.124745 0.027598 -0.077918 0.031490 -0.200215 0.077341 0.008663 -0.134060 0.137291 -0.091453 0.064075 0.087872 0.003742 -0.049562 -0.101597 -0.011492 -0.114161 -0.053938 -0.053103 0.096313 0.083549 -0.004121 0.330015 0.286956 -0.067566 -0.234971 0.087975 -0.060647 0.077030 -0.009697 -0.035518 0.004418 -0.097580 0.083238 0.088984 0.144153 -0.104183 -0.059688 0.039499 0.004442 0.035598 0.050180 -0.058157 -0.086648 -0.013120 -0.010635 0.016623 0.128869 0.026594 0.039597 -0.119139 -0.138317 -0.066463 -0.040792 -0.072386 0.102927 0.185573 -0.061891 -0.001873 0.044173 0.021823 0.054088 -0.081635 0.077231 0.064019 0.030577 0.044902 -0.052391 0.293371 -0.065765 -0.005968 0.004555 -0.110664 -0.083901 -0.111382 0.118905 0.096389 -0.126053 0.043644 0.235980 -0.219373 0.036815 0.116787 -0.114730 0.108729 0.012416 0.054801 -0.091836 0.029886 0.020729 0.000986 0.008741 -0.229739 -0.170743 0.142472 0.052709 0.028256 0.103463 -0.067262 0.007586 -0.148100 -0.013819 0.072150 -0.040779 -0.018380 -0.046803 0.023817 -0.064805 -0.018198 -0.234246 -0.146399 0.007069 0.010195 0.132413 0.197101 0.003949 -0.009975 0.014550 0.136588 -0.035799 0.133427 0.183895 0.077284 0.067961 0.091934 0.022860 0.054932 0.066461 0.054399 0.138230 -0.057949 0.101704 -0.077102 0.003586 0.067771 0.078745 0.038833 0.011863 0.010357 0.062219 0.182204 -0.092518 -0.068324 -0.105213 -0.029164
-0.120273 0.051812 0.140267 0.065321 -0.038283 -0.083930 -0.095299 -0.053607 0.191592 -0.035576 -0.087667 0.073862 0.088855 -0.007661 -0.038272 0.078026 -0.016829 -0.279570 -0.084819 -0.055807 0.161192 -0.114583 0.087297 -0.147844 -0.043790 0.168392 0.091464 0.005578 -0.058701 -0.100921 0.212068 0.088061 0.078375 0.107008 0.078297 -0.055507 0.069071 -0.036288 -0.120189 0.150127 -0.084144 0.086700 0.040411 -0.005463 -0.081433 0.097359 0.133947 -0.136174 -0.073916 0.176712 0.156373 -0.008219 0.087050 -0.019835 0.109600 0.038216 0.024193 0.160426 -0.068963 0.140356 0.072144 0.151604 -0.002690 0.021285 -0.040451 -0.254625 0.156286 -0.226275 0.276877 0.107585 0.057353 0.079244 0.092654 -0.026449 0.020564 -0.079658 -0.145108 -0.011401 0.036347 -0.145710 0.086917 -0.057061 -0.018406 0.074668 0.075050 -0.049864 0.039226 0.005727 -0.076508 -0.194504 -0.089144 -0.001591 0.081403 0.044257 0.217097 0.148150 0.087392 -0.096144 0.037085 0.058875 -0.154048 -0.038359 -0.108371 0.023420 -0.066948 -0.072512 -0.005690 0.027621 0.073865 -0.020121 -0.020985 0.038674 0.026194 0.056123 -0.019634 0.015299 -0.104071 -0.170505 0.037313 0.026919 -0.002174 -0.044624 -0.007443 -0.043050 -0.080793 0.005871 0.025422 -0.056463 0.168112 -0.069042 -0.192628 -0.049122 -0.083297 -0.015474 0.241765 0.093934 -0.086428 0.013449 0.031885 0.108595 0.028253 0.154888 0.115515 0.158909 -0.003769 -0.081365 -0.052915 -0.160262 -0.061396 0.115242 0.094053 0.011655 0.018034 -0.003056 0.114572 0.015046 -0.030247 0.119218 -0.080170 0.119469 -0.109777 -0.058975 -0.175311 -0.003439 0.024722 0.156504 -0.119874 0.028647 0.184582 -0.194559 -0.033575 0.067711 -0.044702 -0.044847 -0.001173 -0.104872 -0.071506 -0.056010 0.083400 0.029150 -0.021168 0.040396 0.052486 0.028737 0.033158 0.019092 0.082254 0.003947 -0.029588 0.032159 -0.215521 -0.109738 -0.049352 0.221870 0.096819 -0.045757
-0.047434 0.200319 -0.051301 -0.025445 0.070638 -0.054447 0.048190 0.072732 0.121504 -0.046144 0.100419 -0.070660 0.109802 -0.041515 0.059286 0.058446 -0.044729 0.009224 0.001114 -0.155658 0.127210 0.148106 0.125016 -0.045321 0.278073 -0.003957 -0.065456 0.123886 -0.141304 0.068002 -0.097333 0.067289 0.082609 -0.044923 0.022015 -0.029194 -0.050573 -0.066790 0.051228 0.014214 -0.125355 0.080078 0.021178 0.030988 0.130010 -0.030644 -0.161086 0.108078 0.001339 -0.059805 0.018838 0.015400 0.115045 -0.205961 0.067018 0.048993 -0.057235 0.097022 -0.050462 -0.052254 -0.136654 -0.010930 0.096197 -0.010811 -0.099556 -0.020358 0.043956 -0.098506 -0.052192 -0.130724 0.035357 0.147077 0.093434 0.000786 0.034228 -0.118617 -0.089845 -0.023302 -0.056566 0.136854 -0.128919 -0.121861 0.164265 0.178349 -0.086662 0.040181 0.134099 -0.071089 -0.029275 -0.063427 -0.029048 0.097396 -0.012547 0.019441 -0.138671 0.096676 0.144691 -0.084289 0.087506 0.068672 -0.181162 -0.094147 0.131124 0.041062 0.067816 0.065935 0.076923 0.033153 -0.088782 -0.004670 0.231101 0.001125 0.058718 0.000159 -0.078500 -0.096787 -0.073963 -0.153734 0.036308 0.142503 -0.058686 0.044439 0.042511 -0.011807 0.039262 -0.040653 -0.171672 0.155417 0.100755 -0.020847 -0.145489 0.215007 0.062494 0.055046 -0.004666 0.146717 0.001381 0.038688 -0.072052 0.088611 -0.086001 0.097063 0.074520 -0.072359 -0.018472 0.081333 -0.109325 0.122442 -0.051749 0.032314 -0.090433 -0.070116 -0.168472 0.062884 0.018983 0.020682 0.093331 -0.014634 0.128015 0.185257 0.008128 -0.089108 0.031322 -0.175232 -0.171274 -0.147256 0.051627 0.045112 0.085688 0.063375 0.103451 0.061505 -0.083996 -0.068027 -0.022313 -0.092816 -0.092431 0.009960 -0.100875 0.012367 -0.064971 -0.099899 0.113403 0.050694 -0.036985 -0.045934 0.026347 0.050892 -0.041394 0.081142 -0.103803 -0.013679 0.078163 -0.121709 -0.044631 0.092273
-0.192073 0.004514 0.308391 0.008538 0.015994 0.032201 -0.081508 0.041673 0.084678 0.025438 0.086269 -0.116792 0.174180 -0.092605 -0.074607 0.026000 -0.043467 -0.069116 -0.175416 -0.054802 -0.061998 -0.127898 0.102488 -0.096992 -0.079285 -0.030431 0.243455 -0.151108 0.151531 -0.046805 0.125836 0.136899 0.024018 0.022930 0.011774 -0.078118 0.131591 0.062688 0.023972 0.132052 0.194131 -0.008919 -0.053379 -0.089238 0.149845 0.060381 0.119420 0.001178 0.099230 0.096796 -0.026503 -0.045175 -0.127990 -0.012914 -0.078762 0.007620 0.105093 0.041980 -0.101561 0.054281 0.008428 -0.039995 0.028137 0.077851 -0.035566 0.077534 0.183529 0.078116 0.045196 0.103075 -0.131673 0.049010 0.018525 -0.035429 0.238427 -0.017209 -0.061564 0.162439 -0.085291 0.095640 -0.024832 0.014785 0.166112 0.092872 0.197450 0.152442 -0.004120 0.083423 0.098887 0.093088 0.070143 0.002869 0.024651 0.177011 -0.015883 0.041188 0.078400 0.027191 0.050276 0.086373 0.042093 0.057324 -0.122514 0.042662 -0.117523 0.018807 -0.029660 -0.133136 -0.021777 0.108262 0.004899 0.025514 -0.053144 0.051007 -0.180186 -0.031451 0.002755 -0.109139 -0.005330 0.100752 -0.138300 -0.062043 0.135442 -0.005776 -0.055155 -0.005884 0.153553 0.171802 0.066179 -0.009059 -0.191491 0.072992 0.014586 -0.013635 -0.160573 0.127758 0.115060 0.187254 0.151286 -0.098314 0.064807 -0.123495 0.158094 0.128374 -0.067953 -0.014135 -0.023572 -0.103079 0.038921 0.220060 -0.013452 0.043302 0.010076 -0.013658 -0.045953 -0.075157 0.125940 0.083539 0.146744 0.034639 0.042041 -0.186526 -0.249549 -0.056821 0.216647 -0.048774 -0.043790 -0.067934 0.074205 0.156082 -0.061552 -0.139259 0.267640 0.032887 0.054073 0.061800 -0.119256 0.028835 -0.121732 -0.091588 -0.019050 -0.072721 0.050034 -0.031244 0.015144 -0.293175 -0.032045 -0.009622 0.150906 0.120019 0.112953 -0.173459 -0.096512 -0.060399 -0.086926 0.270929
0.010198 0.034606 -0.007853 0.007346 -0.128777 -0.030408 0.005681 0.159688 -0.128968 0.055543 -0.138013 -0.050938 0.017352 -0.024277 0.117982 -0.194821 0.165703 -0.095481 -0.101093 0.009093 0.097324 -0.058293 0.188813 -0.045063 -0.014330 0.095175 0.019070 -0.032143 -0.075399 -0.094090 0.049754 -0.129308 -0.263640 -0.083768 -0.137333 0.054077 -0.169022 0.019728 0.003478 -0.013493 0.030359 0.077206 0.061311 0.157639 -0.138900 0.107416 -0.035107 0.002366 -0.190631 0.076200 -0.051132 0.094155 -0.079551 0.053667 0.038926 -0.132649 0.069868 0.029807 -0.000141 -0.081402 -0.005049 -0.030476 -0.172528 -0.047340 -0.084852 -0.039718 0.136197 0.199515 0.071422 0.052199 0.078120 -0.064291 -0.068699 -0.137563 -0.184792 -0.121830 0.038471 -0.025622 0.067048 -0.132073 -0.049955 0.009527 0.054377 0.089255 0.012364 0.208611 -0.012526 -0.016283 0.105778 0.018945 0.110030 0.136898 0.166893 0.022615 -0.043532 -0.269666 0.078495 0.015686 -0.227332 -0.066078 0.017639 0.179385 -0.010203 0.199033 0.063536 -0.197063 0.022943 -0.004858 -0.009907 0.004562 -0.045288 -0.077661 0.019586 0.009606 0.045464 0.056124 -0.117642 0.006355 -0.083096 0.000544 -0.010426 0.052947 0.045682 0.017349 0.053591 -0.071196 -0.152712 0.125876 0.094209 -0.089150 -0.025923 0.101464 0.214461 -0.091021 -0.062999 -0.003803 -0.094732 -0.095123 0.081339 -0.129802 -0.259166 0.040854 0.048602 0.213701 0.016763 0.045634 -0.029647 0.064251 -0.179098 -0.026665 0.041635 0.059627 -0.005845 -0.030188 -0.159644 0.232692 -0.171677 -0.138201 0.105437 -0.237368 -0.057302 0.012222 0.025698 -0.240232 -0.015406 0.005078 0.194431 0.038038 -0.034284 -0.100237 0.008152 -0.066678 0.134000 -0.097171 -0.246439 0.056113 0.040594 0.024885 0.087475 -0.204197 0.066191 -0.023908 -0.024491 -0.099610 0.029404 0.094642 0.087294 -0.206613 -0.205831 -0.043153 0.037913 -0.075606 -0.133943 0.079273 0.086252 0.105453
0.177221 -0.075146 -0.015280 -0.226707 0.104563 0.046947 -0.102115 0.068893 -0.143711 0.095457 -0.021443 -0.151143 -0.241475 0.023615 0.030950 -0.050465 -0.009849 0.078833 0.072569 -0.036069 0.138640 -0.001957 0.109038 0.004452 0.050600 -0.056612 -0.290450 -0.002641 -0.119214 0.027431 -0.109040 0.121998 0.010916 -0.030821 -0.011083 0.057887 -0.039630 -0.063493 -0.072132 0.060580 -0.085218 0.044781 0.073597 -0.230512 0.015147 0.023245 0.076735 -0.060264 0.090665 -0.004616 0.130533 -0.229785 0.092400 0.073148 -0.248300 0.166483 0.004028 0.025140 0.004174 0.115214 0.080377 -0.009551 0.083694 -0.050197 0.037616 -0.055338 -0.077821 0.290725 -0.109680 0.120886 -0.000488 -0.009032 -0.096247 -0.148494 -0.100792 -0.214529 0.111433 0.113560 -0.125310 -0.044776 -0.050258 0.132693 0.115441 -0.018065 -0.081929 -0.059571 0.121031 0.067443 -0.045794 -0.047257 0.052437 0.129749 0.151762 -0.033354 -0.102118 0.178031 -0.083577 -0.019295 0.016174 0.049074 0.025068 -0.198205 0.053787 0.070436 0.140760 -0.108377 0.091943 0.129690 0.216835 -0.031768 -0.063081 -0.181984 -0.118588 -0.050911 -0.093337 -0.072657 0.015675 0.102378 0.061704 0.177472 -0.018361 0.076637 -0.015749 0.109194 -0.052248 0.165512 0.059144 -0.051327 -0.008655 0.095740 -0.010372 -0.068036 0.049834 -0.029891 -0.021013 0.046388 -0.111145 -0.053909 0.063694 -0.081734 0.169420 -0.168701 -0.030555 0.062110 0.034689 -0.168650 -0.063007 0.092296 0.059201 -0.068449 0.064488 -0.101180 -0.174185 0.004364 -0.092602 0.007075 0.017771 -0.014401 0.105754 -0.029296 -0.044146 0.039554 -0.083322 0.040916 0.068609 0.024080 0.090765 0.119588 -0.142790 0.120215 -0.130129 -0.024382 -0.014753 0.028342 -0.141297 0.068213 -0.027105 0.020757 -0.177788 0.003822 0.007043 -0.141054 0.088833 -0.087797 -0.009267 -0.219044 -0.042905 0.118533 -0.001062 -0.043271 -0.008669 -0.084423 -0.228030 0.081455 0.066560 0.080610
-0.098123 -0.081322 -0.073251 -0.174563 0.094683 -0.013284 0.048263 -0.033249 0.220964 0.205443 0.020939 -0.099016 -0.093285 -0.145102 -0.150420 -0.097374 -0.114797 0.069378 0.119732 0.104669 0.013521 0.122104 -0.274044 0.147141 -0.086420 0.243168 0.090758 0.005230 0.220720 -0.122356 0.010748 0.069721 -0.073932 -0.019825 -0.037336 0.005017 0.345059 0.098774 0.036603 -0.083715 -0.036544 -0.094883 -0.237073 0.072699 -0.102429 0.183460 -0.052695 0.031724 0.035456 0.089807 0.274451 0.057901 0.011221 -0.032325 0.045647 0.177073 -0.092540 0.093287 0.027178 -0.004865 -0.010753 0.221400 0.031304 -0.061652 -0.142776 -0.145845 -0.001973 0.111224 -0.033719 -0.075187 0.050231 -0.122203 0.145634 -0.086886 0.012397 0.168143 0.096212 -0.023397 0.072640 0.062360 0.008332 -0.098076 -0.089251 -0.072585 0.091146 -0.064493 -0.026833 0.126588 0.041850 -0.151715 -0.155578 0.033702 0.030753 -0.083865 0.050958 0.088944 0.006393 0.020720 -0.019967 0.196077 -0.049048 -0.109014 0.063327 0.092588 -0.192082 -0.100895 -0.003941 0.124666 -0.104704 -0.003001 0.040679 -0.022971 -0.106636 0.056019 0.045985 0.001653 -0.053217 -0.010860 -0.077168 -0.165235 0.099663 0.071581 -0.080875 0.098104 -0.103191 -0.039019 -0.072898 0.061976 0.032109 -0.028182 0.060271 -0.129909 -0.022348 -0.083865 0.226477 0.001437 -0.080440 0.114960 0.132295 0.044876 -0.070828 -0.039897 0.012036 0.078074 -0.205096 -0.103772 0.053345 0.002351 -0.075931 0.145861 -0.095040 -0.007671 0.071180 -0.138996 -0.113181 0.055526 0.013125 -0.027107 0.024691 0.037411 0.124810 0.064462 -0.148701 -0.011839 0.006928 0.110823 0.209435 0.177031 -0.241954 -0.026459 -0.013927 0.012252 -0.042351 -0.054077 -0.119908 0.117001 -0.053794 -0.068959 0.050228 -0.144009 -0.089990 -0.057025 0.008446 0.026101 -0.110856 -0.007500 -0.040767 0.066766 -0.153814 0.009947 0.366488 0.029136 0.061043 0.121340 0.073200 -0.024859
0.123441 0.110440 -0.011701 -0.128873 0.119019 -0.037391 0.050565 -0.014490 -0.171901 -0.044693 0.004400 -0.099893 0.127149 -0.002758 0.016097 -0.016162 -0.058947 0.019998 -0.128441 -0.178448 -0.009779 -0.053606 -0.159761 -0.035044 0.134185 0.032179 0.055147 -0.002058 -0.052976 0.096746 -0.006068 0.044726 -0.053746 -0.066816 0.127481 -0.122309 0.141714 -0.106392 0.033738 -0.098793 0.135641 -0.011922 0.081771 0.103205 -0.155218 -0.089952 -0.117443 -0.021649 0.083099 -0.017816 0.004252 0.196012 0.048247 0.135399 -0.210450 -0.015560 0.075707 -0.045701 0.242262 0.042824 -0.130305 0.021492 -0.006110 -0.174082 -0.033000 -0.021356 -0.144104 -0.024652 0.146468 -0.010845 0.112522 -0.111740 -0.085105 0.026853 0.013628 -0.069502 -0.146727 -0.191240 -0.032232 0.032062 -0.058853 -0.061398 0.158476 -0.028597 0.121194 -0.112393 0.029108 -0.031472 0.064700 0.013168 -0.086127 -0.095010 -0.072401 -0.039010 0.080195 0.018776 0.126120 0.006007 0.250875 -0.139276 0.072618 -0.139886 0.204236 -0.076465 -0.034058 0.026661 0.103142 0.026580 -0.047922 -0.025934 0.026107 0.244278 0.070478 -0.001432 -0.195230 -0.033359 0.053714 -0.003000 0.064989 -0.028233 -0.004180 0.156711 -0.080913 -0.134110 0.076528 -0.052863 0.111361 -0.039036 0.140695 -0.021448 0.015624 0.059758 -0.056291 0.031242 0.022236 -0.128278 0.085905 -0.068711 0.020725 0.153059 0.218221 0.097028 -0.152768 0.007528 0.021012 0.053697 0.068904 0.036259 0.010853 -0.220404 -0.024003 -0.154817 -0.041500 0.064988 -0.100351 -0.000179 0.137008 -0.010648 0.072341 -0.062987 0.053148 0.071429 -0.023068 -0.096707 -0.043513 -0.035050 0.210480 0.157889 0.015258 -0.104173 -0.113619 0.132244 0.145188 0.008977 0.026789 0.057069 0.051293 -0.000077 0.078805 -0.118856 0.142077 -0.071076 -0.016926 -0.009888 -0.073953 0.111263 0.044436 0.032512 -0.129211 0.237187 -0.023806 -0.074997 0.024887 -0.007162 -0.022373 -0.119289
-0.184872 0.006561 0.034674 -0.127748 -0.007729 0.081650 -0.017468 0.053590 -0.335729 0.074016 -0.036908 -0.038865 -0.088282 -0.004625 0.010664 -0.055117 0.123789 0.133866 0.099847 0.133882 0.190829 -0.203456 0.102807 0.014194 0.078251 -0.044507 -0.089180 0.045770 0.128293 -0.040594 0.248322 0.043812 -0.147478 -0.079037 0.094789 0.087945 -0.153222 -0.086342 -0.058299 0.014938 0.096088 -0.098388 -0.110574 -0.110741 -0.047593 -0.041407 -0.029232 0.070065 -0.156465 -0.012461 -0.113136 -0.000728 -0.071771 -0.041757 -0.082910 0.079004 -0.010618 0.081789 0.071840 -0.067542 0.207558 -0.040725 0.065021 -0.018806 0.067796 0.001567 0.061850 0.050878 0.035572 0.041725 0.108029 0.132673 -0.027298 0.107919 -0.052233 -0.129391 -0.016404 -0.009844 -0.190482 0.044257 0.065697 0.134953 -0.155169 -0.074627 0.114272 -0.001838 0.127043 0.048708 0.102595 0.051298 0.008241 -0.104298 -0.096400 -0.108684 -0.110268 0.195733 -0.268893 -0.128721 0.099368 -0.046472 -0.107662 -0.024736 -0.030533 -0.075254 -0.125169 -0.005458 -0.044698 -0.035387 -0.078061 -0.107484 0.076831 -0.103925 0.143067 0.063843 -0.103662 -0.034087 -0.042166 0.018915 -0.125606 -0.103704 -0.063672 0.098493 -0.093402 0.012702 0.031427 0.244421 0.127790 -0.082711 -0.136326 -0.088072 -0.125334 0.124503 0.132598 -0.013547 0.061238 -0.093751 0.029983 -0.077167 -0.041569 0.021953 -0.036698 -0.017363 0.049795 0.010873 0.036590 0.053390 0.088683 0.094334 -0.114345 -0.036832 0.013964 0.074402 0.251475 -0.122060 -0.196286 -0.027661 -0.054264 -0.108406 0.098039 0.058419 -0.183910 0.004973 -0.170307 0.069944 0.082580 -0.006184 -0.053907 0.012084 0.036673 -0.076728 0.063277 -0.053957 0.240637 -0.038093 -0.081245 -0.110823 0.014050 0.058861 -0.081593 -0.094659 0.024932 -0.095747 0.036915 0.025094 -0.052304 0.067375 -0.090347 -0.055946 0.014715 -0.128316 -0.141570 -0.197804 -0.126860 0.045990 0.038587 0.004800
-0.100400 0.023217 0.079573 -0.132625 -0.320097 0.092961 0.020517 -0.063541 -0.060959 -0.024633 -0.058134 0.051432 -0.116443 -0.121917 -0.036518 -0.154868 0.029157 0.238682 -0.029460 0.106619 -0.109541 -0.020522 -0.146288 0.020707 -0.081128 -0.088552 -0.018917 0.054616 0.014461 -0.198231 0.039147 -0.157027 0.066043 0.086923 0.095978 0.189959 -0.070917 0.039945 -0.139902 -0.070284 0.120943 -0.071235 -0.043693 0.145374 -0.058942 -0.079839 -0.093962 0.035622 -0.065470 -0.078281 0.079686 -0.040958 -0.027265 0.085749 0.106185 0.112182 -0.094308 0.126321 0.021323 -0.036820 0.195621 -0.113485 -0.069669 0.010532 0.093909 0.033379 -0.036093 0.064043 -0.144180 0.165388 -0.037177 0.139334 -0.117007 0.058332 -0.119818 0.125636 0.037417 0.071493 0.009963 0.091348 -0.015377 -0.038807 -0.192235 0.155127 -0.054792 -0.028678 -0.090243 0.149324 -0.004515 -0.134752 -0.023157 0.042711 0.142650 -0.054235 0.184034 -0.060287 -0.065704 -0.027114 0.068922 0.094736 -0.001611 -0.000315 0.044247 0.061812 -0.036587 0.135542 0.098530 0.024855 0.076811 -0.183377 0.171183 -0.031004 -0.073352 -0.149735 0.010315 -0.022358 0.112940 -0.005435 0.171592 -0.142966 0.060432 0.038229 -0.035593 0.231490 0.063112 0.014057 0.061875 0.241696 0.087328 -0.027014 0.095737 -0.083992 -0.076314 0.022347 -0.050235 -0.008469 -0.091307 -0.000249 -0.144239 -0.098670 0.029729 0.080379 0.070022 -0.059857 0.085756 -0.173595 0.033543 0.123865 -0.060940 -0.067937 0.221589 0.098372 0.011710 -0.078558 0.005201 -0.001857 0.043066 -0.140470 -0.214259 0.030979 -0.069358 0.111565 -0.157279 0.005022 -0.222566 0.069710 0.135662 -0.033687 0.223546 0.038238 0.088930 -0.041064 -0.156430 0.302805 -0.051486 0.019565 0.092599 0.163932 0.013071 -0.179120 0.045454 0.034238 0.054230 -0.050080 0.105465 0.011680 -0.088441 -0.023023 0.053357 0.231632 -0.201547 0.050256 0.105003 -0.071633 -0.045200 -0.091504
