0.151704
0.061642
-0.114330
-0.219885
-0.101885
-0.067866
-0.132986
0.104431
-0.005495
-0.081153
0.126891
-0.018182
-0.090895
-0.014158
0.156613
-0.104392
0.030393
-0.075621
0.160351
0.055677
-0.011273
0.114107
0.022351
0.088193
0.100586
-0.026884
-0.098650
0.113753
0.068235
0.076292
0.058004
0.101236
-0.161032
-0.159646
-0.091199
-0.082866
0.054158
0.102138
-0.347128
-0.248973
-0.007052
-0.166157
0.135246
-0.169873
-0.023767
-0.083788
0.007299
-0.055740
-0.146595
0.014581
0.154558
-0.181170
0.179711
-0.146881
0.157461
0.169760
-0.057069
-0.063043
-0.020967
0.082778
0.076090
-0.102722
0.085788
0.058642
-0.072704
0.082334
-0.088634
0.234597
0.218675
-0.011368
0.031020
-0.052882
0.093492
0.045129
-0.024195
0.102471
0.122445
0.030971
0.129124
0.292672
0.024692
0.083043
-0.016259
-0.034839
-0.030574
-0.097312
0.053578
0.038721
-0.018623
0.033340
0.071928
0.270474
0.087406
0.119680
0.069425
0.070391
0.036420
0.245665
0.246340
0.149019
-0.009511
0.108147
0.006577
-0.118669
-0.195147
-0.025830
0.034383
-0.081186
-0.191614
0.027736
0.031149
0.054985
-0.055663
0.046094
-0.099273
-0.037903
0.153637
0.031176
0.108414
0.013114
0.153779
-0.055743
-0.155430
0.056195
0.058284
0.062655
-0.013737
0.221217
0.075644
-0.180168
-0.100492
0.087612
0.008891
0.115778
0.117885
0.206901
-0.005557
-0.117166
-0.087229
0.081186
-0.141159
-0.120175
0.088014
0.150050
0.054102
-0.200674
-0.016282
0.196262
0.007979
0.129388
-0.077669
0.062264
-0.015717
0.065345
0.208115
0.025022
-0.156179
0.009859
0.124469
0.156781
0.109482
0.037783
0.035066
0.055997
0.051664
0.073919
-0.054294
0.025553
-0.120778
0.175001
-0.036757
-0.003972
0.035198
-0.096730
-0.019792
0.046143
-0.039553
0.221337
0.125924
0.032168
0.092315
-0.025928
0.147512
0.129070
0.051360
0.099940
-0.155222
0.037745
0.113394
0.117665
0.034690
-0.013292
-0.192885
0.077152
-0.001856
0.031727
-0.066859
0.094258
0.105325
0.321860
-0.164293
0.051999
0.170923
0.214634
0.006038
0.261388
-0.048222
0.010142
-0.032108
0.084685
-0.043054
0.007185
0.009056
0.021774
0.216854
0.136488
0.034321
-0.060713
0.104444
-0.000181
0.040105
0.226954
-0.073226
-0.085805
0.039655
0.085839
-0.041948
-0.071375
0.163266
0.058361
0.004759
-0.121254
0.075264
0.050879
0.270963
0.151899
0.101265
0.164000
0.003010
-0.014889
0.137314
-0.009589
0.022377
-0.025384
0.175314
0.266271
-0.057070
0.227938
0.081639
0.040569
-0.008946
-0.135889
-0.085515
0.280260
0.071785
0.246706
0.016831
0.080915
-0.175405
0.107107
-0.085562
0.235764
-0.024659
0.034775
0.179984
0.279285
0.037392
0.039094
0.042860
0.041000
0.158369
-0.187190
0.058361
0.141159
-0.118653
0.184252
0.044616
0.010870
-0.059187
0.110717
0.138691
0.052249
0.125174
0.081050
0.122996
-0.080718
-0.005519
0.101032
0.132432
0.035877
0.007871
-0.061129
0.079193
-0.003651
0.154899
0.105142
0.122956
0.182075
0.150726
-0.055284
0.039786
-0.042431
0.083800
0.139537
0.141003
-0.006430
0.183319
0.136393
0.081313
0.015562
0.017822
0.135236
-0.016180
0.341773
0.077031
0.105712
0.164035
0.125568
0.148138
0.034022
-0.054104
0.203188
0.103235
0.014199
0.090640
0.163374
0.101396
0.047125
-0.022033
-0.076315
0.180880
0.071643
0.186068
-0.024484
0.059690
0.033134
0.186470
0.044173
-0.028050
0.091204
0.071032
0.034603
0.027157
0.250953
-0.156492
0.098203
0.237630
0.007033
0.014355
0.159029
-0.050385
-0.042707
0.097576
0.081723
-0.079480
0.069166
0.036153
0.013586
-0.044630
0.066254
0.061620
-0.029763
0.055690
0.329481
0.054916
0.093488
0.128477
-0.010418
0.103636
0.145481
-0.100625
0.126534
0.081418
0.149560
-0.032450
-0.073699
0.044120
-0.033877
0.061072
0.031728
0.157971
0.128676
-0.015122
-0.082254
0.177654
0.003350
0.013966
0.110848
0.010799
0.001217
0.096641
-0.038742
0.036566
0.116895
0.212263
0.165038
0.180674
0.070204
0.043386
0.201746
0.087117
0.030447
0.082789
-0.063786
-0.007681
0.013121
0.034634
0.034902
-0.153792
-0.093319
-0.069061
0.143517
0.125199
0.254714
0.083930
0.037481
0.168513
0.202170
0.203761
0.225707
0.130490
0.101354
0.188795
0.114806
0.333046
0.063788
0.002096
-0.047277
0.112962
0.052255
0.075594
0.193045
-0.038944
0.107978
0.163182
0.199757
0.146322
0.173201
0.209576
0.012064
-0.017562
0.208814
0.034798
0.024764
0.050189
0.087779
0.082677
0.027656
-0.133974
-0.083598
0.055269
0.032607
0.146692
0.059274
0.013574
0.031124
-0.092172
0.096139
0.210133
0.087922
0.039353
0.100855
0.100048
0.046132
0.005526
0.200912
0.120411
0.186715
0.034882
0.076688
0.077741
0.070666
0.111322
0.126123
-0.159576
-0.004647
-0.003657
-0.047891
-0.035657
-0.002888
0.096414
0.208933
0.098669
0.116890
0.216539
0.016296
0.147372
0.051232
0.130587
-0.121374
0.186973
-0.019705
-0.065957
0.227299
0.060744
0.098515
0.032855
0.122616
0.113695
0.067825
-0.020581
0.087218
-0.162474
0.129164
-0.050994
-0.072104
-0.045152
0.093422
-0.002899
0.073150
-0.020527
0.072978
0.189003
0.051169
0.064842
0.076857
0.045166
0.148912
0.196830
0.258642
0.134806
0.300089
-0.066235
0.122953
0.114385
-0.105284
0.046093
0.031310
0.070249
0.135593
-0.110393
0.087718
-0.234937
0.042286
0.164773
-0.028796
0.119809
0.061267
0.203732
-0.056929
0.260469
0.159646
-0.038701
0.090801
0.016390
-0.057005
-0.043415
0.219900
-0.011865
-0.094798
0.078282
0.044421
-0.013083
0.085437
-0.076786
0.195151
0.096861
0.001692
0.093308
0.075722
0.099372
-0.066561
0.108335
0.061941
0.190333
0.064175
-0.057014
0.034012
0.096221
0.002586
0.015002
-0.032122
-0.057675
-0.075857
0.004609
0.164554
0.026271
0.153354
-0.054446
0.191440
0.151435
-0.219851
0.025373
0.110597
0.098133
0.068255
-0.036910
-0.110313
-0.149942
-0.116980
0.007076
0.029429
0.016356
0.022166
0.050302
-0.144025
0.006707
0.065354
0.078488
0.188498
0.111862
0.044714
-0.110113
0.010316
0.086033
-0.024542
-0.188922
0.275787
-0.009312
0.100209
-0.004701
0.030620
0.004287
0.051499
-0.159288
-0.086925
0.158065
0.043153
0.012913
-0.009761
-0.070875
0.091985
0.111690
0.003985
-0.131876
0.041503
0.160512
0.000145
0.140746
0.113171
0.105867
-0.028867
-0.026868
0.105633
0.186740
0.187769
0.036163
-0.002733
0.015693
-0.089095
0.005402
0.215634
0.159278
-0.145700
0.053883
-0.065041
-0.045256
-0.005224
0.062909
-0.008188
0.117826
0.098579
0.074511
0.039849
0.241085
0.162037
0.009806
0.160423
0.150116
0.065868
0.034606
-0.084715
0.084703
0.175560
0.094143
-0.201295
0.234707
0.029893
0.013343
-0.202498
0.148619
0.092089
0.058078
-0.042902
-0.000705
0.093640
0.114171
0.019637
0.167404
0.020370
0.019022
0.172498
-0.066206
-0.048960
0.020121
0.074073
0.179329
0.014561
0.129937
0.097858
0.101532
0.121006
-0.221044
0.051784
0.029069
-0.011526
-0.167695
-0.156961
0.000284
-0.040855
-0.065445
-0.199996
-0.078253
0.037831
-0.057086
0.131722
0.041241
0.120703
0.076889
-0.116034
0.199060
0.165731
0.008015
0.144273
0.084309
0.171166
0.192673
0.038667
0.179517
0.155161
0.023819
-0.073231
-0.022719
0.000819
-0.001651
-0.170060
0.011006
-0.010594
-0.038507
-0.024273
0.228774
0.007343
0.169141
-0.059078
-0.076263
0.117577
0.121371
0.049674
-0.037555
-0.003155
0.023219
0.005354
-0.129446
0.056974
0.037297
-0.256928
0.074594
0.019979
0.114571
-0.161102
0.012917
-0.107527
-0.025578
0.101550
0.064778
-0.144451
0.180021
-0.102799
0.033648
-0.115384
-0.165068
0.074562
0.091621
-0.012964
0.064321
-0.013929
0.020297
-0.135881
0.045117
-0.046235
-0.063320
-0.023696
0.039465
0.104657
0.018394
-0.008161
0.153763
-0.073994
-0.142892
0.011158
0.014283
-0.127638
0.146067
-0.025044
