-0.010194 0.118460 -0.089198 -0.060864 -0.001370 -0.028704 -0.044368 -0.028417 -0.073373 0.103529 0.001203 0.051041 -0.044537 -0.021138 -0.007374 0.067901 0.049081 0.025310 -0.069714 0.042602 0.097707 -0.089995 0.027305 -0.008172 0.064692 0.104472 0.081204 -0.004391 -0.020967 -0.040827 -0.004135 0.061465 -0.050542 0.002963 0.026309 0.072591 0.095799 -0.016501 -0.032182 -0.055401 -0.025690 0.031588 -0.053426 0.155969 -0.000426 -0.002893 -0.077741 -0.023007 -0.038524 -0.050328 -0.015971 0.030033 -0.136183 -0.074162 -0.001781 -0.024806 0.023829 -0.152090 -0.089682 0.042537 -0.037837 -0.063106 -0.063362 -0.006811 0.027012 -0.027946 -0.061373 -0.049628 -0.002548 -0.041540 -0.083183 0.023499 -0.010399 0.023785 0.070631 0.041407 0.067394 -0.020090 0.090324 0.011860 0.113894 0.013457 0.008073 0.064425 -0.091077 -0.080519 0.053355 -0.058470 -0.030011 0.153197 0.156840 0.006832 0.021871 0.074004 -0.003770 -0.095836 -0.009287 -0.044515 -0.075629 -0.097124 -0.108894 0.012159 0.025285 -0.047834 -0.059199 -0.044790 0.052740 -0.014348 -0.091099 0.072603 0.002122 -0.004667 0.082420 -0.065350 -0.038712 -0.023073 0.029449 0.033641 -0.073608 -0.022065 0.072220 0.056865 -0.053614 -0.014559 0.043524 -0.116333 -0.266721 0.015242 -0.044805 0.050414 -0.048955 -0.039412 -0.013206 0.020538 0.049533 -0.035293 0.130884 -0.168140 -0.001660 0.014481 0.004237 -0.000131 0.046326 0.039943 0.068380 -0.069542 0.001868 0.054545 -0.058843 0.036213 0.065985 -0.014265 0.160675 0.032174 -0.145663 -0.086385 0.068315 0.016381 0.127607 -0.009594 -0.081999 0.052865 0.011525 0.046802 -0.045894 -0.066707 0.093901 -0.105581 0.044834 0.020597 0.000012 0.100130 -0.082664 -0.174244 -0.031876 -0.064727 0.168785 -0.145323 -0.045511 -0.091251 0.109302 0.044270 -0.019244 -0.007467 -0.070340 0.019276 0.108396 0.018166 -0.106308 0.030246 0.023884 -0.023215 0.065707 -0.065428 0.036038 0.113596
0.052046 0.023172 -0.005988 0.027296 0.051822 -0.005752 0.027849 -0.002315 0.018793 0.074630 0.020254 -0.028562 -0.045979 0.101810 0.013877 0.027405 -0.056451 -0.021845 0.012126 -0.103546 -0.079726 -0.208056 0.102672 -0.017990 0.057576 0.000301 -0.054478 -0.026790 0.040248 0.011025 0.041587 -0.056765 -0.204560 0.084901 0.043160 0.104341 0.102154 0.011896 -0.032428 0.032227 -0.022166 -0.086686 0.059679 -0.017418 -0.012927 -0.016563 0.012729 0.040027 -0.024402 0.091907 0.112843 0.059856 -0.047640 -0.020512 -0.007427 -0.005001 -0.027104 0.027756 0.123043 0.051115 -0.120776 -0.082085 0.114939 -0.061022 0.011420 0.052849 0.022518 -0.031153 -0.102442 -0.027178 0.075051 -0.140278 -0.029140 -0.041577 0.004304 0.004639 0.108884 0.061040 0.061587 -0.066841 0.065129 0.082405 0.008800 0.084349 0.061711 0.060904 0.140980 -0.042483 0.041719 0.106345 -0.105462 0.060324 0.034334 -0.025035 -0.105359 0.014365 -0.105895 -0.085635 -0.160851 -0.027902 -0.138332 0.009324 0.032392 0.059683 0.079935 0.008489 -0.072712 -0.033745 -0.158385 0.057156 -0.004359 0.031865 -0.018892 0.090900 0.117979 0.048452 -0.027919 0.004598 0.031260 -0.186343 -0.048330 0.009587 0.011351 -0.014036 -0.088119 -0.032699 -0.089326 -0.003210 -0.092127 0.111557 -0.055999 0.119263 -0.055814 0.078530 0.123859 0.042165 0.010129 0.025020 0.029631 -0.027706 -0.029544 0.056224 0.001619 -0.105720 0.028799 -0.034575 0.019071 -0.068321 0.074866 -0.015307 -0.065884 0.077672 0.091596 -0.047710 0.093291 0.052730 0.102307 -0.029990 -0.046331 0.000667 -0.061213 0.037854 -0.135802 -0.026546 0.048160 -0.040143 0.034340 -0.058904 0.065989 0.023799 -0.082621 -0.013900 0.016579 0.073878 0.055186 0.098713 0.024931 -0.032668 0.066052 0.135615 0.008734 -0.083030 0.138938 0.048389 -0.060225 -0.040249 -0.096245 -0.061862 -0.031905 -0.051939 0.024544 0.015243 0.124649 -0.024332 0.053597 -0.114212
0.097563 0.031848 0.041169 0.079351 -0.007075 -0.108391 0.027903 -0.004624 0.054743 -0.054843 -0.087235 -0.077587 0.023241 0.021670 0.028883 0.101662 -0.003673 -0.047105 -0.001368 -0.043839 -0.028498 -0.026841 -0.090814 0.080438 0.059863 0.006092 -0.032336 -0.086792 -0.103789 -0.019672 -0.012748 -0.065164 -0.104107 0.097208 0.020632 -0.055741 0.036648 0.005615 -0.000053 -0.011803 -0.069806 -0.032053 0.037080 -0.016384 0.050915 0.082888 -0.011686 -0.175325 -0.074335 0.053191 0.070551 -0.050850 -0.086095 -0.033081 0.059794 -0.032968 -0.033287 -0.000273 -0.092742 -0.066637 -0.040807 0.057424 -0.003884 -0.009427 -0.078312 0.068275 -0.065360 -0.048675 0.115498 0.110193 -0.000779 -0.041076 -0.228022 0.053299 -0.027270 0.015974 0.148942 -0.077883 -0.006474 -0.067621 0.105621 -0.039126 -0.030540 -0.052427 0.095887 0.061214 -0.052952 -0.076491 0.035407 0.024449 -0.087451 -0.081609 0.095962 0.063698 -0.008760 0.030261 -0.076235 0.025989 -0.020132 0.061290 -0.052549 -0.014725 0.020648 0.071532 -0.014654 0.110020 -0.075978 -0.012780 -0.058348 -0.016548 0.137698 0.001590 -0.018119 -0.149832 0.089007 -0.017495 0.068892 -0.080763 -0.143273 -0.036454 -0.053248 -0.050905 -0.122632 -0.092916 -0.092508 -0.126941 0.025045 -0.050286 -0.090669 -0.062271 0.094702 -0.093431 -0.019409 0.028965 0.099693 0.132403 -0.026780 -0.054980 -0.031766 -0.061968 -0.018159 0.047078 0.102704 0.109718 0.067272 -0.087155 0.051883 -0.174570 0.001009 0.117017 0.096278 0.012191 -0.079598 0.012782 -0.092317 -0.005655 0.136589 0.014485 0.049262 -0.076846 -0.009039 0.075629 0.112796 -0.027841 -0.036967 0.060283 -0.178254 -0.029237 -0.010198 -0.009063 -0.009262 -0.005909 0.028188 -0.042729 0.052008 0.012293 -0.047360 0.012722 0.151215 0.131522 -0.065031 0.010967 0.011411 -0.052682 -0.100330 0.137223 0.050241 -0.019160 -0.076099 0.019555 -0.098207 0.041992 0.001577 -0.100428 -0.037749 -0.098856
-0.019797 -0.145810 0.064575 -0.131592 -0.054200 0.141500 -0.213488 -0.079384 0.032620 -0.031727 0.008035 0.052182 0.181496 0.092624 0.033692 -0.030568 0.079306 0.025399 0.090074 0.022887 0.006684 0.092021 -0.151054 0.080913 -0.008181 -0.015004 -0.032171 -0.040745 -0.067532 0.035533 -0.001345 0.014614 0.023506 -0.130465 -0.018884 -0.074425 -0.013605 -0.050792 0.066229 0.119950 -0.013091 0.033372 0.038822 0.046393 0.061790 -0.146025 0.046466 -0.055614 -0.008546 0.123213 -0.036724 0.019170 -0.032844 -0.182785 0.018261 -0.185268 0.107868 -0.018586 0.159848 0.007959 -0.091817 -0.117238 -0.004788 0.064073 0.065514 -0.031333 0.060124 0.094905 0.144677 -0.016973 0.002265 -0.001182 -0.054379 0.030688 0.111803 0.105849 0.047762 0.116984 -0.031873 0.123926 0.052608 0.111223 -0.033478 0.050784 0.060757 0.069016 -0.092131 -0.052335 0.050046 -0.048404 0.085926 0.062627 0.085760 -0.058226 -0.072768 0.208248 -0.045194 -0.114883 -0.075200 0.048806 0.052870 0.056296 -0.084029 -0.085378 0.018671 -0.081705 0.090509 0.138722 0.013180 0.183866 -0.063172 -0.006155 0.078954 0.041295 -0.039719 0.094130 -0.192401 -0.027254 0.096688 -0.079087 0.177201 -0.010514 0.089125 0.084834 0.063798 0.001421 0.031239 -0.007768 -0.057703 -0.012822 -0.088686 -0.060734 0.105354 -0.018843 0.025336 0.069067 -0.006743 0.101491 0.096165 0.167172 -0.020432 0.107161 0.078802 -0.040369 -0.066679 -0.118908 -0.047844 -0.017225 -0.050077 0.002552 -0.051716 -0.175030 -0.108487 -0.020408 0.016347 -0.031467 -0.005162 -0.022853 -0.050087 0.022644 -0.011197 -0.044595 0.081531 0.006898 0.031321 0.040847 0.079194 0.050841 0.048451 -0.021803 -0.000627 0.043157 -0.031881 -0.115795 -0.023188 0.017467 0.086815 -0.094320 -0.168797 -0.103512 -0.029906 0.056349 0.013518 0.101680 0.107024 -0.115380 -0.162869 -0.079687 0.011575 0.035522 0.013807 -0.000033 0.083335 -0.008557 0.084615 0.095007
0.016129 -0.014853 -0.099561 0.019122 -0.059619 0.018226 0.089637 -0.061401 0.031600 0.005894 -0.061510 -0.029157 -0.095702 -0.050203 0.022658 0.030502 0.031168 -0.030211 0.066579 0.069926 -0.047235 -0.012999 -0.091543 0.031905 0.031526 -0.139205 0.046365 -0.017316 0.091355 -0.061332 -0.042237 -0.054616 -0.041427 -0.045277 0.061522 -0.055789 0.005766 -0.022563 -0.012584 0.141091 -0.008877 0.094869 -0.036245 0.077022 0.029103 0.116841 -0.061761 0.054352 -0.071987 -0.106315 0.036405 0.013194 0.056440 -0.048808 0.065205 0.004530 0.049803 0.013004 0.128719 -0.006573 -0.012806 -0.035710 -0.018558 0.001774 -0.031462 -0.034036 -0.032299 -0.057513 0.002486 0.001294 0.003615 -0.093390 -0.112054 -0.005503 -0.108409 -0.067134 0.037608 -0.011672 -0.048956 0.101894 -0.094028 -0.038204 0.066928 -0.098640 0.125036 0.151802 0.043251 -0.061443 0.018022 -0.077878 0.007135 -0.108117 0.040160 0.013995 -0.096585 -0.022670 -0.047002 -0.126746 -0.065295 -0.012263 -0.013236 0.115742 0.024318 -0.086865 -0.009842 -0.011972 0.066908 -0.021569 -0.029791 -0.041172 0.022223 -0.063523 -0.124999 0.001183 -0.031339 0.005748 -0.103406 0.103243 -0.033155 0.015535 0.041538 0.086130 0.044603 0.028499 -0.069859 0.106357 0.065665 -0.011280 -0.007939 -0.095265 0.068152 0.117750 0.045446 0.007401 -0.035701 0.052434 0.128043 0.132261 -0.068689 -0.116312 0.018684 0.054960 -0.012032 0.061289 -0.010154 0.020959 0.030081 0.077861 0.063955 -0.068889 0.066514 0.068126 -0.035128 0.071081 -0.051270 0.010681 -0.015773 0.109826 -0.042306 -0.003265 -0.080376 0.025936 -0.087694 0.047697 0.153744 0.041308 0.069465 -0.068746 0.043429 0.119165 0.038251 0.038043 -0.007452 0.005816 -0.099271 0.035269 -0.037008 0.069092 -0.032972 0.057303 0.118177 -0.066891 -0.152812 0.063097 -0.049870 -0.044523 0.095164 -0.056044 0.044198 -0.114785 0.034594 0.048879 -0.084960 0.077458 0.054555 -0.012998
-0.019214 -0.017445 -0.012603 0.022337 -0.020292 0.084934 -0.000580 -0.054978 -0.024628 0.022775 -0.011402 0.016827 -0.019433 -0.028152 0.119716 -0.175459 -0.061508 0.078126 -0.130190 0.040374 0.110817 -0.062403 0.012948 0.084629 -0.062328 -0.025071 -0.050885 0.099751 0.046143 0.016997 -0.010613 -0.135697 -0.087769 -0.069996 -0.000206 -0.059825 -0.019120 -0.122757 -0.153545 -0.023134 0.112986 -0.092392 0.050081 -0.022633 -0.094941 0.064127 0.041868 0.015962 -0.006045 0.071325 0.107802 0.054096 0.057402 0.114514 -0.062875 0.010317 -0.032420 0.015551 -0.073854 -0.038841 -0.038951 -0.162105 -0.009122 -0.040459 0.014486 -0.066042 -0.015898 -0.094753 0.114100 0.028623 0.108599 -0.083466 -0.069824 -0.097374 0.091609 0.035440 0.100943 0.044668 0.025051 0.063390 -0.118945 0.027018 0.056841 -0.095136 -0.051414 -0.107158 -0.021101 -0.034442 -0.081069 0.004437 0.014130 -0.042281 0.057828 0.030875 -0.062178 0.163437 -0.035028 -0.111125 -0.063432 0.070973 -0.009854 -0.087506 0.003339 -0.029214 0.063938 -0.026213 0.049195 -0.031078 0.017294 0.084541 0.111052 -0.077894 0.069418 -0.042999 -0.048100 0.052130 0.073363 -0.041121 -0.057060 0.030199 0.059623 -0.113273 -0.070718 -0.060373 0.024783 0.118042 -0.200159 -0.089788 0.074703 -0.085877 -0.112889 -0.141807 0.057880 0.050944 -0.091433 -0.079217 0.012700 0.094418 0.016913 0.021354 -0.021088 -0.136089 -0.046665 0.118554 -0.076492 -0.030423 -0.034811 0.001705 -0.261546 -0.122104 -0.060282 -0.149671 -0.002893 0.063589 -0.124428 0.060390 -0.086975 -0.079742 -0.050687 -0.128140 -0.076253 0.034510 0.134573 0.068611 -0.006035 -0.023295 0.023902 -0.133891 0.046885 0.018998 0.011865 0.061238 0.097971 -0.190055 0.127604 -0.168972 -0.144714 -0.013337 0.032296 -0.026792 -0.067414 -0.104944 0.187093 -0.024010 -0.092015 0.071550 -0.152630 0.041448 0.036694 -0.008366 0.021193 0.097079 0.014754 -0.127961 0.054465 0.054290
-0.003855 0.049203 0.131284 0.087281 -0.048636 0.034915 0.007759 0.082913 -0.052434 -0.046348 0.059354 0.098357 -0.012915 -0.118877 0.046095 -0.020934 0.062019 -0.022712 0.007178 0.047177 -0.039176 -0.187020 -0.040157 -0.037699 -0.065703 -0.048991 0.049643 -0.027359 -0.040800 0.148406 -0.000899 -0.049095 -0.049928 0.074179 -0.069996 -0.010667 -0.102573 -0.044875 0.095206 0.100006 -0.054017 -0.033331 0.042944 0.018067 0.049571 0.026395 -0.046345 -0.044797 -0.000744 -0.052190 -0.043923 0.124027 -0.024318 -0.018990 0.065163 0.007535 -0.128976 -0.018195 0.057747 0.077420 -0.114416 0.030377 0.006922 -0.001192 -0.007497 0.002957 0.049306 0.002475 0.016715 0.038272 0.044206 0.103107 -0.170223 -0.102274 -0.010686 0.023760 -0.053831 -0.012534 -0.090529 0.070848 0.081988 0.075856 -0.034531 0.007206 0.014501 -0.054342 0.035944 -0.016460 -0.020319 0.024652 0.041076 -0.096765 -0.062935 -0.040980 0.008254 -0.039038 0.073349 0.025257 -0.054894 0.059807 -0.025067 -0.006071 -0.080736 0.133673 -0.071511 0.034767 0.020086 0.004785 -0.142476 -0.090353 0.016003 0.010753 0.171289 0.027441 -0.001549 -0.000540 -0.080156 0.023920 -0.027530 0.100776 0.162679 -0.056027 0.083784 0.165997 0.095850 -0.053816 0.031853 -0.005558 -0.067933 0.018853 -0.056968 0.098423 -0.020531 -0.100920 0.071299 0.027869 0.145601 0.035694 0.195943 0.069294 -0.084115 0.023307 0.086627 0.014803 0.026597 -0.152359 0.052146 0.104606 0.043321 0.048755 -0.064131 0.014216 0.145517 0.033463 0.106296 0.037850 -0.042351 -0.061820 0.053656 0.008737 -0.070084 -0.020380 -0.098195 -0.023967 0.087235 -0.083099 -0.016739 -0.011041 0.049180 0.088207 0.005942 -0.017650 0.134595 -0.018423 -0.004414 -0.036871 0.151345 -0.086212 0.028495 -0.053569 0.037633 0.126985 0.063184 0.026791 -0.045818 -0.066245 -0.006512 -0.039528 -0.033927 -0.079330 0.024833 0.019619 -0.057004 0.007093 0.136903 -0.041484
0.062264 -0.032120 0.033592 -0.077645 0.027857 -0.036112 -0.021348 0.044723 0.068882 0.069932 0.022070 0.031504 0.058926 -0.051901 -0.079839 0.095828 -0.041047 0.061092 0.021531 0.208935 0.026226 0.006614 0.081436 -0.116896 0.098675 0.063260 -0.060400 0.001095 0.017864 -0.075972 0.071352 -0.017202 -0.021783 -0.045175 -0.016159 -0.054645 0.043349 0.010270 -0.085918 -0.033461 -0.098259 0.107496 0.014149 0.055118 0.044253 -0.011740 -0.084238 0.008021 -0.002100 -0.001500 0.039334 0.062956 -0.116943 0.063496 0.021570 -0.042518 0.036168 -0.037265 0.072069 -0.049370 -0.160102 -0.006605 0.006174 0.005907 0.060263 0.088762 -0.066967 -0.145596 -0.087176 0.083175 -0.249609 -0.007202 0.074679 -0.049588 0.056362 0.038762 0.100455 0.037104 0.100840 -0.063167 -0.024532 0.054571 -0.140579 0.088530 0.086851 0.053975 0.027838 -0.130988 0.003592 0.012470 0.071224 0.132728 0.014197 0.088560 -0.106149 0.113947 -0.078033 0.002760 -0.016794 0.051630 0.085358 -0.058759 -0.027543 -0.086821 -0.056102 -0.116569 -0.030753 -0.145104 0.019036 0.007598 0.145807 -0.076510 -0.032943 -0.145712 0.005294 -0.115670 -0.034649 0.017543 -0.115150 -0.120774 -0.055566 -0.060332 0.149080 -0.078962 0.015546 0.008465 -0.148723 -0.061287 -0.088887 0.060719 -0.079694 0.027575 0.107227 0.049964 -0.041430 0.071115 0.030803 -0.192973 0.124605 -0.113630 -0.110075 -0.025418 -0.001008 0.120775 0.142883 0.017614 0.112522 0.029852 -0.102238 0.069331 0.032008 -0.069688 -0.054384 0.056461 -0.083033 -0.055499 0.034719 0.047136 -0.044025 0.013740 -0.072475 0.004305 -0.127753 0.076190 0.080687 0.072017 -0.070631 0.041519 -0.141537 0.069830 0.032056 -0.035665 -0.121384 0.046941 0.009384 -0.051789 0.010524 -0.011364 0.014374 0.019972 0.004321 0.047485 -0.144528 -0.026964 -0.014359 0.001530 -0.041352 0.077620 -0.000957 0.064973 0.063040 -0.110038 -0.009500 0.030724 0.111004 0.009656
-0.038861 0.046305 0.007573 0.037954 -0.000359 0.015450 0.053444 0.130700 -0.027388 0.003273 0.012658 -0.012509 -0.059121 0.025236 0.166631 -0.022684 -0.020564 -0.105513 -0.020305 0.069018 -0.029630 0.146007 -0.049645 0.029450 0.014377 0.069629 -0.063186 -0.060538 0.021358 0.024544 -0.080553 -0.296184 0.002866 -0.084553 0.066530 0.027119 -0.049308 0.096468 0.021019 -0.023722 -0.122732 0.005246 0.020545 0.027706 0.057736 -0.050042 0.002138 -0.016728 0.061636 -0.052832 -0.123531 0.002477 -0.008464 0.017521 0.084566 -0.089558 -0.015465 -0.033510 0.023842 -0.037993 0.063855 0.026131 0.061686 0.021121 0.059908 0.097889 -0.042309 -0.167291 -0.087974 0.200291 0.016130 -0.044105 -0.031835 -0.150940 -0.338129 -0.059223 0.039415 0.056662 -0.081176 0.033352 0.003586 -0.017602 0.032050 0.077171 0.013153 -0.013348 -0.101382 -0.069008 0.041545 0.042977 -0.049448 0.064783 0.107428 0.036938 0.033844 -0.001154 -0.012459 -0.000460 0.119089 -0.034843 0.061702 -0.071728 0.001671 -0.020759 -0.060656 0.019469 0.048287 0.100801 -0.061295 0.005470 -0.027778 0.057270 -0.064614 -0.109216 0.070894 -0.039078 0.206653 0.060983 -0.022721 0.192550 0.123478 -0.004807 0.116327 -0.089428 0.110159 -0.034632 -0.008619 0.032346 0.112045 -0.167727 0.010459 0.033885 0.032462 0.020699 -0.022967 -0.000105 0.160898 -0.089135 -0.185663 0.020126 -0.014118 -0.112051 0.023330 -0.021875 -0.001270 0.046580 -0.140372 0.039826 0.094615 -0.013291 -0.118397 0.039350 0.028698 -0.086674 0.032897 -0.065178 0.017989 0.055823 -0.123184 -0.009317 -0.041437 0.052181 -0.037614 0.037159 0.088806 -0.100853 -0.049782 0.028609 -0.058250 -0.128333 -0.037374 -0.087559 -0.104054 -0.024362 -0.056311 0.062572 0.089692 0.058401 0.024499 0.076751 0.091807 0.060948 0.014160 0.124174 -0.083677 -0.057889 -0.065233 -0.005809 0.004535 -0.104546 0.174172 0.082163 -0.067066 0.025783 0.023110 0.029235
-0.003308 0.016102 -0.148240 0.039000 -0.077922 0.070083 0.034355 -0.057799 -0.060764 -0.007886 -0.040485 -0.063332 -0.065326 0.009559 -0.099228 0.047007 0.072056 0.113133 -0.001711 -0.023370 -0.041170 0.115967 -0.058032 -0.006899 0.043684 -0.015155 -0.088210 -0.076109 -0.025849 0.060274 -0.019585 0.140450 -0.063965 0.028140 0.041010 -0.001876 -0.096704 -0.041743 -0.105062 -0.047008 0.044214 0.011577 0.105214 -0.094635 0.024362 -0.225076 -0.073992 -0.058177 -0.028583 0.007890 0.163531 0.070944 -0.041864 0.005205 -0.022657 0.000913 -0.005700 -0.098884 -0.042156 0.021780 0.040395 -0.076103 0.047057 -0.008427 -0.009719 0.012784 -0.111276 -0.049511 0.003304 -0.220522 0.007055 -0.090477 0.100276 0.029219 -0.031098 0.142234 0.000516 0.009712 0.018998 0.051964 -0.014804 0.031900 0.017068 -0.057789 -0.017984 0.133174 -0.008700 -0.092315 0.014189 0.008435 -0.010007 -0.137434 0.043416 0.005993 0.174070 0.131399 -0.053720 0.083760 -0.127190 -0.020319 -0.045971 -0.118234 0.031345 0.004818 -0.014751 -0.131586 0.060323 0.127598 -0.083884 0.002541 -0.102011 -0.095096 -0.136925 -0.123759 -0.090535 -0.129339 -0.101020 -0.069612 -0.000313 0.016890 0.063953 -0.071656 0.001336 0.035494 -0.051390 0.017660 -0.163765 -0.163375 0.118730 0.063811 0.002847 0.090561 0.115235 0.014425 -0.041461 -0.003266 -0.147415 0.046875 -0.030447 0.021445 0.014573 -0.097586 0.076412 0.109510 0.009502 -0.018567 0.090922 0.025596 -0.094454 -0.078263 -0.002972 0.066128 0.076463 -0.034161 0.199577 0.026188 -0.093636 0.002221 0.034066 -0.086617 -0.083320 -0.113722 -0.157673 0.104270 -0.035111 -0.038195 -0.090157 -0.001460 0.064456 -0.064853 -0.082062 0.040937 0.109686 -0.032863 0.062536 -0.058274 -0.078695 0.106724 -0.079083 0.107871 0.172790 -0.032712 -0.112035 -0.052006 0.043663 0.005407 -0.101486 0.071842 -0.082052 -0.093454 0.105568 0.032365 -0.030614 0.018887 -0.005461 -0.033801
