-0.020143
0.034102
-0.045249
0.004710
-0.014264
0.119488
-0.039788
-0.036451
0.017184
-0.035044
-0.024405
-0.062778
-0.083826
-0.067524
-0.000417
-0.066959
0.077741
0.066927
-0.031738
0.013274
0.005707
-0.037145
-0.073557
-0.009600
-0.041971
0.013170
-0.040218
-0.006669
0.028755
-0.016912
0.145633
0.101041
-0.052818
0.086864
-0.025020
0.002987
0.064426
-0.004277
-0.133525
-0.108797
-0.109825
-0.051866
0.048662
-0.048531
-0.036873
-0.049266
0.018172
0.058554
-0.061270
-0.021934
-0.008613
-0.019242
-0.133039
-0.007019
0.127620
-0.027165
-0.040765
0.046733
-0.043055
0.013665
0.019224
0.057328
0.000799
0.038446
-0.027702
-0.025847
-0.029788
-0.049583
0.033769
0.082944
0.048443
-0.123656
0.083218
-0.023463
0.040828
0.032056
0.059698
0.005641
-0.055885
0.032454
0.001310
0.020301
-0.102671
0.046397
0.080395
0.024207
0.061164
-0.158183
-0.064383
0.019445
0.115443
0.053821
-0.010250
-0.008308
-0.077730
-0.077206
0.016139
-0.075059
-0.052502
-0.067125
-0.096667
-0.134084
0.066219
0.094257
0.036158
0.029268
-0.000715
0.007141
0.035530
-0.028684
0.020343
0.027174
0.023787
0.003077
-0.009820
0.017469
-0.048456
-0.039962
-0.031280
0.065867
-0.020709
-0.039867
-0.067064
0.050233
0.025014
0.033785
-0.066452
-0.018980
-0.041395
0.017253
-0.062261
-0.030936
0.026663
0.048637
-0.022969
-0.000404
0.102811
0.015940
-0.014087
-0.047104
-0.082712
0.057957
-0.076277
0.176380
-0.031368
0.024151
-0.002667
0.056738
0.000907
0.014411
-0.044028
-0.037915
-0.062646
0.015513
-0.041406
0.090904
-0.051401
0.065065
-0.045586
-0.030872
-0.003631
-0.003084
0.038743
-0.034505
-0.084891
0.051307
0.078634
-0.052183
0.015774
0.003896
0.002334
0.048033
-0.178049
-0.043132
0.008938
0.059454
-0.054509
0.023920
-0.011152
0.007841
-0.024032
-0.004752
0.001527
0.069813
-0.022776
0.018183
0.046209
0.004528
-0.007459
-0.026967
0.006543
0.056212
0.096064
0.013121
-0.018333
-0.033947
