-14.839585
-14.925639
-14.900454
14.969739
14.720809
14.757162
-14.765074
14.468399
14.766726
-14.692042
14.850210
-14.635934
-14.525015
14.903692
-14.631240
14.504850
14.382319
-14.378053
-14.716247
-14.314714
14.582591
14.763119
14.494141
-14.660636
-14.698013
-14.632684
14.799215
-14.660616
-14.829514
-14.645389
-14.907999
14.812380
14.499853
14.750818
14.630157
-14.816140
-14.696445
14.740326
14.710576
14.766379
-14.414528
14.668422
14.904211
14.554933
14.900212
14.465585
14.604355
-14.743779
-14.642322
14.789039
14.645740
14.969660
14.839790
-14.666508
-14.638110
-14.818052
14.770161
-14.868260
14.706977
-14.741423
-14.895173
14.976873
-14.610584
14.260556
-14.797198
15.057802
14.942803
-14.869056
14.607834
14.490566
14.587304
14.991133
14.731503
14.606930
14.736395
14.914390
-14.563766
14.347968
-14.941356
-14.862062
14.479177
-14.370407
14.560081
14.774688
14.442488
14.798027
-14.713087
-14.616653
-14.559771
14.686581
14.574279
-14.709486
-14.680331
14.803638
14.669836
14.671040
14.705213
14.751497
14.796806
-14.692841
14.881224
14.725005
-14.863828
-14.783119
-14.493194
14.953228
-14.805878
-14.542258
-14.571424
14.853953
14.634412
14.437495
14.817022
14.832294
14.378745
-14.737966
14.719738
-14.276671
14.627868
14.894431
-14.660860
-14.800308
-14.808473
-14.542004
-14.882013
-14.698899
14.750110
-14.790092
14.757760
14.717612
-14.505393
14.446946
-14.968869
14.758888
14.854368
-14.644262
-14.568849
14.602578
-14.601196
14.542322
14.902792
14.825125
14.617607
-14.854132
-14.654662
14.777178
-14.571259
-14.614448
14.268287
14.638925
-14.646651
-14.798826
14.551796
14.463088
14.814338
14.845834
14.552958
-14.596579
-14.603091
14.262119
-14.470545
-14.546492
-14.272642
-15.023386
-14.857805
-14.601603
-14.786669
14.599293
14.577923
14.942877
-14.292458
14.935367
-14.843110
-14.737248
14.756382
-14.667911
-14.650555
14.525710
-14.572813
14.800160
14.810419
14.744962
14.939276
14.373546
14.746080
-14.377920
14.759735
14.939256
-14.857152
-14.698366
14.749134
14.909464
-14.846611
-14.950664
-14.703872
14.826791
