0.981059
0.961494
0.923585
-0.975357
-0.947515
-0.931593
0.933704
-0.831032
-0.958254
0.926677
-0.953988
0.932425
0.926809
-1.000000
0.891595
0.523354
0.652715
0.847025
0.922959
0.869935
-0.923058
-0.962951
-0.919545
0.935588
-0.596863
0.917606
-0.949680
0.929031
0.922934
0.881857
0.941043
-0.970791
-0.894078
-0.881667
-0.930104
0.940295
0.936674
-0.915104
-0.934574
-0.993010
0.910641
-0.833228
-0.958254
-0.933265
-0.963474
-0.916315
-0.944994
0.943931
0.955850
-0.965782
-0.958454
-0.985840
0.560605
0.934153
0.936406
0.953851
-0.920430
0.925242
-0.943087
0.943333
0.936609
-0.944552
0.920716
-0.866024
0.879073
-0.994055
-0.956558
0.922593
-0.855322
-0.912803
0.569001
-0.976748
-0.948257
-0.938323
-0.982591
-0.940882
0.870480
0.564363
0.958483
0.939603
-0.934285
0.853963
-0.923412
-0.958070
-0.890648
-0.957975
0.944335
-0.559297
0.921922
-0.967882
-0.955532
0.929771
0.924144
-0.947619
-0.885166
-0.963080
-0.909457
-0.940028
-0.955232
0.903424
-0.986352
-0.955367
0.945381
0.938167
0.860856
-0.990600
0.821211
0.921371
0.902931
-0.982825
-0.947716
-0.868575
-0.904233
-0.986708
0.549675
0.894634
-0.970119
0.873909
-0.901734
-0.987907
0.904310
0.943907
0.980787
0.872621
0.964669
0.909117
-0.969560
0.919251
-0.984358
-0.903156
0.880643
-0.878112
0.962163
-0.952010
-0.978180
0.936141
0.941724
-0.652026
0.839646
0.594543
-0.972890
-0.935089
-0.856808
0.922821
0.904585
-0.955506
0.914189
0.879191
0.612244
-0.949534
-0.597103
1.000000
-0.864324
-0.916748
-0.916668
-0.962631
-0.966406
0.898204
0.905288
-0.856496
0.853961
0.930280
0.895024
0.964046
0.925627
0.933222
0.950073
-0.947174
-0.939726
-0.867862
-0.652270
-0.962732
0.929195
0.933608
-0.927145
0.941988
0.920034
0.609928
0.908541
-0.951895
-0.978198
-0.941292
-0.975886
-0.854843
-0.934302
0.871373
-0.964472
-0.957043
0.995969
0.904005
-0.945397
-0.972589
0.963058
0.928310
0.937420
-0.958096
