0.277330
-0.001499
-0.454609
-0.705004
-0.390599
-0.330592
-0.468305
0.238430
-0.199118
-0.232018
0.296603
-0.055877
-0.392843
-0.185872
0.260609
-0.408276
-0.011275
-0.360377
0.365718
0.060274
-0.047307
0.282756
-0.119667
0.050723
0.266519
-0.119521
-0.451162
0.202737
0.091321
0.132655
0.006120
0.197160
-0.580709
-0.570048
-0.355184
-0.181187
0.008786
0.400652
-1.000000
-0.782936
-0.053097
-0.568965
0.220753
-0.512398
-0.066655
-0.227481
0.022803
-0.296251
-0.519421
-0.113451
0.303243
-0.582351
0.312204
-0.534406
0.275531
0.416097
-0.305305
-0.247820
-0.161512
0.212204
0.181518
-0.258729
0.133460
0.244059
0.003541
0.312554
-0.100438
0.607916
0.569309
0.136935
0.101566
-0.127487
0.397997
0.184614
-0.024301
0.286779
0.392428
0.218797
0.348649
0.707165
0.044469
0.146826
-0.173901
-0.228195
-0.224170
-0.356591
0.120257
-0.044580
-0.043903
-0.053214
0.242945
0.782644
0.312532
0.384110
0.217380
0.235116
0.271922
0.658578
0.556824
0.505686
-0.026037
0.288113
0.086870
-0.093820
-0.524596
0.086642
0.146050
-0.191886
-0.598088
0.063182
-0.003409
0.128781
-0.297210
0.058487
-0.236406
-0.070686
0.425949
0.161744
0.147155
0.219769
0.545398
-0.037868
-0.316102
0.209132
0.232423
0.247241
0.050223
0.697587
0.311736
-0.433300
-0.151962
0.362940
0.106234
0.451840
0.519181
0.643095
0.042651
-0.476872
-0.252104
0.059948
-0.464374
-0.321710
0.251903
0.448658
0.094326
-0.415226
0.035127
0.613378
0.221102
0.494652
-0.050855
0.299792
0.066034
0.323158
0.759612
0.215659
-0.211965
0.157066
0.481303
0.481389
0.331238
0.171789
0.153830
0.227703
0.308214
0.151298
-0.194847
-0.012847
-0.300305
0.422979
-0.128138
0.145642
0.143291
-0.163907
0.082577
0.156664
0.013364
0.675663
0.511304
0.247671
0.430409
-0.028575
0.494126
0.466049
0.351546
0.353783
-0.201074
0.243852
0.386073
0.412673
0.151388
0.145845
-0.394660
0.277320
-0.170403
0.024943
-0.265295
0.219655
0.426363
0.935530
-0.315976
0.274702
0.491031
0.648803
0.134361
0.809224
-0.071663
0.106642
0.081194
0.334242
0.002179
0.202408
0.191502
0.245710
0.706715
0.450421
0.203872
-0.102022
0.469074
0.137655
0.154886
0.670660
-0.120010
-0.353733
-0.059234
0.071262
-0.021100
-0.165838
0.573708
0.192418
0.187106
-0.236429
0.295280
0.244656
0.739609
0.482040
0.317947
0.587152
0.181436
0.067927
0.501498
0.078615
0.241423
0.001908
0.595433
0.772471
-0.041103
0.715112
0.355429
0.140081
0.177532
-0.476121
-0.295796
0.670485
0.262595
0.704438
0.177519
0.291039
-0.325350
0.371490
-0.001264
0.795168
0.113320
0.175890
0.551621
0.776482
0.181772
0.254204
0.229506
0.199558
0.514613
-0.375904
0.239392
0.588764
-0.131736
0.655701
0.236066
0.165281
-0.060550
0.276154
0.317958
0.188162
0.402404
0.280565
0.441880
-0.119133
0.134409
0.459209
0.486866
0.205191
0.146860
-0.098152
0.388402
0.174480
0.507976
0.370817
0.487243
0.540684
0.544809
-0.052453
0.237491
-0.036256
0.444518
0.489745
0.424788
0.106012
0.552365
0.508816
0.138984
0.124856
0.169862
0.399519
0.137952
0.986864
0.361340
0.426322
0.461448
0.398510
0.469960
0.232626
0.018656
0.704733
0.316758
0.159396
0.452850
0.520769
0.416406
0.331492
0.087510
-0.044159
0.657530
0.351184
0.586155
-0.018745
0.293455
-0.049181
0.346674
0.336410
0.032763
0.436134
0.311514
0.188093
0.131272
0.787979
-0.186704
0.381051
0.773305
0.133074
0.173094
0.586313
-0.000820
0.090917
0.343365
0.305658
-0.089225
0.321788
0.238577
0.259055
0.090444
0.307180
0.304017
-0.024404
0.246514
1.000000
0.146857
0.192104
0.397186
0.120596
0.390391
0.555185
-0.114145
0.518838
0.417276
0.528149
0.057009
-0.075890
0.277719
0.047715
0.294370
0.226469
0.554106
0.422281
0.082865
-0.008965
0.550610
0.175772
0.249800
0.479430
0.149142
0.117480
0.388712
0.015588
0.015275
0.347908
0.576740
0.524497
0.655313
0.301703
0.303583
0.682463
0.365702
0.137904
0.415275
-0.016309
0.044748
0.242441
0.320510
0.183760
-0.250264
-0.136523
0.047982
0.545824
0.418443
0.814097
0.455406
0.186218
0.571827
0.646806
0.574408
0.666092
0.290485
0.197727
0.542869
0.446137
0.957715
0.396032
0.198979
0.086519
0.391841
0.249429
0.332171
0.680011
0.041387
0.391422
0.556392
0.679986
0.556923
0.578128
0.740453
0.156255
0.095411
0.770800
0.283994
0.126900
0.215226
0.384647
0.273304
-0.083852
-0.357352
-0.259711
0.345934
0.119187
0.556250
0.297788
0.212218
0.275285
-0.086588
0.405991
0.638808
0.309031
0.260324
0.503748
0.465772
0.239947
0.256431
0.647650
0.476941
0.627740
0.203208
0.318672
0.315112
0.289471
0.371172
0.341247
-0.292345
0.115636
-0.136077
-0.269410
0.017279
0.104026
0.341953
0.721819
0.432036
0.400349
0.706994
0.144238
0.500010
0.216241
0.433355
-0.160571
0.614891
0.089599
-0.028268
0.679678
0.268888
0.394019
0.185946
0.405527
0.420950
0.347112
0.035405
0.370363
-0.266175
0.460002
-0.279402
-0.314617
0.153057
0.386786
0.178771
0.374114
0.065025
0.300442
0.562685
0.214569
0.320856
0.242549
0.251400
0.593402
0.633630
0.780548
0.511738
0.921689
-0.031957
0.427495
0.458480
-0.123715
0.181165
0.152024
0.231157
0.415795
-0.238163
0.408025
-0.682643
-0.013407
0.603263
0.123174
0.410357
0.255613
0.578719
-0.060219
0.847980
0.463341
-0.068459
0.351586
0.132303
-0.025731
0.069801
0.751725
0.069816
0.012451
0.421880
0.235171
0.099553
0.278342
-0.090024
0.581625
0.389232
0.059309
0.358666
0.205239
0.240646
-0.345410
0.419205
0.222912
0.531240
0.235171
-0.082305
0.203813
0.323457
0.127444
0.161767
0.071232
-0.006056
-0.087259
0.179816
0.528359
0.109911
0.523479
0.052865
0.587511
0.490651
-0.461787
0.158446
0.414518
0.356926
0.274827
-0.092557
-0.453087
-0.520299
-0.374975
0.062227
0.270927
0.121996
0.158678
0.199844
-0.179638
0.103063
0.344411
0.300444
0.620703
0.472187
0.205501
-0.056497
0.115318
0.344808
0.054918
-0.277261
0.811746
0.083119
0.360307
0.094849
0.244361
0.036391
0.231722
-0.404024
-0.312235
0.398687
-0.026980
0.144746
0.030623
-0.055523
0.458730
0.399383
0.149866
-0.205329
0.156812
0.520706
0.125097
0.445662
0.362872
0.394238
-0.011251
0.097114
0.419428
0.716205
0.632085
0.171714
0.130634
0.220935
-0.160812
0.181104
0.641778
0.360576
-0.493733
0.084050
-0.175853
-0.219053
0.142965
0.303669
0.024461
0.306715
0.336877
0.236487
0.264663
0.688729
0.536669
0.089104
0.480049
0.424708
0.320955
0.255834
-0.168379
0.307693
0.501587
0.314367
-0.472256
0.668438
0.140743
-0.046406
-0.604510
0.350779
0.192921
0.126962
-0.204609
-0.133304
0.167507
0.504007
0.026873
0.463293
0.203313
0.099354
0.575245
-0.121185
-0.058024
0.161196
0.312848
0.577710
0.182452
0.498201
0.363923
0.351607
0.466616
-0.447732
0.192352
-0.057984
0.044590
-0.411007
-0.452524
-0.185181
-0.073432
-0.260370
-0.554115
-0.179003
0.083728
-0.288163
0.427451
0.233951
0.383630
0.289606
-0.105386
0.552255
0.435080
0.159532
0.441821
0.251356
0.466260
0.609045
0.226528
0.464176
0.482559
0.207646
-0.146321
-0.211600
-0.143087
0.013836
-0.548646
0.011147
-0.175346
-0.169548
-0.095588
0.626360
0.000691
0.425289
-0.286420
-0.108136
0.402249
0.348181
0.197859
-0.032724
0.089863
0.024431
-0.158936
-0.351090
0.248503
0.076769
-0.667162
0.214633
0.079032
0.300617
-0.408598
-0.095395
-0.293094
-0.231263
0.203553
0.017550
-0.392687
0.358592
-0.424665
0.016150
-0.378947
-0.568211
0.157306
0.199085
-0.183364
0.303630
-0.151405
-0.072709
-0.445552
-0.060290
-0.232954
-0.262309
-0.104645
0.060857
0.119645
0.038663
-0.040839
0.395779
-0.265626
-0.413173
-0.041206
-0.121302
-0.425834
0.358612
-0.146622
