-0.464975 -0.682557 0.047011 0.588241 0.537252 0.687300 -0.221194 0.831120 0.266621 -0.353236 0.810812 -0.484918 -0.495250 0.351350 -0.647757 -0.645392 -0.281815 -0.436033 -0.068059 -0.937632 0.284059 0.156427 0.765482 0.019953 0.596219 -0.182442 0.209846 -0.383591 -0.121234 -0.184985 -0.361565 0.746703 0.471885 0.368807 0.689204 0.192952 -0.320543 0.417298 0.438249 -0.067635 -0.567656 0.276718 0.357674 0.958253 0.601522 0.399757 0.245437 -0.565903 -0.673070 0.517403 0.383079 0.114486 -0.088731 -0.080552 -0.305694 0.241014 0.633945 -0.222867 0.453997 -0.208175 -0.133960 0.577677 -0.062915 0.626471 -0.097179 0.764664 0.894193 -0.246973 0.477379 0.382945 -0.277665 0.194566 0.689789 0.992388 0.350770 0.301201 -0.264964 -0.029458 -0.311002 -0.729679 0.543334 -0.535129 0.603757 0.515194 0.063421 0.236939 -0.878604 0.492676 -0.192847 0.178256 0.484080 -0.474063 -0.786082 0.773513 0.533484 0.317695 0.734247 0.326236 0.113332 -0.339626 0.396117 0.874087 -0.472266 -0.320109 0.014430 0.341030 0.071921 -0.199695 -0.654805 0.422991 0.349040 1.000000 0.334840 0.402834 0.032325 -0.315547 0.267365 -0.081848 0.902484 0.287893 -0.407002 -0.192654 -0.404875 0.331807 -0.839522 -0.399352 0.423454 -0.361011 0.869048 0.128124 -0.248266 0.748199 -0.409545 0.596922 0.713683 0.120106 -0.374636 0.167920 -0.490254 -0.356030 0.842466 0.337695 0.061183 -0.259868 -0.426693 0.366433 0.230012 0.029416 -0.617836 0.466669 0.853295 -0.351000 0.768219 0.510821 0.854343 0.458348 0.384367 -0.472387 -0.078032 0.696801 -0.699643 -0.143132 0.005963 -0.625815 -0.361061 -0.520821 -0.427543 0.507407 0.637292 0.203682 0.160809 0.062103 -0.450971 -0.572891 0.501747 -0.346013 -1.000000 -0.466877 -0.429027 0.543723 0.832003 0.439675 0.745967 -0.144506 0.746306 -0.396145 0.328253 0.852606 -0.449394 -0.279730 0.496408 0.405778 -0.725171 -0.229662 -0.433290 0.276317
-0.819414 -0.807101 -0.437247 0.592033 0.688747 -0.041965 -0.072055 0.620929 0.107156 -0.355244 0.388805 -0.498738 -0.381932 0.601639 -0.365597 -0.196085 -0.689293 -0.478040 0.033269 -0.417455 0.300582 0.605905 0.287352 -0.310147 0.526778 -0.500101 0.653177 -0.495501 -0.279481 -0.240873 -0.281332 0.332053 0.426431 0.284413 0.648714 -0.635284 -0.590314 0.587920 0.007162 0.789846 -0.396981 0.341223 0.143298 0.230380 0.280528 0.367631 0.242958 -0.467778 -0.365252 0.027794 0.534876 0.490522 -0.614325 -0.526859 -0.309207 -0.509057 0.294219 -0.088473 0.152072 -0.499060 -0.218198 0.515897 -0.252518 0.439115 -0.303621 0.399742 0.396814 -0.323030 0.740508 0.785283 -0.879619 0.780255 1.000000 0.608142 0.413075 0.652229 -0.618678 -0.783791 -0.146439 -0.701305 0.511459 -1.000000 0.153191 0.435229 0.366909 0.842304 -0.087569 0.159439 -0.829095 0.313654 0.180550 -0.267214 -0.608958 0.311501 0.431135 0.398698 0.812466 0.460478 0.002336 -0.105638 0.553498 0.167734 -0.403980 -0.407067 -0.225036 0.628437 -0.540041 -0.541832 -0.167699 0.373629 -0.106360 0.152770 0.197848 0.580780 -0.309416 -0.226806 0.985397 -0.136103 0.418890 0.516667 -0.657621 -0.322640 -0.506917 -0.545959 -0.201908 -0.391857 0.473645 -0.179156 0.401113 0.185778 -0.452334 0.306927 -0.101361 0.392043 0.586214 -0.470227 -0.139007 0.145398 -0.148702 -0.469117 0.260327 0.498778 0.733105 -0.489537 -0.562582 0.369781 -0.212428 -0.424994 -0.283052 0.798739 0.280206 -0.425425 0.028185 0.298303 0.291576 0.564703 0.598684 -0.413148 -0.618516 -0.067404 0.002606 -0.153776 -0.510722 -0.702481 -0.434779 -0.596026 -0.254266 0.695450 0.218942 0.106823 0.654226 0.630145 -0.708785 -0.428629 -0.052376 -0.176548 -0.397424 -0.251399 -0.417748 0.007524 0.347218 0.504988 0.769523 0.651428 0.426946 -0.692574 0.255597 0.114236 -0.826352 -0.269220 0.413153 0.466844 -0.615768 -0.437429 -0.099514 0.494840
-0.217699 -0.402059 -0.086735 0.734883 0.255811 0.586237 -0.251785 0.283270 0.364894 -0.745036 0.349421 -0.445264 -0.531006 0.534744 -0.137731 -0.399928 -0.321348 -0.711077 0.035499 -0.591227 0.301112 0.323907 0.540252 -0.041353 0.044122 -0.361904 0.568606 -0.461055 -0.411400 -0.209196 0.155712 0.486552 0.477766 0.631978 0.592070 -0.675728 -0.614972 0.128224 0.375509 0.025642 -0.313874 0.908010 0.914928 0.456684 0.575671 0.183861 0.082373 -0.686175 -0.886621 0.643277 0.552249 1.000000 -0.263335 -0.542322 -0.905622 -0.458913 0.420301 -0.359404 0.159151 -0.396015 -0.495554 0.625758 -0.651785 0.576206 -0.301409 0.303465 0.529745 -0.233679 0.411315 -0.006262 -0.348581 0.114002 0.248348 -0.238987 0.333886 0.322822 -0.192201 -0.584754 -0.637739 -0.142645 0.538348 -0.469552 0.176485 0.837296 0.465046 0.451027 -0.791313 0.648360 -0.210684 0.742751 0.122410 -0.666557 0.013062 0.101417 0.488785 0.518857 0.393424 0.439985 0.460714 -0.433290 0.475808 0.693119 -0.472047 -0.608073 -0.258386 0.648466 -0.557865 -0.338315 -0.553268 0.494296 0.517312 0.896745 0.153833 0.788464 -0.124496 -0.028611 -0.017962 -0.202088 0.399179 0.672927 -0.482311 -0.365521 -0.347360 -0.445304 -0.056726 -0.086386 0.300735 -0.504380 0.385152 0.450264 0.082141 0.011533 -0.331493 0.574094 0.309152 -0.450802 -0.086525 -0.135113 -0.431830 -0.320168 0.513528 0.493842 -0.101151 -0.792425 -0.704417 0.733806 -0.224428 -0.215751 -0.743685 0.376994 0.177610 -0.054710 0.144588 0.363063 0.679377 0.542732 0.441290 -0.705809 -0.365340 0.551119 -0.510649 -0.518007 -0.776708 -0.047578 -0.092106 -0.536568 0.002823 0.358869 0.635583 0.129945 0.261423 0.872860 -0.643726 -0.358643 0.381717 -0.394557 -0.316794 -0.428202 -1.000000 0.561448 0.653029 0.746177 0.580402 0.360604 0.273603 -0.339815 0.214224 0.587389 -0.288453 -0.476123 -0.030497 0.431769 -0.371929 -0.289339 -0.514643 0.279119
-0.466330 0.041811 -0.503401 0.481120 0.600188 0.345991 -0.326785 0.429730 0.360889 -0.547501 0.583915 0.069108 -0.246513 0.512498 -0.431742 -0.452553 -0.185457 -0.380443 -0.556250 -0.070362 0.356728 0.129359 0.694058 -0.574505 0.446601 -0.197848 0.359405 -0.141164 -0.458691 -0.332111 -0.917146 0.271369 0.293312 0.109933 0.693170 -0.484053 -0.328537 0.917877 0.321452 0.410862 -0.166314 -0.003793 0.173254 0.652962 0.379315 0.625685 0.388329 -0.253278 -0.369471 1.000000 0.777466 0.767435 -0.512142 -0.623679 -0.508284 -0.690604 0.883304 -0.120611 0.256248 -0.616976 -0.107434 0.522366 -0.538472 0.576082 -0.004304 0.536167 -0.073288 -0.079927 0.668533 0.368621 -0.663889 0.718702 0.305260 0.204195 0.877884 0.698682 -0.198206 -0.233627 -0.336037 -0.345508 0.698341 -0.306786 0.461763 0.513583 0.658850 0.633488 -0.701701 0.832803 -0.193341 0.474747 0.889698 0.001188 0.074994 0.175556 0.714132 0.171668 0.151874 0.289482 0.872705 -0.050389 0.372711 0.481045 -0.627566 -0.442487 -0.017595 0.506748 -0.005986 -0.389315 -0.332893 0.713504 0.759003 0.176230 0.570618 0.672609 -0.148594 -0.262359 0.124067 -0.726221 0.763632 0.632611 -0.336577 -0.431670 -0.742893 -0.343848 -0.277761 -0.526585 0.432729 0.005871 0.775848 0.309845 -0.205303 0.865841 -0.298414 0.394043 0.751229 -0.502820 -0.199006 0.302973 0.086175 -0.299281 0.487307 -0.009910 -0.013455 -0.430583 -0.402618 0.286636 -0.305477 -0.473783 -0.009427 0.165059 0.489913 -0.255603 0.749099 0.509107 0.216004 0.616122 0.636677 -0.711862 -0.227142 0.310243 -0.084879 -0.207921 -0.588682 -0.290406 0.015946 -0.465877 0.231197 0.771106 -0.108664 -0.082265 0.072605 0.159432 -0.097980 -0.348221 0.489892 -0.573620 -0.523965 -0.864739 -0.639833 0.582580 0.361509 0.633372 0.161088 0.503088 0.659117 -0.239580 0.599476 0.233512 -1.000000 -0.494262 0.299570 0.305701 -0.062023 -0.095803 -0.924871 0.694780
-0.915538 -0.585872 -0.353748 0.460225 0.573138 0.583543 0.037466 0.554527 0.489685 -0.638489 0.352580 0.188108 0.082732 0.316321 -0.644602 -0.439154 -0.727046 -0.404865 -0.338309 -0.333007 0.203091 0.311443 0.573683 -0.323840 0.506131 -0.252022 0.571524 -0.222579 -0.584822 -0.116806 0.191831 0.042146 0.286133 0.316986 0.336907 -0.452123 -0.193526 0.049019 0.497538 0.669806 -0.247018 0.238854 -0.082782 0.226914 0.642294 0.278526 0.627240 -0.368576 -0.384590 0.319505 0.301598 0.161593 -0.292853 -0.730066 -1.000000 -0.953067 0.511841 -0.142965 0.569871 -0.099874 -0.331302 0.584607 -0.488984 0.577914 0.036200 0.292625 0.488778 -0.108926 -0.340832 0.631909 -0.712140 0.578080 0.420065 0.261260 0.388395 0.434038 -0.327047 -0.506994 -0.734133 -0.198720 0.534204 -0.419142 0.488515 0.659220 0.801808 1.000000 -0.605099 0.623463 -0.719378 0.363492 0.077862 -0.530155 -0.895071 0.242051 0.252604 0.491464 0.371127 0.403086 0.622270 -0.249235 0.431408 0.097244 -0.275684 -0.167939 -0.755732 0.554096 -0.181293 -0.195889 -0.194333 0.460498 0.276502 0.393371 0.629898 0.893330 -0.234635 -0.503721 -0.147118 -0.374641 0.623104 0.754088 -0.772890 -0.564678 -0.411962 -0.674053 -0.256083 -0.754461 0.454949 -0.513054 0.660507 0.449492 -0.290125 0.498585 -0.276348 0.456059 0.347353 -0.265058 -0.508704 0.156857 -0.174000 -0.607913 0.502606 0.357055 0.618264 -0.362298 -0.548319 0.549396 -0.044476 -0.247507 -0.420770 0.758794 0.319656 -0.325087 0.284873 0.140416 -0.042416 0.797343 0.612585 -0.285520 -0.433607 0.605255 -0.441713 -0.358513 -0.570728 -0.024019 -0.216294 -0.015311 -0.382741 0.508287 0.901341 0.455150 -0.011562 0.475606 -0.140857 0.072983 0.163123 -0.483585 -0.474438 -0.359330 0.171939 0.744709 0.620302 0.579840 0.545220 0.421925 0.597472 -0.476890 0.398612 0.686856 -0.504840 -0.728862 0.694160 0.547064 -0.360982 -0.128494 -0.127558 0.331701
-0.643620 -0.195228 -0.646872 0.313395 0.433674 0.467584 -0.562391 0.438611 0.429434 -0.075782 0.558510 -0.482654 -0.615164 0.564801 0.154106 -0.202445 -0.576137 -0.412416 -0.211633 -0.347304 0.504090 0.994437 0.394202 -0.000723 0.528600 -0.554929 0.183952 -0.108094 0.039352 -0.201050 -0.028638 0.681530 0.701593 0.333593 0.706413 -0.505660 -0.231572 0.451364 0.411115 0.664191 -0.361640 0.535566 0.396884 0.510716 0.412516 0.332815 0.716289 -0.474158 -0.408835 0.380992 -0.015150 0.549786 -0.180222 -0.252012 -0.305498 -0.355601 0.268207 -0.255712 0.202704 -1.000000 -0.289565 1.000000 -0.588655 0.556971 -0.213778 0.529840 0.460716 -0.827783 0.208075 0.280280 -0.378058 0.336787 0.343721 0.521483 0.374473 0.373140 -0.269934 -0.247294 -0.318827 -0.084253 0.449004 -0.028561 0.596108 0.540771 0.760973 0.395760 -0.487922 0.539583 -0.414989 0.886706 0.610962 -0.106222 -0.362388 0.866314 0.304960 0.762938 0.174602 0.492873 0.637332 -0.032622 0.514252 0.601148 -0.832750 -0.202667 -0.108222 0.231521 -0.249397 -0.317929 -0.574848 0.784227 0.564261 0.612604 0.476779 -0.028480 -0.406233 -0.446000 0.795994 -0.363204 0.224490 0.257340 -0.263830 -0.546408 -0.277258 -0.163765 -0.606333 -0.158297 0.231583 -0.317362 0.901423 0.664115 -0.381339 0.715564 -0.460705 0.300442 0.402952 -0.640058 -0.808618 0.057933 0.269188 -0.430558 0.516517 0.357678 0.482188 -0.549360 -0.232913 0.488356 -0.298212 -0.362919 -0.501571 0.577420 0.842433 -0.594690 0.574277 0.361966 0.600605 0.555249 0.732640 -0.262631 -0.281925 0.357066 -0.475015 -0.282217 -0.316053 -0.484249 -0.106366 -0.251245 -0.192835 0.601166 0.341137 0.292684 0.467144 0.534715 -0.178186 0.104380 0.246114 -0.216159 -0.300621 -0.149020 -0.215741 0.888637 0.379399 0.470810 0.379897 0.213480 0.622543 -0.444972 0.385960 0.240641 -0.266591 0.101077 0.346573 0.928503 -0.266546 -0.115306 -0.389855 0.570429
-0.290848 -0.706478 -0.318264 0.355654 0.548083 0.448446 -0.354774 0.158022 0.247914 -0.019399 0.675435 -0.408632 -0.760241 0.070787 -0.609994 -0.486183 -0.112699 -0.571789 -0.765704 0.300922 0.552346 0.475710 0.574902 -0.260324 0.226863 -0.353986 0.629168 -0.096422 0.073572 -0.373013 -0.313671 0.553721 0.504016 0.373703 0.814868 -0.501928 -0.132351 0.135288 0.365840 0.738439 -0.145541 -0.004416 0.644326 0.725626 0.187728 -0.032222 -0.146069 -0.680124 -0.554092 0.210817 0.255068 0.373395 -0.695360 -0.783070 -0.263525 0.217918 0.231009 -0.479808 0.013659 -0.602327 -0.550504 0.352097 -0.538017 0.710391 -0.153250 0.503704 0.149873 -0.233379 0.245229 0.676672 -0.397055 0.760049 0.341217 0.317122 0.557359 0.591528 -0.139576 -0.387530 -0.513858 -0.367826 0.884414 -0.593735 0.542430 0.687570 0.295887 0.815482 -0.812206 0.567871 -0.641367 0.629485 1.000000 -0.627202 -0.436914 0.296579 0.284463 0.394870 0.422265 0.464614 0.759618 -0.472426 0.440478 -0.014043 -0.179926 -1.000000 -0.210280 0.270601 -0.350854 -0.239050 -0.641448 0.079119 -0.009685 0.377560 0.198080 0.363095 -0.432761 -0.521006 0.594361 -0.248173 0.210545 0.851459 -0.637224 -0.647884 -0.283823 -0.289454 -0.018404 -0.054297 0.316621 -0.165976 0.916855 0.291527 -0.510530 0.253307 -0.706719 0.262669 0.187243 -0.464553 -0.298511 0.081795 -0.278630 -0.202002 0.445436 0.301721 0.280167 -0.403031 -0.340327 0.838504 -0.601108 -0.246710 -0.483934 0.689673 0.577076 -0.389841 0.124786 0.291260 0.797095 0.189499 0.478639 -0.270743 -0.275488 0.228583 -0.355030 -0.190116 -0.375055 -0.551350 -0.858314 -0.526364 -0.219664 0.454560 0.759302 0.090194 0.769699 0.518175 -0.205751 -0.595464 0.549965 -0.619214 0.044501 -0.315277 -0.243055 0.260616 0.377059 0.514146 0.601577 0.670442 0.214199 -0.636877 0.739923 0.566423 -0.389917 -0.111187 0.321632 0.832101 -0.253089 -0.427759 0.170293 0.712711
-0.460842 -0.369504 -0.347647 0.724902 0.309667 0.419641 -0.551287 0.114792 0.440471 -0.545429 0.722364 -0.715356 -0.248507 0.633861 -0.549190 0.032032 -0.449257 -0.011861 -0.177366 -0.474314 0.678551 0.326286 0.294729 -0.257184 -0.034249 -0.141684 0.396443 -0.319938 -0.733925 -0.495791 -0.752137 0.321648 0.264927 0.637344 0.427801 -0.172246 -0.786020 0.220019 0.384665 0.644493 -0.619819 0.588741 0.434307 0.536236 0.548436 0.302562 0.674510 -0.293875 -0.080624 0.955266 0.469688 0.606001 -0.025584 -0.489420 -0.185029 -0.436893 0.423295 -0.272368 0.756392 -0.193895 -0.175724 0.396870 -0.287794 0.547705 -0.538844 0.417353 0.439441 0.085149 0.657781 0.370749 -0.262937 0.561820 0.596958 0.381649 0.291872 0.498150 -0.413635 -0.292914 -0.291615 -0.121728 0.371473 -0.013229 0.573117 0.542544 0.495747 0.681311 -0.631578 0.492489 -0.765683 -0.105491 0.386830 -0.367173 -0.239154 0.357284 0.510292 0.573213 0.557881 0.469288 0.057145 -0.395152 0.570687 0.755701 -0.379432 -0.095717 -0.148053 0.014701 -0.381691 -0.402165 0.178689 0.530653 0.241571 0.448080 0.280635 0.184609 -0.346083 -0.730503 0.779443 -1.000000 1.000000 0.708844 -0.904668 -0.473596 -0.379920 -0.273254 -0.596891 -0.350117 0.576362 0.160519 0.498780 0.376298 -0.269921 0.341037 -0.371348 0.244690 0.700254 -0.407891 -0.316546 0.104560 -0.104118 -0.405774 0.862852 0.576608 0.621791 -0.024912 -0.656462 0.438371 -0.815331 -0.280545 -0.104129 0.632966 0.064474 -0.226064 0.322154 0.638397 0.553253 0.439369 0.966447 -0.238848 -0.331921 0.425633 -0.225898 -0.516529 -0.310080 -0.387017 -0.303864 -0.638412 -0.329523 0.456986 0.621693 0.220481 0.420673 0.553592 -0.104812 -0.877009 0.735990 -0.322739 -0.158577 -0.465523 -0.321159 -0.026100 0.312422 0.103729 0.404628 0.575838 0.513140 -0.134914 0.378293 0.467293 -0.317431 -0.238674 0.482276 0.469047 -0.445998 -0.696578 -0.253420 0.425506
-0.401145 -0.086221 -0.127167 0.484031 0.740360 0.656071 -0.584166 0.386188 0.623117 -0.283531 0.339400 -0.490999 -0.417359 0.517811 -0.898109 -0.229549 -0.354436 -0.121021 -0.415626 -0.670834 0.600828 1.000000 0.688593 -0.657917 0.458571 -0.387410 0.202721 -0.079712 -0.136853 -0.429925 -0.894710 0.588808 0.624509 0.351399 0.393507 -0.317751 -0.311815 0.640744 0.822715 0.398618 -0.847823 0.431987 0.267800 0.257541 0.670905 0.812170 0.461816 -0.716172 -0.264343 0.701768 0.501731 0.334473 -0.778986 -0.231239 -0.620944 -0.145081 0.301214 0.088433 0.598939 -0.210535 -0.431776 0.388413 -0.056918 0.532381 -0.129430 0.564720 0.632135 -0.401077 0.440986 0.403201 -0.334795 0.056674 0.551105 0.306527 0.179418 0.791086 -0.077649 -0.145771 -0.774999 -0.105757 0.405969 -0.553332 0.547250 0.547313 0.393082 0.488429 -0.877269 0.357052 -0.790817 0.322825 0.533177 -0.287715 -0.164915 0.799822 0.631589 0.380236 0.072159 0.130590 0.357622 0.168142 0.311335 0.434297 0.038082 -1.000000 -0.773668 0.722002 -0.054884 -0.746005 -0.197400 0.493533 0.508519 0.765772 0.257027 0.828345 -0.270386 -0.514185 0.308276 -0.416321 0.208052 0.269494 -0.482342 -0.315096 -0.671422 -0.136888 -0.487232 -0.307784 0.611685 -0.278278 0.573187 0.574125 0.009352 0.501129 -0.233361 0.188904 -0.104980 -0.171815 -0.586109 0.046641 -0.441920 -0.227950 0.282819 0.408925 0.348427 -0.360794 -0.495118 0.464159 -0.515705 -0.409972 -0.239971 0.520431 0.808563 -0.331562 0.400001 0.414321 0.703698 0.523955 0.339922 -0.466341 -0.493386 -0.003566 0.006008 -0.730511 -0.585919 -0.545667 0.117443 -0.234607 -0.555767 0.194757 0.402302 -0.239358 0.341597 0.123061 -0.122476 -0.661448 0.671004 -0.056833 -0.025111 -0.403234 -0.018652 0.552143 0.482004 0.301552 0.592811 0.220826 0.459512 -0.129675 0.486712 0.392833 -0.348022 -0.258738 0.706866 0.505084 -0.496026 -0.261816 -0.619776 0.279997
-0.758602 -0.776474 -0.294955 0.600590 0.437818 0.427798 -0.476787 0.553029 0.285379 -0.285891 0.551722 -0.293672 -0.309262 0.347865 -0.406600 -0.166914 -0.151466 -0.157128 -0.397930 -0.325814 0.637727 0.734878 0.409249 -0.758871 0.208021 0.004709 0.179707 -0.109913 -0.595101 -0.276872 -0.368196 0.651912 0.559995 0.255730 0.444220 -0.361637 -0.530575 0.114641 0.016350 0.304546 -0.226419 0.034933 0.581228 0.785874 0.411129 0.249972 0.030047 -0.164408 -0.313870 0.323437 0.312044 0.381611 -0.257312 -0.342538 -0.091548 -0.538685 0.451239 -0.394898 0.167614 -0.534600 -0.573203 0.436447 -0.382689 0.592603 -1.000000 0.578415 0.334583 -0.547005 0.829330 0.711999 -0.333321 0.738040 0.851595 0.495926 0.346369 1.000000 -0.060990 -0.641161 -0.448091 -0.152300 0.487900 -0.490347 0.334504 0.253915 0.329179 0.260199 -0.471334 0.013146 -0.302403 0.726057 0.458165 -0.286152 -0.771820 0.393729 -0.082621 0.583972 0.820170 0.415780 0.156287 -0.612754 0.537229 0.643523 -0.296628 -0.334151 -0.079077 0.021281 -0.274712 -0.122548 -0.301136 0.438768 0.712602 0.444926 0.211719 0.324588 -0.286745 -0.354447 0.376943 -0.067721 0.338295 0.276389 -0.281459 -0.441984 -0.567811 -0.338600 -0.604928 -0.572578 0.818199 -0.418092 0.565817 0.358781 -0.454129 0.398225 -0.375138 0.782647 0.183115 -0.364074 -0.403601 0.649730 -0.382306 -0.774771 0.764916 0.078390 0.239822 -0.006778 -0.309480 0.377251 -0.525902 -0.368380 -0.219171 0.658876 0.173248 -0.448331 0.462035 0.308748 0.209031 0.811426 0.621067 -0.603235 -0.157093 0.106421 -0.268997 -0.172047 -0.815612 -0.596902 -0.733144 -0.642748 -0.360565 0.424799 0.370355 0.805032 0.183983 0.551488 -0.301972 -0.165991 0.550234 -0.447034 -0.419872 -0.075303 -0.104457 0.325845 0.160148 0.487958 0.546374 0.118813 0.180818 -0.574298 0.581397 0.642396 -0.142774 -0.602700 0.592021 0.637115 -0.361332 -0.541425 -0.468655 0.469510
-0.294521 -0.454871 -1.000000 -0.196082 0.411605 0.517661 -0.606204 0.334584 0.943560 -0.451646 0.305018 -0.870876 -0.356337 0.565136 -0.215691 -0.313523 -0.404874 0.120944 -0.573519 -0.298690 0.337294 1.000000 0.234826 -0.337636 0.796471 -0.269467 0.306635 -0.654658 -0.256569 -0.832500 -0.200371 0.402595 -0.026345 0.453053 0.334846 -0.874318 -0.592356 0.369312 0.309064 0.350551 -0.226139 0.331892 0.416801 0.143813 0.393171 0.292390 0.385358 -0.310862 -0.317392 0.799026 -0.034612 0.649504 -0.168006 -0.708856 -0.156093 -0.162970 0.324204 -0.151163 0.528548 -0.297724 -0.906927 0.345504 -0.413169 0.614450 -0.471868 0.630615 0.253456 -0.280564 0.756115 0.454511 -0.231438 0.436722 0.264514 0.138396 0.142788 0.370806 -0.407450 -0.268113 -0.157999 -0.521960 0.462359 -0.377058 0.139139 0.710939 0.047375 0.451704 -0.351950 0.034545 -0.664524 0.394922 0.676053 -0.420523 -0.330198 0.540663 0.413006 0.653429 0.258285 0.449215 0.374617 -0.328110 0.822093 0.623002 -0.298939 -0.176515 -0.538534 0.314563 -0.694520 -0.670128 -0.493862 0.175925 0.172999 0.390496 0.452424 0.636001 -0.262513 -0.839767 0.430224 -0.216137 0.723291 0.161408 -0.253029 -0.243062 -0.408668 -0.644534 -0.635911 -0.303864 0.244263 -0.791450 0.549014 0.117313 -0.446072 0.353701 -0.038757 0.552087 0.134708 -0.127432 -0.767552 0.211966 0.077673 -0.413039 0.571331 0.445359 0.498723 -0.612941 -0.463822 0.656577 -0.002603 -0.368816 -0.219872 0.391341 0.269550 -0.477156 0.142529 0.482583 0.352267 0.429980 0.391624 -0.710211 -0.347501 0.465266 -0.400397 -0.409014 -0.653216 -0.676318 -0.151629 -0.873812 -0.716010 0.649243 0.554860 0.280788 0.822822 0.220340 -0.434745 -0.748080 0.178628 -0.709401 -0.084350 -0.346406 -0.387874 0.439126 0.116127 0.147131 0.469361 0.268968 0.355098 -0.530862 0.364499 0.487054 -0.034223 -0.530086 0.607908 0.595289 -0.372525 -0.405978 -0.840482 0.218460
-0.994436 -0.675752 -0.753771 0.416772 0.372772 0.395048 -0.230637 0.490120 0.544498 -0.432794 0.207895 -0.579866 -0.368821 0.201727 -0.712051 -0.163468 -0.381845 -0.723578 -0.778950 -0.586987 0.201521 -0.065288 0.201639 -0.980444 0.555188 -0.485751 0.241791 -0.749884 -0.599628 -0.591987 -0.626874 0.304077 0.546466 0.040671 0.152070 -0.198608 -0.459720 -0.077770 0.300390 0.292751 -0.650951 0.160085 0.531634 0.433808 0.251114 0.117515 0.283431 -0.250577 -0.354098 0.459731 -0.070641 0.188749 -0.755419 -0.780026 -0.567501 -0.175424 0.184762 -0.625401 -0.079480 -0.519654 -0.312764 0.314014 -0.711441 0.055437 -0.970460 0.360199 0.038530 -0.564735 0.384059 0.445998 -0.370421 0.329256 0.162783 0.179846 0.251327 0.465585 -0.561746 -0.660846 -0.622526 -0.550911 0.189962 -0.742137 0.217164 0.539285 0.102869 0.183670 -0.804918 0.299821 -0.522125 0.476566 0.021011 -0.542840 -0.430146 0.445417 -0.167204 0.079886 0.123501 0.041777 0.033860 -0.790284 0.284361 1.000000 -0.111069 -0.609966 -0.615612 0.643554 -0.233895 -0.752023 -0.587753 0.713235 0.659321 0.054527 0.269417 0.290551 -0.237794 -0.672279 0.590809 -0.370979 0.111629 0.477639 -0.443107 -0.678470 -0.376048 -0.332336 -0.567113 -0.192975 0.237700 -0.422754 0.369284 0.094831 -0.692846 0.386681 -0.663509 0.548046 0.343192 -0.956424 -0.840148 -0.007960 -0.389496 -0.301771 0.432750 0.161583 0.527696 -0.744308 -0.398576 0.311745 -0.547674 -0.479242 -0.274753 0.072651 0.352477 -0.636108 0.243522 0.611575 0.485907 0.107683 0.795468 -0.671552 -0.771562 -0.207943 -0.697160 -0.723817 -0.551620 -0.428661 -0.409401 -0.529168 -0.685504 0.259022 0.471901 0.194854 -0.050611 0.130419 -0.251597 -0.409147 -0.234654 -0.788623 -0.320805 -0.463485 -0.840721 0.458209 0.428120 0.334009 0.130128 0.046555 0.346914 -0.258224 0.436769 0.412281 -0.563537 -0.230976 0.485296 0.161553 -1.000000 -0.631129 -0.660676 0.257553
-0.522213 0.068719 0.182714 0.506302 0.464492 0.547881 -0.947573 0.516644 0.542894 -0.105897 0.679724 0.001190 -0.074141 0.528088 -0.453069 -0.683044 -0.002593 -0.001457 -0.254757 -0.319237 0.851925 1.000000 0.479023 -0.465725 0.299377 -0.130466 0.359933 -0.900555 -0.544506 0.056110 -0.423489 0.189140 0.440012 0.160656 0.494057 -0.265620 -0.324128 0.648963 0.024293 0.502162 -0.022762 0.339855 0.416897 0.835776 0.646502 0.650545 0.499226 -0.383955 -0.070708 0.274326 0.912150 0.804999 -0.629064 -0.716128 -0.458252 -0.171572 0.661604 0.178338 0.683219 -0.295951 -0.752640 0.408740 -0.389558 0.738598 0.007785 0.454428 0.618300 -0.271797 0.423820 0.415487 -0.167474 0.761998 0.210754 0.346251 0.444597 0.277410 -0.306768 -0.211812 -0.320366 -0.176645 0.744833 -0.149539 0.785083 0.122340 0.589409 0.400716 -0.219466 0.839913 -0.138857 0.795112 0.600779 -0.182938 -0.266355 0.751993 0.777530 -0.042070 0.377271 0.671714 0.451662 -0.219672 0.817317 0.644595 -0.270543 0.024425 -0.483199 0.460335 -0.269708 -0.453303 -0.620524 0.632701 0.705796 0.548693 0.164019 0.310591 -0.286165 -0.240845 0.710480 -0.559152 0.690191 0.370931 -0.251124 -0.479370 0.049225 -0.217973 -0.366590 -0.009962 0.974067 0.015169 0.394161 0.698655 -0.274398 0.521475 -0.292036 0.239174 0.633537 -0.034148 -1.000000 0.266285 -0.136902 -0.704978 0.694207 -0.016400 0.450130 -0.458941 -0.020387 0.312124 -0.135863 -0.140630 -0.372650 0.333824 0.611858 -0.279106 0.748393 0.631746 0.664881 0.544199 0.330262 0.055953 -0.182340 0.860271 -0.125181 -0.167726 -0.182530 -0.557395 -0.662451 -0.371994 0.068349 0.666047 0.701188 0.150497 0.444644 0.836387 -0.334091 -0.277009 0.343379 -0.011783 -0.381577 -0.463907 -0.416657 0.891911 0.832804 0.522158 0.205787 0.763463 0.542716 -0.167462 0.625679 0.676402 -0.252414 -0.249777 0.132697 0.927669 0.081344 -0.107539 0.207787 0.747963
-0.430222 -0.405685 -0.511721 0.447301 0.509933 0.470881 -0.323226 0.528277 0.223946 0.262361 0.063704 -0.738937 -0.314381 0.113953 -0.612271 -0.562032 -0.699552 -0.464343 -0.201426 -0.845916 0.538432 0.378503 0.714725 -0.535884 0.530696 -0.478972 0.590229 -0.567909 -0.375184 -0.465593 -0.184234 0.233476 0.113553 -0.237334 -0.076678 -0.637005 -0.537368 0.406058 0.394177 0.407208 -0.827869 0.518247 0.899963 0.352610 0.459946 0.147158 -0.089403 -0.465380 -0.594814 0.552060 -0.094354 0.002962 -0.319185 -0.819055 -0.710994 -0.783212 0.025324 -0.234770 0.126776 -0.917707 -0.734910 0.080137 -0.197021 0.121519 -0.515876 0.519166 0.088530 -0.700886 0.346516 0.842501 -0.437332 0.118415 0.693288 -0.026856 0.131546 0.486834 -0.227565 -0.178166 -0.278457 -0.392029 0.272729 -0.392071 0.343791 0.356318 0.315390 0.254222 -0.749575 0.297479 -0.842443 -0.008399 0.472891 -0.712594 -0.776557 0.064367 0.336686 0.345776 0.423373 0.736191 0.234477 -0.626198 0.366262 0.271412 -0.386773 -0.284243 -0.475231 -0.089117 -0.053092 -0.913941 -0.648907 0.250316 0.367932 0.463323 0.286967 0.711386 -0.430659 -0.309928 0.082397 -0.486894 0.332924 -0.209717 -0.322308 -0.454588 -0.789477 -0.295549 -0.329469 -0.613659 0.681314 -0.376265 0.347946 0.090675 -0.189946 0.767085 -0.929220 0.830630 1.000000 -0.252425 -0.160182 0.035911 -0.362737 -0.702312 0.330644 0.622539 0.484984 -0.544152 -0.183870 0.521610 0.088439 -0.259194 -0.469589 0.017890 0.429252 -0.607120 -0.029266 0.164008 0.032569 0.307483 0.688128 -0.432430 -1.000000 0.563572 -0.275973 -0.832922 -0.520567 -0.665530 -0.659673 -0.734205 -0.711459 0.333896 0.163018 0.380367 -0.175943 0.777046 -0.489846 -0.504124 0.468233 -0.288239 -0.188603 -0.344830 -0.537031 0.469886 0.343055 0.435899 0.733600 0.570583 0.536102 -0.575179 0.601010 0.434735 -0.513505 -0.652524 -0.054203 0.228493 -0.637146 -0.241161 -0.284588 0.384610
-0.435977 -0.416679 -0.086267 0.318148 0.418462 0.277135 -0.188403 -0.086763 0.110029 -0.445413 0.823558 -0.768073 -0.494278 0.556135 0.000053 -0.166176 -0.835378 -0.171157 -0.651192 -0.620434 0.559077 0.527378 0.218384 -0.620830 0.715743 -0.017252 0.773462 -0.349133 -0.255927 -0.615885 -0.571804 0.672215 0.104671 0.324948 0.266856 -0.450753 -0.601431 0.548094 0.893984 0.542476 -0.476693 -0.296938 0.286813 0.599999 0.318444 0.519348 0.663981 -0.518828 -0.382641 0.557335 0.367698 0.680614 -0.797165 -0.558952 -0.416354 -0.295249 0.127430 -0.199898 0.384108 -0.396461 -0.310466 0.712310 -0.363722 0.672304 -0.090451 0.580484 0.484388 -0.051497 0.817507 0.472499 -0.567077 0.340633 0.451062 0.482145 1.000000 0.099766 -0.295254 -0.363761 -0.258670 0.055548 0.710467 -0.421805 0.475834 0.417191 0.444064 0.593433 0.095271 0.237897 -0.026176 0.545128 0.446706 -0.528037 0.056225 0.267120 0.346918 0.493580 0.591831 0.062488 0.869648 -0.587505 0.570268 0.664264 -0.350831 0.022371 -1.000000 0.746185 -0.459876 -0.259040 0.099010 0.405122 0.630714 0.071085 0.349079 0.267039 -0.552602 -0.318771 0.729925 -0.702997 0.112904 0.131731 -0.530454 -0.357818 -0.273329 -0.446241 -0.566821 -0.000155 0.565645 -0.347745 0.751334 0.229187 -0.057175 0.165771 -0.246086 0.576035 0.746310 -0.439226 -0.214465 0.186872 -0.177141 -0.261164 0.061018 0.553151 0.454041 0.036354 -0.192246 0.222832 -0.264777 -0.386017 -0.575367 0.612386 0.705679 -0.618963 0.365770 0.742882 0.651614 0.692911 0.523291 -0.334380 -0.381178 0.740304 -0.155814 -0.291491 -0.518522 -0.345605 -0.291179 -0.171624 -0.405228 0.577956 0.388509 0.366537 0.501101 0.540535 -0.123237 -0.405241 0.423847 -0.396819 -0.421065 -0.242740 -0.145028 0.358068 0.472301 0.489940 0.739215 0.536679 0.636224 -0.343045 0.568565 0.332775 -0.582136 -0.257707 0.912474 0.452914 -0.189200 -0.383636 -0.331755 0.424450
-0.674650 -0.781808 -0.231332 0.293600 0.395273 0.533712 -0.669738 0.117724 0.156434 -0.264192 0.253344 -0.448429 -0.733442 0.431814 -0.458769 -0.495996 -0.426701 -0.445083 -0.215715 -0.196540 0.519535 0.775851 0.320144 -0.342427 0.509471 -0.246174 0.182486 -0.294122 -0.478563 -0.498211 -0.248960 0.440404 0.317994 0.169088 0.493598 -0.277980 -0.454594 0.016943 0.804646 0.434690 -0.256490 0.292324 0.233122 0.444584 0.420877 0.107232 0.343123 0.013084 -0.378869 0.517903 0.187549 0.911353 -0.464205 -0.530548 -0.526059 0.002091 0.195310 -0.670816 0.125796 -0.858013 -0.187717 0.070380 -0.561484 0.365537 -0.342416 0.464377 0.263078 -0.320660 0.410910 0.246208 -0.685361 0.479749 0.465270 0.353515 0.362385 -0.000680 -0.433173 -0.791547 -1.000000 -0.236628 0.208330 -0.579882 0.509858 0.469177 0.303565 0.064922 -0.450238 0.264225 -0.923544 0.509696 0.533331 -0.415895 -0.395627 0.545659 0.642580 0.448337 0.179596 0.328314 0.122284 -0.413533 0.587570 -0.230490 -0.335272 -0.789516 -0.324708 0.374428 -0.609413 -0.647466 -0.488751 0.501209 0.489186 0.479951 0.116768 0.435059 -0.196250 -0.846296 0.256865 -0.586116 0.563834 0.947411 -0.244671 -0.285137 -0.418088 -0.357688 -0.441701 -0.389465 0.059054 -0.684622 0.412106 0.342168 -0.153828 0.366923 -0.797900 0.551423 0.988758 -0.506071 -0.818601 0.211605 -0.502678 -0.424859 0.219825 0.613142 0.721038 -0.526081 -0.371290 0.718926 -0.197278 -0.331285 0.182113 0.365345 0.521619 -0.353863 0.151114 0.298399 0.715196 0.194254 0.530740 -0.335540 -0.698081 0.692675 -0.083796 -0.433318 -0.721965 -0.405467 -0.382557 -0.176104 -0.422939 0.189623 1.000000 0.317872 0.212548 0.057124 -0.788761 -0.251419 0.056144 -0.373915 -0.830316 -0.923651 -0.152423 0.010259 0.379744 0.391620 0.019024 0.515416 0.408969 -0.306167 0.272593 0.499660 -0.492721 -0.374058 0.311054 0.216510 -0.208256 -0.603161 -0.339469 0.415019
-0.372654 -0.308942 -0.293097 0.548909 0.151940 -0.018475 -0.663373 0.111568 0.842642 -0.722235 0.621876 -0.322188 -0.401947 0.600442 -0.744507 -0.299232 -0.188330 -0.743026 -0.376268 -0.215754 -0.061958 0.445907 0.412165 -0.447399 0.253837 -0.501166 0.379684 -0.609874 -0.428452 -0.232007 -0.740773 0.572413 -0.055554 0.353980 0.431175 -0.720619 -0.568901 0.400547 0.251585 0.073641 -0.567734 0.361708 0.057913 0.326854 0.119710 0.275136 0.399616 -0.376676 -0.822698 0.385359 0.297874 0.305250 -0.339605 -0.448869 -0.172368 -0.501075 0.500407 -0.794168 0.455029 -0.550027 -0.819350 0.156382 -0.636034 0.351966 -0.469823 0.297341 0.241239 -0.727387 0.389711 1.000000 -0.488653 0.442168 0.249622 0.392079 0.374233 0.369919 -0.688159 -0.078997 -0.541354 -0.377507 0.459927 -0.910744 0.635060 0.595153 0.346741 0.316550 -0.309851 0.713249 -0.299184 0.571584 0.045409 -0.248309 -0.179613 0.106842 0.293033 0.699447 0.294280 0.380853 0.462837 -0.269343 -0.117810 0.965780 -0.461569 -0.554485 -0.161609 0.561643 -0.352333 -0.739397 -0.123171 0.268913 0.364213 0.359371 0.621932 0.350080 -0.246232 -0.384381 0.332801 -0.561623 0.144250 0.256971 -0.724923 0.223171 -0.580804 -0.552590 -0.292031 -0.227396 0.405222 -0.637661 0.754575 0.095647 -0.478324 0.499354 -0.896621 0.191788 0.209220 -0.636414 -0.577101 0.264251 -0.718059 -1.000000 0.194727 0.092819 0.059095 -0.570763 -0.446867 0.235257 -0.333514 -0.754587 -0.359605 0.120173 0.601910 -0.399570 0.368048 0.354001 0.291086 0.143555 0.368409 0.217000 -0.443208 0.783866 -0.365892 -0.436932 -0.510025 -0.528021 -0.211503 -0.529920 -0.407566 0.401736 0.366360 0.324536 0.296593 0.770700 -0.338827 -0.379542 0.506504 -0.314969 -0.466258 -0.627555 -0.423950 0.280514 0.513292 0.724738 0.438861 0.389625 0.478434 -0.345211 0.110070 0.382860 -0.762158 -0.251965 0.435044 0.046414 -0.716341 -0.600376 -0.366686 0.120533
-0.126001 -0.188696 -0.293045 0.274608 0.416037 -0.083945 -0.598353 0.491001 0.569975 -0.585242 0.355224 -0.507978 -0.794788 0.828014 -0.797145 -0.125350 -0.512731 -0.744127 -0.766534 -0.640552 0.492813 0.051668 0.832173 -0.681664 0.719063 -0.372449 0.142451 -0.141264 -0.606727 -0.171572 -0.467254 0.512103 0.015487 0.207839 0.395150 -0.203886 -0.612040 0.591260 0.196288 0.377093 -0.416240 0.417868 0.302769 0.437350 0.242758 0.570827 0.270254 -0.117293 -0.494462 0.488840 0.439716 0.289679 -0.351341 -0.159671 -0.357331 -0.264762 0.210765 -0.036190 0.764408 -0.249283 -0.572245 0.104582 -0.801094 0.492266 -0.562322 0.384107 -0.038187 -0.307375 0.404649 0.345975 -0.230464 0.525879 0.303986 0.610644 0.082489 0.510543 -0.307348 -0.553673 -0.324998 -0.650890 0.594570 -0.438099 0.526986 0.746988 0.450844 0.286170 -0.837930 0.363674 0.046297 0.821661 0.734945 -0.165785 -0.249454 0.787163 0.192502 0.818208 0.532236 0.350637 0.340867 -0.000069 0.562088 0.056394 -0.987421 -0.029966 -0.096859 0.056956 -0.390420 -0.501256 -0.567906 0.229763 0.036006 0.282696 0.240362 1.000000 -0.561085 -0.198631 -0.005280 -0.623346 0.644846 -0.019464 -0.143040 -0.477747 -0.424788 -0.505390 -0.485984 0.008612 0.522667 -0.709933 0.495013 0.312712 -0.981525 0.036560 -0.530128 0.216878 0.678966 -0.212052 -0.722719 -0.002985 -0.178980 -0.552291 0.496130 0.299747 0.199387 -0.601054 -0.374957 0.535129 -0.449969 -0.397188 -0.300698 0.378039 0.770332 -0.488047 0.213445 0.093392 -0.095632 0.716360 0.215230 -0.320702 -0.404267 0.652085 -0.279977 -0.408572 -0.381065 -0.522889 -0.030711 -0.475662 -0.488622 0.344500 0.292196 0.095466 0.416868 0.582697 -0.118832 -0.891782 0.264731 -0.835582 -0.484298 -0.614558 -0.390996 0.531416 0.140874 0.303842 0.245167 0.280921 0.462432 -0.323518 0.728475 0.419631 -0.436573 -0.186259 0.693906 0.518861 -0.280982 -1.000000 -0.345110 0.838417
-0.033604 0.034635 -0.243110 0.340779 0.303629 0.251492 -0.606159 0.382584 0.535824 -0.589503 0.369922 -0.381340 -0.421671 0.245457 -0.834134 -0.388653 0.041867 -0.495665 -0.568684 -0.280281 0.592491 0.448793 0.313965 -0.533310 0.738601 -0.435779 0.711355 -0.530092 -0.235479 -0.454523 -0.336939 0.586666 0.189063 0.443960 -0.014038 -0.660837 -0.304850 0.068616 0.224293 1.000000 -0.516714 0.392159 0.040506 0.218828 0.172143 0.617074 -0.048980 -0.584224 -0.385654 0.411436 0.446890 0.456124 -0.455258 -0.436796 -0.587859 -0.479192 0.050226 -0.433172 0.015027 -0.315586 -0.401371 0.273269 -0.520529 0.498890 -0.430306 0.400651 0.092920 -0.448455 0.648610 0.215329 -0.391328 0.569987 0.241693 0.542192 0.627853 0.356743 -0.321057 -0.724490 -0.373097 -0.387944 0.192773 -0.468270 0.575474 -0.017154 0.288050 0.623065 -0.418911 0.058237 -0.495073 0.485520 0.070174 -0.638889 -0.478811 0.456318 0.225787 0.294086 0.095117 0.698520 0.268926 -0.483871 0.161170 0.695021 -0.555147 -0.338418 -0.626227 0.277845 -0.144797 -0.126206 -0.972814 0.293023 0.189424 0.116513 0.453898 0.308845 -0.258634 -0.213938 0.504577 -0.639080 0.515749 0.318621 -0.340705 -0.285932 -0.358917 -0.386522 -0.665494 -0.286498 0.455233 -0.294676 0.533653 0.312668 -0.616749 0.541553 -0.634594 0.169497 0.726813 -0.571227 -0.146236 0.166692 -0.415359 -0.474230 0.418446 0.545106 0.268336 -1.000000 -0.232647 0.119854 -0.600523 -0.243427 -0.622347 0.603337 0.218102 -0.668042 0.598349 0.558976 0.926422 0.552665 0.224442 -0.665781 -0.348125 0.569534 -0.565354 -0.506517 -0.540884 -0.610569 -0.240740 -0.646214 -0.431851 0.333028 0.888015 0.589138 0.281032 0.434265 -0.798408 -0.496983 0.421431 -0.311900 -0.517442 -0.258124 -0.399222 0.660802 0.611735 0.178309 0.041551 0.239010 0.515442 -0.329770 0.655845 0.823455 -0.817077 -0.142425 0.256724 0.055287 -0.607246 -0.613446 -0.354074 0.107674
-0.244999 -0.143467 -0.034464 0.872912 0.685912 0.510058 -0.277365 0.365472 0.590272 0.043630 0.597309 -0.041649 -0.101457 0.891677 -0.410728 -0.220027 -0.309235 -0.338136 -0.196540 -0.583956 0.383699 0.511659 0.565649 -0.478069 0.380013 -0.449151 0.511339 -0.218638 -0.512780 -0.270378 -0.226194 0.538853 0.497674 0.538264 0.722555 -0.244338 -0.425166 0.623492 0.334577 0.906907 -0.284921 0.524688 0.509826 0.570148 1.000000 0.271137 0.171745 -0.353596 -0.548915 0.411486 0.556721 0.380975 -0.239511 -0.316585 -0.549663 -0.297285 0.614345 -0.654361 0.616332 -0.558012 -0.285103 0.465544 -0.242741 0.332855 -0.121668 0.696149 0.468042 -0.312027 0.225242 0.664039 -0.291431 0.277500 0.321744 0.575163 0.475320 0.550575 -0.618605 -0.397069 -0.447442 0.001052 0.193069 -0.287216 0.352072 0.671962 0.391841 0.753922 -0.749625 0.308412 -0.511362 0.595659 0.378110 0.049310 -0.085021 0.595092 0.543096 0.558184 0.167592 0.348723 0.143736 0.007745 0.644830 0.449279 -0.200255 -0.434541 -0.587900 0.556857 0.236249 -0.655387 -0.207736 0.283129 -0.251652 0.292554 0.666993 0.345756 -0.381692 -0.530306 0.584879 -0.640103 0.301628 0.317902 -0.624311 0.041610 -0.612613 -0.830537 -0.773632 -0.344360 0.122394 -0.660835 0.534796 0.606916 -0.610085 0.950074 -0.670156 0.462935 0.421448 -0.476197 -0.347649 0.371644 -0.131141 -0.315551 0.390949 0.693065 0.409674 -0.492721 -0.108683 0.306141 -0.071696 -0.231375 -0.106277 0.580826 0.375310 -1.000000 0.094132 0.214970 0.432230 0.723151 0.526859 -0.672351 -0.800526 0.515358 -0.281685 -0.190935 -0.315372 -0.371031 -0.147843 -0.436597 -0.337701 0.623811 0.352598 0.474504 0.512110 0.534101 -0.434347 -0.276572 0.608957 -0.026722 -0.488594 -0.583043 -0.632726 0.561437 0.285718 -0.166310 0.534757 0.326838 0.499310 -0.245119 0.359671 -0.030824 0.005167 -0.276166 0.593814 0.331634 -0.440190 -0.404448 -0.415677 0.346246
-0.530220 -0.307499 -0.346880 0.574686 0.477461 0.613465 -0.153647 0.776302 0.793978 -0.453081 0.566727 -0.518353 -0.343606 0.680953 -0.022999 -0.169789 -0.239220 -0.582647 -0.375569 -0.193444 0.298560 0.634760 0.494543 -0.397327 0.649405 -0.229174 0.389689 -0.155953 -0.365593 -0.252548 -0.681619 1.000000 0.525690 0.162702 0.359807 -0.257052 -0.248865 0.517068 0.540099 0.665838 -1.000000 0.386355 0.701236 0.688988 0.574723 0.314974 0.309695 -0.176315 -0.431371 0.502981 0.348813 0.418320 -0.501731 -0.426849 -0.491155 -0.623638 0.397138 0.030204 0.372358 -0.275305 -0.372818 0.510290 -0.690174 0.341575 -0.688298 0.364462 0.598088 0.029066 0.362486 0.505178 -0.246003 0.932694 0.607974 0.481931 0.489615 0.298821 -0.177507 0.005525 -0.389275 -0.147885 0.710083 -0.054433 0.892058 0.438167 0.106019 0.103295 -0.223624 0.376284 -0.196884 0.711281 0.454250 -0.249661 -0.251742 0.626898 0.712186 0.766747 0.588302 0.604371 0.755908 -0.580314 0.465379 0.296077 -0.007090 -0.341828 -0.340305 0.313152 -0.441806 -0.218745 -0.573766 0.370313 0.875980 0.400021 0.843354 0.649863 0.174854 -0.257039 0.376925 -0.255806 0.988666 0.537028 -0.510898 -0.440458 -0.181807 -0.144637 -0.284614 -0.341269 0.912379 -0.205649 0.806399 0.092489 -0.426137 0.393432 -0.205557 0.202174 0.504740 -0.376056 -0.350481 -0.039297 -0.330360 -0.302730 0.566615 0.119823 0.664649 -0.524564 -0.172589 0.701497 -0.356668 -0.099684 -0.144463 0.557154 0.488783 -0.344171 0.207836 0.556190 0.491022 0.290907 0.736527 -0.358921 -0.284493 0.299159 -0.331078 -0.321287 -0.249956 -0.007491 -0.184928 -0.065473 -0.359253 0.668804 0.602732 0.479779 0.149602 0.619113 -0.474027 -0.287924 0.388603 -0.294453 -0.194227 -0.256202 -0.295411 0.280617 0.902409 0.412364 0.516246 0.419982 0.346930 0.057813 0.487657 0.301900 -0.569350 -0.033702 0.603946 0.611957 -0.452962 -0.192889 -0.563587 0.342859
-0.611610 -0.456026 -0.481903 0.552727 0.326364 0.491446 -0.371247 0.174812 0.336710 0.027103 0.562123 -0.318821 0.159007 -0.027984 -0.698051 -0.257265 -0.467837 -0.300478 -0.812769 -0.253732 -0.133610 0.401913 0.630491 -0.570817 -0.006731 -0.724196 0.672199 -0.891502 -0.526386 -0.430762 -0.588048 0.081292 0.143595 0.116295 0.653111 -0.531533 -0.337370 0.539642 0.456177 0.518795 -0.067016 0.295188 0.437251 0.240558 0.125585 0.446010 0.705769 -0.445129 -0.930444 0.240754 0.526950 0.400293 -0.462986 -0.592834 -0.498896 -0.681364 0.040107 -0.453196 0.336445 -0.422789 -0.640640 1.000000 -0.436686 0.202416 -0.492362 0.129394 0.259115 -0.831054 -0.035838 0.134526 0.464225 -0.544501 0.148234 0.348263 0.693424 0.299059 -0.362132 -0.135180 -0.641630 -0.805522 -0.401108 -0.756530 0.304852 0.556071 0.168240 0.205788 -0.827868 -0.034899 -0.509886 0.179074 0.683109 -0.547219 -0.366128 0.281091 0.223036 0.207114 0.722139 0.469416 0.336484 -0.314649 0.375968 0.994680 -0.132758 -0.865802 -0.801949 0.402129 -0.561767 -0.502337 -0.129103 0.410927 0.244469 0.401853 0.258779 0.666473 -0.191285 -0.441704 0.258917 -0.177497 0.028709 0.499602 -0.449358 -0.876918 -0.572230 -0.242863 -0.395823 -0.357703 0.598509 -0.842271 0.291614 0.185323 -0.624604 -0.081587 -0.379418 0.496538 0.003451 -0.819093 -0.682477 0.317856 0.153017 -0.509055 0.198854 0.277427 0.689970 -0.444918 -0.760779 0.791155 -0.349285 -0.374817 -0.310131 0.376288 0.256424 -0.891916 0.023305 0.142472 0.508033 0.407126 0.364454 -0.791980 -0.761445 0.031627 -0.478883 -0.769761 -0.216484 -0.338013 -0.384709 -0.878679 -0.585761 0.148663 0.493172 0.500814 0.363831 0.806577 -0.419504 -0.762723 0.500945 -0.800839 -0.235659 -0.218983 -0.539454 0.835055 0.192207 0.779462 0.481712 0.520274 0.584851 0.022993 0.524937 0.032204 0.175303 -1.000000 0.302904 0.691110 -0.452515 -0.396991 -0.503182 0.908700
-0.214552 -0.228666 -0.316286 0.191829 0.087114 0.479810 -0.388605 0.566030 -0.034811 -0.643957 0.269377 -0.596770 -0.641302 0.523507 -0.373289 -0.371093 -0.338069 -0.323072 -0.608675 -0.939917 0.408292 0.402036 -0.045756 -0.369069 0.336170 -0.746861 0.520722 -0.308897 -0.693477 -0.708664 -0.405338 0.312120 0.555672 0.087165 0.323535 -0.594235 -0.228616 0.361756 0.432525 -0.078437 -0.440121 0.283628 0.181367 0.270209 0.507520 0.349666 0.297065 -0.280154 -0.590610 0.468217 0.480829 0.271243 -0.472060 -1.000000 -0.448939 -0.433153 -0.142138 -0.361069 0.459617 -0.166031 -0.447582 0.379491 -0.605385 0.171369 -0.362754 0.489486 0.435686 -0.636375 0.487789 0.707262 -0.218878 0.480915 0.215527 0.730803 0.371866 0.271965 -0.464762 -0.600936 -0.572087 -0.812726 0.396452 -0.402665 0.649019 0.575549 0.659701 0.539599 -0.382071 0.504883 -0.186909 0.207279 0.649454 -0.565828 -0.293811 0.426205 0.381560 0.461962 0.489887 0.153244 0.533673 -0.475102 -0.082429 0.490863 -0.450592 -0.214826 -0.284132 0.150870 -0.357857 -0.481112 -0.575627 0.510502 0.268636 0.124564 0.442156 0.180481 -0.429776 -0.440915 0.215330 -0.625172 0.146162 0.196956 -0.574167 -0.499466 -0.717583 -0.828533 -0.407247 -0.624089 0.651486 -0.455443 0.237420 0.393994 -0.307482 0.412739 -0.487778 0.405743 1.000000 -0.865493 -0.558261 -0.153003 0.034370 -0.466802 0.396366 0.636633 0.397144 -0.502650 -0.600077 0.161881 -0.615626 -0.579295 -0.563202 0.403995 -0.217807 -0.585237 0.150932 0.282934 0.101300 0.162542 0.278135 -0.438442 -0.562010 0.093781 -0.593437 -0.489536 -0.576956 -0.181162 -0.443488 -0.670642 -0.660909 0.454927 0.151926 0.280297 0.233186 0.543502 -0.377529 -0.442520 0.456701 -0.201189 -0.362723 -0.647024 -0.536926 0.466334 0.321870 0.162678 0.545064 0.516751 0.414420 -0.724003 -0.117849 -0.070655 -0.676995 -0.503001 0.581008 0.270206 -0.527062 -0.781804 -0.526518 0.046585
-0.202280 -0.731640 -0.256459 0.083487 0.700787 0.750696 -0.483288 0.221219 0.281139 -0.549383 0.275659 -0.482195 -0.490830 0.236767 -0.427925 -0.759540 -0.235684 -0.533515 -0.230663 -0.924762 0.146239 0.015440 0.225283 -0.590985 0.210970 -0.544728 0.553663 -0.517160 -0.206420 -0.458751 -0.278987 0.353568 0.226685 0.029424 0.297908 -0.493110 -0.293434 -0.033176 -0.001362 -0.261676 -0.450453 0.143754 0.775915 0.539411 0.598648 0.189482 0.343832 -0.286132 -0.815217 0.611634 0.516927 0.006980 -0.791915 -0.752843 -0.717605 -1.000000 0.288729 -0.638463 0.065768 -0.587338 -0.242620 0.388507 -0.176966 0.483024 -0.314263 0.323191 0.137340 -0.862637 0.462933 0.362602 -0.591659 0.458967 0.829131 0.711042 0.337819 0.260577 -0.870531 -0.494598 -0.364945 -0.337298 0.393548 -0.503359 0.652911 0.082545 0.443779 0.491071 -0.686679 0.213599 -0.331906 0.314124 0.214158 -0.293855 -0.837144 0.139295 -0.069217 0.187050 0.438857 0.319389 0.302733 -0.633374 0.487578 0.398874 -0.451739 -0.416258 -0.554479 0.123301 -0.525750 -0.666108 -0.318171 0.338960 0.790488 0.242030 0.239595 0.689713 -0.716513 -0.808734 0.268329 -0.732293 0.369610 0.524952 -0.466092 -0.417684 -0.522125 -0.469792 -0.460626 -0.403302 0.015388 -0.678754 0.529500 0.135254 -0.541528 0.268848 -0.775923 0.103555 0.691541 -0.250917 -0.498966 0.081417 -0.257009 -0.247277 0.452625 0.386164 0.205306 0.025549 -0.393327 0.461216 -0.845415 -0.304630 -0.551931 0.161156 0.363939 -0.692409 0.469296 0.311663 0.186991 0.220040 0.177662 -0.483595 -0.505827 0.567756 -0.373614 -0.639461 -0.315833 -0.321228 -0.363858 -0.597839 -0.506316 0.631335 0.232812 0.148171 0.554813 0.336357 -0.731027 -0.212505 0.298253 -0.465359 -0.195650 -0.912729 -0.657876 -0.060122 0.652672 0.196620 -0.172760 0.274271 0.179389 -0.611768 0.278138 0.329162 -0.374011 -0.771640 1.000000 0.165795 -0.380793 -0.939389 -0.198292 0.311878
-0.374563 -0.628228 -0.783802 -0.022560 0.521834 0.045043 -0.424102 1.000000 -0.134322 -0.446857 0.129092 -0.588499 -0.717290 0.317075 -0.648527 -0.393039 -0.678049 -0.118593 -0.153933 -0.555983 0.397006 0.109009 0.328006 -0.358876 0.110086 -0.394607 0.335550 -0.425828 -0.570723 -0.529086 -0.697608 0.534787 0.082949 0.036641 0.550732 -0.644217 -0.570009 0.088613 -0.001741 0.590804 -0.557663 0.437592 -0.266091 0.098929 0.265705 0.510101 0.617956 -0.555858 -0.367532 0.360313 0.409494 0.168692 -0.372939 -0.785181 -0.696961 -0.975594 -0.335603 -0.769330 0.266297 -0.767586 -0.420836 0.692844 -0.507804 0.358766 -0.285401 0.436880 0.367878 -0.688613 0.152123 0.156002 -0.731126 0.078374 0.267107 0.185848 0.519136 0.125752 -0.380852 -0.924735 -0.680866 -0.708518 0.307014 -0.726833 0.149900 0.473240 0.250648 0.240575 -0.425268 0.159820 -0.613772 0.233441 0.451449 -0.653193 -0.799631 0.113225 -0.015159 0.467350 0.035246 0.352884 0.455098 -0.366147 0.656042 0.237294 -0.505453 -0.474718 -0.215268 0.230977 -0.770575 -0.406927 -0.088275 0.237224 0.198525 -0.287659 -0.025708 0.530955 -0.790391 -0.414060 0.557622 -0.933000 0.003787 0.444429 -0.188409 -0.584251 -0.428673 -0.317994 -1.000000 -0.811783 0.867051 -0.660011 0.346005 0.344659 -0.207966 0.668661 -0.114718 0.416440 0.387120 -0.622126 -0.577574 0.302165 -0.689468 -0.438309 0.067407 -0.127879 0.446002 -0.315909 -0.517200 0.101120 -0.956884 -0.472917 -0.496854 -0.025253 0.356246 -0.710029 0.221763 0.381216 0.097073 0.573303 0.497726 -0.450844 -0.658162 0.933246 -0.828998 -0.346445 -0.643323 -0.859688 -0.294682 -0.869875 -0.788310 0.158141 0.094945 0.148255 0.282647 0.231375 -0.442208 -0.271891 0.065287 -0.645796 -0.503412 -0.415359 -0.708781 0.732249 -0.019115 0.115339 0.487413 0.384691 0.557363 -0.432138 0.347658 0.458739 -0.387516 -0.491003 0.349220 0.197984 -0.295339 -0.935987 -0.816129 -0.116331
-0.114270 0.002280 -0.088704 0.770334 0.308866 0.439334 -0.292504 0.508933 0.433218 -0.096730 0.695674 -0.087174 -0.278115 0.504020 -0.108364 -0.427428 -0.283895 -0.102609 -0.331619 -0.259628 0.747827 0.436861 0.785022 -0.623700 0.389396 0.004036 0.781669 -0.292331 -0.321045 0.216708 -0.042098 0.615256 0.928354 0.794940 0.622200 -0.253698 -0.267103 0.687882 0.753045 0.601720 -0.210457 0.720002 0.371736 0.734152 0.673533 0.368043 0.535900 -0.252060 -1.000000 0.530733 0.449014 0.578792 0.080501 -0.281194 -0.410888 -0.171347 0.538414 -0.033850 0.485797 0.150824 -0.265551 0.544987 -0.525924 0.344227 -0.388232 0.533863 0.859697 -0.344099 0.834603 0.679285 -0.154636 0.369939 0.385494 0.485975 0.652638 0.799730 -0.368241 -0.107970 -0.047956 -0.359006 0.506549 -0.273858 0.732175 0.759515 0.629944 0.384636 -0.189722 0.525777 -0.126018 0.402283 0.758454 -0.302573 -0.370350 0.619120 0.201674 0.498280 0.509970 0.590810 0.615546 -0.266548 0.321174 0.806053 -0.022416 -0.185827 -0.291851 0.441471 0.089157 -0.215267 -0.120980 0.610917 0.657762 0.762901 0.599522 1.000000 -0.257671 -0.370146 0.812925 0.063262 0.786235 0.971053 -0.237931 -0.151219 0.019440 -0.154834 0.027678 -0.622649 0.369904 -0.158185 0.508391 0.593900 -0.180907 0.328891 -0.404582 0.934434 0.698898 -0.454434 -0.061249 0.425807 0.031309 -0.019895 0.579368 0.996072 0.329550 0.181212 -0.283512 0.580800 -0.304792 -0.476791 -0.143882 0.370244 0.141411 -0.411315 0.863830 0.716770 0.324182 0.611574 0.649675 -0.101532 -0.144186 0.313607 -0.329197 -0.255402 -0.240977 -0.002761 -0.320242 -0.478649 -0.113777 0.264714 0.905605 0.654304 0.572753 0.524183 -0.359497 -0.525815 0.288185 0.231695 -0.216503 -0.493953 -0.320515 0.539888 0.564642 0.658858 0.819572 0.645721 0.568847 -0.193167 0.578136 0.888735 -0.400401 -0.232272 0.735907 0.402664 0.089838 -0.035242 -0.226597 0.682242
-0.324383 -0.228311 -0.608142 0.767052 0.251514 0.556451 -0.536015 0.474295 0.060068 -0.367120 0.491940 -0.272073 -0.836857 0.794114 -0.018523 -0.902617 -0.129899 -0.138546 -0.887649 -0.300920 -0.012926 0.005947 0.483373 -0.859986 0.507858 -0.262149 0.073433 -0.325093 -0.600999 -0.226133 -0.855915 0.464472 0.254637 0.260462 0.800613 -0.230598 -0.140872 0.464151 0.321160 0.302698 -0.097782 0.304685 -0.060621 0.401729 0.401041 0.696829 0.178629 -0.700435 -0.271305 0.454541 0.577190 0.282830 -0.736322 -0.535008 -0.584259 -0.226502 0.195508 -0.568090 0.287579 -0.230649 -0.627062 0.404402 -0.526748 0.377770 -0.844274 0.483640 0.350294 -0.167940 0.432376 0.395158 0.003791 0.262887 0.516218 0.320736 0.794997 0.206103 -0.196296 0.063104 0.054665 -0.602689 0.142046 -0.461852 0.735949 0.317663 0.185008 0.224549 -0.494027 0.074954 -0.849170 0.546417 0.364260 -0.368622 -0.776923 0.141912 0.428359 0.468718 0.409553 -0.002206 0.030207 -0.526573 0.477595 0.494306 -0.697359 -0.821402 -0.586457 0.286409 -0.612525 -0.455770 -0.578459 0.250602 0.337354 0.483193 0.006281 0.651121 -0.561397 -0.248745 0.372972 -0.598860 0.326246 0.042880 -0.387521 -0.540060 0.036810 -0.378949 -0.245299 -0.437438 0.089261 -0.466469 0.839417 0.733793 -0.934103 0.533588 -0.748238 0.219829 0.418868 -0.467569 -0.474615 0.030816 -0.364274 -0.202026 0.554406 0.456959 0.068120 -0.567848 -0.146572 0.417578 -0.677943 -0.606611 -0.362122 0.489995 0.391109 0.110463 0.368751 0.780398 0.605032 0.315246 0.331165 -0.380218 -0.728426 0.371646 -0.124102 -0.510281 -0.456236 -0.680064 -0.288197 -0.265513 -0.616877 0.206303 0.169702 0.571786 0.544640 0.427965 -0.595582 -0.307514 0.218310 -0.261737 -0.707313 -0.566943 -0.447309 0.212342 0.453467 0.259663 1.000000 0.309065 -0.179824 -0.005662 0.362701 0.611975 -1.000000 -0.783860 0.585408 0.159071 -0.503854 -0.201193 -0.798812 0.125182
-0.942996 -0.390062 0.171910 0.255657 0.317162 -0.126681 -0.892212 0.532851 0.118768 -0.583869 0.673784 -0.604534 -0.494694 0.526248 -0.152287 -0.511546 -0.547967 -0.684538 -0.626558 -0.515799 0.699517 0.177640 0.372394 0.261474 0.543959 -0.586722 0.296149 -0.320735 -0.693791 -0.486700 -0.465522 0.660269 0.313230 -0.292738 0.481340 -0.323250 -0.160345 0.774153 -0.018358 0.532702 0.174473 0.236201 0.385981 0.187870 0.450382 0.115263 0.642919 -0.611417 -1.000000 0.250937 0.039791 0.381975 -0.645921 -0.162701 -0.927876 -0.933410 0.508866 -0.463547 0.686431 -0.515950 -0.690405 0.408372 -0.939141 -0.146940 -0.396019 0.220117 0.232611 -0.442067 0.127298 0.824558 -0.062908 0.415077 0.349168 0.589689 0.572072 0.645951 -0.342440 -0.615157 0.345725 -0.737614 0.424938 -0.004195 0.465679 0.643642 0.285647 0.730413 -0.190028 0.798639 -0.874176 0.899762 0.317667 -0.313646 -0.363462 0.993296 0.346875 0.881003 0.959042 0.451739 0.299058 -0.670663 0.122742 0.119281 0.010191 0.126004 -0.299675 1.000000 -0.424672 -0.078615 -0.360377 0.953232 0.509310 0.162169 0.212256 0.851346 -0.595721 -0.136569 0.081287 -0.702717 -0.078944 0.571109 -0.346921 -0.775850 -0.240328 0.114518 -0.658523 -0.141629 0.269945 -0.767091 0.846852 0.357635 -0.273009 -0.172444 -0.403734 0.482829 0.307978 0.129541 -0.078063 -0.271573 0.270070 -0.364470 0.337461 0.413438 0.676961 0.086690 0.130228 0.309226 -0.678286 -0.590032 -0.437728 0.532265 0.341437 -0.086972 0.259228 0.517366 0.582994 0.293738 0.245671 -0.516331 -0.314174 0.028629 -0.692315 -0.652926 -0.762004 -0.550422 -0.443914 -0.527396 -0.807573 0.805463 0.489259 0.213338 0.544356 0.402191 -0.068060 -0.142981 0.216211 -0.929211 -0.551598 -0.619886 0.119082 0.597704 0.773358 0.204080 0.301986 0.644326 0.302165 -0.563853 0.506436 0.020261 -0.971028 -0.280468 0.372274 0.755406 -0.087882 -0.284371 -0.566385 0.683421
-0.148405 -0.649255 -0.534801 0.509169 1.000000 0.566727 -0.470786 0.308559 0.252645 -0.882496 -0.043291 -0.318525 -0.321837 0.470883 -0.041899 -0.495562 -0.349641 -0.099221 -0.400709 -1.000000 0.397070 0.113608 0.198043 -0.838018 0.188428 -0.562341 0.573561 -0.875803 -0.389757 -0.122008 -0.531919 -0.334106 0.195263 -0.457276 0.488913 -0.471838 -0.380299 0.317739 0.159610 0.368851 -0.683580 0.281951 0.629566 0.107356 0.266914 0.780259 0.401144 -0.563395 -0.572830 0.409105 0.742056 0.329626 -0.484134 -0.353816 -0.735454 -0.581107 0.516359 -0.355148 0.102091 -0.470929 -0.522530 -0.098324 -0.749111 -0.151859 -0.304056 -0.081332 0.325434 -0.404571 0.512824 0.147709 -0.353892 0.270380 0.312217 0.142744 -0.006109 0.247341 -0.482294 -0.588382 -0.745471 -0.752679 0.222362 -0.634974 0.353639 0.375434 0.151443 0.256139 -0.408219 -0.047113 -0.352566 0.406842 0.576538 -0.732127 -0.712786 0.094820 0.320410 0.278413 0.476788 0.693270 0.427502 -0.458431 0.343284 0.329444 -0.623001 -0.566141 -0.489945 0.267498 -0.163440 -0.475401 -0.527842 0.785181 0.394183 0.427533 0.024256 0.626920 -0.210670 -0.549628 0.173994 -0.294606 0.051186 0.378374 -0.797937 -0.769149 -0.684796 -0.565876 -0.455319 -0.339658 0.207674 -0.300500 0.394546 0.233927 -0.676936 0.438329 -0.686368 0.648629 0.427160 -0.752340 -0.587578 -0.083351 -0.655538 -0.395041 0.392793 0.795031 0.708305 -0.353282 -0.214440 0.499217 -0.782955 -0.619680 -0.833016 0.022350 0.050410 -0.661099 0.269002 0.340137 0.095263 0.383327 0.397235 -0.522545 -0.493328 0.501956 -0.421320 -0.579985 -0.289136 -0.120438 -0.708914 -0.862221 -0.253512 0.102050 0.044406 -0.039116 0.529169 0.756773 -0.572636 -0.251627 -0.035280 -0.552967 -0.245739 -0.414090 -0.300352 0.243903 0.607996 0.865003 0.563711 0.464499 0.396704 -0.726343 0.190325 0.238722 -0.574274 -0.299468 0.418927 0.249699 -0.945400 -0.271217 -0.669705 0.545715
-0.747968 -0.464131 -0.386487 0.354371 0.184240 0.437946 -0.480898 0.091662 0.353243 -0.607109 0.620169 -0.533387 -0.403801 0.610604 -0.459139 -0.354631 -0.656042 -0.592524 -0.441235 -0.793469 0.280304 0.410264 0.159504 -0.870542 0.057859 -0.444444 0.370944 -0.553876 -0.581850 -0.270253 -0.467309 0.223716 0.529170 0.235914 -0.030251 -0.507933 -0.441264 0.495465 0.163596 0.392962 -0.590810 -0.070345 0.517406 0.502044 -0.002356 0.347730 0.376979 -0.503115 -0.639872 0.569057 0.101195 0.518894 -0.406084 -0.221402 -0.528610 -0.487620 0.082732 -0.773838 0.557987 -0.351960 -0.547882 0.324392 -0.292110 0.411792 -0.669150 0.742535 0.597319 -0.639100 0.262522 0.393785 -0.319037 0.149861 0.346990 0.265963 0.273366 0.321159 -0.378972 -0.103763 -0.172221 -0.680370 0.443291 -0.407053 0.361377 0.263168 0.207159 0.284937 -0.438620 0.628284 -0.159555 0.316772 0.346925 -0.549667 -0.564786 0.251258 0.379545 0.082603 1.000000 0.610606 0.268303 -0.580232 0.421747 0.329429 -0.314045 -0.274507 -0.775232 0.279842 -0.791472 -0.547128 -0.495017 0.267105 0.622317 0.521337 0.632554 0.114201 -0.504260 -0.451614 0.380240 -0.370526 0.325767 0.240187 -0.491928 -0.503286 -0.323974 -0.478737 -0.644093 -0.395236 0.225269 -0.496290 0.242059 0.478305 -0.951979 0.257989 -0.466426 0.446396 0.526058 -0.709119 -0.374209 0.081670 -0.351411 -0.383697 0.234659 0.411639 0.354102 -0.296743 -0.476272 0.327693 -0.414157 -0.246044 -0.325403 0.325300 0.216443 -0.547715 0.228990 0.450239 0.288769 0.758857 0.457361 -0.311329 -0.642623 0.330948 -0.518858 -0.492015 -0.608982 -0.338491 -0.626704 -0.552007 -0.536913 0.068930 0.590993 0.260940 0.193530 -0.127890 -0.650357 -1.000000 0.226399 -0.490292 -0.625797 -0.071080 -0.635913 0.107052 0.324174 0.364521 0.597976 0.102353 0.280407 -0.187021 0.496089 0.302047 -0.707336 -0.509559 0.309035 0.198316 -0.615133 -0.448023 -0.292958 0.393055
-0.102572 -0.500057 -0.187138 0.220965 0.659385 0.727624 -0.624464 0.764658 0.585093 -0.111890 0.302937 -0.288034 0.124385 0.713299 -0.155082 -0.605105 -0.706170 -0.439586 -0.059221 -0.781644 0.448400 0.891771 0.635655 -0.087864 0.571165 -0.135520 0.892885 -0.630116 -0.069480 -0.517016 -0.206133 0.531627 0.682053 0.293820 0.063221 -0.057243 -0.380777 0.169189 0.493682 0.465388 0.042317 0.388260 0.745876 -0.022687 0.023414 0.267576 -0.025768 -0.195498 0.079018 0.512328 0.575051 0.661596 -0.351939 -0.631696 -0.534757 -0.343439 0.245265 -0.261647 0.410562 -0.445389 -0.386845 0.360201 -0.473038 0.180249 -0.288163 0.518829 0.644066 -0.580330 0.673741 0.331710 0.006701 0.491061 0.757329 0.662782 0.588842 0.532861 -0.261456 -0.178827 -0.190087 -0.141048 0.296133 -0.206739 0.475228 0.720458 0.398242 0.627509 -0.650992 0.891834 -0.141732 0.612048 0.272071 -0.812597 -0.466765 0.604830 0.187725 0.467537 0.020423 0.448844 0.420875 -0.154752 0.988584 0.728694 -0.513378 -0.686916 -0.182025 0.406071 -0.329889 -0.660000 -0.577390 0.223410 0.209355 0.529031 0.162140 0.228872 -0.698021 -0.267751 0.698307 -0.495817 0.599556 0.625372 -0.345541 -0.170351 -0.284285 0.122149 -0.368255 -0.172779 0.550022 -0.236874 0.565799 0.500217 -0.613058 -0.207929 -0.449080 0.722550 0.552528 -0.547419 -0.274182 0.431660 -0.116881 -0.730847 0.343230 0.747412 0.427650 -0.438485 -0.309326 0.515520 -0.280105 -0.282391 -0.417671 0.576556 0.205335 -0.150677 0.463369 0.577831 0.575190 0.474074 0.106301 -0.349357 -0.003176 0.882554 -0.528303 -0.235906 -0.176354 -0.024247 -0.002556 -0.450901 0.253172 0.392470 -0.004800 0.437491 0.816600 0.708724 0.044967 0.040067 0.643543 -0.092156 -0.289215 -0.732821 -0.375431 0.166524 0.903101 0.580972 0.468643 0.383783 0.863933 -0.994983 0.513126 1.000000 -0.368781 -0.566234 0.639255 0.349927 -0.354610 -0.150120 -1.000000 0.353533
-0.365135 -1.000000 -0.555083 0.836638 0.115641 -0.114430 -0.601801 0.679089 0.344460 -0.213268 0.403372 -0.694875 -0.763255 0.639919 -0.295724 -0.313082 0.101114 -0.608894 -0.391558 0.066329 0.334118 0.085040 0.830785 -0.713866 0.179233 0.054395 0.530078 -0.939451 -0.028049 -0.200436 -0.325160 0.829402 -0.052336 0.314691 0.109460 -0.208351 -0.391286 0.251538 0.504899 0.344031 -0.342808 0.338688 0.435232 0.735335 0.227537 0.578869 0.471323 -0.435919 -0.852368 0.479643 0.811667 0.458212 0.167854 -0.149425 -0.194978 -0.462667 0.525017 -0.445086 0.401809 -0.291600 -0.523516 0.699712 -0.321773 0.342157 -0.405383 0.774670 0.572394 -0.601577 0.563988 0.482298 -0.415779 0.534379 0.710311 0.620759 0.656421 0.579331 -0.178583 -0.668641 -0.735188 -0.387023 0.583020 -0.717393 0.462784 0.350546 0.240842 0.540427 -0.620643 0.218771 -0.641708 0.526910 -0.098082 -0.222852 -0.382824 0.855565 0.398559 0.561892 0.239036 0.095832 0.277748 -0.182116 0.114535 0.118195 -0.342720 -0.189320 -0.163512 0.210828 -0.457023 -0.260267 -0.260101 -0.084152 0.682462 0.455712 -0.007090 -0.123786 -0.411064 -0.341487 0.523971 -0.682944 0.754658 0.931120 -0.128877 -0.306940 -0.496261 -0.382702 -0.361955 -0.083220 0.646605 -0.600449 -0.088197 0.469155 -0.206727 0.270721 -0.404712 0.401429 0.693246 -0.457984 -0.632811 0.491231 -0.080944 -0.393515 0.599823 0.428104 0.530129 -0.130836 -0.987964 0.762780 0.204913 -0.126797 -0.034082 0.492405 0.400067 -0.398394 0.221937 0.416400 0.413617 0.528608 0.572246 -0.814036 -0.327508 0.716362 -0.376231 -0.293534 -0.482844 -0.163596 -0.222259 -0.397861 -0.429122 0.774658 0.755148 0.336537 -0.110302 0.422143 -0.189994 -0.722737 0.160999 -0.141366 -0.131552 0.294591 -0.125612 0.581499 0.809309 0.429181 0.559226 0.721847 0.264855 -0.246520 1.000000 0.936417 -0.143995 -0.363868 0.692998 0.333995 -0.618078 -0.825351 -0.279518 0.708884
-0.595248 -0.421110 -0.170225 0.194965 0.638113 0.254565 -0.585089 0.291025 0.330094 -0.598730 0.288779 -0.514101 -0.703396 0.370328 -0.396425 -0.553546 -0.354453 -0.350033 -0.603426 -0.022333 0.259301 0.460430 0.638289 -0.611767 0.696272 -0.143425 0.275765 -0.206120 -0.584047 -0.305574 -0.255287 0.459877 0.330645 0.403874 0.123600 -0.552712 -0.675953 0.450550 0.383785 0.264472 -0.438359 0.214571 0.450978 0.495554 0.561848 0.283025 0.577005 -0.235176 -0.231183 0.365161 0.641351 0.263298 -0.334246 -0.409537 -0.746649 -0.818895 0.494753 -0.065542 0.900692 -0.457504 -0.457633 0.365844 -0.375406 0.767154 -0.165571 0.046961 0.486045 -0.328123 0.470939 0.234946 -0.354982 0.473701 0.436198 0.490101 0.487358 0.249388 -0.311249 -0.069335 -0.328553 -0.705146 0.356838 -0.795155 0.156243 0.242918 0.124320 0.723984 -0.262758 0.575756 -0.225629 0.278885 0.642133 -0.865393 -1.000000 0.781783 0.429868 0.709425 0.640503 0.448561 0.445684 -0.648185 0.713620 0.462806 -0.133440 -0.767763 -0.430616 0.733076 -0.155368 -0.370523 -0.347630 0.246158 0.530463 0.453266 0.221553 0.556637 -0.222302 -0.351400 0.062328 -0.002580 0.261438 0.802546 -0.484937 -0.208470 -0.325260 -0.021685 -0.344556 -0.272951 0.110151 -0.269280 0.629661 0.284941 -0.440323 0.218461 -0.646458 0.451468 0.461244 -0.366263 -0.262245 0.379580 -0.430382 -0.447742 0.611494 0.335791 0.276935 -0.112022 -0.318290 0.269637 -0.363649 -0.417901 -0.423197 1.000000 0.256197 -0.227547 0.469625 0.322510 0.343493 0.384878 0.298791 -0.772641 -0.408590 0.124864 -0.488076 -0.521293 -0.435071 -0.403556 -0.624618 -0.467812 -0.428674 0.131701 0.093990 0.517241 0.616333 0.599866 -0.391472 -0.164011 0.456704 -0.502314 -0.288399 -0.636330 -0.582429 0.534961 0.410417 0.775698 0.167257 0.277341 0.177130 -0.249024 0.214672 0.531800 -0.477764 -0.142204 0.299421 0.202306 -0.409728 -0.250738 -0.401862 0.093071
-0.598658 0.012261 -0.520257 0.215623 0.369195 0.565196 -0.065587 0.260111 0.679852 -0.031539 0.869524 -0.298869 -0.319501 0.777517 -0.235711 -0.174582 -0.226807 -0.131089 -0.412987 -0.094899 0.556312 0.552919 0.135599 -0.216590 0.501430 -0.607551 0.599086 -0.424813 -0.042840 -0.239345 -0.472311 0.697107 0.344121 0.487778 0.284688 -0.419891 -0.888148 0.075462 0.852822 0.458519 -0.735840 -0.054374 0.550088 0.506368 0.558397 0.401492 0.405901 -0.359896 -0.735379 0.212934 0.552806 0.476819 -0.993717 -0.295405 -0.028914 -0.460634 0.068159 -0.778952 0.671203 -0.219363 -0.170839 0.492631 -0.355150 0.583763 -0.419886 0.958513 0.036208 -0.369644 0.517881 0.692370 -0.238562 0.400052 0.824129 0.872471 0.700623 0.357879 -0.413003 -0.365021 0.002435 -0.060348 0.591206 -0.417811 1.000000 0.087826 0.137584 0.612976 -0.292850 0.425834 -0.539595 0.472518 0.241981 -0.200155 0.090830 0.615409 0.252185 0.871603 0.309156 0.606135 0.400195 0.032560 0.789537 0.416363 -0.201921 -0.414718 -0.434573 0.351650 -0.609252 -0.506589 -0.472896 0.006087 0.341560 0.263590 0.187771 0.581590 -0.513382 -0.218470 0.076992 -0.207892 0.660936 0.730375 -0.122083 -0.651572 -0.319830 -0.211683 -0.604952 -0.006641 0.758798 -0.421545 0.100408 0.821607 -0.595694 0.265830 -0.387381 0.707778 0.308339 -0.496943 -0.270268 -0.076627 -0.613684 -0.648352 0.321190 0.559096 0.837477 -0.344480 -0.529363 0.438487 -0.452007 -0.176056 -0.488082 0.597263 0.926368 -0.344737 0.813631 0.206625 0.294566 0.035927 0.255861 -0.264475 -0.305794 0.304511 -0.482873 -0.670130 -0.737569 -0.192401 -0.386710 -0.454346 -0.658424 0.385357 0.447809 0.507931 0.182063 -0.184819 -0.203043 -0.130547 0.557604 0.001153 -1.000000 -0.395026 -0.222861 0.750908 0.013125 0.261505 0.801010 0.558137 0.642585 -0.225522 0.219392 0.054112 -0.477510 -0.020398 0.400647 0.317013 -0.111271 -0.394404 -0.148683 0.900367
-0.982961 -0.494961 -1.000000 0.322766 0.307130 0.152857 -0.388007 0.458232 0.254326 -0.509499 0.161805 -0.445430 -0.447896 0.116941 -0.417935 -0.276127 -0.424361 -0.537275 -0.639928 -0.362569 0.492032 0.484538 0.038635 0.116171 0.226802 -0.525394 0.284713 -0.441987 -0.494593 -0.495817 -0.412976 0.331138 0.482553 0.383275 0.390181 -0.650026 -0.377452 0.227414 0.674464 0.112751 -0.668115 0.454885 0.450522 0.263650 1.000000 0.718762 0.715459 -0.357198 -0.577841 0.169111 0.174578 0.290704 -0.347823 -0.542210 -0.420271 -0.540273 0.051398 -0.343085 0.058724 -0.581140 -0.483995 0.346733 -0.138641 0.200743 -0.420816 0.359759 0.218095 -0.544253 0.356095 0.368101 -0.696600 0.219096 0.287860 0.402053 0.431799 0.514402 -0.650401 -0.488659 -0.417684 -0.354309 0.149760 -0.163664 0.782784 0.359645 0.118058 0.236167 -0.537011 -0.149784 -0.370242 0.418254 0.378155 -0.832050 -0.547497 0.254734 0.412641 0.336075 0.579321 0.345365 0.130241 -0.527019 0.603504 0.327461 -0.609088 -0.405938 -0.622326 0.027511 -0.259869 -0.728894 -0.566852 -0.082943 0.663230 0.346107 0.206668 0.441353 -0.396419 -0.326950 0.438076 -0.504514 0.285879 0.259224 -0.640995 -0.613021 -0.514374 -0.475244 -0.520422 -0.242691 0.580981 -0.382842 0.562630 0.144773 -0.231519 0.110177 -0.582379 0.162204 0.093869 -0.411209 -0.485049 0.401786 -0.404168 -0.386230 0.641442 0.473212 0.503282 -0.420526 -0.506143 0.124154 -0.479805 -0.451056 -0.229739 0.652549 0.421251 -0.848015 0.302187 0.033583 0.632088 0.389984 0.370660 -0.422836 -0.535851 0.256030 0.214896 -0.293019 -0.814237 -0.598892 -0.413382 -0.678807 -0.652895 0.664264 0.449281 0.367867 0.145293 0.400683 -0.607256 -0.365938 0.355731 -0.599171 -0.567086 -0.795931 -0.177065 0.418276 0.564315 0.135692 0.412740 0.155179 0.470789 -0.343722 0.101268 0.407177 -0.436143 -0.160704 0.255022 0.590037 -0.163122 -0.659142 -0.959465 0.528246
-0.229787 -0.293536 -0.013297 0.548289 0.657331 0.464873 -0.605885 0.279546 0.543645 -0.755390 0.460637 0.115613 -0.493900 0.714769 -0.124743 -0.355313 -0.393996 -0.963610 -0.456664 -0.335860 0.366583 0.158733 0.722903 -0.698103 0.258722 -0.422981 0.556562 -0.258842 -0.474154 -0.501052 -0.209344 0.210271 0.369530 0.257458 0.637583 -0.917222 -0.604556 0.359185 0.439765 0.436263 -0.205879 -0.272165 0.223232 0.540899 0.586040 0.701538 0.596998 -0.240341 -0.816074 0.683578 0.202782 -0.460915 -0.465586 -0.761401 -1.000000 -0.570712 0.158140 -0.484363 0.921273 -0.464988 -0.461224 0.529460 -0.396573 1.000000 -0.073478 0.034385 0.335671 -0.667549 -0.101995 0.662998 0.189088 0.030652 0.292664 0.510247 0.540826 0.683644 -0.542952 -0.190493 -0.329235 -0.517886 0.422474 -0.395458 0.312607 0.248676 0.317111 -0.037419 -0.424693 0.252578 -0.553998 0.172098 0.978715 -0.310881 -0.318847 0.357140 0.340946 0.449036 0.229760 0.016898 0.397242 -0.284162 0.584250 0.438054 -0.901622 -0.785790 0.044631 0.477781 -0.530987 -0.174116 -0.318052 0.529533 0.684037 -0.408125 0.248556 0.043363 -0.432053 -0.372866 0.470974 0.091307 0.620027 0.090290 -0.570428 -0.432410 -0.423787 0.034684 -0.332412 -0.395877 0.764555 -0.886622 0.071359 0.516054 -0.816699 0.767062 -0.507631 0.092619 0.725704 -0.350620 -0.649973 0.392597 -0.582233 -0.302097 0.321654 0.409212 0.496090 -0.520279 -0.454059 0.199470 -0.198021 -0.160881 -0.579485 0.257748 0.425587 -0.603183 0.215068 0.723282 0.383338 0.427814 0.167972 -0.110900 -0.645749 0.459919 -0.541821 -0.553913 -0.187808 -0.623536 -0.586769 -0.549933 -0.120360 0.730700 0.049160 0.241625 0.406606 -0.037898 -0.396906 -0.300964 0.288648 -0.273465 -0.666346 -0.687091 -0.476398 0.437266 0.257186 0.625443 0.249768 -0.077952 0.465318 -0.569223 0.697215 0.471370 -0.546071 -0.530789 0.464187 0.013103 -0.837082 -0.380605 -0.476692 0.722331
-0.246243 -0.189554 -0.303084 0.241411 0.638839 0.844441 -0.204392 0.359716 0.325067 -0.235972 0.465448 -0.648302 -0.463432 0.242958 0.202954 -0.705959 -0.807242 -0.667658 -0.246311 -0.631446 0.482983 0.881132 0.537606 -0.448207 0.540975 -0.814347 0.414654 -0.520017 -0.549861 0.264167 -0.553474 0.474264 0.486518 0.665939 -0.013338 -0.363868 -0.232553 0.153365 0.627611 0.426303 -0.564109 0.051207 -0.017349 0.986658 0.385080 0.361335 0.652196 -0.543729 -0.537597 0.554068 0.695875 0.532184 -0.702708 0.185261 -0.217381 -0.419130 0.437969 -0.139507 0.155535 -0.385664 -0.468474 0.477796 -0.242303 0.265672 -0.476951 0.835998 0.250926 0.353065 0.713280 0.627394 -0.750826 0.650672 0.526186 0.099747 0.540339 -0.017730 -0.471728 0.085059 -0.058211 -0.206344 0.879533 -0.586958 0.771657 0.448764 0.314970 0.984467 0.296629 0.769608 -0.633689 0.358914 0.206369 -0.441201 -0.483347 0.671113 0.218988 0.395575 0.972614 0.675249 0.808287 -0.437771 0.525511 1.000000 -0.947267 -0.631815 -0.283255 0.215691 -0.319721 -0.254052 -0.206307 0.819057 0.341808 0.065448 0.262630 -0.011637 -0.792482 -0.445962 0.620887 -0.103896 -0.000950 0.366456 -0.549844 -0.250605 -0.043127 -0.165482 -0.513571 -0.103545 0.529696 -0.060454 0.599386 0.296426 -0.182163 0.830179 -0.678997 0.443829 0.486134 -0.715320 -0.335801 0.025205 -0.157872 -0.556263 0.422753 0.780305 0.551252 -0.689485 -0.289221 0.733579 0.092182 -0.779741 -0.300956 -0.185812 0.540053 -0.046274 0.139401 0.685972 0.420154 0.825998 0.424106 -0.073595 -1.000000 0.649916 -0.192892 -0.612414 -0.000538 -0.351422 -0.147165 0.110879 -0.417100 0.555765 0.381696 -0.306872 0.388290 0.918585 -0.341652 0.278966 0.452453 -0.686971 -0.114073 -0.209293 -0.741291 0.173923 0.619923 0.347734 0.565547 0.895978 0.553631 0.041243 0.340321 -0.210324 -0.633065 -0.262038 0.796189 0.499627 -0.301326 -0.403111 0.218245 0.865209
-0.342937 -0.686887 -0.230669 0.455621 0.356317 0.164692 -0.311848 0.590501 0.325944 -0.399760 0.257024 0.074339 -0.700898 0.811989 -0.500572 -0.062489 -0.386981 -0.302889 -0.679281 -0.686464 0.322639 0.544481 1.000000 -0.609363 0.181295 -1.000000 0.278883 -0.535630 -0.617304 -0.429210 -0.253507 -0.197429 0.449731 0.772843 0.792570 -0.729586 -0.222783 0.742525 0.550458 0.447542 -0.766908 0.400316 0.471170 0.178752 0.349807 0.741105 0.329164 -0.616536 -0.412705 0.238734 0.474995 0.266696 0.085895 -0.566057 -0.615052 -0.384465 0.545309 -0.288723 0.402918 -0.222749 -0.409563 0.293153 -0.382707 0.170690 -0.386510 0.714385 0.042399 -0.613739 0.326100 0.161130 -0.124485 0.308277 0.457307 0.475361 0.140773 0.658516 -0.155260 -0.273860 -0.776019 -0.330878 0.243708 -0.665197 0.365436 0.334681 0.404143 0.231389 -0.496799 0.307487 -0.284409 0.195971 0.242136 -0.625766 -0.884238 0.322838 0.200583 0.543976 0.372550 -0.059165 0.121456 -0.454815 0.092209 0.479657 -0.537681 -0.458776 -0.633737 0.267977 -0.537309 -0.425148 -0.437142 0.460383 0.287684 0.268073 0.483133 0.635089 0.009854 -0.604783 0.328722 -0.230440 0.390249 0.232032 -0.119124 -0.813280 -0.646855 -0.336654 -0.237285 -0.673406 0.374256 -0.365083 0.355225 0.145409 -0.148927 0.507032 -0.431505 0.506577 0.506018 -0.422241 -0.603369 0.537480 -0.618341 -0.277548 0.175012 0.267637 0.340095 -0.761533 -0.659560 0.271206 -0.098832 -0.526086 -0.452660 0.952506 0.076713 -0.209733 0.134306 0.396029 0.484431 0.294500 0.241968 -0.807284 -0.563840 0.675998 -0.414254 -0.591199 -0.446354 -0.287204 -0.582824 -0.788795 -0.776873 0.270897 0.371933 0.429569 0.149858 0.066622 -0.349813 -0.514002 0.486597 -0.473366 -0.219228 -0.376579 -0.426725 0.271151 0.443286 0.363683 0.558162 0.767509 0.683984 -0.609986 0.342614 0.212434 -0.512330 -0.634180 -0.151598 0.397697 -0.539182 -0.595829 -0.284153 0.148344
-0.374119 -0.804416 -0.372883 0.291603 0.837467 0.041213 -0.295866 -0.069510 0.472558 -0.399332 0.638430 -0.201371 -0.378717 0.676852 -0.445272 -0.428403 -0.226546 -0.568904 -0.044369 -0.386651 0.648375 -0.005505 0.516180 -0.251249 0.885581 -0.404031 0.416758 -0.739839 -0.778942 -0.401084 -0.251120 0.682409 0.902222 0.423042 0.460120 0.204122 -0.580657 0.196122 0.287579 0.180381 -0.229313 0.708103 -0.139258 0.540100 0.119776 0.311987 0.218094 -0.895662 -0.356827 0.599320 0.635039 1.000000 -0.181107 -0.381034 -0.654456 -0.397438 0.368299 -0.379003 -0.028184 -0.541857 -0.357998 0.572695 -0.536956 0.702888 0.012768 0.533898 0.478605 -0.656805 0.818978 0.527171 -0.491800 0.621485 0.183021 0.091527 0.407447 0.180344 -0.505258 -1.000000 -0.260165 -0.219805 0.265029 -0.327824 0.228118 0.796266 0.624465 -0.119980 -0.846912 0.101339 -0.477716 0.773747 0.483985 -0.167590 -0.336185 0.328542 0.384721 0.796063 0.750514 0.254681 -0.108530 -0.428606 0.203333 0.762871 -0.190834 -0.783295 -0.583869 0.210321 -0.447620 -0.089720 -0.404211 0.219281 0.835972 -0.089152 0.432390 0.427905 -0.635913 -0.397904 0.086485 0.187690 0.374922 0.700557 -0.501048 0.045154 -0.440968 -0.638216 0.456983 -0.244645 0.504760 -0.530679 0.377202 0.364116 -0.597174 0.415532 -0.555326 0.533408 0.579817 -0.423338 -0.755791 0.349751 -0.455520 -0.749062 0.187624 0.230242 0.467171 -0.464697 -0.421926 0.686882 -0.155685 -0.381874 -0.343205 0.302408 0.076436 -0.402830 0.452603 0.353794 0.070281 0.058346 -0.034101 -0.351034 0.204517 0.491161 -0.347785 -0.194157 -0.935396 -0.078881 -0.173605 -0.283639 -0.565176 0.225621 0.294922 0.038532 0.731398 0.799217 0.170362 -0.809813 0.835694 -0.260734 -0.458732 -0.373239 -0.438057 0.134312 0.469196 0.525952 0.652658 0.694676 0.514860 -0.305071 0.525001 0.560506 -0.079215 -0.284015 0.491190 0.972021 -0.002817 -0.861980 -0.173070 0.439055
-0.613630 -0.388786 -1.000000 0.390639 0.396246 0.506080 -0.376479 0.185929 0.172431 -0.450599 0.442338 -0.984477 -0.726510 0.224131 -0.324585 -0.488530 -0.940014 -0.637207 -0.248282 -0.759119 0.699223 0.291323 0.382207 -0.535896 0.148766 -0.628823 0.225450 -0.804685 0.099814 -0.636256 -0.463645 0.213628 0.188167 0.520164 0.358845 -0.613148 -0.427737 0.103878 0.920769 0.798365 -0.550768 0.449286 0.332370 0.517116 0.462112 -0.171386 0.372635 -0.722611 -0.139323 0.492657 0.621094 0.083812 -0.953645 -0.194872 -0.320176 -0.439759 0.249140 -0.530439 0.604462 -0.185471 -0.239162 0.471059 -0.710946 0.245776 -0.154753 0.817452 0.407134 -0.706701 0.156491 0.587009 -0.447440 0.464875 0.294570 0.324228 0.242694 0.492976 -0.830063 -0.512037 -0.783741 -0.392479 0.722073 -0.473215 -0.201054 0.434921 0.688262 0.258825 -0.017698 0.195292 -0.413326 0.446340 0.443588 -0.475439 -0.365148 0.211419 0.315795 0.186010 0.487596 0.855501 -0.111524 -0.741768 0.425594 0.268525 -0.119970 -0.332520 -0.452529 0.530748 -0.450223 -0.448390 -0.376292 0.662833 0.189104 0.167294 -0.125609 1.000000 -0.897807 -0.379598 0.352541 -0.364798 0.458309 0.292873 -0.233839 -0.485350 -0.860341 -0.391999 -0.510163 -0.789896 0.305159 -0.286954 -0.374108 0.428075 -0.664569 0.668126 -0.413061 0.582519 0.150182 -0.788040 -0.530605 -0.421227 -0.605891 -0.493783 0.347472 0.705212 -0.054563 0.025488 -0.294504 0.660737 -0.490399 -0.382344 -0.136137 0.409658 0.807592 -0.640936 0.229262 0.283579 0.551042 0.453869 0.011916 -0.501436 -0.551702 -0.061972 -0.334360 -0.775118 -0.302147 -0.615519 -0.189170 -0.274420 -0.565825 0.040827 -0.230432 0.097363 0.213816 0.125373 -0.284601 -0.284187 0.468861 -0.534064 -0.624469 -0.639779 -0.420128 0.251196 0.204174 0.059714 0.570468 0.611437 0.047148 -0.288588 0.535814 0.472769 -0.134210 -0.384145 0.257791 -0.240265 -0.301432 -0.925430 -0.088326 0.496736
-0.897330 -0.793352 -0.027091 0.586338 0.281382 0.286363 -0.860068 0.214830 0.253978 -0.464810 0.519027 -0.149623 -0.689244 0.151635 -0.564944 0.296490 -0.855569 -0.471077 -0.440415 0.078706 0.473622 0.649429 0.272893 -0.700950 0.429378 -0.641005 0.401714 -0.286338 -0.596343 -0.463825 -0.441198 0.849597 0.423739 0.814115 0.291978 0.107113 -0.314690 0.230281 0.531849 0.778091 -0.912612 0.430728 0.361384 0.604706 -0.077051 0.045136 0.685698 -0.515006 -0.198885 0.061529 0.433509 0.314017 -0.110848 -0.256257 -0.553612 -0.485569 0.259294 -0.214867 0.656408 -0.861460 -0.203481 0.531316 -0.565282 0.777828 -0.591478 0.836998 0.491216 0.398061 0.502007 0.472200 -0.000522 0.051618 0.727093 0.603644 0.589616 0.458835 -0.115923 -0.224030 -0.006598 -0.526257 0.375486 -0.370867 0.712725 0.700811 0.362220 0.184882 -0.725948 0.484135 -0.613571 0.699566 0.770221 -0.506905 -0.727703 0.594653 0.461072 0.125372 0.533889 0.211908 0.600220 -0.684201 0.995548 0.578720 -0.298650 -0.357632 -0.634367 1.000000 0.036644 -0.195251 -0.299220 0.999452 0.524937 0.700511 0.219841 0.539880 -0.684395 -0.408562 0.514832 -0.889719 0.281116 0.170745 -0.494666 -0.505287 -0.370179 -0.373205 0.102948 -0.123149 -0.275779 -0.063308 -0.076147 0.356688 -0.234318 0.051034 -0.825375 0.671980 0.504885 -0.624141 -0.107989 -0.048430 -0.399649 -0.392385 0.157129 0.547162 0.146391 -0.351397 -0.724830 -0.125349 -0.114551 -0.673518 -0.079581 0.742900 0.218734 -0.526249 0.819493 0.386478 -0.010943 0.309518 0.690558 -0.706370 -0.300848 -0.447282 -0.004399 -0.552277 0.002287 0.076262 -0.001032 -0.472097 -0.040762 0.588582 0.483273 0.537657 0.846190 -0.453252 -0.388969 -0.794809 0.362591 -0.293571 -0.859012 -0.401879 -0.439401 0.306445 0.477223 0.250194 0.584364 0.700655 0.123351 -1.000000 0.490825 0.659709 -0.323681 0.024923 0.968909 0.335917 -0.388074 -0.349637 -0.237312 0.237219
-0.129417 -0.814784 -0.526759 0.437621 0.375080 0.756422 -0.267402 0.140938 0.410896 -0.825996 0.030988 -0.136994 -0.518673 0.365989 -0.593007 -0.793221 -0.941856 -0.724139 -0.780780 -0.680571 0.831387 0.691131 0.375160 -0.438133 0.544370 -0.459332 0.622085 -0.367175 -0.754996 -0.278166 -0.617596 0.413966 0.346369 -0.275811 0.263040 -0.549331 -0.085161 0.130228 0.281804 0.537420 -0.702839 -0.108634 0.477784 0.401644 -0.190743 0.300398 0.242081 -0.005624 -0.478354 0.359627 0.185515 0.052213 -0.696309 -0.366227 -0.708918 -0.536931 -0.084068 -0.799889 0.105128 -0.771601 -0.442058 0.552865 -0.538320 0.431278 -0.363089 0.378991 0.359240 -0.062375 0.205372 0.019723 -0.436256 0.020875 -0.141124 0.217493 0.622026 0.584428 -0.285257 -0.762522 -0.506639 -0.372374 -0.076351 -0.338363 1.000000 0.338016 0.575028 0.640982 -0.648143 0.455230 -0.905663 0.268403 0.435056 -0.380225 -0.342696 0.034219 0.327525 0.279795 0.179279 0.072962 0.462438 -0.717429 0.247759 0.134784 -0.591631 -0.442285 -0.690576 0.431263 -0.427880 -0.944559 -0.482530 0.349433 0.328612 0.074243 -0.280613 0.713654 -0.385934 -0.781597 0.636943 -0.381767 -0.073494 0.216015 -0.385830 -0.578032 -0.181852 -0.173588 -0.822344 0.182125 0.237286 -0.858407 0.277628 0.258187 -0.508513 0.208557 -0.711392 0.499167 -0.002272 -1.000000 -0.460205 0.433887 -0.537261 -0.519685 0.470112 -0.150889 0.644758 -0.967888 -0.514877 0.689255 -0.697611 -0.555666 -0.496187 0.143746 0.663354 -0.812436 0.567248 0.697531 -0.235535 0.581415 0.635428 -0.597032 -0.325441 0.219651 -0.500249 -0.419409 -0.143446 -0.823625 -0.196953 -0.535557 -0.751689 0.306440 0.246974 -0.283734 0.538670 0.383073 -0.325445 0.113150 0.459627 -0.265914 -0.459967 -0.327177 -0.754299 0.387643 0.272285 0.082182 0.391935 0.462917 0.074224 -0.688237 0.363377 0.359664 -0.419410 -0.206902 0.372281 0.405541 -0.415905 -0.542914 -0.618490 -0.249482
-0.121841 -0.062503 -0.469373 0.299021 0.646275 0.311979 0.028588 0.104972 0.179465 -0.150322 0.519932 -0.235533 -0.546296 0.093797 -0.361105 -0.321632 -0.326817 -0.395427 -0.471205 -0.438136 0.784956 0.343079 0.641655 -0.644128 0.631294 -0.686164 0.438786 -0.228908 -0.444149 -0.304250 -0.309157 1.000000 0.657762 0.236913 0.506895 -0.180596 -0.528508 0.247158 0.536668 0.521015 -0.236946 0.525199 0.583340 0.131918 0.063356 0.713918 0.139743 -0.056247 -0.401677 0.775904 -0.143656 0.250867 -0.398254 -0.376286 -0.348204 -0.641568 0.638167 -0.528548 0.280948 -0.226130 -0.440543 0.215422 -0.677430 0.112067 -0.148864 0.292011 0.724083 -0.598123 0.209286 0.648272 -0.562577 0.164566 0.464324 0.859234 0.699140 0.426666 -0.273011 -0.183407 -0.797966 -1.000000 0.164822 -0.496017 0.335279 0.785778 0.417136 0.136792 0.162346 0.381118 -0.219331 0.403676 0.598231 -0.657888 0.217735 0.705975 0.440428 0.439750 0.690740 0.689922 0.593207 -0.498948 0.631755 0.494193 -0.444778 0.084297 -0.573435 0.755191 -0.236332 -0.878920 -0.265919 0.988166 0.495176 0.361312 0.332423 0.235696 -0.271128 -0.510722 0.777125 -0.302112 0.406138 0.462873 -0.534984 -0.245786 -0.573711 -0.704231 -0.487676 -0.668856 0.617567 -0.379758 0.501293 0.320896 -0.386380 0.285645 -0.486846 0.324557 0.157601 -0.111899 -0.261253 -0.046579 -0.017808 -0.345064 0.596176 0.482179 -0.012359 0.048103 -0.327299 0.173699 -0.466253 -0.544631 -0.268046 0.630862 0.461810 -0.410528 0.573818 0.519562 0.177996 0.561883 0.497571 -0.350177 -0.312173 0.465412 -0.450148 -0.349906 -0.275601 -0.483024 -0.496861 -0.577211 -0.253655 0.366495 0.344246 0.385721 0.336538 0.129200 -0.421752 -0.375173 0.063166 -0.522579 0.004725 -0.757614 -0.663310 0.839299 0.706716 0.348012 0.739270 0.451949 0.222438 -0.199041 0.266900 0.632010 -0.441745 -0.142328 0.461683 0.397267 -0.470147 -0.365813 -0.759290 0.897916
-0.189016 -0.376989 -0.626425 0.304797 0.125168 0.718650 -0.631730 0.359043 0.092023 -0.548569 0.267315 -0.155577 -0.601797 0.829216 -0.596009 -0.322614 -0.389066 -0.566659 -0.373642 -0.409595 -0.059881 0.183593 0.014786 -0.525352 0.066095 -0.446223 -0.010882 -0.651567 -0.444844 -0.676633 -0.511096 0.538652 0.650042 0.411382 0.293772 -0.792966 -0.888899 0.186988 0.458719 0.293095 -0.380062 0.009148 -0.064289 0.607904 0.261112 0.459582 0.512274 -0.724278 -0.440904 0.402394 -0.041409 0.047983 -0.420788 -0.690627 -0.452769 -0.949765 0.445282 -0.490127 0.011524 -0.222626 -0.702679 0.435360 -0.330699 0.286646 -0.600909 0.099311 0.279648 -0.750408 0.135833 0.177499 -0.290368 0.484749 0.288541 1.000000 0.913945 0.156908 -0.978381 -0.276759 -0.651863 -0.349092 0.281803 -0.572515 0.304732 0.095260 0.458098 0.481821 -0.220434 0.026957 -0.641878 0.392270 0.316599 -0.447475 -0.412046 0.179498 0.082297 0.280161 0.253564 0.327722 0.579168 -0.450607 0.397209 0.052202 -0.813684 -0.650314 -0.582495 0.159539 -0.214086 -0.122698 -0.633209 0.306241 0.397715 0.303715 0.385438 0.138636 -0.274705 -0.369586 0.372122 -0.414374 0.154875 0.930302 -0.655536 -0.528971 -0.520657 -0.726150 -0.705763 -0.752111 0.562118 -0.313276 0.042785 0.355518 0.008185 -0.201608 -0.446821 0.549215 0.067572 -0.287382 -0.497044 0.207816 -0.652107 -0.441363 0.348709 0.285121 0.246775 -1.000000 -0.864240 0.604236 -0.403539 -0.425954 -0.268884 0.160778 0.282069 -0.841302 0.228085 0.452555 0.196653 0.264384 0.209067 -0.460333 -0.655002 0.243841 -0.977713 -0.832107 -0.503084 -0.499535 -0.237027 -0.102819 -0.512733 0.284053 0.339269 0.521574 0.192368 0.580967 -0.126907 -0.355279 0.433049 -0.326513 -0.460121 -0.377490 -0.377009 0.422514 0.598072 0.165448 0.517782 0.111931 0.298163 -0.356190 0.476725 0.384565 -0.501182 -0.476192 0.431194 0.689026 -0.720709 -0.654222 -0.747334 0.242656
-0.675344 -0.248637 -0.009158 0.548869 0.283011 0.152865 -0.601191 0.195128 0.844369 -0.457902 0.164233 -0.179279 -0.153390 0.366181 -0.445604 -0.117850 -0.430133 -1.000000 -0.571014 -0.493821 0.761031 0.102790 0.581041 -0.731133 0.261472 0.056298 0.600949 -0.345949 -0.504497 -0.597230 0.148202 0.595518 0.548042 0.577488 0.556129 -0.504329 -0.202561 0.266895 0.065730 0.755583 -0.570471 0.519030 0.476340 0.364011 0.177202 0.611154 0.700079 -0.697146 -0.559776 0.807636 0.758274 0.366566 -0.131058 -0.425675 -0.102214 -0.283894 0.413329 0.032004 0.199673 -0.019992 -0.183661 0.740941 -0.371776 0.401756 -0.444257 -0.230065 0.757855 -0.909170 1.000000 0.621943 -0.217966 0.575420 0.594726 0.312319 0.432091 0.179488 -0.686996 -0.360313 -0.285459 -0.714244 0.586562 -0.484860 0.322416 0.556218 0.536600 0.245176 -0.279658 0.352479 -0.549955 -0.090609 0.164349 -0.376312 -0.170249 0.483220 0.867611 0.741965 0.560837 0.131036 0.471236 -0.212430 0.014503 0.284411 -0.635977 -0.301851 -0.507111 0.211955 -0.305640 -0.295942 -0.170925 0.335888 0.325907 0.424033 0.408149 0.523137 -0.359330 -0.317091 0.128988 -0.771797 0.428615 0.451111 -0.370621 -0.475096 -0.400721 -0.447858 -0.576413 -0.352177 0.447233 -0.503510 0.791969 0.169647 -0.805811 0.215579 -0.577669 0.338940 0.971668 -0.137156 -0.582597 0.234991 -0.233863 -0.103428 0.448647 0.732747 0.588866 0.021344 -0.361116 0.178666 -0.492333 -0.723430 -0.503083 0.656290 0.582826 -0.351994 0.376108 0.365618 0.634729 0.412394 0.307598 -0.069053 -0.562634 0.646349 -0.598727 -0.516526 -0.792139 -0.379596 -0.307197 0.011927 -0.661765 0.448337 0.832370 -0.156435 0.279208 0.536750 -0.474151 -0.476795 0.359520 -0.625293 -0.530283 -0.493955 -0.163301 0.452527 0.329298 0.458073 0.503907 0.417526 0.443046 -0.301572 0.584482 0.386035 -0.449565 -0.271131 -0.150810 0.111025 -0.495912 0.180610 -0.140718 0.265927
-0.596011 0.048981 -0.577432 0.245560 0.481172 0.142146 -0.338322 0.439376 0.615258 -0.583216 0.559923 -0.635946 -0.179935 0.200256 -0.294730 -0.240939 -0.589027 -0.393549 -0.456276 -0.855046 0.622145 0.685686 0.615542 -0.582073 1.000000 -0.457974 0.133099 -0.134896 -0.819349 -0.271368 -0.712044 0.477870 0.495998 0.127727 0.347392 -0.537761 -0.594468 0.109003 0.415831 0.348445 -0.783476 0.439311 0.355952 0.381239 0.633238 0.220144 -0.115873 -0.181477 -0.468551 0.147762 0.350557 0.348324 -0.132852 -1.000000 -0.289746 -0.343558 0.132995 -0.202252 0.162285 -0.590475 -0.805362 0.268957 -0.211641 0.248853 -0.697600 0.258494 0.414529 -0.707082 0.118014 -0.049948 -0.352038 0.684602 0.535224 0.302423 0.393162 -0.008567 -0.660517 -0.477139 -0.612628 -0.102426 -0.032719 -0.755754 0.715820 0.758168 0.057182 0.394904 -0.122436 0.071168 -0.534222 0.142506 0.229482 -0.214858 -0.493710 0.349547 -0.091424 0.554018 0.647410 0.072981 0.529665 -0.273534 -0.156011 0.058466 -0.127053 -0.347656 -0.265937 0.479645 -0.187554 -0.372286 -0.674857 0.295289 0.896767 0.260574 0.421813 0.308793 -0.597600 -0.698247 0.114161 -0.848556 0.358615 0.675070 -0.610920 -0.345401 -0.364101 -0.468327 -0.370678 -0.564849 -0.134228 -0.059568 0.565708 0.210066 -0.809396 0.815748 -0.306777 0.441696 0.294975 -0.082069 -0.462671 0.219547 -0.592955 -0.224436 0.081089 0.531602 0.425672 -0.644868 -0.495118 0.510029 -0.739771 -0.115263 -0.571784 0.383402 0.037523 -0.652388 -0.175632 0.459386 0.330404 0.353473 0.545282 -0.491588 -0.131577 0.758466 -0.407586 -0.695666 -0.380139 -0.915790 -0.901495 -0.841579 -0.331060 0.418427 0.526679 0.402320 0.540948 0.454988 -0.675402 -0.636920 0.229948 -0.702974 -0.689944 -0.417267 -0.720354 0.336624 0.136068 0.028316 0.592270 0.404280 0.192672 -0.561818 0.375337 0.431051 -0.576105 -0.234277 0.029709 0.266093 -0.267038 -0.767046 -0.583286 0.539003
-0.805743 -0.351993 0.361210 0.417922 0.420857 0.438564 -0.541904 0.428676 0.579414 -0.301427 0.581549 -0.611189 0.037632 0.183544 -0.509326 -0.234396 -0.473395 -0.465070 -0.750175 -0.470326 0.237534 0.100146 0.609794 -0.579381 0.194713 -0.409607 0.939067 -0.689647 -0.005892 -0.445756 -0.069841 0.700510 0.420555 0.378312 0.401206 -0.534084 -0.060014 0.505799 0.420850 0.698391 0.086161 0.297083 0.265762 0.183920 0.723420 0.520192 0.653926 -0.351098 -0.142887 0.606237 0.326850 0.292822 -0.618264 -0.394306 -0.534869 -0.347418 0.601476 -0.250460 0.145848 -0.225888 -0.327600 0.290516 -0.289157 0.535103 -0.414203 0.573331 0.802617 -0.169756 0.438272 0.602849 -0.641405 0.502560 0.420137 0.305041 0.931185 0.342796 -0.461539 0.049700 -0.554817 -0.131001 0.327703 -0.300391 0.752501 0.593976 0.810415 0.720538 -0.372170 0.534317 -0.127625 0.602012 0.548900 -0.353672 -0.299910 0.785623 0.312703 0.483926 0.534618 0.435198 0.503828 -0.147462 0.493042 0.516304 -0.637665 -0.249715 -0.598572 0.439315 -0.346991 -0.652666 -0.387551 0.638850 0.396922 0.396600 0.232627 0.510926 -0.705738 -0.413116 0.396851 -0.592437 0.334511 0.622686 -0.666493 -0.494842 -0.063131 -0.343803 -0.492626 -0.367470 0.742194 0.035353 0.542110 0.325752 -0.759309 0.509211 -0.329784 0.354344 0.028829 -0.063717 -0.099567 0.636031 0.043677 -0.575905 0.535522 0.085048 0.675263 -0.061515 -0.493658 0.353220 -0.404884 -0.555210 -0.251415 0.883603 0.330347 -0.269740 0.363847 0.350943 0.260809 0.214345 0.675435 -0.157330 -0.022854 0.443163 -0.224440 -0.783570 -0.919607 -0.487677 0.136121 -0.466828 -0.457392 0.233491 0.560474 0.678647 0.227922 0.065232 0.253586 -0.280971 0.493670 -0.218064 -0.614435 -0.277977 -0.629750 0.182886 0.346194 0.203671 0.498482 0.285407 0.405429 -1.000000 0.320626 0.363256 -0.023224 -0.064864 0.637741 -0.006613 -0.582422 -0.483278 -0.560752 1.000000
-0.429652 -0.369112 -0.448236 0.490950 0.166804 0.378911 -0.431575 0.784767 0.168698 -0.318567 0.146642 -0.554507 -0.405235 0.414115 -0.159755 -0.795965 -0.061727 -0.621849 -0.674673 -0.416672 0.684015 0.333514 0.893375 -0.551217 0.401630 -0.213059 0.509802 -0.511737 -0.611817 -0.647085 -0.329679 0.170245 -0.157561 0.214872 0.139942 -0.319767 -0.835400 0.493663 0.458508 0.442961 -0.372553 0.570767 0.606358 0.828549 0.142507 0.711078 0.383202 -0.436984 -0.891866 0.641413 0.348329 0.688494 -0.583482 -0.327115 -0.355166 -0.756998 0.607760 -0.367042 0.456724 -0.626608 -0.448446 0.392391 -0.839787 0.334990 -0.620794 0.382761 0.779303 0.022421 0.580177 0.573279 -0.233208 0.320522 0.301056 0.146929 0.043116 0.181348 -0.323690 -0.435301 -0.294591 -0.742917 0.349371 -0.404455 0.583321 0.668071 0.475799 0.937011 -0.478489 0.363072 -0.198191 0.512520 0.720920 -0.132282 -0.059840 0.516374 0.332276 -0.152561 0.622301 0.491534 -0.055732 -0.586416 0.514165 0.878203 -0.471137 0.021958 -0.279454 0.018787 -0.305405 -0.452042 -0.453344 0.481355 0.361501 0.247609 0.483045 0.493498 -0.246944 -0.303837 0.197371 -0.421607 0.241393 0.472159 -0.466582 -0.320485 -0.348961 -0.381941 -0.329567 -0.606912 0.119458 -0.153100 0.686546 0.225791 -0.480751 0.663046 0.044179 0.255673 0.325475 -0.451408 -0.666441 -0.006383 -0.202846 -0.720954 -0.130238 0.541550 0.507630 0.051291 -0.393178 0.569636 -0.509434 -0.269373 -0.816014 0.402602 0.517430 -0.315257 0.412649 0.392470 0.079910 1.000000 0.073631 -0.756127 -0.201170 -0.099599 -0.545959 -0.419534 -0.384145 -1.000000 -0.478139 -0.432912 0.000981 0.553535 0.390548 0.170495 0.438423 0.307771 -0.133150 -0.667677 -0.114287 -0.316743 -0.342517 -0.355098 -0.241863 -0.001573 0.619803 0.397240 0.408127 0.211419 0.521796 -0.210002 0.672040 -0.011594 -0.924716 -0.525579 0.549502 0.291710 -0.758441 -0.255111 -0.250208 0.708293
0.050125 -0.573343 -0.400250 -0.004250 0.808635 0.646671 -0.635305 0.663424 0.193352 -0.145134 0.496274 -0.748350 -0.983593 0.615430 -0.287047 -0.396003 -0.404017 -0.131639 -0.196798 -0.462376 0.889452 0.548839 0.813783 -0.373442 0.640339 -0.506198 -0.172708 -0.378734 -0.669953 -0.294996 -0.652132 0.858458 0.557616 0.403450 0.511528 -0.236255 -0.481939 0.370365 0.351718 0.712092 -0.591462 0.575503 0.733844 -0.023155 0.584879 0.606761 0.740099 -0.528240 -0.165346 0.539994 0.877043 -0.014275 -0.096704 -0.205867 -1.000000 0.025144 0.537475 -0.307027 0.550864 -0.086964 -0.170576 0.523123 -0.169481 0.398701 -0.262881 0.423571 0.356910 0.353921 0.217209 0.836798 -0.343852 0.532329 0.303045 0.178874 0.303494 0.011285 -0.062992 -0.020106 -0.698348 -0.485064 0.423753 -0.027490 0.829580 0.502840 0.323619 0.391094 -0.085687 0.643071 -0.491602 0.437746 0.684884 -0.061042 -0.001790 0.466287 0.254973 0.998603 0.312222 0.490401 0.594180 -0.245550 0.623331 0.056547 -0.249779 -0.195225 -0.006204 0.288997 -0.049682 -0.053360 0.177050 0.478121 0.394309 0.047921 0.220306 0.431245 -0.507204 -0.546946 0.593316 -0.115264 0.663350 1.000000 -0.423994 -0.186859 -0.431666 -0.079811 -0.521071 0.033853 0.705409 -0.506943 0.534719 0.746273 -0.376954 0.336272 -0.262528 0.475399 0.504654 -0.263079 -0.662651 0.148456 -0.155577 -0.558210 0.974083 0.107889 0.390193 -0.220981 -0.278001 0.129532 -0.533711 -0.116009 -0.186158 0.378372 0.659005 -0.642838 0.066889 0.557862 0.297401 0.567548 0.599578 -0.408419 -0.116242 0.454465 -0.452858 -0.286053 -0.587750 -0.281285 -0.207419 -0.321051 -0.157110 0.849949 0.199607 0.772000 0.173207 0.484670 -0.413382 -0.309410 0.183285 -0.212687 -0.437335 -0.290602 -0.822421 0.564473 0.570494 0.181947 0.771391 0.300418 0.513358 -0.905551 0.450668 0.844392 -0.391128 -0.465831 0.524707 0.340954 -0.956125 -0.168596 -0.220934 0.751931
-0.816547 -0.779874 -0.744558 -0.027942 0.478689 0.256020 -0.526428 0.184033 0.724177 -0.226275 0.338524 -0.802182 -0.799236 0.025012 -0.894416 -0.704257 -0.837885 -0.440503 -0.386615 -0.411443 0.319614 0.536136 -0.234758 -0.339648 0.100201 -0.138873 0.473948 -0.602140 -0.188203 -0.839389 -0.598440 0.436002 0.140241 0.199442 0.217718 -0.609346 0.041864 0.470860 0.353835 0.146772 -0.687933 0.039623 -0.156771 0.439414 0.098963 0.650206 0.196644 -0.556103 -0.559761 0.472416 0.827444 0.416820 -0.550033 -0.687498 -0.531924 -0.286447 0.101665 -0.430612 0.342802 -0.623213 -0.631643 0.721771 -0.557128 0.158264 -0.873182 0.027853 0.295517 -0.397208 0.181602 0.142232 -0.488688 0.067602 0.572832 0.130543 0.326289 0.618475 -0.399602 -0.592389 -0.484201 -0.493627 0.314051 -0.788646 0.120313 0.156950 0.455271 0.166151 -0.676219 0.473517 -0.536349 0.011625 0.002696 -0.557692 -0.559553 0.136879 0.361633 0.473336 0.286220 0.328774 0.263189 -0.231719 0.213174 0.089426 -0.500298 -0.432988 -0.968620 0.112274 -0.536329 -0.376180 -0.806042 0.298884 0.378070 0.213440 0.064758 0.412727 -0.432988 -0.603678 0.199779 -0.631731 0.116092 -0.012805 -0.425901 -0.479272 -0.784286 -0.406237 -0.826021 -0.692620 0.164966 -0.498595 0.365282 0.208063 -0.478657 0.011153 -0.667329 0.137382 0.739698 -0.614931 -0.778025 0.261341 -0.306919 -0.508793 0.163675 0.203482 0.248114 -0.465104 -1.000000 0.099004 -0.513401 -0.585659 -0.721662 0.578121 0.069436 -0.642085 0.393454 0.028661 0.062487 0.405065 0.328209 -0.664623 -0.571180 0.351230 -0.346999 -0.498620 -0.904390 -0.644241 -0.603766 -0.406528 -0.219139 0.640126 -0.161952 0.178647 0.223107 0.318395 -0.697355 -0.722731 0.055824 -0.395978 -0.713777 -0.716988 -0.521668 0.025714 0.128016 0.175644 0.314600 0.322997 0.074390 -0.616140 0.226613 0.426032 -0.921154 -0.580423 1.000000 0.355601 -0.507606 -0.378719 -0.483212 0.251679
-0.180470 -0.206772 -0.487432 0.062688 0.666805 0.259626 -0.350687 0.281444 -0.053845 -0.589661 0.383265 -0.716025 -0.160753 0.372068 -0.420297 -0.423574 -0.627303 -0.375923 -0.792700 -0.911772 0.341727 0.242596 -0.032676 -0.566843 0.678625 -0.381192 0.510820 -0.473096 -0.600665 -0.218754 -0.490719 0.487647 0.220065 0.140198 0.678808 -0.780571 -0.125851 0.087236 0.438566 0.137941 -0.136979 0.263101 0.576363 0.630046 -0.016397 0.147145 0.078870 -0.527612 -0.279763 0.329421 0.384536 0.868209 -0.311234 -0.146894 -1.000000 -0.523275 0.538711 -0.579367 0.965821 -0.363291 -0.790905 0.422553 -0.488833 -0.085747 -0.535209 0.330156 0.014676 -0.527935 0.681062 0.331210 -0.166187 0.099214 0.154108 0.438372 0.410846 0.195652 -0.803271 -0.888773 -0.561520 -0.389354 0.224987 -0.607168 0.758319 0.299070 0.652306 0.083010 -0.410002 0.231564 -0.312040 0.410265 0.161884 -0.716280 -0.655723 0.274410 0.532773 0.423666 0.658066 0.376144 1.000000 -0.810309 0.563465 0.024923 0.028519 -0.657078 -0.537794 0.447970 -0.127911 -0.405812 -0.578701 0.314959 0.438326 0.933310 0.514868 0.376821 -0.872954 -0.545005 0.510232 -0.473696 0.495259 0.309596 -0.484171 -0.083895 -0.689230 -0.782710 -0.295875 -0.605739 0.657104 -0.571406 0.728164 0.278062 -0.408381 0.478407 -0.622166 0.449721 0.434290 -0.793291 -0.266948 -0.020325 -0.362052 -0.076546 0.916973 0.592846 -0.085489 -0.453188 -0.408314 0.505764 -0.300757 -0.352345 -0.412147 -0.176698 0.269911 -0.871198 0.222098 0.530734 0.101686 0.371519 0.717920 -0.494326 -0.295535 0.194045 -0.307350 -0.302628 -0.532463 -0.719247 -0.582442 -0.563682 0.045001 0.766788 0.415802 0.041044 0.048721 0.697003 -0.111492 -0.453354 0.424840 -0.336123 -0.338035 -0.446132 -0.278642 0.081179 0.728691 0.179739 0.329970 0.318530 0.175403 -0.179397 0.490188 0.452369 -0.805247 0.135157 0.309613 0.186817 -0.420978 -0.485138 -0.537974 0.076466
-0.992745 -0.495440 -0.396358 0.096299 0.389131 0.596780 -0.551131 0.483111 -0.447701 -0.319133 0.315693 -0.595077 -0.733316 0.406533 -0.460075 -0.533363 -0.190839 -0.103395 -0.246627 -0.153057 0.892301 -0.106235 0.665136 -0.473741 0.575899 -0.602640 0.183885 -0.379107 -0.168883 -0.590737 0.130943 0.527925 0.010873 0.130069 0.641233 -0.280707 -0.901066 0.165393 0.240388 0.462072 -0.257591 0.063425 0.127992 0.128294 0.286012 0.302864 0.334040 -0.323473 -0.919090 0.380432 0.122621 0.418698 -0.634352 -0.621816 -0.718718 -0.313697 0.357824 -0.284260 0.583846 -0.671612 0.036679 0.302518 -0.336171 0.333157 -0.305210 0.427712 0.570209 -0.364511 0.435688 0.500879 -0.190499 0.756106 0.332676 0.686227 0.282409 0.074742 -0.503425 -0.452149 -1.000000 -0.384211 0.577731 -0.134967 0.003498 0.217184 0.678335 0.394306 -0.188018 0.458190 -0.239119 0.547909 0.436580 -0.777421 -0.752540 0.131504 0.082536 0.917787 -0.311228 0.067820 0.669795 -0.610662 0.147316 0.348193 -0.588149 -0.687690 -0.799738 0.407485 -0.508177 -0.591846 -0.686564 0.143713 0.608890 0.089895 0.739251 0.583987 -0.662000 -0.576711 0.307734 -0.445763 0.043357 0.153834 -0.665972 -0.250745 -0.759088 -0.441551 -0.437082 0.122511 0.747297 -0.716040 0.068650 0.137282 -0.793676 0.680172 -0.173160 0.376005 0.575381 -0.743697 -0.434280 -0.050936 -0.538587 -0.424657 0.319041 0.341979 0.445206 -0.472765 -0.393731 0.547346 -0.274040 -0.225146 -0.751612 0.315093 0.393098 -0.327078 1.000000 0.094454 -0.116775 0.339485 0.277434 -0.774222 -0.253882 0.535099 -0.934479 -0.497913 -0.941204 -0.329774 -0.292355 -0.522336 -0.646879 0.443897 0.511301 0.128668 0.520262 0.267296 0.115032 -0.602802 0.186128 -0.792194 -0.457426 -0.316847 -0.713181 0.173729 0.478157 0.146521 0.505334 0.440510 0.261395 -0.309550 0.187723 0.266260 -0.477520 -0.809619 0.043779 -0.094616 -0.839106 -0.377712 -0.414486 0.423891
-0.722845 -0.424283 -0.268426 0.160790 -0.296336 0.665915 -0.425779 0.259281 0.321125 -0.535004 0.326034 -0.343374 -0.751162 0.181590 -0.545378 -0.737444 -0.405260 0.140768 -0.540946 -0.212977 0.198616 0.419336 0.109960 -0.428598 0.239566 -0.669605 0.420870 -0.336593 -0.432650 -0.928039 -0.380941 0.096080 0.602545 0.606009 0.681769 -0.023623 -0.644459 0.539044 0.115240 0.308612 -0.185245 0.215714 0.361190 0.810117 0.322050 0.273667 0.240235 -0.387178 -0.639646 0.280042 0.654653 0.375518 -0.490080 -0.278263 -0.222651 -0.216725 0.219649 -0.164385 0.505695 -0.555128 -0.001323 0.192303 -0.636837 0.464484 -0.229276 0.554682 0.379817 -0.313341 0.067294 0.842260 -0.528345 0.799298 0.179982 0.601489 0.184816 0.758660 -0.348751 -0.232092 -0.455625 -0.250585 0.427002 -0.545122 0.000511 0.829890 0.313600 0.386422 -0.694422 0.748752 -0.481405 0.149754 0.413139 -0.376347 -0.135535 0.335262 0.863405 0.325815 0.280969 0.388936 0.631385 -0.237433 0.471074 0.464192 -0.372796 -0.318025 -0.538761 0.794838 -0.145739 -0.411081 -0.275622 0.036641 0.871370 0.345774 0.258906 0.117390 -0.350292 -0.513527 0.736240 -0.477175 0.833400 0.132735 -0.328327 -0.381079 -0.570116 0.101002 -0.334442 -0.439027 0.618591 0.100543 0.677373 0.361185 -0.219389 0.224117 -0.661079 0.517707 0.351934 -0.491964 -0.695109 0.194842 -0.754650 -0.684775 0.536930 0.634806 0.552835 -0.611608 -0.255526 0.052452 -0.390679 -0.148323 -0.575761 0.302193 0.942555 -0.250655 0.447302 0.275004 0.456499 0.459425 0.571276 -0.799429 -0.981417 0.516964 -0.603243 -0.213354 -0.845854 -0.464949 -1.000000 -0.309098 -0.154975 0.386027 1.000000 0.484473 0.627515 0.362610 -0.841507 0.244576 0.328689 -0.429607 -0.244182 -0.051118 -0.441542 0.044351 0.575205 0.530160 0.592808 0.317116 0.701472 -0.426667 0.261918 0.408864 -0.355338 0.095847 -0.016874 0.584867 -0.231937 -0.635646 -0.587012 0.248103
