0.970351 0.973706 1.014595 0.974059 0.987199 0.985655 0.997634 0.979513 0.971850 0.973733 0.997255 0.991236 0.992652 1.015008 0.985077 0.974625 1.003818 0.996283 0.998651 0.974483 0.994597 0.980864 0.991085 1.015491 0.990535 0.964634 0.999097 0.962955 0.963628 0.968608 0.992133 1.005853 0.986925 1.013758 0.972492 1.009222 1.012798 0.991282 0.980538 0.995334 1.001557 0.975385 0.999276 0.991218 1.004920 0.981771 0.966603 0.971083 1.002560 0.968694 0.987396 0.967995 1.001291 1.008038 0.983901 0.969178 0.971540 0.965511 1.011853 0.990455 0.978246 0.969166 0.984968 1.006891 0.988710 0.985856 0.984437 0.988084 0.992735 0.987091 1.010641 0.993340 0.984826 1.011901 1.000544 0.991697 0.980796 1.014164 1.015327 0.983301 1.001617 0.964622 0.981402 1.005624 0.974341 0.962932 0.985150 1.013661 0.975923 0.987198 1.004814 0.978069 0.983715 0.992686 0.985625 0.996309 0.975568 1.004182 0.990267 0.973869 0.999996 0.969081 1.002731 0.971014 0.979620 1.002675 0.977664 0.986944 0.986066 0.973820 1.001880 0.991796 0.979383 0.964468 0.997280 1.013760 0.980920 1.007593 0.997078 1.002187 0.970073 1.003235 0.970408 0.994811 0.977707 0.995491 1.012721 1.006593 0.969366 0.983918 0.998713 1.012515 1.000987 1.010983 1.001635 1.000620 1.002130 1.008331 1.011798 0.962346 0.986074 0.973291 0.973412 0.998845 1.007199 0.991120 0.993762 0.962822 1.012016 1.006247 0.993624 1.014841 0.592410 -0.016840 -0.047457 -0.067841 -0.128309 -0.396481 0.581007 0.924387 0.904975 0.976539 1.001644 0.971517 1.003932 1.004261 0.966321 1.011449 0.994668 0.981379 0.981747 0.982557 1.001098 0.985553 1.016000 0.860826 0.857541 0.977470 0.950648 0.783828 -0.310847 -0.981055 -0.955045 -0.965883 -0.951843 -0.953865 -0.655311 -0.497440 -0.977748 0.002480 0.946783 0.965549 1.007476 0.972903 0.999647 0.976933 0.999901 0.979700 1.011454 0.993176 0.968620 1.006365 0.854739 -0.706875 -0.856536 -0.247787 -0.461139 -0.969802 -0.973875 -0.950281 -0.965464 -0.989267 -0.953208 -0.985684 -0.983602 -0.968365 -0.971097 -0.950543 0.120930 0.975547 0.975510 0.982890 0.992284 1.000261 0.982772 0.967746 1.001612 0.964296 0.979907 0.915220 -0.409208 -0.980296 -0.955071 -0.960140 -0.611487 -0.712193 -0.450899 -0.535298 -0.141952 0.336448 0.342639 0.354019 0.333245 -0.315741 -0.912643 -0.982019 -0.699988 0.087034 0.981227 1.000989 0.996633 1.015017 1.005321 0.963931 0.978937 0.998468 1.010497 0.695837 -0.976836 -0.795340 -0.485400 -0.954173 -0.532750 -0.099440 0.531121 1.001017 0.986192 1.003197 0.976776 0.970417 0.964905 0.965736 0.554424 -0.734285 -0.992139 -0.966618 0.681195 1.012141 1.000319 0.979084 0.984900 0.994995 0.991278 0.974340 1.005813 0.656620 -0.962796 -0.497839 -0.539925 -0.962858 -0.829719 0.484106 1.009180 0.966940 0.981951 1.006988 0.986610 0.970796 0.986771 0.982923 1.015356 0.296847 -0.911016 -0.959570 0.239206 0.982880 1.008470 1.001030 0.965218 0.993386 1.011882 0.984815 0.972319 0.131040 -0.958074 -0.812813 -0.229661 0.592515 0.715220 0.998348 1.012309 0.969855 0.981205 0.998622 0.979233 0.986423 0.977595 1.012540 0.970009 0.987813 0.678919 -0.831191 -0.149162 0.988874 1.002545 1.010919 0.975157 0.975525 0.964003 0.980551 1.003315 -0.033096 -0.889945 -0.312190 -0.602719 0.991083 0.998487 1.014216 0.979098 0.967173 1.000898 0.980042 0.987834 0.984583 0.966492 0.974082 0.990447 0.965109 0.966230 -0.773007 -0.596242 0.963944 0.990186 0.982519 0.964168 0.972775 1.011851 0.974970 0.987016 -0.904657 -0.801147 0.965808 0.847767 0.967805 1.005881 0.968757 0.995191 0.970872 0.994846 1.003297 1.002144 0.981634 0.988464 0.985588 0.985336 0.969552 1.003371 -0.790777 -0.872231 1.003734 0.996451 0.980604 0.965403 0.977011 0.991696 0.998406 1.011274 -0.976020 -0.993077 -0.734568 0.686025 1.009594 0.979819 0.967742 1.000409 1.009436 0.973750 1.006378 1.002469 1.002262 1.011563 0.989497 0.983002 0.977643 0.266225 -0.967569 -0.964629 0.985716 0.998293 1.008482 0.965637 0.998426 1.001318 1.002406 1.005512 -1.016000 -0.273135 0.970172 0.968341 0.999043 0.981087 0.980367 0.969502 0.987936 0.969529 1.005392 1.009533 0.982170 0.989082 1.009103 0.994892 0.981763 -0.244948 -1.001663 -0.442480 0.998872 0.972714 0.967411 0.991713 0.977624 0.978782 0.999998 1.015076 -0.884370 -0.392090 0.895864 0.965888 1.002588 0.987007 0.964987 0.979728 0.998938 0.977537 0.995103 1.009575 0.985529 0.969342 1.013357 1.000103 0.943821 -0.747280 -0.508636 0.950078 1.000839 0.991675 0.974111 0.983876 0.963367 0.992613 0.995222 0.973261 -0.042904 -0.962483 0.113770 1.015566 0.970237 0.972569 0.998545 1.003772 1.009945 0.974428 0.990575 0.990551 0.963693 0.989349 1.015018 0.963265 -0.225447 -0.963694 -0.105019 1.006630 0.978309 1.008524 0.968247 0.984480 1.009798 1.004722 1.015075 1.009752 0.619718 -0.824848 -0.693919 0.966052 1.014702 0.977700 1.004541 0.995115 0.999165 1.003639 0.968479 0.978485 0.983693 1.014195 0.966971 0.887781 -0.660328 -0.809269 0.544630 0.970855 1.008301 0.993783 0.986039 0.994157 1.013349 0.999213 0.979591 1.001393 0.977003 0.076048 -0.882944 0.205839 0.850160 0.994940 0.964204 0.982557 0.965164 1.009531 0.999130 1.001917 0.964983 0.989979 0.848882 0.081811 -0.832134 0.071982 1.001516 0.963513 0.981587 0.987949 0.980534 0.977038 1.008435 0.973029 1.001471 0.965295 0.974107 0.833368 -0.738762 -0.955064 -0.653025 0.372326 1.011668 0.997926 0.969436 1.010850 0.985421 1.003399 0.976263 0.966392 0.234549 -0.986360 -0.804418 0.805169 0.991422 1.002129 0.989808 0.972249 0.971797 0.990538 1.009990 0.991919 0.980806 0.984237 1.004577 1.015223 0.771458 -0.420442 -0.967370 -0.896557 -0.602381 -0.005833 0.675557 0.966969 0.335308 0.302813 0.328275 -0.279332 -0.873930 -0.504852 0.588278 0.955977 1.009474 1.002325 0.997598 0.972976 1.015591 0.996758 0.987547 1.008193 1.009727 0.991393 0.977986 1.000424 0.967466 0.602502 -0.423094 -1.001440 -0.954885 -0.864657 -0.814579 -0.719950 -0.961722 -0.998102 -0.951272 -0.984325 -0.788850 0.542423 0.976916 1.002907 0.990859 1.012671 1.011609 0.993632 0.992603 0.965177 0.979006 0.997784 0.988823 0.999305 0.969366 1.005863 1.009390 0.993551 0.967585 0.511709 -0.405310 -0.949900 -0.961501 -0.965962 -0.957670 -1.002383 -0.957784 -0.963403 -0.512195 1.012077 0.968357 0.989479 0.967305 0.997550 1.002095 1.001564 0.994006 0.986155 0.978623 0.965216 0.987418 0.995808 1.004604 0.963820 0.999966 0.977427 0.984167 0.968727 0.946073 0.893815 0.886659 0.893764 -0.051708 -0.044366 -0.022061 0.606397 0.931460 0.995534 0.981084 1.002345 0.984612 0.987170 0.994495 1.009941 0.975293 1.012627 1.012487 0.983481 1.003689 1.001792 1.004239 0.970334 1.005328 1.005761 0.996684 0.963978 1.008268 1.014345 0.994072 0.966437 1.013439 0.976635 0.989640 0.965011 1.013505 0.997134 0.985160 0.971595 0.999204 0.987090 0.990928 0.983243 0.965286 0.965804 0.967840 0.999540 0.979069 0.968299 0.967295 1.007513 0.995281 1.000465 0.980229 1.003058 1.000142 1.013177 1.014852 0.967301 1.006378 0.984914 1.000476 0.980261 1.011944 1.005854 0.962593 1.006351 0.967583 0.991440 0.985323 0.985625 1.004865 0.963897 0.979144 0.976064 1.004056 1.003861 0.998484 0.975110 1.012863 0.971674 1.001823 1.004804 0.974951 0.973304 0.974305 1.013898 0.973708 0.997892 0.988048 1.002469 0.970418 1.006097 0.966708 0.997855 0.965562 1.000895 0.981064 1.008375 1.000271
0.798108 0.460208 0.320023 0.515697 0.468291 0.808566 0.310887 0.636881 0.389135 0.441131 0.478445 0.416046 0.810336 0.357428 0.522168 0.633090 0.421863 0.489071 0.349101 0.257966 0.586152 0.249804 0.444981 0.357321 0.503889 0.510424 0.797259 0.422005 0.436334 0.668969 0.488612 0.585804 0.485093 0.579994 0.749370 0.545423 0.307878 0.790963 0.547658 0.595813 0.693996 0.732482 0.432237 0.343748 0.390283 0.743045 0.257871 0.428994 0.818559 0.651988 0.420272 0.420664 0.527479 0.412973 0.310597 0.503475 0.786861 0.654881 0.461171 0.797239 0.450294 0.566872 0.239814 0.493122 0.265998 0.456820 0.808081 0.508538 0.388225 0.684625 0.817617 0.808943 0.749944 0.238556 0.683026 0.569122 0.568501 0.639573 0.318298 0.755471 0.374643 0.727777 0.771536 0.253806 0.713355 0.735684 0.578792 0.514465 0.343959 0.546353 0.244649 0.322180 0.386909 0.760072 0.456758 0.384711 0.420345 0.296412 0.575724 0.409829 0.648702 0.317129 0.650627 0.577666 0.380811 0.482372 0.298771 0.507426 0.260060 0.661459 0.701757 0.594379 0.547810 0.693236 0.607000 0.610020 0.466464 0.450863 0.546588 0.769643 0.323634 0.526663 0.578231 0.706355 0.726497 0.455914 0.644157 0.264241 0.242598 0.251113 0.613537 0.363145 0.641568 0.461538 0.514178 0.764948 0.344308 0.695415 0.399191 0.470844 0.751826 0.800164 0.487684 0.801670 0.793403 0.632890 0.552262 0.822374 0.534909 0.718164 0.618355 0.695843 0.745850 0.374657 0.587946 0.245378 0.600970 0.495476 0.678720 0.572321 0.493508 0.520754 0.295433 0.315597 0.734189 0.704392 0.599783 0.705931 0.540958 0.658892 0.461862 0.441225 0.270901 0.610901 0.388511 0.937305 0.826014 0.409970 0.726690 0.504945 0.669719 0.787172 0.731343 0.461002 0.391473 0.578104 0.275473 0.552350 0.281232 0.448603 0.345585 0.510958 0.755885 0.587003 0.546561 0.239131 0.759576 0.333797 0.377810 0.432645 0.691021 0.561113 0.496815 0.848463 0.575089 0.678266 0.422527 -0.294058 -0.045572 0.349650 0.401448 0.535963 0.520756 0.439191 0.326228 0.267748 0.422899 0.799782 0.572362 0.355256 0.323853 0.469901 0.576104 0.270084 0.419377 0.247608 0.285501 0.464068 0.663030 0.438146 0.966498 0.250857 0.731377 0.154573 -0.637280 -0.842657 -0.542010 0.089711 0.495566 0.590295 0.464088 0.746398 0.695505 0.468394 0.756228 0.942238 0.622649 0.361637 0.357608 0.406695 0.486243 0.511334 0.362835 0.373097 0.452023 0.417481 0.508590 0.704334 0.446282 0.265344 0.132336 -0.553794 -0.868397 -0.403148 -0.085842 0.311718 0.491601 0.464185 0.554505 0.307551 0.844731 0.996146 0.867501 0.548519 0.647384 0.949015 0.301464 0.513877 0.394968 0.536811 0.597291 0.497747 0.283549 0.568607 0.493550 0.807906 0.579193 0.253598 -0.410074 -0.538884 -0.964731 0.119453 0.619424 0.747153 0.633730 0.610230 0.441849 0.820674 0.659496 0.413778 0.357840 0.714484 0.872896 0.529075 0.780930 0.700500 0.685272 0.331811 0.400130 0.564068 0.415422 0.543379 0.871984 0.891989 0.628560 -0.576057 -0.898409 -0.698314 -0.249491 0.690246 0.746448 0.378926 0.305061 0.504163 0.618340 0.502208 0.573727 0.842775 0.594655 0.742804 0.934125 0.901539 0.528240 0.515731 0.686291 0.358286 0.501583 0.427680 0.682746 0.298329 0.396039 0.611056 -0.025769 -0.940085 -0.655216 -0.805014 0.725989 0.608791 0.494506 0.043055 -0.469374 -0.779121 -0.282392 0.809381 0.763958 0.429196 0.559745 0.357276 0.666036 0.826626 0.029338 0.464188 0.247688 0.787385 0.398587 0.461400 0.609969 0.642011 0.562740 0.762326 0.045970 -0.582632 -0.467584 -0.050487 0.177937 -0.169293 -0.747398 -0.713870 -0.955486 -0.468070 -0.416465 0.334737 0.614924 0.767736 0.297874 0.528320 0.379611 -0.400534 -0.655840 -0.631085 0.439181 0.545240 0.237985 0.785074 0.667090 0.706341 0.934006 0.836753 0.080231 -0.613645 -0.815276 0.172853 -0.177065 -0.906132 -0.670714 -0.654908 0.376769 0.046589 -0.549894 -0.214321 0.255559 0.421540 0.675436 0.376687 -0.622119 -0.400217 -0.912267 0.172062 0.298249 0.386764 0.769421 0.679281 0.335655 0.605458 0.773247 0.666398 -0.660526 -0.891350 -0.498619 -0.732331 -0.448498 -0.459514 -0.706045 0.200455 0.834514 0.154804 -0.989684 -0.269131 0.520565 0.299661 0.598639 -0.368400 -0.504635 -0.468793 0.547729 0.253480 0.705076 0.268668 0.703534 0.449890 0.377080 0.525586 1.016000 0.619159 -0.351063 -0.714472 -0.563589 -1.016000 -0.745180 0.076648 0.470509 0.739933 0.574966 -0.088237 -0.482884 0.104629 0.429232 0.461374 -0.103456 -0.670091 -0.707459 0.161227 0.776256 0.506819 0.763189 0.439919 0.792440 0.592279 0.329233 0.360628 0.606816 0.936647 -0.111764 -0.985334 -0.528804 -0.271193 -0.025900 0.615371 0.767922 0.803544 0.662467 0.457492 -0.748956 0.399930 0.611156 -0.513552 -0.715258 -0.281042 0.406954 0.794953 0.452943 0.765976 0.545607 0.282176 0.441711 0.322631 0.328221 0.624246 0.543499 0.635416 0.497814 0.235960 0.395691 0.425427 0.446668 0.923808 0.683741 0.464770 0.763291 0.422445 -0.750327 -0.356402 -0.291427 -0.525804 -0.258308 0.162928 0.437000 0.550954 0.289819 0.575769 0.457565 0.617991 0.425104 0.314137 0.667035 0.693184 0.451603 0.836594 0.935689 0.520208 0.499801 0.750529 0.592244 0.760106 0.666673 0.618710 0.695001 0.819586 0.181175 -0.684718 -0.895911 -0.563961 0.522934 0.627794 0.296349 0.656046 0.433074 0.516581 0.465990 0.514430 0.659231 0.472095 0.587347 0.294372 0.819999 0.619301 0.798962 0.824322 0.549494 0.790415 0.429021 0.601706 0.238787 0.269909 0.268669 0.401341 0.385658 0.063392 -0.219268 0.761968 0.430828 0.416123 0.636617 0.642085 0.532173 0.724716 0.744378 0.406210 0.367548 0.295146 0.451893 0.433967 0.624208 0.727483 0.410001 0.827728 0.552518 0.596747 0.700329 0.739576 0.754490 0.601421 0.285697 0.250063 0.472667 0.412205 0.576244 0.849426 0.888024 0.418035 0.627990 0.260405 0.375693 0.684640 0.553802 0.322492 0.688838 0.609346 0.720213 0.752771 0.569545 0.360769 0.630466 0.469751 0.716613 0.482697 0.358619 0.764076 0.529227 0.265861 0.307791 0.538797 0.709431 0.400902 0.606996 0.630259 0.543982 0.288306 0.421088 0.320051 0.497502 0.764732 0.811784 0.814470 0.566890 0.626317 0.324756 0.477977 0.612146 0.254153 0.264176 0.742123 0.380849 0.313279 0.520679 0.531163 0.675173 0.799096 0.251292 0.650679 0.288815 0.684436 0.642517 0.382415 0.491751 0.770806 0.805959 0.411476 0.637675 0.290940 0.606487 0.674941 0.801675 0.778101 0.529848 0.567271 0.658497 0.593181 0.431243 0.811232 0.377346 0.784451 0.772221 0.760946 0.272934 0.290877 0.468757 0.482360 0.759336 0.315880 0.573923 0.318236 0.724134 0.415466 0.389115 0.715358 0.665815 0.665886 0.404505 0.631714 0.644676 0.734996 0.244384 0.782486 0.560654 0.728190 0.551986 0.457783 0.668593 0.408466 0.569986 0.304753 0.373567 0.548258 0.718291 0.783727 0.599025 0.474626 0.250808 0.534641 0.721249 0.751841 0.757397 0.702055 0.507438 0.306303 0.645507 0.284879 0.805866 0.611500 0.734761 0.441529 0.246151 0.461820 0.422952 0.707798 0.468169 0.780903 0.304353 0.428972 0.459785 0.286481 0.452222 0.470823 0.486407 0.380071 0.678682 0.811612 0.609012 0.644208 0.582796 0.394873 0.521354 0.724767 0.737200 0.474858 0.378471 0.402552 0.769330 0.272294 0.554202 0.781675 0.496756 0.675182 0.434974 0.403036 0.336875 0.530686 0.284685 0.652305 0.293440 0.625320 0.294272 0.642838 0.317860 0.594784 0.449718 0.764763 0.321945 0.662922 0.763014 0.271634 0.581393 0.382953
0.259611 0.829946 0.007327 -0.246066 0.204668 -0.471551 0.495334 -0.060436 0.333836 0.626385 0.367032 0.812165 0.567605 0.154000 0.827124 0.412145 -0.482782 0.041373 0.350729 0.095116 -0.384685 -0.536339 -0.399343 0.307508 -0.003913 0.483939 -0.548108 0.374771 0.734581 0.018606 -0.174248 0.082915 -0.435342 0.293328 0.648390 0.713224 0.339211 -0.280877 0.979566 0.436504 0.364646 0.125739 0.889892 -0.238383 0.970658 0.927437 -0.442653 0.600430 0.590466 0.370494 0.644909 0.979517 1.011990 -0.515199 -0.087525 0.574625 -0.621493 -0.021408 0.312205 0.842863 0.789092 0.010502 0.850216 0.292125 0.327415 0.751923 0.798943 0.743358 0.644312 0.785640 -0.332441 0.341097 0.084339 -0.393634 0.447477 0.847372 0.347481 -0.512505 -0.001693 -0.558665 -0.277000 0.513526 0.699077 0.446143 0.469018 0.504689 0.781056 0.639305 -0.194298 0.512000 0.069039 -0.475720 0.140789 0.184249 0.890378 -0.595550 0.183980 -0.562157 -0.335561 0.012899 0.257061 -0.032596 0.734588 0.498908 0.081798 0.796305 0.852144 0.427237 0.521824 -0.590614 -0.350983 -0.493149 0.125464 0.953549 0.240042 0.068129 0.739987 -0.351859 0.132195 -0.345053 -0.550274 -0.635554 0.478420 -0.436685 -0.496358 0.594569 0.840884 -0.402768 0.852616 0.189367 -0.161129 -0.392460 -0.220279 0.389208 -0.100480 -0.259350 0.957569 -0.391089 0.214916 -0.169455 0.680375 0.019020 0.889447 0.912960 0.913917 -0.400614 0.399050 -0.469067 -0.163914 0.301940 0.948563 -0.119524 0.132922 -0.457567 -0.440497 0.949983 0.237181 0.522927 0.235268 0.130505 0.611400 -0.388676 -0.134569 0.552035 0.479721 -0.593063 0.462493 0.611442 -0.137911 0.018813 0.778487 0.689666 0.857875 -0.593812 0.200305 -0.457446 -0.549843 -0.342259 -0.333562 -0.025823 0.916930 -0.134160 0.514217 -0.440225 -0.349757 0.740847 0.622961 -0.506188 -0.107226 0.816315 0.088128 0.714542 0.519936 -0.527788 0.315834 -0.652148 -0.557514 0.582536 -0.199008 0.263233 0.004917 -0.079402 -0.376672 -0.409812 -0.439304 -0.475389 -0.258839 0.948001 0.220958 -0.090296 1.010193 -0.357793 0.450216 -0.364101 -0.176313 0.267313 -0.152360 0.711301 0.460552 -0.500150 -0.219154 0.919693 -0.002468 0.739786 -0.355893 0.755493 0.201018 0.207699 0.792630 0.118308 0.013864 0.880428 0.969250 -0.293517 0.373400 -0.387976 -0.122059 0.134972 -0.152902 -0.645910 -0.132944 0.772559 -0.381851 -0.442874 -0.944457 0.184839 0.286123 0.745427 -0.420222 -0.638568 0.859174 -0.579085 0.009994 -0.069549 0.120217 0.177661 0.855262 -0.414679 0.449036 -0.149525 0.984958 0.075906 0.256454 -0.200841 -0.417307 0.866169 -0.407520 -0.551180 -0.078758 0.472276 0.813066 -0.313074 0.412270 -1.007618 -0.067662 0.169257 -0.028756 -0.390094 -0.621199 -0.317954 0.325179 0.855525 -0.466071 0.543385 -0.444855 -0.813484 0.394811 -0.008701 -0.380346 -0.190245 -0.123380 0.699235 -0.325900 0.053277 0.737544 -0.036053 -0.560259 0.014836 -0.915324 0.438329 -0.701657 0.284704 -0.940236 -0.318596 -0.175716 0.251084 -0.500900 -0.485087 0.028530 0.214114 0.965763 0.562330 0.613540 -0.595756 -0.239231 0.241584 -0.374020 -0.072086 -0.556157 0.399420 -0.625130 0.106155 0.718532 -0.656400 0.516037 0.026262 -0.525496 -0.565083 0.117790 0.835849 0.016067 -1.003398 -0.460576 0.726688 0.770456 0.038579 0.457311 0.836165 -0.535716 -0.488591 -0.398106 -0.089656 0.880131 -0.485713 -0.251500 0.245341 0.781070 0.938967 0.010382 0.716421 -0.561999 0.778778 0.578978 -0.416219 -0.483253 -0.433668 0.578594 -0.068531 -0.887178 -0.385034 0.250808 0.541877 0.594398 -0.531524 -0.268515 -0.424038 -0.532579 0.108144 -0.418111 0.396698 -0.502421 0.603319 -0.024353 0.800097 -0.205434 0.255943 0.161260 0.765393 0.239203 -0.415242 0.312100 -0.751473 -0.020235 -0.526311 0.682864 -0.582762 -0.286716 0.396858 -0.419093 -0.574476 -0.363401 -0.217112 -0.554252 -0.231615 0.435241 0.611019 -0.371497 -0.203618 0.560653 0.767155 0.865693 0.573203 -0.566524 0.021112 -0.401382 0.588238 -0.635805 0.153093 -0.556093 0.816499 -0.433168 0.873470 0.475957 -0.345717 0.117683 0.845059 0.814673 0.091499 0.600113 0.075537 0.905035 0.246930 0.352255 -0.589468 0.566866 0.215865 0.529191 0.528025 -0.145786 0.204662 -0.094917 -0.029885 0.853317 -0.715775 -0.735615 0.663900 -0.335188 0.720407 -0.022450 0.882543 0.182398 0.647923 -0.050492 -0.589949 0.403298 0.585185 0.830395 0.361932 -0.413442 0.708513 0.788162 0.792293 -0.142809 -0.479277 0.099697 0.194563 -0.602994 -0.318314 0.569142 -0.172200 -0.427968 -0.506301 -0.883940 -0.309189 0.620377 -0.395045 -0.184934 0.514298 0.136629 0.624615 0.616910 0.130379 0.012508 0.315975 0.237816 0.626628 0.950443 -0.053299 0.733578 -0.174501 -1.016000 -0.864840 0.214402 1.016000 0.023187 0.525930 -0.277466 0.391471 0.629722 -0.913905 0.005947 -0.462728 0.627123 0.078961 0.591619 -0.313807 0.720673 -0.998091 -0.789681 0.154017 0.305764 0.171606 0.699781 1.014593 0.965556 0.636356 -0.559226 0.857447 -0.764113 -0.268057 0.587074 -0.622369 1.010449 -0.392775 -0.163285 0.120018 0.528349 0.237085 0.939562 -0.281763 0.427791 -0.576220 0.650516 -0.177131 -0.478414 -0.591286 0.673117 -0.606433 -0.127600 0.549143 1.005931 0.899605 0.108523 -0.363822 -0.255440 0.881047 -0.768262 0.282928 0.180253 0.472727 -0.066181 -0.196352 0.190842 -0.926761 0.138068 0.278146 -0.564573 0.109967 0.255228 -0.261489 0.664926 0.669573 -0.434288 -0.545158 0.554776 0.971006 0.291465 0.083613 0.411991 0.583712 0.660535 -0.063258 0.518871 0.155579 0.300392 -0.242483 0.047475 0.000574 0.475662 0.322992 0.010973 -0.451732 0.094458 0.336717 -0.450169 0.794745 0.126822 -0.226853 0.730323 0.560409 -0.332080 -0.245556 0.448425 0.050678 0.530520 0.643803 0.644712 0.071421 -0.244852 -0.550858 0.175706 -0.444985 -0.405117 -0.175369 -0.469211 0.270540 -0.297557 0.438879 0.202808 0.464459 0.736356 0.431447 0.872861 0.417401 0.654548 -0.482945 0.012867 0.868505 0.654294 -0.472760 -0.323787 0.721101 0.291506 0.830367 0.181791 0.938778 0.312004 0.180646 0.997900 -0.433353 0.636818 0.325825 0.342451 0.666761 -0.518523 -0.567012 -0.550031 -0.506634 0.293174 0.189015 0.785449 -0.406065 0.860198 0.824121 -0.482986 0.472771 -0.504701 -0.332271 0.847946 -0.569824 0.210541 -0.436588 0.711286 -0.002114 0.952372 0.249622 0.665966 0.168534 0.655818 -0.014192 0.965996 -0.576761 0.853835 -0.167998 -0.273281 -0.222729 0.994211 0.333924 0.203180 0.325412 0.827936 0.682979 -0.400974 0.667429 0.212612 0.168529 0.403711 0.014298 -0.493164 0.658058 -0.168751 -0.541729 0.444864 0.505919 0.235725 -0.530877 -0.177150 0.452416 0.984845 0.230941 0.552083 -0.455522 -0.075172 -0.546401 -0.640678 -0.166673 0.901303 0.193257 -0.336705 -0.098046 -0.626451 -0.370794 0.080740 0.986664 -0.450249 -0.150206 0.622728 0.433971 0.637717 -0.183125 0.502443 -0.081178 0.245271 0.092238 0.450681 0.899039 0.111465 0.578316 -0.573265 0.561090 -0.205238 -0.101523 -0.067226 0.339058 0.073374 -0.123792 -0.547826 0.270525 0.646997 0.902917 0.898803 0.816284 -0.062283 -0.641375 -0.490736 0.633816 -0.305907 -0.351804 0.531424 -0.455984 -0.046995 0.526974 0.121553 -0.480526 -0.021607 0.752815 -0.649727 0.848001 0.761870 -0.230881 0.596592 -0.404370 -0.179348 0.761013 -0.256962 0.721560 0.627299 0.087643 0.396809 0.570045 0.084617 0.701161 0.833419 0.766430 0.788258 -0.210860 -0.070553 0.972766 0.564095 0.252545 0.750237 0.396364 -0.394953 0.180083 -0.022920 0.838170 -0.632048 -0.605768 0.422400 -0.538163 0.488256 -0.040382 -0.018203 0.197588 0.648254 -0.430383 0.963569 -0.441022 0.742610 -0.225071 0.686401 0.622192 0.674578 -0.029622
0.604557 0.607553 0.610703 0.580769 0.624739 0.596954 0.588383 0.626858 0.618271 0.636856 0.586055 0.626145 0.588715 0.623186 0.615736 0.601997 0.602676 0.631122 0.633687 0.633035 0.634030 0.610267 0.617583 0.634840 0.584727 0.594904 0.602361 0.626089 0.587099 0.594251 0.622375 0.608048 0.600640 0.616473 0.605287 0.617049 0.609287 0.589924 0.597460 0.633892 0.595724 0.616098 0.591980 0.602235 0.589232 0.628398 0.628030 0.599685 0.636555 0.609124 0.603239 0.598284 0.610700 0.596387 0.607161 0.600619 0.633314 0.583764 0.611041 0.634935 0.628647 0.631775 0.612795 0.591833 0.591710 0.636108 0.586483 0.610421 0.617453 0.588009 0.608249 0.637110 0.592470 0.586164 0.611948 0.586171 0.598628 0.605706 0.623826 0.621228 0.627554 0.581513 0.603348 0.585834 0.596691 0.611064 0.632976 0.600594 0.621673 0.588929 0.597157 0.620749 0.634117 0.613443 0.634608 0.596974 0.598335 0.618394 0.593557 0.614159 0.612237 0.617496 0.629570 0.634771 0.634990 0.636732 0.602005 0.608770 0.629427 0.626546 0.594262 0.609337 0.597883 0.587261 0.605318 0.630108 0.604899 0.632705 0.590731 0.656261 0.618642 0.581696 0.593202 0.617592 0.612989 0.590035 0.618757 0.626369 0.614033 0.596138 0.595676 0.636670 0.628794 0.618766 0.623623 0.603724 0.622566 0.631109 0.611089 0.606204 0.587235 0.598442 0.631542 0.612345 0.603261 0.582511 0.619057 0.870269 0.742919 0.590166 0.600329 0.650473 0.668860 0.640175 0.759972 0.731506 0.683086 0.675562 0.606757 0.586731 0.608946 0.624557 0.615573 0.622250 0.591039 0.586628 0.600670 0.632429 0.597485 0.604056 0.582239 0.593135 0.622163 0.635847 0.779151 0.831614 0.676880 0.619955 0.621714 0.718451 0.743280 0.761277 0.762821 0.767263 0.761569 0.727564 0.704905 0.647530 0.631990 0.586832 0.634353 0.629489 0.601269 0.609062 0.606315 0.586954 0.618705 0.628624 0.593990 0.632172 0.591431 0.722474 0.860464 0.708649 0.583539 0.620418 0.738262 0.674867 0.703839 0.724552 0.731837 0.689835 0.602722 0.552616 0.756510 0.664127 0.708229 0.726840 0.706450 0.595033 0.619943 0.613446 0.583225 0.597251 0.619538 0.610789 0.619314 0.582982 0.582974 0.793995 0.829179 0.594293 0.640215 0.735633 0.694196 0.661601 0.670758 0.594479 0.149892 -0.277859 -0.516444 -0.527658 0.088326 0.805711 0.873381 0.907840 0.858296 0.673166 0.582383 0.615594 0.618532 0.610887 0.634169 0.605273 0.626677 0.626407 0.629222 0.911225 0.813263 0.629132 0.656214 0.696790 0.596444 0.290150 0.007444 -0.510092 -0.661896 -0.686488 -0.547784 -0.507466 0.056570 0.968016 0.849800 0.894259 0.894901 0.877764 0.604469 0.615777 0.621043 0.629512 0.600603 0.591175 0.635175 0.600172 0.740148 0.893910 0.734178 0.692849 0.677158 0.281870 -0.251857 -0.610400 -0.668568 -0.660300 -0.418250 0.019893 0.105215 -0.430449 0.429751 0.874847 0.658643 0.680539 0.893798 0.869623 0.636236 0.598356 0.611584 0.631254 0.588963 0.588963 0.597200 0.591819 0.731509 0.885145 0.703314 0.382711 -0.229690 -0.658644 -0.638424 -0.508096 -0.199219 0.077946 0.602210 0.214141 -0.509224 -0.249610 0.744706 0.739158 0.639473 0.659703 0.899270 0.895343 0.632294 0.634187 0.594608 0.613504 0.595099 0.594184 0.589295 0.591265 0.595169 0.639678 -0.086091 -0.888609 -0.943362 -0.839085 -0.590914 0.314304 0.380691 0.484950 0.505393 -0.204912 -0.390319 0.190122 0.824911 0.728510 0.581870 0.700683 0.857403 0.198370 -0.444908 0.583259 0.629001 0.610603 0.580855 0.591318 0.595575 0.626201 0.698297 0.459180 -0.249288 -0.839577 -0.606020 0.138695 0.252208 0.172704 0.145902 0.188527 -0.023453 -0.854493 -0.408705 0.402642 0.411679 0.270024 -0.368970 -0.401966 -0.215449 -0.555019 -0.378304 0.530616 0.591673 0.589496 0.583182 0.593074 0.628070 0.608360 0.833613 0.506222 0.236427 0.134111 0.166102 0.224927 0.165345 0.139105 0.151191 0.184106 -0.585301 -0.797498 -0.251907 0.017087 -0.367746 -0.896750 -1.016000 -0.759187 -0.051370 0.241093 0.510831 0.553126 0.624125 0.592848 0.605520 0.633178 0.596766 0.615041 0.858675 0.856347 0.566238 0.446874 0.273439 0.320080 0.295371 0.320370 0.329789 0.149176 -0.624460 -0.686316 -0.471267 -0.824307 -0.895438 -0.839971 -0.363372 0.278160 0.419221 0.283626 0.583214 0.610624 0.584755 0.591173 0.624723 0.598649 0.612378 0.620170 0.872869 0.857674 0.551398 0.522220 0.540958 0.516182 0.518628 0.573775 0.707223 0.159419 -0.420314 -0.689303 -0.627212 -0.486356 -0.225959 0.149042 0.306375 0.482508 0.582412 0.564723 0.628069 0.622082 0.597842 0.583261 0.584252 0.589158 0.617875 0.624205 0.903428 0.863882 0.580041 0.525108 0.542341 0.544832 0.583112 0.606579 0.240159 -0.411947 -0.652523 -0.491440 -0.119911 0.420592 0.712485 0.621145 0.796406 0.928113 0.771993 0.597728 0.613456 0.585511 0.583552 0.634066 0.627095 0.633315 0.595029 0.598788 0.756032 0.907584 0.718759 0.570935 0.571468 0.517346 0.208274 -0.293339 -0.397889 -0.586812 -0.267662 0.512975 0.692796 0.699428 0.668556 0.671522 0.890488 0.966595 0.742783 0.732748 0.643012 0.601909 0.584863 0.625648 0.617322 0.630193 0.598077 0.611851 0.675191 0.849134 0.828870 0.467175 -0.021260 -0.394735 -0.353032 -0.254024 -0.282683 -0.296337 0.708473 0.749063 0.726884 0.672111 0.662852 0.701307 1.016000 0.926414 0.731625 0.736792 0.656394 0.585233 0.609545 0.624248 0.605730 0.595698 0.632361 0.629090 0.596024 0.176428 -0.221152 -0.348448 -0.375852 -0.276425 0.044390 0.655711 0.485141 0.490597 0.714041 0.765887 0.731399 0.706656 0.662099 0.755476 0.962122 0.754518 0.693879 0.649941 0.610566 0.599314 0.626962 0.613738 0.592962 0.631529 0.631805 0.587698 0.593493 -0.492713 -0.587841 -0.383018 0.146001 0.652713 0.767640 0.754317 0.718707 0.721939 0.749496 0.758040 0.699414 0.656626 0.634700 0.656874 0.732515 0.600760 0.582946 0.604985 0.601899 0.603618 0.585219 0.620610 0.606303 0.583036 0.580770 0.626955 0.585464 0.428442 0.629177 0.697087 0.749167 0.737320 0.750322 0.721583 0.713678 0.684316 0.636115 0.643777 0.626434 0.634780 0.621747 0.707307 0.668577 0.592788 0.621338 0.584021 0.580365 0.593041 0.592482 0.612939 0.619936 0.584403 0.636660 0.609084 0.597462 0.647100 0.721059 0.762635 0.732167 0.743551 0.726551 0.647294 0.614530 0.605452 0.614765 0.637037 0.614779 0.616871 0.612850 0.626844 0.617695 0.619875 0.611958 0.632972 0.617335 0.612206 0.627838 0.600977 0.628997 0.609654 0.594927 0.598690 0.600198 0.641200 0.717757 0.692793 0.628100 0.639323 0.598277 0.588124 0.592590 0.616477 0.616093 0.614560 0.614246 0.597771 0.608126 0.623418 0.593014 0.612816 0.608242 0.610956 0.635188 0.595273 0.593848 0.602821 0.627587 0.627185 0.626127 0.594351 0.582390 0.584927 0.630550 0.596365 0.623810 0.586059 0.585811 0.583116 0.592695 0.609192 0.604344 0.585168 0.610731 0.618409 0.619829 0.611701 0.614330 0.586151 0.590050 0.632740 0.593028 0.584437 0.614400 0.590839 0.627094 0.616006 0.594787 0.588099 0.587714 0.618377 0.598174 0.598134 0.581445 0.619233 0.636684 0.625062 0.583679 0.594310 0.584085 0.629262 0.581566 0.632682 0.617247 0.611050 0.629784 0.594887 0.612270 0.615192 0.635029 0.599027 0.595944 0.605838 0.628433 0.592675 0.634216 0.581124 0.610314 0.621326 0.590356 0.625396 0.632886 0.585291 0.619117 0.632915 0.585848 0.616110 0.595951 0.609725 0.612476 0.608777 0.601068 0.596210 0.603711 0.582990 0.597647 0.616855 0.587597 0.607645 0.592900 0.609419
0.816219 0.482678 0.741318 0.914911 0.637823 0.542578 0.864678 0.582806 0.915030 0.625314 0.593514 0.729614 0.564868 0.789026 0.592287 0.936983 0.723658 0.768254 0.973412 0.879997 0.826611 0.843827 0.492438 1.001261 0.568920 0.764110 0.973858 0.729539 0.610607 0.649792 0.784264 0.926675 0.920159 0.835868 0.828475 0.687224 0.621904 0.838152 0.541904 0.944606 0.884281 0.730857 0.919032 0.552196 1.004520 0.893016 0.689210 0.487713 0.479775 0.596362 0.564596 0.804727 0.563807 0.850236 0.565860 0.591905 0.583616 0.864396 0.565280 1.016000 0.962063 0.558162 0.955863 0.860247 0.855445 0.975103 0.867174 0.957458 0.962078 0.957356 0.648643 0.485978 0.927215 0.704095 0.788020 0.829431 0.790561 0.684375 0.800834 1.002753 0.896382 0.557209 0.904272 0.635076 0.669548 0.657842 0.808575 0.999453 0.770205 0.958226 0.819534 0.850101 0.909322 0.516148 0.547606 0.717293 0.636822 0.890336 0.730521 0.581429 0.623715 0.856975 0.614031 0.991023 0.966784 0.489377 0.529937 0.684621 0.999127 0.478257 0.830639 0.521636 0.818892 0.800908 0.608605 0.743922 0.620740 0.498575 0.835184 0.854163 0.479570 0.932224 0.869321 0.612089 0.962785 0.974579 0.843121 0.981005 0.498232 0.609760 0.669849 0.855295 0.481515 0.765692 0.680446 0.734555 0.599289 1.012645 0.728396 0.946050 0.633195 0.907863 0.533874 0.868129 0.841448 0.939142 0.406790 -0.325144 -0.103186 0.987955 0.727313 0.607143 0.871895 0.611856 0.682893 0.547289 0.991717 0.849509 0.867026 0.651955 0.930964 0.664219 0.734123 0.847778 0.893094 0.763513 0.907143 0.739200 0.754260 0.613445 0.757896 0.872293 0.820870 1.007626 -0.260705 -0.110190 0.502643 0.803740 0.837907 0.969005 0.766983 0.977514 0.506482 0.964305 0.791562 0.899875 0.502441 0.964430 0.624053 0.815831 0.539957 0.807547 0.789193 0.922411 0.912110 0.802328 0.579701 0.803923 0.902167 0.984967 0.856415 0.274071 -0.455523 0.257169 0.511836 0.667105 0.739747 0.638268 0.998707 0.551594 0.782590 0.624516 0.854995 0.519188 0.826981 0.843680 0.296539 0.436287 0.282385 0.648198 0.732672 0.993629 0.507906 0.776873 0.891560 0.982436 0.587208 0.698293 0.789819 -0.043862 -0.149607 0.907080 0.582716 0.791057 0.882035 0.513287 0.902805 0.779061 0.942959 0.790271 0.563718 0.891696 0.651740 0.480544 -0.715430 -0.966817 -0.547760 0.105172 0.531006 0.738385 0.885552 0.487812 0.645083 0.613631 0.954168 0.829030 0.426779 -0.558122 -0.526666 0.869336 0.936804 1.006537 0.956370 0.705456 0.671329 0.832892 0.993280 0.510810 0.639681 0.724750 -0.025139 -0.722216 -0.578032 -0.725950 -0.682813 -0.537494 0.778999 0.860977 0.668858 0.695771 0.617128 0.566914 0.944441 0.756362 0.321239 -0.710987 0.331289 0.809874 0.697135 0.872233 0.616671 0.524033 0.502564 0.747296 0.548997 0.492865 0.700783 0.458893 -0.780799 -0.086118 0.357562 0.529298 -0.541573 -0.650236 0.962068 0.769327 1.015707 0.527498 0.925766 0.587334 0.964832 0.928305 -0.070169 -0.747618 0.782083 0.759430 0.749003 0.842238 0.742073 0.851176 0.665975 0.619567 0.994394 0.560946 0.265931 -0.934501 -0.425957 0.504381 0.581200 0.453180 -0.818133 -0.691108 0.707917 0.779564 0.556209 0.880064 0.739468 0.805079 0.899784 1.000326 -0.328281 -0.424229 0.591986 0.931923 0.966852 0.811138 0.780734 0.675359 1.003873 0.565988 0.569826 0.435081 -0.561807 -1.016000 0.244971 0.794920 0.971096 0.405743 -0.659415 -0.056519 0.965640 0.562671 0.950759 0.847609 0.896198 0.757675 0.603999 0.659509 -0.775740 -0.487344 0.563588 0.823740 0.683876 0.820464 0.829106 0.839883 0.697055 0.615555 0.512299 -0.446328 -0.673956 -0.141334 0.488606 1.006562 0.941894 0.584304 -0.780815 0.169676 0.772494 0.617221 0.559217 0.480242 0.832573 0.906398 0.652787 0.935712 -0.713862 -0.419957 0.804547 0.663043 0.876239 0.924433 0.815914 0.829023 0.488939 0.715793 0.061428 -0.678847 -0.731728 0.881164 0.519349 0.726174 0.554002 -0.207995 -0.579416 0.037989 0.946545 0.509725 0.522322 0.834120 0.677981 0.871108 0.854720 0.783824 -0.499421 -0.221690 0.774891 0.635335 0.704089 0.816697 0.494292 0.919116 0.983780 0.197583 -0.660380 -0.310311 0.771277 1.008961 0.795621 0.480169 0.586856 -0.564146 -0.874697 0.638519 0.545153 0.667713 0.724100 0.538826 0.989133 0.585048 0.975274 0.931045 -0.507560 -0.511260 0.984929 0.491150 0.918700 0.595843 0.823073 0.894609 0.387739 -0.528156 -0.486637 0.781476 0.710393 0.746922 1.010818 0.733526 0.535884 -0.888735 -0.155765 0.564812 1.012005 0.534786 0.785392 0.559228 0.796320 0.617793 0.718273 0.754082 -0.918672 -0.831578 0.397739 0.588980 0.550631 0.614488 0.492368 0.308727 -0.616620 -0.365109 0.708639 0.748763 1.014350 0.659618 0.948003 0.574768 -0.236223 -0.906059 0.196595 0.484365 0.579845 0.683310 0.557112 0.696412 0.796514 0.544955 0.831707 0.502646 -0.296937 -0.864873 0.278232 0.903858 0.892337 0.583641 -0.168569 -0.480220 -0.765597 0.444706 0.611456 0.681388 0.802833 0.542462 0.512790 0.599497 -0.659365 -0.616472 0.671885 0.854247 0.834501 0.810174 0.569018 0.966155 0.746970 0.578972 0.737284 0.955905 0.451461 -0.653788 -0.666737 0.180785 0.541363 -0.342504 -0.613603 -0.766762 0.120515 0.591701 0.920825 0.515586 0.822297 0.639058 0.974286 0.576372 -0.876425 -0.224747 0.795711 0.513401 0.675275 0.815851 0.837924 0.519526 0.742884 0.565329 0.669786 0.625302 0.709902 0.352624 -0.533031 -0.993427 -0.585608 -0.880326 -0.313101 0.641355 0.934205 0.482644 0.775799 0.496303 0.750670 0.862761 0.833839 0.189447 -0.655629 0.369512 0.767059 0.680563 0.734407 1.005687 0.490608 0.683543 0.752074 0.709307 0.664338 0.994950 0.653745 0.853325 0.625450 0.552933 0.094430 0.261427 0.674585 0.672987 0.736177 0.854043 0.778244 0.630091 0.779773 0.556101 0.521113 0.375127 -0.087142 0.705718 0.866831 0.946685 0.731118 0.753408 0.943968 0.809839 0.680742 0.700911 0.860385 0.715255 0.843498 0.773511 0.492047 0.913369 0.669725 0.899221 0.556492 0.998534 0.729579 0.510586 0.531110 0.789987 0.763338 0.984953 0.997140 0.092608 0.242077 0.770397 0.987833 0.901570 0.824809 0.854015 0.561643 0.680506 0.601954 0.994756 0.532571 0.924480 1.007178 0.556697 0.535229 0.761415 0.680514 0.634590 0.796059 0.623324 0.629987 0.939712 0.623459 0.491092 0.559344 0.713799 0.982649 0.567190 0.596631 0.578206 0.576177 0.908301 0.502091 0.484993 0.904265 0.893087 0.666820 0.714489 0.723634 0.651728 0.708410 0.636103 0.485190 0.998390 0.807730 0.715507 0.651289 0.811965 1.014345 0.522326 0.751315 0.810198 0.781555 0.583370 0.738017 0.547934 0.735402 0.912979 0.581008 1.015180 0.667258 0.608054 0.652971 0.761623 0.893612 0.772165 0.522347 0.658192 0.982380 0.501953 0.860541 1.003857 0.693508 0.952416 0.998362 0.736331 0.578553 0.965330 0.974640 0.625803 0.787907 1.007022 0.643795 0.547460 0.589736 0.865480 1.007275 0.949198 0.484246 0.535447 0.528662 0.784432 0.528803 0.883013 0.649961 0.690157 0.649530 0.970165 0.895392 0.803672 0.591219 0.516945 0.699899 0.767989 0.871606 0.833467 0.829826 0.754763 0.852091 0.812516 0.671108 0.545770 0.646605 0.498033 0.825166 0.891621 0.900812 0.674068 0.529909 0.867713 0.674693 0.741173 0.878388 0.754034 0.561542 0.656379 0.575065 0.657636 0.959523 0.586018 0.592143 0.892020 0.855127 0.525698 0.664110 0.615462 0.482444 0.873074 0.906393 0.695670 0.507885 0.983836 0.484322 0.553872 0.677286 0.581000 0.532606 0.485487
0.967161 0.821587 0.985382 0.967278 0.964813 0.969913 1.000971 0.863663 0.972385 0.939964 0.919871 0.994432 0.865893 0.850683 0.956457 0.825329 0.953207 1.013235 1.013326 0.828960 0.821971 0.890048 0.932768 0.857765 0.927089 1.012962 0.938095 0.974152 0.873531 0.973366 0.945940 0.976795 0.879925 0.960230 0.834055 0.852153 0.923678 0.933400 0.916759 0.842310 0.849312 0.836583 0.858522 0.821731 0.997270 0.968817 0.956247 1.014054 0.923445 0.986683 0.826341 0.938573 0.936060 0.867558 0.872262 0.831944 0.846596 1.001066 0.978710 0.933914 0.950057 0.999160 0.884946 0.848445 0.880752 0.845904 0.894418 0.945716 0.891136 0.922091 1.003275 0.836973 0.843021 0.925382 0.926156 0.852457 0.874312 1.002393 0.845439 0.899374 0.822689 0.976294 0.994331 0.824305 0.900748 0.886558 0.922164 0.919406 0.953778 0.929274 1.007057 0.937140 0.930048 1.013568 1.011308 0.851413 0.844279 0.936174 0.824858 0.919145 0.939913 0.908974 0.845002 0.908807 0.952854 0.968780 0.842910 1.013111 0.880102 0.850443 0.926039 0.987095 0.837915 0.871806 0.835149 0.978387 0.938358 0.967249 0.969488 0.778211 0.745184 0.891590 0.923242 0.937834 0.903559 0.960456 0.970891 1.003064 0.987923 1.008321 0.898901 0.899017 0.864868 0.823099 1.003767 0.862479 0.965493 0.984190 1.004728 0.990748 1.003161 0.901011 0.989809 0.829549 0.905076 0.981832 0.773569 -0.624552 -0.135967 1.008407 0.895786 0.980154 0.933966 0.971373 0.935333 1.002587 0.920260 0.934400 0.977772 0.987960 0.887406 0.837530 0.971734 0.875192 0.843730 0.898108 0.970600 0.904470 0.905654 0.986250 0.939417 1.007405 0.895028 0.865295 -0.196423 -0.382177 0.567494 0.878591 0.925529 0.929806 0.823776 0.984730 0.849311 0.843672 1.016000 0.957563 1.004242 0.888911 1.006609 0.938628 1.007678 0.858871 0.904551 0.904930 0.919676 0.902765 0.835769 0.864924 0.961421 1.008470 0.821794 0.376453 -0.892636 0.415708 0.830346 0.856070 0.991836 0.873549 0.929126 0.931504 0.881409 0.997500 0.889330 0.840728 0.835127 0.774170 0.291833 0.246778 0.310292 0.907160 0.838312 0.959634 0.853557 0.957750 0.842736 1.015537 0.953455 0.860193 0.974753 -0.287402 -0.359098 0.874943 0.846556 1.012972 0.958637 0.852424 0.847954 0.924198 0.947898 0.915931 1.006907 0.848072 0.876530 0.445092 -0.921676 -0.930467 -0.917674 0.444109 0.848993 0.828929 0.999185 0.965658 0.825671 0.956369 0.875958 0.915345 0.716061 -0.984540 -0.413823 0.991806 0.922691 0.926559 0.830433 0.837115 0.898246 0.942776 0.990694 0.896943 0.872646 0.946823 0.002689 -0.945876 -0.750103 -0.811123 -0.972997 -0.928634 0.934709 0.891846 0.857709 0.838933 0.861586 0.966932 0.835951 0.961325 0.188408 -0.818828 0.326814 0.902886 0.867009 0.919883 0.861701 0.863410 0.994309 0.957102 0.951793 0.846044 0.919478 0.358615 -0.770300 -0.254594 0.681326 0.380651 -0.987157 -0.844263 0.983990 0.954311 0.929923 0.857303 0.949951 0.896871 0.924913 0.951906 -0.125708 -0.695463 0.704085 0.953596 0.848804 0.940404 0.949337 0.836174 0.978559 0.886049 0.853006 0.874832 0.262066 -0.819170 -0.686780 0.650203 0.905762 0.383588 -0.830511 -0.851032 0.854158 1.014103 0.828241 0.881861 0.895789 0.982343 1.002915 0.944390 -0.387462 -0.532932 1.011146 0.932372 1.000237 0.903014 0.959276 0.858320 1.009657 1.012897 0.966058 0.663011 -0.769112 -0.890571 0.246662 0.938849 0.910887 0.489616 -0.916421 -0.152233 0.891842 0.898708 0.933981 0.918705 0.842354 0.829608 0.963137 0.866627 -0.843657 -0.665604 0.874952 0.938237 0.864975 0.971273 0.845897 0.993080 0.900025 0.837318 0.761186 -0.542327 -0.873530 -0.330134 0.883099 0.877613 0.923940 0.432456 -0.977195 -0.124185 0.977041 0.897761 0.985014 0.986612 0.899329 0.887018 0.930144 0.888701 -0.867121 -0.490814 0.910396 0.942807 0.888984 0.952020 0.829261 0.832257 0.857347 0.906328 -0.177422 -0.923723 -0.474479 0.783376 1.013929 1.011769 0.956021 -0.503610 -0.916851 0.369742 0.968977 0.937562 0.919743 0.845543 0.911407 0.948299 0.981078 0.883311 -0.971066 -0.603059 0.906676 0.854357 0.914272 0.893896 0.925655 0.902483 0.844760 0.243587 -0.965063 -0.458315 0.719457 0.982692 0.882401 0.876249 0.671568 -0.707933 -0.801141 0.830917 0.946846 0.892913 0.943777 0.909490 0.884602 0.900074 0.934168 1.008383 -0.901001 -0.592780 1.009628 0.938516 0.958866 0.849183 0.868382 0.843984 0.222919 -0.779987 -0.552339 0.667247 0.841327 0.985014 0.850001 0.902105 0.277472 -0.955681 -0.256126 0.838867 0.906452 0.936032 0.873971 0.894208 0.995126 0.979672 0.889380 0.916228 -1.014024 -0.619112 0.731691 1.012940 0.981257 0.836934 0.981171 0.268982 -0.902056 -0.633606 0.861531 0.976455 0.921830 0.961918 0.922041 0.931915 -0.211055 -0.959493 0.053729 0.986270 0.896804 0.965865 0.971104 0.940445 0.826904 0.867755 0.959981 0.946218 -0.112613 -0.826632 -0.007099 0.920704 0.964115 0.809133 -0.102913 -0.931423 -0.836293 0.339510 1.003157 0.827621 0.830326 0.824112 0.984749 0.833764 -0.540573 -0.667640 0.695214 0.967974 0.940810 0.924172 0.841916 0.856376 0.928013 0.870755 0.826215 1.009398 0.322678 -0.879161 -0.708504 0.215165 0.747733 -0.608444 -0.903780 -0.843925 0.245973 0.837129 0.822599 0.866882 0.860538 0.859960 0.953389 0.813753 -0.927871 -0.357551 0.955620 0.856188 0.905303 0.843430 0.884770 1.001685 0.902373 0.863037 0.855371 0.982579 0.824133 0.314524 -0.768510 -0.947329 -0.818559 -1.016000 -0.596152 0.725589 0.920365 0.931085 0.890778 0.950773 0.831257 0.859578 1.010381 0.122297 -0.895648 0.451180 0.965215 0.990501 0.862787 0.830998 0.859516 0.963187 0.838444 0.823515 0.860727 0.929019 0.969938 1.012815 0.643591 0.337871 0.343904 0.500147 0.700981 0.893358 0.845281 0.840476 0.896387 0.901390 0.920765 0.992802 0.929858 0.447104 -0.012984 0.840065 1.003907 1.011653 0.957481 0.865444 0.879237 0.830606 0.970316 0.884289 0.979870 0.924588 0.878821 0.959082 0.956097 0.880375 0.996211 0.940022 0.947213 0.985393 0.897246 0.947553 0.998051 0.973866 0.912985 0.839056 0.910145 0.407032 0.467275 1.013112 0.861017 0.912290 0.891149 0.895818 0.920669 0.871168 0.954734 0.865316 0.825702 0.861966 1.010866 1.004290 0.927416 0.922830 0.993781 0.867781 0.957045 0.919747 0.905676 0.894567 0.848698 0.967054 0.876612 0.932110 0.853042 0.911369 0.889647 0.997146 0.853015 0.882832 0.901660 0.895619 1.004854 0.854176 0.983196 0.828875 0.944883 0.864683 0.926701 0.972146 1.001098 0.876830 0.984261 0.967434 0.972076 1.010316 0.853135 0.992287 0.922969 0.964518 0.943194 0.897025 0.931854 0.997536 0.952665 0.927731 0.973965 0.928122 0.968745 0.880249 0.948955 0.821982 0.976396 1.005591 0.890471 0.849887 0.963485 0.994090 0.886993 0.915801 0.885659 0.944618 0.998989 0.853661 0.952336 0.867966 0.935254 0.894270 0.921787 1.000041 0.929296 0.821681 0.865364 0.845085 0.982354 0.999724 0.907812 0.904766 0.894381 0.898013 0.878496 0.858938 0.994442 1.010851 0.843187 1.013531 0.982462 0.975484 0.961884 0.906732 0.910408 0.951686 0.995050 0.848568 0.897563 0.918704 0.869185 0.866452 0.955942 0.929271 0.942394 0.952362 0.917308 0.835542 0.897621 0.823515 0.900769 0.824241 0.920152 0.871495 0.919296 0.931984 0.958438 0.925803 0.831457 0.949954 0.913181 0.959836 0.827296 0.884632 0.936237 0.930832 0.952697 0.980165 0.983696 0.936124 0.920721 0.910052 0.852114 1.014573 0.995322 0.870986 0.880749 0.924772 0.840610 1.010783
0.875898 0.747418 0.657766 0.273552 0.264189 -0.132729 0.893620 0.037329 0.389806 0.972404 0.230016 0.499575 0.908443 0.589742 0.059060 0.269475 0.959292 0.907716 0.401858 0.463840 0.810671 0.300662 0.036609 0.214595 0.289245 0.232091 0.292037 0.871588 0.216384 0.942694 0.424506 0.133388 0.666857 0.706045 0.185737 -0.061336 0.472618 -0.105209 0.827448 0.024443 0.089258 0.205434 0.966846 0.715909 0.723482 0.362553 0.066082 0.594827 0.451215 0.632825 -0.117551 0.581237 0.225626 0.226769 0.569702 0.769075 0.863677 0.715999 0.904096 0.920913 0.712474 0.776854 0.570732 0.600107 0.928371 0.795521 0.179824 0.255297 0.007294 0.274028 -0.085511 0.276300 -0.075422 0.705463 0.867858 0.594968 0.126045 0.735817 0.782641 0.729188 0.464350 1.013295 0.357461 0.095071 0.674336 0.267534 0.448347 0.283109 0.171973 0.759335 0.751641 0.531168 0.284862 0.645852 0.908122 0.947485 0.510298 0.434641 -0.062813 0.854850 0.744059 0.746972 -0.015961 0.454612 0.506673 -0.052674 0.988799 -0.054878 0.196259 0.684701 0.952492 -0.146379 0.654710 0.874043 0.279355 0.950351 0.152582 0.177636 0.623208 0.146423 0.399655 0.756057 0.837118 0.490168 0.789089 -0.136146 0.043055 0.496359 0.456920 0.416447 0.062314 0.757411 -0.146609 0.378535 0.101692 0.379404 0.370593 0.879168 -0.048103 0.532756 0.342020 0.373319 0.550902 0.371455 1.003560 -0.126418 -0.058164 -0.215118 -0.496484 0.474110 0.793856 0.006617 0.392944 0.408425 0.764953 0.650124 0.166562 0.096391 0.693850 0.790424 0.793357 0.720498 0.111078 0.828151 0.118473 -0.107383 0.064104 0.585642 0.534910 0.927347 0.293546 -0.047640 0.116196 0.587082 -0.646277 -0.103737 0.673522 0.131012 0.434291 0.347761 0.809683 0.974809 -0.045902 0.304542 0.639637 0.858185 0.118552 0.582052 0.955426 0.960630 -0.125851 0.518486 0.088730 0.608544 0.427326 -0.049454 -0.148306 0.010554 0.075354 0.992038 0.897044 -0.158090 -0.557698 0.074022 0.853124 0.752604 0.688061 0.623559 -0.150660 0.710374 0.541417 0.770035 0.615633 0.252434 0.299154 0.479810 0.683950 -0.147032 -0.213323 0.907986 0.004949 0.873808 0.589944 0.228851 0.336548 1.008744 0.574940 0.019033 0.532803 -0.098794 0.341146 0.788194 0.091595 -0.144361 -0.038598 -0.082297 1.013999 0.612773 0.469618 0.080330 0.567925 -0.116617 0.292789 0.360097 -0.648786 -1.016000 -0.777212 -0.246262 0.645495 0.473250 -0.141346 0.870103 -0.102291 0.021998 0.067131 0.412775 0.719394 -0.791185 -0.103492 1.013460 0.780010 0.140480 0.921802 0.456037 1.016000 0.633641 -0.027009 0.725078 -0.007843 0.145899 0.115466 -0.335958 -0.426400 -0.286616 -0.531893 -0.322275 0.997157 0.724515 0.474084 0.620589 0.929879 0.181552 0.570644 -0.067373 0.394929 -0.734261 0.768997 0.018205 0.259116 0.271928 0.154245 0.475511 0.705757 0.478392 0.005971 0.132559 0.400557 -0.144298 0.077340 -0.320538 -0.087242 0.689900 -0.351380 -0.307290 0.117917 0.077658 0.670642 0.301463 0.648142 0.298192 0.629906 1.010067 -0.246848 -0.526396 0.789048 0.778443 0.920076 0.475987 0.145477 0.131915 0.054108 0.819935 0.226585 0.216178 0.636659 -0.910385 -0.448200 -0.019999 0.962455 0.542528 -0.069884 0.108340 0.918465 0.777496 0.175894 0.300164 0.764023 0.226275 -0.121178 -0.018693 -0.638265 -0.543594 0.875029 0.024425 0.724761 -0.009560 0.470417 0.378323 0.954499 -0.059377 0.587881 0.374672 -0.855616 -0.814289 0.426453 0.818345 0.231809 0.190427 -0.129270 -0.593194 0.903438 0.472180 0.275561 0.434632 0.393568 0.854658 0.309875 0.873693 -0.465746 -0.713067 0.830542 0.537227 0.751516 0.341897 0.885875 0.344363 0.892653 0.276631 -0.071422 -0.006170 -0.447792 -0.223551 -0.057117 -0.070507 0.922177 0.133003 -0.130242 -0.433781 -0.105737 0.613743 -0.027262 0.834904 -0.106649 0.963896 0.595258 0.242785 -0.213323 0.091217 0.151381 0.729771 -0.081848 0.123081 0.917767 0.675177 0.591512 0.725379 -0.619246 -0.999864 0.044191 -0.062091 0.342684 0.252418 0.828114 -0.209795 0.005202 0.072521 -0.025759 0.899114 0.709057 -0.106211 0.096014 0.908091 0.575090 0.336069 -0.621250 -0.270111 0.988902 0.081971 0.186696 0.740427 0.691138 0.805876 0.842662 -0.204439 -0.049403 0.130104 0.510399 0.004096 0.479806 0.067721 0.010243 -0.009065 -0.227476 0.679844 0.488120 -0.103176 0.711632 0.392728 0.021207 0.785290 0.255640 0.899618 -0.399248 0.085621 0.946596 0.394793 0.711017 0.467380 0.244691 0.083590 0.105854 -0.754490 -0.349989 0.578521 0.604177 0.635229 0.143749 0.185150 0.509783 -0.204597 0.158258 0.333718 1.013158 0.819030 0.873560 -0.056399 0.412819 1.007882 0.349583 -0.050506 -0.955877 -0.513265 0.657452 0.312741 0.632486 0.201185 0.299569 0.451699 -0.721311 -0.335403 0.773905 0.183499 0.155137 0.250819 -0.070327 0.670288 -0.151103 0.074156 0.093331 -0.091576 0.730106 0.598933 0.125854 0.878143 0.832520 0.548044 0.829400 0.371813 -0.463069 -0.013663 -0.086856 0.888166 0.419281 0.902553 -0.407584 -0.710903 0.055967 0.553964 0.612329 0.214343 0.903288 0.174474 -0.009000 0.071938 -0.839911 0.236494 0.435860 0.245456 0.129696 0.455098 0.446314 0.162565 0.284744 0.044706 0.990265 0.614750 -0.290923 0.118363 0.217840 -0.420926 -0.147315 -0.746600 -0.588631 -0.604051 0.501270 0.842627 0.517909 0.053659 0.153510 0.597574 -0.103202 0.176743 0.073197 -0.733977 0.294448 0.683752 -0.075061 0.705762 -0.000243 0.670087 0.311463 0.208099 0.290116 0.571722 0.885691 -0.208381 -0.065720 -0.002080 -0.493711 -1.002528 -0.326852 0.846539 0.352298 1.008203 0.980341 0.463034 0.437242 0.447328 0.218683 0.468535 -0.353718 0.124665 1.006147 -0.004625 0.596674 0.693481 -0.076312 0.396685 0.150503 -0.090226 0.176357 0.935480 -0.099121 0.770333 0.403061 -0.374200 0.157014 0.056268 -0.214220 0.354322 0.207491 0.368996 0.987368 0.863697 0.023564 0.465165 0.233682 -0.266750 -0.565285 -0.149039 0.228120 0.417908 0.465894 0.528269 0.597614 0.165660 0.389434 0.072727 0.708943 0.749253 0.394405 0.771954 0.951245 0.156681 0.107126 0.271729 0.015806 0.800548 0.269246 0.626334 0.595313 0.588829 0.852359 0.015640 -0.053168 0.495099 0.743121 0.668743 0.532744 0.349648 0.864793 0.548098 0.692920 0.237844 0.724198 0.003546 0.045033 0.809539 0.197273 0.010862 -0.066379 0.371431 0.784416 0.755317 0.919403 0.262393 0.216919 0.249208 -0.132471 0.996964 0.826634 0.651381 0.955586 0.931167 -0.147317 0.162056 -0.005175 0.187520 -0.085968 0.133392 -0.055663 0.017807 0.755516 0.546670 0.582551 0.458742 -0.008609 0.839778 0.608220 0.454142 0.536509 0.086667 -0.068391 0.208081 0.660606 0.616628 0.786913 0.807395 -0.033028 -0.028562 0.365925 0.777427 0.462385 0.759314 0.887464 0.334214 0.738752 -0.098021 0.880987 0.452954 0.931222 0.323604 0.182174 0.943117 0.930414 0.308920 0.703943 -0.071216 0.622218 0.350391 0.373376 0.830975 0.149549 0.041786 -0.147135 0.028475 0.461470 0.931909 0.502042 0.094060 0.655646 0.845717 0.521087 0.541884 0.843480 1.010436 -0.010487 0.805292 0.390959 0.909810 0.239131 -0.110199 0.351350 0.028374 0.519623 0.686391 0.081393 0.037103 0.337050 0.990304 -0.041685 0.060111 0.067213 0.556264 0.460738 0.015861 0.215406 0.790583 0.280533 0.978818 -0.117512 0.048466 0.476582 0.199361 0.318634 0.122919 0.293965 0.067186 0.863826 0.954782 0.233394 0.333154 0.894660 0.305768 0.320731 0.324754 0.377376 0.387776 0.459811 0.886920 -0.006673 -0.103875 0.153905 0.691351 0.317474 0.856086 -0.035441 0.030921 0.794741 0.079201 0.112266 0.730666 0.202021 0.240705
1.016000 0.124261 -0.163139 0.298840 0.741007 -0.348342 0.207855 0.816500 0.986912 0.989125 -0.403385 -0.502631 0.148081 0.284509 -0.140484 0.905207 0.358728 0.663043 -0.800320 0.735276 -0.150522 -0.818460 -0.252520 -0.399312 -0.547542 -0.138659 0.689170 0.477411 -0.535574 -0.730649 -0.727374 0.475529 -0.692035 0.015254 0.992125 -0.341799 0.665473 0.435379 0.895028 -0.031989 -0.017182 0.982419 0.237792 0.342680 0.915353 1.009524 0.970016 0.344719 -0.384828 0.705660 0.573522 0.743352 0.613550 -0.781482 -0.040764 0.866058 0.585051 -0.187286 0.607986 -0.673520 -0.519585 -0.176681 0.062334 0.866968 -0.257692 0.935026 -0.323360 0.677309 -0.517338 -0.528554 0.611981 -0.154345 0.186376 0.116580 0.718836 -0.735313 0.594293 -0.067056 -0.182478 -0.454785 0.397379 0.627945 -0.053610 0.915933 0.503112 -0.221354 -0.624608 0.686494 0.755228 0.848619 -0.116765 0.087965 0.840660 0.856438 0.665937 -0.644337 -0.013010 -0.647164 -0.635787 -0.814082 0.709787 -0.425096 -0.817884 0.233681 -0.068441 -0.294913 -0.383128 0.476686 0.729225 -0.769913 0.996502 0.388476 0.734987 0.472816 0.263968 0.193681 0.584013 -0.647793 -0.006161 0.853063 -0.812550 0.121501 0.646303 0.473192 -0.262442 0.142307 0.692218 -0.757951 0.139363 0.787856 0.173144 -0.212338 0.467165 -0.510412 -0.594985 0.928085 -0.770350 -0.048856 -0.827211 -0.825707 0.127567 0.175222 -0.135521 0.971397 0.722826 -0.453195 -0.132793 0.323576 0.832079 -0.805411 0.381843 -0.306981 -0.595876 -0.756992 0.575251 -0.404266 0.296268 0.912452 -0.786496 1.005742 0.039776 0.435886 -0.469750 -0.537171 0.490913 0.196308 0.527521 -0.019032 -0.421327 0.540121 0.601006 -0.318020 -0.026842 -0.193073 -0.101435 0.127444 0.320791 -0.305937 1.009708 0.577187 -0.615733 0.388311 -0.715511 -0.214607 -0.200479 -0.180979 0.711811 -0.070450 -0.824764 0.950134 0.411518 -0.267548 -0.547795 -0.766176 -0.435304 -0.311406 0.577600 -0.088335 0.156848 -0.040968 0.472159 -0.475661 0.248567 -0.677742 -0.686346 -0.225750 0.931010 0.172676 0.514485 0.427752 0.951765 0.035427 -0.282101 -0.262971 0.877073 -0.334124 -0.167379 -0.490808 0.683192 0.660016 0.292813 -0.325501 0.603716 0.638331 0.853033 0.767600 -0.726041 -0.738835 0.680680 -0.249147 -0.574750 0.333785 0.822140 0.767791 -0.074718 -0.206713 -0.668543 0.306161 0.171423 0.920663 -0.750344 0.169080 0.490877 -0.785325 0.413004 -0.186156 -0.351631 -0.222475 -0.053018 0.809610 1.012835 -0.787398 -0.511762 0.385873 -0.231527 0.409078 0.773285 0.214250 0.657424 -0.721915 0.216946 0.870056 0.958569 -0.663594 0.775437 0.470404 -0.362438 0.232360 -0.715114 -0.400048 -0.501504 0.225466 0.124808 0.336343 0.303368 0.407113 0.443552 -0.642682 0.528719 0.162429 -0.756811 0.957627 -0.470025 -0.093725 -0.854647 -0.966731 -0.781481 -0.465246 0.672819 -0.535974 0.586350 0.021901 -0.387705 0.748938 0.460807 0.573999 -0.275890 -0.613402 -0.327187 -0.297985 -0.404552 0.045881 -0.965673 0.572118 -0.661140 0.627756 0.354136 -0.739570 0.909316 -0.274618 0.569526 0.227945 0.257057 0.204823 -0.717963 0.942535 -0.500553 0.742241 -0.022065 0.051949 -0.401336 0.789574 0.450770 -0.193281 0.192647 -0.901796 -0.682407 0.234628 -0.215748 -0.548634 -0.843065 -0.085301 -0.772891 0.031601 0.469672 -0.539146 0.428245 0.456429 0.713974 -0.143693 0.071966 0.395584 0.672234 -0.627939 -0.610899 0.446351 0.993995 0.965091 -0.827769 -0.755175 -0.432202 -0.127065 -0.074796 -0.552657 0.106588 0.869760 0.232818 -0.742614 0.404007 -0.151564 -0.549988 0.693772 0.561114 0.145303 -0.226162 -0.135767 0.916145 0.825881 -0.521231 -0.853061 0.578076 -0.046290 -0.060327 0.569418 -0.618470 0.745959 0.843182 0.104175 -0.065523 -0.888333 -0.705877 0.108939 0.317572 -0.181457 -0.325131 0.821914 0.159719 0.251380 0.054265 -0.082091 -0.443303 -0.607864 0.075808 0.402980 0.195513 -0.699629 -0.307618 -0.098498 0.058409 0.826838 -0.153289 0.502672 0.191354 1.010855 0.402289 -0.697086 -0.941833 0.334610 -0.238911 -0.787234 0.066006 -0.194927 -0.506437 0.775191 -0.285818 0.150940 0.516129 0.153300 -0.664327 0.109868 -0.783424 -0.717174 0.892183 1.003480 0.275111 -0.816061 -0.801835 0.228669 -0.546274 0.217978 0.402138 0.726333 0.391677 -0.108783 -0.902696 -0.302743 0.598342 0.678357 0.543259 0.494351 0.660981 0.060164 -0.553874 0.792155 -0.196345 0.004737 0.779944 -0.076656 0.159339 -0.495498 0.943611 -0.246025 -1.016000 -0.646299 -0.430715 -0.729529 0.350424 -0.463354 0.014944 -0.760671 0.147059 -0.198718 -0.700468 0.039674 -0.467804 -0.708887 -0.539488 -0.066811 -0.553482 -0.697409 0.841881 -0.512328 -0.557297 -0.696885 -0.726169 0.339782 -0.253406 -0.203371 0.048920 0.347514 -0.642895 0.013501 0.333435 0.628340 0.023628 0.959415 0.786613 0.031904 0.217859 0.185813 -0.328023 -0.173053 0.215489 -0.680750 0.153453 0.362682 -0.715334 -0.837263 -0.454138 -0.347808 0.370290 0.561328 0.437101 0.324018 -0.333375 -0.522099 -0.570338 0.027366 0.538377 -0.964225 -0.753352 0.360459 -0.347066 -0.439465 0.577703 0.619296 -0.300402 -0.001238 0.902075 -0.039179 -0.190142 -0.804421 -0.151083 -0.091812 -0.859775 -0.891888 0.176761 0.917279 0.611096 -0.768967 -0.233358 0.040321 -0.136799 0.763512 -0.151660 0.481649 0.664351 0.536034 -0.342461 0.891906 0.565396 -0.343691 0.116250 0.424419 -0.236941 0.712251 -0.661326 0.374256 0.183297 0.290507 -0.191578 0.442205 -1.000880 -0.130120 0.699231 -0.792547 0.408388 0.924983 -0.420704 -0.755275 0.131953 0.504494 0.835447 0.483867 0.796190 -0.385411 0.403197 0.124928 -0.965959 0.505806 -0.809495 0.569461 1.007303 -0.553030 0.662428 0.080888 -0.425281 0.342110 0.082347 -0.632464 0.490432 -0.236319 0.524706 -0.209481 -0.268330 -0.359683 0.269580 -0.646186 -0.407952 0.639272 0.472319 -0.479854 -0.446121 -0.275616 0.321764 0.330772 -0.435029 0.692286 0.776772 0.089128 -0.365327 -0.118298 -0.415536 -0.132035 -0.187502 0.520686 -0.117767 -0.576894 0.920112 -0.544209 -0.341114 -0.053889 0.164906 -0.047704 0.944478 0.507919 0.686384 0.317990 -0.456504 0.798364 0.439607 0.846958 0.065494 -0.830541 -0.828456 -0.305348 -0.794363 0.743625 0.591115 -0.282895 0.864539 0.412502 -0.109924 0.278253 -0.652116 0.846683 -0.878644 0.676966 0.832263 0.873244 -0.675972 -0.110089 -0.577714 -0.366526 -0.333949 -0.098493 0.098416 -0.089732 -0.005571 -0.249277 0.776890 -0.767479 0.393392 -0.401420 -0.018897 -0.188353 0.177524 0.823001 0.193561 0.547395 0.699398 0.986986 0.878376 0.765147 -0.274636 -0.563056 0.823123 0.993953 -0.508776 -0.356609 1.005456 0.223510 0.118095 0.245588 0.813740 0.147155 -0.227868 0.872990 -0.556335 -0.081447 0.842573 0.945833 0.493753 0.741145 -0.541608 -0.430872 0.778420 0.120224 -0.602735 -0.775756 0.263510 -0.106574 0.579248 -0.691758 -0.090248 -0.375069 -0.281722 0.443851 0.796934 -0.503542 -0.429954 0.404042 0.568421 0.010227 0.938070 0.754296 -0.450314 0.549262 -0.795055 0.087851 0.637756 0.905025 0.850515 0.281653 0.361223 0.207301 0.581250 0.977226 0.965488 0.932407 -0.051178 -0.147939 -0.031255 0.739538 -0.020696 0.258041 -0.302210 -0.018610 0.560502 0.765154 -0.366891 0.425145 0.925217 0.028568 -0.031071 0.955999 -0.781888 -0.499332 0.612349 -0.832196 0.165218 -0.570473 -0.359124 -0.830225 -0.145915 0.158013 1.003866 0.063442 1.007610 -0.685755 -0.797366 0.193613 0.165249 0.028399 -0.685785 -0.017722 0.739549 -0.657272 -0.648176 0.271777 -0.381988 0.082034 0.622105 -0.698789 -0.132907 0.436093 0.687484 -0.491653 0.187001 0.994451 0.144281 0.540163 0.120296 -0.495060 -0.084787 0.307500 0.006080 -0.012800 0.540592 0.264213 0.116793 -0.219325 0.053037 0.377979
0.973668 0.981285 0.988597 0.981194 0.974500 1.003024 0.965630 1.006510 1.006328 0.985131 0.990231 0.964315 0.963762 0.975661 0.983951 1.009668 1.005364 1.003918 0.962788 0.968791 0.997247 0.986182 1.003201 1.011109 1.001302 0.972533 0.987386 0.969088 0.979760 1.014672 1.012927 0.995621 0.961675 0.994041 0.976440 1.003310 0.977204 0.979922 0.997604 0.977523 1.000835 1.004116 0.973575 0.977445 0.965226 0.996303 1.012857 1.011483 1.009516 1.007250 0.993426 0.986926 1.005022 0.964196 0.997378 0.985926 1.012399 1.013022 0.984863 0.997924 0.977617 0.966148 1.005043 0.973859 1.003800 0.990864 0.980936 0.965730 1.008174 0.995718 0.996269 0.962822 0.996887 0.997713 0.974358 0.997588 0.976890 0.985768 0.973529 0.973105 0.965073 1.011749 0.967103 1.004597 0.964612 1.006405 0.976222 0.989321 0.979346 0.981197 1.003411 0.970580 0.984004 1.006544 0.975607 0.984949 0.974600 0.996932 1.016000 1.008086 0.990529 0.978014 0.992863 0.999706 0.967570 0.972525 0.966569 0.962315 0.990314 0.992879 0.969322 1.012731 0.977287 0.974929 0.995490 1.011484 0.974859 0.975351 1.012343 1.001973 0.995134 1.009165 0.984589 0.980920 0.963677 0.990856 0.976331 0.994088 0.990956 0.982433 1.009178 1.005409 1.005667 0.993496 0.995292 1.015425 0.977808 0.976668 0.967592 0.998622 0.979135 0.979028 0.989181 0.965190 0.986520 0.985157 0.987418 1.002637 1.007883 1.004335 0.987656 0.993642 0.979811 1.011409 0.966212 -0.454094 -0.999844 -0.967381 -1.016000 -0.807230 0.652926 0.975220 0.978511 1.011354 0.966485 0.970767 1.004584 0.982153 0.972512 1.008488 0.984258 0.973724 0.999911 0.963184 0.979237 0.987279 0.994277 0.997970 0.977098 1.002491 0.998188 0.896825 0.173383 -0.994820 -0.959098 -0.983576 -1.007401 -0.963276 -0.176644 0.966115 0.990285 0.963286 0.973910 1.015480 1.007587 1.014465 1.000686 0.976555 0.989129 0.975558 1.008460 1.015926 0.990113 1.009655 0.961791 0.988466 0.993268 0.984726 0.766447 -0.501767 -1.006407 -0.689831 0.028410 0.648711 0.272223 -1.002665 -0.950183 -0.113830 0.982422 1.005468 0.995255 0.965878 0.986116 0.972421 0.972289 0.968728 0.780749 0.532940 0.700982 1.007591 1.004899 1.005447 1.011170 0.962286 0.962309 0.998215 0.923496 -0.339565 -0.253185 0.210131 1.014040 0.988210 0.848005 -0.521483 -0.999670 -0.983954 1.010050 0.965677 1.014821 0.977950 1.013067 1.002509 0.974288 0.973981 0.069755 -0.989807 -0.382840 0.973275 0.969153 1.007080 0.962209 0.974789 1.011474 0.976057 0.631653 -0.977533 0.000445 1.008150 0.963549 0.970271 0.936870 -0.509856 -0.996411 -0.998573 1.011843 0.991742 0.987825 0.962498 0.969896 0.980658 1.005918 1.006526 -0.539788 -0.976051 -0.405594 0.963834 0.977597 1.012475 0.966208 1.004344 0.977367 0.700892 -0.297790 -0.996442 -0.941546 1.007174 0.989213 0.598761 -0.367720 -1.009674 -0.975810 -0.977286 1.014403 0.978869 0.964079 0.999073 0.964011 1.001680 0.966306 1.005794 -0.415996 -0.983793 -0.394370 1.009500 0.968588 1.006364 0.974338 0.993887 0.977087 0.991888 -0.485731 -0.983548 -0.919595 0.973466 1.011835 0.327863 -0.979941 -0.963092 -0.979041 -0.407163 0.978338 0.973525 0.963817 1.011619 0.996345 1.011064 0.966273 0.966155 -0.966475 -0.963210 0.078641 0.987487 0.978208 0.990851 0.962690 0.995344 0.988475 0.998573 0.011034 -0.973408 -0.985708 -0.395191 0.582071 -0.825302 -0.984678 -0.994409 -0.351147 0.969600 0.967358 0.973304 0.995513 0.996963 1.010840 1.014001 0.966409 0.983540 -0.593996 -0.960987 0.106479 0.990790 0.981339 0.999750 0.963475 0.994456 0.974854 0.966494 0.712777 -0.375845 -0.991019 -0.971927 -0.899859 -0.985411 -0.960524 -0.961320 0.249339 0.991873 0.988499 0.999376 1.001083 1.002734 1.012892 1.007351 0.964475 0.967977 -0.222886 -0.982074 0.397694 0.962085 1.002468 1.013851 1.007137 0.969342 1.004708 0.990543 0.971986 0.962040 -0.030475 -0.964322 -0.998111 -0.969433 -0.994828 -0.724975 0.872632 1.007141 0.966976 1.015594 0.993241 1.014036 0.976394 0.969107 0.993428 0.998812 -0.196459 -0.973416 -0.828364 0.633972 0.973481 0.967050 0.965057 1.001542 0.963245 0.981550 1.005098 0.986460 0.946422 -0.241067 -0.979605 -0.964368 -1.009680 -0.660546 0.979123 0.991003 1.010704 0.964034 1.008926 0.981273 0.988146 1.011632 0.967686 0.998763 0.645987 -0.769423 -0.961943 -0.205234 0.796455 0.999954 0.969172 0.966824 0.975443 0.981437 0.992934 0.990826 0.836142 -0.615705 -0.972073 -0.965061 -0.999513 -0.658101 0.982143 1.008260 0.997166 0.961967 0.990601 0.988120 1.008283 0.966607 0.991333 0.994120 0.978741 0.680296 -0.778819 -0.971530 -0.870946 0.507769 1.003662 0.981784 1.013918 0.979163 0.749079 -0.108614 -0.617103 -0.968465 -0.990792 -0.979150 -0.979400 -0.644058 0.978015 0.965950 0.967753 1.001392 1.013824 1.013128 0.976339 0.993898 0.985995 1.000146 1.011525 0.982825 0.683725 -0.780130 -0.986451 -0.932846 -0.010523 0.029840 -0.011535 0.034937 -0.728057 -0.984869 -0.983643 -0.959646 -0.969846 -1.004339 -0.972967 -0.684788 0.979809 0.970101 0.965010 0.988837 0.977693 1.015735 0.970910 0.999736 1.007098 0.982574 0.996686 0.987916 1.010875 0.910160 0.045857 -0.961870 -0.968076 -0.997557 -0.960217 -0.993290 -1.012820 -1.006577 -0.991127 -0.981959 -0.995097 -1.003467 -1.002013 -0.987550 0.265662 1.001818 0.990542 0.988538 0.970023 0.970578 0.994061 0.981857 0.968802 1.004098 1.015102 0.972433 0.993793 1.002651 0.960097 0.643730 -0.344438 -0.614536 -0.997485 -0.648525 -0.838187 -0.364576 0.265647 0.723839 0.738676 0.158623 -1.012923 -0.970878 0.259002 1.008857 0.977620 0.989975 0.982950 0.986925 0.971289 0.977350 0.975052 0.980689 0.974983 0.983560 1.003305 1.007958 0.967880 0.984232 0.985195 0.779417 0.577158 0.769402 0.668249 0.974768 1.007364 1.005667 0.977272 0.356962 -1.008036 -0.906365 0.429283 1.014217 0.973602 0.984412 0.965530 1.000167 0.981073 0.972911 1.015607 0.992165 0.969605 0.979302 0.980586 0.967948 0.996365 0.964841 0.978206 0.977431 1.009522 1.001266 0.969954 1.013587 0.995034 0.981400 1.008939 0.420372 -0.896928 -0.466251 1.014395 0.988544 0.971824 0.990105 0.967247 0.982099 0.963442 1.010329 0.982312 0.991069 0.990632 1.015732 1.006786 0.991725 0.998636 0.997577 1.000881 0.978223 1.002822 1.008461 0.970156 0.963437 0.974155 0.990832 1.012797 0.987619 0.064214 0.464612 0.984446 1.010845 1.005252 0.984806 0.964327 0.994179 0.977328 1.001032 1.007183 0.962057 0.969178 0.962663 0.962037 0.993642 1.005463 0.985605 1.002061 1.014731 0.964346 0.993460 1.009059 1.015426 0.972314 1.010174 1.013357 0.980547 0.519496 0.989624 1.003032 1.003744 1.009569 0.974469 1.013367 0.992858 0.995100 0.999688 0.988804 1.003810 0.981613 1.004164 0.972795 1.004630 0.978832 1.004000 0.999197 0.974382 0.967270 0.963754 0.997009 0.970401 0.984918 0.965188 0.993662 0.973236 0.988475 1.003809 1.008416 1.010212 0.985327 1.001292 0.962661 1.000714 0.998978 0.979645 0.965715 0.976257 0.988567 1.014191 1.003452 0.987152 1.005268 1.004802 0.982831 0.997096 1.000986 1.011274 0.980087 1.013796 0.998299 1.013790 0.974452 0.987115 0.976115 0.990203 0.972980 0.989549 0.975825 1.006483 0.967937 0.989597 0.976474 1.014459 0.975452 1.006365 1.004931 0.970364 0.969411 0.971371 0.977304 0.994292 1.008667 1.010200 1.001407 0.968529 0.980069 0.976017 0.976627 0.985167 0.994019 0.990119 1.004916 0.963576 0.969705 0.970808 0.982767 0.993790 1.002915 0.966633 0.993575 0.996538
0.903682 0.171449 -0.408000 -0.047417 -0.325501 -0.628661 -0.528128 -0.722525 0.889796 0.356157 -0.725192 -0.205260 0.933189 0.164091 -0.283912 -0.198711 -0.143701 0.482374 0.260125 -0.422555 -0.273774 -0.536245 -0.535413 -0.613710 -0.068291 -0.439535 -0.255691 0.204844 0.403304 -0.280332 0.070374 -0.803499 0.877019 0.511167 0.819574 0.643548 -0.460400 0.794250 -0.361870 0.235444 0.828745 -0.409330 0.915231 -0.790293 -0.201756 -0.183140 -0.036632 0.114599 -0.465888 -0.290634 0.267042 0.598332 0.159237 0.487896 0.529071 -0.154639 -0.395505 0.378875 -0.753405 -0.418945 -0.594716 0.245546 -0.579779 -0.385642 -0.226210 0.728146 0.630077 -0.317428 0.528950 0.086148 0.024552 -0.276404 0.528621 0.204066 -0.300580 -0.621224 0.812388 0.175518 -0.270660 -0.180085 -0.470962 -0.028745 -0.341785 0.867005 -0.804712 -0.683279 -0.249787 0.701836 0.933249 1.002414 0.271726 0.915445 0.266759 0.980652 0.838720 -0.772163 -0.789469 0.282913 -0.688064 -0.723066 -0.031831 -0.117472 -0.209562 0.229454 -0.407490 0.510672 -0.386030 0.212256 0.710900 0.697075 0.825345 0.630496 -0.763000 -0.688824 0.964785 -0.717042 -0.680656 -0.053261 0.320445 -0.418110 0.795547 0.362281 0.969762 -0.756487 -0.456013 -0.715539 -0.185475 0.083723 -0.047750 0.617953 0.354408 -0.423832 0.461627 0.393022 -0.159304 0.004791 -0.651325 0.260772 0.997904 0.469586 -0.529834 -0.021370 0.633573 0.099560 0.842796 0.787556 -0.438272 -0.174380 -0.775810 0.801856 0.937222 -0.675688 0.382853 -0.245719 0.847832 0.003517 0.045883 0.823381 -0.629602 -0.173263 -0.639880 0.022031 -0.512256 -0.602148 0.383182 -0.753353 0.983753 0.385382 0.827434 0.510426 0.049984 0.209745 0.174231 -0.733361 0.871940 -0.310368 0.108602 0.742722 0.453998 0.433602 0.976892 -0.293004 -0.679170 -0.402060 0.287886 -0.697384 -0.084986 0.282747 -0.280102 0.246801 -0.375639 0.244093 -0.472511 -0.779442 0.845859 0.005134 0.552170 0.185641 0.780727 0.494772 -0.623198 -0.392265 0.758040 0.874899 0.561612 0.705167 -0.154051 0.698528 -0.390162 -0.638148 0.677746 -0.067410 0.783453 0.645845 0.313047 -0.655071 0.526630 -0.739900 -0.687870 0.375598 -0.073220 -0.226558 0.936226 0.968842 -0.381423 1.013160 0.329720 -0.263472 -0.019829 -0.671324 -0.483054 -0.309638 -0.786691 0.970927 0.239049 0.516114 0.175765 0.386730 0.862200 0.223484 -0.654811 -0.231418 0.366180 0.075366 -0.155874 -0.720212 -0.022951 -0.281058 -0.329695 0.204511 0.424943 -0.541706 -0.119815 0.669774 0.110957 0.792744 0.124477 -0.609328 0.125350 0.093686 0.890032 -0.696866 0.193977 0.051644 0.424088 0.575025 0.267607 -0.486357 0.572425 -0.183385 0.549497 0.075794 -0.185947 0.663993 -0.415439 -0.518176 0.114945 0.625317 -0.665724 0.871510 0.656515 -0.597189 -0.241415 -0.136989 -0.856147 0.521211 0.775373 -0.575497 0.395848 -0.461421 0.105155 0.108783 0.533081 0.321085 -0.086832 -0.769142 -0.251137 0.747664 -0.481256 0.399140 0.280273 -0.619807 -0.176964 -0.871247 0.766902 -0.213137 -0.261849 -0.701426 0.804530 0.727020 0.111224 0.952679 0.387603 0.062723 0.575344 -0.450891 0.187846 -0.486212 -0.484588 0.773350 0.726254 -0.250983 0.129774 -0.180954 0.454530 0.340586 0.729293 0.643885 0.643380 0.275588 -1.016000 -0.141519 -0.174744 -0.058497 0.691236 -0.164820 -0.579570 0.680802 0.598592 0.595835 -0.567245 -0.458936 -0.460707 -0.546810 0.546180 -0.020748 0.844959 0.111420 -0.798173 -0.327799 -0.175199 0.140995 -0.324232 0.013299 -0.244052 -0.369238 0.961614 0.188469 -0.982691 -0.655623 0.291539 -0.371257 0.398954 0.859684 0.223582 0.890744 0.369952 0.155762 -0.195663 -0.699033 -0.539915 0.168439 0.354831 0.997922 -0.547450 -0.259504 -0.268195 0.809265 -0.354509 0.167962 0.572155 0.248583 0.056238 0.420696 -0.148601 0.915397 0.645062 0.545143 0.802321 -0.144111 0.186982 0.882567 0.093015 -0.029110 0.587931 0.317697 -0.896502 0.602876 0.149561 0.432064 0.080438 0.671842 -0.334187 -0.801997 -0.320633 0.097199 0.655973 -0.750226 -0.627371 0.844348 0.766610 0.970309 0.573101 0.051207 -0.833450 -0.380501 -0.013875 0.012878 0.393917 0.918560 -0.540684 -0.369028 -0.528698 -0.512035 0.235651 -0.460679 -0.332481 0.898580 -0.656051 -0.387929 -0.606193 0.749522 -0.314861 0.604533 -0.206701 0.638162 0.096694 0.849404 -0.075251 -0.681868 0.293593 0.226770 0.695660 0.605756 0.979442 -0.016540 -0.529101 0.680485 0.717285 0.744903 0.224093 0.518799 -0.446121 -0.041549 -0.259519 0.477232 -0.577897 -0.379952 -0.541282 0.663951 0.593448 -0.671624 0.259516 -0.405789 0.855764 0.277974 -0.616112 0.699616 0.087579 -0.186883 0.223736 0.876735 0.118278 0.146349 -0.042558 -0.051662 -0.284298 0.560210 0.618066 0.899469 -0.793848 0.607058 0.160905 -0.638746 -0.261184 0.296024 -0.406677 -0.629038 -0.007338 0.062135 0.654086 0.526516 -0.583168 -0.128993 -0.143004 -0.199598 0.820288 0.267833 -0.006533 -0.665802 -0.807383 0.439225 0.906051 0.487446 -0.651670 0.590622 0.489972 0.274167 0.790485 -0.996482 -0.073672 -0.131973 0.954238 -0.092936 0.299988 -0.871419 -0.626697 0.289581 0.805883 0.337276 0.725548 0.155147 -0.502506 0.499965 0.176104 -0.605231 0.761812 0.989745 -0.702776 -0.125222 0.896206 -0.100841 -0.639303 -0.553234 0.263338 0.248031 0.080134 0.254308 -0.208067 -0.015502 0.647452 -0.689939 0.406241 -0.903304 0.383160 0.044255 0.708349 0.447340 0.432486 -0.327125 0.017930 0.163079 0.166366 -0.337503 -0.060940 0.584225 0.934736 0.054098 -0.412120 0.360554 -0.116611 0.455037 0.987293 -0.036311 0.139339 0.847374 -0.101600 0.362460 -0.803549 0.422749 -0.475528 0.370218 0.584355 -0.160691 -0.512317 -0.599909 -0.496129 0.268251 0.742188 0.573588 -0.072890 -0.113161 0.349623 0.175345 0.050078 0.975801 -0.438639 -0.121500 0.302896 -0.196806 0.673448 0.539794 -0.071734 0.595317 0.214153 -0.348625 -0.140526 0.253960 -0.394089 0.101740 -0.505355 -0.801458 0.072036 -0.305374 0.565967 0.671251 -0.044693 -0.749483 -0.621435 -0.107895 0.203163 -0.175509 0.487232 0.113451 -0.439915 0.889813 0.754861 0.619144 -0.666606 0.052074 -0.633696 0.146279 0.239975 0.828967 0.826217 -0.790640 0.379140 -0.780302 0.970443 -0.252105 0.503830 -0.020394 0.006081 -0.336849 -0.635637 -0.116464 -0.650845 0.970461 -0.213998 0.561009 -0.497478 0.073310 0.905015 -0.186570 0.793044 0.977756 0.492733 0.145361 0.575968 -0.565582 0.871206 -0.779625 -0.636748 0.144747 -0.205542 0.816005 0.613638 0.850079 0.076085 -0.518809 -0.468454 0.726440 0.132883 0.356005 -0.345179 -0.099092 0.024455 0.158934 0.367349 0.011800 0.481978 -0.718176 0.358736 0.170718 -0.305631 0.215392 0.348719 0.642759 -0.793195 -0.512924 0.054667 -0.153204 0.920224 0.574692 0.928674 0.547887 0.278500 0.134265 -0.326596 -0.459037 0.901101 0.109131 0.128487 -0.460550 -0.213704 0.729165 -0.124213 0.197467 0.622085 0.174580 -0.796870 -0.347861 -0.622860 -0.364150 -0.403249 0.875183 0.613222 -0.195658 0.863382 0.828265 0.189421 -0.400533 -0.790363 0.352067 -0.191202 0.700365 0.391284 0.997730 -0.544433 -0.681896 0.923730 0.819555 0.943842 0.931756 -0.195401 0.213353 0.167088 -0.544987 -0.637081 0.567418 0.719796 0.559563 -0.460681 -0.500294 0.208383 -0.622873 -0.567938 0.605670 0.574533 0.758014 -0.786368 -0.410958 -0.359439 -0.153285 0.401191 -0.344329 0.533387 -0.679894 0.222549 0.149909 -0.044967 0.446101 1.016000 -0.701530 0.076417 0.864511 0.899711 -0.174103 0.763632 -0.372784 0.397521 -0.643422 0.074573 0.253522 0.525806 -0.131167 -0.081385 0.749392 -0.428640 0.338018 0.317778 0.756782 0.359585 0.624200 -0.434012 -0.785128 0.454501 0.980165 -0.546497 0.501685 0.879166 -0.728095 -0.422781 0.492755
-0.157381 0.734671 -0.045363 -0.463830 -0.201793 -0.066848 0.874603 0.526204 0.407367 -0.603528 -0.740593 0.130975 -0.218916 0.119370 -0.227493 -0.712395 0.764792 0.884164 0.866366 0.325885 -0.262643 -0.486539 -0.336143 0.899163 -0.602203 0.164080 0.026540 0.489329 0.602501 -0.661959 -0.279956 0.651408 1.015607 0.265547 1.013698 -0.248463 0.484706 -0.034340 0.512549 0.025983 -0.548723 -0.703392 0.746601 0.056763 0.309506 0.618098 -0.197716 -0.777274 -0.572139 0.341623 0.616289 0.962654 -0.208369 0.009792 -0.285693 0.947457 -0.647077 -0.123655 -0.592259 0.970419 -0.520641 0.344522 0.649476 0.429490 0.613035 0.677346 -0.329911 0.993547 0.418105 -0.313317 -0.281362 -0.446509 0.493322 0.916304 0.950301 0.795974 0.373259 0.645634 -0.359757 0.832761 -0.424470 -0.706574 0.885587 0.842714 0.402960 0.869720 -0.622629 0.152617 -0.207106 0.612552 0.816684 -0.228530 0.006365 0.758859 0.867737 0.380463 -0.704777 0.416255 -0.477123 -0.425437 0.021130 -0.397143 0.922770 -0.161400 0.441951 -0.625596 0.105318 -0.606827 0.146561 -0.100424 0.017710 0.134544 0.924525 0.342147 -0.667468 0.169770 0.412795 0.784814 0.399922 0.101910 -0.249715 0.187993 0.948487 0.683659 0.435822 0.249268 0.260915 1.016000 -0.078882 -0.355337 -0.782022 0.840458 -0.005508 -0.233328 -0.642012 0.985005 -0.763277 -0.341704 -0.124868 0.656272 0.289288 0.876694 -0.398094 0.817189 0.788567 0.386312 -0.045484 -0.087642 -0.864762 0.955378 -0.119018 0.780708 0.347255 0.489788 0.424874 0.564988 0.637035 0.276646 -0.720004 -0.351284 0.101329 0.566240 0.103096 0.497191 0.710424 0.528016 -0.309690 -0.616642 0.878232 0.554344 -0.375236 0.843310 0.395808 -0.364606 0.670767 -0.071756 0.583945 0.822382 0.094991 -0.342498 -0.646409 -0.630790 0.944704 0.269026 0.981138 -0.226338 0.835106 -0.662176 -0.458076 0.106598 0.943185 0.777564 -0.482128 -0.000424 -0.426201 -0.603691 -0.717863 -0.093699 0.367202 0.386312 -0.329794 -0.584827 -0.220221 0.851153 -0.095565 -0.643890 0.515017 0.699966 -0.162458 0.284270 0.703718 -0.643702 0.230873 -0.246054 -0.488948 0.995382 0.104010 -0.849472 -0.478155 0.105079 -0.754522 0.823955 0.905245 -0.467065 -0.784035 0.921702 0.297497 0.561491 0.778013 0.581254 0.537697 -0.701976 0.728624 0.939132 0.507180 -0.688948 -0.395854 0.577677 0.716890 0.866210 0.948847 -0.719090 -0.145133 0.224592 -0.421469 0.673444 0.146363 -0.746344 -0.194447 0.450897 0.159531 -0.752174 -0.386859 0.067402 0.886429 0.631804 -0.388201 0.469187 -0.561845 -0.351289 0.767738 -0.005635 0.239437 0.845695 -0.481047 0.609637 0.866361 0.016611 -0.380498 -0.551958 0.818950 -0.231915 -0.564961 -0.564809 -0.609965 -0.553908 0.433924 -0.778058 -0.488955 0.656137 -0.574041 0.539872 0.462111 -0.345422 0.267921 0.565296 -0.508693 0.078743 0.219332 0.235532 -0.262055 0.453728 0.641401 0.022871 -0.744186 0.379365 -0.080742 0.095537 -0.378279 0.679818 -0.439061 0.831152 -0.667790 -0.647219 -0.025936 -0.308346 0.391162 -0.454739 -0.328501 0.750442 0.639426 -0.662369 0.638468 -0.224299 -0.140559 -0.369356 0.015904 -0.335454 0.894438 -0.285897 0.787377 -0.781288 0.869003 -0.049623 0.553911 0.681253 -0.594627 -0.423056 0.040580 0.757707 0.718718 -0.576355 -0.409585 0.653274 0.579945 0.168352 0.472602 -0.344365 -0.281593 0.864141 -0.481283 -0.881540 0.466329 0.997434 0.988845 -0.325428 0.657990 0.337488 -0.482149 0.039383 -0.766404 0.784713 -1.016000 0.384523 0.915014 0.659942 -0.142168 -0.737911 0.049473 0.160962 0.190547 0.581758 -0.724121 -0.093575 -0.754896 -0.759432 0.551335 -0.452223 -0.021503 0.426776 0.859431 -0.201118 0.172551 -0.424846 -0.540836 0.864086 0.808839 0.107659 0.709778 -0.937187 0.429976 0.382389 0.930155 -0.534343 0.994148 0.730001 -0.170958 -0.809328 -0.571468 0.721377 -0.416339 0.739434 -0.033981 0.207233 0.889513 -0.284198 -0.428750 0.507650 0.219934 0.749244 -0.121430 -0.358862 0.485714 0.255034 -0.475358 0.013408 -0.416752 -0.220725 0.619999 -0.134065 -0.358938 0.423655 -0.175113 -0.475029 -0.143299 -0.769565 0.339931 0.209875 0.030702 -0.466080 0.391526 0.523651 0.446036 0.084673 0.228845 0.644302 0.681553 -0.170538 0.920698 0.973048 0.208120 -0.487048 -0.070576 0.274339 -0.469404 -0.648095 -0.091411 0.952468 -0.168631 -0.384966 -0.753906 0.626072 0.528964 0.089000 0.434988 -0.180087 0.038269 0.475991 0.861625 -0.475124 0.865980 0.526969 -0.960888 -0.918140 -0.461068 -0.097158 0.700599 0.471778 -0.480255 -0.589471 -0.458911 0.558946 0.471045 0.376926 0.674724 0.797498 0.725974 0.046013 0.902732 -0.801533 -0.100915 -0.282399 -0.180797 -0.476590 0.507355 0.968378 0.922541 -0.475800 -0.280240 0.880633 -0.769032 -0.301571 0.895827 0.601101 -0.033914 0.624964 -0.137690 0.258259 0.107514 -0.733971 0.173276 -0.463611 0.615770 0.903695 -0.623203 0.518436 0.261138 0.393069 0.515886 -0.055022 0.518415 0.599348 -0.178940 -0.770617 -0.139542 0.999513 -0.477878 0.968017 0.677804 0.603261 0.292245 -0.574060 0.290904 0.892714 0.157634 0.178830 0.600655 -0.522138 -0.171332 -0.598922 0.048443 -0.194077 -0.738520 -0.585927 -0.230564 0.687547 -0.634628 0.155953 -0.051521 0.320106 0.705276 0.773129 0.690297 0.538410 -0.719375 0.486279 0.657647 -0.020774 0.278310 0.719824 0.227365 -0.338464 0.652578 -0.099821 0.823196 -0.446063 -0.431164 -0.200897 0.108507 0.100762 0.154261 0.791597 -0.478270 0.570661 0.113054 0.358805 0.077613 0.769691 0.194848 -0.121891 -0.611911 -0.725162 0.517507 0.840815 -0.009553 -0.763286 0.212157 -0.484016 -0.776665 0.606313 -0.989941 0.015853 0.098214 0.394809 0.093028 0.700722 0.700082 -0.099729 0.918474 0.900835 -0.191973 0.138856 -0.473611 -0.479222 0.100959 -0.122057 -0.319882 0.936826 -0.299605 0.280780 -0.691549 -0.409837 0.703745 0.035934 -0.719424 -0.129815 0.694652 -0.292996 0.060722 -0.329546 0.276877 -0.256958 0.016724 0.109701 0.211377 0.912188 -0.210472 -0.345909 0.626625 0.842506 0.134068 -0.160049 0.211591 0.194889 -0.095422 0.559100 -0.061631 0.842351 0.562237 0.403402 0.741290 0.808454 0.581493 0.888271 0.676859 0.713964 -0.177609 0.467973 -0.301785 -0.073286 -0.306652 -0.450547 0.312735 0.614380 -0.245424 0.133964 0.596550 0.208240 -0.233193 0.543575 0.711292 0.659450 -0.397633 -0.025066 -0.472834 -0.147994 -0.460560 0.114965 0.697366 0.252564 0.386289 -0.643881 0.668795 -0.415303 -0.709259 -0.474015 0.492147 0.038419 0.719231 0.285861 0.358894 -0.654614 0.893720 0.051563 -0.276563 0.294420 -0.093758 0.737464 0.079636 -0.274756 0.338209 0.777149 -0.510336 -0.151360 0.144329 0.152313 -0.515540 0.981312 -0.344711 0.378301 0.430028 0.937700 -0.303628 -0.357254 -0.106623 0.926469 -0.215726 0.874217 0.309116 0.377649 0.648297 0.434420 -0.546012 0.617815 -0.776594 -0.422583 0.268448 -0.212670 -0.544147 0.181649 -0.729587 -0.010666 -0.284506 -0.387241 -0.307331 -0.174422 -0.200861 0.504244 0.032179 -0.297289 -0.332831 0.261008 0.725978 0.194447 0.805780 -0.212154 0.936504 0.363631 0.335461 -0.453959 -0.417412 -0.227569 0.754388 0.154095 -0.195940 -0.052744 -0.212325 0.782525 -0.133845 -0.443439 0.741807 -0.553262 0.078256 0.986363 0.344172 0.996116 0.091418 0.844905 0.203384 0.834386 0.331672 -0.736544 0.596578 -0.310508 -0.441777 0.771525 -0.172002 -0.077973 0.507617 0.315693 -0.556157 -0.268145 -0.513450 0.631804 0.341091 -0.775295 -0.580282 0.885786 0.674408 0.316921 0.879930 -0.221222 -0.567623 -0.261611 0.397061 0.080994 0.721929 0.126205 0.982067 -0.575133 0.572664 -0.013398 -0.336874 -0.479869 -0.385482 0.866908 -0.321462 -0.029509 0.569260 -0.110276 0.812560 0.187502 -0.019360 0.730385
0.860157 0.900238 0.904416 0.934658 0.838090 0.849505 0.868306 0.911359 0.862182 0.904043 0.977795 0.921819 0.991134 0.994144 0.918730 1.011977 0.911463 0.978081 0.951549 1.015498 0.998035 0.887361 1.003378 0.915900 0.828750 0.948314 0.830727 0.998165 1.015892 1.008397 1.013837 0.836256 0.939848 0.886991 0.961096 0.958140 0.931217 0.871524 0.956895 0.836932 0.945373 0.850930 0.993681 0.956186 1.013356 0.941585 0.883956 0.931516 1.012041 0.926189 0.900907 0.908188 1.001908 0.917756 0.836200 0.842424 0.847842 0.831540 0.832391 0.826993 0.902500 0.891938 0.943161 0.846012 0.831272 0.993673 0.856188 0.933411 0.892466 0.907822 0.938097 1.011098 0.939245 0.878409 0.973029 0.878204 0.844385 0.909872 0.955003 1.000597 1.001681 0.908184 0.897549 0.923224 1.007107 0.943074 1.001034 0.976503 0.835463 0.997247 0.965953 0.915450 0.926662 0.850156 1.009725 0.888779 0.874317 0.860058 0.913090 0.924644 0.942632 0.859073 0.847361 0.926983 0.941403 0.928218 0.826553 0.973976 0.966079 0.856765 0.840329 0.994719 1.006424 0.855090 0.907852 0.974319 0.894205 0.916207 0.898903 0.841991 0.865090 0.891323 0.934496 0.966845 1.014249 0.864708 1.013407 0.928997 0.866237 0.906134 0.826555 1.003312 0.919617 1.005978 0.839823 1.013668 0.929438 0.889045 0.997543 0.995564 0.829788 0.970947 0.949507 0.994985 0.903086 0.855705 0.862383 0.906560 1.013625 0.835515 0.977490 0.982595 0.894090 0.878328 0.847906 0.828402 0.948369 0.909183 0.942964 1.003764 0.928117 0.925632 1.007203 0.915545 0.936220 0.981888 0.923051 0.824648 0.992687 0.895548 0.982790 0.877199 0.882065 0.825295 0.898211 0.888133 0.826326 0.966972 0.702386 0.369808 0.221033 -0.215704 -0.744191 -0.372498 0.381428 0.222951 0.673259 0.931147 0.997868 0.936693 0.830699 0.841838 0.893247 0.839092 0.852737 0.986136 0.852674 0.977348 0.995890 0.837721 1.014266 0.897694 0.865344 0.893279 0.530079 0.439229 -0.563742 -0.857565 -0.878276 -0.877865 -0.920223 -0.918968 -0.995721 -0.830977 -0.609123 -0.510108 -0.135532 0.862524 0.981744 1.009627 0.982330 0.992373 1.005529 0.940837 0.855766 0.884635 0.880337 0.883284 0.840909 0.937321 0.583250 -0.363676 -0.889163 -0.882363 -0.930861 -0.875893 -0.913293 -0.895862 -0.941491 -0.823071 -0.968430 -0.882173 -0.853634 -0.917624 -0.962148 -0.290269 0.887748 0.914132 0.947510 0.983247 0.870915 0.999993 0.915748 0.940093 0.981988 0.909213 0.836359 -0.220436 -0.923112 -0.942879 -0.889181 -0.844737 -0.810883 -0.842767 -0.917459 -0.935355 -0.825076 -0.999455 -0.811174 -0.854401 -0.943127 -0.860596 -0.812622 -0.905248 0.223396 0.854620 1.016000 0.995387 0.824196 0.899147 0.931580 0.910601 0.911671 0.905069 -0.422053 -0.920225 -0.828973 -0.957856 -0.880938 -1.016000 -0.852633 -0.911735 -0.976422 -0.912473 -0.868879 -0.950877 -0.967246 -0.979921 -0.933773 -0.973749 -0.893701 -0.851638 -0.856420 0.503358 1.010411 0.858202 0.977414 0.961366 1.007076 1.007823 0.961917 0.941745 -0.964307 -0.931175 -0.882984 -0.871361 -0.824702 -0.884791 -0.692890 -0.231765 0.348131 0.632870 0.652416 0.815019 -0.085499 -0.728996 -0.874093 -0.860552 -0.904962 -0.868109 -0.817307 0.155876 0.949937 0.916667 0.941377 0.950759 0.968942 0.833736 0.971724 0.920930 -0.970101 -0.947477 -0.960347 -0.943323 -0.832663 -0.812226 0.548239 0.882290 0.838564 0.854726 0.896164 0.913284 0.980659 0.429503 -0.870681 -0.883164 -0.909803 -0.913062 -0.927229 0.031364 0.997918 1.012371 0.939894 0.983221 0.962066 0.918600 0.860356 0.947065 -0.932275 -0.954626 -0.954055 -0.952557 -0.826113 0.539556 0.882590 0.996995 0.915355 0.893387 0.909469 0.895307 0.872168 0.871466 -0.379885 -0.899426 -0.892436 -0.977603 -0.937994 -0.060400 0.845693 0.967875 0.920790 0.961395 0.925292 0.866147 0.869826 0.972772 -0.830310 -0.812594 -0.919697 -0.876326 -0.940442 0.885874 0.973519 0.848968 0.876429 0.875387 1.011945 0.868895 0.989663 0.893405 -0.096664 -0.828443 -0.842532 -0.820343 -0.814893 -0.862065 1.004737 0.853570 0.988683 0.837103 0.915888 0.883726 0.876348 0.842811 -0.980614 -0.819279 -0.949650 -0.863943 -0.841282 0.491265 0.905955 0.853373 0.953083 0.864975 0.941564 0.832508 0.906433 0.829138 -0.090722 -0.949696 -0.867466 -0.827108 -0.963254 -0.916571 0.845884 0.831685 0.967092 0.971249 0.935819 0.841459 0.993645 0.891661 -0.086421 -0.942442 -0.877210 -0.958564 -0.811299 -0.366652 0.572836 0.958175 0.906852 0.866963 0.986484 0.837608 0.921916 0.785147 -0.309706 -0.899324 -0.904112 -0.852392 -0.814319 -0.986592 0.981202 0.969757 1.005204 1.002623 0.825188 1.004460 0.972146 1.007990 0.069028 -0.807876 -0.916275 -0.908764 -0.876255 -0.864530 -0.716666 0.390311 0.993425 0.830186 0.826115 0.851654 0.953003 -0.081118 -0.854438 -0.878670 -0.997025 -0.818730 -0.842685 -0.074267 0.866031 0.938256 0.977944 0.907131 0.967899 0.939916 0.946838 0.967767 0.552809 -0.569854 -0.841459 -0.999974 -0.986599 -0.896618 -0.850392 -0.721891 -0.393548 -0.233589 -0.353725 -0.058948 0.470165 -0.751280 -0.973265 -0.819783 -0.836703 -0.929603 -0.799962 0.252248 0.937103 1.003933 0.853397 0.917988 1.006748 0.996922 1.002956 0.986710 0.828667 0.240067 -0.915716 -0.844836 -0.832739 -0.842157 -0.866788 -0.841853 -0.891535 -0.899601 -0.960665 -0.860628 -0.997835 -0.995324 -0.872887 -0.925661 -0.925887 -0.809318 -0.191258 0.871456 0.977487 0.887271 0.879044 0.993365 0.943361 0.826718 0.848311 0.894897 0.941165 0.994588 0.441088 -0.904274 -0.978940 -0.984452 -0.924060 -0.957372 -0.830122 -0.848196 -0.871087 -0.929777 -0.833445 -0.846946 -0.822719 -0.992721 -0.923311 -0.664096 0.575734 0.956785 0.900990 0.998995 1.005115 0.886335 0.855529 0.924823 0.976430 0.852217 0.866577 0.888328 0.920918 -0.015891 -0.276841 -0.862821 -0.970155 -0.855637 -0.939225 -0.857909 -0.943689 -0.905697 -0.876751 -0.966535 -0.818575 -0.981815 -0.617428 0.638843 0.848633 0.965423 0.952976 0.983601 0.869611 0.959098 0.914108 0.895826 0.987249 0.948181 0.920823 0.972430 0.942617 0.962103 0.966497 -0.029298 -0.685284 -0.971993 -0.905908 -0.930455 -0.829905 -0.818231 -0.944800 -0.844166 -0.907544 -0.499156 0.462681 0.870842 0.900528 0.853257 0.836527 0.947630 1.000604 0.966508 0.834128 1.000807 0.880502 1.003660 0.910548 1.002061 0.971580 0.884850 0.909673 0.940965 0.709781 0.406168 0.176946 -0.635211 -0.799364 -0.213053 -0.674003 -0.594573 0.279255 0.940539 0.984079 1.006139 0.956910 0.835787 1.001177 0.827769 0.947346 0.884299 0.953196 0.903314 0.984592 0.989997 0.906226 0.978420 0.877635 0.917658 0.848545 0.829480 0.891703 0.886862 0.997491 0.909796 0.845407 0.987888 0.888270 0.940087 0.989960 0.853776 0.916596 0.981181 0.910598 0.951143 0.916783 0.977770 0.898521 0.893334 0.877502 0.937808 0.833002 0.943992 0.951735 0.849908 0.982800 0.983470 0.859534 0.973014 1.004221 0.871756 0.843201 0.958397 0.883854 0.907415 0.854205 0.971054 1.009355 0.967529 1.009481 0.967517 0.896553 0.923950 0.972959 0.997547 1.004016 0.889938 0.926278 0.840422 0.877342 0.902806 0.870508 0.894703 0.916854 0.936467 0.895178 0.960533 0.849139 0.947720 0.965372 0.857057 0.960855 0.902240 0.834411 0.875600 0.909228 0.957573 0.883115 0.876370 0.910603 0.838978 0.899091 0.861157 0.863530 0.826300 0.992277 0.830122 0.826642 1.015634 0.925895 0.909914 1.008253 0.935471 1.002770 0.988438 0.924040 0.967533 0.856833 0.882368 1.005866 0.855256 0.832216 1.002943 0.825039 0.900210 0.850173 0.958707 0.860675 0.992978 0.858283 0.976487 0.927895 0.910918
0.686824 -0.581023 0.315229 0.250684 -0.537923 0.407822 -0.307692 -0.564230 -0.475289 -0.324580 0.551000 -0.184358 -0.119366 -0.432436 0.563737 0.126729 -0.217125 -0.476863 -0.083395 0.576916 -0.629338 -0.635685 -0.673532 0.782081 0.457409 0.613415 0.155923 -0.646518 0.968240 -0.278880 -0.603388 -0.279219 -0.424678 0.967573 0.151559 0.420403 -0.507150 0.873574 0.396200 0.462666 -0.679828 -0.168118 -0.395774 0.380988 0.348076 0.716065 -0.482528 0.641855 0.838270 -0.361628 -0.505393 0.408527 0.741580 0.993427 -0.730131 0.981642 0.213683 0.942314 1.010660 0.369343 -0.473596 0.065343 -0.660645 -0.066926 0.603485 0.118099 0.558070 -0.440077 0.718661 0.534884 -0.247547 -0.556813 -0.709772 0.345401 0.115563 0.338679 0.631612 0.324958 -0.499496 -0.701160 -0.512195 0.794053 -0.039942 0.561864 0.783683 0.208188 0.616102 0.093603 0.300421 0.755157 -0.440701 0.666528 0.150034 0.058572 -0.044628 0.356549 -0.580563 0.604609 0.945750 -0.451654 0.432549 -0.074046 -0.043733 -0.155515 -0.065440 0.903750 0.256225 0.117568 0.857178 0.678846 0.906344 0.810527 -0.336134 0.272358 -0.685741 0.508851 0.496469 -0.624417 0.041807 -0.218067 -0.309786 0.733939 0.852744 -0.111558 0.936131 -0.698922 -0.651430 0.283817 0.378835 -0.007753 -0.607779 -0.382769 -0.255376 0.893005 0.348525 0.629861 0.589739 0.900258 -0.350688 -0.626504 -0.647509 0.779784 0.037107 0.479917 0.015264 0.748563 0.164230 -0.810006 -0.745464 -0.555431 -0.356567 0.738101 0.329340 -0.122540 0.623525 -0.033193 0.927158 0.853410 0.730826 0.251042 -0.372375 -0.588287 -0.322666 0.128743 0.587962 -0.382827 -0.184215 -0.629937 0.308693 0.358484 -0.423786 0.899813 0.779804 -0.708165 0.405960 0.541174 0.540110 0.693927 0.171829 0.441121 0.447660 0.092461 0.621911 0.966778 0.064127 0.502595 -0.246261 1.011651 0.117506 -0.113564 -0.459678 -0.586903 -0.712367 -0.467310 1.016000 1.014381 0.167102 -0.667050 0.415171 0.049509 0.053431 -0.518068 0.006936 0.689522 0.882651 -0.034024 -0.724977 0.514545 -0.480054 0.983815 0.632439 0.804891 -0.326208 -0.589923 0.757220 0.532338 -0.247303 0.808174 -0.635665 -0.166207 0.727476 0.038020 -0.691070 0.273104 0.619874 -0.282787 0.379356 0.376626 -0.619155 0.361593 0.781036 -0.594324 0.325476 -0.572231 -0.215637 -0.092897 -0.004587 -0.092810 0.475783 0.415427 0.910933 -0.598236 -0.294348 0.175013 -0.900815 -0.053921 0.540210 0.257155 0.660153 0.624732 0.909298 -0.138095 -0.611607 0.038396 0.901720 0.609090 0.502004 -0.581332 0.158305 0.340332 -0.451930 0.520040 -0.016129 0.511474 -0.315058 -0.474948 -0.275997 -0.389055 0.154291 -0.142944 0.817728 -0.982086 0.370788 0.355046 -0.657714 -0.182635 0.034723 -0.043056 0.838525 0.925623 -0.092141 -0.585988 0.949517 -0.678839 -0.729098 -0.307043 -0.050336 -0.289093 0.134785 0.184915 -0.218632 -0.337829 0.234674 0.865965 0.574030 0.227154 0.484476 0.792245 -0.882411 0.350197 0.936229 0.344413 0.124242 -1.016000 0.912582 0.116251 0.555120 -0.220170 -0.521354 -0.135510 -0.583003 0.493143 -0.114658 -0.233659 0.459194 0.864515 0.464036 0.326062 0.294480 0.042107 -0.171371 0.168065 -0.149513 0.916798 -0.160066 0.405150 0.288527 0.094420 -0.013504 0.503656 -0.354649 -0.085287 -0.413931 0.136491 -0.490137 -0.438474 -0.195077 0.042260 0.137479 -0.401531 0.090683 -0.339605 -0.066517 1.007617 0.194127 0.585355 0.563075 -0.548363 -0.616337 0.265234 0.304208 0.951873 -0.240816 0.311972 0.457216 0.692511 -0.425318 0.687834 -0.594717 0.835388 0.578436 0.990096 0.871393 0.507846 0.685508 0.665067 -0.115565 -0.539264 -0.924603 0.346689 0.381859 0.310338 0.460291 0.017871 0.175476 -0.560566 0.747754 0.210096 0.371221 -0.712360 -0.185380 0.137508 0.600989 0.610131 -0.365499 0.938192 -0.397040 -0.378439 0.306387 -0.377099 -0.230177 -0.667697 0.908040 -0.237151 0.356460 -0.022983 0.016612 0.220635 0.505649 0.669923 -0.293858 -0.560905 -0.062388 0.865030 1.011248 -0.001278 0.620230 -0.261764 -0.967202 -0.569133 -0.586036 -0.394880 -0.403210 -0.932217 0.523096 -0.523845 -0.121331 -0.273471 0.885668 0.151513 -0.453590 0.569437 0.031443 -0.385273 -0.573617 0.599333 -0.609183 0.024181 0.832883 -0.591303 -0.121129 0.904711 -0.123917 -0.604835 0.080362 -0.469227 -0.038042 -0.552036 -0.088941 -0.716016 0.602690 -0.221214 0.491803 0.298978 0.656348 -0.645666 0.856175 0.364502 0.801536 -0.328368 0.389527 0.505209 0.325054 0.373778 -0.104586 -0.029558 -0.704440 0.158465 -0.409374 -0.477708 -0.265584 0.358430 -0.783119 -0.715781 -0.494521 0.730448 0.102126 0.755624 0.416598 -0.148652 0.659632 0.864446 -0.426837 0.070724 0.703904 0.369210 -0.016023 0.286706 -0.369135 -0.617459 -0.025383 -0.804290 -0.082542 -0.447282 -0.201162 0.362885 0.476903 -0.115511 0.074150 -0.108224 -0.058371 0.335711 0.947996 -0.606531 0.500837 0.585075 -0.838235 -0.375406 -0.178867 -0.164471 0.917469 0.813972 0.394457 0.237977 -0.374280 -0.507400 0.277050 -0.026503 0.251862 0.631325 -0.493253 -0.166436 0.549410 0.134591 -0.685090 0.728486 -0.478113 0.688275 0.275447 0.675298 0.249258 0.308756 -0.384931 -0.286971 -0.370528 -0.220944 0.593650 -0.677806 -0.019577 0.591777 -0.671072 0.784727 -0.678635 0.903038 0.558041 -0.733271 0.311126 -0.808360 0.101350 -0.826247 -0.208235 0.721790 -0.581394 0.261480 0.060255 0.957997 0.260952 -0.214977 0.198875 -0.278261 -0.474177 -0.458523 0.285643 -0.619320 0.173866 0.577583 0.420167 0.312173 0.970220 -0.014752 0.212613 0.253519 -0.505080 0.765296 -0.275933 0.242750 -0.922352 0.678500 0.197564 -0.504426 0.120035 -0.076122 -0.289448 0.051910 -0.684794 0.957634 0.031085 0.879601 -0.716618 0.051444 -0.812476 0.012670 0.601009 -0.254951 -0.006953 0.947123 -0.471850 -0.422820 0.026078 -0.052032 0.515826 -0.085690 0.758579 0.744641 -0.561947 -0.654075 -0.695251 -0.618193 0.449230 0.359591 -0.037220 0.350071 -0.319741 -0.493950 -0.049134 -0.251506 0.634459 0.094683 0.161780 -0.414122 -0.180676 -0.217223 0.726195 -0.321805 0.450708 -0.183424 0.441100 0.163329 -0.637463 -0.627743 -0.510034 0.305740 -0.326501 0.631082 -0.727447 -0.100539 0.378433 0.853250 -0.362541 0.967671 0.056130 -0.662205 -0.725691 0.575345 -0.537330 0.830250 0.167074 0.727322 0.769140 -0.284657 -0.322284 -0.507652 -0.070735 0.968172 -0.018463 0.748951 0.075178 0.096125 0.928150 0.057392 0.216008 -0.092341 0.934208 -0.407451 0.030710 0.475773 0.519867 -0.430064 -0.722001 0.439280 0.568594 0.424593 0.835677 0.964875 0.472943 0.545506 -0.401814 0.589148 0.056354 -0.041256 -0.154092 0.713035 -0.469488 -0.526162 0.545793 -0.407505 0.890427 0.190883 -0.158073 -0.222214 -0.326788 0.621293 0.534163 0.720818 0.620249 -0.325552 0.009779 0.765155 -0.441766 0.118329 0.689243 0.230779 -0.671766 0.187431 1.013165 -0.182318 0.210027 -0.454237 -0.139490 -0.015285 -0.060854 -0.032033 0.371097 0.346189 0.105900 0.476470 -0.090757 -0.216020 -0.548522 0.163414 0.237936 0.168639 -0.002947 0.425359 1.002425 0.148534 0.596671 0.390868 -0.536525 0.987233 0.913413 0.673539 0.046673 0.930114 0.639065 0.427109 -0.455064 0.344302 -0.250396 -0.432587 -0.187544 -0.607687 0.627320 0.662744 0.263144 0.096706 0.625495 -0.094699 0.464161 0.979295 0.584779 -0.728211 -0.063089 0.082161 0.617364 -0.193517 0.433522 0.860386 0.339671 0.012247 -0.584197 -0.139890 -0.103995 -0.607032 0.995490 -0.125380 -0.524285 0.738390 0.161193 0.423088 -0.634654 0.846390 -0.203344 0.198708 0.631211 0.828405 0.077656 0.177051 0.389969 0.425630 -0.208253 0.833519 -0.092438 0.345191 -0.004456 -0.181349 0.119391 -0.536196 0.964017 0.978861 -0.311150 0.087261 0.370653 -0.309941
