-0.029735 0.001805 0.033379 -0.036626 0.011621 0.076299 0.035065 0.014837 -0.015999 -0.012264 -0.065206 -0.030575 0.039999 -0.033116 -0.002868 0.039202 0.047889 -0.083908 0.047713 -0.059450 0.010553 -0.007264 0.020918 0.047367 0.072703 -0.009559 0.015150 -0.012742 0.028239 -0.048426 0.000847 0.049158 -0.092558 0.002276 0.048311 0.047115 -0.023495 -0.036619 0.006873 -0.001055 -0.070246 -0.005968 0.023545 -0.040350 -0.004857 0.022396 0.031602 -0.061068 -0.018323 -0.017310 -0.069393 -0.023629 -0.100572 0.026864 -0.050572 0.005574 0.006400 0.045470 -0.037690 -0.022624 0.009852 -0.019483 0.061133 0.031900 0.046393 0.009535 0.077354 -0.027858 0.008326 -0.015442 -0.050727 -0.014193 -0.052777 -0.005700 -0.012080 -0.053070 0.035358 -0.013412 0.007177 -0.025823 -0.008309 -0.024043 0.017762 0.112087 0.062286 0.024962 -0.077280 0.038917 0.027358 -0.050232 -0.014157 0.056073 -0.094730 0.027314 0.017466 -0.030461 0.032768 0.004827 -0.027977 -0.013709 -0.021113 0.044203 -0.002675 0.055416 0.018482 -0.033564 -0.028277 0.041561 -0.023994 -0.088158 0.027662 -0.022574 -0.003391 0.034126 0.063918 0.003735 -0.018420 0.012321 0.041005 0.011164 0.034886 0.046853 0.151866 0.064635 0.080951 -0.002107 0.003131 0.042041 -0.049644 -0.007812 0.060472 -0.004848 -0.020302 -0.107332 -0.074420 0.070380 0.029167 0.016281 -0.021331 -0.021636 0.036179 0.045085 -0.021346 -0.081132 -0.004794 -0.065347 -0.053903 0.103982 0.153578 0.086050 0.143623 0.162094 0.060462 0.000262 -0.012119 0.091284 0.007270 -0.032878 0.017756 0.028016 -0.022717 -0.018141 -0.062028 0.096002 0.055604 -0.013204 0.011677 -0.035217 -0.043852 -0.003561 -0.062977 -0.047713 -0.026183 0.014357 0.160000 0.194197 0.208679 0.138968 0.129141 0.173626 0.267553 0.347793 0.276915 0.387708 0.262302 0.244270 0.184468 0.144582 -0.011491 0.011226 -0.031815 -0.042308 -0.023215 -0.085964 0.060113 0.010660 -0.000716 -0.092566 -0.056314 0.025346 -0.074473 -0.000134 0.219354 0.384317 0.346285 0.262910 0.195399 0.302147 0.464905 0.554429 0.581722 0.520678 0.484568 0.489992 0.402255 0.320759 0.320040 0.163420 0.011795 -0.086625 -0.010529 0.021237 -0.005308 0.052584 -0.103773 -0.040500 -0.071210 -0.034373 -0.056660 -0.007970 0.223528 0.477815 0.386173 0.404812 0.374795 0.380176 0.600801 0.629109 0.517049 0.437721 0.537975 0.609267 0.616890 0.521198 0.396633 0.329142 0.138945 0.003987 -0.153833 0.048528 0.085501 -0.011646 0.015642 -0.036400 0.070867 0.006821 -0.030226 0.140420 0.528935 0.629360 0.583473 0.582857 0.533773 0.425442 0.562641 0.526129 0.588103 0.474233 0.379773 0.491273 0.506468 0.557691 0.462595 0.426942 0.285232 -0.000667 -0.156442 -0.035521 -0.015571 0.057006 0.063219 -0.013914 0.081237 -0.043672 0.002123 0.195913 0.663308 0.702976 0.458411 0.503822 0.610229 0.418008 0.441484 0.591630 0.668783 0.382933 0.453192 0.455105 0.547837 0.653365 0.574381 0.606899 0.326779 0.122921 -0.109416 -0.087568 0.059486 -0.021546 0.036145 0.045171 0.116887 0.091298 0.085254 0.369019 0.692616 0.543893 0.220817 0.296373 0.320721 0.479597 0.318203 0.396898 0.405417 0.514615 0.462479 0.436307 0.599904 0.573294 0.835515 0.866507 0.620370 0.350766 0.102885 0.072162 0.010395 0.048238 0.027873 0.002996 0.048799 0.085784 0.107970 0.557478 0.719257 0.462594 0.308772 0.357115 0.267599 0.341930 0.239335 0.306420 0.362936 0.590623 0.543181 0.525607 0.572301 0.749137 0.796016 0.917742 0.942965 0.600493 0.229815 0.025370 0.026854 0.064344 0.011524 -0.035298 0.012489 0.065251 0.371474 0.668165 0.744568 0.614299 0.379822 0.464227 0.316020 0.396453 0.554325 0.600365 0.625623 0.643695 0.701796 0.561053 0.658122 0.747664 0.751930 0.921494 1.072558 0.756098 0.323565 0.039931 -0.012928 0.028625 -0.019120 -0.072865 0.005618 0.157428 0.409943 0.731608 0.827437 0.560991 0.517450 0.591841 0.503187 0.670647 0.975686 0.777472 0.735852 0.841848 0.781379 0.625113 0.641201 0.753608 0.783580 1.014539 0.849718 0.637235 0.303060 -0.019951 -0.043348 0.028160 0.055603 -0.044707 0.026081 0.152229 0.497843 0.658720 0.672334 0.665104 0.535879 0.680871 0.739449 0.895085 0.844218 0.723015 0.792612 0.761259 0.630333 0.567116 0.501825 0.628228 0.659957 0.789330 0.620101 0.416569 0.180978 -0.083712 -0.048311 -0.010964 -0.165960 0.024710 0.038561 0.153912 0.581629 0.604205 0.669722 0.616003 0.631601 0.717234 0.646363 0.618997 0.603996 0.561516 0.836527 0.617896 0.302456 0.253510 0.399845 0.474797 0.633302 0.665462 0.483858 0.380668 0.188333 0.079189 -0.019453 0.037521 0.020234 -0.020082 0.057102 0.213498 0.469212 0.192984 0.446827 0.580103 0.481204 0.809592 0.643749 0.453660 0.350389 0.610863 0.795561 0.558419 0.335434 0.357035 0.424893 0.518923 0.646278 0.509268 0.569475 0.223541 0.154801 0.000089 -0.025499 -0.005892 -0.041739 0.065430 0.030645 0.157113 0.266248 0.190458 0.078245 0.231384 0.385228 0.701164 0.709605 0.428578 0.372823 0.527166 0.852970 0.780232 0.607290 0.459351 0.474876 0.495581 0.582410 0.690472 0.446097 0.260048 0.048122 -0.027873 -0.065746 0.006730 0.010089 -0.020002 0.010749 0.078654 0.073376 0.092167 0.020613 0.170814 0.341722 0.368279 0.596657 0.636798 0.600929 0.713282 0.710865 0.789302 0.731338 0.711497 0.692630 0.586327 0.728772 0.547832 0.272844 0.164750 0.052996 -0.082194 -0.011554 -0.052123 -0.030805 0.045657 0.079466 0.079489 0.040581 0.045625 0.092870 0.082639 0.075358 0.307898 0.477056 0.456665 0.343917 0.446073 0.501300 0.620125 0.531534 0.532725 0.705931 0.668142 0.557255 0.432698 0.264070 0.165282 0.082242 0.033403 0.008343 0.096321 -0.046546 -0.047635 -0.042038 0.033754 0.066009 -0.012512 -0.077712 -0.093116 0.034206 -0.013936 0.058817 0.238597 0.131133 0.248673 0.306428 0.312689 0.423626 0.360760 0.444440 0.364885 0.274234 0.133284 0.026817 0.068843 0.022330 -0.031649 -0.126413 0.030680 0.093244 0.037213 0.039845 -0.044768 0.008490 -0.010693 -0.007474 -0.053334 -0.026675 0.063492 0.113134 0.095649 0.160740 0.131498 0.134898 0.228637 0.287518 0.114755 0.135028 0.189273 0.112768 0.025643 -0.030797 0.052880 -0.101699 0.052604 -0.060889 0.031627 -0.030520 0.045663 0.014264 -0.050302 0.006249 -0.087758 0.048375 -0.021066 -0.035511 0.058706 0.067034 0.102162 0.058964 -0.014860 0.103666 0.152480 0.261026 0.181929 0.188212 0.096528 0.008193 -0.077670 0.080315 0.014391 0.033259 -0.012561 0.003668 -0.026879 0.015626 0.032777 -0.020134 0.056424 0.100613 -0.030477 -0.026294 -0.017874 0.086549 0.082351 0.048243 0.019251 0.041889 0.055749 0.067424 0.098867 0.055866 0.038848 -0.020696 0.009486 -0.046665 -0.092524 0.064107 -0.046887 -0.049502 -0.032020 -0.037833 0.009112 -0.025048 0.050453 0.057886 0.044302 0.031546 0.012840 0.018512 -0.043638 0.018897 0.072463 0.042296 0.064164 0.030625 0.026052 0.035926 0.000818 0.076807 0.158228 0.020237 0.044918 -0.034263 -0.113801 -0.026815 0.007263 -0.017136 -0.014120 0.078073 -0.061231 0.096595 -0.019335 -0.032951 -0.038386 0.036030 -0.041371 0.023621 -0.000460 -0.078552 0.006145 0.125321 0.067940 -0.114594 0.007900 0.016371 0.016037 0.108719 0.047169 0.035492 -0.021048 -0.009296 -0.019255 -0.045278 0.049764 0.025841 0.002451 -0.042500 0.028232 0.000950 0.062471 0.007284 -0.081355 -0.043460 0.061595 0.013531 0.068897 -0.029892 0.029626 -0.035362 -0.114288 0.019256 -0.094282 0.046578 -0.018833 -0.064090 0.051097 0.054363 -0.001879 -0.070136 0.053658 -0.041369 0.001875 -0.009974 -0.004144 -0.027150 -0.009769
-0.074257 0.010313 0.028932 -0.018304 -0.011420 0.082331 -0.057368 0.063420 0.029365 -0.027173 -0.068282 -0.037949 -0.042478 -0.022895 -0.035229 -0.072565 -0.006687 -0.021021 -0.057569 -0.010005 -0.022845 -0.034686 -0.051551 0.031884 -0.014369 0.015410 -0.021535 0.017484 0.109931 -0.020955 0.051091 -0.010255 -0.018313 0.100821 -0.052771 0.017039 0.069430 0.006883 -0.016838 0.012656 0.042533 -0.025395 0.023088 0.061190 0.014435 -0.010918 -0.008696 -0.019664 0.078007 0.026661 0.006208 0.017429 -0.005288 -0.066638 0.095253 0.107845 -0.044877 0.055915 -0.022476 0.011562 -0.143612 0.016906 -0.003302 0.096130 -0.076997 0.012961 0.036600 -0.100161 -0.007991 -0.057777 -0.010671 -0.013102 -0.061783 0.030930 -0.086865 -0.041701 0.077067 0.030102 0.031624 0.034334 0.014343 0.062000 0.025544 0.041915 0.026211 0.050755 0.015791 0.001534 -0.052867 0.048132 -0.035896 0.049866 0.001835 0.042491 -0.062605 -0.007869 -0.005553 0.039313 -0.049444 0.029574 0.030492 0.042214 0.020315 0.124357 -0.018113 0.090638 0.063154 0.038979 0.069406 0.087087 0.008546 -0.040791 -0.063583 0.021693 0.056560 -0.037266 -0.003144 -0.079995 -0.051071 0.038604 0.029348 0.081813 0.030303 0.043465 -0.035212 -0.015511 -0.091188 0.062114 0.000942 0.016364 -0.026351 0.052998 0.083246 -0.029748 -0.073767 -0.092724 -0.025405 -0.064805 -0.033206 -0.076641 -0.004359 -0.025319 -0.068542 -0.054421 0.011764 -0.014152 0.054550 -0.004190 0.052792 0.031002 0.093476 0.071060 0.097155 0.131016 0.034129 0.077046 0.106674 0.095722 -0.000787 -0.037697 -0.039076 -0.044288 0.032016 0.030752 0.087796 -0.044053 -0.057812 0.029680 -0.058562 0.029236 0.036285 -0.047177 0.017470 -0.047271 0.033824 -0.073121 0.068795 0.152287 0.144907 0.132108 0.073190 0.238933 0.159547 0.147172 0.007139 0.024294 0.072455 -0.030938 0.023906 -0.078903 0.039456 0.013639 0.177601 -0.026596 -0.048112 -0.055893 0.013999 -0.012667 -0.001424 -0.050967 -0.034396 -0.006003 0.144058 0.156212 0.197930 0.224174 0.413647 0.425351 0.375016 0.343419 0.284476 0.258426 0.259126 0.247819 0.016831 0.052843 0.028496 -0.009322 -0.036195 0.016003 -0.052586 0.023899 0.074984 0.022691 0.057434 0.070569 0.109033 0.030492 0.030957 0.053772 0.107122 0.193949 0.293143 0.330455 0.493641 0.410915 0.472398 0.428623 0.385230 0.529799 0.303897 0.282374 0.193619 0.025545 0.105229 0.105038 0.091852 0.149375 0.027263 0.015507 -0.056706 0.024472 0.024102 0.077486 0.037036 -0.062699 -0.084074 0.105218 0.042473 0.233546 0.296788 0.470753 0.458694 0.515927 0.539406 0.412559 0.524921 0.559293 0.397390 0.351248 0.390365 0.201693 0.228428 0.342295 0.271272 0.176512 0.032853 -0.002173 -0.022439 0.014774 0.041559 -0.008630 0.039509 -0.030092 0.217226 0.041604 0.169528 0.278354 0.357237 0.474450 0.520994 0.655321 0.673155 0.650001 0.591403 0.468292 0.353239 0.429987 0.375713 0.322274 0.393415 0.438798 0.549063 0.509717 0.201970 0.056660 0.045452 0.062379 -0.049136 0.018861 0.000382 -0.030528 -0.107747 0.034049 0.275592 0.464510 0.628948 0.564739 0.734270 0.670457 0.618387 0.574232 0.405318 0.490853 0.417028 0.414351 0.284709 0.189266 0.448430 0.540450 0.623274 0.647866 0.425313 0.163221 -0.057750 -0.039164 0.017669 -0.087292 -0.045245 0.017431 -0.054764 -0.096361 0.455023 0.570549 0.613646 0.710920 0.721330 0.496431 0.490645 0.447860 0.400596 0.513636 0.394145 0.463260 0.262981 0.300548 0.395979 0.597122 0.646172 0.660652 0.413375 0.189603 -0.027322 0.004960 0.004648 -0.041035 0.162345 0.055635 -0.045909 0.120868 0.612198 0.614559 0.634640 0.541687 0.478272 0.368960 0.246278 0.356462 0.407790 0.418097 0.291492 0.232144 0.241148 0.323387 0.294005 0.395813 0.409220 0.407531 0.313393 0.100613 -0.054946 -0.020194 0.007970 0.051017 0.050427 -0.012792 0.015579 0.263098 0.693899 0.517208 0.434304 0.411329 0.351313 0.276059 0.096206 0.100180 0.265292 0.437331 0.245909 0.296308 0.226001 0.371710 0.267588 0.333829 0.302146 0.378810 0.275491 0.126475 0.080227 -0.007420 0.083056 0.064629 -0.002221 0.007328 0.165068 0.211146 0.605337 0.579707 0.326343 0.277841 0.239889 0.036569 0.033217 0.244430 0.404981 0.535601 0.552676 0.525667 0.408277 0.298916 0.263092 0.283898 0.295908 0.283188 0.231176 0.067783 0.038065 0.079174 -0.020618 -0.014521 -0.007036 0.145208 0.176008 0.219495 0.467288 0.602531 0.363294 0.216752 0.096059 0.108407 0.231181 0.604634 0.675327 0.709570 0.810272 0.702057 0.550553 0.454331 0.482882 0.417144 0.424658 0.448289 0.119368 0.113119 -0.006186 0.042712 0.093268 -0.036891 0.023907 0.067256 0.179645 0.120606 0.365437 0.498133 0.405943 0.120344 0.172382 0.303283 0.612341 0.853275 0.812493 0.662794 0.648672 0.736486 0.622411 0.743954 0.781076 0.688450 0.575608 0.379701 0.213014 0.111354 0.037940 -0.004709 0.075628 -0.078905 0.033470 0.043834 0.128357 0.173823 0.264066 0.267763 0.276444 0.187899 0.409235 0.621704 0.815750 0.884230 0.734516 0.534190 0.467408 0.443345 0.534874 0.671861 0.615469 0.570458 0.360174 0.192110 0.061013 -0.034303 -0.012621 -0.009314 0.071399 0.014921 -0.043531 -0.009485 0.105373 0.206348 0.342447 0.223661 0.247225 0.297454 0.472607 0.732462 0.696628 0.666050 0.518714 0.394079 0.285871 0.254586 0.348002 0.311416 0.221353 0.223433 0.109362 -0.020968 -0.054846 0.100196 0.016624 0.087842 0.062915 0.012547 0.013183 0.042226 0.033671 0.240335 0.376241 0.365499 0.329116 0.223532 0.404109 0.476253 0.326927 0.294503 0.421186 0.359239 0.280153 0.195794 0.186110 0.261217 0.177166 0.052776 0.044168 0.022820 0.033698 0.121615 -0.076814 -0.032979 -0.002510 0.013782 -0.016289 -0.058400 -0.001558 0.066606 0.207982 0.299080 0.305888 0.301663 0.133558 0.131743 0.051596 0.144930 0.180587 0.211867 0.163206 0.122596 0.111429 0.128972 0.161212 -0.004972 -0.050391 -0.003497 -0.022762 0.100066 -0.043355 -0.047123 0.081168 -0.142053 -0.062047 -0.052944 -0.010381 0.035222 0.165462 0.147922 0.088140 0.177246 0.076973 0.106776 0.047503 0.118384 0.192981 0.168751 0.200542 0.188406 -0.046935 -0.034438 -0.006803 -0.022088 -0.009659 -0.048526 0.097658 0.008882 0.020611 0.034165 0.023361 -0.080128 0.005104 0.082223 -0.072947 -0.086479 0.056486 0.111603 0.093825 -0.007945 -0.022929 0.013681 0.010242 0.001360 0.183525 0.124482 -0.005247 0.077229 0.017542 0.036173 0.029953 -0.037407 -0.107199 0.009458 -0.037811 0.014877 -0.099443 0.081910 -0.076363 -0.015400 -0.001011 -0.112271 0.005595 0.011910 0.067816 0.070551 -0.106782 0.074360 0.022989 -0.022677 -0.005604 0.021279 0.089958 0.015198 0.156446 0.045114 -0.039114 0.028622 0.075158 -0.174484 -0.032540 0.069061 -0.002058 0.023904 -0.011203 0.080616 -0.064268 0.034031 0.023346 0.000782 -0.035476 -0.005343 0.004559 0.047364 0.012678 0.000473 -0.063104 -0.008762 -0.008648 0.026068 -0.008814 0.120949 0.036650 0.119227 0.063036 -0.046449 0.003822 0.058901 -0.070880 -0.037845 0.093128 0.060216 0.044995 0.012890 -0.026906 0.031906 0.006111 -0.013232 0.074755 0.033010 0.094845 0.017360 -0.071825 0.066135 0.022322 -0.009622 0.059301 0.029627 -0.025443 0.037364 0.076393 0.051726 0.035191 0.046813 -0.018214 -0.045311 0.081826 0.004843 0.050380 0.049047 -0.039804 0.093845 -0.016518 0.069061 0.030321 -0.019061 -0.027135 -0.028163 -0.015006 -0.003618 -0.047813 0.070526 -0.003687 -0.008231 0.126561 0.035654 0.026411 -0.057213 -0.045540 -0.029405 0.015502 0.033729 -0.062930 -0.015921 -0.045383 0.090684 -0.019219 0.010216 0.008561 -0.047492
0.013076 0.031238 0.047239 0.003976 -0.013017 0.044473 0.049995 0.002212 0.032678 -0.046615 0.018035 -0.014273 0.054143 0.072211 0.002690 -0.007790 -0.013060 -0.058000 0.009138 -0.022577 -0.079979 -0.034222 -0.007852 0.007417 0.028981 0.038665 0.009975 -0.047509 -0.026784 -0.068781 -0.011100 0.117707 -0.054553 0.035309 0.100644 -0.084767 -0.002504 -0.022133 -0.070194 -0.026249 0.030794 0.024582 -0.029734 0.042185 -0.063450 -0.055127 -0.052002 -0.020027 -0.043734 -0.008543 0.063940 -0.024954 -0.025173 0.102035 0.042920 0.037291 -0.053625 -0.028043 0.000961 -0.037932 0.013033 0.025917 0.023154 -0.070866 -0.012246 0.009741 0.095658 0.017948 0.059439 -0.017726 0.051812 -0.029710 0.006219 0.024571 0.052135 -0.073747 0.058345 0.020896 0.068099 0.044284 -0.002102 0.055921 0.037405 0.017706 -0.018364 -0.026300 0.014344 -0.133268 0.080538 -0.036664 0.022498 0.026835 -0.018568 -0.009802 -0.050577 0.101777 -0.017544 -0.068337 -0.023252 0.034672 -0.072113 0.033805 0.007721 -0.065941 0.036606 0.006837 -0.066559 -0.009483 -0.053820 0.035175 -0.022948 -0.034604 -0.011747 -0.017332 -0.092149 -0.031287 0.030170 -0.014286 -0.018359 0.046586 0.029056 0.068754 0.032185 0.105160 -0.015372 0.011038 -0.001090 0.021617 0.041690 0.034249 -0.037902 0.058874 -0.013229 -0.014324 -0.055756 -0.095420 -0.067128 -0.027182 0.003830 0.043866 -0.006734 -0.041997 0.074668 0.034904 0.002073 -0.129678 -0.020764 0.030606 0.019825 0.049724 0.112706 0.029095 0.117577 0.045288 0.041506 0.011537 0.055306 0.126802 -0.064781 0.017500 0.063014 0.011296 -0.013737 0.024590 -0.018435 0.020065 0.041489 0.031052 -0.010472 0.110631 -0.082088 0.011868 0.052627 0.010054 -0.008139 0.058385 0.071824 0.029717 0.052023 0.133364 0.278150 0.237448 0.220762 0.135631 0.176347 0.108013 0.166593 0.122008 0.068696 0.100044 0.041371 0.011810 0.058243 0.039418 0.011027 -0.019911 -0.043461 0.003684 0.034620 -0.037098 0.005153 0.056014 0.081689 0.157999 0.245865 0.146731 0.201811 0.333969 0.217150 0.272042 0.216411 0.228867 0.283324 0.177965 0.202498 0.202628 0.085426 0.105264 0.009163 0.010072 0.017715 -0.013657 -0.019292 0.046219 -0.014140 -0.010958 0.029970 -0.019879 0.040697 0.069258 0.207156 0.184979 0.287157 0.346734 0.396984 0.301820 0.249288 0.279724 0.251435 0.307007 0.187568 0.270594 0.253709 0.234588 0.261958 0.067411 -0.014022 0.005886 -0.037910 0.028339 0.031038 0.019500 -0.019678 -0.111643 0.009296 -0.007053 -0.009650 0.175229 0.256799 0.208930 0.416707 0.483033 0.434291 0.419519 0.390002 0.449816 0.339165 0.326364 0.181586 0.222366 0.301790 0.299916 0.233475 0.041538 0.056285 0.045474 0.010158 0.019295 -0.052248 -0.118909 0.014257 -0.042113 -0.040469 0.063876 0.127010 0.162405 0.224229 0.482877 0.428568 0.445278 0.555141 0.471288 0.311550 0.318359 0.369905 0.222259 0.177587 0.204554 0.346593 0.278832 0.287234 0.231675 0.263215 0.201587 0.034427 0.007296 -0.077181 -0.023034 0.045088 0.029176 0.004347 0.064317 0.097871 0.282634 0.506163 0.519577 0.552395 0.599454 0.380415 0.432945 0.334549 0.277512 0.330288 0.332347 0.299135 0.459036 0.454217 0.498674 0.397382 0.416045 0.295933 0.231726 0.242738 -0.007040 -0.029721 0.005292 -0.072360 0.025433 0.028048 -0.032874 0.114706 0.406548 0.582377 0.759703 0.721914 0.430404 0.443656 0.343759 0.247346 0.183328 0.192829 0.406795 0.511391 0.563225 0.515096 0.388070 0.540958 0.571795 0.445467 0.432797 0.307825 0.093687 -0.027349 0.060677 0.002222 0.024972 0.030403 0.085195 0.226199 0.498273 0.695177 0.654113 0.579102 0.434995 0.363018 0.346375 0.296462 0.270068 0.368308 0.638071 0.770701 0.708785 0.622044 0.489276 0.539532 0.648609 0.669827 0.501838 0.283208 0.041525 0.165876 0.008983 -0.028984 -0.020067 0.033415 0.013949 0.217096 0.413006 0.545845 0.561653 0.556303 0.372123 0.266544 0.055328 0.168144 0.251977 0.466700 0.850676 1.018277 0.981305 0.862165 0.611563 0.649393 0.677703 0.848401 0.689176 0.318409 0.189105 -0.079067 -0.041986 -0.001632 0.074748 0.019858 0.068610 0.130108 0.292720 0.495119 0.590369 0.526500 0.327950 0.220997 0.140584 0.278693 0.471539 0.842408 0.919534 1.068317 0.936209 0.787710 0.406390 0.457830 0.756660 0.751144 0.535879 0.292367 0.018575 0.065565 -0.017352 -0.070328 0.000994 -0.002160 0.008678 0.086342 0.146478 0.350011 0.345853 0.478492 0.341432 0.352138 0.405824 0.395173 0.733258 0.846156 0.967611 0.791255 0.490603 0.415614 0.522063 0.573474 0.740798 0.619238 0.428458 0.094665 0.115451 -0.006578 -0.006187 -0.031812 -0.107667 0.122439 -0.006107 0.145638 0.114426 0.113100 0.272091 0.387054 0.448586 0.473924 0.401209 0.561738 0.655016 0.624465 0.427914 0.326646 0.127422 0.208440 0.319029 0.546027 0.610745 0.494110 0.207113 0.044915 0.044008 0.067252 0.006415 0.021962 -0.065427 0.090098 0.045438 0.001027 0.059255 0.036802 0.192022 0.293627 0.529373 0.591061 0.431296 0.425233 0.433523 0.408238 0.081744 -0.000933 -0.058072 0.005332 0.210168 0.294358 0.282980 0.269549 0.060321 -0.034100 -0.069209 0.024201 0.074554 0.076885 0.019770 0.074715 0.121241 0.118140 0.048798 0.059132 0.176031 0.313552 0.376606 0.374766 0.318660 0.271853 0.279642 0.175797 0.156085 -0.013755 -0.054888 -0.018996 0.118044 0.231310 0.237874 0.009590 -0.010288 -0.030687 0.020411 -0.022790 -0.030448 -0.051492 0.007482 -0.068445 0.084089 0.024268 0.181451 0.179603 0.197455 0.345491 0.380613 0.346136 0.194925 0.177434 0.171095 0.108833 0.126701 0.073259 0.187808 0.027125 0.238340 0.302543 0.211539 0.123950 -0.079507 -0.014307 -0.017097 -0.019464 -0.050017 0.009623 0.002728 -0.030255 -0.006058 -0.003488 0.094932 0.150518 0.166357 0.244695 0.272937 0.240374 0.143022 0.140028 0.252136 0.245959 0.232946 0.324978 0.259761 0.327223 0.340362 0.175370 0.153338 0.064513 -0.108541 -0.021287 0.061304 -0.053363 0.032928 0.009167 -0.054143 0.100598 -0.020125 0.003960 0.031236 0.068773 0.096141 0.103727 0.100284 0.059402 0.123421 0.136973 0.162077 0.330789 0.385912 0.380167 0.340679 0.352249 0.171593 0.086488 0.072086 -0.007603 0.022788 -0.053523 -0.055554 0.017105 -0.009028 0.015789 -0.018011 0.020793 0.015016 0.043355 -0.077766 -0.017180 -0.010777 -0.087218 0.030269 0.045345 -0.072053 0.027376 0.173747 0.227609 0.305712 0.282296 0.291280 0.113967 0.036511 -0.025454 0.074987 -0.003387 -0.037652 0.047599 -0.029379 -0.051894 -0.067013 0.000268 0.018461 -0.049170 0.011107 0.016128 -0.053226 -0.133369 0.025571 -0.018223 0.025058 0.028256 0.083779 0.076811 0.043574 0.059986 0.183635 0.151966 0.074881 -0.016985 -0.013515 -0.036909 0.053046 -0.040391 -0.029636 -0.002232 -0.008196 0.015161 0.070544 0.110164 -0.046033 0.019768 0.076981 0.077015 -0.062064 0.094695 -0.021908 0.090842 -0.003873 0.013598 0.018658 0.010126 0.102679 0.142111 -0.032884 0.022937 0.000452 0.029036 0.050419 -0.032254 0.049331 0.021131 0.024437 -0.063316 -0.035164 -0.032618 0.027437 -0.041823 -0.019136 0.043788 -0.051225 0.044353 0.049050 -0.041757 -0.174235 0.023612 -0.021874 0.064318 -0.038564 -0.025545 -0.112645 -0.077096 0.034717 0.069564 -0.002391 -0.121419 -0.011851 -0.042325 -0.020927 -0.080171 -0.036965 -0.057821 0.010798 0.014023 0.022972 -0.074687 -0.010824 -0.117372 -0.050380 -0.002977 -0.056627 -0.025210 -0.057334 0.041418 0.053180 -0.012649 -0.016919 -0.052607 0.003844 0.110347 -0.102843 -0.015838 -0.009353 0.030761 -0.057800 0.026586 -0.000273 0.069574 -0.014468 0.005420 -0.024808 0.035518 0.020779
0.012696 -0.005687 0.012292 0.026722 0.041557 -0.018647 0.048001 -0.022300 -0.096845 0.020738 -0.117866 0.097963 0.002802 0.080140 -0.007314 0.002563 0.010115 -0.063435 -0.027018 0.010512 -0.036923 -0.018339 0.010446 -0.006216 -0.063460 -0.017861 -0.004262 0.062471 0.014027 -0.011429 -0.052603 -0.035254 0.036583 -0.031681 -0.068725 0.032584 0.003802 0.032737 -0.011447 0.120330 -0.044837 0.063805 -0.000655 -0.014583 0.048930 0.097432 0.008771 -0.037861 0.023699 0.003640 -0.015819 -0.049956 -0.043768 -0.037028 -0.001726 0.002072 -0.016091 0.038057 -0.077273 -0.110055 0.062290 0.031365 0.014593 0.038386 -0.109530 0.022811 -0.027041 0.022977 0.030647 0.095960 -0.066802 -0.069907 -0.000352 0.096923 -0.066780 0.010418 -0.070921 0.009900 0.034507 0.043349 -0.120058 0.012091 0.046929 -0.052473 -0.056780 -0.002736 0.007741 0.059401 0.048222 0.059783 -0.039786 0.018172 0.005943 -0.007960 -0.040271 0.075495 0.006374 -0.029174 -0.001990 -0.042745 -0.037957 0.102570 0.064129 -0.018427 0.021308 -0.022320 0.003182 0.004726 0.019287 0.071627 -0.033838 0.004419 -0.044040 -0.012353 0.089626 0.031070 -0.002918 0.019148 0.023874 0.053658 0.013848 -0.015651 -0.019763 0.059612 0.028706 -0.041263 0.032807 -0.003603 0.074453 0.010834 0.029160 -0.011051 0.039536 -0.052970 -0.014469 -0.048344 0.075417 0.014901 0.042893 -0.083914 0.021612 -0.071767 0.022446 0.051055 -0.017958 0.071699 0.064199 -0.039349 -0.007425 -0.043607 -0.094024 0.040118 0.064605 0.004879 0.045940 0.068413 0.076373 0.077800 0.002705 -0.051618 0.006395 -0.139755 -0.068983 -0.043254 0.026366 -0.050914 -0.082526 0.088506 0.048724 -0.051472 -0.063623 0.004471 -0.047185 -0.031048 -0.053017 -0.025709 -0.073515 -0.111680 -0.158098 -0.174968 -0.230785 -0.202249 -0.160794 -0.119003 -0.096341 -0.079045 -0.110622 -0.038104 -0.091878 -0.074987 -0.070519 -0.005040 -0.048264 -0.115011 0.075904 -0.070561 -0.011296 -0.084241 0.124896 0.009012 -0.010901 0.077946 -0.145264 -0.153069 -0.053798 -0.264383 -0.393908 -0.504960 -0.474929 -0.365172 -0.271760 -0.336255 -0.346366 -0.310041 -0.107602 -0.126397 -0.027079 -0.223111 -0.175575 -0.193341 -0.057735 -0.062976 -0.005320 0.009889 -0.014480 0.004834 -0.054562 0.005598 -0.077594 0.007117 -0.061547 -0.319706 -0.435875 -0.528274 -0.596790 -0.528287 -0.566835 -0.578223 -0.455671 -0.337426 -0.252050 -0.280819 -0.172273 -0.089776 -0.200611 -0.201898 -0.284812 -0.197601 -0.053651 -0.102960 0.064709 -0.001834 -0.058344 0.018936 -0.027410 -0.005212 0.006016 -0.112077 -0.329706 -0.503369 -0.564789 -0.640088 -0.591709 -0.427845 -0.572267 -0.564082 -0.617762 -0.545854 -0.418103 -0.233940 -0.131589 -0.131744 -0.127881 -0.217568 -0.290651 -0.245803 -0.066927 -0.078520 0.025619 -0.014339 0.009519 0.031899 0.090283 -0.042334 -0.025744 -0.245352 -0.617093 -0.689440 -0.645995 -0.540853 -0.505734 -0.382529 -0.302521 -0.374990 -0.501270 -0.527117 -0.467757 -0.403459 -0.229195 -0.221876 -0.208707 -0.249265 -0.237055 -0.231130 -0.036832 0.024772 -0.009066 -0.046690 -0.066129 0.038131 -0.021042 -0.082742 -0.026261 -0.316291 -0.635981 -0.637381 -0.438223 -0.347707 -0.283254 -0.186531 -0.081775 -0.166223 -0.372706 -0.435705 -0.317716 -0.431962 -0.338896 -0.405590 -0.557279 -0.535424 -0.320359 -0.215993 -0.111687 -0.059117 -0.037596 0.015596 0.017891 0.031783 -0.013372 -0.022100 -0.223489 -0.452375 -0.718311 -0.622467 -0.345181 -0.166473 -0.088223 -0.080198 -0.086358 0.003167 -0.140518 -0.454077 -0.572842 -0.550185 -0.509126 -0.640796 -0.500478 -0.574658 -0.381980 -0.383354 -0.010056 -0.139909 -0.020430 0.035192 -0.038419 0.124752 -0.048934 -0.094514 -0.333886 -0.616998 -0.552953 -0.439570 -0.156684 -0.115065 -0.124571 -0.310173 -0.246064 -0.218708 -0.294211 -0.447335 -0.582103 -0.606192 -0.425082 -0.545961 -0.608861 -0.530258 -0.650239 -0.516674 -0.077796 -0.015086 -0.046326 0.007794 0.062075 0.019581 -0.033142 -0.069684 -0.402059 -0.709184 -0.537887 -0.377842 -0.369634 -0.214636 -0.314608 -0.326259 -0.241860 -0.297497 -0.569957 -0.729815 -0.718213 -0.592090 -0.442340 -0.560046 -0.513659 -0.345666 -0.559265 -0.492963 -0.168339 -0.031370 -0.065912 0.014992 0.006508 -0.001334 0.062832 -0.029487 -0.440579 -0.657620 -0.339595 -0.574672 -0.633493 -0.462273 -0.443109 -0.383275 -0.398050 -0.486280 -0.781626 -0.817581 -0.772073 -0.594762 -0.503939 -0.471469 -0.338184 -0.334799 -0.511821 -0.439695 -0.255039 -0.001830 -0.020797 -0.051901 0.029028 -0.016491 0.000329 -0.046959 -0.315767 -0.328695 -0.370102 -0.521508 -0.618296 -0.716393 -0.611475 -0.442909 -0.526885 -0.640260 -0.827070 -0.885778 -0.792412 -0.643687 -0.435055 -0.394283 -0.355096 -0.346245 -0.534841 -0.481955 -0.203917 -0.118524 0.047572 0.021731 0.060142 -0.095402 0.044656 0.008178 -0.123952 -0.159897 -0.304469 -0.508467 -0.675846 -0.723859 -0.725589 -0.541271 -0.556114 -0.619678 -0.789264 -0.728245 -0.724770 -0.526740 -0.481001 -0.414529 -0.475030 -0.621905 -0.553868 -0.381474 -0.232624 -0.140454 0.087968 0.005925 0.038261 0.059385 0.017953 -0.026588 -0.125008 -0.001391 -0.257407 -0.273120 -0.481554 -0.648723 -0.677387 -0.653212 -0.479431 -0.547575 -0.777199 -0.686346 -0.546001 -0.396255 -0.370733 -0.571280 -0.507982 -0.652468 -0.476110 -0.353528 -0.154894 -0.033528 0.004853 0.040242 0.034509 -0.005755 -0.020664 -0.053485 0.037105 -0.075524 -0.227247 -0.244965 -0.268107 -0.395541 -0.629435 -0.534350 -0.432192 -0.461068 -0.561866 -0.560050 -0.447250 -0.370807 -0.471459 -0.470167 -0.489690 -0.526010 -0.343357 -0.228756 -0.157747 -0.092310 -0.040126 0.016002 -0.047653 -0.024650 -0.003052 -0.028693 0.023061 -0.084279 -0.100318 -0.133436 -0.020415 -0.205831 -0.278978 -0.338640 -0.325765 -0.330290 -0.291970 -0.311218 -0.216978 -0.080283 -0.168426 -0.309975 -0.401774 -0.407801 -0.185541 -0.098640 -0.086552 -0.023463 0.005844 -0.030496 -0.075915 -0.091886 0.075544 0.002065 -0.001747 -0.017875 -0.118680 -0.108925 -0.069236 -0.025780 -0.013301 -0.189761 -0.009929 -0.077431 -0.078814 -0.139502 -0.166165 -0.156715 -0.140419 -0.062522 -0.201295 -0.238290 -0.210391 -0.060130 -0.002758 -0.016090 0.038056 -0.124932 0.101899 -0.021136 0.022401 -0.048267 -0.023307 -0.023456 -0.088029 -0.116053 -0.096482 -0.157058 -0.091228 -0.050456 -0.052093 -0.026830 -0.023419 0.027015 -0.013388 -0.079171 -0.047836 -0.034539 -0.109396 -0.040815 -0.104228 0.052840 -0.026681 0.044866 0.081195 0.004199 -0.043680 0.027120 0.025966 0.068255 0.018169 -0.056749 -0.001051 -0.093396 -0.092118 -0.002319 -0.000341 -0.016304 0.024263 0.062714 0.157958 0.040302 -0.027587 -0.069887 -0.046344 0.023001 0.006763 0.033484 0.048436 -0.001777 0.035090 0.027364 0.044011 0.107677 -0.080798 0.018458 -0.027798 0.013935 0.087651 -0.007536 -0.084789 0.043619 -0.017650 -0.051712 0.099118 0.079839 0.088380 0.081611 0.033779 0.027590 -0.143917 -0.039815 0.016005 -0.052913 -0.064477 -0.096842 0.061507 -0.039567 0.035341 -0.012125 -0.042717 -0.031338 -0.016941 -0.092636 -0.064901 0.036677 -0.079967 -0.034202 -0.054880 0.001477 -0.002209 0.026838 -0.043047 -0.029540 -0.007548 0.003036 -0.004347 -0.056509 0.107176 -0.032533 -0.061139 0.002906 0.037513 0.084605 0.044247 -0.037100 0.069180 0.041993 0.008545 0.035843 -0.025090 0.032091 0.000492 0.010977 -0.029829 0.065393 0.002608 0.038177 0.037681 -0.098326 -0.069118 -0.061569 -0.081038 0.004217 -0.068345 0.035819 0.092407 -0.096524 0.030222 0.038962 -0.057000 0.077578 0.020967 -0.156810 0.040550 0.085041 0.004764 -0.103400 0.059824 0.087955 0.003534 0.092652 0.117879 0.136761 0.064407 0.018406 -0.052087 -0.014371 -0.016841 -0.055076 0.095727 -0.042363 -0.037089 -0.024484 -0.046862 0.065499 -0.001467 0.005602 0.002769 -0.079989 -0.066591 -0.083864 -0.069345 0.017694 0.019619 0.081709
0.000143 -0.028435 0.099797 -0.019336 -0.022755 -0.056827 -0.114718 -0.012480 0.017764 -0.094658 -0.004468 -0.057342 -0.006385 -0.037319 -0.036446 0.043705 -0.010502 -0.064421 0.081374 0.060342 0.015161 0.080554 -0.115267 -0.025541 -0.030384 0.014068 -0.015762 -0.025528 0.115154 -0.044958 0.044251 0.026938 -0.063774 0.056220 0.065366 0.008969 0.001890 0.021659 -0.091450 -0.005947 0.069592 0.000968 0.107176 -0.015081 0.077784 -0.009012 -0.015629 0.011596 0.089175 0.077997 -0.017163 -0.011792 -0.040341 -0.028708 -0.050636 -0.027506 0.020919 -0.074196 0.051804 0.034084 0.001253 -0.047417 0.018838 -0.104787 0.003787 0.074543 0.046245 0.028019 -0.024933 -0.016939 -0.042945 0.049355 0.026075 0.052128 -0.053150 -0.094480 -0.103768 -0.060258 -0.015304 -0.069707 0.126231 0.048288 -0.004281 -0.005840 -0.017587 0.011657 -0.028073 0.013996 0.012254 -0.016566 0.022805 0.075228 -0.006301 0.007019 -0.021227 0.017753 -0.011494 0.002116 0.029200 -0.000003 0.045005 -0.030041 0.002985 -0.038682 -0.018833 -0.078433 -0.067419 -0.071869 0.058985 0.085464 0.007558 0.086787 -0.019289 -0.033495 0.026370 0.007630 -0.014424 -0.028993 0.093135 0.131958 0.131773 0.029613 0.142855 0.071861 0.053381 0.067262 0.168355 0.138365 0.030162 0.117987 0.120628 0.002405 0.018009 0.019116 0.034803 -0.034222 -0.028770 0.057701 0.063014 0.001595 -0.033044 0.019985 0.077445 -0.012693 0.013894 0.011893 0.149525 0.115821 0.135152 0.096652 0.187537 0.193498 0.135589 0.090573 0.169998 0.187046 0.200013 0.277862 0.117609 0.091110 0.074974 0.013006 0.035803 0.003606 -0.024350 -0.015982 0.108877 -0.018124 0.003072 -0.058129 -0.004864 -0.006560 -0.001930 0.159730 0.171556 0.271924 0.316592 0.412527 0.309828 0.419067 0.531299 0.436977 0.368510 0.408338 0.302451 0.291485 0.294494 0.367724 0.241780 0.187678 0.107256 0.077934 0.027139 -0.026229 -0.023338 0.087431 -0.052659 -0.016857 0.080428 -0.094349 0.097258 0.055566 0.157093 0.367189 0.391520 0.537642 0.613505 0.701071 0.714047 0.551299 0.435792 0.421463 0.380729 0.397975 0.332296 0.253985 0.422676 0.252294 0.051972 0.123030 0.143591 0.026266 -0.068313 -0.000570 0.067181 -0.022075 -0.033742 0.057035 0.055311 0.224740 0.338293 0.328232 0.474267 0.563682 0.542829 0.659704 0.792243 0.634748 0.610264 0.403268 0.322794 0.419477 0.351796 0.354923 0.295978 0.285578 0.170053 0.074026 0.128605 0.045539 -0.029549 0.002330 -0.048905 0.030180 0.058875 0.067177 0.169866 0.352190 0.517565 0.534732 0.496850 0.567653 0.535753 0.598025 0.568723 0.641859 0.454471 0.372379 0.332699 0.358643 0.498837 0.332822 0.475075 0.582224 0.388050 0.209973 0.149311 0.127601 0.131246 0.052314 -0.047894 0.095540 0.036202 -0.003777 0.330386 0.387074 0.662600 0.780377 0.811945 0.504486 0.581559 0.543077 0.265824 0.346433 0.454987 0.340014 0.101732 0.281143 0.423783 0.526622 0.550230 0.504913 0.573143 0.404489 0.173129 0.069948 0.022896 -0.014307 -0.014336 0.044471 0.022427 0.049131 0.365708 0.481680 0.841007 0.855761 0.788483 0.675841 0.477082 0.409393 0.398459 0.349962 0.363772 0.411125 0.208044 0.438396 0.702887 0.687024 0.606798 0.596375 0.745286 0.800312 0.301017 0.047469 -0.041236 0.056405 0.022571 -0.019298 0.119625 0.061921 0.278470 0.463832 0.679714 0.824488 0.769948 0.477487 0.354666 0.262182 0.301142 0.419591 0.505496 0.607991 0.406115 0.483797 0.697468 0.724275 0.629063 0.708628 0.632407 0.752215 0.313290 0.007745 -0.062497 -0.098474 0.017462 -0.046048 0.024216 0.005685 0.332910 0.581366 0.667272 0.848946 0.678332 0.547606 0.234649 0.275723 0.325735 0.145555 0.471020 0.733638 0.650028 0.453885 0.616763 0.451748 0.463193 0.532252 0.704259 0.774972 0.404663 0.119463 0.013655 0.065883 0.019459 0.047491 -0.022897 0.015595 0.234695 0.608710 0.668186 0.661324 0.602854 0.349575 0.339472 0.273416 0.263753 0.325164 0.507120 0.807044 0.746962 0.661704 0.587318 0.408798 0.327135 0.532465 0.722055 0.605765 0.393485 0.142885 0.130357 0.039530 0.008007 0.011100 0.019682 0.075648 0.304870 0.509503 0.626089 0.616251 0.471112 0.393445 0.471992 0.454409 0.416148 0.443400 0.688659 0.673639 0.737245 0.636291 0.668258 0.424011 0.369638 0.486509 0.618677 0.441326 0.255912 0.107650 0.048773 0.034410 -0.054382 0.028773 0.035000 -0.050662 0.276813 0.492392 0.582878 0.608256 0.594557 0.557046 0.647330 0.619224 0.716266 0.716075 0.830077 0.736459 0.827909 0.579556 0.562944 0.543670 0.489421 0.603538 0.582415 0.331057 0.230915 0.209613 -0.014790 -0.007914 -0.032446 0.001319 -0.037168 0.051970 0.269614 0.422646 0.528454 0.606906 0.738632 0.653380 0.615166 0.651181 0.720549 0.848900 0.767059 0.669177 0.624652 0.657141 0.761638 0.686829 0.749530 0.732119 0.634900 0.516529 0.202728 0.078105 0.044305 -0.034993 -0.009888 0.109155 0.054238 -0.014777 0.209377 0.349133 0.349780 0.490771 0.555389 0.500945 0.665276 0.605934 0.598222 0.527157 0.533372 0.374860 0.483159 0.595060 0.625742 0.669551 0.726347 0.675372 0.592230 0.459703 0.069401 0.064823 0.038222 -0.023424 -0.074902 0.119043 -0.011128 -0.074998 0.078006 0.084575 0.251950 0.373712 0.494921 0.509874 0.568161 0.319010 0.477662 0.449385 0.414066 0.365943 0.382360 0.572720 0.688897 0.684316 0.680429 0.582099 0.362593 0.149868 0.052849 0.042162 -0.056154 0.097762 0.086051 0.003604 0.026952 -0.053643 -0.007702 0.084013 0.167644 0.327306 0.401236 0.562201 0.545165 0.456737 0.428662 0.393028 0.440011 0.442554 0.463464 0.603817 0.561095 0.624094 0.566329 0.452191 0.301482 0.149040 0.067078 0.016060 0.017967 -0.036547 0.082636 -0.003157 0.037130 -0.032176 -0.024563 0.052414 0.152981 0.239061 0.285346 0.383558 0.462222 0.532022 0.412856 0.449354 0.449750 0.460265 0.575923 0.672100 0.655094 0.441858 0.379884 0.227996 0.182890 0.022952 -0.002519 -0.009638 -0.074969 0.006934 0.093305 0.000192 -0.050319 0.061237 0.107175 0.038446 -0.002989 0.174695 0.160190 0.201222 0.271505 0.232940 0.323918 0.427345 0.353986 0.411814 0.459723 0.339907 0.313361 0.260031 0.258849 0.229931 0.072014 0.104945 0.015273 -0.098094 0.069384 -0.043485 0.026788 0.058043 0.071579 -0.012147 0.012430 0.009714 0.019009 0.010623 0.111575 0.026323 0.063833 0.084510 0.082159 0.250745 0.254257 0.273429 0.309016 0.268759 0.215648 0.209172 0.175975 0.210791 -0.047104 0.032243 0.009456 0.008466 -0.034867 0.135198 -0.043034 0.021448 -0.053205 0.030638 -0.052218 0.067130 0.019553 0.111701 0.023123 -0.017368 0.013564 0.012576 0.069021 0.085760 0.027663 0.110973 -0.016822 0.147441 0.029285 0.092795 0.081414 0.033317 -0.003832 0.032426 0.008343 -0.018443 0.030487 0.059179 -0.021801 -0.077359 0.029325 0.041989 0.031328 0.024668 0.020072 0.063322 0.053335 -0.046309 0.033164 -0.032888 -0.017021 0.065686 0.125203 0.051651 0.040273 0.057787 0.069297 0.028306 -0.032826 0.068000 -0.005939 -0.030730 -0.059546 0.038389 0.005523 0.005884 0.001054 0.008080 -0.028556 -0.036245 -0.010698 0.009863 0.057052 -0.009234 -0.035175 -0.011600 -0.011048 -0.063691 0.059482 0.052504 0.016023 0.006422 0.001775 -0.078327 0.054570 -0.010483 0.001046 0.062652 -0.077049 -0.022056 0.043986 0.033361 -0.066653 0.073952 -0.006860 0.013493 -0.037082 -0.043488 0.065613 0.084869 -0.002477 -0.002941 -0.083785 -0.039413 0.006323 0.013272 0.075115 0.019565 0.014241 -0.022653 -0.028177 0.038594 -0.012756 -0.021505 0.043920 -0.038619 0.063195 0.124954 0.009580 -0.066329 0.039692 -0.073384
0.056080 -0.050400 0.003923 -0.083587 0.080320 0.101031 -0.085459 0.001879 -0.065776 0.007708 0.042199 -0.065260 -0.047481 -0.024048 -0.066494 0.012573 -0.023124 0.029741 -0.005782 0.029644 -0.034142 -0.008869 0.001010 -0.041855 0.033908 0.013364 0.038164 -0.033330 -0.002100 0.035797 0.058216 0.037688 0.005712 0.032556 0.047267 -0.004087 -0.040253 0.078149 -0.017689 0.002465 -0.108236 -0.008490 -0.034046 -0.009030 -0.018270 -0.053060 -0.023022 0.028169 0.105546 -0.005295 -0.003139 0.130895 -0.036436 -0.018012 -0.053364 -0.027778 -0.043061 0.013960 0.007354 -0.032418 0.006422 -0.013847 -0.002972 -0.051311 -0.089506 -0.030541 -0.080222 0.059059 -0.104109 -0.019482 0.004709 -0.013769 0.074926 -0.115728 0.080236 0.034051 0.010779 -0.005737 0.059146 0.036510 -0.125446 -0.033825 0.060943 0.018087 -0.064872 0.075588 -0.097334 0.040757 0.050944 -0.017793 -0.059487 0.054759 -0.065468 -0.012318 -0.016594 0.046949 0.050032 -0.060170 -0.115339 0.006229 -0.042685 0.055941 0.058508 0.019812 0.056176 -0.007113 0.093666 0.027609 0.001461 0.018636 0.019479 -0.075363 0.032112 0.024534 -0.119546 0.018179 0.088919 0.014592 -0.063130 -0.093906 -0.047023 -0.135836 -0.038392 -0.038139 -0.007104 -0.057100 0.052238 -0.061399 -0.095072 -0.045987 0.039555 -0.092149 0.023614 -0.011247 -0.012930 -0.045025 -0.043364 -0.015616 0.155706 0.069799 -0.014575 -0.033518 -0.055109 0.008403 0.039413 -0.026871 -0.065953 -0.110048 -0.130226 -0.058444 -0.067817 -0.047967 -0.133050 -0.126596 -0.131527 -0.328589 -0.111849 -0.174355 -0.108799 -0.059170 -0.001796 -0.026589 -0.082305 -0.001540 -0.028854 0.032850 0.005711 -0.043458 -0.059373 0.090229 -0.025391 0.032338 0.066823 -0.082376 -0.052257 -0.050273 -0.184966 -0.176144 -0.183052 -0.207472 -0.258910 -0.296395 -0.372078 -0.464134 -0.468960 -0.331175 -0.340354 -0.247739 -0.120559 -0.020806 0.053291 0.010580 0.036263 0.063739 -0.095835 -0.030287 0.056713 -0.015641 0.128697 -0.101586 0.031100 -0.022768 -0.108277 -0.184466 -0.250642 -0.287402 -0.349392 -0.458253 -0.523160 -0.656161 -0.685154 -0.608322 -0.509918 -0.442080 -0.417941 -0.324687 -0.150472 -0.042225 0.116619 -0.008703 -0.042252 -0.028768 -0.049852 -0.016560 0.073860 0.042596 0.000752 0.088035 -0.043549 -0.175481 -0.216511 -0.391867 -0.480390 -0.442367 -0.729251 -0.906341 -0.915730 -0.798859 -0.632360 -0.507897 -0.384016 -0.260718 -0.279284 -0.287161 -0.347277 -0.253018 -0.079778 -0.026184 -0.067548 -0.105249 0.014832 0.013650 0.067956 -0.043982 -0.072348 -0.054671 -0.082957 -0.126919 -0.415068 -0.570499 -0.833601 -0.825055 -0.920302 -0.935777 -0.824460 -0.658719 -0.557292 -0.364405 -0.301111 -0.175639 -0.159561 -0.368279 -0.439742 -0.484887 -0.347715 -0.014194 -0.045432 -0.041160 -0.031335 -0.022913 -0.007101 -0.119718 -0.062366 -0.103738 -0.201575 -0.294663 -0.477181 -0.684083 -0.898831 -0.840590 -0.795444 -0.635719 -0.605825 -0.599341 -0.518819 -0.338202 -0.108885 -0.202502 -0.222608 -0.372909 -0.505894 -0.638947 -0.581389 -0.322242 -0.078723 -0.051197 -0.095600 -0.101833 -0.002707 0.044939 0.010529 -0.057978 -0.214269 -0.272800 -0.487653 -0.558286 -0.648263 -0.609915 -0.465562 -0.417205 -0.334814 -0.406772 -0.299791 -0.336564 -0.285252 -0.437335 -0.283004 -0.373944 -0.372733 -0.565080 -0.696183 -0.422186 -0.146732 -0.097071 0.002058 0.008437 0.012001 -0.009512 -0.049976 -0.034903 -0.386420 -0.279114 -0.482080 -0.448830 -0.474410 -0.299686 -0.240361 -0.135240 -0.125166 -0.168245 -0.222486 -0.271619 -0.364158 -0.438137 -0.305037 -0.179361 -0.222250 -0.375618 -0.705108 -0.545808 -0.083119 -0.061929 -0.029842 -0.092626 0.076551 -0.010389 -0.085522 -0.024283 -0.374311 -0.446584 -0.475423 -0.651837 -0.417266 -0.312045 -0.255852 -0.153731 -0.151587 -0.209415 -0.240742 -0.278482 -0.257114 -0.287673 -0.266976 -0.073028 -0.037555 -0.367270 -0.724992 -0.624915 -0.125182 -0.049186 -0.047833 0.102159 0.004997 0.078654 0.000451 -0.061718 -0.445333 -0.440252 -0.644474 -0.582008 -0.514576 -0.304265 -0.322633 -0.245922 -0.295382 -0.296452 -0.332112 -0.330588 -0.485313 -0.371754 -0.325257 -0.153338 -0.060116 -0.448899 -0.669179 -0.648411 -0.252747 -0.056541 -0.043304 -0.026258 -0.001867 0.069598 0.020964 -0.156549 -0.395653 -0.375672 -0.482776 -0.468974 -0.482151 -0.391231 -0.279246 -0.400298 -0.464967 -0.341732 -0.553446 -0.511785 -0.541005 -0.418161 -0.309998 -0.221479 -0.289058 -0.556664 -0.739773 -0.675608 -0.298758 -0.083665 -0.086015 0.023425 -0.018427 0.094803 -0.037976 -0.091946 -0.173160 -0.321055 -0.392223 -0.381156 -0.445210 -0.338003 -0.441279 -0.469486 -0.506176 -0.485214 -0.620523 -0.572984 -0.480259 -0.456374 -0.369370 -0.539113 -0.606374 -0.876233 -0.855832 -0.724618 -0.323189 -0.202451 -0.184947 -0.063679 0.065078 -0.046080 -0.012699 -0.015548 -0.103772 -0.309952 -0.568066 -0.432706 -0.518627 -0.525193 -0.516739 -0.512315 -0.589671 -0.697179 -0.696570 -0.569732 -0.431639 -0.584473 -0.695171 -0.776960 -0.845858 -1.004768 -0.918466 -0.635222 -0.301557 -0.156795 -0.043405 -0.031587 -0.021768 0.112203 -0.076868 0.121074 0.028126 -0.207181 -0.527138 -0.608820 -0.528013 -0.540777 -0.587367 -0.542251 -0.473313 -0.555294 -0.610540 -0.433332 -0.299914 -0.484062 -0.725366 -0.806054 -0.778920 -0.580764 -0.653097 -0.291124 -0.111698 -0.067746 0.060884 -0.041315 0.061338 0.069325 -0.015785 -0.044830 0.120488 -0.054075 -0.336924 -0.399336 -0.532711 -0.514492 -0.435325 -0.544512 -0.372624 -0.429059 -0.483877 -0.421174 -0.420646 -0.352802 -0.460330 -0.605252 -0.471381 -0.442415 -0.180066 -0.030138 0.014767 -0.035970 -0.030743 0.124647 -0.001391 -0.035704 0.023310 0.074761 0.108209 0.069685 -0.041573 -0.285488 -0.449265 -0.507935 -0.416844 -0.265099 -0.240183 -0.184426 -0.309772 -0.351723 -0.329388 -0.465065 -0.701830 -0.443458 -0.363584 -0.232153 -0.064618 0.015630 0.041040 -0.031911 0.007832 0.079341 -0.100053 0.036213 -0.012560 0.012739 0.076679 0.059871 -0.049097 -0.052959 -0.220818 -0.281929 -0.288838 -0.288463 -0.367818 -0.380010 -0.443850 -0.576241 -0.593774 -0.577658 -0.630409 -0.334342 -0.216501 -0.142034 -0.018919 -0.012674 0.025711 -0.017572 -0.021206 0.077526 0.027859 0.065894 0.093588 0.067138 0.028251 0.060734 -0.054885 -0.066648 -0.216398 -0.246805 -0.122350 -0.236086 -0.313188 -0.333852 -0.401277 -0.356023 -0.503864 -0.296645 -0.342719 -0.199726 -0.046485 -0.023119 -0.021038 0.095388 -0.023080 0.033674 0.024742 -0.155081 -0.090044 -0.004558 -0.040900 0.078369 0.007834 0.020637 -0.009519 0.124197 -0.097892 -0.109133 -0.107126 -0.067210 -0.213718 -0.268122 -0.339621 -0.263604 -0.168013 -0.183054 -0.094880 -0.002109 -0.015004 -0.083268 0.010154 -0.134763 -0.010631 0.067980 -0.004541 0.089895 -0.009428 -0.006156 0.029615 -0.086885 -0.082524 -0.033263 0.014915 -0.041466 -0.085827 -0.072279 -0.105609 -0.076395 -0.077240 -0.233558 -0.160090 -0.204027 -0.182671 -0.088098 -0.002666 0.034050 -0.024469 0.028064 0.018110 -0.051131 -0.040044 0.153114 0.042942 -0.052188 -0.003143 -0.029873 0.010088 -0.057913 -0.001881 -0.119026 -0.062578 0.011438 -0.087778 -0.121469 0.134171 -0.085693 -0.043404 -0.112573 -0.046536 -0.131025 0.002504 -0.002995 -0.052177 0.001457 0.056789 -0.067016 0.014816 0.013778 -0.000609 -0.050852 0.036793 -0.024245 0.036567 -0.030536 0.027743 0.057781 -0.005283 0.056399 -0.046949 0.026192 -0.004614 0.092458 0.016362 -0.011747 -0.005460 0.068804 0.016092 -0.047952 -0.019348 0.018989 -0.001623 0.068279 -0.050460 0.078541 -0.062250 -0.032754 0.006085 -0.022516 -0.015420 -0.022284 0.009660 -0.040955 0.074547 0.049631 -0.032970 -0.050495 -0.003992 0.092445 -0.045916 -0.037725 0.075128 0.010023 0.002046 -0.035914 0.027451 0.013368 0.056799 0.140024 0.062212 0.023625 0.067096 -0.006370 -0.043436 -0.078115 -0.042449 0.030086 0.015760 -0.052073
-0.073798 0.020176 -0.041458 0.132901 0.047849 -0.008339 -0.015357 -0.002760 0.002744 0.038121 0.006230 -0.071868 0.057414 0.043058 -0.042851 -0.019189 -0.031267 -0.089259 -0.012877 0.005174 -0.014270 -0.026753 0.083147 -0.060559 -0.023702 -0.003242 0.017274 -0.046378 0.000813 0.052834 -0.032546 0.069823 -0.078742 0.060678 -0.067534 0.075162 0.019005 0.090697 -0.034380 -0.024996 0.084744 0.036210 -0.034032 -0.002760 0.085669 0.000855 -0.044268 -0.116334 -0.019017 -0.046774 0.003744 -0.001641 -0.001258 0.088341 0.128090 0.073163 -0.014047 0.031215 0.060647 -0.013671 0.062987 0.094258 0.016852 -0.044292 0.000175 -0.152957 0.024251 0.007446 0.013925 -0.052689 0.136411 -0.122192 -0.119001 -0.010540 0.003039 -0.015918 0.069663 0.025162 0.050316 -0.062342 -0.046927 -0.031097 -0.051079 0.015493 0.082056 -0.053710 -0.035417 -0.042672 -0.006107 0.074018 -0.040403 0.033167 0.107956 0.060457 -0.085402 -0.003013 -0.038077 0.049376 0.039225 -0.056275 0.034374 -0.080547 0.019502 0.031437 -0.091345 0.048516 0.017104 -0.026071 0.009995 -0.010273 0.056584 -0.098215 -0.087915 -0.099990 0.045602 -0.014915 -0.044788 -0.006324 0.026837 0.061997 0.096637 -0.006588 -0.042320 0.064867 0.085240 0.098992 0.086902 0.079937 0.112041 0.045947 0.069652 0.002544 0.007930 0.061332 0.155853 0.028086 -0.019096 0.060831 0.058795 -0.057540 0.077049 -0.036133 0.066017 -0.001023 0.058054 -0.002714 -0.045622 0.054023 0.034639 0.050685 -0.069761 -0.044333 -0.047995 0.030009 0.050313 0.087163 0.045314 0.081052 0.126535 0.135150 0.123168 0.070080 0.026910 0.041734 -0.006659 -0.156541 -0.019878 0.000060 0.131826 0.058391 -0.025824 0.029305 0.070150 0.003871 0.035140 0.188832 0.202181 0.138203 0.168737 0.073054 0.088387 0.072001 -0.070119 0.054868 -0.020024 0.042295 0.049555 0.149909 0.235621 0.163108 0.038508 -0.055664 0.009602 -0.051262 -0.050048 -0.110939 -0.024436 0.003441 -0.025826 -0.041776 0.034126 0.141122 0.168216 0.295799 0.309842 0.279421 0.286050 0.179669 0.241473 0.155481 0.053562 0.072147 -0.003491 0.030184 0.037553 0.160886 0.217600 0.256587 0.191661 0.117685 -0.055654 -0.005717 0.029330 0.053897 0.086966 0.031713 -0.090214 0.061682 0.006087 0.053496 0.270353 0.508777 0.446548 0.373511 0.207226 0.261006 0.234443 0.295344 0.234594 0.127440 0.138744 0.104556 0.036885 0.231377 0.246338 0.229189 0.221478 0.141824 0.187418 0.049161 0.054402 -0.016556 -0.005234 -0.043088 -0.038781 0.015706 0.063111 0.113032 0.277357 0.460933 0.503326 0.344012 0.398835 0.243450 0.469861 0.545496 0.580921 0.526446 0.330802 0.312423 0.351995 0.369707 0.384549 0.416698 0.201708 0.141869 0.161685 0.096040 -0.054026 0.015735 0.062657 0.041305 0.091734 0.018589 0.081338 0.258323 0.434818 0.510899 0.531076 0.409400 0.498352 0.443543 0.529450 0.569471 0.512528 0.566201 0.502918 0.489230 0.412166 0.452330 0.549170 0.513263 0.396628 0.235756 0.234293 0.161649 0.049291 -0.051170 0.059516 0.045110 0.058174 -0.109775 0.183646 0.311553 0.474767 0.616593 0.424736 0.616475 0.545060 0.527030 0.567245 0.645354 0.468663 0.486390 0.514042 0.405487 0.528990 0.402751 0.518137 0.555268 0.454963 0.262211 0.242738 0.141721 0.015681 -0.094914 -0.013506 0.065042 -0.007460 -0.020402 0.148120 0.365114 0.590778 0.584307 0.614547 0.698939 0.474542 0.457872 0.477122 0.413680 0.505509 0.462285 0.598568 0.524850 0.619251 0.629296 0.550429 0.629686 0.612637 0.452713 0.229812 0.173979 0.002953 0.005284 -0.073800 -0.029944 0.034431 0.136085 0.177198 0.491975 0.686917 0.760084 0.715327 0.599168 0.439248 0.380353 0.341932 0.449018 0.480712 0.534123 0.627130 0.660258 0.750265 0.689884 0.725510 0.655384 0.695920 0.483158 0.317347 0.118006 0.008188 0.059249 -0.126284 -0.099297 0.043101 0.091580 0.283479 0.558751 0.779903 0.804434 0.664532 0.647332 0.543827 0.390958 0.348037 0.369447 0.625526 0.738439 0.829284 0.904334 0.820149 0.812488 0.821480 0.788965 0.736081 0.514762 0.242363 0.220087 0.063849 0.056545 0.016025 0.005372 -0.006353 0.075182 0.266713 0.395976 0.704067 0.648131 0.744529 0.667978 0.531178 0.335076 0.176656 0.405428 0.655130 0.870322 0.832093 0.936440 0.810687 0.818953 0.858096 0.624471 0.633563 0.491297 0.156821 0.128178 0.114375 0.002834 -0.020694 0.004702 0.061736 0.070048 0.271806 0.285983 0.547317 0.631024 0.571917 0.505727 0.431416 0.364075 0.394866 0.465684 0.598040 0.592340 0.740165 0.780416 0.878350 0.752012 0.579025 0.533685 0.522249 0.497203 0.225157 0.131206 0.095802 0.003401 0.044269 0.035728 -0.016782 -0.002609 0.126763 0.261483 0.452311 0.464087 0.586364 0.550848 0.557051 0.406214 0.482062 0.470372 0.514952 0.618468 0.735492 0.653672 0.662233 0.551199 0.387260 0.480462 0.361204 0.299484 0.080339 0.068279 0.050263 0.013636 0.067658 0.122128 0.016909 -0.015187 0.134034 0.254101 0.385066 0.550465 0.614349 0.651197 0.703669 0.642724 0.575011 0.526735 0.525316 0.474343 0.509656 0.561301 0.553220 0.522687 0.507011 0.557479 0.336859 0.133071 -0.047101 -0.018344 -0.066467 -0.016468 0.046230 0.078371 -0.071701 -0.002174 0.165665 0.248846 0.371340 0.354285 0.440498 0.422575 0.549417 0.500287 0.517805 0.409747 0.456783 0.472501 0.383919 0.350417 0.288222 0.404443 0.385890 0.443833 0.363923 0.065713 0.067890 -0.055640 -0.018488 -0.041428 0.021416 -0.104475 -0.036049 -0.060441 0.059177 0.129646 0.230666 0.276553 0.273775 0.205901 0.220269 0.240197 0.199763 0.054401 0.184168 0.293867 0.198403 0.245633 0.289989 0.305680 0.407464 0.445663 0.234866 0.020260 0.044481 0.037661 -0.056499 -0.036346 0.016478 -0.007024 -0.007777 -0.005650 0.089911 0.028932 0.165079 0.138733 0.190356 0.075470 0.092596 0.051749 -0.094453 0.047532 -0.053262 0.155508 0.096302 0.140967 0.194004 0.256854 0.314825 0.348520 0.119621 0.011922 -0.029877 -0.049628 0.029242 -0.017085 -0.064781 0.031320 0.024040 0.003177 -0.032732 -0.049902 0.078196 0.105638 0.134920 0.048077 0.019767 0.112989 0.135707 0.006820 0.099254 0.154239 0.104090 0.124066 0.203186 0.362030 0.245801 0.250116 0.074936 -0.006436 0.005033 -0.051686 0.060320 0.031416 -0.084675 0.001582 0.041662 0.008453 0.085947 -0.010699 0.053569 0.041105 -0.077218 0.025349 0.095968 -0.038217 -0.054192 -0.015391 0.098993 0.075806 0.101047 0.168766 0.174117 0.233384 0.143911 0.067939 0.052964 0.077482 0.071534 -0.129252 0.098797 -0.012628 -0.013170 0.003651 0.030657 -0.021745 0.005087 -0.024083 0.088622 0.054248 0.068667 -0.018238 -0.045400 -0.015436 0.039327 -0.015784 -0.074387 0.098222 -0.055805 0.016583 0.101756 0.093856 0.111185 0.116914 -0.104930 -0.042107 0.084295 0.017699 -0.052866 -0.028428 0.026075 -0.017025 0.016080 0.049191 0.030122 -0.005132 0.064401 0.007283 0.105096 0.090167 0.025116 0.075798 0.002958 -0.032817 0.019554 -0.039135 -0.021548 0.062387 0.024369 -0.018157 -0.047267 -0.088442 0.016710 0.060989 0.081564 0.057977 -0.023371 -0.068600 0.038158 0.005014 -0.077387 -0.042896 0.078170 0.013061 0.101151 0.016270 0.032575 0.013481 0.061002 0.044523 -0.002071 0.036729 0.022016 -0.056377 0.002932 0.031393 0.043300 0.003892 -0.046492 0.053466 -0.078078 0.040852 0.014805 -0.018214 -0.078797 0.025459 -0.039766 -0.069489 0.097381 -0.049559 -0.019180 0.064151 -0.029875 -0.096397 -0.048991 0.038853 -0.053365 0.040179 -0.008211 0.062230 0.061094 -0.010627 -0.002237 -0.053608 0.062272 -0.008229 -0.030764 -0.051286 -0.036100 -0.027388 0.084752 0.020079 -0.005482 -0.010398
0.004982 -0.067327 -0.033118 -0.073934 0.057095 0.061649 -0.015784 -0.061765 0.052134 0.020464 -0.000570 -0.023142 -0.103097 -0.000787 -0.018267 0.031918 0.059505 0.034847 -0.045612 -0.030696 -0.024649 -0.018516 -0.037461 0.054042 0.121348 -0.005281 -0.107271 -0.017395 0.043048 -0.007063 0.093761 -0.053963 -0.015369 0.014499 0.053675 -0.008150 -0.038237 -0.001060 0.046209 -0.046603 0.046609 0.104298 0.018742 0.048167 -0.061744 -0.010057 -0.057633 0.063984 -0.046738 -0.011537 -0.119412 -0.053993 0.071682 0.059653 -0.035804 0.035879 0.060276 -0.023513 0.037091 -0.079600 -0.016488 0.029484 -0.059328 -0.002307 -0.005260 -0.016308 0.096147 0.094313 0.076773 0.116035 0.010897 -0.040752 -0.049259 0.068945 0.034454 0.011145 0.039859 -0.083434 -0.075263 0.003536 0.026584 -0.068770 -0.006101 -0.026823 0.016971 0.074329 0.000441 -0.005996 -0.059196 0.058096 -0.073769 -0.067333 0.011936 0.039184 -0.049972 0.079774 0.016149 -0.062127 0.068888 0.102829 0.027982 -0.034582 -0.036351 -0.086805 0.024350 0.050083 0.024976 0.055923 0.052844 -0.073004 0.024072 -0.027785 -0.005327 -0.055135 -0.055919 -0.074686 0.017248 0.014672 -0.035216 0.029235 0.002261 -0.026166 0.002080 0.034230 0.033670 0.038307 -0.004703 -0.033328 0.045305 0.036453 0.039003 0.001191 0.070470 0.023425 -0.012482 -0.029309 0.009071 -0.011795 -0.101577 -0.012334 0.015768 -0.043046 -0.015025 -0.055745 -0.061663 -0.014021 0.079406 0.095329 0.142781 0.141720 0.194962 0.093521 0.152984 0.098457 0.115415 0.209328 0.151210 0.192193 0.176030 0.080409 -0.000030 -0.073642 -0.115927 0.040898 0.014359 0.015991 -0.102578 -0.018443 -0.053137 -0.052030 0.072505 -0.016114 0.032183 0.102417 0.134802 0.180200 0.370727 0.337467 0.272032 0.423717 0.434578 0.350603 0.349621 0.383410 0.312502 0.346791 0.249737 0.210793 -0.013249 -0.021395 -0.038670 -0.033918 0.035295 0.000037 0.010880 0.045582 -0.019152 0.005995 -0.001346 -0.065970 -0.099844 -0.061661 0.126285 0.238977 0.286950 0.471381 0.618282 0.608350 0.552456 0.463128 0.413235 0.369371 0.305835 0.336583 0.240295 0.226889 0.114012 0.113043 -0.025206 0.046475 0.057071 0.067203 0.037545 0.040999 -0.012582 -0.004457 -0.012005 -0.054636 0.075383 0.071939 0.175480 0.301731 0.496637 0.526630 0.529460 0.505173 0.556930 0.509694 0.518292 0.473454 0.243250 0.284458 0.364062 0.397089 0.310959 0.369082 0.203179 0.090112 0.161895 0.093711 0.100152 -0.008588 0.010370 -0.049489 0.008004 0.054204 0.031876 0.128451 0.324760 0.582635 0.657380 0.684705 0.528638 0.405436 0.457659 0.675963 0.563272 0.594566 0.494525 0.376854 0.353539 0.417681 0.568928 0.634381 0.530139 0.179239 0.077708 -0.002029 0.003777 0.038104 0.057286 0.093720 0.070340 0.144286 0.121979 0.374160 0.428657 0.719845 0.761886 0.734757 0.438190 0.254582 0.318586 0.427460 0.510934 0.576537 0.512243 0.441964 0.346858 0.479723 0.668432 0.762855 0.751561 0.448950 -0.029730 0.020867 0.021007 0.041374 -0.074407 0.064081 0.103036 0.075213 0.341508 0.408604 0.665426 0.791117 0.637669 0.504315 0.288252 0.121078 0.139431 0.407089 0.404427 0.561102 0.513227 0.400633 0.327884 0.415506 0.614250 0.677763 0.798693 0.502810 0.160385 -0.033711 -0.016155 0.002242 0.005907 -0.050205 0.096324 0.137101 0.280251 0.590333 0.779612 0.805939 0.513736 0.328422 0.090998 -0.063610 0.108326 0.221699 0.408599 0.570770 0.660662 0.521053 0.366142 0.377116 0.457553 0.485216 0.664798 0.604345 0.170381 0.087347 -0.092020 0.026705 0.037692 -0.056254 0.120667 0.094602 0.306579 0.559654 0.597042 0.703883 0.565839 0.345086 0.082556 -0.018382 0.067946 0.133499 0.364086 0.734062 0.736072 0.529096 0.252798 0.239790 0.206917 0.405912 0.609708 0.484408 0.345722 0.063370 0.045665 -0.031922 -0.085510 0.036614 0.002266 0.091981 0.266476 0.454541 0.506995 0.635731 0.552259 0.351625 0.024633 -0.038900 0.111291 0.226124 0.519601 0.688585 0.786019 0.485285 0.346017 0.265913 0.217802 0.326736 0.525555 0.417871 0.264849 0.157340 0.004140 0.113979 -0.028886 -0.034989 -0.027289 0.081984 0.328162 0.549040 0.556928 0.562331 0.540374 0.326611 0.049679 0.022791 0.260145 0.455838 0.684884 0.703462 0.658802 0.509701 0.236802 0.263810 0.185936 0.461426 0.531648 0.455755 0.301877 0.164143 0.096361 -0.017872 -0.021040 0.000918 -0.053031 0.078765 0.204365 0.424520 0.590076 0.639564 0.672494 0.472938 0.200979 0.364818 0.554711 0.719993 0.866002 0.749953 0.569309 0.523466 0.349825 0.305525 0.206970 0.518466 0.571423 0.449874 0.285839 0.107201 0.000829 0.005150 -0.014571 -0.003527 -0.090445 0.084491 0.360522 0.584779 0.695208 0.830864 0.977518 0.600160 0.452153 0.629682 0.822421 0.766249 0.687619 0.638764 0.519982 0.441598 0.443734 0.443703 0.427147 0.531101 0.527001 0.386044 0.148638 0.127240 0.088238 -0.028738 0.065379 -0.021522 0.075133 0.084809 0.110637 0.364412 0.554662 0.836024 0.889357 0.698531 0.731142 0.615871 0.679740 0.683665 0.520760 0.473925 0.357710 0.387328 0.373566 0.452037 0.656851 0.611473 0.532419 0.243784 0.151689 0.030327 -0.025263 -0.045763 0.030793 0.019487 -0.079743 -0.034239 0.095185 0.055933 0.228105 0.703372 0.852250 0.823115 0.470997 0.447972 0.479649 0.525058 0.433056 0.374823 0.410414 0.510229 0.675081 0.706207 0.826532 0.726873 0.574958 0.309868 0.130797 0.077281 0.011425 -0.033161 0.026315 -0.018663 0.078894 0.070432 0.011444 0.016930 0.146298 0.292225 0.484344 0.416398 0.323461 0.161988 0.194661 0.281701 0.369489 0.419881 0.415536 0.454615 0.524358 0.631271 0.545409 0.494592 0.393298 0.176777 0.135354 0.102925 0.094469 0.033348 -0.112641 0.055338 0.049473 0.044161 0.018617 -0.066354 -0.035758 0.038157 0.248838 0.205004 0.158501 0.229682 0.131501 0.246345 0.306392 0.367614 0.343595 0.423784 0.461413 0.447544 0.215671 0.294906 0.157593 0.108255 0.099222 0.007961 -0.059959 -0.030138 0.016664 -0.111365 0.005109 0.048556 0.038096 0.001236 0.004880 -0.056748 -0.017739 0.008240 0.070198 -0.009877 -0.005048 0.174220 0.109619 0.135567 0.121129 0.221999 0.358916 0.184713 0.207627 0.165057 0.100653 0.006856 -0.003766 -0.040064 -0.013402 0.075874 0.014733 0.043885 0.107619 0.027403 -0.006774 -0.018540 0.003639 -0.015793 -0.022624 -0.039506 -0.098262 -0.019114 0.091405 0.005657 0.031298 0.118758 0.170125 0.148143 0.105895 0.180597 0.109433 -0.011703 0.132310 0.011687 -0.089060 0.015451 -0.073090 -0.014598 0.032698 -0.038300 0.073888 0.081076 -0.015940 -0.007668 0.067077 -0.067937 0.033005 -0.019646 -0.050378 0.007711 -0.038025 -0.005710 0.062936 0.088077 0.094367 0.008336 0.069509 0.142717 -0.027493 -0.097584 0.022293 -0.029433 -0.032499 -0.025912 0.061857 0.019084 -0.069541 -0.000973 -0.001436 0.041271 0.069338 -0.041132 0.040634 -0.020855 0.020486 -0.007744 0.019896 0.039808 -0.124316 0.135614 -0.080555 -0.005171 0.103590 0.037467 0.002861 0.020566 0.029954 0.021654 -0.001077 -0.000289 -0.016650 -0.045456 0.018929 0.075393 -0.050799 -0.099713 0.013375 0.035645 0.025976 -0.000495 0.038465 -0.054486 0.000803 -0.051765 -0.040051 -0.024656 0.039540 0.010368 -0.004125 -0.046753 -0.072682 0.040545 -0.007125 -0.003171 0.041286 0.007993 -0.017217 -0.058904 0.093820 0.027929 -0.023632 0.040352 0.087326 0.058272 -0.061356 -0.061871 -0.052777 -0.060641 -0.029594 0.021978 -0.100470 0.068009 0.051710 0.006548 0.097769 0.059738 0.059129 -0.028151 0.015942 -0.070780 0.036118 0.065084 0.032460 -0.035124 0.038309 0.001821 -0.012493 -0.084517 0.058003 0.021013
-0.008833 0.007209 0.043210 0.030343 0.044743 -0.035952 -0.033760 -0.021435 -0.054326 0.082853 -0.075905 -0.054581 0.004688 0.009698 0.065418 -0.025112 -0.012482 -0.077434 0.019347 0.036047 0.043519 -0.044406 0.035692 0.046427 0.076512 0.061527 0.061434 0.003607 -0.069300 -0.052027 -0.036163 -0.005388 0.035502 -0.010444 -0.042885 -0.091067 0.029780 0.015917 -0.045089 0.025439 0.028189 -0.027563 -0.106910 0.049585 -0.018631 0.021513 -0.030560 -0.074204 0.063867 0.052660 0.104446 0.032470 0.018778 -0.014111 0.024146 -0.005876 -0.003814 -0.001675 0.045787 0.045627 -0.082331 0.080412 -0.057917 0.019182 -0.025981 0.007210 -0.056165 -0.041348 -0.043424 0.023353 0.003189 -0.001885 0.053388 -0.063959 0.014218 -0.014708 0.048722 0.001653 -0.009095 -0.057059 0.022548 0.048912 0.122216 -0.068372 -0.081340 -0.062746 0.074589 -0.102989 0.076185 0.029471 0.047377 0.105042 0.065311 -0.045866 0.031039 -0.077977 -0.077862 0.009996 0.054545 -0.039002 -0.055822 0.005371 0.027291 0.000216 -0.060726 -0.074186 -0.021107 -0.018125 -0.050741 0.043140 0.046582 -0.073828 -0.012768 -0.053879 -0.046095 -0.049952 -0.056236 -0.154546 0.125710 0.010216 -0.022310 -0.065363 0.015728 -0.010282 0.020390 0.045233 0.043376 0.054812 0.035951 0.064245 0.020442 0.012305 -0.008502 -0.006776 -0.030513 -0.037078 0.033332 0.032922 -0.005980 0.027230 -0.037236 -0.011443 -0.056197 -0.027309 -0.023898 0.091922 0.094803 0.084122 0.184122 0.069227 0.076194 0.020985 0.106286 0.151648 0.165852 0.160514 0.136510 0.181884 0.093070 0.024420 -0.036228 0.073725 0.079805 0.041473 -0.041478 0.059505 0.027831 -0.007984 -0.038644 -0.001690 -0.027469 -0.018417 -0.040768 0.080345 0.232891 0.224896 0.228539 0.194409 0.270617 0.372682 0.437732 0.432000 0.430023 0.315672 0.342125 0.318337 0.322021 0.212151 0.181053 0.193556 0.087157 0.103597 -0.015882 -0.034150 0.015154 -0.001332 -0.014199 0.064712 0.001672 -0.089928 0.070666 0.115159 0.233424 0.390974 0.340738 0.343582 0.499130 0.584821 0.767243 0.701337 0.466309 0.344135 0.444518 0.412645 0.422672 0.482080 0.413537 0.305371 0.132386 0.148703 0.016959 -0.011186 0.021324 0.044165 0.035115 -0.021869 -0.000076 0.045333 0.088401 0.218191 0.178464 0.344747 0.382165 0.409263 0.509652 0.704286 0.888300 0.804334 0.606971 0.543006 0.398815 0.442345 0.499750 0.581701 0.585258 0.456619 0.289648 0.128154 0.128871 -0.015313 -0.003364 0.028588 0.006896 -0.140549 -0.011217 0.034240 0.107276 0.161137 0.315406 0.366053 0.482422 0.527917 0.629080 0.839623 0.807752 0.798322 0.661789 0.587325 0.411192 0.335593 0.403415 0.469784 0.486548 0.736604 0.563796 0.265293 0.173621 0.059321 0.063081 -0.065211 0.024763 -0.093331 -0.029728 -0.001321 0.117442 0.287744 0.707991 0.779024 0.852636 0.799339 0.758719 0.779922 0.694815 0.679160 0.655799 0.702519 0.494704 0.376377 0.423580 0.509669 0.640998 0.776537 0.687743 0.428668 0.254210 0.134566 0.083497 0.092920 -0.004179 -0.014155 -0.035445 -0.103866 0.137016 0.490812 0.917328 1.112576 0.818344 0.797406 0.558452 0.702618 0.693950 0.652312 0.588516 0.655886 0.531771 0.444094 0.527657 0.544125 0.701928 0.914780 0.970767 0.611050 0.394427 0.077283 0.041104 -0.048205 -0.044397 0.005344 0.006364 0.134949 0.082935 0.453355 1.023954 0.999170 0.636324 0.555273 0.509114 0.589882 0.665192 0.754954 0.694363 0.925494 0.562258 0.549180 0.591870 0.507379 0.601182 0.857321 0.861831 0.727764 0.400884 0.129142 -0.005519 -0.029140 -0.032624 -0.004431 0.056489 0.000455 0.216554 0.477544 0.954670 0.895875 0.605119 0.494300 0.281840 0.406464 0.481132 0.557557 0.746315 1.004484 0.660397 0.514675 0.509084 0.498621 0.407714 0.553275 0.723688 0.533260 0.472628 0.057581 -0.056253 -0.012115 0.001212 -0.055446 0.053576 0.030870 0.299861 0.381439 0.901715 0.823536 0.600540 0.322431 0.193915 0.211152 0.370249 0.567185 0.716791 0.835720 0.553711 0.521680 0.384854 0.445546 0.270424 0.414284 0.686319 0.642689 0.406789 0.156154 -0.056425 -0.058708 -0.017398 -0.031588 0.005929 0.052706 0.379575 0.418632 0.834721 0.769314 0.467130 0.426972 0.212658 0.279282 0.409144 0.740333 0.718445 0.725233 0.538258 0.500129 0.478620 0.430101 0.284898 0.491508 0.738461 0.531476 0.312283 0.092026 0.012462 -0.047398 -0.042372 0.016894 0.062459 0.025884 0.298108 0.632551 0.725177 0.813634 0.605231 0.507757 0.423234 0.394877 0.656654 0.800620 0.699789 0.646028 0.545264 0.376480 0.352505 0.504398 0.463773 0.622788 0.714930 0.616022 0.373901 0.165901 -0.080944 -0.074373 -0.060540 0.069293 -0.026993 -0.028320 0.286003 0.494785 0.705726 0.722683 0.698405 0.689866 0.569614 0.598542 0.655277 0.768465 0.697859 0.602315 0.348377 0.358705 0.450435 0.598582 0.741833 0.939767 0.815883 0.619849 0.231694 0.098912 -0.028141 0.035352 0.109101 -0.036609 -0.073524 0.022151 0.239492 0.424697 0.639362 0.570102 0.682653 0.798832 0.858927 0.705575 0.577073 0.620360 0.580122 0.506520 0.480632 0.494778 0.428849 0.730868 0.894004 0.977540 0.858853 0.395609 0.057528 0.000136 -0.065939 -0.011688 0.037571 0.043839 -0.022937 0.127745 0.185410 0.156235 0.329327 0.501089 0.744923 0.712507 0.811495 0.584012 0.548295 0.460991 0.546928 0.444993 0.490849 0.510712 0.610023 0.727428 0.793673 0.721422 0.492798 0.204693 0.159085 0.083967 0.017120 -0.012116 -0.071786 0.003643 -0.006914 0.128136 -0.011922 0.112350 0.221736 0.392631 0.578275 0.622792 0.707896 0.627266 0.459310 0.314324 0.217809 0.380552 0.535757 0.528251 0.568568 0.597919 0.689605 0.545177 0.320020 0.174826 0.083358 0.100395 0.040615 0.011088 0.038110 -0.089022 0.042720 0.029855 0.123051 0.033979 0.114375 0.165046 0.451801 0.505522 0.465366 0.326399 0.229383 0.133350 0.208327 0.232269 0.305193 0.511712 0.460187 0.392058 0.444666 0.343346 0.234303 0.052941 -0.000844 0.027689 0.047064 0.037533 0.022374 -0.006314 -0.028892 -0.058882 -0.017199 0.062942 0.011219 0.194427 0.442081 0.472815 0.317547 0.205073 0.223788 0.090766 0.233659 0.304815 0.244182 0.269410 0.331638 0.297286 0.214956 0.195146 -0.009923 0.074118 0.128789 -0.013525 0.034846 0.075369 0.048840 0.016947 -0.022101 -0.061661 0.070532 -0.032275 0.090966 0.201534 0.214166 0.244444 0.187537 0.056284 0.114618 0.064045 0.142806 0.142622 0.223718 0.099828 0.210976 0.168306 0.062008 0.133045 0.016337 -0.014954 0.032237 -0.052090 -0.033675 -0.047676 0.091066 -0.017052 -0.049877 0.036160 0.045072 0.063044 0.079959 0.104081 0.033844 0.125743 0.044443 0.007866 0.006273 -0.058513 -0.034305 0.006728 0.106429 0.027885 0.045225 0.014158 0.071038 -0.041526 0.042592 0.032683 -0.037941 0.005672 0.017135 -0.021254 0.007393 -0.024597 -0.020321 -0.052947 0.030409 -0.064714 -0.017763 0.012968 -0.000249 0.032653 0.104560 0.016997 -0.006774 0.035202 -0.034503 -0.094121 0.018085 0.077821 -0.041000 -0.044678 -0.038835 0.077291 0.051143 0.043519 0.051142 -0.074479 -0.019071 -0.021105 -0.028877 -0.027056 -0.036113 0.084726 0.008569 0.063210 0.007699 -0.051664 0.058797 -0.007087 0.078477 -0.010721 0.046898 -0.010420 -0.034091 -0.058254 0.067706 0.008388 -0.006363 0.075900 -0.060554 0.056933 0.036082 0.004169 0.032798 0.054905 -0.024822 -0.038068 -0.034072 -0.077076 0.026115 0.028092 0.007330 -0.027646 -0.013755 -0.035700 -0.032582 0.045700 0.007938 -0.112472 0.086491 -0.026360 0.022695 -0.010676 -0.067229 0.055277 0.010211 -0.018302 0.024336 -0.098237 0.094959 -0.048250 0.041743 0.044125 0.019300 -0.091748
0.105900 0.020080 -0.051782 0.048707 -0.066809 0.014928 -0.067728 -0.018858 0.019854 0.013422 -0.025398 0.058648 0.013856 -0.031441 0.072595 0.009027 -0.131217 0.031811 0.006844 0.036668 0.061394 -0.010436 0.053595 0.047173 0.076166 -0.044665 0.000580 -0.110585 -0.009463 0.014266 -0.057439 0.051647 -0.044880 -0.052620 0.065279 0.039442 0.022272 0.036155 0.061623 -0.012677 -0.051963 -0.023328 -0.055981 0.013362 -0.017063 -0.060773 0.016975 0.031539 0.099500 -0.001473 -0.044709 -0.012564 -0.046485 -0.027378 0.007819 0.019263 0.139716 0.021416 -0.030241 -0.022512 -0.007350 0.031102 -0.012039 0.057037 -0.074123 -0.023610 -0.023383 0.042280 0.044900 0.022111 -0.004705 -0.003783 0.014827 -0.009336 0.052322 0.009493 0.041233 -0.041858 -0.023026 -0.030511 0.014394 -0.021698 0.015475 0.019486 -0.022427 -0.021265 -0.073791 -0.004700 0.074530 -0.022948 -0.021165 -0.041254 -0.041377 -0.106147 -0.004434 -0.045677 0.040886 -0.023993 -0.041189 -0.095858 0.041974 0.114521 0.042901 0.041686 -0.006427 -0.085787 0.005218 0.033073 0.007446 0.011743 -0.082957 -0.060694 -0.071627 -0.057519 -0.032808 0.007502 -0.014678 -0.004358 -0.009656 -0.020613 -0.054040 -0.071576 0.036699 0.013128 -0.074880 -0.049774 -0.067322 -0.128122 0.017874 0.035250 -0.053472 -0.053706 -0.115988 -0.079653 -0.023464 0.002044 0.032283 -0.024454 0.041239 0.043183 0.046790 -0.050977 0.017077 -0.034162 -0.010430 0.032997 0.074891 -0.065028 -0.065268 -0.132689 -0.099959 -0.091182 -0.092221 -0.130521 -0.004693 -0.109626 -0.030254 -0.032026 -0.035082 -0.010579 -0.035178 -0.068887 -0.078749 0.045075 -0.013051 0.018693 0.003008 -0.113295 0.039927 0.024427 0.055831 -0.008464 -0.021186 0.054245 -0.012827 -0.046413 -0.116875 -0.118394 -0.170181 -0.217431 -0.200500 -0.180497 -0.351030 -0.257281 -0.217379 -0.103763 -0.110956 -0.048658 -0.085185 -0.090869 -0.159733 0.019133 0.028834 0.005006 -0.097256 -0.054756 0.048914 -0.061673 0.087686 -0.054791 -0.003832 -0.062218 -0.037635 -0.061795 -0.155402 -0.292004 -0.260567 -0.322381 -0.374724 -0.356969 -0.352918 -0.480268 -0.367674 -0.305857 -0.121114 -0.088651 -0.185101 -0.176414 -0.107188 -0.123708 -0.005006 -0.014383 -0.028546 -0.101946 0.040773 0.041998 0.086093 0.139553 0.112911 -0.074012 -0.123782 -0.312965 -0.450301 -0.364304 -0.355140 -0.424734 -0.360161 -0.392438 -0.373463 -0.383422 -0.320362 -0.254634 -0.267966 -0.164863 -0.280812 -0.173346 -0.313240 -0.104707 -0.112446 0.112530 0.011747 -0.028748 0.039324 -0.011716 -0.090718 -0.020669 0.017301 -0.105593 -0.280561 -0.358710 -0.349987 -0.427393 -0.316700 -0.431937 -0.375710 -0.265401 -0.323764 -0.283759 -0.277840 -0.286512 -0.217241 -0.274397 -0.283726 -0.297696 -0.346728 -0.248312 -0.045846 0.028904 -0.015779 0.057526 0.069791 0.044052 -0.051190 0.008839 0.050965 -0.102833 -0.429371 -0.593141 -0.463109 -0.467257 -0.364927 -0.246678 -0.368631 -0.345930 -0.356733 -0.290064 -0.194547 -0.316413 -0.188940 -0.145371 -0.135867 -0.195260 -0.297061 -0.353853 -0.147582 -0.161435 0.012711 -0.017403 0.038930 -0.016057 -0.026584 0.042539 -0.083416 -0.301685 -0.561689 -0.556110 -0.305995 -0.296337 -0.479364 -0.347266 -0.181488 -0.178428 -0.340407 -0.367696 -0.263085 -0.201982 -0.152777 -0.059361 -0.004319 -0.130208 -0.378739 -0.461137 -0.151432 0.048781 -0.089653 -0.000660 -0.043292 0.031482 0.005783 0.059349 -0.096827 -0.323722 -0.548236 -0.483470 -0.284712 -0.470416 -0.467201 -0.249185 -0.196689 -0.119087 -0.299908 -0.336102 -0.208210 -0.169281 -0.040079 -0.104001 -0.000159 -0.117920 -0.505678 -0.485638 -0.141293 -0.050553 -0.005378 0.065042 -0.004679 -0.024506 0.102185 0.220515 -0.055597 -0.358500 -0.551542 -0.503779 -0.445727 -0.455086 -0.372646 -0.316475 -0.213887 -0.259808 -0.454974 -0.386902 -0.250758 -0.271753 -0.230600 -0.265489 -0.203606 -0.205803 -0.515391 -0.453032 -0.107531 -0.015903 0.001197 -0.139411 -0.012979 -0.024661 -0.047203 0.198775 -0.017400 -0.429918 -0.453199 -0.529840 -0.604821 -0.504217 -0.366029 -0.279402 -0.247162 -0.447496 -0.498000 -0.427370 -0.255172 -0.304870 -0.280723 -0.349571 -0.390554 -0.377654 -0.563882 -0.512146 -0.080889 0.004910 -0.070646 0.103245 0.057811 -0.038348 0.088396 0.102270 -0.009576 -0.437820 -0.361813 -0.370599 -0.574542 -0.531336 -0.384322 -0.359634 -0.470639 -0.457466 -0.458864 -0.319307 -0.363244 -0.353762 -0.470147 -0.437422 -0.546754 -0.524914 -0.672436 -0.597759 -0.107863 -0.122346 -0.096526 -0.053477 -0.010673 0.035692 0.028291 -0.025214 -0.175675 -0.480893 -0.323084 -0.291234 -0.434926 -0.466292 -0.377468 -0.318647 -0.357871 -0.342818 -0.401800 -0.362956 -0.545540 -0.479188 -0.503681 -0.548516 -0.507632 -0.445569 -0.527322 -0.478245 -0.279645 -0.115643 -0.043475 -0.033890 -0.052048 -0.035479 -0.015148 -0.083868 -0.241241 -0.391280 -0.395953 -0.309480 -0.512864 -0.601113 -0.516167 -0.399754 -0.362070 -0.352090 -0.445908 -0.502343 -0.547497 -0.635059 -0.478682 -0.506947 -0.404031 -0.386027 -0.463504 -0.275896 -0.291169 -0.122178 0.020536 0.058741 -0.042559 -0.042936 -0.029655 0.049546 -0.157688 -0.334256 -0.348681 -0.287606 -0.435323 -0.567425 -0.491976 -0.239897 -0.188174 -0.275196 -0.402216 -0.441735 -0.368994 -0.455923 -0.556111 -0.658953 -0.490240 -0.429973 -0.378372 -0.284151 -0.131521 -0.194627 -0.060645 -0.003997 0.000176 -0.047378 -0.063492 -0.014610 -0.081025 -0.162434 -0.180395 -0.336053 -0.463911 -0.385453 -0.347658 -0.220421 -0.271748 -0.231070 -0.219420 -0.226215 -0.221510 -0.388677 -0.545799 -0.549666 -0.409665 -0.198870 -0.217856 -0.184460 -0.110893 0.013472 0.021788 0.022017 -0.002374 -0.062269 0.100348 0.003984 -0.031280 0.020774 -0.051091 -0.171553 -0.272753 -0.181540 -0.131816 -0.232631 -0.127054 -0.233992 -0.130447 -0.052673 -0.148900 -0.347054 -0.394921 -0.393489 -0.310459 0.042299 -0.116335 -0.135619 -0.074893 -0.045585 -0.066709 0.082071 0.053372 -0.025570 0.004165 0.017881 0.012025 0.026458 -0.021793 -0.025929 -0.171231 -0.047633 -0.180890 -0.161329 -0.200206 -0.168163 -0.124164 -0.233400 -0.333646 -0.309181 -0.410660 -0.238289 -0.022503 -0.029415 -0.020566 -0.111142 -0.006737 -0.025239 0.064408 0.031078 -0.025892 0.001570 0.014772 -0.065136 0.035136 0.002379 -0.010346 -0.006930 -0.146692 -0.070756 -0.061025 -0.035268 0.050157 -0.168078 -0.108844 -0.218983 -0.192308 -0.125575 -0.093027 -0.118075 0.020762 0.028453 0.008533 0.044982 -0.018188 0.023200 0.105089 0.034669 0.060268 -0.009443 -0.043350 0.009423 0.000615 0.108112 -0.008816 0.109888 -0.159133 -0.072180 -0.061334 -0.017400 -0.135123 -0.097472 -0.160453 0.021486 -0.115230 0.011989 -0.001377 0.005672 -0.081358 0.029526 0.058835 0.006971 -0.006458 -0.031722 0.001198 -0.002907 0.017206 0.000641 0.070694 -0.003315 0.004648 0.087035 -0.033818 -0.054090 -0.040375 -0.068186 -0.117127 -0.082897 -0.045721 -0.074497 0.042870 -0.094596 0.088494 -0.018127 -0.064099 -0.011684 -0.025000 0.019598 -0.051011 0.017640 -0.019989 -0.059027 0.014762 -0.054689 0.045934 -0.079781 0.000509 0.078873 -0.006493 0.022602 -0.007872 -0.083024 -0.007286 -0.019426 0.055118 0.030984 -0.032078 0.062560 0.007835 0.077643 -0.059121 0.054963 0.026142 0.034590 -0.042003 -0.076578 0.018684 0.040922 0.020289 -0.018703 0.098772 0.006070 -0.007954 0.006567 0.023529 -0.004767 -0.065723 -0.018113 0.082350 -0.010359 -0.055622 0.022154 0.020927 0.035429 0.014724 0.025144 -0.018399 0.016306 -0.040434 -0.014830 0.060331 0.005183 0.036669 0.027900 -0.048082 0.021309 0.016909 -0.025385 -0.032367 0.050458 0.082301 -0.024088 0.033972 0.004997 0.011122 -0.036207 0.071765 0.033281 0.058392 -0.034355 0.020815 -0.031809 -0.051146 0.056652 0.044828 0.029144 0.150670 0.015451 0.085336 -0.123943 -0.008904 0.056719 -0.006990 -0.014337 -0.008882 0.021121 -0.063631 -0.005334
0.057445 0.027545 0.020441 -0.001323 -0.027440 -0.023801 0.062912 -0.011210 -0.012764 -0.054362 -0.034847 -0.033334 -0.034690 0.009424 -0.018160 0.028351 0.027580 0.000977 -0.035664 0.057590 -0.067319 -0.037843 0.031770 -0.057081 -0.023455 0.012367 0.000478 0.026085 -0.010782 0.012171 -0.087203 -0.021385 0.099604 -0.031443 -0.012722 -0.005098 0.077410 -0.055523 -0.081622 -0.077843 0.081946 0.009578 0.010953 -0.029275 0.046714 0.057564 -0.058954 0.043618 -0.050573 0.112179 0.047974 -0.013430 0.001410 0.038610 -0.023480 0.000934 0.068402 -0.028878 -0.007104 0.058877 0.099894 -0.015650 -0.056538 0.066841 -0.003999 0.051840 -0.013369 -0.024342 -0.036200 0.015614 0.008751 0.035127 0.009422 -0.083474 0.045198 0.057400 -0.029371 0.080019 -0.051801 0.002786 -0.066588 -0.060055 0.025964 0.026512 0.042344 -0.042367 -0.042109 0.009062 -0.030590 -0.022554 -0.027091 0.053987 -0.071480 -0.049919 -0.094028 -0.093884 0.117879 0.067390 0.001254 0.026683 0.052263 -0.019120 0.127472 -0.017938 0.023573 -0.105974 -0.007154 -0.051223 -0.023123 0.033935 0.018103 -0.095431 -0.012922 0.095136 -0.026939 0.004067 0.022486 -0.042957 -0.054124 -0.027368 0.021605 -0.110740 0.003928 -0.143454 -0.070049 -0.058424 0.019032 -0.009654 -0.017325 -0.023173 -0.006218 0.107165 -0.050372 0.000834 0.065525 0.020935 -0.084342 0.007880 -0.032745 -0.078740 0.012096 0.052829 -0.083825 -0.029063 0.002102 0.034508 -0.037188 -0.149610 -0.149406 -0.236876 -0.139892 -0.165893 -0.050055 0.013383 -0.143427 -0.120878 -0.068702 -0.015616 -0.128255 -0.102554 -0.065115 -0.070724 0.014973 -0.030716 -0.054433 -0.030666 0.010758 -0.083591 0.012141 0.050440 -0.036321 0.038448 0.057074 -0.046029 -0.022276 -0.161584 -0.244874 -0.320846 -0.266194 -0.327344 -0.393901 -0.384532 -0.133201 -0.140480 -0.286116 -0.217804 -0.245811 -0.165450 -0.165518 -0.126927 -0.079480 -0.086600 -0.006760 0.014153 0.036009 -0.049007 0.008663 0.049792 -0.030078 0.075476 -0.002243 -0.011572 -0.142107 -0.221487 -0.359053 -0.432611 -0.706545 -0.579989 -0.511972 -0.482662 -0.270567 -0.132293 -0.157707 -0.310413 -0.176558 -0.291106 -0.208354 -0.094512 -0.096164 -0.124531 -0.071982 -0.066378 0.056112 0.070197 -0.010928 -0.045413 0.038793 -0.014173 0.014392 0.021849 -0.131198 -0.394675 -0.410877 -0.573441 -0.673348 -0.648241 -0.496616 -0.385355 -0.413419 -0.240214 -0.106099 -0.322283 -0.360503 -0.263807 -0.146612 -0.167298 -0.168871 -0.227586 -0.143424 -0.071416 -0.010290 0.066660 -0.020371 0.091251 -0.087959 -0.035568 -0.032908 -0.091286 -0.308538 -0.486903 -0.628361 -0.669726 -0.491457 -0.403830 -0.467233 -0.496810 -0.417969 -0.375464 -0.093854 -0.161438 -0.302013 -0.272694 -0.344883 -0.501301 -0.380081 -0.309703 -0.201992 0.027468 -0.035352 0.054608 -0.013667 0.004553 0.022952 0.064865 -0.021646 -0.162458 -0.409229 -0.585294 -0.579518 -0.516885 -0.269530 -0.230642 -0.161754 -0.285840 -0.318757 -0.125803 0.038841 -0.142149 -0.258976 -0.428725 -0.510033 -0.546186 -0.524925 -0.422391 -0.164940 -0.053788 0.044104 0.034189 0.100436 0.016932 0.058502 -0.075761 0.091184 -0.163493 -0.441317 -0.651345 -0.496363 -0.325218 -0.096987 -0.213819 -0.144556 -0.120401 -0.148297 -0.205734 -0.172997 -0.211754 -0.406913 -0.441508 -0.567393 -0.619659 -0.574130 -0.595664 -0.402033 -0.179438 -0.051209 -0.055637 0.094418 0.073729 0.064903 0.022821 0.063511 -0.053454 -0.554111 -0.740677 -0.270783 -0.091454 -0.051570 -0.002498 -0.114447 -0.142378 -0.191149 -0.393593 -0.355962 -0.328758 -0.525943 -0.493503 -0.453704 -0.352964 -0.371830 -0.479847 -0.371947 -0.170875 -0.099364 0.000668 -0.022584 -0.066402 0.053370 0.073965 0.130525 -0.108577 -0.683460 -0.676199 -0.245385 -0.049963 0.038090 0.066558 -0.028996 -0.216846 -0.337916 -0.514351 -0.497550 -0.415794 -0.512982 -0.383887 -0.217713 -0.149692 -0.184130 -0.280412 -0.398310 -0.239538 -0.050654 0.001104 -0.005201 -0.055855 0.024410 0.113516 -0.031661 -0.292278 -0.672520 -0.622829 -0.366399 -0.091875 -0.139696 0.011970 -0.175811 -0.220583 -0.416969 -0.642951 -0.615514 -0.374423 -0.344816 -0.314290 -0.263162 0.013929 -0.125355 -0.291437 -0.504606 -0.337970 0.001665 0.014031 0.035955 -0.016096 0.012990 -0.018841 -0.034226 -0.237505 -0.745932 -0.596270 -0.346996 -0.184115 -0.130258 -0.189296 -0.098948 -0.353850 -0.505857 -0.663330 -0.424682 -0.327737 -0.349948 -0.307847 -0.206274 -0.060624 -0.257258 -0.340359 -0.368651 -0.209750 -0.003570 -0.028715 -0.030422 0.031307 -0.018047 -0.053082 -0.203401 -0.027085 -0.350419 -0.565698 -0.480045 -0.210920 -0.277993 -0.265749 -0.288271 -0.520768 -0.480288 -0.534144 -0.189952 0.054250 -0.295894 -0.348004 -0.140442 -0.211885 -0.335903 -0.352058 -0.409335 -0.325624 -0.089610 -0.057587 0.095643 -0.049926 0.101706 -0.086705 -0.257623 -0.040657 -0.218933 -0.335541 -0.580291 -0.530215 -0.458575 -0.499536 -0.529756 -0.551291 -0.501316 -0.427704 -0.165568 -0.052515 -0.247866 -0.363367 -0.358184 -0.474198 -0.414724 -0.241697 -0.277094 -0.169839 -0.025925 -0.117589 0.036641 0.021581 0.010546 -0.109233 -0.129085 0.010732 -0.124375 -0.365699 -0.652620 -0.683555 -0.822018 -0.718378 -0.539103 -0.501522 -0.396335 -0.308371 -0.187743 -0.263737 -0.186964 -0.309951 -0.529702 -0.543095 -0.408480 -0.246433 -0.083004 -0.049116 -0.022788 -0.079089 -0.055777 0.043412 0.056899 0.010280 0.034901 -0.067910 -0.115676 -0.302958 -0.650140 -0.710954 -0.828376 -0.666335 -0.618528 -0.440279 -0.397381 -0.391247 -0.255614 -0.347758 -0.374229 -0.375162 -0.455636 -0.489882 -0.234659 -0.093918 -0.115274 -0.000363 -0.011887 0.045185 0.049702 0.014070 0.041974 -0.074540 -0.018485 0.027814 -0.239365 -0.385472 -0.391854 -0.466788 -0.545333 -0.576166 -0.496334 -0.289007 -0.210233 -0.254912 -0.192068 -0.192868 -0.252439 -0.346049 -0.556074 -0.322302 -0.188910 -0.123473 -0.076320 0.000065 -0.059633 -0.076558 -0.013322 0.006571 0.006868 0.024617 -0.054045 -0.053531 -0.094592 -0.179742 -0.220833 -0.303270 -0.372897 -0.242168 -0.171779 -0.069582 0.022996 -0.048514 -0.180209 -0.154847 -0.223333 -0.161428 -0.248507 -0.217293 -0.184056 -0.088167 -0.046012 -0.025840 -0.012769 0.063079 -0.011433 0.010255 -0.031006 0.011454 -0.038905 -0.020089 -0.048630 -0.075895 -0.095212 -0.278919 -0.339915 -0.201075 -0.144752 -0.093428 0.029584 -0.167881 -0.000337 -0.251891 -0.208626 -0.170307 -0.216191 -0.067971 -0.039216 -0.013096 0.042410 0.026192 0.089924 -0.069296 -0.020581 -0.024186 0.058126 0.079154 0.005385 0.016984 0.013418 -0.054746 -0.088821 -0.078079 -0.039573 -0.035586 -0.082245 -0.002825 -0.060823 -0.079003 -0.002380 -0.107059 -0.179537 -0.054523 -0.042714 -0.076486 -0.071768 0.003296 -0.027783 0.009536 0.064398 -0.045210 0.019655 -0.033688 0.024243 0.006716 0.038353 -0.071746 0.028019 -0.084157 0.087533 0.020968 -0.001189 -0.014844 -0.085265 -0.110324 0.004032 0.008281 0.000810 -0.004332 0.019882 -0.123038 -0.166984 -0.071596 0.028685 0.021510 0.047403 -0.068026 -0.013916 -0.063649 -0.043278 -0.017618 0.104401 -0.051319 0.005042 -0.032356 -0.050735 -0.019584 0.025285 -0.025305 0.025271 -0.018999 -0.065632 -0.003535 -0.091000 -0.024571 -0.006368 0.008716 -0.043690 0.022904 0.019327 -0.018389 0.000624 0.062424 -0.040406 0.036172 -0.058295 0.040602 0.033154 0.006900 -0.047372 -0.020280 0.046773 -0.004140 0.003368 0.057908 -0.003697 0.065368 0.000822 0.089927 -0.022441 0.111479 0.012855 0.058628 0.002740 -0.014494 -0.086964 -0.026187 -0.021801 -0.046094 0.040903 -0.034165 -0.016086 -0.067566 0.076289 0.024327 0.071848 -0.057790 -0.052650 0.031905 -0.023493 -0.063786 0.041536 0.103661 0.020327 0.064064 -0.064068 -0.070208 0.022386 0.051157 -0.092264 0.015495 -0.034073 0.051094 -0.005510 0.061611 0.045866 -0.045921 -0.033350 -0.003731 -0.001636 -0.014363 0.012664 -0.026357
0.041212 -0.066196 0.027843 -0.123086 -0.067719 -0.024978 0.009966 -0.038170 0.035874 0.040562 -0.017658 -0.024164 -0.036028 0.048265 0.032299 0.019298 0.008848 0.045502 -0.005151 0.032949 -0.011847 -0.085936 0.036347 -0.028333 0.012599 -0.055130 0.005458 -0.001563 0.012056 0.053248 0.037833 -0.090856 0.069812 -0.080567 -0.035238 -0.033839 -0.013401 -0.056653 -0.054420 0.048823 0.068224 -0.018725 -0.049657 0.036923 0.075191 0.007286 -0.008000 -0.036708 0.020448 -0.027713 0.091509 0.029624 0.040848 0.065533 0.009215 0.008249 -0.071652 -0.047306 0.010299 -0.044935 -0.084699 -0.019444 0.015701 -0.004212 0.088770 0.019583 0.039286 0.013875 -0.021119 -0.050598 -0.040107 0.006227 -0.011537 -0.073599 -0.063667 -0.028310 0.015818 -0.063225 -0.013491 -0.147982 0.063345 0.025395 -0.001717 0.039794 -0.087474 -0.009132 0.028109 0.033625 -0.040635 0.003773 -0.047710 0.017532 0.048230 -0.073509 0.069091 -0.017542 0.024430 0.050191 -0.017711 0.046060 -0.023821 -0.041101 0.067476 -0.025460 -0.015616 0.032738 -0.036972 -0.027398 0.042341 -0.032756 -0.061268 -0.041241 0.043235 -0.076639 0.017489 0.016482 0.052377 0.011432 0.023053 0.005321 0.040406 0.013729 -0.013929 0.064439 0.092612 0.116486 -0.014827 0.039536 0.049456 0.075296 -0.008774 0.008977 0.067139 0.030318 0.071072 0.091070 0.029561 -0.066748 -0.030408 0.066225 0.060491 0.065623 0.028279 -0.011789 -0.063056 0.007448 0.059131 0.034141 0.118316 0.083424 0.079094 0.101032 0.051647 0.106448 0.171171 0.272401 0.171403 0.086377 0.094431 0.017890 0.072022 -0.007313 0.047894 0.042193 -0.019702 -0.104590 -0.005428 -0.080807 0.096896 0.062901 0.088448 -0.048053 0.029341 0.024322 0.023360 0.090940 0.173502 0.205295 0.205262 0.201538 0.270066 0.266524 0.207750 0.144075 0.237824 0.188268 0.190291 -0.012403 0.002557 0.011093 -0.108850 -0.096091 -0.018324 -0.006320 0.001127 0.079466 -0.009291 0.044761 -0.006162 0.026665 0.001408 -0.025627 0.040723 0.173610 0.269380 0.284628 0.311776 0.346919 0.371664 0.420951 0.364782 0.349941 0.232290 0.220355 0.172701 0.245119 0.112407 0.002780 -0.071102 -0.103912 0.017714 0.005697 0.030818 -0.025430 -0.004655 -0.071839 -0.018101 -0.023929 -0.012604 0.044178 0.223155 0.361001 0.431526 0.477534 0.555788 0.513611 0.431301 0.411655 0.411075 0.414708 0.282301 0.252722 0.212199 0.253279 0.275295 0.273572 0.111460 -0.010762 0.044021 0.071579 -0.070447 0.031483 0.085848 0.027293 0.035358 0.024240 -0.063804 0.026550 0.519179 0.510227 0.566992 0.570755 0.488463 0.510144 0.486551 0.542794 0.554675 0.499947 0.457426 0.318429 0.297157 0.389138 0.486194 0.398423 0.322249 0.084363 0.088220 0.076082 -0.020993 0.012497 -0.007318 -0.023288 -0.018996 0.017034 0.026567 0.227802 0.635606 0.749253 0.621539 0.526289 0.506067 0.522009 0.607379 0.509725 0.631405 0.612506 0.534688 0.560164 0.682728 0.750584 0.755008 0.594591 0.538928 0.209998 0.200160 0.096244 -0.016278 0.047759 0.026325 0.091596 0.025762 0.109417 0.148417 0.428055 0.806278 0.715297 0.511396 0.444780 0.453706 0.445229 0.406404 0.543723 0.490391 0.563515 0.551996 0.646870 0.604979 0.661495 0.718660 0.720454 0.513669 0.336485 0.201854 0.054313 0.053022 -0.181280 -0.058174 0.001103 0.131895 0.144728 0.304850 0.634208 0.839192 0.712606 0.375635 0.458763 0.373331 0.350525 0.363008 0.403446 0.478747 0.731846 0.740484 0.594281 0.580241 0.525135 0.660712 0.759670 0.687927 0.395611 0.149880 0.098209 0.088391 0.000289 -0.054087 -0.002955 0.004076 0.173929 0.543027 0.646488 0.761358 0.690311 0.522604 0.471716 0.473269 0.345515 0.443976 0.495893 0.652808 0.726809 0.694147 0.557699 0.484157 0.583669 0.604522 0.633286 0.682968 0.398542 0.202144 0.073740 -0.038502 0.026796 0.027517 0.028282 0.050873 0.241608 0.581522 0.631558 0.764673 0.627265 0.557122 0.360196 0.299308 0.321443 0.454020 0.563277 0.786398 0.748795 0.628943 0.590426 0.586184 0.580265 0.546812 0.639350 0.581863 0.433915 0.285669 0.229640 0.086449 -0.006913 0.069105 -0.001781 -0.039525 0.095840 0.482094 0.738850 0.899814 0.713913 0.500881 0.283416 0.205005 0.236934 0.555252 0.630460 0.696455 0.647262 0.468233 0.448548 0.526928 0.494835 0.597142 0.702834 0.591660 0.481647 0.193049 0.137688 0.093110 0.176643 0.044123 -0.005542 -0.035957 0.217715 0.527014 0.717591 0.922826 0.826508 0.608973 0.348148 0.274409 0.188149 0.439799 0.551248 0.557877 0.524439 0.572765 0.500271 0.538247 0.723211 0.686600 0.755483 0.578364 0.445692 0.270019 0.065389 0.052732 -0.094337 0.024967 0.055316 0.022964 0.122942 0.310643 0.451290 0.690143 0.726461 0.644336 0.349396 0.239865 0.183402 0.404926 0.519056 0.567741 0.714827 0.636931 0.604869 0.523811 0.740522 0.757783 0.723033 0.745952 0.360283 0.186761 0.162175 -0.046843 -0.029827 0.059945 0.009995 0.048803 0.078786 0.176597 0.270946 0.502231 0.656159 0.611112 0.443022 0.446574 0.428926 0.408091 0.618050 0.628279 0.778638 0.654528 0.601723 0.658273 0.760521 0.698245 0.578671 0.455073 0.249974 0.084406 0.002751 0.088606 0.035200 0.013362 -0.088317 -0.014777 0.094012 0.088831 -0.001239 0.149446 0.590209 0.697454 0.582079 0.570998 0.499088 0.602329 0.542939 0.619038 0.667118 0.635853 0.667167 0.588099 0.559763 0.551095 0.434755 0.439348 0.229320 0.060459 0.021956 0.051338 -0.087571 -0.058364 -0.001369 0.004963 0.045098 0.046051 -0.010018 0.167194 0.299602 0.373784 0.466105 0.450716 0.358871 0.333848 0.391325 0.414301 0.473718 0.598909 0.461584 0.357670 0.332224 0.262723 0.259657 0.249464 0.194920 0.080429 0.064895 0.017410 0.014645 0.030029 0.047058 -0.043254 0.002297 -0.025273 -0.056587 -0.019618 0.092964 0.219727 0.180372 0.119445 0.180320 0.151973 0.205065 0.400642 0.410085 0.369468 0.302963 0.360383 0.240461 0.281929 0.234818 0.221362 0.096290 0.053467 0.087528 0.005383 -0.053149 -0.050567 0.004568 -0.022957 -0.080009 0.026029 -0.039456 -0.056842 0.027182 0.007097 0.029110 0.066596 0.004087 -0.001790 0.047265 0.056889 0.146128 0.208297 0.215148 0.193218 0.159306 0.293045 0.079561 0.088997 -0.030997 -0.003416 -0.053192 -0.059459 0.061010 -0.006649 -0.002697 -0.016818 -0.078332 -0.006837 -0.021942 -0.039806 -0.117468 -0.067390 -0.019358 -0.030779 -0.147737 0.023431 -0.022914 -0.024438 -0.000540 0.093892 0.112715 0.185968 0.161669 0.090847 0.014245 0.040161 0.046554 -0.032838 -0.034427 0.044715 -0.012106 -0.019723 0.040684 0.055530 -0.038372 0.034352 -0.096983 0.056789 -0.011801 -0.008204 -0.060115 0.015307 -0.038847 0.004698 -0.050083 0.043172 -0.033226 0.015709 0.134086 0.136422 0.093870 0.102404 -0.065426 0.083940 0.011516 0.036543 0.073577 0.033635 -0.025400 0.026958 -0.045010 -0.036415 0.094344 0.005525 0.041531 0.122112 0.041897 -0.030031 -0.003194 0.043479 -0.020321 0.036162 -0.079913 -0.049776 -0.041524 -0.040923 0.029557 0.035271 0.004087 -0.052547 -0.011752 -0.018324 0.019694 -0.059095 -0.025626 0.131354 0.012509 -0.031087 -0.008645 0.042014 -0.037601 0.013670 -0.050113 0.003954 -0.043751 -0.004422 -0.012653 -0.063478 -0.081369 0.006141 -0.085962 -0.029154 0.069062 0.011104 -0.020390 -0.057336 -0.053000 0.096845 0.119108 0.009134 -0.011974 0.049585 0.087001 0.077694 -0.065353 -0.049189 0.001710 -0.044694 0.067115 -0.034033 0.056872 0.012617 0.009760 0.045124 -0.003368 -0.060316 -0.047820 -0.065685 -0.020230 -0.037361 -0.081424 -0.060146 0.014826 0.034864 0.056745 0.013859 0.001681 0.079596 -0.022084 0.022518 -0.029741 0.045242 0.018484
-0.043579 -0.030293 -0.023610 0.017838 0.099386 0.048232 0.031186 -0.043878 0.055359 0.006128 0.068005 -0.036038 0.061641 0.035427 -0.021430 -0.032909 -0.070024 -0.071094 0.040211 -0.010136 -0.063726 -0.049538 -0.036876 0.097312 0.063134 0.006458 0.003528 0.038996 -0.030030 -0.111257 0.012880 0.046668 0.087920 -0.025946 -0.124170 -0.063161 0.050632 -0.062181 0.015558 -0.034118 0.039080 -0.051834 -0.064839 -0.092102 -0.040706 -0.042620 0.015246 0.028289 0.019654 -0.054366 -0.003439 0.017056 -0.061005 0.020928 -0.051717 0.053287 0.046207 0.001843 -0.137096 -0.007100 0.078287 -0.021389 0.048602 -0.028615 0.001411 0.030122 0.084359 -0.020039 -0.010536 -0.008017 -0.021772 0.013865 -0.005882 0.023121 -0.095093 -0.092969 -0.000917 0.033795 0.151923 -0.012751 0.037164 -0.093808 0.040555 0.037464 -0.112072 -0.011211 0.022340 -0.000179 0.036368 0.029366 0.032960 0.042242 -0.079212 0.072617 0.063752 -0.008384 0.024868 0.103721 -0.018564 0.007399 -0.003085 -0.000961 0.045201 0.058892 0.011499 0.035338 -0.030035 -0.056919 -0.025639 -0.079373 -0.040346 -0.025693 -0.009039 0.004608 0.015504 -0.039908 -0.050248 0.001702 -0.019851 0.041340 0.017176 -0.033804 -0.055248 0.016830 -0.035403 0.082313 0.057073 0.042240 0.167676 0.090101 0.051426 -0.007999 0.046526 -0.014260 -0.044379 0.006171 -0.016849 -0.011915 -0.071350 0.028693 0.040945 -0.100523 0.017453 -0.029437 0.007590 0.076407 -0.034066 -0.039384 0.048672 -0.119020 0.082849 -0.004592 0.079648 0.099363 0.170454 -0.006244 0.195670 0.200997 0.183897 0.051402 0.032081 0.028074 0.026650 0.023079 -0.019205 -0.049507 0.070767 0.012214 -0.007365 -0.017542 0.106525 -0.021253 -0.005539 -0.004152 0.140162 0.126175 0.070406 0.193460 0.148783 0.209949 0.377026 0.395497 0.282573 0.271121 0.215027 0.293150 0.216339 0.314204 0.118596 0.173991 0.136829 0.073044 -0.071285 -0.044323 -0.019306 0.016251 -0.015569 0.037904 -0.024542 -0.010216 0.078900 0.086765 0.135936 0.213083 0.239593 0.422478 0.384937 0.495481 0.560571 0.618879 0.577078 0.481668 0.468834 0.344890 0.365192 0.375628 0.389993 0.313516 0.215821 0.160213 -0.063014 0.065139 -0.027705 -0.107901 -0.003088 -0.020365 -0.020083 0.047916 0.030994 0.004768 0.213659 0.478845 0.587281 0.578898 0.654307 0.669373 0.821869 0.829224 0.552096 0.581442 0.476790 0.304451 0.414349 0.576485 0.677104 0.577942 0.516792 0.271563 0.160478 -0.070924 0.058072 -0.037596 -0.036149 0.081005 0.029118 -0.078413 0.100948 0.146220 0.538106 0.730375 0.843935 0.790862 0.714570 0.691690 0.698830 0.652308 0.653578 0.536655 0.327444 0.288955 0.278898 0.431510 0.641233 0.783815 0.802233 0.531898 0.058656 0.058930 0.020675 0.047551 0.015783 -0.037891 0.008370 0.052741 0.036310 0.435707 0.914264 1.021600 0.993916 0.790513 0.728863 0.684445 0.595718 0.615972 0.678706 0.478159 0.263888 0.353277 0.315502 0.265433 0.571207 0.634483 0.775343 0.673477 0.244319 -0.000138 0.011055 -0.094515 -0.015283 -0.000744 -0.008885 -0.051266 0.283313 0.728048 0.951078 0.987567 0.601361 0.532686 0.484780 0.326698 0.561525 0.576354 0.530222 0.352019 0.191169 0.156231 0.129124 0.346509 0.519785 0.630356 0.861973 0.919976 0.317779 0.042339 0.062347 -0.012849 0.001988 -0.022323 0.100140 0.075686 0.340622 0.730254 1.018021 0.817584 0.530908 0.399947 0.320179 0.332194 0.479662 0.580821 0.590515 0.400729 0.169868 0.176744 0.222678 0.381061 0.599407 0.769180 1.004125 1.012274 0.261476 0.037882 0.008222 0.007171 0.021304 -0.093020 0.044130 0.008040 0.414072 0.794291 0.842931 0.685925 0.582598 0.410083 0.408938 0.486321 0.520151 0.597589 0.598010 0.330826 0.141587 0.122655 0.418858 0.541290 0.557366 0.756336 1.104790 0.781825 0.151268 -0.000818 -0.047218 0.023836 -0.010004 -0.079912 0.002846 0.064548 0.345302 0.792613 0.741027 0.723941 0.732108 0.578407 0.425793 0.514251 0.456081 0.462228 0.511303 0.330070 0.304659 0.374295 0.465071 0.661960 0.710388 0.821223 1.015601 0.820973 0.172617 0.074103 -0.025100 -0.061404 -0.077147 -0.030665 0.014230 -0.005756 0.460477 0.761851 0.547643 0.637037 0.771756 0.561103 0.432079 0.238687 0.250020 0.328374 0.520224 0.434713 0.278026 0.540307 0.547966 0.664413 0.739941 0.731853 0.777858 0.614273 0.178812 0.009113 0.040205 -0.092829 0.023597 0.052122 0.049706 0.010236 0.385586 0.795101 0.793689 0.632404 0.814868 0.436651 0.384411 0.170529 0.222413 0.473088 0.617622 0.618487 0.611170 0.699755 0.631619 0.676459 0.622778 0.719791 0.576814 0.516722 0.242954 0.036282 0.015271 0.028327 0.077653 0.051913 -0.000839 0.091130 0.220527 0.650007 0.829176 0.764514 0.782178 0.557668 0.296684 0.215735 0.334333 0.665268 0.715118 0.726630 0.635714 0.485938 0.598131 0.593749 0.596489 0.679900 0.698171 0.344563 0.216349 0.092996 0.072379 0.036623 -0.005212 -0.049483 0.100096 -0.001829 0.105327 0.339218 0.757744 0.669410 0.675434 0.755869 0.740900 0.624082 0.600815 0.790273 0.768246 0.696184 0.514903 0.432684 0.389627 0.639214 0.665019 0.678548 0.453442 0.290668 0.117004 0.042944 0.061142 0.001620 -0.019667 -0.141723 -0.068961 0.016351 0.046998 0.036474 0.235645 0.500409 0.683618 0.940509 0.887293 0.787679 0.819489 0.873771 0.776814 0.807293 0.730243 0.637051 0.809509 0.742152 0.619775 0.436025 0.273184 0.124234 0.173850 -0.001816 -0.021049 -0.005222 0.020198 -0.083191 -0.114977 0.040444 -0.046964 0.031887 0.067997 0.306482 0.523005 0.670864 0.616355 0.656239 0.590600 0.563012 0.552999 0.557070 0.637291 0.740264 0.782235 0.714441 0.526767 0.143106 0.118737 0.095709 0.026848 0.063935 0.041683 -0.087235 0.028704 -0.026655 -0.043654 -0.012067 0.000147 -0.092992 0.012812 0.139432 0.263065 0.193757 0.309154 0.303384 0.355688 0.366638 0.443489 0.582944 0.614734 0.601447 0.712778 0.425700 0.202085 0.134202 0.058214 0.086316 0.025275 -0.045667 0.018915 -0.080910 0.094769 -0.090000 0.057483 -0.021341 -0.019597 -0.026184 -0.008646 0.035924 0.202972 0.315768 0.209443 0.153037 0.198204 0.259782 0.370698 0.380467 0.377037 0.336581 0.220066 0.113221 0.032106 0.055623 0.043180 -0.130831 0.066855 0.070640 0.034303 -0.003122 -0.043726 -0.080386 -0.054124 0.009525 0.007086 0.057809 -0.046072 0.037191 0.202948 0.106615 0.124275 0.101856 0.117356 0.114710 0.150939 0.165549 0.187146 0.136602 0.185229 0.101456 -0.006129 0.016585 0.008690 0.031881 0.020738 0.021816 -0.019406 -0.064072 -0.044386 0.019414 -0.035031 0.089740 -0.101676 -0.031370 -0.002947 -0.015576 -0.033594 0.090161 0.051504 0.096178 0.031955 0.013289 0.128985 0.000701 0.157152 0.087928 0.058487 0.063571 -0.038367 0.033814 0.018834 -0.072475 -0.039466 -0.023353 -0.007944 0.034231 -0.039248 0.053507 -0.016298 -0.068129 -0.016590 -0.094335 -0.018819 0.001773 0.022079 0.103483 -0.018861 0.027425 0.023308 0.014643 0.060870 0.006509 0.055598 0.065427 0.056690 0.054049 0.034035 0.062118 -0.089843 -0.070498 0.068597 -0.059948 0.026915 0.032335 0.055596 0.022633 -0.020231 0.051108 0.005837 0.044947 0.011926 0.011025 0.043161 -0.005098 -0.023179 0.022924 -0.037593 0.073540 0.044710 0.087633 0.040453 -0.000845 0.044203 -0.034537 -0.007727 -0.061981 -0.055825 0.055977 0.027252 0.008771 0.155523 -0.043100 -0.009466 0.031855 -0.004935 -0.086542 0.026215 -0.018963 0.030963 0.007235 -0.049622 -0.048963 0.055391 0.012867 -0.041138 -0.009553 -0.019149 0.014751 -0.042974 -0.003411 0.054986 0.039464 0.044538 0.098964 0.061573 0.000658 -0.002457 0.114055 -0.124352 -0.028481
