-0.164075
0.101478
0.013932
0.053437
-0.017883
-0.040018
0.050768
0.034204
0.135701
-0.098947
-0.090181
0.092530
0.045204
0.174726
0.018771
-0.020773
-0.034833
0.101779
0.098304
0.118405
0.094676
-0.112276
-0.090645
0.047368
-0.005123
-0.039517
0.132749
0.022030
-0.062581
-0.031554
0.023670
0.123513
-0.022131
0.047189
0.036846
-0.026175
-0.097566
0.009909
0.083830
-0.160330
0.047886
0.006854
-0.022961
-0.029809
0.003356
-0.095265
0.106541
0.082956
0.034739
-0.127502
-0.020943
0.106641
0.041504
0.117793
0.017495
-0.062369
0.091513
0.067159
0.062126
-0.042507
-0.021219
0.053928
0.143013
0.009518
-0.149046
0.066893
-0.165486
0.035077
-0.006071
-0.088430
-0.020343
0.033727
-0.021128
-0.115124
-0.095674
-0.020080
-0.021919
-0.020277
0.041159
-0.043569
0.032020
-0.051046
-0.017712
0.078887
-0.155271
0.038769
0.041071
0.017980
-0.027086
0.016588
-0.039541
0.121709
-0.034477
-0.113271
-0.011265
-0.015713
-0.072056
0.052768
-0.001967
-0.143890
0.095605
0.061094
-0.041952
-0.156822
0.017591
-0.031464
-0.062817
0.054320
0.124273
0.185862
-0.002272
-0.086788
-0.007202
-0.005791
0.071011
-0.139147
-0.057793
-0.013391
0.130622
0.097895
0.079744
-0.015330
0.014528
-0.101360
-0.044279
-0.008753
0.017077
-0.096819
-0.051811
0.106338
-0.021938
0.024070
0.180849
0.129313
-0.121306
0.110044
0.020023
-0.075950
-0.044289
-0.123774
0.271978
-0.058183
-0.070570
-0.146326
-0.039457
-0.002503
-0.097860
0.067558
0.151534
-0.112316
-0.112226
0.062812
0.046198
0.166829
0.202695
0.152576
-0.152891
0.016122
0.168156
-0.031594
0.071171
-0.033212
-0.053034
0.068365
-0.092309
0.166700
0.042155
-0.059350
0.053672
-0.118920
-0.113040
-0.082143
-0.075114
-0.005673
0.025778
-0.141089
0.098663
-0.065644
-0.077070
-0.013609
0.136571
0.057652
0.116506
-0.023651
0.029061
0.058886
0.008386
0.016202
-0.005481
0.202016
0.033361
0.039428
0.020096
0.072448
-0.079757
-0.018736
-0.023439
0.026568
0.107640
0.056528
0.033182
0.088548
0.010675
-0.111472
-0.053377
0.177866
0.073475
0.193219
0.076608
0.102675
0.018064
0.088174
-0.063475
0.116595
-0.074661
0.082707
0.102331
0.151166
0.183918
-0.083353
-0.166100
-0.022720
0.018649
-0.015142
0.004172
0.001163
0.046962
0.140785
0.048983
0.065358
-0.010121
0.045361
-0.117662
-0.070427
0.251820
-0.022276
0.094927
0.183237
0.005504
0.092078
-0.035878
0.303197
-0.185033
-0.125489
-0.013150
-0.057363
0.138952
-0.010478
0.045390
0.025606
-0.004400
0.003061
-0.136271
0.001273
0.227725
-0.069344
0.018838
-0.017805
0.081579
0.066405
-0.066202
0.095776
0.131762
-0.024960
0.007256
0.082924
0.062408
-0.063560
0.097291
0.061520
0.010626
0.153082
-0.057254
0.119415
0.023832
0.075310
0.013410
0.044063
0.032443
-0.064982
0.047150
-0.053918
0.083235
0.133259
-0.060445
0.114911
-0.072733
0.039604
0.138913
0.113140
-0.113264
0.078141
-0.035423
0.026538
0.108433
0.051786
0.096596
0.077556
0.022057
-0.099577
0.056019
0.048494
0.059163
-0.030709
-0.049511
0.079442
0.076073
-0.063832
0.039147
0.019812
0.057649
-0.041238
0.094456
0.019457
0.096645
0.101382
-0.042942
0.079319
-0.001868
-0.021836
-0.026839
0.192042
0.026403
0.055703
0.007600
0.071827
-0.126559
-0.076784
0.004158
0.101508
0.073002
0.019086
0.120501
0.173725
-0.003692
-0.097116
-0.090284
-0.125498
0.050285
0.093653
-0.006252
0.071529
0.035894
-0.043713
0.023318
-0.004694
0.186581
0.042318
0.182516
-0.088686
-0.009376
0.066518
0.101029
-0.008494
0.073821
0.023002
-0.039309
0.187477
0.100618
0.054173
0.044648
0.106361
0.031954
0.074687
-0.097098
0.126398
0.095425
0.136223
-0.085869
0.154780
0.005573
-0.064234
0.073279
0.000099
0.143926
0.130663
0.192398
-0.032959
0.015915
0.152164
-0.023233
0.176760
0.079499
0.128467
-0.039084
0.022871
0.058767
0.065478
-0.116258
0.049360
0.165225
-0.019184
-0.127976
0.018660
0.038620
0.137304
0.074267
0.103693
0.019945
0.125284
-0.149422
0.016137
0.117824
0.163828
0.115590
0.175717
-0.028439
0.159967
0.063652
0.094350
0.074642
-0.062288
-0.056996
-0.166698
-0.035467
0.214021
0.016218
0.109440
0.160481
-0.071668
-0.172744
-0.000147
0.016675
0.042588
0.252874
-0.046260
0.066023
-0.037048
0.188773
0.097453
0.067146
0.002435
0.182100
0.096941
-0.089687
0.091415
-0.006308
-0.122463
0.061567
0.192190
0.089178
0.102600
-0.046089
0.090081
0.118654
-0.005357
0.006878
-0.108495
-0.161798
-0.124871
0.022555
-0.059366
0.042271
0.146771
0.162582
-0.200396
-0.061815
0.112778
-0.074993
-0.000389
0.037651
-0.022323
-0.044966
-0.064230
0.065441
-0.007197
-0.004846
0.012313
-0.050189
-0.189389
-0.024675
0.005338
0.025784
0.118729
0.200412
-0.094141
-0.085758
-0.007920
-0.048272
-0.007642
0.113403
-0.005188
0.055476
-0.003634
-0.018979
-0.041650
-0.030179
-0.036333
0.004807
0.186776
0.015179
0.040098
-0.130471
-0.056996
0.124361
-0.125757
-0.063410
-0.141050
0.118448
0.001198
-0.063735
-0.056615
-0.026633
0.059246
-0.040254
0.027731
0.052558
0.061605
-0.047794
0.244233
0.011893
-0.016761
0.069251
0.033779
-0.020555
0.052845
0.077448
0.011507
0.025938
0.104756
0.016810
0.028714
0.058427
0.070709
-0.035576
-0.047762
-0.027664
0.052020
0.032426
0.107179
-0.122582
0.137761
-0.043577
0.000153
-0.111369
-0.161534
0.160463
0.023118
0.019496
0.040054
0.031219
-0.018619
-0.173785
0.015472
-0.006623
0.141247
0.042187
0.079774
0.080128
0.051845
-0.010776
0.077135
-0.095185
0.054358
0.166239
0.139322
0.016729
0.008823
0.090250
-0.012682
-0.125311
-0.105548
-0.164801
-0.007053
0.066430
0.125210
0.059828
0.064635
0.083057
0.019752
-0.053870
-0.074313
0.059358
0.124907
0.006812
0.046466
0.129009
0.226782
0.161366
-0.005941
0.105754
-0.073380
-0.030117
-0.047042
0.031002
0.099118
0.004676
0.082185
-0.038241
0.008406
0.043852
-0.006643
0.054250
0.149944
0.039659
0.151619
-0.055842
-0.106729
0.038594
0.119172
0.022340
0.020101
-0.036415
0.168649
0.128566
-0.064249
-0.033340
-0.031859
0.016221
0.012821
0.079409
-0.043334
0.125335
0.048797
-0.064632
0.076448
0.102662
-0.047492
0.029387
0.127771
0.114875
-0.021620
0.101778
-0.010416
0.042189
-0.046187
-0.007201
-0.009924
0.019899
0.004833
0.012830
0.037052
0.165634
0.139946
0.069919
-0.083053
-0.005257
0.017967
0.038497
-0.179932
0.069054
0.023305
-0.011213
0.006686
0.029722
-0.031930
0.087788
-0.038020
0.009083
-0.045529
0.050941
0.001122
0.113663
-0.048845
0.002543
-0.070071
0.127869
0.272275
0.029250
-0.048786
-0.076048
0.067463
-0.036699
0.077646
-0.109938
0.078343
-0.023548
0.081039
-0.026605
-0.018250
0.044635
-0.006492
0.237552
0.060112
0.012593
-0.005232
0.039812
0.043219
-0.079328
0.001368
0.110701
-0.145848
0.156656
0.115219
0.226585
-0.130646
0.050591
-0.129306
0.092835
0.080254
0.077614
0.086129
-0.024513
0.109138
-0.041129
0.024185
-0.077067
0.121867
0.089737
-0.012986
-0.156038
0.201686
0.016114
-0.109342
0.118478
-0.010825
-0.068783
0.084362
0.087898
-0.048252
-0.124075
0.022508
0.018242
-0.013459
-0.111180
0.047143
-0.017734
-0.008521
-0.012814
0.109459
0.001447
0.101881
-0.000833
-0.142605
0.056900
0.083844
0.021864
-0.003604
0.083904
-0.162125
0.078097
0.010265
-0.131770
0.083046
0.027055
-0.028528
0.059231
0.028517
-0.026059
0.033805
0.027644
-0.021417
0.017269
-0.081046
0.016283
-0.034025
0.043930
-0.040654
-0.075331
0.027066
-0.067509
0.103448
0.075608
-0.044447
0.122429
-0.054931
0.067475
0.088777
0.079272
-0.075915
-0.009476
-0.187121
0.072490
-0.097874
0.027639
-0.069622
-0.134249
-0.018360
0.105475
-0.055313
-0.010168
-0.086046
0.015813
-0.038539
-0.084344
0.062708
-0.149522
0.196770
-0.084207
0.047319
-0.050243
-0.208041
0.024446
0.150520
