1.507878
1.172719
1.134903
-1.166567
1.535452
-1.151729
1.361755
1.322914
1.415005
-1.060283
-0.953044
1.278566
1.507048
1.390707
-1.273177
1.360179
1.095120
1.182851
-1.243090
-1.177490
-1.041134
1.162797
1.102847
-1.147981
1.098596
-1.453179
-1.230860
-1.206657
-1.477905
-1.343998
-1.366178
-1.228512
-1.261817
1.130617
1.112722
1.293878
-1.209758
1.292939
1.226352
1.097404
1.228757
1.346812
1.412350
-1.555257
-1.241639
-1.051027
-1.257637
1.281524
-1.512347
1.222414
-1.386714
1.136144
-1.457096
-1.244357
1.035188
-1.139911
1.348496
-1.295116
1.532901
-0.827159
1.264342
1.119643
1.214534
-1.400406
-1.388675
-0.440710
1.267286
-1.028951
1.338989
1.014140
-1.223124
-1.530355
-1.128934
1.312136
1.160723
-1.078453
-1.582785
1.595603
1.474183
-1.542243
-1.339209
-1.273071
1.136666
-1.031277
-1.529242
1.177027
-1.225596
-1.321545
1.390765
1.192581
-1.434879
1.149109
1.224578
1.148401
-1.618131
1.334591
-1.249848
1.273223
-0.975388
-1.416989
-1.363113
1.245977
1.403128
1.388195
-1.349808
-1.394315
-0.943498
-1.304999
1.346082
1.326631
1.293254
1.217323
-1.212828
1.452540
-1.368575
1.197488
-1.096416
1.509322
1.407453
1.334300
-1.308655
1.291512
1.283857
-0.869585
1.182978
-1.360930
-1.189628
-1.387565
-0.954108
-1.158220
1.203210
1.309194
1.171560
-1.129292
-1.458480
1.399854
1.286255
-1.235462
1.020114
-1.407454
1.548792
-1.495008
-1.323154
-1.168136
-1.156685
-0.961523
1.474655
1.053675
1.366183
-1.317037
1.474362
1.076186
1.243002
-1.202773
-1.472400
1.292552
-1.256804
1.043326
1.306843
1.245635
-1.341767
1.301552
-1.169392
1.147672
-1.537972
1.364029
1.299751
1.295499
-1.440522
-1.169551
-1.363865
-1.300031
-1.514165
1.141301
-1.208826
-1.417823
1.196265
1.389138
-1.413202
1.369814
-1.164285
-1.203526
-1.221416
1.229278
1.247928
1.031675
-1.416103
1.010512
1.235635
-1.249208
-1.140462
-1.343249
-1.034871
-1.225587
-0.730336
-1.623365
