-0.020932
0.033009
-0.046111
0.003731
-0.014636
0.119873
-0.038757
-0.036390
0.016161
-0.035540
-0.023742
-0.063249
-0.083716
-0.067630
0.001442
-0.068134
0.077966
0.066252
-0.031745
0.013944
0.005235
-0.035434
-0.073310
-0.009932
-0.042773
0.012698
-0.039250
-0.005560
0.029067
-0.017012
0.144955
0.099511
-0.051270
0.086241
-0.024263
0.002954
0.063968
-0.003944
-0.132271
-0.107965
-0.109474
-0.051175
0.048259
-0.048368
-0.037910
-0.048666
0.018395
0.059413
-0.060817
-0.023486
-0.009223
-0.019349
-0.131204
-0.007550
0.127055
-0.027429
-0.041262
0.046318
-0.041238
0.014463
0.021050
0.056251
0.000973
0.038364
-0.027594
-0.027296
-0.029467
-0.049721
0.032005
0.080311
0.047971
-0.123407
0.082591
-0.023464
0.040577
0.032384
0.057423
0.005534
-0.054959
0.034400
0.000230
0.020249
-0.102496
0.046726
0.079130
0.024008
0.060697
-0.158489
-0.064164
0.019896
0.116795
0.052961
-0.010944
-0.007873
-0.076577
-0.077336
0.016842
-0.075530
-0.051889
-0.067469
-0.096623
-0.132685
0.065542
0.094510
0.036137
0.028619
0.000134
0.007406
0.035915
-0.029419
0.019175
0.027687
0.022276
0.003812
-0.010749
0.017212
-0.049246
-0.038933
-0.030431
0.066076
-0.020963
-0.038088
-0.067287
0.051785
0.024340
0.035007
-0.064715
-0.018408
-0.039606
0.016498
-0.060811
-0.030346
0.025793
0.048219
-0.023955
-0.002193
0.102398
0.016002
-0.016751
-0.046962
-0.081362
0.057444
-0.077170
0.174565
-0.030661
0.024442
-0.003399
0.057771
0.000887
0.013631
-0.043945
-0.037157
-0.063283
0.015581
-0.038939
0.090484
-0.052334
0.065046
-0.046359
-0.028974
-0.003596
-0.003013
0.037614
-0.034661
-0.084413
0.050915
0.079375
-0.051984
0.016422
0.005120
0.001991
0.047650
-0.176478
-0.044548
0.008052
0.059375
-0.053127
0.023932
-0.011927
0.007064
-0.023729
-0.005323
0.002764
0.070728
-0.021602
0.018049
0.045915
0.004332
-0.007236
-0.026979
0.007872
0.056352
0.095862
0.013168
-0.018312
-0.033753
