-0.007209 0.119097 -0.092940 -0.061157 0.000556 -0.026708 -0.049072 -0.029428 -0.074599 0.104408 0.000143 0.053456 -0.044453 -0.023337 -0.008905 0.072284 0.049418 0.025023 -0.069076 0.044576 0.097851 -0.092289 0.033963 -0.006886 0.067294 0.107009 0.079221 -0.005996 -0.023691 -0.040543 -0.004604 0.059645 -0.053644 0.000811 0.025124 0.075500 0.096098 -0.016056 -0.032509 -0.057274 -0.026233 0.033234 -0.055018 0.157607 -0.001937 -0.003484 -0.079237 -0.025440 -0.037647 -0.052859 -0.013822 0.032806 -0.141209 -0.075757 -0.001861 -0.025527 0.020236 -0.154423 -0.092214 0.043949 -0.038572 -0.067941 -0.064394 -0.007327 0.029812 -0.028357 -0.065146 -0.053164 -0.002864 -0.038372 -0.087762 0.022164 -0.009833 0.023608 0.071354 0.041566 0.069652 -0.023330 0.092326 0.011585 0.120545 0.013369 0.007987 0.063742 -0.092535 -0.081556 0.052329 -0.058340 -0.031381 0.156957 0.156833 0.007763 0.023234 0.074385 -0.005998 -0.095616 -0.012117 -0.046023 -0.073721 -0.097141 -0.110416 0.011326 0.029670 -0.046778 -0.060743 -0.048123 0.052847 -0.012311 -0.090005 0.072781 0.001897 -0.002142 0.081817 -0.064151 -0.040014 -0.024306 0.027932 0.035001 -0.076809 -0.020998 0.074304 0.058143 -0.054877 -0.016004 0.043598 -0.116363 -0.267268 0.015009 -0.046949 0.050811 -0.048835 -0.041688 -0.018044 0.023026 0.050109 -0.038228 0.129723 -0.170153 0.000294 0.017796 0.006784 -0.001508 0.042991 0.041838 0.068238 -0.071450 -0.000151 0.057133 -0.061809 0.037731 0.067646 -0.014385 0.161654 0.033144 -0.147599 -0.084941 0.070481 0.019094 0.130043 -0.010120 -0.082265 0.053402 0.011802 0.048558 -0.045781 -0.066982 0.094974 -0.106663 0.042835 0.022826 -0.000643 0.099992 -0.081991 -0.180441 -0.031568 -0.069344 0.173605 -0.146802 -0.046393 -0.094490 0.112171 0.042567 -0.021503 -0.002810 -0.069351 0.018477 0.110628 0.018311 -0.111133 0.032449 0.023692 -0.020701 0.064276 -0.066668 0.035655 0.117616
0.053551 0.021566 -0.005917 0.027344 0.054226 -0.005728 0.028356 -0.005794 0.018650 0.073467 0.023123 -0.026911 -0.048402 0.103517 0.015318 0.026525 -0.057348 -0.021344 0.010579 -0.104128 -0.081908 -0.210345 0.102595 -0.019649 0.059322 -0.001200 -0.055821 -0.025876 0.040671 0.011911 0.043084 -0.058737 -0.207786 0.087031 0.040919 0.104487 0.104010 0.012304 -0.033593 0.033743 -0.023295 -0.087517 0.060333 -0.017106 -0.013135 -0.015125 0.012071 0.042380 -0.023910 0.094018 0.113166 0.060978 -0.050181 -0.020532 -0.009181 -0.003797 -0.029015 0.029661 0.125169 0.051298 -0.120923 -0.085901 0.117240 -0.064952 0.009739 0.052405 0.022015 -0.028984 -0.103446 -0.026277 0.071617 -0.141893 -0.029080 -0.041273 0.002652 0.002473 0.111672 0.062579 0.061214 -0.067802 0.068012 0.082941 0.011005 0.087344 0.062559 0.063329 0.143484 -0.044272 0.041589 0.108250 -0.109139 0.063050 0.036208 -0.024530 -0.107461 0.016188 -0.107812 -0.085180 -0.160497 -0.029721 -0.140342 0.012114 0.036273 0.061447 0.082645 0.007481 -0.075379 -0.029768 -0.160383 0.059869 -0.005022 0.030490 -0.020048 0.094103 0.117792 0.049715 -0.027897 0.003596 0.033422 -0.186799 -0.045043 0.008092 0.012592 -0.014244 -0.089143 -0.032973 -0.089110 -0.002253 -0.092458 0.111604 -0.058528 0.120506 -0.056383 0.076934 0.126308 0.040294 0.009487 0.026746 0.028695 -0.027855 -0.032581 0.056370 0.003226 -0.101261 0.029200 -0.034267 0.019030 -0.071252 0.075048 -0.017432 -0.066436 0.082718 0.091674 -0.047957 0.093007 0.051667 0.103519 -0.030835 -0.046769 0.000681 -0.062480 0.038483 -0.138318 -0.026846 0.047542 -0.042232 0.037950 -0.059790 0.067924 0.027021 -0.083374 -0.014459 0.019704 0.072650 0.056399 0.097188 0.026796 -0.030221 0.064302 0.137075 0.007778 -0.082882 0.142567 0.049638 -0.063926 -0.042508 -0.101340 -0.060132 -0.034229 -0.054016 0.025380 0.011808 0.123750 -0.026137 0.053470 -0.118356
0.101168 0.036615 0.043895 0.083893 -0.005507 -0.114773 0.027477 -0.009188 0.051938 -0.058140 -0.087361 -0.079206 0.026697 0.022316 0.031275 0.103767 -0.002658 -0.047400 -0.005573 -0.043412 -0.030931 -0.023749 -0.094959 0.081980 0.060724 0.006292 -0.037030 -0.087697 -0.106298 -0.021883 -0.011195 -0.065024 -0.105228 0.094930 0.017777 -0.060806 0.042075 0.005946 0.002953 -0.011953 -0.070737 -0.028981 0.040188 -0.011686 0.051766 0.087091 -0.009686 -0.175127 -0.076808 0.056129 0.071158 -0.049679 -0.087327 -0.033328 0.057340 -0.030159 -0.029825 -0.007358 -0.090915 -0.069048 -0.041186 0.059403 -0.004601 -0.008586 -0.078429 0.072582 -0.065923 -0.049549 0.118156 0.114485 -0.001112 -0.039908 -0.228694 0.052143 -0.025567 0.017818 0.150043 -0.079765 -0.007319 -0.068792 0.105251 -0.038249 -0.033523 -0.051068 0.097156 0.059741 -0.055364 -0.078593 0.033260 0.023645 -0.088867 -0.083969 0.095448 0.065392 -0.006549 0.029574 -0.074518 0.025744 -0.021757 0.061223 -0.052486 -0.016027 0.018704 0.074405 -0.015011 0.110979 -0.074581 -0.014626 -0.061511 -0.017758 0.137005 0.000793 -0.019658 -0.148618 0.093311 -0.018232 0.065643 -0.080567 -0.144972 -0.039264 -0.053193 -0.052395 -0.121627 -0.099197 -0.090713 -0.132085 0.024815 -0.052098 -0.091247 -0.060035 0.097354 -0.092272 -0.018831 0.027654 0.102729 0.138143 -0.025702 -0.056918 -0.033576 -0.057972 -0.021624 0.046280 0.107958 0.107368 0.069045 -0.089335 0.053410 -0.178414 0.000090 0.117913 0.092712 0.011728 -0.078925 0.015263 -0.091248 -0.005152 0.140259 0.016211 0.045542 -0.080611 -0.004661 0.076885 0.113712 -0.029780 -0.033623 0.059533 -0.184053 -0.031096 -0.007879 -0.009261 -0.007190 -0.005953 0.029853 -0.045636 0.050098 0.014117 -0.048100 0.018135 0.152378 0.133017 -0.064574 0.011066 0.012863 -0.054148 -0.102895 0.137681 0.051691 -0.019003 -0.075151 0.016120 -0.101511 0.043900 -0.001298 -0.101219 -0.039502 -0.102419
-0.018353 -0.150272 0.065271 -0.133763 -0.054576 0.143774 -0.221409 -0.079548 0.031680 -0.033092 0.009264 0.057365 0.188811 0.096359 0.034021 -0.030743 0.081385 0.026977 0.098044 0.021589 0.011577 0.092860 -0.152899 0.081731 -0.009443 -0.015148 -0.030237 -0.035165 -0.066206 0.035517 -0.004352 0.012705 0.024973 -0.130010 -0.022119 -0.076268 -0.015623 -0.049648 0.065358 0.123283 -0.014237 0.036349 0.038241 0.047058 0.067280 -0.146986 0.047785 -0.056205 -0.006272 0.125547 -0.036460 0.017554 -0.032842 -0.184710 0.019112 -0.190024 0.108995 -0.019979 0.162641 0.008262 -0.090496 -0.119687 -0.004681 0.064676 0.068981 -0.034817 0.064822 0.097365 0.145447 -0.021230 0.002104 0.000214 -0.055917 0.033312 0.115247 0.106479 0.050141 0.118925 -0.030465 0.125760 0.055186 0.110680 -0.031400 0.052319 0.063555 0.065351 -0.093996 -0.058885 0.054240 -0.049579 0.085994 0.062513 0.085136 -0.057410 -0.072019 0.208443 -0.045772 -0.112287 -0.078643 0.048200 0.052554 0.056987 -0.086708 -0.084632 0.024241 -0.079829 0.091052 0.136430 0.007454 0.190059 -0.062488 -0.005685 0.076599 0.036276 -0.039899 0.093517 -0.194628 -0.030942 0.096203 -0.081387 0.179361 -0.015570 0.092052 0.082989 0.063159 0.002326 0.032434 -0.008433 -0.060001 -0.014376 -0.091452 -0.063101 0.105730 -0.016336 0.023694 0.065277 -0.004497 0.102586 0.097783 0.166331 -0.022947 0.109006 0.079353 -0.045423 -0.068047 -0.123219 -0.049649 -0.020727 -0.049290 0.000761 -0.053066 -0.174845 -0.110530 -0.022454 0.015391 -0.031048 -0.004558 -0.024656 -0.051221 0.026328 -0.019747 -0.044702 0.080338 0.005836 0.030538 0.040172 0.076314 0.052675 0.049844 -0.023979 -0.000530 0.044170 -0.035095 -0.118828 -0.021093 0.017752 0.087004 -0.095327 -0.170357 -0.109335 -0.030486 0.054930 0.014128 0.102063 0.102623 -0.117665 -0.167699 -0.082747 0.011289 0.033404 0.012098 0.001127 0.084044 -0.008591 0.084617 0.100793
0.011870 -0.015841 -0.100119 0.021645 -0.060531 0.022961 0.088194 -0.061339 0.032994 0.007147 -0.063064 -0.024738 -0.095187 -0.046425 0.019682 0.030863 0.028805 -0.028538 0.067020 0.071821 -0.047078 -0.013177 -0.091075 0.033927 0.031252 -0.143341 0.046221 -0.015677 0.092627 -0.062718 -0.038371 -0.052521 -0.041779 -0.044686 0.061280 -0.057781 0.005637 -0.023543 -0.011876 0.142473 -0.011050 0.093987 -0.038980 0.080652 0.028485 0.117235 -0.061893 0.056455 -0.073673 -0.109873 0.038860 0.014137 0.052501 -0.045824 0.064609 0.003574 0.051821 0.012157 0.129500 -0.007678 -0.013182 -0.036405 -0.020604 -0.000577 -0.034405 -0.033629 -0.032000 -0.056256 0.002504 0.005027 0.001505 -0.096608 -0.113645 -0.007900 -0.111885 -0.066402 0.035464 -0.015815 -0.052548 0.103412 -0.096102 -0.035965 0.067089 -0.102067 0.125712 0.151484 0.044127 -0.067846 0.018556 -0.079958 0.009511 -0.112746 0.038873 0.020149 -0.098073 -0.020489 -0.046008 -0.130283 -0.061192 -0.011907 -0.015396 0.112927 0.020938 -0.087119 -0.009706 -0.010418 0.071843 -0.021560 -0.032953 -0.040157 0.019189 -0.062941 -0.129818 -0.002480 -0.031548 0.006358 -0.107360 0.105899 -0.034236 0.015582 0.041198 0.086579 0.046527 0.031109 -0.072987 0.109646 0.065173 -0.009164 -0.007216 -0.093389 0.073049 0.120793 0.041913 0.013127 -0.036414 0.053043 0.130356 0.132455 -0.068179 -0.113875 0.018818 0.056914 -0.013167 0.063814 -0.009908 0.020241 0.028712 0.081650 0.065492 -0.065889 0.068956 0.071245 -0.036248 0.071959 -0.054374 0.013907 -0.015747 0.108183 -0.044809 -0.006346 -0.083378 0.025983 -0.089291 0.050141 0.155910 0.043302 0.070693 -0.070842 0.043678 0.119802 0.041702 0.039345 -0.006706 0.005228 -0.102373 0.033631 -0.035983 0.069606 -0.036281 0.058816 0.121129 -0.071331 -0.154493 0.062889 -0.047479 -0.047269 0.097156 -0.058396 0.045144 -0.118630 0.037261 0.051333 -0.084235 0.080868 0.054462 -0.013565
-0.019428 -0.019107 -0.013692 0.023470 -0.021088 0.082909 -0.002109 -0.050546 -0.021737 0.019337 -0.009616 0.014736 -0.024921 -0.030251 0.121351 -0.177157 -0.062781 0.078307 -0.133664 0.039633 0.113136 -0.064271 0.010413 0.090316 -0.058214 -0.026182 -0.052131 0.106711 0.047489 0.015221 -0.013803 -0.134049 -0.090671 -0.069215 0.001652 -0.066937 -0.019384 -0.127920 -0.156513 -0.021175 0.112690 -0.093677 0.052491 -0.024110 -0.103594 0.061220 0.045286 0.015933 -0.006056 0.073814 0.106688 0.056446 0.059069 0.118603 -0.065776 0.009688 -0.032896 0.013198 -0.076062 -0.038087 -0.038582 -0.161080 -0.007112 -0.040694 0.011714 -0.063995 -0.011382 -0.097061 0.117699 0.030201 0.108517 -0.086394 -0.070048 -0.100306 0.090469 0.035767 0.105713 0.042763 0.025109 0.061913 -0.119392 0.028416 0.057069 -0.096076 -0.054994 -0.101195 -0.024261 -0.031936 -0.083643 0.005577 0.016511 -0.039811 0.056912 0.036453 -0.065546 0.165046 -0.040476 -0.114879 -0.063539 0.071039 -0.007082 -0.088160 0.004740 -0.032877 0.059439 -0.026080 0.052535 -0.027243 0.014609 0.087580 0.108256 -0.077109 0.073948 -0.043111 -0.051026 0.055443 0.072192 -0.036062 -0.059025 0.033596 0.060867 -0.114654 -0.070475 -0.060657 0.028155 0.119585 -0.202927 -0.091239 0.076554 -0.085833 -0.112653 -0.145134 0.057280 0.052748 -0.092949 -0.075163 0.015958 0.095562 0.017294 0.022260 -0.016658 -0.132187 -0.048253 0.122979 -0.077567 -0.029625 -0.035114 0.005762 -0.262472 -0.119464 -0.059585 -0.153680 -0.007860 0.065098 -0.127463 0.064759 -0.090277 -0.082205 -0.048659 -0.126138 -0.074425 0.041057 0.134455 0.068309 -0.007395 -0.022130 0.026472 -0.134822 0.048256 0.018658 0.012749 0.059793 0.099976 -0.191006 0.132530 -0.170932 -0.147041 -0.018949 0.028479 -0.023416 -0.066920 -0.104122 0.188006 -0.021346 -0.096282 0.070508 -0.153794 0.042579 0.035572 -0.008088 0.017599 0.096983 0.015083 -0.124983 0.055359 0.054355
-0.002891 0.050754 0.133822 0.085932 -0.048635 0.040060 0.010514 0.083923 -0.054707 -0.046858 0.060635 0.099887 -0.011414 -0.121201 0.047852 -0.018670 0.065206 -0.024298 0.006122 0.046800 -0.038431 -0.188214 -0.041522 -0.035378 -0.068099 -0.048560 0.049085 -0.025538 -0.043385 0.151909 -0.000493 -0.049422 -0.050533 0.075501 -0.070489 -0.009660 -0.107922 -0.046323 0.094480 0.102450 -0.055392 -0.033554 0.042755 0.017037 0.049887 0.028092 -0.047460 -0.045010 -0.000621 -0.055475 -0.044706 0.126002 -0.023129 -0.019046 0.066776 0.008071 -0.134169 -0.018676 0.057256 0.079241 -0.114216 0.031735 0.004690 -0.000098 -0.008988 0.002924 0.053145 0.004820 0.017381 0.037413 0.044190 0.103279 -0.172305 -0.104546 -0.011947 0.023773 -0.051258 -0.013089 -0.091517 0.071145 0.080606 0.079722 -0.032445 0.009174 0.013140 -0.054082 0.035492 -0.015357 -0.019736 0.023267 0.041502 -0.097534 -0.064285 -0.040368 0.006859 -0.039708 0.074402 0.026678 -0.052509 0.061972 -0.027779 -0.007265 -0.085728 0.134998 -0.074197 0.036677 0.018873 0.002935 -0.143231 -0.091952 0.017069 0.010563 0.175113 0.024427 -0.002840 -0.000610 -0.081144 0.024558 -0.030021 0.104079 0.164051 -0.054980 0.086431 0.170992 0.098758 -0.051235 0.032036 -0.008659 -0.065182 0.020275 -0.058209 0.101741 -0.022903 -0.100336 0.071742 0.031149 0.149615 0.034104 0.200426 0.068424 -0.086139 0.019667 0.086633 0.014396 0.032360 -0.157652 0.054527 0.105095 0.046377 0.049356 -0.066037 0.014857 0.145202 0.033812 0.104508 0.036822 -0.046142 -0.060720 0.051731 0.007566 -0.071879 -0.019598 -0.099177 -0.021892 0.089420 -0.088073 -0.016608 -0.011011 0.048907 0.089557 0.006206 -0.018557 0.137380 -0.016620 -0.004037 -0.035122 0.153212 -0.087318 0.029489 -0.053656 0.038192 0.131790 0.065447 0.025347 -0.044746 -0.066270 -0.004749 -0.041447 -0.035943 -0.080113 0.024194 0.021783 -0.057821 0.007751 0.136701 -0.043394
0.060952 -0.032085 0.033387 -0.081486 0.023829 -0.037909 -0.017511 0.046869 0.071708 0.070491 0.024184 0.029528 0.057989 -0.049696 -0.081878 0.098627 -0.039211 0.064792 0.021660 0.210650 0.026509 0.008354 0.079885 -0.124629 0.098408 0.063644 -0.066907 0.001275 0.018697 -0.077308 0.071090 -0.015285 -0.023295 -0.045926 -0.017028 -0.052766 0.045199 0.006289 -0.088883 -0.030274 -0.094861 0.106354 0.012198 0.052796 0.048091 -0.014278 -0.086483 0.004906 -0.002821 -0.003223 0.039856 0.061722 -0.119297 0.067272 0.020229 -0.042484 0.039530 -0.034785 0.074185 -0.050015 -0.161930 -0.007966 0.006323 0.005724 0.058812 0.092599 -0.070051 -0.145057 -0.083650 0.082559 -0.247453 -0.007699 0.074194 -0.052358 0.058564 0.036053 0.105106 0.038251 0.103541 -0.065161 -0.025080 0.054470 -0.141979 0.084394 0.087884 0.055159 0.026669 -0.132660 0.002089 0.010675 0.072282 0.135402 0.017842 0.090916 -0.105143 0.116029 -0.081063 0.001905 -0.018973 0.052479 0.084611 -0.059635 -0.024741 -0.088505 -0.062388 -0.115458 -0.033666 -0.143693 0.020978 0.005961 0.148632 -0.075659 -0.033098 -0.148225 0.004109 -0.119785 -0.036636 0.018687 -0.119087 -0.121405 -0.059139 -0.063189 0.151366 -0.083421 0.017491 0.007763 -0.150816 -0.059498 -0.090180 0.059817 -0.078110 0.029340 0.109138 0.049785 -0.042306 0.073090 0.031368 -0.195973 0.123185 -0.112210 -0.114169 -0.025231 0.002232 0.119187 0.148638 0.018306 0.116190 0.029617 -0.105191 0.070049 0.034272 -0.074462 -0.055693 0.057575 -0.083482 -0.053192 0.033631 0.046678 -0.048037 0.015068 -0.072036 0.003893 -0.128243 0.078196 0.082139 0.073078 -0.073656 0.040711 -0.143254 0.072241 0.032118 -0.038949 -0.121209 0.045808 0.008953 -0.049180 0.011663 -0.014103 0.013019 0.019042 0.004133 0.051109 -0.145639 -0.025707 -0.012017 0.000595 -0.045058 0.082444 -0.000100 0.064962 0.061665 -0.110662 -0.010746 0.033340 0.117029 0.008251
-0.044045 0.049783 0.002537 0.037893 -0.000048 0.022199 0.052251 0.134460 -0.021376 0.005304 0.017843 -0.010202 -0.061784 0.025843 0.170959 -0.024036 -0.019859 -0.111030 -0.016085 0.070423 -0.033548 0.144246 -0.048301 0.029238 0.013181 0.073435 -0.062527 -0.057582 0.028819 0.028317 -0.083534 -0.302107 0.002374 -0.086796 0.069575 0.027058 -0.045789 0.096986 0.022459 -0.027067 -0.121090 0.005173 0.019144 0.028442 0.056701 -0.051258 0.001552 -0.021788 0.058174 -0.053649 -0.124193 0.006030 -0.004883 0.017338 0.094896 -0.092338 -0.015063 -0.035814 0.021547 -0.033053 0.067913 0.024788 0.064896 0.025050 0.060541 0.103041 -0.041449 -0.169035 -0.088565 0.199981 0.017313 -0.040953 -0.033189 -0.151940 -0.339130 -0.060938 0.043474 0.057270 -0.083467 0.034865 0.007319 -0.017704 0.024538 0.086124 0.014147 -0.011207 -0.105996 -0.068397 0.046183 0.039337 -0.049715 0.064138 0.111899 0.037823 0.036273 -0.000361 -0.013429 -0.003125 0.118984 -0.034196 0.065106 -0.074359 0.007602 -0.019575 -0.059698 0.020076 0.052348 0.100814 -0.059979 0.005281 -0.024499 0.059447 -0.067657 -0.106574 0.073818 -0.039316 0.210646 0.055381 -0.025100 0.193334 0.125848 -0.002570 0.116566 -0.089991 0.110145 -0.033958 -0.010627 0.035877 0.115024 -0.169591 0.009348 0.032539 0.041644 0.016826 -0.024133 -0.001734 0.161051 -0.087533 -0.190776 0.017472 -0.015798 -0.115219 0.026625 -0.021969 -0.005022 0.054156 -0.138289 0.038882 0.093516 -0.013977 -0.122319 0.035717 0.028537 -0.084731 0.033644 -0.064586 0.022858 0.061636 -0.122169 -0.010198 -0.049884 0.057060 -0.035673 0.033599 0.084263 -0.098648 -0.053060 0.029860 -0.059189 -0.129731 -0.038768 -0.095352 -0.108304 -0.023665 -0.055415 0.061377 0.090550 0.057684 0.027630 0.077670 0.094772 0.064646 0.014599 0.123033 -0.083142 -0.058983 -0.071446 -0.005369 0.005358 -0.106015 0.179697 0.083157 -0.068360 0.021472 0.023265 0.029316
-0.002872 0.017079 -0.151523 0.042529 -0.078111 0.071735 0.035902 -0.062036 -0.064640 -0.009283 -0.040463 -0.066394 -0.061701 0.009713 -0.097556 0.047099 0.076021 0.114303 0.000381 -0.020233 -0.042865 0.116915 -0.058749 -0.008132 0.049103 -0.011402 -0.085727 -0.073775 -0.029754 0.063283 -0.022010 0.139918 -0.063936 0.026035 0.044364 0.001734 -0.094110 -0.039079 -0.103801 -0.050866 0.044411 0.009737 0.106440 -0.090954 0.025280 -0.226114 -0.076059 -0.061884 -0.026350 0.007238 0.166679 0.067505 -0.040952 0.007279 -0.022626 0.004068 -0.003177 -0.100581 -0.041249 0.022983 0.041495 -0.081145 0.048217 -0.007752 -0.006569 0.014275 -0.115255 -0.050372 0.006942 -0.221449 0.005638 -0.092685 0.099318 0.027620 -0.034601 0.144665 -0.000854 0.008110 0.018185 0.051511 -0.014604 0.031422 0.015804 -0.062138 -0.016859 0.136934 -0.007504 -0.091339 0.014022 0.012179 -0.011925 -0.134578 0.043885 0.005514 0.175991 0.132868 -0.053695 0.080948 -0.130001 -0.021882 -0.048610 -0.119930 0.034745 0.003477 -0.016795 -0.132658 0.063728 0.130089 -0.085424 0.003963 -0.102331 -0.098888 -0.135075 -0.124135 -0.094904 -0.131388 -0.101758 -0.070799 0.000321 0.017768 0.064521 -0.072585 0.004345 0.035353 -0.053557 0.018272 -0.162387 -0.166923 0.117948 0.061067 -0.000599 0.090586 0.119323 0.014710 -0.043039 -0.002088 -0.150141 0.051401 -0.031979 0.019092 0.013818 -0.098117 0.075664 0.111991 0.011514 -0.019208 0.090546 0.029596 -0.096433 -0.078936 0.000072 0.068720 0.078206 -0.033354 0.204933 0.024481 -0.097576 0.004591 0.034503 -0.092818 -0.085794 -0.120464 -0.158213 0.105435 -0.033797 -0.037355 -0.092570 0.001191 0.065278 -0.066762 -0.083579 0.041657 0.113744 -0.033561 0.069642 -0.061043 -0.080369 0.107223 -0.079528 0.108593 0.174070 -0.030932 -0.115089 -0.050768 0.046559 0.005367 -0.100962 0.073596 -0.080534 -0.096035 0.108161 0.034667 -0.031558 0.017444 -0.006194 -0.034179
