0.993557
0.991681
0.978196
-0.997735
-0.984827
-0.978145
0.975630
-0.949643
-0.987413
0.977765
-0.991377
0.980358
0.970720
-1.000000
0.955811
-0.938899
0.880926
0.963446
0.977801
0.961809
-0.979653
-0.981097
-0.978722
0.983382
-0.831054
0.977202
-0.986682
0.979663
0.966856
0.949288
0.973252
-0.987723
-0.971925
-0.968077
-0.972207
0.978600
0.978543
-0.977851
-0.983488
-0.999725
0.975681
-0.910136
-0.985322
-0.980459
-0.988567
-0.972192
-0.988928
0.983759
0.979743
-0.992883
-0.992215
-0.990665
0.858138
0.980793
0.981169
0.988288
-0.978306
0.970666
-0.982994
0.989806
0.979315
-0.975403
0.974584
-0.956243
0.962620
-0.997580
-0.987100
0.976827
-0.948228
-0.980767
-0.903749
-0.991221
-0.984170
-0.980985
-0.997322
-0.981085
0.930611
-0.884251
0.987156
0.986006
-0.982804
0.945900
-0.975364
-0.991299
-0.967075
-0.990978
0.976029
0.945797
0.981136
-0.988698
-0.986914
0.979235
0.976091
-0.976945
-0.968093
-0.989410
-0.978121
-0.979530
-0.980654
0.970570
-0.995606
-0.986675
0.987513
0.980177
0.957822
-0.995569
0.966968
0.975018
0.968420
-0.996110
-0.988966
-0.968053
-0.970058
-0.993055
0.853224
0.965998
-0.990126
0.957320
-0.982106
-0.994906
0.971538
0.982890
0.996070
0.841221
0.984435
0.970170
-0.994445
0.969164
-0.993134
-0.965660
0.969297
-0.963724
0.986118
-0.983971
-0.992677
0.979300
0.987401
0.812360
0.947761
0.843564
-0.993330
-0.983278
-0.974892
0.975063
0.977135
-0.984896
0.978289
0.975258
0.853207
-0.983485
-0.859385
1.000000
-0.960011
-0.975217
-0.975306
-0.990196
-0.992730
0.966777
0.959910
-0.955956
0.957856
0.982038
0.960582
0.990263
0.974824
0.981884
0.983458
-0.986554
-0.982852
-0.975101
0.913394
-0.987941
0.975360
0.980789
-0.977542
0.979516
0.978996
-0.944566
0.969312
-0.978892
-0.996122
-0.943260
-0.998485
-0.956799
-0.982904
0.956741
-0.991610
-0.983450
0.999922
0.960188
-0.981903
-0.992675
0.989136
0.978636
0.981485
-0.994770
