-0.727311 -0.839711 -0.479595 0.778991 0.756258 0.824402 -0.604365 0.905386 0.617721 -0.673958 0.892312 -0.741832 -0.734830 0.659867 -0.806962 0.504543 -0.625854 -0.733885 -0.532273 -0.965233 0.629763 0.556329 0.870424 -0.490237 0.735390 -0.593485 0.592653 -0.692675 -0.549853 -0.571861 -0.667698 0.854149 0.728973 0.683634 0.826096 -0.399888 -0.657291 0.698677 0.710255 0.451090 -0.779311 0.571637 0.663843 0.960552 0.782455 0.681498 0.616506 -0.780083 -0.827224 0.743670 0.680065 0.536342 -0.537110 -0.536608 -0.648545 -0.376857 0.808165 -0.602708 0.710753 -0.606144 -0.565224 0.760286 -0.529371 0.792041 -0.549413 0.866318 0.933211 -0.622645 0.722715 0.685043 0.665048 0.582357 0.828814 0.981504 0.661250 0.636098 -0.589477 0.760097 -0.654116 -0.867044 0.754868 -0.747740 0.787220 0.745149 0.521827 0.609863 -0.928644 -0.623401 -0.593763 0.573592 0.723588 -0.733304 -0.887228 0.866648 0.756672 0.643228 0.863105 0.647548 0.537254 -0.667483 0.681780 0.922235 -0.736377 -0.659484 -0.490380 0.652965 -0.502121 -0.592480 -0.819978 0.696638 0.661451 1.000000 0.653713 0.682994 -0.480083 -0.657234 0.618511 -0.530543 0.954965 0.626872 -0.703215 -0.595620 -0.698157 -0.188744 -0.914356 -0.696077 0.696229 -0.669390 0.916871 0.548096 -0.630404 0.858045 -0.702304 0.782304 0.838997 -0.438576 -0.686293 -0.655061 -0.741373 -0.643889 0.909208 0.661044 0.550995 -0.623592 -0.720624 0.668142 -0.388406 -0.498547 -0.771278 0.718357 0.895579 -0.672994 0.872307 0.738380 0.920709 0.714088 0.679336 -0.727989 -0.524870 0.834905 -0.851786 -0.571581 -0.487066 -0.807088 -0.676395 -0.756576 -0.706432 0.736934 0.803804 0.616332 -0.773081 0.518771 -0.718967 -0.784679 0.735159 -0.667754 -1.000000 0.646967 -0.707460 0.753450 0.901088 0.642913 0.861697 0.418629 0.861825 -0.692003 0.648720 0.909095 -0.722288 -0.623050 0.734679 0.690129 -0.856204 -0.617628 -0.713536 0.624945
-0.916239 -0.912601 -0.722404 0.787709 0.840123 0.454077 -0.524941 0.808143 0.533581 -0.675517 0.683178 -0.752086 -0.682080 0.791969 -0.671099 0.766527 -0.841408 -0.754182 -0.472989 -0.707861 0.637125 0.789207 0.630868 -0.653731 0.707828 -0.754880 0.821361 -0.751439 -0.629853 -0.602581 -0.629281 0.648708 0.707344 0.639326 0.814786 -0.820664 -0.797976 0.789191 0.486772 0.890725 -0.696049 0.603365 0.553186 0.596314 0.622400 0.667629 0.612065 -0.734338 -0.676343 0.492881 0.760231 0.729728 -0.808743 -0.764313 -0.650359 -0.755294 0.636957 -0.531713 0.556845 -0.753944 -0.604378 0.738481 -0.622127 0.703050 -0.651302 0.686664 0.686742 -0.660107 0.865945 0.894690 0.377225 0.885870 1.000000 0.796769 0.694780 0.819190 -0.781333 0.394227 -0.567522 -0.860177 0.744423 -1.000000 0.558809 0.707375 0.673626 0.922952 -0.530318 -0.825609 -0.922741 0.641686 0.570095 -0.629006 -0.806024 0.637384 0.708112 0.685948 0.911284 0.718214 0.476137 -0.545423 0.766528 0.566477 -0.703400 -0.704223 -0.607619 0.804784 -0.807326 -0.769089 -0.574456 0.673564 0.423988 0.570441 0.583056 0.779144 -0.653634 -0.610154 0.992641 -0.555153 0.712014 0.746565 -0.835321 -0.659924 -0.753694 -0.610167 -0.594037 -0.694064 0.725287 -0.577176 0.686115 0.575165 -0.732768 0.638836 -0.543246 0.682616 0.782816 -0.736052 -0.563917 -0.682670 -0.569150 -0.709820 0.616952 0.744227 0.889916 -0.743117 -0.791422 0.671310 -0.604846 -0.723780 -0.607888 0.895578 0.612658 -0.712424 0.496919 0.632683 0.637539 0.773011 0.792558 -0.701799 -0.804254 0.444795 -0.492688 -0.572260 -0.750763 -0.854823 -0.715904 -0.800458 -0.619270 0.840296 0.593185 0.559105 -0.556007 0.809360 -0.857802 -0.714688 0.450463 -0.580267 -0.700255 0.786861 -0.705081 0.479918 0.660159 0.691296 0.883101 0.822787 0.704224 -0.849585 0.611543 0.536830 -0.921928 -0.620823 0.695194 0.723592 -0.809146 -0.722403 -0.541656 0.737824
-0.588554 -0.689848 -0.527795 0.866184 0.616547 0.785449 -0.605941 0.635377 0.670428 -0.869298 0.665501 -0.713913 -0.747120 0.759802 -0.537415 0.655286 -0.635206 -0.869625 -0.458496 -0.788461 0.640349 0.642852 0.766995 -0.500490 0.455063 -0.672264 0.781044 -0.723367 -0.685977 -0.571203 -0.384965 0.731637 0.739104 0.827257 0.788428 -0.831421 -0.800425 0.552067 0.683336 0.491372 -0.640409 0.902782 0.961338 0.716805 0.779484 0.572710 0.530573 -0.838537 -0.937563 0.818127 0.773432 1.000000 -0.613590 -0.760947 -0.952446 -0.717516 0.707170 -0.661035 0.562101 -0.690032 -0.738646 0.798110 -0.820626 0.778468 -0.639173 0.637950 0.759790 -0.601672 0.697012 0.484358 0.652535 0.538538 0.609489 0.353746 0.655490 0.649540 -0.541812 0.494732 -0.813872 -0.557277 0.761373 -0.709775 0.572709 0.922976 0.729219 0.723005 -0.886628 -0.552349 -0.587652 0.869540 0.539839 -0.826975 -0.467175 0.527870 0.742459 0.751640 0.697966 0.710621 0.717156 -0.705736 0.728096 0.845005 -0.728390 -0.799699 -0.613471 0.818077 -0.811486 -0.650497 -0.765022 0.739452 0.753455 0.967744 0.562463 0.890998 -0.544606 -0.494013 0.468934 -0.576206 0.708627 0.831280 -0.733490 -0.670922 -0.657848 -0.549600 -0.504022 -0.521375 0.636764 -0.734712 0.679603 0.716667 -0.442394 0.486013 -0.651438 0.780622 0.639222 -0.715156 -0.523512 -0.815884 -0.706014 -0.617039 0.752725 0.746443 0.459941 -0.891348 -0.858011 0.865730 -0.600125 -0.605604 -0.836154 0.677771 0.559908 -0.505118 0.560158 0.668443 0.846019 0.764990 0.713441 -0.843983 -0.658220 0.771728 -0.751401 -0.751897 -0.878726 -0.499116 -0.523849 -0.758477 -0.470676 0.666412 0.814144 0.576049 -0.743791 0.941498 -0.812927 -0.666865 0.680081 -0.681981 -0.647329 0.694333 -1.000000 0.771520 0.823705 0.815384 0.788845 0.674796 0.627589 -0.653517 0.591037 0.787212 -0.628711 -0.715787 0.464475 0.708646 -0.669224 -0.634450 -0.747287 0.627696
-0.724414 -0.468270 -0.751004 0.734848 0.798207 0.662787 -0.652121 0.715121 0.672248 -0.768119 0.789353 -0.455010 -0.605030 0.749875 -0.697196 0.619099 -0.572697 -0.700791 -0.773157 -0.523911 0.673345 0.548059 0.846586 -0.784084 0.669932 -0.594124 0.674794 -0.563895 -0.715457 -0.642309 -0.947862 0.623597 0.646530 0.559907 0.840227 -0.734350 -0.655717 0.963154 0.659050 0.698306 -0.571501 0.432667 0.577219 0.819435 0.679732 0.805173 0.695264 -0.617838 -0.671184 1.000000 0.889361 0.875151 -0.748215 -0.805983 -0.746543 -0.840458 0.946591 -0.544793 0.618680 -0.808054 -0.543933 0.744490 -0.763837 0.778251 -0.494005 0.762063 0.452680 -0.531081 0.831506 0.685132 0.481286 0.855915 0.644062 0.593873 0.938244 0.846289 -0.553082 0.669411 -0.661242 -0.670030 0.844363 -0.630437 0.725165 0.753469 0.830255 0.818603 -0.840053 -0.454665 -0.586861 0.730331 0.940090 -0.486701 -0.447497 0.573857 0.859660 0.575587 0.577422 0.636002 0.930355 -0.514543 0.677913 0.735204 -0.812279 -0.716685 -0.497502 0.745414 -0.531835 -0.682608 -0.654824 0.853616 0.878160 0.594281 0.782688 0.829376 -0.565956 -0.624736 0.551722 -0.852363 0.897846 0.809984 -0.662649 -0.710762 -0.866767 -0.504011 -0.628268 -0.756833 0.709282 -0.477431 0.883187 0.647290 -0.601786 0.932148 -0.641135 0.689410 0.870300 -0.745986 -0.591313 -0.583817 -0.445880 -0.612858 0.741125 0.490431 0.516186 -0.705349 -0.703694 0.634976 -0.649347 -0.745414 -0.460459 0.573057 0.726244 -0.619101 0.876732 0.746934 0.607757 0.803333 0.815940 -0.847332 -0.593652 0.649401 -0.536910 -0.596821 -0.781660 -0.634357 -0.478935 -0.725464 -0.365629 0.881246 0.433538 0.476105 -0.829574 0.572464 -0.535434 -0.667386 0.738769 -0.779017 -0.759618 0.461625 -0.811439 0.783226 0.674119 0.754988 0.574630 0.751418 0.829577 -0.608332 0.794608 0.606609 -1.000000 -0.729190 0.643390 0.646783 -0.516748 -0.542268 -0.960604 0.845296
-0.956181 -0.791990 -0.677611 0.717831 0.778323 0.776962 -0.468386 0.771949 0.731769 -0.817167 0.665273 -0.397823 -0.438538 0.643343 -0.806329 0.615116 -0.850165 -0.717307 -0.664632 -0.660993 0.589080 0.634134 0.778928 -0.659054 0.692268 -0.625153 0.777148 -0.608848 -0.781274 -0.532408 -0.382576 0.500201 0.637575 0.659746 0.651413 -0.720519 -0.589610 0.513391 0.743479 0.824019 -0.615671 0.550290 0.440502 0.595346 0.807417 0.621215 0.812129 -0.679581 -0.680878 0.645977 0.640401 0.558615 -0.637205 -0.862608 -1.000000 -0.976851 0.750822 -0.558069 0.772485 -0.547232 -0.661191 0.768165 -0.741234 0.771879 -0.476285 0.631332 0.733978 -0.548813 0.308560 0.814482 0.449975 0.777618 0.696579 0.617165 0.681828 0.704690 -0.617658 0.523070 -0.867405 -0.598543 0.753816 -0.687979 0.732712 0.821970 0.897101 1.000000 -0.792269 -0.561180 -0.858424 0.667280 0.518786 -0.760971 -0.945445 0.601254 0.617198 0.732785 0.684516 0.687854 0.795317 -0.619012 0.701507 0.533112 -0.635451 -0.579463 -0.876865 0.762796 -0.626492 -0.586088 -0.586153 0.718019 0.625678 0.700297 0.806007 0.935145 -0.611407 -0.750762 0.407375 -0.674248 0.821434 0.865335 -0.888423 -0.781588 -0.700044 -0.679147 -0.619820 -0.875528 0.714377 -0.744334 0.817610 0.711328 -0.648809 0.737103 -0.632688 0.714570 0.657371 -0.627432 -0.752588 -0.659285 -0.580002 -0.770132 0.742949 0.672472 0.835185 -0.672557 -0.781909 0.763075 -0.519720 -0.634007 -0.671039 0.870201 0.631127 -0.657470 0.632460 0.552235 0.470604 0.889611 0.797519 -0.631344 -0.700321 0.793612 -0.722033 -0.676889 -0.774227 -0.500699 -0.600342 -0.498138 -0.681851 0.740459 0.943273 0.745784 -0.869705 0.728161 -0.559611 -0.455431 0.565474 -0.735398 -0.737331 0.711619 -0.399075 0.859295 0.800042 0.716055 0.765314 0.703915 0.792245 -0.731531 0.685594 0.831731 -0.749452 -0.849134 0.838865 0.764191 -0.672060 -0.562538 -0.555955 0.653792
-0.805993 -0.572867 -0.814465 0.647631 0.713500 0.725493 -0.761811 0.719047 0.707850 -0.508472 0.778922 -0.725144 -0.783968 0.779375 -0.374932 0.761613 -0.761631 -0.702890 -0.580661 -0.651457 0.750270 1.000000 0.693006 -0.470994 0.713633 -0.765676 0.581554 -0.528882 -0.440402 -0.558231 -0.474292 0.838082 0.859772 0.671509 0.851840 -0.733872 -0.590275 0.724924 0.704788 0.832172 -0.657869 0.708837 0.691562 0.748757 0.697024 0.654486 0.867970 -0.718671 -0.678589 0.683273 0.477422 0.766467 -0.560125 -0.600406 -0.628242 -0.655278 0.629398 -0.597881 0.588057 -1.000000 -0.621859 0.997834 -0.779230 0.770518 -0.584278 0.760967 0.726595 -0.906592 0.591696 0.637743 0.640716 0.659790 0.662971 0.758204 0.680494 0.679335 -0.572622 0.677885 -0.637874 -0.517782 0.717679 -0.468402 0.797110 0.769622 0.887782 0.696795 -0.719120 -0.601271 -0.687293 0.949058 0.801343 -0.523905 -0.657246 0.934699 0.647740 0.883901 0.584780 0.741545 0.814018 -0.486122 0.752248 0.799864 -0.910527 -0.577487 -0.525298 0.602073 -0.639450 -0.631644 -0.767853 0.895958 0.781202 0.819678 0.734875 0.464251 -0.683588 -0.705673 0.901762 -0.652825 0.618353 0.616012 -0.609890 -0.758479 -0.613494 -0.397460 -0.786429 -0.551285 0.603865 -0.628215 0.955602 0.831343 -0.677442 0.859197 -0.711773 0.639883 0.692494 -0.806761 -0.896408 -0.705904 -0.326659 -0.666194 0.757719 0.677247 0.769476 -0.755039 -0.600492 0.739636 -0.630577 -0.673864 -0.699528 0.786890 0.912139 -0.782440 0.788547 0.671289 0.807096 0.774891 0.870381 -0.602111 -0.606614 0.672139 -0.723527 -0.619669 -0.628079 -0.721337 -0.523374 -0.600230 -0.566028 0.797807 0.662615 0.664293 -0.625078 0.766538 -0.559395 -0.414688 0.611397 -0.580222 -0.630359 0.843931 -0.578494 0.947832 0.682859 0.671377 0.686114 0.599795 0.814250 -0.700456 0.685349 0.607734 -0.609538 -0.402748 0.666416 0.973573 -0.606127 -0.534067 -0.673802 0.784434
-0.630468 -0.848193 -0.652249 0.671822 0.773517 0.716010 -0.662048 0.575973 0.615135 -0.492850 0.838473 -0.695472 -0.864673 0.524100 -0.783754 0.597934 -0.529498 -0.796251 -0.877692 -0.327532 0.775231 0.726173 0.787724 -0.619169 0.557404 -0.670210 0.814995 -0.536237 -0.437109 -0.657344 -0.634147 0.769715 0.756364 0.695976 0.904990 -0.739893 -0.550518 0.563350 0.683171 0.868439 -0.556184 0.432776 0.820258 0.858983 0.582202 0.468203 0.421645 -0.833256 -0.762270 0.597118 0.623098 0.674528 -0.837982 -0.885053 -0.617104 -0.369767 0.613871 -0.724025 0.494237 -0.797531 -0.767168 0.656879 -0.760291 0.848494 -0.565252 0.747039 0.567155 -0.604951 0.614929 0.845173 0.617834 0.879755 0.663490 0.652749 0.776336 0.793436 -0.515564 0.591547 -0.748858 -0.677538 0.942438 -0.772245 0.768304 0.844823 0.645720 0.914772 -0.893786 -0.581692 -0.812984 0.811629 1.000000 -0.805098 -0.705382 0.636461 0.640534 0.690969 0.717576 0.727022 0.874942 -0.726667 0.713971 0.481893 -0.578869 -1.000000 -0.591028 0.625388 -0.705510 -0.600948 -0.809093 0.529354 0.484857 0.699006 0.592169 0.672251 -0.706898 -0.753526 0.794213 -0.602779 0.616475 0.924806 -0.813317 -0.818586 -0.627731 -0.476811 -0.490413 -0.510053 0.650807 -0.560007 0.958471 0.637984 -0.754669 0.618870 -0.847193 0.623089 0.582395 -0.722772 -0.638079 -0.692100 -0.626907 -0.556618 0.721354 0.650953 0.668795 -0.686960 -0.668177 0.920034 -0.797610 -0.625617 -0.698232 0.843727 0.771437 -0.683968 0.557268 0.636462 0.908044 0.585702 0.736771 -0.617003 -0.613278 0.608223 -0.670997 -0.583234 -0.668094 -0.764013 -0.923615 -0.753037 -0.591377 0.720914 0.880117 0.565854 -0.462618 0.757846 -0.585560 -0.790682 0.771076 -0.799253 -0.463562 0.741012 -0.603876 0.619452 0.683290 0.691888 0.802063 0.839452 0.602803 -0.808011 0.868967 0.778619 -0.684219 -0.526811 0.655674 0.918825 -0.610030 -0.708434 -0.394726 0.856838
-0.729118 -0.687563 -0.680954 0.841845 0.635124 0.686274 -0.775060 0.539999 0.698083 -0.775344 0.843407 -0.864832 -0.616609 0.795097 -0.766972 0.810244 -0.713668 -0.522355 -0.590417 -0.740666 0.822413 0.634568 0.628499 -0.632096 0.418437 -0.576392 0.678741 -0.665243 -0.863718 -0.736426 -0.871443 0.635261 0.618141 0.810970 0.690299 -0.585059 -0.896942 0.593140 0.677022 0.800165 -0.812004 0.739201 0.695462 0.745280 0.750330 0.626940 0.825559 -0.648636 -0.533979 0.959574 0.717107 0.776268 -0.507728 -0.745091 -0.591804 -0.719922 0.696989 -0.632842 0.858307 -0.602357 -0.589289 0.667962 -0.645978 0.750271 -0.775734 0.686230 0.699785 -0.458389 0.809237 0.672835 0.646855 0.759460 0.777991 0.669746 0.624169 0.728391 -0.680287 0.608997 -0.648168 -0.566968 0.662884 -0.493847 0.767663 0.753435 0.732264 0.826737 -0.812906 -0.589986 -0.887504 0.421873 0.668676 -0.684462 -0.618592 0.653057 0.739368 0.765140 0.769442 0.713736 0.500837 -0.700312 0.762648 0.859314 -0.694041 -0.550314 -0.576223 0.480177 -0.723872 -0.699957 -0.407054 0.744141 0.600677 0.718284 0.620405 0.565224 -0.672388 -0.871524 0.869740 -1.000000 1.000000 0.831874 -0.959919 -0.740652 -0.689181 -0.529025 -0.799024 -0.676309 0.767060 -0.411570 0.726163 0.666945 -0.645923 0.649970 -0.687177 0.599279 0.827915 -0.707134 -0.661388 -0.682957 -0.552761 -0.678922 0.915345 0.774502 0.819291 -0.508945 -0.841409 0.698000 -0.917671 -0.656409 -0.524362 0.796184 0.495914 -0.613283 0.643631 0.797834 0.764347 0.698727 0.967127 -0.616652 -0.657373 0.693706 -0.619617 -0.762907 -0.650447 -0.693241 -0.652056 -0.821887 -0.662864 0.705848 0.790215 0.610004 -0.617257 0.758414 -0.549784 -0.944655 0.848638 -0.660769 -0.583713 0.598696 -0.659129 0.460146 0.634306 0.484636 0.685085 0.772827 0.740704 -0.566097 0.666780 0.711087 -0.659714 -0.609137 0.721562 0.715759 -0.721980 -0.857576 -0.627037 0.693203
-0.679021 -0.516135 -0.541669 0.733123 0.871164 0.822189 -0.775141 0.688556 0.806086 -0.619157 0.659152 -0.731118 -0.681655 0.750293 -0.933746 0.766435 -0.647469 -0.549661 -0.689625 -0.823913 0.797459 1.000000 0.844240 -0.818853 0.674260 -0.678438 0.586777 -0.514807 -0.535219 -0.683162 -0.933968 0.785321 0.814860 0.677351 0.683353 -0.636083 -0.633891 0.821119 0.918016 0.687398 -0.915832 0.654085 0.619138 0.611206 0.829487 0.903966 0.729052 -0.847901 -0.603394 0.848319 0.745607 0.648963 -0.880118 -0.590300 -0.795933 -0.545208 0.642804 -0.418525 0.793576 -0.584747 -0.698348 0.673635 -0.499825 0.755261 -0.541455 0.775275 0.813078 -0.683197 0.712324 0.698339 0.680014 0.507356 0.768470 0.640449 0.572937 0.896017 -0.479117 0.745471 -0.879685 -0.530184 0.690958 -0.749487 0.767425 0.769053 0.689854 0.741173 -0.926540 -0.719314 -0.887097 0.647442 0.756186 -0.620518 -0.554404 0.896215 0.817017 0.677818 0.526032 0.546430 0.662490 -0.381377 0.640786 0.707606 -0.451850 -1.000000 -0.878927 0.856662 -0.535378 -0.859653 -0.570949 0.738303 0.747865 0.896510 0.616105 0.912033 -0.615889 -0.743328 0.640151 -0.683412 0.604772 0.617957 -0.726633 -0.637348 -0.822504 -0.376275 -0.724700 -0.631499 0.800199 -0.609640 0.778336 0.781719 -0.472675 0.743773 -0.592847 0.576598 0.419970 -0.560974 -0.780346 -0.726330 -0.705320 -0.564742 0.629766 0.700213 0.692603 -0.657482 -0.739869 0.722747 -0.746467 -0.699697 -0.566508 0.752758 0.894055 -0.644393 0.693878 0.694881 0.857427 0.754391 0.658867 -0.711761 -0.720448 0.477940 -0.471466 -0.857257 -0.772452 -0.755600 -0.406356 -0.592449 -0.759242 0.579018 0.690274 0.377418 -0.717145 0.544698 -0.531578 -0.819933 0.832218 -0.497146 -0.486132 0.725015 -0.475838 0.766264 0.732733 0.586302 0.794169 0.599509 0.724256 -0.536227 0.734133 0.683974 -0.653314 -0.596195 0.852575 0.746336 -0.728389 -0.612500 -0.796269 0.627040
-0.869314 -0.882675 -0.637602 0.793281 0.711784 0.701327 -0.723060 0.773785 0.629838 -0.627892 0.770087 -0.634754 -0.630854 0.661598 -0.678971 0.719313 -0.546227 -0.577098 -0.686533 -0.648663 0.815289 0.856428 0.697527 -0.874714 0.551143 -0.482400 0.578285 -0.540321 -0.780173 -0.608677 -0.661393 0.816516 0.779786 0.627364 0.710018 -0.665219 -0.753964 0.547221 0.497146 0.639176 -0.595636 0.469180 0.783137 0.887011 0.692464 0.609685 0.506810 -0.565212 -0.636185 0.650470 0.647775 0.674296 -0.608983 -0.655489 -0.525688 -0.758020 0.722433 -0.679166 0.568876 -0.760636 -0.776844 0.699377 -0.678272 0.785255 -1.000000 0.781659 0.657606 -0.764307 0.911738 0.859381 0.622270 0.863918 0.922435 0.739864 0.662699 1.000000 -0.483620 0.439670 -0.712765 -0.564145 0.733802 -0.720121 0.657054 0.617346 0.657739 0.623116 -0.717573 -0.817557 -0.636441 0.857377 0.716892 -0.627031 -0.876861 0.682582 0.445071 0.784122 0.917215 0.697540 0.559712 -0.797024 0.759264 0.816725 -0.636189 -0.654598 -0.521678 0.491087 -0.653291 -0.540006 -0.632637 0.709834 0.853599 0.727538 0.594135 0.647054 -0.628569 -0.665266 0.677578 -0.508897 0.675189 0.623607 -0.627937 -0.710052 -0.771610 -0.548066 -0.790629 -0.775435 0.905754 -0.688956 0.773572 0.668233 -0.723573 0.689291 -0.673879 0.886948 0.575515 -0.669006 -0.690358 -0.384461 -0.677545 -0.855984 0.881628 0.529971 0.635518 -0.480007 -0.649216 0.678087 -0.757466 -0.684537 -0.567784 0.823296 0.561091 -0.711729 0.725729 0.641271 0.599249 0.902648 0.806346 -0.787412 -0.550655 0.539822 -0.623867 -0.571180 -0.894911 -0.786521 -0.857838 -0.811478 -0.662882 0.701221 0.674553 0.922313 -0.719847 0.770094 -0.633013 -0.567219 0.767332 -0.708897 -0.700330 0.806947 -0.530591 0.648824 0.566320 0.691559 0.769932 0.549038 0.581003 -0.774114 0.783150 0.813563 -0.553869 -0.780002 0.790324 0.814907 -0.663816 -0.765187 -0.721912 0.727475
-0.627650 -0.714921 -1.000000 0.389166 0.705736 0.754131 -0.787735 0.667209 0.977086 -0.711538 0.650099 -0.930975 -0.652071 0.781208 -0.576971 0.650828 -0.674889 -0.431377 -0.775260 -0.632313 0.667247 1.000000 0.614626 -0.655391 0.860713 -0.622084 0.651413 -0.820013 -0.602321 -0.892079 -0.571816 0.694530 0.484306 0.735866 0.659905 -0.928057 -0.783872 0.686050 0.655726 0.670387 -0.593185 0.624708 0.705365 0.561914 0.689996 0.638181 0.698164 -0.638850 -0.635390 0.903437 0.476264 0.819447 -0.560521 -0.842896 -0.556788 -0.561973 0.663892 -0.550688 0.762215 -0.636741 -0.947104 0.659046 -0.691920 0.802674 -0.724752 0.815890 0.623029 -0.624682 0.879671 0.734165 0.679609 0.715415 0.625959 0.562396 0.564894 0.681983 -0.657574 0.636636 -0.561176 -0.753731 0.727528 -0.657757 0.562863 0.860849 0.519138 0.729741 -0.653067 -0.805443 -0.821433 0.693328 0.836199 -0.694391 -0.646367 0.764946 0.707735 0.827242 0.634561 0.721489 0.679164 -0.647729 0.913759 0.813314 -0.635959 -0.571345 -0.756337 0.649752 -0.868578 -0.820223 -0.729418 0.581467 0.582080 0.706685 0.725313 0.815023 -0.612733 -0.913888 0.712393 -0.582544 0.882206 0.571336 -0.611516 -0.605396 -0.687685 -0.698650 -0.804651 -0.634507 0.616457 -0.878942 0.771951 0.549691 -0.717584 0.672515 -0.498374 0.774661 0.557386 -0.544847 -0.876592 -0.609397 -0.436446 -0.665482 0.789117 0.726875 0.776963 -0.790976 -0.727692 0.829556 -0.485517 -0.683355 -0.563985 0.692205 0.616967 -0.724990 0.566998 0.737733 0.680665 0.712619 0.695234 -0.839831 -0.645867 0.731791 -0.689057 -0.692091 -0.807870 -0.825550 -0.555350 -0.928748 -0.844021 0.824182 0.777254 0.658618 -0.387496 0.606246 -0.699336 -0.866194 0.582051 -0.842122 -0.525107 0.675453 -0.674466 0.713996 0.550967 0.519283 0.737671 0.633420 0.678306 -0.748839 0.678239 0.740293 -0.496215 -0.738988 0.805869 0.800674 -0.667357 -0.693455 -0.912225 0.605157
-0.996649 -0.834508 -0.878608 0.694922 0.674761 0.681630 -0.598690 0.737812 0.761072 -0.707117 0.587885 -0.785854 -0.666226 0.582064 -0.841919 0.717275 -0.668732 -0.873359 -0.888005 -0.787810 0.585864 0.438522 0.586099 -0.994252 0.728891 -0.739081 0.606027 -0.875341 -0.787353 -0.776153 -0.799923 0.633873 0.769920 0.510416 0.555422 -0.583399 -0.720737 0.442515 0.640102 0.629566 -0.819478 0.529200 0.754960 0.702534 0.606659 0.537472 0.631453 -0.612383 -0.661149 0.718018 0.444109 0.571242 -0.870365 -0.886544 -0.776152 -0.572533 0.580143 -0.802406 0.435953 -0.755979 -0.645075 0.632449 -0.852889 0.503601 -0.989866 0.665243 0.499703 -0.777157 0.677778 0.717912 0.597932 0.649195 0.562768 0.572474 0.609663 0.721117 -0.746220 0.424737 -0.806897 -0.773031 0.576320 -0.855688 0.592747 0.761314 0.536321 0.578887 -0.895176 -0.670317 -0.753729 0.725636 0.486818 -0.763734 -0.704066 0.707201 0.395157 0.519249 0.552149 0.500034 0.492357 -0.893618 0.624843 1.000000 -0.542003 -0.800627 -0.802818 0.810964 -0.632420 -0.870148 -0.784814 0.849748 0.823512 0.519971 0.619720 0.626608 -0.604188 -0.833717 0.785619 -0.669206 0.552022 0.724966 -0.714308 -0.836374 -0.675656 -0.550684 -0.775133 -0.581524 0.601355 -0.695481 0.669079 0.527111 -0.850555 0.679816 -0.827210 0.763532 0.655231 -0.980389 -0.920660 -0.730266 -0.683720 -0.614608 0.706181 0.568155 0.779894 -0.865969 -0.697465 0.640634 -0.771532 -0.744191 -0.598800 0.516260 0.649662 -0.812538 0.608722 0.796000 0.738835 0.534457 0.894523 -0.827760 -0.874361 0.371962 -0.849528 -0.860365 -0.763274 -0.702570 -0.693676 -0.756713 -0.835463 0.612113 0.724172 0.601878 -0.844062 0.548047 -0.609722 -0.695788 0.356097 -0.890761 -0.651798 0.599596 -0.916628 0.715021 0.701588 0.608642 0.549460 0.507478 0.663170 -0.613952 0.705274 0.692024 -0.775037 -0.590701 0.732491 0.564514 -1.000000 -0.815082 -0.824992 0.613781
-0.748930 -0.446032 -0.390367 0.749699 0.730477 0.769252 -0.969003 0.761634 0.767996 -0.535298 0.841608 -0.481818 -0.511239 0.760266 -0.705596 0.520964 -0.473117 -0.496788 -0.613093 -0.646156 0.931144 1.000000 0.738344 -0.723660 0.597754 -0.552150 0.675824 -0.950304 -0.756550 -0.438422 -0.692219 0.582166 0.722369 0.583999 0.741123 -0.617073 -0.648212 0.828328 0.505287 0.747068 -0.490875 0.612083 0.703510 0.918019 0.819961 0.821887 0.752951 -0.679653 -0.511957 0.629525 0.962859 0.899491 -0.805405 -0.850542 -0.716775 -0.568651 0.835780 -0.383928 0.840840 -0.637773 -0.871245 0.690033 -0.682736 0.866490 -0.479657 0.722130 0.809102 -0.623082 0.708601 0.709888 0.756286 0.882010 0.596277 0.667626 0.718334 0.631548 -0.608572 0.699664 -0.647502 -0.576547 0.872360 -0.546040 0.894801 0.552649 0.797049 0.700260 -0.588302 -0.460836 -0.552421 0.898634 0.795723 -0.574540 -0.616534 0.873363 0.895502 0.464875 0.692512 0.835213 0.717605 -0.594964 0.909668 0.821922 -0.623229 -0.469940 -0.731568 0.723927 -0.656801 -0.711574 -0.799316 0.815292 0.854509 0.785101 0.574502 0.645450 -0.632057 -0.607384 0.855195 -0.764545 0.861188 0.677620 -0.612890 -0.730317 -0.453600 -0.428389 -0.668603 -0.485143 0.991593 -0.466171 0.689649 0.849953 -0.630219 0.758594 -0.632114 0.610549 0.813579 -0.498935 -1.000000 -0.608230 -0.553713 -0.821266 0.849674 0.484844 0.750604 -0.716031 -0.499421 0.648994 -0.555084 -0.566150 -0.644336 0.660517 0.793618 -0.625048 0.879862 0.813162 0.839361 0.769213 0.660079 -0.447565 -0.566033 0.935222 -0.550208 -0.569398 -0.568920 -0.767305 -0.822792 -0.672466 -0.441336 0.831125 0.850996 0.590682 -0.655346 0.922809 -0.651251 -0.625063 0.665145 -0.484481 -0.681404 0.683850 -0.693263 0.946773 0.919451 0.708145 0.597010 0.887990 0.772161 -0.565621 0.811025 0.836837 -0.611550 -0.600323 0.557562 0.969774 -0.435564 -0.540609 -0.372271 0.876332
-0.703915 -0.694596 -0.755356 0.706526 0.742585 0.715192 -0.645199 0.755878 0.585435 -0.334501 0.502582 -0.873845 -0.633895 0.526454 -0.790481 0.555104 -0.839417 -0.742925 -0.583810 -0.928505 0.757278 0.662018 0.852722 -0.765153 0.703199 -0.737125 0.785453 -0.783621 -0.668498 -0.707701 -0.563816 0.587366 0.535202 0.353987 0.421604 -0.815496 -0.763032 0.689101 0.683743 0.684289 -0.917476 0.690420 0.948911 0.651994 0.709832 0.541234 0.426588 -0.725036 -0.788052 0.762350 0.418937 0.461450 -0.644199 -0.913586 -0.854898 -0.894688 0.486100 -0.595456 0.532849 -0.972204 -0.870298 0.496667 -0.581117 0.525453 -0.755514 0.744050 0.515314 -0.853264 0.652395 0.926523 0.597257 0.529459 0.837100 0.452617 0.537544 0.727589 -0.558521 0.703478 -0.625987 -0.691038 0.610757 -0.669301 0.650763 0.659827 0.639982 0.608810 -0.869965 -0.738394 -0.926852 0.460470 0.716167 -0.856574 -0.889345 0.495679 0.652353 0.650807 0.704806 0.860165 0.587050 -0.811645 0.661422 0.612442 -0.686209 -0.629949 -0.730047 0.415813 -0.546243 -0.960541 -0.819161 0.600643 0.665101 0.730690 0.621948 0.844466 -0.709614 -0.643824 0.510039 -0.728416 0.664373 0.351447 -0.650556 -0.721129 -0.897603 -0.478922 -0.649999 -0.803724 0.831153 -0.668655 0.650625 0.514205 -0.586059 0.877679 -0.974248 0.910981 1.000000 -0.611326 -0.562669 -0.728954 -0.670712 -0.822459 0.647227 0.807283 0.762325 -0.763696 -0.584011 0.745716 -0.433165 -0.629969 -0.694375 0.475646 0.682958 -0.801399 0.454873 0.551888 0.492702 0.630756 0.837297 -0.701767 -1.000000 0.770272 -0.628433 -0.924667 -0.746268 -0.829805 -0.828066 -0.868110 -0.852284 0.643458 0.554203 0.701212 -0.977645 0.885369 -0.734747 -0.746867 0.716737 -0.627131 -0.579949 0.728172 -0.758932 0.714722 0.650954 0.639198 0.863788 0.777511 0.757780 -0.780685 0.788025 0.697698 -0.751411 -0.812140 0.438601 0.590833 -0.813795 -0.609978 -0.627582 0.673928
-0.705784 -0.699373 -0.533522 0.647120 0.702036 0.623965 -0.577073 0.445940 0.539307 -0.713126 0.910710 -0.882341 -0.729387 0.769423 -0.471098 0.765008 -0.902645 -0.591079 -0.820096 -0.803887 0.774702 0.748685 0.599521 -0.805676 0.806018 -0.497576 0.884697 -0.667288 -0.608100 -0.784593 -0.768879 0.826724 0.546145 0.666860 0.618989 -0.714556 -0.793290 0.772070 0.951633 0.762418 -0.728287 0.279120 0.631530 0.790482 0.645161 0.748549 0.834154 -0.751379 -0.674953 0.771215 0.676291 0.828533 -0.891538 -0.770351 -0.696995 -0.634540 0.556176 -0.580965 0.681060 -0.692376 -0.644649 0.838649 -0.671668 0.825908 -0.533980 0.781855 0.734829 -0.511883 0.906462 0.735813 0.533425 0.659072 0.716303 0.733402 1.000000 0.535573 -0.597730 0.607495 -0.617877 -0.459875 0.848974 -0.686011 0.730295 0.701085 0.718117 0.796069 -0.427138 -0.758911 -0.497155 0.764067 0.710926 -0.755152 -0.451976 0.617147 0.668658 0.737298 0.800800 0.515870 0.927781 -0.787448 0.776034 0.826825 -0.667063 -0.474232 -1.000000 0.865733 -0.762706 -0.612701 -0.429012 0.692396 0.810466 0.536823 0.665919 0.617875 -0.769632 -0.650491 0.859687 -0.839179 0.561420 0.549214 -0.759450 -0.669964 -0.622481 -0.562022 -0.773644 -0.482703 0.774445 -0.655059 0.868978 0.601959 -0.522162 0.570094 -0.610377 0.779975 0.866271 -0.710851 -0.595520 -0.643679 -0.576216 -0.588075 0.517932 0.776271 0.753946 -0.461431 -0.592617 0.598445 -0.625107 -0.698307 -0.746734 0.799932 0.833590 -0.802450 0.677388 0.865327 0.828995 0.841017 0.755160 -0.651418 -0.669386 0.868184 -0.569918 -0.635863 -0.743984 -0.658833 -0.632171 -0.571179 -0.688268 0.780295 0.684120 0.702827 -0.608782 0.765047 -0.543873 -0.693765 0.702253 -0.685883 -0.704561 0.780236 -0.554599 0.665289 0.727537 0.676668 0.868443 0.767006 0.816284 -0.658516 0.776158 0.653897 -0.783643 -0.603833 0.956015 0.718888 -0.577787 -0.686638 -0.653836 0.703940
-0.831564 -0.889537 -0.613875 0.641401 0.695437 0.759949 -0.828032 0.558015 0.570688 -0.625452 0.622925 -0.721130 -0.854434 0.710442 -0.712289 0.601292 -0.697908 -0.734436 -0.601360 -0.590922 0.758125 0.879359 0.657562 -0.667264 0.703430 -0.620821 0.587079 -0.643982 -0.726835 -0.728479 -0.608513 0.711962 0.661183 0.592003 0.739722 -0.631046 -0.721658 0.505711 0.906312 0.712242 -0.619756 0.585924 0.610457 0.714832 0.702869 0.543359 0.674233 -0.484863 -0.677639 0.754990 0.590550 0.948879 -0.724643 -0.759436 -0.756689 -0.489471 0.597269 -0.826640 0.554999 -0.931029 -0.587281 0.516693 -0.776545 0.672700 -0.668473 0.727220 0.627219 -0.655908 0.701029 0.625062 0.475397 0.735321 0.727632 0.672361 0.676730 0.492195 -0.674477 0.389823 -1.000000 -0.616501 0.596500 -0.770976 0.751272 0.732552 0.650615 0.530937 -0.713035 -0.748051 -0.959844 0.749829 0.759366 -0.701520 -0.689788 0.764613 0.823442 0.718891 0.593971 0.658113 0.549720 -0.701664 0.789074 0.375805 -0.664515 -0.894131 -0.656312 0.679851 -0.839997 -0.815413 -0.735693 0.746640 0.741953 0.750532 0.553180 0.709685 -0.592076 -0.923015 0.622227 -0.781759 0.796321 0.970827 -0.617962 -0.637753 -0.702229 -0.512782 -0.713572 -0.688369 0.521669 -0.831114 0.699115 0.665402 -0.577639 0.678561 -0.896595 0.771126 0.991483 -0.748854 -0.908161 -0.633453 -0.747283 -0.678840 0.606890 0.809894 0.891199 -0.755284 -0.689196 0.856756 -0.596432 -0.673773 -0.366456 0.677567 0.743795 -0.671135 0.573092 0.641534 0.863448 0.590468 0.763330 -0.656761 -0.834968 0.845503 -0.538763 -0.713570 -0.850374 -0.694837 -0.684340 -0.579753 -0.701798 0.586675 1.000000 0.681344 -0.760533 0.523280 -0.888673 -0.620111 0.520201 -0.678564 -0.916040 0.436661 -0.564831 0.494103 0.685474 0.633544 0.505469 0.758850 0.703558 -0.644203 0.629941 0.744297 -0.741780 -0.669168 0.651564 0.603985 -0.593907 -0.802435 -0.663200 0.704226
-0.696028 -0.666448 -0.662386 0.752316 0.545393 0.449005 -0.848670 0.527250 0.906915 -0.883505 0.793361 -0.674511 -0.704089 0.778682 -0.881777 0.653889 -0.588682 -0.913965 -0.701261 -0.615637 0.432156 0.690562 0.683533 -0.740656 0.550285 -0.771875 0.665521 -0.828037 -0.719934 -0.606411 -0.882868 0.760937 0.441497 0.664388 0.687208 -0.881005 -0.802011 0.679649 0.601926 0.500301 -0.800290 0.604488 0.492702 0.632057 0.522417 0.604227 0.681917 -0.701007 -0.930201 0.666142 0.623202 0.617005 -0.677471 -0.737547 -0.591148 -0.765745 0.733788 -0.915559 0.701753 -0.797267 -0.935779 0.531943 -0.838387 0.642920 -0.753740 0.618540 0.591413 -0.888268 0.668088 1.000000 0.532835 0.695735 0.593597 0.670551 0.660851 0.658207 -0.826828 0.720981 -0.789160 -0.706924 0.703877 -0.966724 0.798841 0.779623 0.650888 0.636167 -0.657886 -0.503933 -0.659794 0.763475 0.482719 -0.632015 -0.594059 0.513934 0.622911 0.831229 0.630030 0.663109 0.702049 -0.644669 0.398319 0.973711 -0.748941 -0.797092 -0.587343 0.756305 -0.728133 -0.887832 -0.562726 0.604444 0.656624 0.669066 0.793068 0.643666 -0.631566 -0.707368 0.637762 -0.790743 0.558815 0.595686 -0.887457 -0.385565 -0.807018 -0.654531 -0.653756 -0.621061 0.675785 -0.830301 0.859019 0.512268 -0.764277 0.726475 -0.975976 0.562812 0.570183 -0.838996 -0.808418 -0.614189 -0.881367 -1.000000 0.568720 0.518804 0.529236 -0.799671 -0.748499 0.586476 -0.683628 -0.917136 -0.658415 0.525898 0.766089 -0.712933 0.661400 0.647573 0.625708 0.538023 0.659078 -0.381643 -0.724111 0.878984 -0.700837 -0.735117 -0.763424 -0.778046 -0.612110 -0.780935 -0.712524 0.672988 0.656322 0.663935 -0.709624 0.872262 -0.677269 -0.703591 0.729743 -0.665608 -0.752020 0.532818 -0.721573 0.607228 0.734217 0.785588 0.698476 0.674161 0.719729 -0.681285 0.519775 0.663038 -0.904955 -0.620987 0.693956 0.488955 -0.877023 -0.824779 -0.695018 0.527544
-0.539979 -0.575668 -0.633007 0.626084 0.701650 0.437320 -0.784568 0.744096 0.778623 -0.780412 0.669670 -0.741931 -0.881684 0.912645 -0.880326 0.804902 -0.733912 -0.878049 -0.874966 -0.809066 0.741258 0.504609 0.918038 -0.832274 0.811432 -0.673679 0.559241 -0.552725 -0.785358 -0.552130 -0.711376 0.746155 0.497957 0.604108 0.686132 -0.581253 -0.794059 0.794567 0.590224 0.678886 -0.691173 0.645921 0.640613 0.707955 0.606978 0.777047 0.630292 -0.537534 -0.728453 0.737189 0.714301 0.628913 -0.656848 -0.558474 -0.660844 -0.613388 0.598004 -0.490922 0.879438 -0.609536 -0.774226 0.527842 -0.892763 0.734617 -0.771455 0.682291 0.464846 -0.637771 0.694220 0.669633 0.718284 0.756282 0.640685 0.801227 0.526817 0.748798 -0.602909 0.518061 -0.646299 -0.818723 0.791010 -0.691503 0.757358 0.873019 0.721323 0.636871 -0.905863 -0.703157 -0.452257 0.909311 0.862104 -0.561896 -0.604072 0.888408 0.588064 0.907624 0.768804 0.664923 0.656625 -0.476967 0.774186 0.513084 -0.991770 -0.493881 -0.527067 0.511144 -0.715608 -0.732835 -0.768248 0.602743 0.503315 0.642893 0.609738 1.000000 -0.769674 -0.581545 0.480263 -0.794168 0.833688 0.471472 -0.552834 -0.725952 -0.695975 -0.577561 -0.727228 -0.471456 0.754228 -0.838690 0.738559 0.645572 -0.993160 0.502601 -0.752170 0.595354 0.833960 -0.587228 -0.853031 -0.745046 -0.570871 -0.737445 0.743626 0.644717 0.616505 -0.786116 -0.679218 0.761019 -0.714168 -0.695104 -0.602024 0.679797 0.871082 -0.730020 0.598153 0.530205 0.440876 0.855059 0.596680 -0.639038 -0.677511 0.823720 -0.626323 -0.690611 -0.668251 -0.745983 -0.491358 -0.722650 -0.726595 0.660776 0.635465 0.558392 -0.663753 0.787781 -0.535746 -0.940441 0.620427 -0.908324 -0.730882 0.601025 -0.676312 0.756636 0.557019 0.588431 0.613577 0.633717 0.726605 -0.642469 0.861193 0.700092 -0.703566 -0.563105 0.845009 0.754380 -0.619811 -1.000000 -0.655244 0.919894
-0.500483 -0.469321 -0.617080 0.659494 0.642873 0.609339 -0.796034 0.685485 0.759534 -0.791223 0.676623 -0.686146 -0.693789 0.608762 -0.904809 0.609351 -0.451696 -0.759538 -0.781096 -0.630588 0.792423 0.708083 0.648475 -0.764698 0.823731 -0.716540 0.854052 -0.764084 -0.599151 -0.704303 -0.649962 0.782854 0.588658 0.725332 0.472005 -0.826308 -0.643164 0.523416 0.605037 1.000000 -0.751621 0.648949 0.503367 0.593251 0.568543 0.799139 0.466010 -0.788554 -0.678679 0.696138 0.718072 0.712534 -0.718049 -0.710542 -0.788311 -0.733355 0.515037 -0.704279 0.489214 -0.653949 -0.694203 0.613453 -0.755690 0.735981 -0.711785 0.689936 0.532568 -0.719759 0.817934 0.603314 0.595342 0.777604 0.606983 0.764333 0.808865 0.667739 -0.619845 0.397711 -0.680335 -0.692522 0.580851 -0.712504 0.781641 0.476864 0.636555 0.811900 -0.695507 -0.807475 -0.742109 0.733196 0.515527 -0.815740 -0.731302 0.714366 0.604313 0.634276 0.543301 0.843908 0.617182 -0.736596 0.564817 0.843946 -0.776727 -0.663060 -0.810129 0.623551 -0.594108 -0.546609 -0.985808 0.634761 0.583018 0.558595 0.719417 0.638870 -0.620097 -0.598542 0.744030 -0.809303 0.769085 0.645440 -0.664765 -0.635702 -0.670045 -0.570121 -0.828445 -0.633373 0.718431 -0.629934 0.757174 0.643702 -0.814543 0.763059 -0.814711 0.569607 0.856797 -0.782458 -0.563160 -0.642803 -0.699736 -0.705070 0.703253 0.772067 0.652909 -1.000000 -0.616389 0.544686 -0.802958 -0.627126 -0.780375 0.795157 0.583621 -0.832217 0.796358 0.770388 0.971738 0.769165 0.601384 -0.825280 -0.653940 0.779257 -0.783189 -0.750721 -0.757931 -0.799780 -0.609226 -0.819652 -0.705206 0.653621 0.943241 0.813367 -0.680671 0.709969 -0.895896 -0.744742 0.700645 -0.644612 -0.757322 0.720814 -0.688253 0.821887 0.800406 0.525526 0.508922 0.611298 0.754462 -0.653066 0.822135 0.907821 -0.909491 -0.545969 0.617241 0.513924 -0.796999 -0.809227 -0.668864 0.540311
-0.607761 -0.559861 -0.508036 0.937607 0.844363 0.747208 -0.623454 0.681732 0.791164 -0.461788 0.798162 -0.508879 -0.526051 0.946276 -0.682482 0.710738 -0.630909 -0.677642 -0.586548 -0.785589 0.688537 0.743885 0.782808 -0.733530 0.638730 -0.721390 0.753971 -0.601138 -0.740105 -0.605903 -0.590220 0.761478 0.753156 0.779364 0.857168 -0.608529 -0.703162 0.815075 0.667097 0.954072 -0.629690 0.712416 0.750385 0.778787 1.000000 0.624141 0.585220 -0.666900 -0.760307 0.700066 0.778577 0.677163 -0.604011 -0.645887 -0.765954 -0.636778 0.811609 -0.815723 0.804529 -0.777247 -0.632172 0.715672 -0.609965 0.654242 -0.550664 0.845835 0.730755 -0.647146 0.603135 0.839854 0.654662 0.630242 0.653033 0.785181 0.733451 0.771949 -0.766548 0.572718 -0.716346 -0.489931 0.585553 -0.615955 0.670235 0.837340 0.695125 0.883258 -0.863203 -0.689127 -0.748166 0.793768 0.679028 -0.457855 -0.525550 0.789657 0.773125 0.774616 0.586569 0.667060 0.556689 -0.480870 0.818446 0.720294 -0.590897 -0.710838 -0.787917 0.771493 -0.399848 -0.817749 -0.587550 0.633695 0.360087 0.655547 0.833608 0.661814 -0.680317 -0.760250 0.788900 -0.806696 0.663876 0.648948 -0.809061 -0.464796 -0.798257 -0.779269 -0.880839 -0.661111 0.550254 -0.816436 0.761132 0.799966 -0.809155 0.977825 -0.830015 0.725360 0.702219 -0.730877 -0.665396 -0.536176 -0.551273 -0.617538 0.692874 0.852649 0.733273 -0.734481 -0.551322 0.645522 -0.527507 -0.620345 -0.506903 0.787208 0.667381 -1.000000 0.540413 0.596631 0.720184 0.860723 0.761666 -0.825695 -0.884779 0.755484 -0.635120 -0.585360 -0.638916 -0.672961 -0.559223 -0.708573 -0.653940 0.807698 0.669627 0.760240 -0.570800 0.765578 -0.704630 -0.628512 0.801465 -0.495446 -0.740279 0.572857 -0.806339 0.773712 0.635515 0.345212 0.768151 0.661974 0.750190 -0.607661 0.672437 0.470062 -0.481800 -0.612648 0.795619 0.661217 -0.707759 -0.698901 -0.698263 0.668136
-0.755298 -0.644219 -0.668277 0.768442 0.720585 0.786059 -0.559812 0.878038 0.881625 -0.718182 0.766543 -0.755146 -0.652480 0.822366 -0.484929 0.707812 -0.595658 -0.800536 -0.678949 -0.584108 0.628269 0.793562 0.729946 -0.691891 0.769178 -0.606721 0.675102 -0.567643 -0.665570 -0.600792 -0.828189 0.985450 0.750287 0.566789 0.654578 -0.614907 -0.612181 0.743654 0.756153 0.814385 -1.000000 0.639946 0.833822 0.825620 0.765355 0.631569 0.639692 -0.575029 -0.700472 0.731742 0.655185 0.681669 -0.739566 -0.702833 -0.736029 -0.806184 0.682678 -0.463383 0.663181 -0.630520 -0.677101 0.727162 -0.841434 0.644199 -0.843192 0.659437 0.782366 -0.470090 0.658829 0.741207 0.657169 0.953436 0.785135 0.720970 0.725110 0.625835 -0.548950 0.765041 -0.686267 -0.565688 0.837345 -0.499151 0.934010 0.701041 0.530183 0.529928 -0.593443 -0.634096 -0.585625 0.838483 0.703070 -0.611776 -0.611792 0.791607 0.844435 0.867360 0.785697 0.783552 0.858303 -0.784456 0.710507 0.625356 -0.489836 -0.662575 -0.660785 0.630004 -0.741926 -0.593644 -0.777963 0.662737 0.927203 0.692228 0.909667 0.803504 -0.392888 -0.618609 0.665856 -0.610238 1.000000 0.746702 -0.750821 -0.713098 -0.575691 -0.456546 -0.628787 -0.659908 0.943605 -0.583038 0.886657 0.518792 -0.712946 0.675376 -0.589914 0.574869 0.730083 -0.679269 -0.666769 -0.749038 -0.654726 -0.616898 0.767662 0.539172 0.842124 -0.751876 -0.582056 0.834423 -0.673955 -0.548747 -0.533706 0.759150 0.713102 -0.661701 0.582300 0.757447 0.733107 0.621946 0.854877 -0.665167 -0.620492 0.627335 -0.659567 -0.652124 -0.606470 -0.485803 -0.578264 -0.516564 -0.666243 0.815855 0.783035 0.740613 -0.742853 0.793530 -0.726179 -0.634093 0.672182 -0.633673 -0.587370 0.701287 -0.633154 0.613317 0.938874 0.643946 0.742960 0.692582 0.655142 -0.450875 0.723136 0.625739 -0.778379 -0.489988 0.785078 0.790616 -0.715008 -0.588736 -0.775082 0.650468
-0.814160 -0.740802 -0.760439 0.737207 0.625913 0.702746 -0.690202 0.551713 0.626319 -0.491261 0.746097 -0.673562 -0.409830 0.438707 -0.845933 0.637549 -0.726214 -0.683351 -0.923088 -0.635810 0.390797 0.650797 0.782682 -0.801267 0.405053 -0.883950 0.802795 -0.967711 -0.763817 -0.703934 -0.792688 0.491338 0.540481 0.532112 0.785742 -0.775129 -0.677548 0.739752 0.698246 0.718192 -0.537936 0.567947 0.678517 0.574743 0.514915 0.679322 0.828975 -0.733761 -0.971932 0.578803 0.730176 0.650562 -0.736902 -0.806266 -0.758360 -0.853069 0.485289 -0.730031 0.626488 -0.729002 -0.834808 0.953385 -0.729783 0.553449 -0.762466 0.519857 0.589971 -0.933512 0.436515 0.537587 1.000000 0.175159 0.530556 0.634459 0.810925 0.608581 -0.651668 0.666093 -0.835578 -0.926613 0.247370 -0.872691 0.613070 0.744474 0.548780 0.569779 -0.919294 -0.865125 -0.767153 0.545163 0.800174 -0.784164 -0.689558 0.592709 0.576374 0.559809 0.841873 0.695350 0.620650 -0.667595 0.644808 0.965903 -0.577458 -0.952349 -0.917131 0.655752 -0.836350 -0.757400 -0.567294 0.665283 0.583471 0.683776 0.590851 0.790386 -0.602461 -0.734961 0.587148 -0.586912 0.497226 0.707168 -0.739229 -0.957220 -0.795147 -0.516902 -0.704462 -0.687640 0.760811 -0.925660 0.601318 0.549876 -0.839634 0.414411 -0.699366 0.708053 0.452927 -0.926459 -0.857185 -0.572184 -0.426282 -0.731579 0.561537 0.607223 0.850376 -0.727940 -0.909722 0.860462 -0.693011 -0.719665 -0.629631 0.647663 0.570720 -0.961731 0.472769 0.525730 0.727999 0.664095 0.644778 -0.904329 -0.879098 0.473799 -0.758087 -0.902759 -0.605960 -0.674993 -0.700847 -0.954430 -0.799809 0.529087 0.707386 0.744390 -0.647365 0.871710 -0.715423 -0.898363 0.711849 -0.912080 -0.631739 0.709740 -0.776300 0.878119 0.554000 0.793859 0.708431 0.729244 0.762065 -0.489867 0.722823 0.469314 -0.415318 -1.000000 0.612491 0.812563 -0.732199 -0.716937 -0.762311 0.923220
-0.589985 -0.600427 -0.648989 0.581103 0.528579 0.728227 -0.679675 0.781120 0.462282 -0.815554 0.623323 -0.792683 -0.806276 0.753064 -0.664190 0.685560 -0.647183 -0.662932 -0.797582 -0.969508 0.695686 0.684836 0.459602 -0.674302 0.610092 -0.872736 0.754261 -0.643699 -0.834753 -0.835707 -0.683306 0.640470 0.776747 0.538657 0.646978 -0.788388 -0.598936 0.673312 0.711011 0.439757 -0.707882 0.575968 0.575428 0.619385 0.742795 0.660435 0.642723 -0.626017 -0.782743 0.724897 0.734292 0.617352 -0.723621 -1.000000 -0.712482 -0.705258 0.412021 -0.663617 0.719536 -0.570116 -0.713613 0.669329 -0.795558 0.565647 -0.671789 0.735709 0.709364 -0.813013 0.735572 0.856139 0.732952 0.731447 0.592544 0.862500 0.675369 0.622895 -0.690438 0.499863 -0.779072 -0.907712 0.686265 -0.677201 0.819420 0.782956 0.828260 0.766894 -0.673422 -0.642846 -0.577139 0.588444 0.816552 -0.774048 -0.631015 0.699191 0.684250 0.721101 0.744936 0.560144 0.755278 -0.727745 0.437147 0.737283 -0.717210 -0.593718 -0.628159 0.557610 -0.701167 -0.726834 -0.776601 0.747055 0.622491 0.558256 0.712664 0.572218 -0.705775 -0.711377 0.592882 -0.799579 0.572354 0.581850 -0.781263 -0.741516 -0.852741 -0.744869 -0.690531 -0.804555 0.820137 -0.710672 0.602896 0.685796 -0.647028 0.695994 -0.734465 0.691581 1.000000 -0.931519 -0.772279 -0.833263 -0.463114 -0.697952 0.690245 0.818231 0.716388 -0.739157 -0.800582 0.565170 -0.805016 -0.793900 -0.743356 0.691473 0.355575 -0.785104 0.563093 0.626761 0.540871 0.565574 0.627675 -0.704277 -0.763512 0.531303 -0.793198 -0.737085 -0.774431 -0.572460 -0.709961 -0.828507 -0.820755 0.716566 0.560471 0.651302 -0.773584 0.765845 -0.674039 -0.711480 0.718451 -0.582689 -0.671729 0.590708 -0.756383 0.721274 0.649182 0.515054 0.768208 0.754093 0.699943 -0.854729 0.419262 0.442880 -0.833067 -0.731801 0.784842 0.623599 -0.751967 -0.891514 -0.754109 0.506571
-0.593232 -0.865465 -0.626958 0.533166 0.848948 0.869745 -0.735359 0.608566 0.632812 -0.771537 0.632632 -0.739317 -0.734020 0.610182 -0.700343 0.503453 -0.604049 -0.777470 -0.610091 -0.962184 0.566931 0.492949 0.607593 -0.794644 0.548831 -0.772829 0.773860 -0.758007 -0.590963 -0.713061 -0.626643 0.667013 0.612181 0.517644 0.639399 -0.741844 -0.641315 0.477828 0.494717 0.357299 -0.719658 0.528955 0.884818 0.762196 0.792131 0.584188 0.672375 -0.637882 -0.901464 0.801346 0.756117 0.489221 -0.894176 -0.873889 -0.855628 -1.000000 0.642322 -0.812766 0.523219 -0.794519 -0.616081 0.680018 -0.582546 0.732121 -0.654924 0.654481 0.561796 -0.932326 0.727105 0.681729 0.572859 0.723615 0.911204 0.852576 0.662872 0.623213 -0.908978 0.591127 -0.678928 -0.668283 0.689417 -0.736570 0.822590 0.534562 0.719729 0.745002 -0.835577 -0.807070 -0.660808 0.649486 0.596353 -0.640994 -0.915711 0.557444 0.459998 0.585057 0.722360 0.652197 0.640628 -0.814544 0.737311 0.693754 -0.724489 -0.705855 -0.774437 0.551307 -0.792166 -0.827029 -0.651049 0.662975 0.893728 0.625875 0.614156 0.838175 -0.863344 -0.905124 0.626638 -0.858824 0.693551 0.755528 -0.731551 -0.705922 -0.756578 -0.583117 -0.724752 -0.696863 0.498068 -0.830753 0.757675 0.559505 -0.774472 0.627672 -0.887034 0.542394 0.839919 -0.620591 -0.747284 -0.719089 -0.624637 -0.597072 0.723160 0.692305 0.621985 -0.477078 -0.700362 0.724719 -0.926244 -0.659254 -0.749645 0.572487 0.667119 -0.844336 0.732967 0.647189 0.592544 0.602210 0.582592 -0.734017 -0.740369 0.780489 -0.686236 -0.819389 -0.646579 -0.653855 -0.676283 -0.795287 -0.746135 0.809821 0.609108 0.588782 -0.625519 0.663243 -0.861512 -0.601439 0.641777 -0.726613 -0.594742 0.469767 -0.823410 0.457204 0.822734 0.549519 0.405952 0.633898 0.584946 -0.801211 0.631497 0.656695 -0.682762 -0.875197 1.000000 0.576642 -0.683128 -0.973959 -0.592781 0.650387
-0.683718 -0.815706 -0.897194 0.481420 0.758506 0.511773 -0.707752 1.000000 0.424014 -0.722860 0.559421 -0.796417 -0.850018 0.651552 -0.811892 0.598589 -0.826984 -0.571699 -0.575533 -0.777455 0.695420 0.541104 0.660879 -0.680789 0.507080 -0.700862 0.664303 -0.715416 -0.777266 -0.748175 -0.839641 0.759171 0.541622 0.521284 0.767390 -0.820430 -0.784446 0.541827 0.497107 0.789915 -0.776988 0.678403 0.358142 0.540266 0.623723 0.747096 0.811290 -0.777777 -0.677048 0.674719 0.702483 0.571842 -0.680080 -0.892244 -0.847329 -0.989162 0.328770 -0.879559 0.625530 -0.888670 -0.709882 0.832095 -0.753921 0.668400 -0.643639 0.712790 0.679867 -0.845936 0.567258 0.579239 0.415652 0.531748 0.626477 0.586914 0.755297 0.556188 -0.659131 0.295513 -0.842120 -0.859774 0.646169 -0.849015 0.569056 0.733978 0.623114 0.619478 -0.705262 -0.741821 -0.806826 0.609433 0.717506 -0.826047 -0.898638 0.545678 0.488227 0.727826 0.520325 0.669874 0.718007 -0.681895 0.822415 0.613345 -0.755548 -0.738139 -0.605303 0.606510 -0.915064 -0.698568 -0.537717 0.612665 0.594822 0.360886 0.480125 0.757312 -0.893522 -0.707773 0.773804 -0.960841 0.511157 0.714803 -0.594404 -0.793651 -0.712143 -0.549057 -1.000000 -0.906051 0.929732 -0.822634 0.665562 0.664679 -0.610295 0.828799 -0.555402 0.702217 0.685821 -0.811737 -0.790400 -0.572427 -0.842567 -0.692711 0.529846 0.433897 0.744875 -0.652725 -0.767134 0.543566 -0.985397 -0.749407 -0.720478 0.479798 0.659209 -0.855703 0.607016 0.683475 0.549372 0.781890 0.746078 -0.719814 -0.818374 0.964532 -0.919207 -0.674329 -0.814626 -0.928635 -0.644780 -0.935413 -0.891190 0.571111 0.540947 0.589716 -0.669728 0.611294 -0.716875 -0.635718 0.525009 -0.820975 -0.754295 0.626232 -0.851044 0.859574 0.483609 0.504636 0.742682 0.690845 0.778000 -0.711758 0.667711 0.722733 -0.693164 -0.731978 0.670249 0.594963 -0.643504 -0.974533 -0.908631 0.435554
-0.548292 -0.492817 -0.544173 0.876014 0.641971 0.703694 -0.639383 0.748173 0.702433 -0.542346 0.840438 -0.540877 -0.625926 0.738226 -0.536408 0.585165 -0.625832 -0.563588 -0.664194 -0.626751 0.868140 0.698049 0.887521 -0.815952 0.638536 -0.496021 0.884844 -0.646918 -0.649847 -0.365551 -0.504625 0.792987 0.966338 0.902990 0.797884 -0.621259 -0.629617 0.840111 0.874424 0.788220 -0.599606 0.811146 0.671355 0.855564 0.823567 0.666974 0.764426 -0.622576 -1.000000 0.753685 0.715010 0.771361 -0.447511 -0.635357 -0.702197 -0.579941 0.764487 -0.504818 0.729716 -0.420043 -0.630102 0.750275 -0.763701 0.653657 -0.696166 0.754136 0.924142 -0.671526 0.909793 0.839324 0.708924 0.670057 0.678356 0.731120 0.816575 0.892085 -0.649656 0.708245 -0.518361 -0.683275 0.739569 -0.619209 0.858396 0.874260 0.809953 0.684733 -0.583298 -0.571133 -0.557826 0.686328 0.867206 -0.647245 -0.680770 0.794445 0.589833 0.735810 0.754692 0.784224 0.792310 -0.630466 0.643733 0.896023 -0.507103 -0.590550 -0.643946 0.703958 -0.480964 -0.599724 -0.551892 0.794489 0.821117 0.889427 0.791247 0.990355 -0.623957 -0.685549 0.898056 -0.453580 0.904449 0.977100 -0.617745 -0.572215 -0.480339 -0.452519 -0.475897 -0.812246 0.670296 -0.566171 0.739688 0.786064 -0.595922 0.650797 -0.700514 0.960090 0.837228 -0.727404 -0.525929 -0.512735 -0.476896 -0.475599 0.781731 1.000000 0.681870 -0.395758 -0.648871 0.779260 -0.655500 -0.753839 -0.537040 0.670833 0.540383 -0.703821 0.929376 0.847613 0.656450 0.795299 0.816863 -0.540340 -0.555479 0.644115 -0.667846 -0.626307 -0.609486 -0.491815 -0.656129 -0.738001 -0.547213 0.615145 0.946061 0.842471 -0.535856 0.752372 -0.674226 -0.764621 0.628897 -0.371147 -0.607908 0.595531 -0.653751 0.754937 0.771207 0.769199 0.906622 0.818298 0.778181 -0.589652 0.777127 0.935896 -0.698330 -0.599598 0.860477 0.690054 -0.443010 -0.516677 -0.608667 0.833248
-0.645180 -0.598101 -0.798467 0.875546 0.608292 0.762525 -0.754731 0.725546 0.505709 -0.669086 0.733589 -0.621272 -0.906823 0.888901 -0.477782 0.427720 -0.537358 -0.561342 -0.941365 -0.634433 0.469928 0.472795 0.729426 -0.928358 0.692431 -0.617401 0.515208 -0.649750 -0.784997 -0.583255 -0.917129 0.714344 0.613435 0.619366 0.889980 -0.596816 -0.550955 0.720545 0.646704 0.632706 -0.527058 0.594832 0.443222 0.682229 0.681613 0.835930 0.575096 -0.843176 -0.614280 0.712214 0.779050 0.617932 -0.859731 -0.755889 -0.781077 -0.595442 0.581046 -0.770015 0.624101 -0.601391 -0.804948 0.678405 -0.752557 0.667851 -0.920142 0.727131 0.658970 -0.566385 0.699300 0.687635 0.877928 0.612009 0.743677 0.643039 0.890601 0.582568 -0.553725 0.882882 -0.450117 -0.796305 0.547876 -0.706965 0.859094 0.642702 0.574406 0.596721 -0.730081 -0.883233 -0.920619 0.759563 0.662222 -0.669238 -0.881137 0.545156 0.701412 0.719174 0.696374 0.472892 0.487109 -0.752414 0.723436 0.733429 -0.843934 -0.908035 -0.783282 0.622636 -0.822611 -0.711788 -0.776263 0.605930 0.652561 0.737324 0.479038 0.812075 -0.771256 -0.608569 0.669427 -0.784478 0.658479 0.495691 -0.681969 -0.760523 -0.457418 -0.523698 -0.604018 -0.705359 0.521382 -0.714708 0.911296 0.856691 -0.971005 0.752616 -0.868491 0.588690 0.691591 -0.722355 -0.726580 -0.777018 -0.666493 -0.562108 0.766800 0.718070 0.532440 -0.771476 -0.561317 0.692698 -0.835447 -0.804537 -0.640881 0.730578 0.669006 -0.420209 0.669273 0.880431 0.796671 0.639352 0.649568 -0.671864 -0.849022 0.669434 -0.544859 -0.745942 -0.709773 -0.830856 -0.626918 -0.615275 -0.796178 0.581215 0.563763 0.791009 -0.631031 0.699844 -0.786020 -0.639005 0.588107 -0.611993 -0.849261 0.640558 -0.707905 0.583024 0.712113 0.570756 1.000000 0.638985 0.383787 -0.477906 0.663930 0.793152 -1.000000 -0.876956 0.781616 0.559707 -0.737962 -0.586333 -0.894387 0.541616
-0.974367 -0.692255 -0.405339 0.617304 0.652082 0.414922 -0.946761 0.766216 0.544801 -0.790900 0.835771 -0.803720 -0.733725 0.756226 -0.552105 0.566468 -0.759526 -0.863557 -0.813503 -0.754848 0.849415 0.568163 0.681001 -0.355373 0.719033 -0.798012 0.640822 -0.658831 -0.838999 -0.720520 -0.717496 0.822290 0.656106 0.348423 0.730209 -0.654209 -0.570725 0.891412 0.481908 0.760237 -0.395918 0.559796 0.684422 0.578167 0.714564 0.539822 0.826640 -0.805271 -1.000000 0.614544 0.508635 0.675313 -0.820332 -0.571494 -0.967580 -0.971107 0.755304 -0.721610 0.838454 -0.760790 -0.846981 0.681755 -0.975382 0.401727 -0.697038 0.597475 0.606668 -0.719485 0.549921 0.920885 0.780743 0.699321 0.664440 0.791073 0.781918 0.819461 -0.626281 0.465502 -0.310769 -0.876490 0.702828 -0.471877 0.726191 0.820438 0.637966 0.870025 -0.578308 -0.451691 -0.940983 0.949298 0.645155 -0.649908 -0.674014 0.993891 0.670005 0.939991 0.994667 0.717590 0.634132 -0.836328 0.546512 0.547047 -0.487226 -0.425291 -0.643162 1.000000 -0.750556 -0.523174 -0.670283 0.978606 0.749776 0.586301 0.596278 0.922225 -0.798949 -0.561672 0.526078 -0.843344 0.465421 0.777960 -0.670406 -0.892696 -0.611496 -0.288038 -0.827479 -0.560664 0.623269 -0.876410 0.920947 0.668929 -0.640123 0.394650 -0.698067 0.734128 0.641191 -0.421828 -0.530311 -0.878203 -0.347944 -0.646455 0.663351 0.706593 0.873451 -0.439407 -0.432083 0.644363 -0.845571 -0.812014 -0.682226 0.760273 0.647653 -0.533804 0.623736 0.750375 0.796680 0.636107 0.613691 -0.749766 -0.638059 0.501445 -0.852755 -0.829440 -0.873963 -0.770076 -0.717020 -0.760640 -0.901412 0.900034 0.738846 0.628338 -0.568557 0.695696 -0.519755 -0.563539 0.595645 -0.967151 -0.778164 0.564449 -0.421807 0.790707 0.886003 0.527729 0.645228 0.824608 0.645506 -0.776998 0.746109 0.493257 -0.992386 -0.618618 0.679153 0.878051 -0.530498 -0.641679 -0.781323 0.839954
-0.559473 -0.821539 -0.767606 0.744456 1.000000 0.770328 -0.723843 0.647976 0.611898 -0.939631 0.463481 -0.653107 -0.640094 0.723752 -0.492581 0.568274 -0.651354 -0.558716 -0.693030 -1.000000 0.690165 0.532975 0.588640 -0.919675 0.532070 -0.781231 0.780639 -0.940739 -0.677151 -0.528930 -0.747587 0.307067 0.593174 0.264468 0.730803 -0.726847 -0.681206 0.652681 0.572652 0.671373 -0.835845 0.582284 0.806310 0.535016 0.616660 0.880057 0.699363 -0.776000 -0.773103 0.693492 0.868398 0.644882 -0.730611 -0.666332 -0.862273 -0.783933 0.756212 -0.661901 0.534347 -0.733786 -0.755737 0.418614 -0.871643 0.399126 -0.646464 0.440332 0.652127 -0.696271 0.746395 0.569385 0.625216 0.621602 0.642852 0.557544 0.480826 0.610505 -0.694086 0.475607 -0.870759 -0.879578 0.595454 -0.793963 0.665826 0.679261 0.566851 0.622166 -0.687555 -0.880396 -0.667538 0.690989 0.775403 -0.861377 -0.849633 0.526469 0.653880 0.625121 0.741839 0.838746 0.697227 -0.722494 0.657603 0.653331 -0.809985 -0.779785 -0.738268 0.616986 -0.613365 -0.725298 -0.753077 0.886460 0.687804 0.721647 0.497638 0.800865 -0.594952 -0.771371 0.572049 -0.628922 0.532288 0.674716 -0.899069 -0.883748 -0.836014 -0.641209 -0.717670 -0.659886 0.589047 -0.631113 0.683316 0.602635 -0.845183 0.708389 -0.839062 0.815400 0.699584 -0.873809 -0.790048 -0.772755 -0.822689 -0.656877 0.688937 0.899920 0.886037 -0.663466 -0.608481 0.739502 -0.895190 -0.823234 -0.880143 0.494623 0.493971 -0.825983 0.626201 0.655782 0.542753 0.680069 0.689554 -0.748804 -0.726134 0.743250 -0.708965 -0.787026 -0.625983 -0.544950 -0.849006 -0.928323 -0.611483 0.533717 0.506221 0.495360 -0.569322 0.874786 -0.776423 -0.617160 0.464628 -0.767526 -0.616937 0.664655 -0.635933 0.604719 0.796037 0.865208 0.777701 0.728183 0.692206 -0.855990 0.580105 0.603870 -0.781647 -0.624584 0.700174 0.614023 -0.968172 -0.632164 -0.829872 0.765350
-0.867160 -0.727065 -0.692029 0.658970 0.575846 0.699527 -0.730744 0.531798 0.658331 -0.798601 0.797086 -0.764202 -0.685867 0.788737 -0.711075 0.626843 -0.810179 -0.809288 -0.715224 -0.894038 0.625198 0.681116 0.564039 -0.935068 0.466485 -0.721270 0.670437 -0.775478 -0.777939 -0.611125 -0.717829 0.589668 0.757232 0.613103 0.461676 -0.746441 -0.713977 0.737320 0.569514 0.677842 -0.789291 0.405673 0.742460 0.732599 0.475325 0.653701 0.678996 -0.746090 -0.808981 0.769275 0.534367 0.736857 -0.691890 -0.600744 -0.757336 -0.737081 0.528531 -0.877848 0.762630 -0.673610 -0.769421 0.633663 -0.639159 0.684916 -0.833883 0.856166 0.784852 -0.816690 0.613114 0.689029 0.630769 0.555217 0.655861 0.615699 0.619083 0.643280 -0.650312 0.715080 -0.578577 -0.841590 0.703764 -0.682305 0.664874 0.616194 0.590408 0.630835 -0.705906 -0.522333 -0.571404 0.639807 0.652903 -0.768666 -0.774864 0.603135 0.677901 0.520691 1.000000 0.790158 0.611455 -0.785744 0.692126 0.647965 -0.652361 -0.631692 -0.885004 0.618509 -0.927507 -0.764330 -0.738436 0.615223 0.798219 0.761006 0.803323 0.533660 -0.745429 -0.722010 0.672461 -0.671633 0.664602 0.599127 -0.742634 -0.747652 -0.652371 -0.615438 -0.815006 -0.690194 0.593326 -0.734481 0.600547 0.722666 -0.983982 0.611487 -0.727007 0.705800 0.744640 -0.851580 -0.681954 -0.688551 -0.668575 -0.657266 0.601880 0.696059 0.691820 -0.637068 -0.742388 0.646279 -0.706297 -0.630840 -0.625721 0.645253 0.576263 -0.767987 0.600473 0.707265 0.635580 0.865795 0.714312 -0.643779 -0.805598 0.650165 -0.759558 -0.742300 -0.792738 -0.659326 -0.807261 -0.769958 -0.758979 0.513212 0.780078 0.638271 -0.732648 0.416901 -0.817260 -1.000000 0.594843 -0.737051 -0.812158 0.816001 -0.809709 0.531082 0.644724 0.614571 0.787854 0.537529 0.627172 -0.582645 0.731179 0.631769 -0.849434 -0.736232 0.638377 0.582671 -0.799442 -0.723409 -0.638184 0.681208
-0.542431 -0.747799 -0.592227 0.605694 0.830768 0.860141 -0.806574 0.887377 0.789722 -0.549206 0.649376 -0.640816 -0.420529 0.854943 -0.559847 0.558992 -0.841116 -0.731720 -0.523018 -0.889339 0.723318 0.939996 0.819055 -0.539092 0.735941 -0.565511 0.949108 -0.815743 -0.520590 -0.740017 -0.588289 0.759875 0.847086 0.655681 0.522639 -0.520248 -0.685524 0.583854 0.749678 0.729338 -0.469409 0.635901 0.872250 0.479020 0.502389 0.626140 0.488182 -0.591814 -0.446722 0.753624 0.788537 0.823872 -0.668579 -0.812247 -0.762662 -0.666154 0.623528 -0.620307 0.700933 -0.722768 -0.689482 0.666048 -0.732995 0.579989 -0.641820 0.756281 0.821914 -0.788853 0.835934 0.669422 0.837799 0.742655 0.877511 0.830895 0.793160 0.764318 -0.591000 0.710303 -0.590181 -0.568894 0.642482 -0.583452 0.735178 0.861435 0.699794 0.817729 -0.816624 -0.441351 -0.564302 0.803502 0.628343 -0.904489 -0.727210 0.796303 0.593502 0.730116 0.513778 0.720711 0.702919 -0.571398 0.994347 0.864040 -0.756060 -0.843473 -0.584876 0.697401 -0.697278 -0.823287 -0.782209 0.606947 0.601122 0.775971 0.577263 0.606545 -0.848145 -0.630370 0.847757 -0.737532 0.815033 0.809034 -0.670262 -0.580564 -0.635562 -0.264954 -0.677668 -0.579516 0.772236 -0.605386 0.778692 0.746952 -0.811550 0.387701 -0.720892 0.859575 0.771810 -0.771217 -0.633142 -0.526886 -0.552599 -0.836330 0.670647 0.879191 0.741686 -0.712296 -0.658486 0.755053 -0.639377 -0.649412 -0.672617 0.786304 0.584683 -0.569145 0.732629 0.784952 0.793346 0.733944 0.549084 -0.665229 -0.483832 0.943256 -0.765157 -0.614492 -0.575014 -0.502389 -0.492496 -0.720581 -0.359752 0.691149 0.491253 0.741727 -0.467471 0.855542 -0.466744 -0.473197 0.819689 -0.536892 -0.642588 0.544929 -0.679489 0.574871 0.952635 0.734322 0.734812 0.693028 0.935797 -0.995405 0.753515 1.000000 -0.680127 -0.768752 0.819488 0.672825 -0.669609 -0.573346 -1.000000 0.674320
-0.671441 -0.997008 -0.776421 0.903952 0.542822 0.420712 -0.790528 0.830527 0.654904 -0.597861 0.687724 -0.844668 -0.865734 0.803596 -0.627258 0.648684 -0.425717 -0.815693 -0.689044 -0.457153 0.653567 0.517355 0.904822 -0.853648 0.530167 -0.467977 0.752046 -0.968902 -0.496078 -0.575419 -0.644582 0.896858 0.463601 0.654124 0.533973 -0.593585 -0.687594 0.614479 0.743315 0.653833 -0.661956 0.617345 0.701256 0.850684 0.593197 0.771228 0.728747 -0.710685 -0.913822 0.724316 0.895682 0.706333 -0.401152 -0.563758 -0.586843 -0.723335 0.753870 -0.709733 0.683910 -0.642596 -0.755419 0.824995 -0.653310 0.650372 -0.698580 0.872350 0.772560 -0.795991 0.766815 0.735120 0.584560 0.750966 0.840046 0.796025 0.813977 0.774636 -0.549315 0.431440 -0.862924 -0.691940 0.774698 -0.837965 0.716742 0.662096 0.608597 0.761260 -0.796721 -0.728747 -0.814783 0.746830 0.428590 -0.601743 -0.681229 0.909420 0.688222 0.764754 0.614293 0.529765 0.617160 -0.582756 0.537637 0.542442 -0.666396 -0.588202 -0.573653 0.584614 -0.755916 -0.617819 -0.618350 0.439011 0.829008 0.728267 0.480094 0.414708 -0.698193 -0.665043 0.746017 -0.828490 0.882614 0.949444 -0.558138 -0.647029 -0.738690 -0.568502 -0.670530 -0.531647 0.808039 -0.785567 0.434792 0.718547 -0.604688 0.619118 -0.694593 0.683532 0.829237 -0.722739 -0.811786 -0.479725 -0.531078 -0.662187 0.788146 0.705166 0.781343 -0.552455 -1.000000 0.867194 -0.392869 -0.570101 -0.479222 0.730298 0.671320 -0.691274 0.598095 0.690402 0.699748 0.749091 0.773309 -0.896677 -0.643912 0.845569 -0.685747 -0.640961 -0.726797 -0.570514 -0.601272 -0.690441 -0.702934 0.871533 0.863171 0.676855 -0.884614 0.697314 -0.582722 -0.857038 0.562954 -0.559081 -0.560521 1.000000 -0.549805 0.772205 0.891048 0.650529 0.769101 0.851727 0.620616 -0.611943 0.986352 0.953220 -0.562873 -0.661217 0.833436 0.653124 -0.799004 -0.913176 -0.630974 0.841922
-0.791243 -0.704380 -0.577922 0.584902 0.815481 0.613266 -0.785345 0.640109 0.653652 -0.794865 0.634826 -0.752888 -0.841628 0.674457 -0.681313 0.587997 -0.661070 -0.680750 -0.797683 -0.497402 0.619734 0.716394 0.815791 -0.803283 0.798766 -0.563579 0.628206 -0.594980 -0.781411 -0.631430 -0.610446 0.718275 0.660871 0.704864 0.545484 -0.770027 -0.834399 0.720531 0.686729 0.620259 -0.710555 0.545954 0.716774 0.737291 0.771549 0.627497 0.788166 -0.607374 -0.600478 0.672432 0.817525 0.615273 -0.657495 -0.696371 -0.869894 -0.907810 0.744186 -0.515847 0.947969 -0.725394 -0.722530 0.664342 -0.679870 0.875995 -0.574304 0.507874 0.736094 -0.656838 0.728462 0.611645 0.659393 0.728265 0.708572 0.737553 0.736066 0.613039 -0.617687 0.772882 -0.656444 -0.853812 0.667177 -0.884866 0.564938 0.611098 0.551787 0.862275 -0.616090 -0.605364 -0.602157 0.627191 0.812485 -0.931726 -1.000000 0.883768 0.710531 0.849457 0.823060 0.714941 0.710408 -0.820724 0.851253 0.723287 -0.557275 -0.883810 -0.708461 0.860562 -0.600648 -0.673419 -0.662427 0.611184 0.758967 0.730030 0.600109 0.768640 -0.604557 -0.669066 0.515963 -0.481763 0.633622 0.896397 -0.738182 -0.594791 -0.652750 -0.331579 -0.662156 -0.626335 0.540521 -0.618744 0.807078 0.631324 -0.719679 0.597379 -0.819843 0.716356 0.720097 -0.675473 -0.622418 -0.556046 -0.710110 -0.694001 0.802072 0.662653 0.654880 -0.541502 -0.657789 0.622935 -0.677456 -0.713124 -0.676726 1.000000 0.606179 -0.603476 0.730495 0.648752 0.668034 0.682322 0.639758 -0.880736 -0.688311 0.550131 -0.741941 -0.756815 -0.704473 -0.692419 -0.807268 -0.726442 -0.703704 0.550561 0.532893 0.774798 -0.574760 0.795239 -0.685733 -0.571472 0.719341 -0.743025 -0.637464 0.592550 -0.783372 0.757404 0.696313 0.837502 0.573177 0.631381 0.578470 -0.612639 0.594424 0.757361 -0.732751 -0.550280 0.639806 0.589975 -0.694781 -0.619335 -0.692839 0.533235
-0.784934 -0.468385 -0.750076 0.588791 0.671561 0.768698 -0.504890 0.616769 0.831155 -0.490115 0.933239 -0.631932 -0.632718 0.882276 -0.585527 0.771405 -0.582357 -0.557122 -0.690290 -0.523298 0.769433 0.759481 0.549529 -0.588962 0.691873 -0.795413 0.791516 -0.698923 -0.489054 -0.583779 -0.712451 0.837797 0.662851 0.742890 0.622473 -0.692114 -0.938308 0.519698 0.927536 0.715462 -0.857542 0.391418 0.763939 0.738725 0.765689 0.683481 0.695453 -0.662064 -0.853421 0.587548 0.768205 0.720413 -0.989634 -0.627137 -0.487477 -0.714153 0.516885 -0.876204 0.826398 -0.592247 -0.563459 0.723169 -0.659821 0.776562 -0.695910 0.977218 0.496379 -0.668442 0.745959 0.845541 0.708106 0.685312 0.906944 0.933598 0.843359 0.663641 -0.652787 0.611049 -0.473383 -0.509664 0.784270 -0.678279 1.000000 0.524100 0.551864 0.801978 -0.620734 -0.666923 -0.756000 0.722883 0.599911 -0.577731 -0.423845 0.794271 0.611839 0.931724 0.647093 0.792784 0.681547 -0.456827 0.888161 0.694450 -0.581755 -0.692548 -0.700792 0.657958 -0.827897 -0.734702 -0.717502 0.479333 0.656395 0.626605 0.575068 0.777591 -0.741531 -0.589593 0.516030 -0.575862 0.837720 0.856460 -0.539702 -0.815996 -0.639711 -0.428236 -0.788450 -0.476340 0.872707 -0.687294 0.526763 0.904524 -0.792413 0.614392 -0.676658 0.845526 0.635433 -0.734459 -0.616582 -0.781635 -0.793977 -0.784757 0.646697 0.774369 0.943683 -0.650944 -0.758981 0.705429 -0.714592 -0.578267 -0.696191 0.788926 0.946409 -0.654083 0.904403 0.582616 0.637480 0.494843 0.611724 -0.607686 -0.623979 0.636762 -0.730246 -0.826385 -0.853372 -0.571993 -0.674659 -0.710626 -0.814470 0.676362 0.710628 0.766066 -0.781037 0.381182 -0.576888 -0.542997 0.767340 -0.470914 -1.000000 0.707066 -0.586819 0.866346 0.483302 0.556637 0.898502 0.772403 0.815731 -0.589024 0.590424 0.503064 -0.723786 -0.472465 0.687092 0.643736 -0.529115 -0.684399 -0.551089 0.948698
-0.983841 -0.736484 -1.000000 0.654419 0.649144 0.563954 -0.676789 0.729915 0.618442 -0.742740 0.573783 -0.711901 -0.702068 0.547828 -0.682752 0.698983 -0.687321 -0.775307 -0.810330 -0.667131 0.744021 0.730784 0.511590 -0.423196 0.558897 -0.755806 0.637249 -0.711548 -0.727460 -0.718587 -0.683259 0.655290 0.744800 0.699980 0.686476 -0.813455 -0.674390 0.610611 0.841533 0.546056 -0.822986 0.672421 0.720187 0.621484 1.000000 0.854958 0.863723 -0.664626 -0.772403 0.575732 0.581379 0.632056 -0.655794 -0.758438 -0.695630 -0.757734 0.521328 -0.651205 0.517641 -0.783744 -0.730403 0.654219 -0.552572 0.586408 -0.700462 0.672663 0.602125 -0.762278 0.671633 0.685785 0.460081 0.601125 0.636138 0.696321 0.711349 0.753463 -0.777109 0.537488 -0.696748 -0.667815 0.564371 -0.549224 0.891903 0.675678 0.554182 0.616025 -0.749905 -0.940101 -0.671100 0.702839 0.680041 -0.907949 -0.759968 0.615320 0.705939 0.660617 0.797592 0.665747 0.551204 -0.752248 0.797481 0.657662 -0.796910 -0.691351 -0.800715 0.500288 -0.654478 -0.850978 -0.768299 0.446045 0.831034 0.682040 0.596239 0.712421 -0.684955 -0.651124 0.713444 -0.732757 0.654244 0.619804 -0.812457 -0.797868 -0.743743 -0.580026 -0.746415 -0.604767 0.786511 -0.669738 0.775922 0.562229 -0.608443 0.545137 -0.780453 0.571430 0.534641 -0.692852 -0.731694 -0.522903 -0.688692 -0.649647 0.821518 0.738704 0.782020 -0.693469 -0.750589 0.552288 -0.732426 -0.727749 -0.565971 0.824393 0.690762 -0.916821 0.648174 0.504357 0.822390 0.688931 0.680983 -0.693361 -0.745445 0.622411 -0.375638 -0.633699 -0.892230 -0.785798 -0.691952 -0.829012 -0.812156 0.828735 0.720117 0.707231 -0.773987 0.697004 -0.789693 -0.670055 0.671082 -0.786657 -0.775828 0.484596 -0.568009 0.700890 0.779245 0.498923 0.704340 0.574146 0.734703 -0.654884 0.540175 0.696560 -0.705323 -0.550253 0.621250 0.793719 -0.561711 -0.824714 -0.973556 0.761484
-0.595990 -0.634039 -0.491643 0.767024 0.826863 0.720962 -0.792346 0.631626 0.764165 -0.874087 0.723618 -0.422342 -0.727697 0.852849 -0.533175 0.605569 -0.672194 -0.998859 -0.718928 -0.655272 0.675319 0.557014 0.861781 -0.846873 0.577694 -0.705383 0.774132 -0.618200 -0.719253 -0.726702 -0.579581 0.586887 0.681560 0.626812 0.811272 -0.956849 -0.794982 0.673939 0.716670 0.706905 -0.585143 0.309780 0.596911 0.761285 0.783623 0.844943 0.802035 -0.605078 -0.898769 0.838426 0.590553 0.233203 -0.718062 -0.875210 -1.000000 -0.777032 0.569866 -0.727623 0.961796 -0.727026 -0.720897 0.749131 -0.686981 1.000000 -0.520847 0.498300 0.657942 -0.829934 0.427024 0.836760 0.882349 0.495835 0.633060 0.747803 0.764013 0.838288 -0.736326 0.662742 -0.652462 -0.756056 0.700072 -0.672647 0.645382 0.614166 0.651264 0.467085 -0.694907 -0.677355 -0.769107 0.569605 0.989071 -0.640546 -0.643677 0.663217 0.663552 0.714566 0.611679 0.489154 0.683879 -0.628145 0.784445 0.710922 -0.953437 -0.892197 -0.456914 0.726938 -0.785890 -0.566996 -0.642677 0.757445 0.841064 0.282438 0.612550 0.498851 -0.703990 -0.676266 0.726632 -0.425451 0.822970 0.525218 -0.780278 -0.706833 -0.698417 -0.366964 -0.650595 -0.685748 0.880417 -0.935368 0.515779 0.750358 -0.915704 0.882409 -0.744380 0.528388 0.857681 -0.663494 -0.820812 -0.510878 -0.782949 -0.612854 0.652220 0.701284 0.767520 -0.747480 -0.726433 0.585077 -0.588968 -0.577929 -0.757242 0.614996 0.691700 -0.794337 0.596844 0.857234 0.689490 0.704804 0.571047 -0.532679 -0.805638 0.722611 -0.767233 -0.771012 -0.570450 -0.803448 -0.784869 -0.765881 -0.538659 0.861122 0.506091 0.628117 -0.588253 0.462939 -0.683561 -0.638148 0.631678 -0.619610 -0.831208 0.469169 -0.724730 0.706218 0.615579 0.767094 0.616316 0.444388 0.729125 -0.774023 0.844756 0.725507 -0.764429 -0.744861 0.724837 0.490461 -0.913444 -0.684013 -0.727873 0.860491
-0.616086 -0.590205 -0.653227 0.602768 0.813207 0.913974 -0.592479 0.670328 0.645468 -0.612709 0.722295 -0.830590 -0.721144 0.602574 -0.368990 0.486430 -0.899847 -0.857244 -0.618640 -0.818902 0.731205 0.929701 0.760450 -0.726298 0.709062 -0.920017 0.695752 -0.764943 -0.768257 -0.332812 -0.768080 0.720232 0.738769 0.839956 0.465597 -0.678123 -0.610563 0.561217 0.810609 0.698807 -0.782629 0.446814 0.467002 0.989047 0.674371 0.661274 0.826612 -0.773715 -0.764003 0.766031 0.843868 0.748174 -0.853720 -0.391180 -0.601063 -0.707890 0.711686 -0.556021 0.556189 -0.695783 -0.734968 0.713414 -0.616046 0.608571 -0.742097 0.913069 0.609184 -0.306286 0.849440 0.812976 0.435460 0.816571 0.750377 0.529413 0.759728 0.467095 -0.695997 0.838565 -0.521090 -0.602762 0.934381 -0.779134 0.880024 0.713704 0.645368 0.997563 -0.326333 -0.499190 -0.820373 0.663094 0.580488 -0.719125 -0.739290 0.822054 0.596143 0.682366 0.996491 0.828338 0.894020 -0.718508 0.749996 1.000000 -0.988141 -0.822161 -0.636890 0.586342 -0.700338 -0.616844 -0.592523 0.904956 0.656726 0.526269 0.614996 0.466662 -0.906143 -0.724580 0.800734 -0.535010 0.495521 0.665748 -0.779422 -0.622300 -0.510604 -0.411802 -0.755891 -0.542498 0.752862 -0.511994 0.787576 0.630195 -0.593289 0.909941 -0.844925 0.707182 0.727872 -0.864198 -0.666667 -0.737686 -0.572219 -0.749325 0.701083 0.891605 0.801249 -0.846283 -0.650866 0.859773 -0.446574 -0.912896 -0.612344 0.378942 0.744237 -0.513983 0.553088 0.832693 0.705176 0.908151 0.700111 -0.521893 -1.000000 0.817669 -0.594904 -0.812302 -0.481041 -0.670329 -0.564916 -0.430156 -0.702613 0.765111 0.676382 0.346926 -0.683133 0.959111 -0.664298 -0.344578 0.712086 -0.845863 -0.552437 0.803778 -0.872371 0.563504 0.801207 0.595334 0.776269 0.949838 0.769695 -0.463973 0.653686 0.364320 -0.821150 -0.612570 0.894201 0.739766 -0.643512 -0.705462 -0.374914 0.930460
-0.657974 -0.837553 -0.606158 0.718758 0.669812 0.568538 -0.642131 0.791318 0.652393 -0.689457 0.618962 -0.449657 -0.837452 0.900514 -0.735279 0.733924 -0.674382 -0.648090 -0.833637 -0.837398 0.653513 0.761102 1.000000 -0.798913 0.551421 -1.000000 0.630203 -0.761233 -0.795676 -0.697429 -0.610207 0.382187 0.720625 0.887634 0.890005 -0.856887 -0.598971 0.869676 0.771384 0.713359 -0.876367 0.673451 0.726767 0.576296 0.662360 0.864596 0.660368 -0.800767 -0.690805 0.608473 0.732132 0.618274 -0.436813 -0.773085 -0.798033 -0.681606 0.769005 -0.630484 0.692219 -0.601958 -0.694451 0.633545 -0.681117 0.572072 -0.685022 0.852131 0.508876 -0.800172 0.652443 0.575045 0.695658 0.642808 0.719664 0.729116 0.558051 0.823290 -0.550203 0.605583 -0.883020 -0.658484 0.609996 -0.818892 0.674055 0.659944 0.695523 0.607993 -0.735661 -0.617625 -0.630823 0.585645 0.607489 -0.804535 -0.936364 0.648441 0.590872 0.764178 0.682712 0.455250 0.545009 -0.717751 0.531897 0.732476 -0.761563 -0.721176 -0.810625 0.620446 -0.774868 -0.701413 -0.707266 0.721748 0.635698 0.631811 0.734536 0.807619 -0.477238 -0.795731 0.654281 -0.600045 0.696073 0.602762 -0.548252 -0.901897 -0.814370 -0.594946 -0.604484 -0.829918 0.678181 -0.667289 0.666227 0.560260 -0.566685 0.746348 -0.705469 0.744349 0.743351 -0.702000 -0.795377 -0.437069 -0.801046 -0.612316 0.577296 0.626630 0.673936 -0.872558 -0.828915 0.624931 -0.539850 -0.762249 -0.700949 0.973442 0.517581 -0.591848 0.556407 0.687532 0.738716 0.637300 0.612106 -0.895809 -0.766748 0.832603 -0.699453 -0.789149 -0.709428 -0.631886 -0.782621 -0.888251 -0.881188 0.623393 0.675650 0.714184 -0.695365 0.520779 -0.662211 -0.749626 0.735471 -0.725405 -0.599300 0.593095 -0.701331 0.622416 0.713126 0.653203 0.775373 0.881034 0.839943 -0.795700 0.661325 0.593688 -0.746557 -0.802930 0.409083 0.691982 -0.758315 -0.793804 -0.629876 0.563810
-0.695471 -0.937711 -0.703136 0.614792 0.919609 0.472979 -0.651139 0.422846 0.713983 -0.711761 0.809011 -0.604511 -0.690204 0.827009 -0.724109 0.613377 -0.604776 -0.825971 -0.516040 -0.704401 0.814523 0.442710 0.742297 -0.632389 0.892983 -0.719594 0.686662 -0.904211 -0.913754 -0.695395 -0.619224 0.826676 0.961240 0.705119 0.704562 -0.376501 -0.811692 0.567321 0.618994 0.552759 -0.615987 0.785678 0.376253 0.748651 0.516424 0.621936 0.582560 -0.986610 -0.681785 0.784968 0.808202 1.000000 -0.589663 -0.700506 -0.851296 -0.709963 0.664091 -0.694940 0.436595 -0.795653 -0.689887 0.757795 -0.788281 0.836443 -0.487853 0.747758 0.719757 -0.856493 0.908608 0.753852 0.547397 0.797062 0.553699 0.505054 0.679616 0.553400 -0.730660 0.230055 -0.636236 -0.618300 0.598233 -0.656028 0.579814 0.896427 0.804039 0.393667 -0.951663 -0.867079 -0.754944 0.880295 0.717252 -0.582640 -0.674271 0.629937 0.672860 0.892905 0.880943 0.593422 0.388195 -0.728728 0.564391 0.876073 -0.600040 -0.926858 -0.814202 0.567052 -0.786616 -0.535277 -0.710533 0.574756 0.917415 0.421218 0.695088 0.686586 -0.847807 -0.713598 0.500684 -0.378834 0.681718 0.838588 -0.770656 -0.467973 -0.733494 -0.671962 -0.235785 -0.625476 0.731848 -0.775849 0.659693 0.655214 -0.830933 0.684118 -0.798619 0.747566 0.771269 -0.725988 -0.910580 -0.569778 -0.745941 -0.874501 0.560891 0.588434 0.751475 -0.744630 -0.735047 0.833163 -0.582527 -0.718903 -0.646300 0.620691 0.481988 -0.714030 0.709579 0.646839 0.501921 0.485251 0.436349 -0.679622 -0.365713 0.727359 -0.689336 -0.600955 -1.000000 -0.531767 -0.585838 -0.646769 -0.798617 0.576300 0.617135 0.509126 -0.503300 0.898128 -0.393350 -0.940134 0.915266 -0.632419 -0.748569 0.705254 -0.728763 0.523922 0.713668 0.680228 0.818508 0.843632 0.742385 -0.656835 0.743134 0.761768 -0.535402 -0.635288 0.726738 0.993170 -0.489021 -0.973384 -0.586236 0.697764
-0.790846 -0.677000 -1.000000 0.684921 0.690499 0.741419 -0.665386 0.583559 0.570066 -0.707798 0.714416 -0.989052 -0.842092 0.597163 -0.628243 0.604220 -0.951565 -0.823619 -0.602682 -0.868798 0.848550 0.625737 0.683518 -0.754766 0.508643 -0.805651 0.601022 -0.896422 -0.411942 -0.786673 -0.704353 0.588648 0.587128 0.767020 0.665116 -0.791334 -0.695574 0.539917 0.968037 0.897428 -0.758812 0.658242 0.654416 0.748080 0.719180 0.387707 0.684447 -0.850040 -0.539146 0.738298 0.808761 0.518342 -0.966212 -0.572961 -0.638127 -0.701445 0.617212 -0.743322 0.795443 -0.573804 -0.597930 0.713943 -0.844156 0.602940 -0.556247 0.907262 0.695078 -0.843208 0.562070 0.795896 0.598421 0.723711 0.634058 0.651368 0.608446 0.738629 -0.864707 0.531989 -0.883205 -0.682728 0.856489 -0.702697 0.376300 0.710626 0.844974 0.622231 -0.474287 -0.781857 -0.688246 0.713436 0.709333 -0.720029 -0.660448 0.586507 0.650705 0.577263 0.746791 0.927092 0.417838 -0.860296 0.701938 0.621750 -0.538059 -0.648376 -0.708356 0.755507 -0.750309 -0.701687 -0.664645 0.827260 0.581322 0.583583 0.416147 1.000000 -0.941767 -0.672673 0.664656 -0.654934 0.739384 0.631714 -0.597005 -0.727868 -0.920475 -0.516869 -0.736947 -0.884207 0.639681 -0.613891 0.283186 0.702997 -0.828065 0.829132 -0.688507 0.784172 0.556904 -0.884949 -0.751336 -0.954287 -0.788492 -0.698538 0.665662 0.856202 0.487952 -0.455452 -0.636165 0.825949 -0.733933 -0.687294 -0.507956 0.695033 0.886979 -0.807549 0.604009 0.627030 0.777571 0.717918 0.488994 -0.728977 -0.748894 0.449975 -0.651763 -0.879848 -0.622525 -0.791082 -0.569697 -0.614848 -0.763454 0.500544 0.360790 0.561549 -0.756165 0.548773 -0.617493 -0.622076 0.725051 -0.748913 -0.802191 0.582397 -0.687720 0.608839 0.588009 0.448334 0.782829 0.805380 0.509357 -0.619835 0.760244 0.726157 -0.542952 -0.659141 0.616974 0.357252 -0.626678 -0.961086 -0.518269 0.741909
-0.946533 -0.897763 -0.500082 0.782408 0.625897 0.620415 -0.925690 0.593302 0.606573 -0.722467 0.750321 -0.560936 -0.826686 0.552358 -0.758456 0.961593 -0.912216 -0.748539 -0.710962 -0.436366 0.726853 0.805864 0.621976 -0.850387 0.654397 -0.822306 0.689022 -0.634151 -0.780866 -0.700276 -0.696349 0.915746 0.708157 0.918945 0.623334 -0.419571 -0.643015 0.602690 0.762667 0.881772 -0.956121 0.663152 0.663878 0.788259 0.429102 0.493044 0.847212 -0.749305 -0.573188 0.506719 0.707269 0.630252 -0.533281 -0.610682 -0.766788 -0.732459 0.619389 -0.583788 0.818184 -0.938239 -0.586232 0.740142 -0.775934 0.877170 -0.793571 0.913296 0.734719 -0.271090 0.737601 0.735262 0.797305 0.500499 0.855739 0.792752 0.785263 0.715692 -0.501656 0.652423 -0.483285 -0.763290 0.669154 -0.652866 0.850070 0.847063 0.671353 0.580309 -0.849969 -0.581892 -0.801064 0.840465 0.874397 -0.743290 -0.857554 0.780328 0.723242 0.538811 0.771077 0.584753 0.783204 -0.838793 0.995616 0.779809 -0.639740 -0.669694 -0.812074 0.995708 -0.499921 -0.574891 -0.630764 1.000000 0.753046 0.864009 0.592738 0.752739 -0.840081 -0.696046 0.744526 -0.936353 0.648339 0.560502 -0.741875 -0.746613 -0.670393 -0.556455 -0.420745 -0.541841 0.328288 -0.500220 0.431013 0.661290 -0.614702 0.501339 -0.912464 0.826247 0.735873 -0.807831 -0.537018 -0.748388 -0.687369 -0.653234 0.561580 0.771514 0.591140 -0.658051 -0.873531 0.408162 -0.546565 -0.853800 -0.488448 0.864686 0.576124 -0.755131 0.910513 0.674678 0.480354 0.637076 0.840261 -0.842585 -0.620205 0.240683 -0.486740 -0.772010 -0.466045 -0.434577 -0.477258 -0.725346 -0.493645 0.781539 0.728504 0.789182 -0.378339 0.238944 -0.678109 -0.898374 0.664486 -0.628979 -0.935237 0.645078 -0.703584 0.630497 0.725953 0.547580 0.787893 0.849436 0.545491 -1.000000 0.731268 0.818946 -0.648843 -0.447998 0.986014 0.654173 -0.677609 -0.669760 -0.602530 0.601409
-0.555429 -0.906944 -0.764499 0.714653 0.685189 0.873104 -0.624367 0.569801 0.699702 -0.911110 0.509851 -0.563270 -0.745945 0.677168 -0.780618 0.453919 -0.959444 -0.877087 -0.888563 -0.836738 0.916263 0.836097 0.685600 -0.716342 0.719746 -0.729712 0.810342 -0.681717 -0.867697 -0.616732 -0.795707 0.698460 0.675805 0.366758 0.622604 -0.769320 -0.534526 0.563178 0.641100 0.764842 -0.846772 0.381746 0.734649 0.692823 0.392464 0.640993 0.622802 -0.494806 -0.729022 0.674695 0.589373 0.512771 -0.843044 -0.676813 -0.850232 -0.763571 0.455508 -0.892451 0.544223 -0.887730 -0.716992 0.761167 -0.765384 0.705536 -0.679552 0.683804 0.675987 -0.525439 0.596869 0.509812 0.604970 0.502612 0.419697 0.603348 0.808675 0.789088 -0.599650 0.406485 -0.750360 -0.685868 0.452009 -0.648389 1.000000 0.665696 0.788579 0.823484 -0.813814 -0.656003 -0.951234 0.627289 0.709478 -0.684056 -0.663481 0.504906 0.663890 0.633320 0.594109 0.528315 0.722352 -0.856469 0.616718 0.561101 -0.795515 -0.718370 -0.842293 0.708906 -0.749581 -0.966393 -0.732882 0.669705 0.660141 0.545085 0.351588 0.851427 -0.689495 -0.890879 0.815111 -0.678103 0.473389 0.599771 -0.689835 -0.787171 -0.583074 -0.415494 -0.907490 -0.398670 0.611863 -0.919659 0.630955 0.622934 -0.758348 0.598169 -0.853442 0.745005 0.488577 -1.000000 -0.726791 -0.520060 -0.765766 -0.726728 0.734171 0.422229 0.853712 -0.979985 -0.762712 0.841676 -0.850777 -0.788832 -0.710542 0.565148 0.815336 -0.904598 0.784794 0.844133 0.381146 0.786736 0.816367 -0.789863 -0.646223 0.605548 -0.750764 -0.707074 -0.556883 -0.907411 -0.590690 -0.762734 -0.868986 0.645981 0.618182 0.378149 -0.599693 0.688932 -0.654131 -0.435421 0.724839 -0.624369 -0.728769 0.744467 -0.870694 0.685727 0.631045 0.475156 0.694580 0.732493 0.533497 -0.838576 0.676108 0.673282 -0.705366 -0.584735 0.682628 0.699714 -0.699925 -0.772445 -0.805226 0.366698
-0.541559 -0.514950 -0.727706 0.644089 0.825014 0.647230 -0.463129 0.550077 0.581736 -0.558523 0.759624 -0.604609 -0.752101 0.537808 -0.653541 0.681298 -0.637064 -0.702718 -0.723853 -0.706081 0.895908 0.659462 0.823063 -0.814314 0.767478 -0.838561 0.718272 -0.602591 -0.701433 -0.620110 -0.629932 1.000000 0.836388 0.626340 0.747664 -0.572564 -0.752220 0.622621 0.772292 0.757419 -0.601479 0.707538 0.789925 0.555288 0.520073 0.853532 0.570805 -0.510394 -0.681483 0.888946 0.420205 0.613065 -0.681797 -0.673291 -0.658594 -0.809881 0.824504 -0.746793 0.633612 -0.601999 -0.708258 0.588522 -0.829480 0.542513 -0.561119 0.639651 0.863759 -0.790176 0.597593 0.831737 0.532599 0.574823 0.728280 0.932520 0.850195 0.709877 -0.582696 0.697395 -0.892254 -1.000000 0.573678 -0.719775 0.663310 0.896346 0.709487 0.567084 -0.390823 -0.671764 -0.593924 0.696793 0.794234 -0.818258 -0.367147 0.848282 0.721814 0.715483 0.856592 0.844084 0.790352 -0.737969 0.813427 0.744932 -0.712879 -0.440288 -0.775639 0.875586 -0.642610 -0.927756 -0.613878 0.997879 0.746335 0.691810 0.662696 0.608166 -0.619991 -0.745771 0.889101 -0.628756 0.718291 0.725919 -0.758359 -0.609489 -0.774358 -0.694274 -0.729651 -0.823909 0.806918 -0.668108 0.745718 0.654366 -0.688604 0.636963 -0.731547 0.656405 0.568958 -0.539599 -0.617035 -0.756989 -0.490355 -0.627998 0.799975 0.745038 0.518860 -0.453157 -0.659348 0.579566 -0.726006 -0.776373 -0.584882 0.814443 0.712726 -0.692300 0.789115 0.755344 0.590842 0.778794 0.747907 -0.655931 -0.630198 0.731339 -0.717568 -0.663398 -0.615187 -0.726567 -0.735110 -0.776799 -0.607109 0.677070 0.667709 0.717691 -0.679885 0.559351 -0.694485 -0.675178 0.522440 -0.747161 -0.482572 0.510567 -0.817785 0.918151 0.853876 0.609135 0.873962 0.728022 0.608900 -0.580637 0.627026 0.813395 -0.708529 -0.540995 0.729092 0.696455 -0.719498 -0.674458 -0.870672 0.952944
-0.573913 -0.676945 -0.812535 0.632683 0.541088 0.847641 -0.806139 0.666936 0.519867 -0.766071 0.615151 -0.561596 -0.784427 0.908014 -0.777879 0.645125 -0.669789 -0.793911 -0.674561 -0.692790 0.443526 0.561947 0.483323 -0.756116 0.464895 -0.717378 0.468955 -0.824041 -0.703353 -0.816445 -0.736068 0.752445 0.823192 0.702955 0.624299 -0.893008 -0.944822 0.576369 0.720482 0.625659 -0.675783 0.436537 0.438257 0.790001 0.607010 0.711348 0.749639 -0.858818 -0.703082 0.684537 0.453783 0.491153 -0.695384 -0.839446 -0.713987 -0.976552 0.713601 -0.729257 0.477283 -0.598847 -0.848053 0.689602 -0.651732 0.618466 -0.797099 0.523784 0.621233 -0.874138 0.543633 0.574561 0.647507 0.727251 0.623801 1.000000 0.954477 0.555358 -0.957915 0.628104 -0.821600 -0.666321 0.619353 -0.762974 0.633930 0.525218 0.718795 0.732397 -0.585888 -0.831933 -0.815202 0.677900 0.635957 -0.711905 -0.691803 0.562523 0.520890 0.619095 0.617642 0.644633 0.772802 -0.714911 0.679973 0.500724 -0.908834 -0.821567 -0.784111 0.553368 -0.626447 -0.537338 -0.806762 0.633708 0.683718 0.648541 0.677098 0.541788 -0.622805 -0.674082 0.668032 -0.687933 0.573304 0.960097 -0.824666 -0.757616 -0.749527 -0.736059 -0.846627 -0.872454 0.767806 -0.633960 0.492848 0.658975 -0.482185 0.366285 -0.712478 0.760957 0.505417 -0.629113 -0.740470 -0.619404 -0.820223 -0.681973 0.659365 0.629673 0.635951 -1.000000 -0.942446 0.790570 -0.695231 -0.717184 -0.589172 0.557146 0.608306 -0.920212 0.596767 0.709213 0.585138 0.611601 0.584531 -0.714571 -0.810618 0.602977 -0.997665 -0.917717 -0.734575 -0.737423 -0.600631 -0.530404 -0.742877 0.620518 0.651348 0.775085 -0.732570 0.780711 -0.540302 -0.665538 0.700335 -0.646718 -0.723064 0.664083 -0.671607 0.691995 0.787930 0.505401 0.749258 0.537122 0.634107 -0.661868 0.722855 0.673477 -0.741200 -0.714433 0.701131 0.837591 -0.853528 -0.827208 -0.870255 0.601749
-0.816284 -0.605314 -0.488375 0.772675 0.641287 0.569612 -0.778206 0.598708 0.921624 -0.709410 0.580870 -0.572279 -0.545110 0.679193 -0.691168 0.742181 -0.682198 -1.000000 -0.767758 -0.728095 0.883407 0.540317 0.792525 -0.850507 0.587481 -0.454718 0.801970 -0.656864 -0.724662 -0.764323 -0.393396 0.792611 0.780777 0.799018 0.773537 -0.731063 -0.580109 0.636163 0.535200 0.875800 -0.764787 0.724020 0.735949 0.676929 0.581468 0.801540 0.858793 -0.830750 -0.753517 0.904217 0.882991 0.673995 -0.539633 -0.691249 -0.527554 -0.620899 0.711141 -0.456653 0.595715 -0.493272 -0.571464 0.860978 -0.666425 0.694572 -0.705953 0.378605 0.880485 -0.939565 1.000000 0.819956 0.679875 0.785625 0.795588 0.653907 0.714571 0.586436 -0.795852 0.585806 -0.623619 -0.845623 0.790494 -0.708659 0.659609 0.780207 0.771795 0.626021 -0.612306 -0.626797 -0.756404 0.448519 0.574901 -0.667145 -0.561603 0.735060 0.938750 0.869811 0.790683 0.561280 0.728790 -0.585847 0.501018 0.640395 -0.802674 -0.633056 -0.735132 0.598981 -0.662045 -0.623883 -0.561166 0.665355 0.662937 0.725653 0.703904 0.755457 -0.657275 -0.640526 0.560451 -0.861575 0.731416 0.720848 -0.668412 -0.719943 -0.678423 -0.600735 -0.766933 -0.655569 0.721499 -0.724482 0.893632 0.580716 -0.895380 0.604871 -0.770030 0.665788 0.984024 -0.548523 -0.774467 -0.589254 -0.594980 -0.504334 0.725823 0.872948 0.821769 -0.463340 -0.671155 0.585917 -0.733451 -0.859264 -0.704832 0.827062 0.777692 -0.655887 0.689151 0.678402 0.825219 0.704379 0.653644 -0.507944 -0.750588 0.823674 -0.785446 -0.741676 -0.870940 -0.668033 -0.632178 -0.471105 -0.808717 0.720470 0.916165 0.437954 -0.654175 0.769150 -0.714399 -0.720913 0.677202 -0.791454 -0.750028 0.590872 -0.556625 0.720737 0.662490 0.683035 0.755378 0.711322 0.724769 -0.627483 0.790456 0.689000 -0.705254 -0.602266 0.420854 0.554496 -0.725072 -0.392661 -0.548669 0.632194
-0.774940 -0.422740 -0.773329 0.622213 0.755630 0.562245 -0.632011 0.734707 0.826087 -0.770981 0.798328 -0.802988 -0.538202 0.596089 -0.599069 0.694504 -0.761658 -0.683160 -0.701621 -0.921539 0.833652 0.858840 0.830401 -0.772920 1.000000 -0.706892 0.562719 -0.526908 -0.893732 -0.582387 -0.832338 0.747241 0.769297 0.570017 0.675833 -0.744098 -0.776807 0.552506 0.723030 0.678118 -0.880178 0.694647 0.683274 0.694868 0.833754 0.605300 0.430270 -0.548998 -0.701044 0.568599 0.684018 0.672719 -0.518437 -1.000000 -0.607037 -0.637781 0.566803 -0.554754 0.575344 -0.779905 -0.894638 0.625134 -0.566021 0.619891 -0.837540 0.628765 0.717549 -0.841378 0.551484 0.468102 0.621671 0.864684 0.782104 0.654586 0.704794 0.482082 -0.783085 0.528452 -0.788590 -0.510903 0.467023 -0.851680 0.883648 0.908882 0.523355 0.711351 -0.508928 -0.773238 -0.744008 0.564192 0.610136 -0.566225 -0.719295 0.675586 0.440807 0.792263 0.856454 0.526526 0.774965 -0.600186 0.398520 0.519912 -0.522025 -0.642823 -0.595931 0.748850 -0.585229 -0.650174 -0.818256 0.649994 0.984841 0.646505 0.721880 0.653607 -0.779685 -0.836962 0.549294 -0.910818 0.704078 0.857523 -0.788849 -0.641211 -0.647856 -0.598097 -0.651146 -0.760164 0.411638 -0.473406 0.797467 0.602428 -0.905970 0.938223 -0.618226 0.730312 0.647201 -0.494672 -0.705948 -0.584983 -0.775921 -0.546772 0.534764 0.787643 0.752911 -0.801454 -0.732468 0.768750 -0.863446 -0.527794 -0.737593 0.698654 0.495514 -0.809146 0.393640 0.739152 0.678225 0.682187 0.790496 -0.715485 -0.509724 0.908059 -0.679024 -0.835615 -0.651104 -0.952529 -0.945982 -0.913164 -0.627326 0.716565 0.778162 0.734513 -0.503291 0.740607 -0.818686 -0.802112 0.613652 -0.834938 -0.833857 0.639803 -0.843012 0.669772 0.562416 0.454631 0.818690 0.715610 0.598087 -0.756338 0.693540 0.723617 -0.767324 -0.565244 0.504691 0.636328 -0.592874 -0.878460 -0.770477 0.786560
-0.898154 -0.669901 -0.308502 0.698025 0.702990 0.707732 -0.762800 0.710789 0.780964 -0.642550 0.785143 -0.805703 -0.459073 0.576867 -0.739017 0.674946 -0.717989 -0.744117 -0.874438 -0.730446 0.609531 0.528759 0.801030 -0.788009 0.545413 -0.703928 0.968994 -0.846361 -0.483516 -0.702831 -0.514839 0.840223 0.708931 0.691757 0.688077 -0.760533 -0.518400 0.750462 0.707491 0.840984 -0.442286 0.605667 0.620431 0.576344 0.852566 0.748914 0.829025 -0.668692 -0.554158 0.795987 0.655799 0.627899 -0.802161 -0.688307 -0.761014 -0.665429 0.800518 -0.612118 0.558931 -0.609036 -0.657219 0.625121 -0.637227 0.756520 -0.704758 0.777714 0.898162 -0.577258 0.710249 0.803860 0.454113 0.741526 0.700033 0.641498 0.963023 0.660734 -0.698259 0.786985 -0.774016 -0.561545 0.651402 -0.629650 0.872478 0.792487 0.906416 0.861034 -0.672301 -0.544934 -0.554056 0.792371 0.762677 -0.668548 -0.639777 0.883632 0.650725 0.731805 0.771043 0.708016 0.738417 -0.564692 0.735320 0.750450 -0.818338 -0.618869 -0.797237 0.706240 -0.696966 -0.819900 -0.684853 0.812106 0.690545 0.704761 0.607011 0.742172 -0.849613 -0.702931 0.687571 -0.786636 0.675689 0.801239 -0.833278 -0.743858 -0.517677 -0.561771 -0.738298 -0.676299 0.864877 -0.462368 0.760280 0.652763 -0.888649 0.747909 -0.657066 0.665568 0.496361 -0.521891 -0.540703 -0.394552 -0.466546 -0.758989 0.762412 0.535271 0.860572 -0.516218 -0.752080 0.665841 -0.702052 -0.789218 -0.590820 0.938127 0.642704 -0.625826 0.676470 0.663055 0.627298 0.594691 0.833425 -0.564701 -0.488818 0.714269 -0.609237 -0.892585 -0.953509 -0.736419 -0.416838 -0.726984 -0.719226 0.602576 0.771781 0.855946 -0.694027 0.520240 -0.354807 -0.633934 0.738396 -0.597522 -0.807889 0.691224 -0.808082 0.574898 0.662388 0.547423 0.744904 0.636817 0.698072 -1.000000 0.648167 0.669454 -0.499368 -0.510142 0.813615 0.483366 -0.783516 -0.742293 -0.775064 1.000000
-0.704307 -0.676224 -0.720408 0.736086 0.570268 0.675293 -0.704392 0.894071 0.568331 -0.648743 0.559655 -0.773066 -0.685557 0.695563 -0.555664 0.447519 -0.505684 -0.821467 -0.833946 -0.699678 0.838395 0.648500 0.947410 -0.771454 0.643282 -0.598008 0.747941 -0.751943 -0.794016 -0.804756 -0.646359 0.566590 0.406638 0.605823 0.551543 -0.648133 -0.916580 0.741755 0.724434 0.710747 -0.675482 0.722303 0.795921 0.908721 0.552750 0.847466 0.687650 -0.710264 -0.940890 0.814203 0.665091 0.833287 -0.782872 -0.652120 -0.666435 -0.875597 0.802073 -0.669159 0.717496 -0.812347 -0.716576 0.675081 -0.919353 0.650443 -0.808375 0.679538 0.887008 -0.473485 0.782730 0.785978 0.708021 0.647666 0.637098 0.558607 0.504580 0.575840 -0.616681 0.571367 -0.637455 -0.873376 0.661518 -0.679994 0.784562 0.830070 0.732249 0.972612 -0.725696 -0.703311 -0.586284 0.746812 0.852504 -0.551508 -0.512425 0.745342 0.658449 0.401867 0.813619 0.735864 0.448759 -0.788003 0.747072 0.937472 -0.730400 -0.474153 -0.628620 0.489136 -0.679093 -0.713967 -0.715328 0.731231 0.670573 0.623073 0.733359 0.734498 -0.612118 -0.642915 0.583569 -0.695836 0.622808 0.724502 -0.727756 -0.651205 -0.663238 -0.522550 -0.652715 -0.797690 0.543066 -0.556069 0.835669 0.598098 -0.740108 0.825380 -0.460984 0.613336 0.648307 -0.718402 -0.830652 -0.748706 -0.589630 -0.829972 0.416755 0.768210 0.775050 -0.454155 -0.695888 0.776809 -0.752215 -0.636043 -0.874730 0.690451 0.736231 -0.647156 0.699139 0.683427 0.530427 1.000000 0.521540 -0.871406 -0.578295 0.431473 -0.770950 -0.703194 -0.676417 -1.000000 -0.730274 -0.707230 -0.479348 0.767168 0.684353 0.595442 -0.651642 0.643119 -0.549912 -0.830832 0.421837 -0.645670 -0.664235 0.727033 -0.605648 0.477981 0.803392 0.633360 0.696495 0.595554 0.755462 -0.590067 0.829629 0.474221 -0.963385 -0.745190 0.767773 0.634592 -0.874076 -0.620297 -0.612965 0.850189
-0.447205 -0.779252 -0.692171 0.473601 0.903935 0.811871 -0.806328 0.830752 0.576283 -0.552132 0.739110 -0.871982 -0.982519 0.798445 -0.612820 0.647062 -0.676522 -0.564094 -0.579982 -0.718515 0.945894 0.756548 0.906889 -0.674794 0.763375 -0.747311 0.387478 -0.679042 -0.819670 -0.612617 -0.808018 0.922870 0.777521 0.702932 0.740999 -0.598589 -0.728854 0.675808 0.667158 0.849676 -0.785101 0.722629 0.861531 0.459847 0.779906 0.790665 0.874179 -0.753812 -0.555974 0.759675 0.940659 0.461335 -0.523850 -0.582916 -1.000000 -0.461719 0.764857 -0.631277 0.764022 -0.526608 -0.566342 0.737963 -0.565215 0.679153 -0.617605 0.697593 0.665004 -0.291608 0.589634 0.924828 0.648786 0.755342 0.634097 0.570593 0.636052 0.481751 -0.468177 0.786194 -0.844643 -0.736909 0.696663 -0.473027 0.912215 0.742751 0.650604 0.688103 -0.512919 -0.550303 -0.734240 0.704614 0.831892 -0.506979 -0.474007 0.715485 0.615060 1.000000 0.651996 0.732565 0.782860 -0.605455 0.802057 0.505979 -0.610845 -0.581076 -0.478714 0.624803 -0.545536 -0.498573 -0.378310 0.727298 0.684617 0.517351 0.593197 0.698800 -0.744929 -0.765865 0.787392 -0.528011 0.845121 0.999245 -0.701500 -0.576252 -0.701582 -0.359970 -0.747760 -0.457210 0.846055 -0.733543 0.754459 0.867134 -0.683464 0.652191 -0.614363 0.724567 0.738136 -0.615065 -0.826028 -0.660733 -0.557896 -0.738399 0.991716 0.539689 0.717768 -0.588444 -0.632809 0.543473 -0.762339 -0.553175 -0.539284 0.674555 0.807809 -0.814453 0.514867 0.766554 0.641370 0.773829 0.792995 -0.684794 -0.524482 0.716211 -0.719091 -0.629042 -0.776306 -0.621084 -0.583757 -0.643714 -0.553553 0.920782 0.581059 0.912749 -0.781682 0.733071 -0.689753 -0.640016 0.571236 -0.584858 -0.709730 0.760143 -0.903796 0.768618 0.776372 0.508297 0.885628 0.639036 0.749960 -0.948850 0.711993 0.917993 -0.682237 -0.706870 0.753233 0.657047 -0.975260 -0.570143 -0.591720 0.872756
-0.897665 -0.882455 -0.868238 0.483924 0.739854 0.623543 -0.751383 0.596227 0.859765 -0.603960 0.669301 -0.894294 -0.882794 0.509550 -0.928075 0.511744 -0.901009 -0.727431 -0.684677 -0.696463 0.659940 0.760410 0.382901 -0.662660 0.501501 -0.564293 0.737275 -0.795182 -0.578210 -0.897087 -0.782111 0.712765 0.574953 0.611592 0.604284 -0.794509 -0.469264 0.738043 0.680282 0.570970 -0.833599 0.464141 0.419206 0.715239 0.544724 0.820514 0.603250 -0.769256 -0.765759 0.734411 0.915044 0.701320 -0.764252 -0.833983 -0.755586 -0.633363 0.554294 -0.701661 0.668604 -0.806461 -0.807623 0.849477 -0.769899 0.572448 -0.931340 0.511224 0.647198 -0.691298 0.589976 0.576011 0.588064 0.531532 0.784035 0.563937 0.661831 0.807892 -0.657538 0.503383 -0.734181 -0.742309 0.653917 -0.872678 0.558410 0.578384 0.729935 0.586238 -0.823219 -0.649100 -0.758981 0.502856 0.496086 -0.769181 -0.768759 0.562292 0.684312 0.734147 0.650762 0.661820 0.625607 -0.607089 0.603502 0.543107 -0.743862 -0.709328 -0.976121 0.551948 -0.796989 -0.674964 -0.891038 0.647574 0.688520 0.618479 0.532147 0.701600 -0.709442 -0.795043 0.597537 -0.800644 0.572490 0.489517 -0.706066 -0.732215 -0.882265 -0.531162 -0.902608 -0.836965 0.579962 -0.733363 0.678807 0.602224 -0.737813 0.504036 -0.825163 0.565950 0.866177 -0.799170 -0.881638 -0.610510 -0.646350 -0.719116 0.582707 0.605803 0.653437 -0.720791 -1.000000 0.547131 -0.752166 -0.797117 -0.821177 0.787426 0.520346 -0.812347 0.699445 0.510369 0.536880 0.700388 0.663846 -0.819225 -0.767113 0.675598 -0.669175 -0.742398 -0.936952 -0.811239 -0.791935 -0.693259 -0.596582 0.816867 0.417099 0.614355 -0.762454 0.659212 -0.837325 -0.853560 0.525434 -0.686645 -0.851150 0.555983 -0.748362 0.507801 0.562476 0.532456 0.658559 0.664345 0.538395 -0.797069 0.610901 0.709883 -0.952295 -0.770900 1.000000 0.677584 -0.742014 -0.684784 -0.732162 0.625059
-0.571491 -0.589399 -0.739745 0.515851 0.833804 0.615114 -0.659289 0.635488 0.454330 -0.787550 0.685363 -0.855881 -0.553997 0.676263 -0.685873 0.608816 -0.794760 -0.694591 -0.894139 -0.955517 0.664124 0.602464 0.469439 -0.778167 0.792424 -0.683830 0.752147 -0.730580 -0.785131 -0.576579 -0.725636 0.733726 0.606340 0.570446 0.834141 -0.885503 -0.545302 0.534071 0.718299 0.554340 -0.549937 0.575594 0.783701 0.808943 0.471568 0.556603 0.532774 -0.755387 -0.619619 0.655193 0.687276 0.929562 -0.638408 -0.555235 -1.000000 -0.752280 0.770844 -0.776229 0.985799 -0.674254 -0.893243 0.691144 -0.735396 0.433133 -0.762483 0.654630 0.492516 -0.757222 0.837997 0.664806 0.725018 0.534651 0.562938 0.712829 0.698297 0.585581 -0.862287 0.320656 -0.774200 -0.688709 0.598993 -0.780447 0.879464 0.641906 0.828454 0.532865 -0.686519 -0.733766 -0.642747 0.696243 0.564250 -0.852699 -0.819546 0.621702 0.766310 0.703395 0.838168 0.678847 1.000000 -0.903132 0.775580 0.497054 -0.468393 -0.824897 -0.760668 0.714055 -0.585124 -0.686991 -0.777832 0.647568 0.713724 0.986020 0.753368 0.676162 -0.935510 -0.766544 0.748901 -0.719401 0.761096 0.642323 -0.735040 -0.525640 -0.837803 -0.755732 -0.632151 -0.795153 0.825289 -0.769746 0.860850 0.627450 -0.702422 0.732545 -0.804790 0.716971 0.707171 -0.894620 -0.620920 -0.742074 -0.668418 -0.490803 0.964917 0.799607 0.472783 -0.712691 -0.703270 0.746902 -0.642466 -0.679703 -0.663452 0.391145 0.610163 -0.934452 0.603173 0.758232 0.545411 0.676945 0.859778 -0.732674 -0.622478 0.586413 -0.645654 -0.640338 -0.750047 -0.852373 -0.782463 -0.773148 -0.452053 0.881518 0.700451 0.533160 -0.815574 0.849131 -0.534654 -0.717719 0.704355 -0.652858 -0.660016 0.647190 -0.621268 0.522372 0.863840 0.520219 0.659529 0.654797 0.579089 -0.570543 0.738259 0.717550 -0.900386 -0.395875 0.646327 0.582957 -0.696336 -0.738595 -0.760198 0.524748
-0.991940 -0.741102 -0.695096 0.530548 0.684372 0.784112 -0.763946 0.736762 0.250371 -0.648857 0.646276 -0.793691 -0.850348 0.688965 -0.706439 0.564368 -0.569520 -0.559815 -0.612514 -0.563659 0.942692 0.418554 0.826621 -0.730978 0.726732 -0.800355 0.578490 -0.684151 -0.562633 -0.768686 -0.406279 0.748083 0.496613 0.565301 0.807334 -0.627503 -0.947386 0.572707 0.612406 0.717474 -0.615608 0.459226 0.546985 0.543819 0.624822 0.633077 0.662650 -0.651436 -0.949525 0.676816 0.548239 0.689076 -0.807085 -0.802677 -0.852287 -0.645023 0.672824 -0.624523 0.780172 -0.835482 -0.467230 0.622596 -0.658164 0.646665 -0.645868 0.699908 0.776051 -0.674463 0.705475 0.748829 0.717001 0.869245 0.651756 0.834895 0.627060 0.520184 -0.700330 0.550416 -1.000000 -0.688843 0.776287 -0.536084 0.483977 0.595897 0.835564 0.691267 -0.572963 -0.640387 -0.607942 0.761608 0.701448 -0.883217 -0.868602 0.543506 0.530074 0.951706 0.335180 0.515736 0.819736 -0.799479 0.555103 0.660843 -0.790576 -0.841077 -0.896041 0.687277 -0.793058 -0.783635 -0.833298 0.555141 0.796085 0.546198 0.863215 0.777087 -0.826077 -0.783991 0.638951 -0.705349 0.526329 0.557592 -0.830034 -0.615987 -0.872907 -0.556617 -0.706884 -0.421192 0.864286 -0.843353 0.513965 0.551367 -0.903349 0.831028 -0.574188 0.673224 0.773768 -0.868050 -0.709794 -0.759268 -0.762093 -0.669558 0.648895 0.665330 0.750644 -0.723920 -0.699152 0.762312 -0.632114 -0.618852 -0.834517 0.643365 0.667685 -0.652934 1.000000 0.527528 0.431902 0.655630 0.625959 -0.876795 -0.602215 0.758499 -0.971301 -0.743394 -0.959612 -0.651287 -0.633682 -0.752271 -0.812171 0.707328 0.744082 0.580936 -0.591670 0.621418 -0.422059 -0.796183 0.576658 -0.888916 -0.724383 0.735245 -0.846630 0.566547 0.727455 0.489719 0.745447 0.714260 0.620744 -0.640922 0.576855 0.616301 -0.730524 -0.885640 0.505840 0.435156 -0.912066 -0.685360 -0.697262 0.700945
-0.857354 -0.708749 -0.633108 0.571399 0.340661 0.826265 -0.704684 0.628087 0.652398 -0.763684 0.658174 -0.668529 -0.864564 0.581097 -0.757134 0.493324 -0.686790 -0.436200 -0.767479 -0.599350 0.593210 0.696678 0.548463 -0.711709 0.562801 -0.837232 0.706557 -0.666055 -0.703890 -0.948688 -0.675918 0.534492 0.804826 0.812908 0.834383 -0.501299 -0.819340 0.769750 0.554325 0.646114 -0.583533 0.543848 0.673656 0.899879 0.650673 0.625731 0.620651 -0.688478 -0.810701 0.632327 0.827011 0.674987 -0.738328 -0.631366 -0.602538 -0.600418 0.607641 -0.569553 0.746680 -0.778655 -0.492052 0.576693 -0.816024 0.721640 -0.611251 0.771826 0.684850 -0.652540 0.524218 0.927858 0.569492 0.897061 0.580635 0.797213 0.584291 0.877001 -0.632438 0.686983 -0.724457 -0.624074 0.705888 -0.754277 0.490038 0.915518 0.653983 0.692799 -0.838112 -0.519294 -0.736397 0.564827 0.696595 -0.681854 -0.557314 0.655754 0.935491 0.654859 0.643823 0.687283 0.806896 -0.612453 0.728413 0.726879 -0.683887 -0.655494 -0.765978 0.892434 -0.604805 -0.696046 -0.627809 0.508128 0.935887 0.681137 0.623568 0.545663 -0.670948 -0.755069 0.864924 -0.727218 0.933503 0.554825 -0.660965 -0.686952 -0.780196 -0.273506 -0.659212 -0.714226 0.804673 -0.431438 0.832797 0.673462 -0.611215 0.604170 -0.828399 0.752523 0.666365 -0.742711 -0.847034 -0.650079 -0.877007 -0.811519 0.766602 0.820237 0.804906 -0.799809 -0.630979 0.515930 -0.695400 -0.581101 -0.751449 0.643623 0.957198 -0.618741 0.721934 0.627500 0.730945 0.723743 0.782907 -0.893840 -0.980679 0.754904 -0.803555 -0.601930 -0.914954 -0.725835 -1.000000 -0.647477 -0.565550 0.684583 1.000000 0.764086 -0.568117 0.676694 -0.917277 -0.367178 0.656798 -0.707260 -0.618961 0.897092 -0.712086 0.508332 0.783527 0.703433 0.795829 0.656367 0.851595 -0.705979 0.622454 0.696545 -0.672315 -0.429688 0.482311 0.789928 -0.605616 -0.820375 -0.789836 0.617652
