0.289160
-0.015358
-0.443481
-0.714464
-0.390972
-0.308458
-0.471086
0.254192
-0.176643
-0.212190
0.305075
-0.032059
-0.396659
-0.162142
0.269167
-0.427277
-0.013110
-0.347966
0.368602
0.060113
-0.010028
0.324329
-0.113146
0.027902
0.249203
-0.115144
-0.428355
0.188919
0.094731
0.156528
-0.017696
0.220607
-0.588092
-0.541025
-0.348177
-0.159121
-0.000679
0.415831
-1.000000
-0.759868
-0.029644
-0.590724
0.222626
-0.481634
-0.048816
-0.196285
0.030641
-0.291444
-0.500613
-0.132137
0.310137
-0.571354
0.296706
-0.539708
0.263929
0.406364
-0.317414
-0.239954
-0.181812
0.240104
0.201939
-0.239684
0.130990
0.256320
0.030166
0.337259
-0.102882
0.622185
0.568806
0.139520
0.101800
-0.126095
0.405333
0.177454
0.001131
0.296778
0.390361
0.248692
0.346079
0.698888
0.065296
0.152869
-0.183736
-0.233474
-0.227278
-0.342668
0.132972
-0.065762
-0.005486
-0.041772
0.269594
0.804972
0.322063
0.422380
0.240412
0.250493
0.315813
0.689637
0.555469
0.529579
-0.032265
0.299075
0.121932
-0.048895
-0.536135
0.117112
0.172786
-0.201757
-0.643639
0.084631
0.015793
0.153005
-0.296712
0.095879
-0.199168
-0.087746
0.477170
0.184551
0.131526
0.263416
0.560573
-0.026761
-0.299984
0.255688
0.262665
0.287339
0.078686
0.719272
0.346395
-0.412138
-0.113391
0.388155
0.120358
0.470828
0.527846
0.659113
0.083042
-0.434409
-0.225745
0.052161
-0.467002
-0.315513
0.212711
0.472253
0.073900
-0.375251
0.060687
0.616034
0.245250
0.524203
-0.015350
0.323840
0.077998
0.343932
0.768023
0.251043
-0.185829
0.194599
0.515211
0.496246
0.356701
0.172489
0.191457
0.264737
0.325479
0.185491
-0.220121
0.002453
-0.257996
0.439951
-0.110102
0.154055
0.146153
-0.124065
0.100850
0.166815
0.054846
0.707284
0.519279
0.284824
0.453172
-0.025437
0.499914
0.467784
0.413599
0.373260
-0.173590
0.243072
0.403416
0.419704
0.167872
0.165675
-0.390701
0.331835
-0.179093
0.015224
-0.268929
0.240429
0.424717
0.954963
-0.276642
0.306194
0.508772
0.670542
0.161371
0.805098
-0.003884
0.155931
0.126257
0.369017
0.022456
0.211348
0.223246
0.267838
0.741734
0.461037
0.241186
-0.095509
0.453800
0.153792
0.181158
0.690410
-0.077671
-0.347083
-0.047528
0.051046
0.000096
-0.153173
0.588249
0.222417
0.182562
-0.212390
0.327952
0.278011
0.764364
0.524591
0.373748
0.601673
0.203290
0.108320
0.538541
0.100402
0.271127
0.033320
0.617641
0.798641
-0.005256
0.720966
0.359309
0.177470
0.221907
-0.510076
-0.290200
0.663173
0.295419
0.714086
0.207998
0.315128
-0.303955
0.391754
0.007420
0.849006
0.160436
0.212903
0.577674
0.792242
0.212740
0.268352
0.246777
0.206085
0.530167
-0.346605
0.252916
0.611420
-0.132299
0.654851
0.298575
0.211185
-0.020147
0.300440
0.318998
0.234272
0.404840
0.333769
0.439219
-0.094808
0.141509
0.475019
0.520259
0.260357
0.190520
-0.055369
0.395446
0.191878
0.532622
0.384648
0.486055
0.548817
0.546111
-0.021975
0.252120
-0.026247
0.466227
0.490128
0.442870
0.129831
0.572245
0.503003
0.135203
0.167200
0.215568
0.429783
0.161195
0.982914
0.374540
0.439053
0.502623
0.423962
0.487666
0.243559
0.020003
0.714065
0.304665
0.153568
0.470645
0.532428
0.442206
0.329635
0.101547
-0.029892
0.692821
0.345765
0.602776
-0.000096
0.291953
-0.052068
0.354370
0.336539
0.060643
0.472060
0.317353
0.222133
0.138467
0.797208
-0.148353
0.379569
0.803996
0.148626
0.170429
0.579536
0.018649
0.132081
0.383590
0.297128
-0.064353
0.346400
0.270625
0.287588
0.084279
0.313354
0.320819
-0.002599
0.242371
1.000000
0.160780
0.204065
0.421098
0.161134
0.389662
0.561126
-0.063766
0.539332
0.409797
0.535571
0.082168
-0.064661
0.272850
0.078982
0.274597
0.249387
0.564853
0.443318
0.125400
-0.004456
0.534826
0.178750
0.251997
0.497652
0.193014
0.150131
0.403345
0.056382
0.037338
0.379160
0.565814
0.545350
0.656457
0.293513
0.303046
0.690065
0.372356
0.127542
0.437563
0.000738
0.035148
0.251969
0.328871
0.201280
-0.233357
-0.113904
0.101475
0.567032
0.429672
0.852034
0.464318
0.201794
0.573702
0.679269
0.609631
0.664264
0.291917
0.209006
0.556873
0.437603
0.970678
0.413037
0.211712
0.085184
0.407912
0.254052
0.318698
0.673326
0.067827
0.417212
0.593959
0.686150
0.567457
0.607632
0.762263
0.150737
0.095069
0.773127
0.314330
0.170907
0.260831
0.435259
0.286619
-0.115569
-0.338893
-0.226783
0.372593
0.142251
0.581652
0.315944
0.207632
0.292529
-0.070854
0.454934
0.638159
0.297846
0.260026
0.545479
0.497552
0.271127
0.284611
0.679371
0.505907
0.665101
0.222108
0.369904
0.366781
0.339669
0.430640
0.371610
-0.256009
0.159963
-0.167277
-0.271507
0.053306
0.127144
0.337700
0.739643
0.424345
0.436276
0.742879
0.151485
0.504339
0.231474
0.478707
-0.148364
0.659085
0.121621
-0.012916
0.677340
0.277268
0.415979
0.188436
0.434779
0.466700
0.360161
0.046569
0.388975
-0.223279
0.485049
-0.272745
-0.330192
0.179337
0.424509
0.197168
0.398420
0.076223
0.305966
0.579846
0.229402
0.381899
0.291338
0.281666
0.619986
0.647708
0.816291
0.529253
0.928740
-0.013097
0.442329
0.481248
-0.093010
0.229172
0.168563
0.268838
0.462867
-0.213063
0.422962
-0.665476
-0.024106
0.626925
0.118753
0.426694
0.255867
0.585819
-0.048173
0.894587
0.476347
-0.017997
0.368188
0.179439
0.014694
0.114742
0.799373
0.101937
0.027691
0.478498
0.224863
0.100740
0.312735
-0.078016
0.596658
0.414180
0.107379
0.378190
0.227172
0.252317
-0.327401
0.457520
0.248782
0.542682
0.262736
-0.049109
0.244500
0.346950
0.134008
0.188050
0.083279
0.013430
-0.038222
0.189913
0.547794
0.165719
0.543763
0.068839
0.608950
0.517017
-0.443502
0.180964
0.459109
0.381642
0.275890
-0.044007
-0.454580
-0.530509
-0.370866
0.100294
0.298778
0.129340
0.188562
0.229121
-0.151479
0.138374
0.347536
0.323967
0.646305
0.472541
0.221403
-0.027489
0.123838
0.358869
0.078565
-0.280398
0.830101
0.114447
0.375966
0.128822
0.241427
0.040864
0.223524
-0.378927
-0.307754
0.420504
-0.028724
0.195517
0.065791
-0.013211
0.472486
0.422299
0.185519
-0.158499
0.170255
0.553272
0.138399
0.444986
0.391645
0.420324
0.018452
0.117524
0.410506
0.716901
0.658957
0.200058
0.162261
0.261378
-0.136289
0.195810
0.646421
0.388311
-0.477627
0.072650
-0.165844
-0.218864
0.165421
0.330035
0.041365
0.341983
0.358507
0.256312
0.265789
0.687300
0.575821
0.081193
0.515131
0.426344
0.354266
0.283788
-0.144001
0.319525
0.521291
0.340727
-0.438381
0.688873
0.180760
-0.044928
-0.556197
0.343068
0.212773
0.128853
-0.222245
-0.155662
0.201656
0.536737
0.031160
0.502551
0.228333
0.144391
0.595736
-0.086275
-0.048929
0.191780
0.340788
0.598917
0.210861
0.524764
0.408890
0.361711
0.491645
-0.437011
0.209080
-0.052418
0.040525
-0.397994
-0.449842
-0.158356
-0.078655
-0.281975
-0.532726
-0.170057
0.085353
-0.277980
0.457274
0.223445
0.400122
0.316603
-0.060804
0.564602
0.439440
0.171623
0.450913
0.285318
0.516556
0.651129
0.234522
0.490792
0.501196
0.236757
-0.111360
-0.217505
-0.147051
0.004901
-0.568003
-0.000898
-0.192890
-0.170192
-0.109544
0.591468
0.027558
0.410980
-0.296153
-0.072269
0.447613
0.341380
0.241946
-0.043169
0.121574
0.040864
-0.164330
-0.334246
0.291187
0.076966
-0.624656
0.227450
0.101089
0.298724
-0.378328
-0.099579
-0.256809
-0.216502
0.187042
0.020357
-0.351178
0.359095
-0.418234
0.031089
-0.383835
-0.564866
0.172641
0.244779
-0.174128
0.325397
-0.147989
-0.098437
-0.429406
-0.045018
-0.252922
-0.268482
-0.057600
0.103785
0.123212
0.089856
-0.006018
0.414366
-0.255019
-0.390388
-0.059582
-0.118726
-0.436426
0.362597
-0.162677
