-0.008435 0.119326 -0.089736 -0.061473 -0.001274 -0.027711 -0.047592 -0.028879 -0.072556 0.104054 0.001111 0.052902 -0.045494 -0.022965 -0.007380 0.070725 0.049263 0.025155 -0.068988 0.044094 0.095725 -0.091000 0.030895 -0.007413 0.067291 0.104219 0.079887 -0.005652 -0.021080 -0.041657 -0.004320 0.060397 -0.050712 -0.000235 0.025550 0.074473 0.097969 -0.017306 -0.031921 -0.056188 -0.026534 0.031670 -0.056692 0.156349 0.000858 -0.003289 -0.079287 -0.024359 -0.039192 -0.051320 -0.014232 0.029869 -0.139734 -0.075190 -0.002014 -0.024797 0.022694 -0.152104 -0.091387 0.045997 -0.038329 -0.064933 -0.066080 -0.007423 0.028836 -0.027740 -0.062577 -0.050043 -0.003150 -0.040686 -0.085850 0.023095 -0.010709 0.024002 0.070621 0.041598 0.070539 -0.022647 0.091362 0.011784 0.118091 0.013546 0.009218 0.065494 -0.090175 -0.080622 0.053620 -0.058300 -0.030897 0.154406 0.155446 0.007294 0.024671 0.073965 -0.004595 -0.095630 -0.009811 -0.044421 -0.073756 -0.097059 -0.107122 0.010306 0.027947 -0.046918 -0.062320 -0.047394 0.052628 -0.012134 -0.089643 0.072827 0.000333 -0.001878 0.083663 -0.064830 -0.039258 -0.022673 0.029896 0.033950 -0.076473 -0.021503 0.073859 0.056972 -0.054809 -0.014803 0.043523 -0.115663 -0.266828 0.014872 -0.045623 0.050500 -0.050346 -0.039153 -0.017009 0.019962 0.050972 -0.036451 0.131791 -0.168000 0.000706 0.016042 0.007602 -0.000815 0.042892 0.042107 0.068727 -0.071315 0.002083 0.057189 -0.058902 0.035579 0.067692 -0.016223 0.160473 0.032393 -0.146485 -0.085180 0.069815 0.018229 0.128829 -0.009050 -0.080732 0.051684 0.011014 0.048600 -0.045592 -0.065448 0.094674 -0.106175 0.043955 0.021971 -0.001087 0.100851 -0.082918 -0.176765 -0.031610 -0.067453 0.171232 -0.144138 -0.045025 -0.093192 0.111233 0.042628 -0.020927 -0.004624 -0.070320 0.020103 0.109729 0.019358 -0.110247 0.032796 0.025204 -0.021718 0.064328 -0.068435 0.036020 0.114114
0.054414 0.021499 -0.006395 0.028238 0.053296 -0.006287 0.028134 -0.004526 0.018622 0.073133 0.020876 -0.028556 -0.048673 0.102346 0.014543 0.025108 -0.056823 -0.022704 0.011361 -0.104416 -0.083087 -0.209163 0.101524 -0.017601 0.057864 0.000868 -0.055083 -0.027298 0.040189 0.012692 0.044311 -0.057620 -0.205465 0.085923 0.043089 0.102733 0.103958 0.011597 -0.032940 0.033183 -0.024547 -0.085555 0.060189 -0.016531 -0.012826 -0.015889 0.013631 0.041850 -0.024038 0.094106 0.111849 0.060743 -0.049390 -0.020070 -0.008104 -0.004284 -0.026958 0.028706 0.123190 0.051882 -0.119791 -0.084558 0.115459 -0.062431 0.009005 0.052819 0.021826 -0.030788 -0.103539 -0.027125 0.073459 -0.140581 -0.029154 -0.041316 0.002610 0.004144 0.109756 0.062911 0.062160 -0.067277 0.067184 0.083383 0.010839 0.086070 0.060069 0.061671 0.143514 -0.041817 0.042216 0.107571 -0.107035 0.061606 0.035308 -0.026845 -0.107445 0.014593 -0.108489 -0.084515 -0.159535 -0.028695 -0.139054 0.010363 0.035361 0.059753 0.080884 0.007096 -0.073545 -0.031499 -0.160748 0.057575 -0.005053 0.030370 -0.019348 0.093033 0.116906 0.048147 -0.028337 0.004073 0.030762 -0.186862 -0.046924 0.008154 0.012545 -0.013558 -0.088550 -0.031534 -0.088731 -0.002325 -0.093334 0.112100 -0.058359 0.120266 -0.055417 0.079166 0.124552 0.041458 0.010821 0.025446 0.027685 -0.029205 -0.030013 0.055337 0.002910 -0.103385 0.028193 -0.033592 0.019772 -0.070731 0.074060 -0.016771 -0.066993 0.080352 0.090189 -0.046630 0.093909 0.051853 0.100958 -0.029632 -0.046195 0.000365 -0.060770 0.036649 -0.136255 -0.027346 0.048384 -0.040046 0.036100 -0.059920 0.067582 0.026728 -0.083149 -0.014277 0.019460 0.072004 0.055305 0.096927 0.026402 -0.031417 0.067439 0.135292 0.007571 -0.083084 0.140737 0.048538 -0.062529 -0.042944 -0.097709 -0.061143 -0.033027 -0.053591 0.025090 0.013682 0.123448 -0.023246 0.053605 -0.115727
0.100731 0.033486 0.040617 0.081010 -0.008054 -0.111773 0.026151 -0.008212 0.054137 -0.054859 -0.086491 -0.079196 0.025294 0.021550 0.029425 0.102006 -0.005244 -0.048021 -0.001631 -0.043693 -0.032096 -0.025269 -0.093308 0.079366 0.060730 0.006150 -0.035453 -0.088165 -0.103935 -0.020487 -0.011320 -0.066442 -0.103448 0.095794 0.019111 -0.056837 0.037392 0.006097 0.000602 -0.012807 -0.068206 -0.029534 0.040852 -0.013856 0.048600 0.085179 -0.009867 -0.175785 -0.075354 0.054632 0.070314 -0.046877 -0.086963 -0.033745 0.057611 -0.032484 -0.031150 -0.003629 -0.093023 -0.069134 -0.039925 0.060811 -0.000892 -0.009065 -0.077252 0.071638 -0.065787 -0.050028 0.119194 0.113823 -0.001388 -0.040871 -0.228202 0.054029 -0.027298 0.015437 0.149841 -0.078376 -0.006567 -0.070201 0.104857 -0.039045 -0.032290 -0.050815 0.094945 0.060410 -0.051827 -0.078801 0.032095 0.022285 -0.089369 -0.081648 0.095864 0.063725 -0.007574 0.027930 -0.074580 0.025093 -0.019276 0.060437 -0.051707 -0.015126 0.016578 0.073635 -0.016666 0.109284 -0.075148 -0.012654 -0.058441 -0.019192 0.137577 -0.000574 -0.018600 -0.148956 0.090079 -0.017364 0.066451 -0.082422 -0.144418 -0.036367 -0.054076 -0.051480 -0.122739 -0.094811 -0.093061 -0.128391 0.025646 -0.052479 -0.091364 -0.061187 0.094215 -0.092694 -0.019153 0.027254 0.101325 0.136297 -0.026842 -0.054859 -0.033226 -0.061099 -0.020061 0.046430 0.105152 0.109047 0.067484 -0.089236 0.052112 -0.174178 0.001655 0.117015 0.094721 0.011943 -0.078372 0.014217 -0.093122 -0.006235 0.139203 0.016910 0.049041 -0.079020 -0.007319 0.078417 0.113883 -0.029153 -0.036844 0.058315 -0.181652 -0.032333 -0.007926 -0.008028 -0.007777 -0.006077 0.028551 -0.045086 0.052965 0.013638 -0.048084 0.013819 0.149104 0.132236 -0.063578 0.011472 0.012815 -0.053924 -0.103064 0.139132 0.050500 -0.020052 -0.076440 0.018220 -0.100257 0.044233 0.000302 -0.103464 -0.039417 -0.099195
-0.019499 -0.147560 0.064587 -0.132952 -0.055054 0.142314 -0.215314 -0.075776 0.030976 -0.031146 0.009549 0.054863 0.187658 0.093949 0.035263 -0.031058 0.078246 0.024186 0.092065 0.021405 0.011750 0.091751 -0.151152 0.080996 -0.007668 -0.014017 -0.031752 -0.037235 -0.065734 0.035423 -0.002690 0.013333 0.023611 -0.130204 -0.019513 -0.075633 -0.016972 -0.049474 0.065336 0.123180 -0.014170 0.035984 0.037179 0.046104 0.065152 -0.146510 0.047030 -0.057636 -0.007106 0.122656 -0.037809 0.018052 -0.030928 -0.181250 0.017624 -0.188866 0.108079 -0.021824 0.161264 0.006543 -0.090040 -0.118415 -0.004651 0.064398 0.067232 -0.032721 0.062320 0.097953 0.143771 -0.019691 0.002752 -0.001581 -0.055278 0.031187 0.115762 0.107272 0.048691 0.116172 -0.030736 0.123210 0.053579 0.113601 -0.034263 0.050339 0.061201 0.066477 -0.095445 -0.055159 0.053514 -0.050187 0.085840 0.060465 0.084057 -0.056917 -0.072767 0.206950 -0.044997 -0.116014 -0.076938 0.047343 0.049690 0.058096 -0.084354 -0.083589 0.023775 -0.080020 0.089649 0.137871 0.009859 0.187825 -0.062592 -0.005715 0.076202 0.038744 -0.040908 0.093257 -0.196258 -0.030006 0.095877 -0.079638 0.178339 -0.012352 0.088906 0.085129 0.064098 0.001833 0.031847 -0.008764 -0.058004 -0.013905 -0.088045 -0.061586 0.102492 -0.016715 0.023634 0.067486 -0.006154 0.101598 0.096558 0.166959 -0.023353 0.107028 0.078754 -0.043209 -0.068236 -0.122786 -0.050106 -0.019994 -0.050007 0.001818 -0.050343 -0.174362 -0.107958 -0.021690 0.015951 -0.031424 -0.005883 -0.025047 -0.052292 0.025468 -0.015632 -0.044235 0.079693 0.007129 0.029852 0.040250 0.077774 0.052095 0.050300 -0.023167 0.001665 0.043428 -0.035274 -0.117591 -0.025077 0.016960 0.087919 -0.094393 -0.167568 -0.104995 -0.029082 0.056399 0.013416 0.103265 0.103834 -0.115996 -0.168257 -0.081710 0.011340 0.034544 0.011873 -0.000151 0.083715 -0.007673 0.085761 0.099921
0.017793 -0.015105 -0.098311 0.019853 -0.062381 0.021487 0.089521 -0.061449 0.034078 0.004619 -0.062331 -0.026754 -0.096579 -0.049031 0.021577 0.030948 0.029481 -0.028720 0.065797 0.069104 -0.048930 -0.013419 -0.091184 0.032608 0.032542 -0.140795 0.046810 -0.020687 0.092670 -0.059892 -0.041538 -0.052945 -0.040890 -0.045785 0.063121 -0.055858 0.004729 -0.022162 -0.012618 0.142100 -0.010164 0.095339 -0.038386 0.078702 0.027115 0.116332 -0.064334 0.055047 -0.071769 -0.108969 0.035220 0.012005 0.055874 -0.047308 0.064148 0.002007 0.052462 0.012230 0.130682 -0.007969 -0.012524 -0.035973 -0.019455 -0.001865 -0.034221 -0.033037 -0.031713 -0.057034 0.001899 -0.000322 0.002664 -0.095962 -0.111694 -0.008099 -0.109533 -0.065106 0.036016 -0.010735 -0.050956 0.102427 -0.095896 -0.037496 0.066928 -0.099421 0.125292 0.152334 0.045232 -0.064129 0.016669 -0.078777 0.007105 -0.110541 0.038089 0.016760 -0.097591 -0.022690 -0.047992 -0.127096 -0.061789 -0.011789 -0.014978 0.114331 0.022511 -0.087838 -0.009133 -0.011378 0.067760 -0.022057 -0.032603 -0.041419 0.019065 -0.064694 -0.127381 -0.001753 -0.029845 0.005877 -0.106274 0.103665 -0.034683 0.015352 0.042675 0.084414 0.044101 0.029606 -0.069777 0.109763 0.065807 -0.009565 -0.007044 -0.094327 0.070672 0.117006 0.048101 0.008668 -0.036828 0.053050 0.129919 0.133006 -0.066843 -0.116748 0.021739 0.057580 -0.012038 0.062954 -0.013740 0.019524 0.029627 0.077570 0.064592 -0.067625 0.067165 0.069388 -0.035161 0.072707 -0.052653 0.011576 -0.017486 0.106790 -0.042149 -0.004525 -0.081824 0.028514 -0.088609 0.052316 0.154407 0.038678 0.072809 -0.067388 0.042474 0.121108 0.040811 0.038804 -0.007220 0.004907 -0.102929 0.036570 -0.035402 0.067619 -0.034728 0.060469 0.119020 -0.069585 -0.153343 0.062549 -0.048147 -0.045390 0.099119 -0.056277 0.044728 -0.115946 0.035334 0.049631 -0.084913 0.079410 0.054548 -0.014099
-0.016269 -0.019229 -0.013912 0.022398 -0.018907 0.084277 -0.002549 -0.053680 -0.023644 0.019879 -0.009840 0.014120 -0.023415 -0.027968 0.120830 -0.174801 -0.060384 0.080896 -0.132679 0.041395 0.113460 -0.060960 0.010833 0.087494 -0.059864 -0.026215 -0.052611 0.101542 0.046787 0.015477 -0.011715 -0.136063 -0.086850 -0.069723 0.000254 -0.064106 -0.015438 -0.123329 -0.154713 -0.024113 0.117341 -0.093454 0.055046 -0.021427 -0.095734 0.062260 0.043921 0.015627 -0.005061 0.073449 0.110924 0.056358 0.059893 0.115628 -0.061369 0.007520 -0.031820 0.013289 -0.073393 -0.038580 -0.038472 -0.158760 -0.008411 -0.039972 0.013473 -0.065996 -0.014704 -0.096965 0.116179 0.027643 0.108451 -0.083086 -0.072344 -0.098902 0.093845 0.036259 0.100746 0.045418 0.024016 0.063496 -0.123093 0.024960 0.055842 -0.092320 -0.053657 -0.104253 -0.021867 -0.035241 -0.087344 0.003069 0.013501 -0.040528 0.057480 0.035447 -0.062083 0.164798 -0.034525 -0.113719 -0.063884 0.070081 -0.009028 -0.088902 0.004744 -0.030001 0.060449 -0.026480 0.052130 -0.030792 0.015824 0.084227 0.108003 -0.076853 0.071412 -0.044285 -0.047489 0.051390 0.073957 -0.037659 -0.058785 0.030101 0.061161 -0.111991 -0.069534 -0.060694 0.029244 0.119027 -0.200664 -0.090698 0.074924 -0.084231 -0.111925 -0.142956 0.057508 0.051822 -0.093689 -0.077940 0.012393 0.095163 0.016286 0.020837 -0.018180 -0.134225 -0.045800 0.120290 -0.073617 -0.031417 -0.035726 0.003880 -0.261320 -0.122030 -0.061342 -0.152886 -0.004451 0.061878 -0.125995 0.063071 -0.086689 -0.080426 -0.052225 -0.126759 -0.075365 0.037499 0.134006 0.067685 -0.006029 -0.025223 0.027721 -0.134171 0.047530 0.017784 0.014228 0.060994 0.100343 -0.189083 0.127490 -0.169317 -0.146145 -0.016103 0.032173 -0.026121 -0.066989 -0.105848 0.187375 -0.026341 -0.091968 0.073791 -0.151818 0.036504 0.035356 -0.009463 0.018981 0.098673 0.016289 -0.127682 0.054229 0.052367
-0.006238 0.050131 0.130989 0.085896 -0.048029 0.037232 0.007405 0.082398 -0.055061 -0.043904 0.060300 0.099413 -0.011196 -0.121288 0.046745 -0.019242 0.063884 -0.023958 0.006682 0.046836 -0.037876 -0.188470 -0.042878 -0.037948 -0.068353 -0.047836 0.050430 -0.024284 -0.044026 0.150001 0.000815 -0.050315 -0.049473 0.074701 -0.070749 -0.007270 -0.104709 -0.045646 0.094978 0.100625 -0.055359 -0.034843 0.042749 0.016823 0.047556 0.028165 -0.047385 -0.044928 0.000248 -0.053900 -0.044648 0.126775 -0.024405 -0.018177 0.065966 0.008750 -0.130797 -0.018019 0.057143 0.077411 -0.113912 0.032873 0.006549 -0.001240 -0.006936 0.002872 0.049910 0.003603 0.017294 0.038644 0.044505 0.103534 -0.172333 -0.102795 -0.012390 0.023135 -0.054238 -0.013598 -0.092515 0.071359 0.078419 0.078081 -0.035461 0.008387 0.014352 -0.054600 0.036480 -0.017259 -0.022263 0.024856 0.040264 -0.096403 -0.061832 -0.041091 0.008233 -0.038211 0.074103 0.025240 -0.052346 0.061586 -0.026437 -0.006371 -0.083244 0.135484 -0.072230 0.034563 0.019147 0.003690 -0.141638 -0.090242 0.016494 0.010508 0.172188 0.024291 -0.002769 -0.000347 -0.082083 0.024837 -0.029765 0.101561 0.163814 -0.055158 0.085874 0.171050 0.098211 -0.053143 0.031484 -0.007480 -0.067393 0.017934 -0.057243 0.099917 -0.022763 -0.102505 0.072373 0.029059 0.145554 0.034594 0.197176 0.070964 -0.086821 0.021472 0.086572 0.013673 0.027688 -0.156778 0.053057 0.104994 0.044447 0.049047 -0.064577 0.015465 0.145885 0.034881 0.105064 0.036497 -0.041688 -0.060837 0.052413 0.007471 -0.070132 -0.017631 -0.100552 -0.024617 0.087648 -0.085397 -0.015736 -0.012745 0.048950 0.087581 0.008745 -0.017175 0.135665 -0.018010 -0.003998 -0.036140 0.153474 -0.086696 0.028454 -0.051548 0.037478 0.127370 0.063926 0.024745 -0.044764 -0.066322 -0.006434 -0.041993 -0.033720 -0.080740 0.024548 0.021509 -0.058075 0.006689 0.135712 -0.044214
0.061671 -0.030953 0.034983 -0.078683 0.024663 -0.032676 -0.021179 0.046142 0.069182 0.070165 0.022789 0.031182 0.058155 -0.049357 -0.082084 0.098276 -0.041543 0.062720 0.021849 0.208687 0.029198 0.006581 0.081454 -0.119356 0.099804 0.062921 -0.065059 0.002502 0.017021 -0.077840 0.070603 -0.017937 -0.022884 -0.046093 -0.016429 -0.053961 0.044092 0.008037 -0.088162 -0.032219 -0.096032 0.107491 0.013049 0.053336 0.046631 -0.010704 -0.083925 0.005581 -0.001175 -0.002785 0.040713 0.062795 -0.116077 0.066554 0.020798 -0.041082 0.037942 -0.037630 0.073328 -0.049267 -0.160719 -0.007292 0.007880 0.008536 0.060445 0.090715 -0.069433 -0.145535 -0.085856 0.085291 -0.247242 -0.008809 0.075761 -0.050868 0.056032 0.036409 0.104096 0.033874 0.102251 -0.065338 -0.024786 0.055659 -0.137724 0.087032 0.088309 0.054908 0.024417 -0.133191 0.004675 0.011107 0.070644 0.134494 0.015846 0.091554 -0.105471 0.115693 -0.079495 0.002156 -0.017981 0.052122 0.087246 -0.060307 -0.025354 -0.087107 -0.061095 -0.114946 -0.032119 -0.144038 0.021135 0.007575 0.146508 -0.076603 -0.032395 -0.147178 0.004157 -0.116837 -0.035230 0.018411 -0.112641 -0.120533 -0.056037 -0.060067 0.150878 -0.083383 0.013693 0.006964 -0.150768 -0.062570 -0.090867 0.059134 -0.078418 0.030293 0.106925 0.049073 -0.039901 0.070453 0.033004 -0.195256 0.124181 -0.110725 -0.111867 -0.024485 0.001879 0.119274 0.145630 0.020237 0.116776 0.032706 -0.103469 0.070699 0.033595 -0.072578 -0.054332 0.056756 -0.083529 -0.053184 0.034643 0.047224 -0.045067 0.014080 -0.071776 0.003353 -0.127418 0.077042 0.082717 0.072911 -0.073539 0.040734 -0.143413 0.071126 0.032257 -0.037901 -0.121700 0.045406 0.009228 -0.049538 0.009839 -0.013740 0.012123 0.017111 0.003923 0.048341 -0.145215 -0.026446 -0.014363 0.001210 -0.045595 0.080022 -0.000664 0.065229 0.058858 -0.112414 -0.010225 0.030330 0.114101 0.008359
-0.038543 0.049103 0.006921 0.036095 -0.002154 0.019063 0.052151 0.132483 -0.023020 0.003438 0.014487 -0.010828 -0.058212 0.023978 0.169331 -0.023057 -0.019243 -0.106598 -0.016403 0.071180 -0.031221 0.144923 -0.048325 0.030849 0.012232 0.068994 -0.065197 -0.057063 0.026197 0.026334 -0.085338 -0.298708 0.001567 -0.085363 0.065858 0.027323 -0.050035 0.094473 0.021164 -0.023569 -0.121891 0.006895 0.021269 0.028311 0.056287 -0.050174 0.001410 -0.017042 0.058861 -0.051409 -0.123911 0.003794 -0.005714 0.018299 0.089967 -0.088074 -0.016491 -0.034900 0.021884 -0.032522 0.066402 0.025292 0.062045 0.022829 0.061426 0.097764 -0.044589 -0.167488 -0.088297 0.200666 0.016771 -0.043205 -0.031821 -0.150561 -0.339124 -0.060977 0.044591 0.058343 -0.082892 0.034491 0.006585 -0.021960 0.028847 0.078987 0.012312 -0.012122 -0.104716 -0.070412 0.047579 0.040829 -0.051227 0.064834 0.110908 0.038060 0.035190 -0.002525 -0.013884 -0.003908 0.116731 -0.036328 0.062861 -0.073699 0.003122 -0.024200 -0.058189 0.019708 0.050247 0.100954 -0.060043 0.005991 -0.025417 0.057070 -0.064701 -0.109320 0.070461 -0.040074 0.208213 0.059316 -0.021168 0.193344 0.124711 -0.005428 0.118362 -0.091665 0.110982 -0.037673 -0.009705 0.034033 0.113830 -0.166600 0.010242 0.031686 0.037513 0.017695 -0.021046 -0.003373 0.160422 -0.087323 -0.187371 0.020687 -0.018841 -0.112477 0.025252 -0.021885 -0.001762 0.051441 -0.143120 0.042612 0.095735 -0.012675 -0.118280 0.038559 0.029001 -0.088242 0.032449 -0.063144 0.022496 0.057198 -0.121918 -0.007809 -0.046367 0.054202 -0.034920 0.033908 0.086196 -0.101900 -0.051703 0.031762 -0.059474 -0.132286 -0.041878 -0.091816 -0.106891 -0.021583 -0.053721 0.064769 0.090288 0.058939 0.025005 0.078149 0.093898 0.065912 0.015060 0.122622 -0.085385 -0.057837 -0.066509 -0.003870 0.006784 -0.106848 0.177885 0.081863 -0.067060 0.024711 0.024331 0.031305
-0.004392 0.015262 -0.151029 0.040591 -0.076541 0.071022 0.035029 -0.060301 -0.063795 -0.007891 -0.041655 -0.064589 -0.063956 0.012393 -0.098576 0.045973 0.074885 0.114304 -0.000302 -0.021320 -0.040677 0.116893 -0.058367 -0.006146 0.044673 -0.012542 -0.086923 -0.075962 -0.026369 0.062843 -0.021595 0.140901 -0.063038 0.027525 0.041941 0.000028 -0.097244 -0.039075 -0.104393 -0.047698 0.044005 0.012250 0.107538 -0.091602 0.026484 -0.226997 -0.073454 -0.059202 -0.027918 0.007154 0.164981 0.070447 -0.043209 0.007492 -0.024858 0.002431 -0.005239 -0.099242 -0.042908 0.023499 0.040067 -0.077699 0.046505 -0.008328 -0.010156 0.013599 -0.114351 -0.051381 0.005675 -0.219133 0.006595 -0.089674 0.100086 0.028905 -0.030835 0.144286 -0.000590 0.012411 0.018800 0.052450 -0.013716 0.032523 0.015915 -0.061699 -0.016954 0.135286 -0.006822 -0.092501 0.011755 0.009592 -0.009424 -0.136668 0.044700 0.006113 0.175727 0.132846 -0.052001 0.082973 -0.129394 -0.020827 -0.048001 -0.117790 0.034390 0.003356 -0.016203 -0.132735 0.061998 0.128978 -0.083379 0.002617 -0.100685 -0.096045 -0.135698 -0.123434 -0.093692 -0.131569 -0.099868 -0.071105 -0.000975 0.016186 0.063804 -0.071085 0.002214 0.037665 -0.050848 0.016951 -0.163340 -0.163197 0.118864 0.062341 0.001193 0.093614 0.117760 0.014262 -0.040924 -0.003274 -0.148724 0.049732 -0.030285 0.019337 0.014350 -0.098639 0.076099 0.110840 0.012696 -0.017578 0.090633 0.026902 -0.094495 -0.081174 -0.001173 0.065621 0.075483 -0.033473 0.203203 0.024516 -0.094870 0.001754 0.034427 -0.088874 -0.083257 -0.115683 -0.159445 0.105305 -0.032777 -0.036005 -0.090985 0.001244 0.064460 -0.064032 -0.080071 0.042123 0.113765 -0.032095 0.067808 -0.060388 -0.079094 0.107432 -0.078433 0.108436 0.174433 -0.031133 -0.113851 -0.052954 0.045709 0.005491 -0.102319 0.072691 -0.082086 -0.095652 0.108386 0.033561 -0.030386 0.018403 -0.005517 -0.034314
