-0.020423
0.033315
-0.044824
0.004408
-0.014423
0.119424
-0.039738
-0.036680
0.016790
-0.035175
-0.024230
-0.063150
-0.083530
-0.067297
0.000447
-0.067603
0.077998
0.066586
-0.031730
0.012939
0.005191
-0.036657
-0.073496
-0.009503
-0.042284
0.012469
-0.039251
-0.006346
0.028907
-0.017223
0.145211
0.100564
-0.052106
0.086920
-0.024826
0.002880
0.064221
-0.004256
-0.132655
-0.107961
-0.109114
-0.051832
0.048591
-0.048716
-0.037499
-0.048504
0.018472
0.058871
-0.061331
-0.022563
-0.009157
-0.019493
-0.132116
-0.007233
0.127198
-0.027199
-0.040840
0.046818
-0.041771
0.014123
0.019513
0.056954
0.000606
0.038553
-0.027765
-0.026502
-0.029345
-0.049152
0.033039
0.081029
0.048632
-0.123556
0.082184
-0.023215
0.041468
0.032160
0.058309
0.005436
-0.055430
0.033354
0.000927
0.020260
-0.102581
0.046527
0.080318
0.024437
0.060593
-0.158224
-0.063982
0.019430
0.115772
0.053372
-0.010638
-0.008320
-0.077234
-0.077445
0.016312
-0.075297
-0.052169
-0.067126
-0.096714
-0.133031
0.065803
0.094719
0.036342
0.029310
-0.000550
0.007057
0.036082
-0.029322
0.019641
0.027415
0.023505
0.004067
-0.010225
0.017856
-0.050030
-0.039702
-0.030416
0.065694
-0.021398
-0.039246
-0.067663
0.051382
0.024412
0.034388
-0.064837
-0.018395
-0.040501
0.017344
-0.061666
-0.030948
0.026230
0.048396
-0.023229
-0.001239
0.102438
0.016767
-0.014846
-0.047298
-0.081723
0.058591
-0.076481
0.175450
-0.031201
0.023905
-0.003160
0.057092
0.001453
0.013660
-0.044141
-0.037430
-0.062985
0.015608
-0.040053
0.091073
-0.051491
0.064817
-0.045524
-0.029883
-0.003408
-0.002996
0.038558
-0.034833
-0.085079
0.051628
0.078776
-0.051687
0.016308
0.004983
0.002254
0.047685
-0.176356
-0.043209
0.008442
0.059851
-0.053812
0.023880
-0.011865
0.007281
-0.024343
-0.005252
0.001843
0.070182
-0.022040
0.018758
0.046194
0.004234
-0.007321
-0.026549
0.006863
0.056210
0.096260
0.012787
-0.018629
-0.034014
