-0.636244
0.114591
2.629160
0.462750
0.230364
-0.267264
-1.706038
3.573666
0.671619
-0.673211
-0.713543
-1.096937
1.828014
-0.784459
10.562392
-2.544358
-0.836172
-1.538287
1.075028
-1.209982
1.529596
1.642224
0.159333
6.668389
-0.667139
-0.308903
1.048534
0.976900
0.946534
-0.894053
4.038419
1.379053
-3.451366
0.272486
-0.786272
-1.145422
-0.597289
0.039478
-1.441668
-0.136132
-0.425598
-1.301732
-1.350730
-1.259804
0.642811
0.160320
-0.060445
0.301907
-1.373983
-0.747375
-0.853764
-1.068332
0.036359
1.420641
1.062700
-1.253783
-1.524773
-0.471088
0.606350
0.676525
1.988462
-0.405204
-19.649997
4.628476
-1.547376
0.029161
-0.699116
0.140093
-0.573703
-1.391339
-1.890642
0.967368
-1.362660
2.728840
6.077872
-7.385195
-0.270982
-1.486026
0.230961
0.133433
1.114210
-0.679183
-0.597715
-0.977312
-0.129420
0.541738
-0.191503
0.875366
-0.866831
1.219605
1.052007
-0.433814
-0.634459
1.589024
-0.022655
0.543722
-0.481904
1.546808
-7.562974
0.632469
-0.055606
-1.533844
0.266102
1.092027
-0.395424
0.367289
0.256407
1.273125
3.112628
0.988297
-1.339485
-3.950353
-3.337066
-0.865569
-1.337636
-1.601521
-1.255824
-0.816333
2.230502
-0.719458
-1.135206
0.376868
-0.677336
1.562269
-1.443108
-0.207191
0.121436
0.714101
-1.752435
0.204514
-0.951563
0.757874
1.026982
0.612394
-0.113294
-0.013034
-0.555118
0.054895
-2.030495
0.058376
0.654770
1.328805
-1.387750
1.713663
1.421838
-0.295257
2.804465
-1.489960
-1.142032
-1.704355
1.811731
1.431160
-1.608696
0.056648
-1.666102
0.308288
0.937007
0.566550
7.857780
-0.026795
0.500884
-1.691251
-0.051923
0.977430
6.153616
-1.583606
-1.937802
-1.182164
1.056675
-0.087267
2.536226
0.131321
-4.921338
0.646514
-0.317860
-0.310112
-1.887573
0.137042
-1.760838
2.962079
0.482060
-1.279890
0.366369
-1.187380
0.835321
0.953982
-1.657075
-0.061075
1.444904
-1.803067
1.520904
-0.971412
1.208118
0.245882
0.689817
0.764512
