2.231526
-2.291296
-2.199620
-1.322869
-0.655877
-1.338766
2.788163
1.327035
-1.023503
0.874402
1.654863
-0.929089
-1.492644
1.686620
2.701583
1.335094
2.876548
2.821544
-2.622749
0.537518
1.138788
-1.802728
-1.980373
-0.471078
3.114070
-2.324942
-2.325989
-1.516635
-2.382076
2.419625
3.137363
-1.328080
1.663683
-2.329225
-0.925685
-1.160860
-1.983331
-0.077824
0.095556
2.375010
-0.520954
2.575952
0.691593
0.324337
-0.878778
0.473428
0.601383
-0.706229
2.169802
-0.196895
1.307631
2.551552
-0.864172
-1.917214
2.242041
2.112653
-0.129957
1.744467
-1.435011
0.840745
-1.348807
-1.263838
3.124748
0.113312
-3.177874
-3.150976
3.050001
-2.821951
-2.563374
-0.148264
3.161389
-0.058966
1.069413
2.962480
0.305708
0.833324
-0.698246
-0.985076
-1.202489
0.918131
0.914101
2.249654
2.139103
-2.327356
2.730043
1.338115
2.453916
-1.727290
-2.594381
0.593746
-2.545827
1.487136
-0.881347
-1.034421
-0.125390
-0.594353
2.925509
-0.643616
-2.957380
-0.564015
-1.868247
0.342056
1.385019
3.142051
-1.850794
0.770911
2.959855
-1.446467
2.869122
-3.102674
-2.432471
1.231146
3.009428
-0.551616
-0.200756
-1.427296
-3.015839
0.757871
-1.419359
-0.575835
2.194708
0.949135
2.850123
-0.350735
1.311825
-2.018064
0.828074
-0.323105
-3.105570
-2.195520
0.238818
-0.450763
-1.397969
0.847608
1.195533
-0.143939
2.293786
-1.846318
-1.401521
1.866494
-0.043413
-1.710633
0.839123
0.936291
1.412941
0.881395
0.352091
-2.699060
-0.977524
1.949005
-1.652088
1.908911
1.707146
-1.315845
1.677576
-1.585470
1.065900
-2.944293
0.505082
2.852611
1.156282
-0.012842
-0.637501
2.098092
-1.870251
-2.253592
3.148195
1.787557
0.529054
1.221545
2.736539
1.356199
1.725243
-1.265929
2.574670
-1.818902
3.133607
-2.844199
2.759330
-2.487317
-2.089297
-2.568506
-1.431125
-0.922022
2.916405
-2.665922
2.867568
-2.859086
-0.727117
1.795161
-0.646514
-0.963689
2.076101
-1.458899
-1.152810
1.111636
-0.861677
1.374460
0.296939
-2.774530
-1.003126
-2.225249
-0.434528
2.756215
2.481598
-0.354277
-1.704074
-1.769868
-1.757512
-2.643424
2.264291
-0.952290
-1.435888
-2.214729
1.992632
1.939242
1.462416
-2.691446
-2.693883
0.121596
0.784738
-2.349132
1.276286
0.354667
3.048323
2.039716
2.473152
-2.598658
1.382281
0.664049
0.815793
-1.866697
0.946418
1.024238
2.993177
2.821840
-0.601413
1.353299
-1.845713
-1.844162
-2.722684
2.076627
-2.133438
1.853927
-0.801922
1.980127
1.508782
0.535760
-1.428329
-1.353181
-1.761167
-2.192944
0.861635
-2.216106
1.605123
0.256724
2.864192
2.869235
2.262681
2.600927
0.774803
-0.275214
-0.414420
-2.094372
0.167115
3.008195
0.509131
-1.073573
2.054317
-2.149442
0.886970
1.833260
-1.722787
-2.745462
-2.394072
2.621638
1.808208
-1.574265
2.369679
2.285561
2.753657
1.139159
2.575069
2.321998
1.079769
2.608762
-1.621092
1.220270
0.026628
1.273259
-1.209392
1.984684
-0.604166
0.710936
-2.885399
-1.693943
0.486775
-1.190979
-2.977626
-0.426897
1.920968
3.049968
2.943142
-1.770739
-1.275220
-2.168002
-2.188798
1.395820
-1.660911
-1.548980
0.127294
-0.132189
1.281589
1.726327
3.188010
1.271166
0.004631
3.149051
1.063293
-0.415247
-1.810067
-0.594240
0.899984
2.373422
0.119038
-2.080772
2.765120
1.450753
0.278204
-0.728145
1.293113
-2.658573
-0.919965
-2.243877
-1.198370
2.470587
0.985076
-0.241454
2.962420
-2.581106
-1.447215
-1.491341
1.005674
0.987898
-2.922378
0.956849
0.024186
-0.966212
1.986318
-0.528989
1.736428
0.470953
-0.686955
-2.297743
0.537468
1.022046
-2.963835
-2.233484
2.428280
-0.158739
-1.586516
1.526255
1.859112
1.992202
-2.569942
-3.219774
-2.862201
2.123104
0.124940
-1.805755
-0.325696
-2.475646
-2.414815
3.018458
0.555461
-2.886986
1.700126
0.544622
1.518107
2.812243
1.830231
0.943185
2.107933
-2.293094
-3.185842
-1.061445
0.707447
-2.284807
1.061817
-0.379850
1.271375
-0.424930
0.660512
-3.130823
2.723064
2.088295
2.387646
-2.006276
-1.768150
0.199228
1.274684
1.215956
-0.047489
2.724312
-3.115939
2.785967
-0.521594
0.022496
2.726853
-0.315626
2.565343
-1.194381
-2.592805
2.694656
0.673521
1.610340
1.672546
0.126165
-0.728322
-2.772047
1.216108
0.243108
0.470721
2.926062
1.939856
-1.209839
0.403742
-1.131809
1.830664
-0.937625
2.712025
1.022885
0.935898
-2.814527
0.799164
2.742056
-2.592159
1.600616
-0.616872
1.648881
-3.086893
-1.202984
1.830093
-1.097197
-0.475064
2.507066
-0.323059
-0.571087
-1.921091
0.919053
-2.756347
1.783603
1.487007
2.486638
-3.141429
-0.891281
2.089401
-2.110097
1.749135
1.199266
1.322986
1.547585
1.472766
0.490999
1.378694
2.886433
1.056985
2.662657
-2.711776
2.158804
0.898778
-0.973562
-1.170839
-2.850630
-1.163290
-1.701217
1.944585
-2.910410
-0.793990
-1.530115
-1.887810
-2.459297
-2.220768
-2.849436
1.505135
-0.808416
2.681065
2.107800
-0.616317
0.818197
-0.136381
0.226044
-2.388885
-0.609286
1.195294
2.381207
0.678711
2.848394
0.697116
1.980883
-1.134787
1.013958
2.148310
-1.099414
1.611917
-0.483072
-2.169266
-0.053081
1.304206
-3.172062
-1.316188
-1.183903
0.958683
-0.908239
-0.796866
-0.603554
0.219078
3.060904
-2.729146
-0.493472
2.447935
1.745417
-1.195446
-0.188415
1.407558
-2.720482
-2.184197
0.417234
3.068572
-1.752854
1.184359
1.945361
0.877673
-3.210212
1.206897
1.064392
-1.759142
1.907863
2.164563
0.790647
2.071595
-0.188989
1.593125
-1.072719
0.614837
2.648156
-0.633278
-0.941983
1.650203
-1.946402
-2.630238
3.161393
-1.396079
1.168210
1.799491
2.853999
2.297840
1.993153
2.039992
-0.302852
0.137344
-1.450812
0.583264
1.897801
1.805936
0.040768
1.848424
-1.220957
-1.569242
-3.097726
1.604874
2.989258
0.156235
1.149994
2.193204
2.131755
2.503280
-2.322349
1.504948
-0.307465
2.938321
-1.914835
-0.815191
2.334447
-1.596285
2.013080
-1.505942
-1.001725
2.321977
-1.306883
3.025927
0.439534
-3.184927
0.916423
0.790830
3.110936
-1.429948
2.029595
-2.117458
-0.495254
2.726922
3.121195
3.107309
-1.896473
-1.944416
-1.757860
1.740544
0.090594
-2.116594
-1.540467
1.682504
-0.395338
-2.797844
1.372051
-2.829339
2.294175
2.885598
0.305071
-3.167159
2.187070
-1.535244
-1.976015
-2.511424
-1.961996
1.722816
-0.929519
-0.312206
1.185170
0.041566
1.030185
1.677830
0.286235
-1.130573
-0.578878
-0.766427
-1.470304
1.356927
-1.701785
1.797440
-0.451515
3.109487
-3.174413
-0.222764
1.242238
-1.686121
2.768014
1.637194
-2.119772
2.285498
1.564974
1.573340
-2.956018
-1.067023
0.920325
1.988437
1.126416
2.051031
2.456953
-1.478658
-2.859182
-1.570295
2.595583
0.481981
2.422390
-2.003651
-2.627131
2.464328
0.900940
1.501119
-1.367029
-2.224032
2.440510
-1.874588
-1.336898
-2.678207
-1.565329
0.496758
-2.843861
1.295246
2.800424
1.250404
3.162283
2.644607
-0.045703
-3.111166
-0.885983
-0.341415
-1.341596
1.694839
1.564294
2.817324
2.005260
-1.748110
3.100148
-0.397603
-0.866004
-0.549000
-2.023076
-2.318038
-2.691407
2.769655
0.461300
-2.986824
2.892609
-1.603800
0.164825
0.392902
2.732547
-0.195059
-1.720724
-1.204120
1.796049
-0.233489
2.636523
2.065492
-0.508123
0.312200
-2.169129
-0.090605
-0.889083
2.130607
-1.872561
0.468568
-2.769047
-3.131353
0.402303
1.027489
1.515912
-2.458443
0.376581
2.475632
-2.277342
2.143331
-0.256378
-2.085774
-2.782721
0.197672
1.778629
1.876674
-3.114065
-0.906535
-1.119996
1.132523
2.462886
-2.876450
0.440862
1.047408
3.082732
-2.299690
3.080886
-3.091906
0.478897
-2.863243
0.433815
-3.146291
-0.758364
3.006688
0.226578
-2.919969
2.558179
-1.637234
-1.314763
1.529701
1.544154
2.863041
-1.680083
-2.261895
-1.575698
-0.714002
-3.136892
1.123013
2.414521
-1.716193
0.191514
-2.184686
2.989643
2.141788
-1.967864
-0.858295
-2.495585
-2.798262
0.843367
-2.980260
-3.086349
