-2.600928 -0.202814 -1.019833 -0.564480 -0.279045 2.200891 -0.548693 3.095491 -2.187445 -2.325226 -1.301586 -2.072731 0.366950 -1.405561 -0.243426 0.769257 -0.833991 -0.519063 -0.141267 -2.221143 -0.581855 2.065545 0.790647 -1.186780 0.862657 2.635619 -1.868627 2.605931 0.356115 -0.517176 -2.223331 -2.395709 1.980588 0.765329 0.253233 1.956364 -1.146161 -1.702038 -3.150010 -1.541305 3.164046 -1.606681 2.739417 -1.772023 -0.202212 -0.605186 0.421628 -2.273086 2.111642 -1.412364 1.639984 -1.146696 0.849774 -1.753584 -2.942509 1.097461 1.650916 -2.425914 -3.167615 0.162471 -1.177270 -0.891005 3.121395 1.091551 -0.124483 -2.844304 -0.495356 -3.203271 1.691771 2.527697 -0.921710 0.047117 2.752025 -2.674431 -1.581040 1.118865 1.674874 1.679001 2.186312 -2.341777 1.454580 0.271048 -1.696484 -2.114749 -2.164444 -0.333937 -0.661244 -2.478776 -1.712372 -0.980264 -1.878656 2.083809 -1.147994 -1.963767 1.564706 -2.340496 -2.834974 -1.367605 -0.974436 0.152841 -1.844606 -0.252045 -2.393007 2.335279 2.885229 1.107417 -3.081160 0.257390 -0.074013 -0.605659 2.154558 -2.672041 1.392810 1.880562 -0.449466 0.350447 2.165753 -1.072571 -1.807868 0.849077 2.610203 -1.508453 -0.609988 -1.845654 2.448084 -1.768835 -0.379424 0.570407 1.613354 -1.658289 0.871659 1.180009 2.191759 -2.374607 0.142185 -2.605426 0.987942 -2.837811 -1.230085 -1.335197 0.574726 0.762925 1.609828 -2.989657 -2.750814 1.155253 1.901527 -2.490292 -2.715276 -2.865560 2.953847 2.201372 -1.043786 3.054451 -1.867647 0.638186 -2.699146 -1.764676 -1.500907 2.614636 1.292511 -1.852969 -2.460942 3.110386 2.923883 -1.250148 0.410958 0.647297 -2.188700 1.717166 0.969852 1.723357 0.753490 -0.895915 2.115919 3.098772 -1.088309 1.105191 0.095844 -0.560522 0.775794 2.880023 -1.126320 2.823322 0.308454 2.623604 -3.034563 -2.882332 -1.272300 1.691196 0.022449 -2.931726 -1.077768 0.876274 -1.892181 1.238948
-1.502081 0.488468 2.410043 0.183732 -2.507761 0.004324 0.225804 -2.559820 1.615553 -0.218872 2.871107 -2.611797 -2.468325 -1.229471 1.877760 -2.766640 1.818108 -1.000816 -0.528896 1.470597 1.604682 0.090257 0.229222 -1.031011 -2.227570 -2.249669 -1.756167 -3.108775 0.518400 -2.260618 -0.607892 0.892070 3.155430 2.067452 -2.496899 1.695659 0.426746 -0.894224 1.549276 0.540937 -0.876849 -1.569001 1.381830 -1.474536 1.272246 2.292105 -3.199855 2.356095 -2.314617 0.291202 -0.481459 -2.740754 -2.175659 -1.770952 -2.740267 0.333205 -0.638004 2.107872 -0.483883 0.165750 2.207378 0.884022 -1.496702 -3.111026 -0.440462 -2.128106 0.655030 -3.065424 -2.186914 -2.389380 1.839826 0.068326 2.794486 -0.778562 -0.974092 -2.829859 -0.743398 0.303953 -2.086231 0.150199 -2.366096 -1.189958 2.980994 -0.958027 2.464715 -1.090663 -1.785614 -0.508505 -1.598246 -0.495962 3.158483 0.339600 -2.838007 -2.455193 2.905454 -1.103633 2.967289 0.384621 1.560827 -1.437713 0.304042 2.218286 -3.129447 -1.169618 1.061683 -2.650692 -3.080070 -1.304799 0.886937 3.070771 -1.676685 1.164413 -1.500828 -2.184042 1.448696 -2.701039 1.025962 -2.431639 2.149465 -1.969983 0.208439 1.133899 0.534533 -2.251905 -0.489722 -2.231821 -2.290766 -3.042647 1.314682 -0.123720 1.995439 3.049886 2.861805 -2.197618 -2.236138 -3.055325 2.296925 -1.938975 -1.451614 -0.309202 -1.540314 1.666811 -1.411449 1.749106 -0.663475 -1.176900 -2.135437 2.345917 0.539069 0.653344 1.607103 2.307506 -1.490150 1.147824 -2.656244 3.036842 0.622279 2.906198 -0.948732 -2.031555 -1.394220 1.012624 -2.888448 1.390058 0.595005 0.214827 2.921831 -1.607377 -2.271478 1.074586 -2.633899 0.551355 -1.672279 1.145712 -1.856618 2.522132 -0.585951 -2.567517 1.773325 -2.462751 -1.181102 0.989285 -0.081115 -3.033754 -1.698203 0.802785 0.394700 -1.890589 2.526083 0.558083 2.860189 -1.566787 -2.376306 2.803960 -2.001135 0.065574
0.081953 2.643590 -1.751059 -0.173032 -2.849851 1.361248 -1.625392 2.053962 2.001542 2.039496 2.964510 2.232468 -0.638963 -0.448974 -2.467610 2.839411 1.469685 3.164401 2.713537 -2.302054 1.968444 2.354351 -0.485566 -1.910846 -0.863643 -0.628601 1.669548 -0.940317 -2.649292 1.101764 2.567019 1.134667 -0.060008 -1.367317 2.511452 -0.618712 1.302167 -2.924961 -1.384874 2.061792 0.483074 -0.603709 2.698389 0.175839 -1.357048 -2.097185 -0.323264 -2.473151 -0.336368 0.905232 -1.743469 0.825609 2.692159 1.094879 -0.567228 1.007922 -2.279882 0.453509 -2.193611 0.924352 -2.672536 0.444638 2.660473 1.756611 -0.833321 0.713720 -0.109815 -1.267046 -1.756772 2.030278 1.649501 -2.558789 2.748862 3.098309 0.201845 2.569621 -1.199331 -0.220255 1.088559 2.127853 2.386220 -0.937066 0.515831 -1.738404 -1.474961 2.791331 -2.684563 0.815322 1.503694 -1.447786 -0.056042 -2.613711 0.089552 0.442955 -1.447762 -0.030400 1.922633 2.245477 -2.480910 1.842707 0.848607 -0.398672 2.083492 -1.761166 -1.530315 -0.833503 0.965247 -3.055768 -1.118905 2.012185 1.611278 0.334677 1.201313 -2.881006 0.683543 2.714028 -1.179453 0.361439 0.495884 2.445438 0.092846 -0.358722 1.512999 1.185336 2.285105 1.245524 -1.511344 -2.660518 0.319235 3.098665 -1.911175 2.286881 -0.923460 -0.823757 2.288036 0.727821 3.109675 0.143093 2.403034 0.235513 -2.879842 -1.849731 -2.321110 -0.778189 2.576576 0.343668 -2.634864 0.930115 -1.563157 -0.160891 0.407802 1.485702 -2.813542 -1.818872 1.788648 -1.448453 -2.082405 1.891576 1.634336 -1.875591 -0.619250 0.964367 0.060899 -2.581451 1.252211 -2.032043 2.714325 -3.006396 -1.191871 2.821662 -3.079380 -2.648699 2.547798 0.281997 -2.156641 -1.487067 -2.802318 -2.994142 -0.068470 -1.624985 -3.046490 0.347693 1.863294 0.314264 2.272896 -1.227277 1.496082 0.150490 0.345931 -2.842140 1.991935 -2.763661 -2.147485 -0.429897 -1.904613 2.894504
-1.373417 -1.740507 0.301000 2.484616 0.973863 1.888099 -0.931854 -2.560216 0.498143 -0.127439 0.250953 1.130284 -3.031496 -2.695124 -0.314460 0.245466 2.628835 1.145371 -0.954753 -1.452809 -0.655948 -1.745208 -0.777762 -0.082472 2.417894 2.352891 1.160091 1.148950 0.347826 0.905507 -0.968295 -1.345828 1.325688 -1.547986 0.408970 0.966229 -0.434742 0.872352 2.360898 -0.492413 1.631297 -2.300661 1.269156 -2.994413 -0.353503 0.800206 2.288980 -0.782795 1.841895 1.850998 3.194504 -0.769375 2.867087 1.099170 -1.552164 -2.981462 -0.129575 -2.760348 2.853613 -2.155620 -1.004299 0.624159 -2.877225 -2.718542 -1.339891 -2.392319 0.812879 1.238637 -2.028426 0.044393 0.726367 -0.214171 2.193013 0.580825 0.335537 -1.363595 -2.356545 -2.281674 2.527844 1.652936 0.208407 -0.850178 -0.890309 2.702053 -0.676608 -1.717756 0.255554 -0.907622 1.855631 0.027993 -0.085406 0.223950 1.526518 -2.404737 -1.773316 -0.599091 -2.791716 1.438684 -1.337343 3.142112 0.396696 1.934963 2.394675 -1.932289 -1.259140 -0.439626 2.561400 -0.095004 2.129575 -0.452057 2.949235 -1.707637 2.014487 -2.343506 -1.696788 2.958484 -1.340366 -2.841769 3.120044 -2.792008 2.768162 -0.796889 -0.271554 -1.284750 1.619924 2.156891 2.293099 -0.326722 0.441147 -0.881913 -1.398832 2.635389 -1.042762 -2.329038 0.609179 1.806934 2.249629 -2.573448 -3.150484 -0.303675 -2.307423 2.423057 0.508706 -3.080431 -0.398009 2.965020 2.850009 -0.027726 -0.424929 0.042081 2.370524 0.495398 -2.213443 -2.053613 0.762216 -3.148848 -2.695044 -1.651052 -2.383092 -0.414361 0.262214 2.819915 1.415059 1.635269 1.425028 2.918024 -2.697566 0.641684 0.890519 -1.499922 0.390662 2.718460 -0.609687 -1.740347 0.717563 -2.616485 2.819493 -1.482233 2.353877 0.108604 -0.672924 0.458591 2.718072 -2.038080 0.545706 -0.825342 -1.939373 1.140422 2.620724 -2.221033 -2.520413 1.896406 -1.956194 -1.886461 2.808198 -1.384353
0.024976 -0.098288 -0.824817 1.019227 1.529760 3.227678 -1.882715 -3.160287 1.273729 2.360412 -2.112277 0.603412 1.034069 -0.774083 -2.509994 0.943347 2.033388 2.295693 -3.096690 0.342522 -1.152767 1.640837 0.593168 1.628822 0.105153 -2.487402 -0.922770 3.094164 -0.629823 1.516193 -2.352035 2.999186 1.979998 -1.800871 -0.513198 2.401097 -0.365572 0.001891 2.275146 -1.675251 -2.214276 -0.646668 2.331972 -2.664224 -2.326297 -2.354191 2.020642 2.601187 0.500379 -0.171943 -0.266945 1.859145 -1.556530 -2.690685 -2.574330 -1.069014 3.130653 -2.193174 -0.107428 -2.355581 -1.235398 -2.682205 -2.356739 -0.268496 0.980337 -1.232834 -3.067394 -2.256347 -2.205033 2.193585 0.510901 0.703549 -0.838576 -2.401669 -0.842496 1.309142 0.817056 -2.810967 -1.974082 -1.361103 -1.431061 -2.270801 2.233932 2.119970 1.442297 -1.946890 1.262509 2.036580 -2.858203 1.069423 0.585951 2.504743 1.981322 -2.254615 -0.972771 0.379967 -3.075928 -0.987589 3.105315 1.941736 2.468009 -1.417386 0.877147 -1.094107 -3.000173 1.665513 -2.402988 -1.660881 1.591580 2.464659 0.356829 2.003844 2.397744 2.150034 -3.146857 -1.784758 2.073030 2.863076 1.979497 -0.204142 0.222339 1.646663 -1.620416 1.089899 -0.847533 -0.489049 1.820564 0.455016 -1.909640 0.540218 -2.382016 -2.449808 -2.388223 -2.815291 -1.832905 -2.664064 -1.195496 2.360288 -2.593333 -2.205640 1.735623 -1.147535 1.418438 1.379373 0.114086 2.560768 -1.281798 -0.709358 -2.201840 -2.441993 -1.920834 -2.529582 -1.401876 0.016773 -0.284512 2.225599 -2.661040 -2.463405 -1.731379 0.549439 1.879380 -1.016270 -2.614573 0.042879 -1.737205 1.147330 -0.408186 -2.903477 -0.000017 -2.924970 -2.572738 -2.490589 2.883072 0.714617 -2.155388 -2.150888 2.315967 1.640171 -1.929680 1.206585 0.869921 2.465155 0.829654 -2.968557 1.704863 0.946909 -2.377802 2.868454 1.498550 1.998123 -1.323378 -2.275743 0.701494 1.796556 1.813112 -0.610189
2.946549 -0.085129 -0.885064 -2.025239 -2.289650 -1.964653 2.360576 1.965864 3.141819 -0.097189 1.947666 3.175037 1.618619 1.730012 -1.830888 0.515735 3.163684 1.951507 -2.461869 -2.819880 -2.630690 -2.410983 -2.959316 -2.849800 0.241819 0.186276 -0.246239 -2.566809 -0.785389 -1.165939 -2.846903 -2.113546 1.229174 -0.973558 0.370452 -0.810003 1.469070 -2.192708 0.909406 -0.640242 1.763336 -3.045337 1.345482 -1.348075 -0.314513 -1.561356 2.492223 -2.506054 0.888124 2.424469 0.879179 0.551732 -2.246482 -2.909751 0.989194 -2.956156 -1.481370 2.951562 1.978110 -2.245823 -0.397763 3.175866 -1.693736 0.771032 -2.769923 -0.829084 2.569297 -1.376867 -1.956876 -0.076266 1.728513 2.566938 0.368236 0.725514 -0.805150 -0.971147 -2.792698 -0.087253 -1.814659 0.299676 1.571910 -1.115686 0.524348 -1.988965 1.573280 2.431728 1.883296 2.719853 -1.777523 -1.752100 2.760035 2.495220 -0.086112 1.789981 3.129792 -2.215768 -2.289727 -0.355558 -1.984853 2.604983 1.048874 -2.627455 1.172080 1.189550 0.741576 0.452411 -2.201944 2.494957 0.096478 0.710122 -0.493481 0.013768 -3.058041 2.015270 -2.315676 2.995651 3.012440 -0.990985 1.183220 -1.915841 -0.471006 3.083245 0.634726 1.999654 -2.206128 -1.095011 -3.107914 0.086679 -0.662846 -2.743965 2.262417 0.385348 1.080837 0.629355 1.726735 -2.663365 -1.960023 -1.442946 1.418469 1.782309 -0.412902 -1.761334 0.308669 -0.054452 2.261209 -0.909000 -0.282212 2.742259 1.354477 -2.927228 -2.065550 -0.417234 -1.308806 0.390516 -1.063738 0.460540 -1.928217 -0.180841 1.067967 -2.086825 2.644244 1.768781 0.992135 3.008713 -2.456230 1.248031 0.809609 0.359103 -1.094385 1.491642 -2.039506 1.783560 0.217348 3.028361 1.405056 -0.635385 1.314484 2.547008 3.050653 -0.520824 1.634415 3.005623 2.890379 2.578103 1.167558 1.650829 2.041705 1.792872 -1.278657 -1.902258 -1.499254 -0.795611 -2.734155 -0.846424 -0.110379 -1.352480
0.613084 1.552645 -2.818034 -0.131738 2.108999 -2.771335 1.884947 -1.732014 0.279007 0.244531 -0.909270 -3.066180 1.242078 0.222888 1.029785 2.059633 1.987938 -1.380165 0.335221 -0.447851 0.278434 -0.860580 3.007638 -0.651218 -0.667245 -0.340771 2.296895 -1.138306 -0.792163 1.925536 -1.059165 1.276818 1.761089 -2.609471 0.404696 2.903604 0.156584 -2.764910 0.189607 -1.575628 3.089906 -1.313903 -1.584557 2.248927 2.478041 1.688618 -0.784978 -0.827538 0.470341 2.306022 -1.946647 1.956924 -2.345984 1.030962 0.210324 -1.539114 0.188616 1.573839 -1.273613 -2.232504 0.279144 -1.938806 0.396991 -2.181697 -1.084478 2.053501 1.843153 0.892316 -2.307555 2.323122 2.732387 0.039168 -0.997027 -2.928455 -0.011610 1.760988 -0.422566 -0.427468 -0.704827 -2.803763 -0.668248 -0.439108 0.623609 0.510562 1.876470 -0.614707 0.572279 -2.899771 2.876692 -0.899169 -2.878553 -0.288144 -1.385988 0.649578 3.138256 -0.832406 -1.572757 2.020535 -0.902541 2.157856 0.746554 0.498766 -0.453439 -0.136790 -2.079820 -2.716703 0.993597 2.516154 3.087512 0.834147 -1.061857 1.047377 -1.836469 1.316182 1.763282 -2.113911 -0.192098 -3.058280 2.927287 2.156667 -1.670862 -2.955877 -0.796694 -2.226403 0.950509 -2.913994 -2.119434 2.039111 1.978991 1.352166 2.431984 1.783088 2.573471 0.724571 2.033235 -0.751660 2.702099 -3.052684 -2.563154 0.272765 -1.754968 -3.154144 -2.184252 1.590555 2.504919 -0.747085 -1.119970 -2.113903 0.792262 2.448962 -0.940939 -2.195057 1.629904 -1.631174 2.950613 -0.363229 -0.005690 0.954579 -1.449570 0.897549 2.601476 -2.988118 -0.182200 0.314829 -0.673865 1.616195 -1.285266 1.370930 -3.052580 2.731272 -3.209811 3.073254 1.948191 1.783632 1.614408 1.593239 -2.387404 -0.172190 -2.661239 0.963421 3.152315 -3.098405 0.569292 -0.200137 2.304785 -1.075461 -2.179640 -2.462297 0.928193 -1.276822 -1.148371 1.264400 -0.420994 -1.960438 1.952401 0.453489
-1.874668 3.036612 1.897321 2.141241 -2.801586 -0.189705 -3.118543 -1.031738 -2.311843 -2.871035 2.620794 0.159566 -2.015441 1.970225 -3.159941 2.038309 0.099394 -0.401433 1.205611 2.248651 2.415588 -1.062650 -0.501209 -2.151366 -1.892955 -0.698484 1.663198 -2.367168 2.879474 -0.999817 -3.165080 -0.129730 -2.607046 2.493752 1.433420 -2.426234 -1.555734 2.471716 -2.928372 -2.783590 -1.689721 1.182333 -1.324745 2.895848 -0.391713 -2.765189 0.381619 2.946896 -1.866848 -1.206574 2.535173 -0.641873 -2.655139 0.524642 3.125884 -2.885719 -1.400318 -1.742588 1.350561 -1.124448 -1.687539 -0.686390 -0.217066 0.051017 -0.861908 1.047168 -2.060591 -2.146150 -2.541282 1.905352 0.515760 -0.104591 -2.726419 2.732903 -0.125490 -0.383625 -2.658937 -1.151658 -0.828973 -2.628847 -2.237140 -1.022368 -2.655154 -1.804119 1.049048 3.170915 2.330475 1.245465 1.477227 2.306828 -2.902323 -1.979830 0.331616 -1.809099 -1.441227 1.239946 3.015716 0.118632 -1.804203 0.729812 2.711789 -2.422876 -0.923558 -1.643964 2.449537 -0.671846 3.062231 -2.173580 -2.229057 1.959502 -2.050542 -1.863123 0.559333 2.004413 -0.101580 -1.887478 2.564865 0.027584 -0.851193 1.731624 0.400128 0.485181 -2.720996 -1.337864 -2.913762 -0.915666 1.168493 -2.132725 -2.271419 2.433879 -0.520002 2.516126 -0.085696 -1.820631 -2.714853 1.480219 -2.434665 -2.403577 -1.668770 1.894079 0.601897 1.468972 3.030072 1.407074 -1.038937 2.677691 -1.835702 2.107670 -1.223271 2.823047 2.344980 1.005297 -2.689637 -1.982470 -0.941397 -2.359389 -1.608262 2.984976 1.488624 -2.596048 1.518700 -2.621888 0.509919 1.548204 0.710796 -1.904835 0.288161 -2.192674 2.614058 -1.003648 -2.579491 3.017718 1.521169 1.507908 2.068286 -0.449201 -1.179898 1.184794 0.732969 -1.114784 -0.220525 -2.004238 2.386910 2.643385 -1.500112 -1.359025 1.579528 -0.355635 -3.045987 1.118691 -2.088732 0.081840 -1.566119 3.198725 2.332275 2.134846
2.214619 2.417476 -2.126968 -0.525555 -0.275961 0.872120 -1.943755 -1.853478 0.449121 -3.012842 0.688104 1.127669 -0.261683 2.673598 0.455212 -0.326373 -2.391047 -2.957680 0.110510 0.742937 -2.691441 -0.926153 2.937457 -0.532119 -2.284127 3.029767 -2.206522 -1.766961 1.955762 2.346848 1.494101 -1.874013 1.823933 3.164211 1.542694 0.758638 1.838576 -2.919495 3.140215 -1.524119 0.317228 -2.758801 -0.150853 -2.071808 0.031468 1.898655 3.045344 3.140695 -3.060949 -1.844452 -1.915422 -1.069256 -0.109173 -2.716058 -1.215254 2.429177 3.047919 0.172246 2.170309 -3.052335 -1.831806 -1.423431 -2.623777 2.687169 -1.005285 1.936314 0.887302 2.734181 3.090119 -1.310968 0.435159 0.916867 -1.604376 2.329064 -0.253878 -1.345984 -0.394162 -3.056490 1.588164 -0.318549 -1.179297 -2.504295 2.841266 -0.916412 1.177814 2.809779 -1.827607 0.997911 -0.964559 0.605981 0.385550 1.500025 1.077894 -1.651674 -0.170012 1.222429 2.891762 -3.105709 1.768657 2.240404 2.356755 1.650022 -2.776616 -1.691382 0.627639 0.295234 -0.392143 2.723762 -2.831781 2.514396 -0.376514 1.522243 1.559687 -0.301835 2.237412 1.672382 1.962832 -2.828500 -0.297127 0.083135 -2.695600 -0.331556 -1.364938 3.092429 1.502607 -1.887088 -0.002631 1.772662 2.348840 -0.874166 -1.377338 2.514801 -1.865539 1.019533 0.050355 -1.213609 -1.328708 -2.074506 1.430666 -2.120469 0.332300 -1.683730 2.595278 2.413948 2.401380 -0.899542 -2.103664 -2.732124 -2.257747 -2.780300 0.828949 -2.360154 -3.080352 -2.939367 -0.384353 1.611932 -2.502806 -1.935879 -2.541151 -2.425530 2.974084 -0.387198 -1.229567 -2.156890 1.348913 0.120013 2.591610 0.828593 1.595942 -2.895186 1.788143 1.596531 0.264534 2.981067 -1.589118 0.310682 1.399469 -0.238332 -0.307931 -1.015164 2.947377 -1.131003 -0.837144 -3.038157 -2.280385 2.106672 1.663163 0.303199 0.211378 -1.587581 2.117955 0.420484 3.083282 -1.003334 2.914560 0.759015
-2.279047 -1.431775 0.009815 -2.380574 -1.251507 -2.485526 -0.247171 1.164789 2.367629 -2.259337 0.318978 1.245686 1.923013 0.622305 0.302137 2.739095 -1.172326 1.463972 -2.291850 -0.840962 1.297884 0.991988 1.128236 -0.082947 2.951676 0.342795 0.459531 -1.677310 2.370005 1.467891 2.177057 -2.275398 0.463198 1.496945 0.789441 0.918259 1.912950 1.523646 0.185263 -2.060090 -1.838882 3.031502 -1.264128 -3.119144 1.163297 -2.314049 -0.489888 1.307616 -2.246949 -2.051628 1.734276 1.428575 -2.731416 -0.044362 -2.041564 1.788620 2.538354 0.201181 0.241577 2.228920 -1.856262 2.020317 1.881753 2.822761 3.183134 -0.682430 1.432051 -2.788071 0.382787 3.188119 -0.279951 1.537825 -0.729209 -0.506453 -1.578189 3.121521 -2.857442 0.408976 -2.527876 -2.014493 -0.388732 -1.472547 -1.246285 0.762204 0.319683 2.273312 2.900217 2.084688 -3.048265 -0.341406 1.762639 0.948212 0.810713 0.331288 2.130660 -0.029199 1.661553 -1.883477 2.496209 1.785204 -2.247976 1.434211 2.746113 2.051384 -3.009912 2.228877 3.137785 -0.962766 -0.908271 0.890106 0.379437 -1.522767 -0.516316 -2.570431 -0.557950 0.858672 -2.910932 -2.656650 0.294926 -2.879851 0.362560 0.833853 0.854640 -0.897309 3.176455 3.066271 -1.022658 -2.323573 -0.845780 -1.466434 1.785629 1.983962 0.907707 -1.262213 -0.039401 -1.524316 -2.708925 0.514412 1.790099 1.722981 -2.479006 -1.321819 -0.216679 -2.546766 0.419420 2.344350 0.186773 2.701235 -1.161493 2.133168 -1.570415 0.176601 -2.833705 1.350974 -2.007265 -2.131631 2.272409 2.042958 -2.661518 0.979067 -3.157983 -1.808318 -2.508425 0.665580 1.863822 1.538846 -1.997521 1.828066 -0.320353 -0.719987 -3.080345 0.883083 1.053352 2.551677 -2.055011 -1.391589 1.780047 -0.262611 -3.191349 -2.136245 -2.858862 -2.305663 -1.088969 -3.160974 -1.469573 0.934047 -2.019339 -1.143799 -2.268367 -0.747017 0.268192 -2.017364 -0.889766 2.893554 1.931651 1.537279
-2.439983 -2.400288 2.027491 -1.999411 0.251750 2.089468 0.613128 0.634654 2.011488 -2.926902 2.695584 -1.551230 1.469637 0.572900 -2.660738 1.338196 -2.219648 -0.632487 -3.039280 -0.620478 2.608185 0.752575 0.860641 2.393056 2.869978 -0.095875 -2.464749 1.281959 1.086819 2.240082 1.965665 -1.717207 -1.705507 -3.086682 0.893137 2.036181 -0.919235 0.972928 2.474894 0.069839 1.669606 2.385713 -1.406109 -0.574821 2.936479 -1.518913 -0.409879 -0.275859 -1.848060 1.768709 2.944260 -0.131091 -1.544258 1.097607 2.735073 -2.490905 -2.478222 -3.106715 1.784513 1.566653 1.053085 -1.067645 -0.291880 2.914098 0.673332 0.075524 3.193601 -2.296285 0.387083 -3.189358 1.130160 0.039420 -0.753412 -0.866006 2.886098 -1.461713 -1.233316 0.824285 0.066844 -2.253346 -0.975446 -0.219725 -1.616697 -0.217519 0.453260 0.082800 1.028132 0.888246 -1.913616 -2.480219 -1.394113 0.301154 -0.168317 1.972161 2.221226 0.582672 1.952721 2.347130 2.159692 -0.708243 -2.357860 1.012735 0.114080 2.988897 0.566282 0.201867 -1.449624 1.087068 -3.182432 -1.513570 -2.576637 0.764737 1.423535 -2.917531 3.151294 2.410513 1.407286 1.321879 -0.472265 2.235620 -0.803800 2.914159 -0.314019 0.971638 -0.784271 -0.762044 -1.841053 -2.110545 -3.188342 -0.136507 -2.371063 -0.252196 -0.108090 0.118674 0.202551 3.097664 2.307345 1.868573 -0.516214 -0.673653 1.279950 0.969178 -1.888215 2.127247 -1.775553 2.734104 -0.250500 0.155579 -3.020802 2.294281 0.858362 -3.176663 2.575645 -3.094818 2.947748 -1.099019 -0.039710 -1.373043 0.439493 1.492655 0.496065 1.958821 -2.379172 -2.599211 -2.376231 2.346141 -0.242717 -1.360070 1.011214 1.882701 -2.072828 0.054722 -2.559664 -3.101808 -1.849109 1.552431 -2.708884 -1.298993 0.714439 0.859996 -1.967385 0.258093 -2.204386 3.119315 -2.946183 1.585312 0.444924 1.185746 2.377730 -2.368415 -0.303193 -0.548480 0.137891 1.092554 -3.138127 1.397131
-3.204305 -1.391189 -3.135790 -0.697978 0.940419 0.650121 -0.930635 1.653622 -1.953700 -0.167310 -2.975902 1.091903 1.489617 -2.434720 1.857085 -2.417413 1.808438 2.297164 -1.990357 2.550501 0.859606 2.079386 -0.948053 -2.214478 0.449938 -1.303032 -2.188789 -1.155567 2.386768 -2.631249 2.426995 3.011983 3.207998 1.097761 1.926939 1.181054 -2.228168 1.167471 1.227477 2.619852 2.677613 -1.088465 0.625940 -0.570416 -3.117642 -1.273876 1.609824 -0.278586 0.871699 1.099818 1.216655 -0.373147 1.986590 -0.369639 0.266431 -0.975471 -2.800371 -1.685844 -2.981726 1.377373 -1.162725 -1.541105 -1.690062 0.755282 1.709977 0.887875 -2.668961 1.277003 1.316810 -1.213801 -1.830486 -2.181825 -1.976670 -1.776599 -0.101718 -2.183868 1.134488 2.038792 -0.295788 2.479668 -1.990504 -1.382623 2.962564 2.512215 0.979171 2.213756 2.586863 -1.268372 -1.475635 3.030754 1.128819 -0.884227 0.955592 0.243804 -1.276684 -1.831366 1.825019 -2.909356 1.834995 -0.073355 3.144738 0.446339 1.995535 2.551909 2.502145 1.012321 1.555523 2.192148 0.602119 0.940456 -0.717221 -1.766836 -0.320562 -2.390191 2.465572 -2.481024 -1.103948 0.572929 1.236245 0.126974 1.504234 -2.004136 2.758648 -2.380006 -0.352367 -1.559021 1.419376 -2.121748 -2.682327 -2.923295 -3.123509 -0.953123 -1.646049 -1.510311 1.734058 0.904462 0.573184 -0.402483 2.678624 -1.385946 0.019554 0.402408 -3.092290 2.917740 2.580470 0.089605 -2.512869 -2.377320 2.871415 -1.423635 0.168115 -1.013217 -0.375028 -0.314659 -0.709963 1.841448 0.504329 -1.438199 0.471852 -2.203334 -2.857266 1.358219 1.414825 2.426243 -1.971758 -0.889595 -2.753111 -0.325736 2.248163 -2.080963 2.122385 -1.336080 1.794051 1.058827 2.069164 1.450959 0.334507 -1.402368 -2.068723 -2.568353 -0.204277 -2.913338 1.062417 2.835034 -0.991723 -3.132632 -2.055429 -0.993873 -0.268598 -1.401406 -2.804544 0.734092 2.563778 -2.538020 -2.483763 -0.370545
-0.155967 2.072526 -1.603969 1.655206 -2.904779 1.213375 -0.781611 -0.737383 1.851240 -1.270522 0.105214 -2.676294 -0.139379 -2.343776 2.542029 -0.053913 -2.924340 -0.666442 -2.865978 -3.146646 1.428870 -0.682400 1.118214 -3.115700 1.633864 -2.081899 -1.140463 2.865718 2.479002 2.068831 -2.591665 -2.021467 -1.265366 1.793428 0.552934 -1.057605 -1.896352 1.126679 0.539871 2.008401 -2.757654 -2.340357 3.001099 3.205265 3.054826 1.872647 2.871330 -2.655438 -1.357776 -2.351669 1.245845 2.920256 -2.890896 2.981169 -0.802870 0.252666 2.377477 -2.525425 -0.959630 -0.571682 -1.159650 -1.868256 1.655314 -1.830346 -0.332817 -1.939379 2.524043 1.193713 1.089640 -1.618303 -0.675770 1.046620 2.390720 -2.696199 2.573888 1.559486 0.868543 1.333362 -0.468453 -2.582439 -1.319603 3.064092 0.971548 -1.186903 1.154051 1.837092 -1.061421 0.332119 0.620283 2.451425 1.636537 1.629829 2.932943 1.989514 -1.416613 0.785004 1.514580 1.575165 0.640132 0.839029 -1.433900 1.646968 -1.317522 -0.857177 2.672295 1.990041 -1.781308 0.952964 -3.029654 -2.835161 -1.333118 -1.810982 2.112193 -1.621379 2.684745 0.003064 -1.233517 -1.991050 0.969679 3.146808 -1.829538 2.784823 -2.165454 1.677811 -1.457661 1.128427 -2.707856 0.259978 0.620606 1.145549 0.278834 -1.833581 -0.589731 -0.989235 2.188998 -2.289564 1.655603 1.663294 -2.081315 -2.441026 -3.047041 2.339536 3.165231 0.608927 2.127532 1.131589 2.579435 -1.110603 0.025381 0.062396 -2.351942 0.488423 2.116904 2.489948 2.097632 -2.235594 -0.278362 0.599134 1.150554 -0.687419 0.151379 -1.797571 0.694604 0.945920 1.963760 0.242365 1.733266 1.501520 0.732368 1.237808 -1.387945 -1.226482 0.318487 1.133773 0.538914 0.389264 -2.110663 0.892176 -2.094485 -1.276007 0.713926 -0.262689 -1.482558 0.829220 1.992534 -2.256260 -1.051007 -0.974253 0.886831 1.257199 0.025684 2.985409 -1.375581 0.401457 -3.163766 -1.284891
-2.308130 2.020314 -2.567728 -1.366100 -2.234904 2.779786 1.474652 2.714451 2.045338 3.052533 -0.098422 -0.427103 -2.230256 2.701967 -1.471325 1.438910 -2.272473 1.349792 1.232609 0.245249 -3.190536 1.730092 -0.809887 2.564673 0.575107 -2.892888 -1.511400 0.290013 -1.580606 -1.723125 0.145074 -0.789298 -1.547545 0.876728 -2.049678 -1.512524 -1.407221 -1.305050 -1.781692 0.224757 0.104299 -0.610513 -2.974415 -0.586727 -1.194107 -2.146903 1.455702 0.492341 -0.413817 -0.547249 -1.008791 -2.191567 -0.815682 1.856941 -2.475057 2.770454 -0.297718 -2.556802 -2.814640 2.095149 0.098975 -2.952192 0.493979 -0.010710 1.650758 -1.228850 1.324332 1.492059 1.960853 2.656634 1.469402 -2.047206 -0.866677 -2.237222 0.979511 -0.798166 1.438025 -0.785309 -1.928920 -2.548090 -0.436264 -0.367296 -0.224891 0.337851 1.107031 -1.704180 -0.493660 1.706372 -2.429079 -2.558658 -1.049805 -1.096989 -3.156522 3.177752 2.266554 3.088640 -0.494520 1.467442 -2.949649 1.396379 -0.140900 2.069883 1.646258 -2.586908 -1.893946 1.704419 0.027984 -2.231037 1.225813 -3.060295 2.842797 -0.925047 1.940513 -2.563765 2.178523 -1.234707 -1.928610 -0.347286 -0.720661 2.606270 0.598983 -1.915861 -3.026148 -1.916578 -1.377709 1.150764 2.245862 -0.318924 2.512690 -2.413857 -1.271648 1.496991 2.175424 1.128425 1.866341 0.642375 -1.101934 -1.468536 -0.113232 0.533493 -2.660002 -1.325350 0.891581 -0.849954 2.890415 -1.636335 -2.488972 1.282940 -0.282456 -1.882475 0.074388 -1.021973 -1.255077 0.718854 -2.807432 -2.962408 0.321732 -2.749055 0.950547 -0.118614 0.930231 -0.127465 -1.137104 0.557626 -1.356262 -1.793116 -2.396114 2.023165 -0.380757 -1.815022 3.103689 -1.516899 -2.397191 -0.046582 2.957664 -2.960297 1.235666 -1.518521 -1.697631 -0.069933 2.112882 -1.179590 -1.862305 2.464038 -1.453233 -0.011273 -0.983816 1.753488 -0.534438 -1.668810 -2.029668 0.065226 1.862198 -0.699581 -1.190504 0.839840
-3.033412 -2.784455 2.193511 -1.033548 1.229485 2.677142 -1.050084 2.247896 -1.765390 2.744237 1.634511 -0.613308 3.129401 3.175190 2.488035 1.636643 1.205472 -1.923798 -0.235411 2.349722 -1.026249 -1.850647 1.382167 1.735923 -1.970268 0.122258 -2.618983 0.956441 0.354086 0.189043 0.060069 2.669406 2.058050 -0.714757 2.381553 -2.255622 2.100616 -0.809790 1.062082 -0.831485 2.517367 2.544113 -0.137298 -1.792185 2.227781 -0.267232 -2.335111 -0.943487 -1.004358 -0.732429 -2.826423 0.499929 -3.044337 2.135602 -1.716278 1.556578 -2.044393 -2.863488 -0.583637 -1.995823 -0.695825 1.135250 1.786986 -1.842323 -1.251708 1.070464 -0.357592 -1.504099 -0.720649 2.862915 -0.231668 2.698702 -2.698844 -0.404871 1.507135 -1.687485 2.479616 -1.400517 -2.809917 -2.622378 0.045539 -2.680184 0.540466 2.909213 -0.645848 -1.161931 1.735195 2.528590 3.162861 -0.003733 2.492783 0.261283 1.807047 -0.073993 -0.943889 -1.927357 -0.198035 -2.315650 -0.200349 -1.453650 0.765459 -1.536530 -0.907520 1.951425 1.979239 2.827976 -1.672401 0.798501 -2.171220 -1.002591 -2.396909 2.993158 0.288504 -1.907580 -0.261131 1.476420 -2.754042 -0.484163 2.078172 -0.639794 -0.959505 0.256172 -2.823705 -0.664848 -0.711689 0.914775 -1.564607 -1.698449 2.755330 -1.974468 3.076757 -0.050059 -2.589821 -2.783362 0.115171 -2.204509 -1.575960 -1.447799 -0.211691 1.872794 3.074148 -0.351194 -2.347470 -0.526834 -2.980341 2.620968 0.186250 1.073339 0.398593 1.546638 -0.020692 -0.275086 2.824719 0.914580 -2.974720 -1.783395 -1.257790 2.208596 -1.904631 2.020818 2.918712 2.061422 0.855909 3.085289 -2.936141 0.581820 1.009131 2.251731 -2.459687 2.690274 -2.270516 -2.751667 -1.730749 2.117499 0.053489 2.501880 2.276454 1.356581 0.490531 0.362593 -0.636894 -2.886210 1.016997 -0.440777 2.203743 0.270064 -2.118568 0.061810 1.097211 2.205738 -2.670681 1.594428 3.144508 0.791618 1.865771 1.352046
-1.216032 2.963582 0.192236 1.400410 0.203395 2.758976 -1.594311 0.221244 -0.622024 0.782099 -1.607351 1.789454 1.166501 2.402129 2.862701 -0.084345 -1.371200 1.132639 3.069933 1.191727 -0.544354 0.369198 -0.758716 0.699864 -2.935326 0.200566 -1.070374 0.543597 -0.521345 0.773686 1.529403 2.977511 -0.574524 -2.430937 1.090091 -0.884286 0.289215 2.290659 2.299777 3.151127 2.664558 -2.191188 0.548953 -0.192145 -2.309815 -0.585538 1.605286 -0.890622 2.634084 -2.294627 -2.335482 -1.116577 2.242112 2.930025 -0.283414 -1.623410 -0.642730 2.243416 2.647819 0.826658 -1.305556 -2.950498 -0.233647 -0.900997 2.572791 -2.782582 -1.581650 1.477249 -0.228263 2.105269 -0.598953 2.169466 0.589787 1.877635 -1.217078 3.065081 -3.093621 -2.918279 0.125766 0.582163 1.449564 1.613586 -1.724056 1.786926 1.404499 0.210953 -2.711656 2.516156 -0.910357 -0.961987 -1.659947 1.369224 2.117152 2.643342 1.741241 -1.317030 0.047560 -0.342355 2.516036 -2.492604 3.046992 2.802365 2.805747 3.087825 2.166432 -1.956791 1.603507 -1.218272 0.165309 -1.432594 2.096839 -1.672920 -2.665412 2.607894 2.412042 1.578970 2.806716 2.484546 0.363947 -2.309811 -3.105041 1.554300 0.132536 1.935428 2.770530 -2.553105 -0.760810 -0.973198 -1.416226 -1.537148 1.768121 -0.392582 3.085806 -0.356510 -2.061120 -2.481736 -2.801529 0.647807 -0.946587 2.793366 -1.347422 0.928924 -2.775335 0.989454 -0.948545 -2.259168 2.690862 0.274922 3.134339 -0.759718 3.046101 -3.073558 0.085992 2.144698 2.252202 -1.280588 0.862673 -0.750351 -3.004300 1.424911 0.702516 -1.346090 -1.077273 0.844431 2.792078 0.278362 -2.751036 2.479984 -2.382558 2.433155 -2.862584 1.415761 0.247269 1.893087 0.472438 0.498835 -0.411431 1.273128 1.671376 2.912119 -0.157865 -2.242748 0.452996 1.232538 -3.013294 3.062816 -2.049001 -0.116383 -2.279515 2.841790 -1.640726 1.381682 -1.768382 -0.407018 -0.297248 -3.096443
0.498848 0.813514 2.890759 1.729586 1.332059 -2.716401 2.406829 -2.240917 1.030907 -0.963907 3.150589 -2.331628 -1.093074 2.189652 1.974374 -2.037287 1.792699 -2.984254 -1.616279 -1.397074 -2.289600 0.486775 -0.660615 -3.148332 1.674393 -2.730083 0.813087 -3.094207 -1.415463 -1.058352 -0.460398 1.517626 0.862971 -0.949362 2.650544 -0.912783 0.775782 1.358935 1.622067 0.346045 -1.782191 -2.780941 -0.318553 -2.035359 -2.037872 -1.979819 -2.345128 0.438825 -1.700478 2.430427 1.359611 -3.163274 1.428231 -2.226717 -2.449700 2.672791 -2.676646 0.618988 0.098793 -1.274524 -0.210465 -1.417351 -1.211269 -1.470111 -2.472779 2.340203 1.106061 2.956846 1.315600 0.836224 -1.192403 0.365642 -0.075559 1.927807 2.268767 -2.959665 0.104664 -2.162145 -0.742487 2.336832 1.856092 2.553215 1.085733 0.496676 -0.801533 3.038578 0.172629 -1.924009 1.752041 2.137695 -1.526901 2.949394 0.591577 -2.679909 -2.161751 1.947544 -2.203948 2.535995 -0.766626 1.824397 2.962042 0.318906 -0.764297 -0.757770 2.997679 1.278910 -1.318987 -1.495975 -2.055549 2.578871 0.083921 1.842085 -1.601775 -1.194389 1.403725 1.688614 -2.095798 0.062514 1.401058 -0.519365 -2.573880 -1.328178 -3.052330 -0.613238 1.177568 0.631406 1.566109 -2.529379 0.045796 -2.189784 -2.793625 0.202125 -1.824667 -1.966286 0.735635 -1.394937 1.068936 -2.278561 1.710241 -2.165885 0.519546 2.458475 0.412659 -1.701545 1.225977 3.029394 -1.343086 -3.104924 -1.932679 0.849878 -2.705473 -1.284578 1.816600 0.200082 -1.135840 -0.642789 2.109025 0.868069 2.002243 1.101046 -0.110505 0.531143 -1.076916 1.270470 1.793690 2.186173 2.588811 0.882589 -1.082540 -2.663970 -3.030718 -0.944853 -1.474697 -0.601703 1.221370 0.678566 2.863964 -2.714173 -3.140648 -2.433075 2.671902 0.465708 2.735598 0.333968 -0.035875 -0.772980 3.087916 -1.235135 -0.757659 2.625309 0.620062 -0.169850 -1.185236 -2.312562 -3.164622 1.430793
1.825166 2.456388 1.772719 -0.473150 0.042549 -1.899983 1.595942 -0.138950 2.942779 0.309640 -0.198888 -2.822364 3.052720 -0.558786 -2.862791 -2.613693 -2.826695 -2.507565 -2.295827 2.828840 -2.199334 -2.044165 1.836888 2.536294 -1.475144 1.259749 -1.294181 -2.420905 2.835520 -1.222932 -1.587036 -2.351353 -0.412364 1.041104 -0.165194 2.509533 -0.142959 -2.381899 -0.882463 -1.839195 0.352721 0.410111 1.137272 -1.063276 -2.778110 1.743466 2.113579 1.219382 -2.865688 -2.219287 2.010913 -2.620324 1.048104 3.052497 -0.787692 -1.717777 -1.385028 -1.770105 -2.817142 -0.916875 -0.722502 0.323246 -2.239928 -1.287930 -0.335604 2.176312 2.272596 3.150779 -0.384704 -2.373829 1.142839 2.217090 2.354668 0.252176 2.001838 -0.909025 -1.547858 2.473692 0.792980 0.850753 -2.347347 3.067275 -2.647402 0.496718 -1.053419 1.866622 -2.200802 1.348883 2.703027 -1.470104 -2.967618 -2.363990 1.369353 2.711076 0.742296 2.266166 -2.585437 1.863167 2.424540 -0.467866 2.781774 1.956080 -0.870846 -1.757013 1.025983 -0.152693 -2.925193 1.124310 1.351176 1.299765 2.090760 0.646578 0.544440 0.302886 -2.787566 -1.831840 2.011114 -1.961425 0.977571 2.359798 2.882608 1.978490 -1.639486 -0.875869 1.105446 -0.722666 2.954218 1.999590 0.686549 -1.533991 0.972058 -3.168800 -2.494679 2.793841 -0.827379 -2.910870 0.165344 1.604570 -0.293986 2.061615 1.512524 -3.064026 -1.576592 -0.062179 2.830784 0.502468 -0.269465 -0.520693 -0.039380 1.363995 2.139453 0.438384 -1.490518 -1.742709 -1.170449 1.080925 -2.242814 -0.115430 0.062026 -2.896523 -1.878080 -2.955809 -1.721722 -0.496803 -2.603468 0.081288 -2.677067 1.740404 -2.132693 2.393510 -1.792681 -0.130943 0.746616 -3.170103 -1.611600 0.899333 -2.130668 2.722014 -2.226068 3.005771 0.545302 3.071427 2.045536 0.393086 -0.949885 -2.584397 1.452197 -0.203452 -2.122390 -2.682016 0.527147 0.371105 -2.009966 -0.562877 0.409196 1.706057
3.029293 2.981989 0.119167 -0.837777 -0.652290 2.440380 1.485472 -2.818299 -1.393001 2.468444 -2.177753 2.405923 -1.758404 0.993155 -1.069135 0.784102 -0.228701 3.097299 2.946048 -2.667327 -1.229885 1.579618 -0.033373 2.782077 0.944279 -1.554563 0.189331 -1.106827 3.159064 -3.185383 0.662458 -2.562539 -2.245304 -1.240239 0.933214 -0.736672 -0.922218 -2.905324 -0.023902 -0.947815 1.455409 1.207120 -2.298361 1.411423 -1.319057 2.685728 -2.654476 -2.764118 -1.828466 0.184155 0.222780 2.319535 0.949876 -0.846911 -0.493540 -2.761877 -2.012360 1.503951 3.069555 2.178425 3.115321 -2.816712 0.681590 -1.200030 2.816140 0.288597 -0.140036 0.986872 2.809353 -0.785175 -0.432392 -2.504452 0.888911 -2.849630 -3.103490 -1.754447 -1.373188 -2.500157 -1.337140 1.721153 0.369652 -0.544458 -0.731622 3.132253 -0.965484 -2.465856 3.049828 -1.916476 -1.347604 -2.092240 2.005858 1.681967 -1.108870 -1.282693 -2.371698 0.343850 -0.046617 -1.377602 0.380747 -0.484815 0.921810 1.002955 -0.988201 -2.485077 -2.260884 2.524978 0.705377 1.705894 -2.810388 2.252619 1.869880 -2.098777 1.125832 2.833806 1.183760 -1.781702 0.141422 -1.490030 -2.516921 2.617989 -2.951288 2.098304 -0.512055 0.941785 2.368827 -2.254142 -2.760097 -2.811775 -2.299539 2.224865 -0.072866 -1.794553 0.765021 -0.652690 0.423963 -2.338191 -0.388747 2.614379 1.029853 0.938370 -0.359175 1.314067 -1.291275 -2.703334 -1.879527 1.151458 1.897788 0.698720 -3.098560 -1.707478 -2.296605 -0.141886 0.468228 0.549243 -0.344456 2.658536 0.353793 0.996796 3.139324 0.610187 1.069976 0.788483 -1.626040 0.661234 -1.735413 -2.519689 0.063144 -2.549869 0.985304 2.714824 1.319469 3.117951 -0.983584 -1.726651 -1.095657 -2.761280 1.881037 1.030805 -1.412499 -0.412049 -1.731262 -2.438531 -0.123749 -0.569500 1.181203 0.838193 2.309429 -2.198863 -0.188729 0.358389 1.843650 0.458171 2.263133 -1.271408 0.064100 -0.386350
-0.776645 -2.502102 -1.143486 -3.144585 -0.179960 2.474126 -1.840216 0.968218 -2.412883 0.096198 0.651620 -1.200655 -2.579323 1.841021 2.234053 0.746993 1.264765 -1.752554 -0.332426 0.597071 0.993607 2.668466 1.411255 1.132430 1.447906 -1.753106 -1.685506 -2.299610 0.230059 0.041535 0.109009 -2.704613 -0.810786 -2.252854 1.749023 -1.759140 2.391787 -0.401535 -2.128259 -1.947389 1.539672 2.253060 -1.669074 1.160210 0.776181 -1.209306 -0.814672 -1.795939 -0.604169 2.470037 0.023988 -2.695551 -2.312173 -2.284103 -2.540390 -0.902366 -0.123297 1.443507 -0.208272 -1.114844 -0.129778 0.564834 1.503900 2.474543 -3.100478 2.678387 -2.886111 0.448797 -1.999245 -2.231793 0.499443 2.755866 1.965904 2.507486 1.127445 1.156198 0.235430 -1.703042 2.057912 1.060717 -2.121754 0.619129 -1.748654 -2.934044 -0.092430 0.518336 0.325754 -1.467141 0.011524 -1.113898 -3.133109 2.573567 -1.342683 -0.047005 -1.616086 -1.516691 -3.063362 -2.307788 -0.684994 1.253426 -1.458127 -0.941996 -3.202093 -2.904208 -0.622870 3.213658 2.062556 -1.856974 1.081422 -1.292475 0.333560 -1.087051 -0.339987 -0.965967 2.287691 3.059786 -3.199952 -1.265091 1.101232 -1.856313 -2.866461 0.422182 2.050815 -1.742037 2.978551 -0.222106 1.104745 1.866671 -1.752675 1.943729 0.356897 -1.714270 0.443670 0.857044 1.073927 -2.820458 0.371420 1.305703 2.773679 2.042366 -2.311524 -0.734460 -2.426241 2.841509 -2.657572 0.085835 0.092255 -1.638007 -1.220279 3.164742 1.299149 1.708373 -2.337197 2.372391 -2.380765 -3.085298 -0.754002 0.473247 0.507328 -1.342507 -2.959807 1.439964 0.556615 -1.096163 -0.864392 -1.295823 0.598429 -1.666924 1.372161 0.402880 1.903540 -1.238991 -2.252304 0.525514 -1.802711 -1.097051 -0.392107 -2.732690 -0.657112 1.614661 -0.195019 1.893732 1.062256 1.835955 -0.884313 -1.143444 -3.134524 -1.801613 -0.920355 1.303864 1.766257 -1.217725 -1.218820 -3.016947 -1.433782 2.564082
-1.734246 -0.562891 -0.774408 -0.559796 -1.865699 1.061192 -0.302523 1.560244 -1.570659 -0.049708 -0.957545 3.093419 -2.879488 0.434282 0.794261 -1.111370 -2.822304 2.038202 -0.887820 2.894983 1.471367 1.597755 -0.645435 0.573945 -0.148612 0.598680 3.081049 0.918230 -0.487494 -1.148641 -0.577615 -0.703759 2.967477 -2.878872 -1.933927 2.816566 1.898362 -2.869596 1.011622 -1.105222 0.688526 -2.057337 -3.059617 1.227860 -2.285679 -2.261854 -0.437410 -0.393694 -2.622748 3.010602 -2.842857 2.321401 0.933356 2.416550 -3.119778 -3.032593 3.193958 -1.871362 2.358449 1.801883 -2.556985 0.097105 -2.386180 0.190477 -3.152625 0.873848 2.206817 2.715709 -0.035743 1.726402 0.385772 -0.508127 1.567124 1.101283 -1.534484 -0.603147 0.919190 3.044356 -2.420979 -2.216517 -2.153601 -0.164481 1.755210 0.886185 2.896608 1.930278 -1.935164 -0.104003 -2.597605 -2.320900 2.762605 1.883522 2.826825 0.405382 2.236595 1.866932 2.664427 -1.341066 2.885532 0.067903 1.457743 -1.675073 2.264468 3.146960 1.411012 1.916947 1.030241 -0.143692 0.577681 0.704399 -2.163736 -0.745380 -0.014467 -0.313463 2.010000 2.720359 -1.016793 0.121027 0.409627 0.228631 -0.669159 0.970447 1.194978 -0.123217 1.505550 -1.532924 1.368722 -0.353822 2.281941 0.980850 -1.396096 2.611001 0.766018 -2.966245 -1.375054 -0.900708 -1.392267 -2.336958 -2.141602 -0.637621 1.447807 1.674680 -0.343480 1.270764 -2.407655 1.537172 2.007513 -2.415734 2.270264 -1.792575 -1.891205 1.002140 1.875571 1.146924 -1.603232 0.790234 -1.645704 -1.079260 0.641307 -2.225933 1.280243 2.778555 0.117285 1.648155 -0.206517 -1.511186 0.174906 2.620388 1.770196 -0.849178 3.124763 -0.442045 -0.533102 1.000041 -1.665849 -0.512167 2.113298 -2.542922 2.735107 1.876612 -0.763378 0.046831 1.305457 -3.147589 0.075522 -2.840181 2.402711 0.885386 -0.055496 -0.096973 0.336601 -1.589710 -0.790736 -0.325344 -1.912958 -1.095505
0.059941 0.420222 1.515754 -1.872776 2.107232 1.745283 0.525223 2.911774 -0.428248 2.007012 -1.037815 -2.889176 0.218903 -1.233832 2.796896 -0.720056 -0.278405 0.766427 2.699912 -2.618604 -1.546490 -2.441050 -1.039167 2.357604 2.667389 3.111007 0.455911 -2.187602 -1.940580 -2.036805 2.815133 1.549829 0.628890 0.581475 2.358714 -2.894122 0.232102 -1.771703 2.951110 0.736591 0.220216 -0.559742 -2.244958 -0.301713 -1.877145 -2.688239 2.041490 0.495594 0.299205 -2.232339 2.566973 2.838953 -2.708804 -0.423994 -0.284184 -2.405198 0.746479 -0.889430 -0.016276 0.768095 -0.127777 -0.488150 -0.724463 1.967330 2.049333 2.313827 2.628025 0.747921 -1.720539 0.837119 -1.518092 1.801107 0.234606 0.719779 -2.043283 0.158177 -1.426736 -3.146473 1.164699 2.025684 -0.844893 -0.408648 -0.828091 0.422491 -3.055598 0.430285 0.825597 -0.710003 1.732728 -2.416350 -2.634101 2.268846 2.752337 -1.499058 0.416473 1.517672 0.352781 1.832420 2.670713 -1.844833 -2.229956 -0.252780 -0.411116 1.982898 -0.132421 -0.585704 -2.686877 1.794848 -3.025485 3.147161 0.157913 1.472446 -1.029997 -1.131916 -1.847562 -3.062577 3.046706 -1.893030 3.087621 1.538609 -2.522152 2.666686 -2.813112 2.937975 -3.163141 -2.021809 2.688957 0.901488 -0.799722 -2.922109 -2.917129 1.145582 0.181199 3.161535 2.867117 -1.645761 -0.841874 3.118119 -2.129192 -0.341410 -1.359693 -2.083989 3.027628 2.228364 1.504109 -0.464902 1.483212 -3.081119 2.489706 1.239711 -0.893727 0.990390 2.976594 -2.099878 -2.797266 1.636193 -1.374493 0.194167 -0.080249 -1.646917 -2.202710 1.465426 1.127776 1.136608 2.805978 1.470594 -2.021146 -1.770579 -2.510793 1.818529 2.497517 1.433942 -1.731913 -2.520569 -0.466924 1.058995 3.017178 -2.125611 -1.861533 2.021978 1.694798 -1.623948 -0.620605 0.535695 1.871974 2.350617 3.030246 -2.294208 3.109638 -2.762442 -0.717990 2.637751 -1.764832 -2.156858 -2.405632 -3.180615
1.790818 -1.789136 -1.108512 1.603980 -0.945666 -1.835757 -2.939116 0.107530 1.674726 -0.679840 1.497959 1.621703 -2.734505 1.577495 1.294540 -1.133655 -1.954970 2.355405 -0.851393 1.650552 1.354863 2.840054 1.199957 -2.303062 -0.023597 -2.463887 -0.004810 2.422979 -0.133733 -2.181266 -0.213795 -0.244292 2.153512 -1.883804 2.558682 -2.477095 2.067917 -0.850474 2.470088 1.836858 -1.641058 1.671204 2.218725 2.027445 -1.014211 1.147112 2.398261 2.573496 -1.816564 -1.430985 -0.397231 3.017728 1.531374 1.525065 1.617266 1.128632 -0.805477 0.712046 3.173416 0.834148 1.057536 0.349717 2.159799 -1.366570 0.234418 3.039138 -0.229112 2.052900 1.828039 2.667701 -1.622073 -2.898860 0.476523 2.509041 -2.653300 1.646630 -2.724496 -2.625066 1.240328 0.094861 0.994019 -3.110193 -1.806487 1.649009 -1.674480 -1.412871 1.093613 -2.276852 1.015379 -0.073773 -1.671647 -3.033079 -1.736312 2.946750 -1.792646 1.747111 -0.512337 -1.590210 0.743332 1.052844 -3.029730 -2.016612 -0.445394 -0.083356 -2.669288 1.453285 -3.125442 -1.292120 0.333831 -1.559317 2.894203 -1.893865 -1.333854 1.660724 -3.128438 -0.284942 1.110563 0.637582 0.385811 -2.220987 -2.942387 0.192501 2.936364 -1.764224 3.186121 -2.552528 -1.632234 1.605491 -0.040801 1.008763 2.173711 0.983511 0.363719 1.493342 0.757100 -2.879531 2.737946 0.146690 2.316239 1.714824 1.115800 -0.779558 -3.017176 1.432372 -2.442261 2.033896 -3.188586 -0.782866 3.077534 0.247592 -2.100882 -3.178357 2.144900 -1.812917 2.086349 -0.156205 -0.990179 -0.709732 -0.765662 -1.969203 1.931785 1.432243 -1.133096 1.119104 -0.214326 3.188003 -1.782338 1.900719 -0.919655 -1.232234 1.889647 0.099719 0.458684 -2.314292 -1.458874 -2.054633 -0.017582 -1.921114 3.142742 -2.188624 -0.433404 -2.431916 0.063298 -0.370830 -2.675930 2.972890 -0.064950 -0.961915 -1.487725 -0.993694 -0.904311 1.903536 -3.093839 1.887309 -0.781120 0.958580
-0.234575 -1.193918 2.805274 -0.177588 -2.111317 1.490898 -1.522290 -2.421060 -0.115694 -1.974155 -1.088024 2.453237 -1.088808 1.271883 1.940334 1.257686 0.802409 -0.797791 1.562760 -2.930965 1.556001 -0.370512 -1.908563 -0.181967 2.784935 0.029103 0.005167 0.993202 -1.238159 2.824056 2.916928 2.423492 -1.819200 0.374590 2.689437 -1.779024 -2.828879 -0.933788 -0.040639 0.773100 0.706027 2.244653 -1.742565 2.223173 -3.164101 -1.260356 1.847548 -2.846056 -2.962386 0.847543 1.109564 0.162795 0.948971 0.260694 -0.174106 0.453758 0.329929 -1.991422 2.724336 3.148681 0.383992 2.853763 2.325111 1.013375 0.085485 -2.797731 2.708343 -0.884761 1.252189 1.839044 2.601248 0.600611 -1.435062 -0.684879 2.882559 -2.383534 -2.672083 2.520491 2.971662 2.368462 -2.472561 2.212223 -1.632402 3.192798 2.376143 1.374394 3.135175 1.637416 0.342643 -2.097834 -2.705214 0.002594 -1.956054 -2.830489 -2.756332 0.095374 2.014410 -0.944782 2.414951 -2.337030 2.348341 2.150119 -2.291035 0.406852 2.651247 0.906942 0.031425 0.288382 0.995578 0.323591 -2.184613 1.885687 2.120154 -0.013549 2.294955 1.798055 2.678161 0.256147 0.379216 -2.032658 2.571459 -2.410606 -2.458460 1.147763 1.586285 -2.826163 1.697828 -2.270160 -2.112011 -1.394328 2.848586 1.643177 2.487781 -0.351838 -2.128359 -1.001715 0.908102 0.039609 2.129215 1.489595 2.758776 1.454895 2.526970 -2.551106 2.466734 1.141143 -0.642061 2.826767 -0.539853 0.264446 -1.241624 2.244651 -0.507593 -0.861183 -2.179774 2.589742 2.645402 2.746628 2.136471 -0.705585 -1.753374 1.195773 -2.201644 0.496759 0.146828 -1.086002 -0.619599 -1.679070 0.526581 -2.968072 -0.424872 -1.555402 2.356908 -0.621297 1.034273 -2.156207 -0.820074 0.800964 2.056912 -0.554959 1.647961 1.522365 1.604322 2.573515 2.316657 0.244947 2.709245 1.202881 1.871825 2.770348 -3.115419 1.508292 -2.690000 -0.618457 -3.034287 -0.335267
0.792976 2.075516 1.650873 2.609861 -1.703453 -0.215138 2.662768 2.323071 -2.259943 -1.209547 -2.549457 1.032928 3.114692 0.906885 1.844939 -0.686102 1.915200 -0.677188 -0.750724 -1.871600 -0.376938 0.294739 1.095120 -0.890174 -0.417763 -0.771838 1.063975 -1.704984 -2.365933 -2.599721 0.170164 2.598849 1.674201 -0.378335 -2.303582 -2.989023 1.783164 3.188610 -1.557980 1.993849 2.744586 0.865099 0.111341 -0.107937 -3.142804 -0.352921 2.086303 0.587050 0.429436 1.143181 -2.420441 -2.540720 2.403758 1.297452 0.097692 1.248795 -0.530761 1.712776 -2.323459 0.241540 0.232019 -1.240845 3.168334 -2.613008 -0.222678 -1.360262 2.904926 -0.627028 -2.012519 -2.615618 -0.008835 1.761398 2.621789 0.765522 1.187529 1.145758 -1.539837 1.666832 2.991087 0.327312 2.833902 -1.152647 1.348571 0.283823 2.703675 -0.820960 -2.845043 1.110523 -1.473762 -0.385385 -0.515003 2.143537 -2.374574 0.721426 2.667784 -2.551717 -1.879129 -2.060066 -2.355241 1.496223 0.842963 0.510232 -2.856561 2.485104 2.781578 -1.158763 0.277567 -2.004862 -1.247082 1.919759 -3.022796 1.671634 2.467784 -2.647104 0.846961 -0.463005 -0.827110 2.143412 -2.130579 0.637548 2.805239 1.785877 -2.751130 1.958133 -0.001454 -0.639103 -3.099380 -2.584323 0.300665 -0.025520 0.757258 0.359196 -3.077962 1.203445 2.664113 1.188477 0.640476 -1.894381 2.410948 -0.818855 1.097633 0.173673 0.354857 -3.188980 -0.121749 0.827825 -0.267537 -2.413987 1.530704 0.815950 2.063327 -1.362447 2.017168 1.078283 0.593630 2.231263 2.583227 -2.948786 1.012832 0.912116 0.229408 -2.068968 2.828047 -0.664322 -1.972269 1.010943 1.421289 -2.012057 -2.481160 -2.616203 -2.448835 -1.043938 -1.781197 0.855936 -2.351930 -0.082429 1.179951 -0.347435 2.852845 3.124754 1.374313 -0.735403 -0.678074 2.328792 2.237256 0.670807 -1.753777 -2.692550 0.010232 -2.015502 -2.150142 1.862184 -2.584747 -1.474489 0.529008 1.659797
2.498536 -2.831411 -0.200226 -0.033889 -0.302924 -1.817527 -2.153635 1.552136 -2.584268 -2.475893 -2.526246 -3.048657 0.841452 -0.885054 -1.402704 -0.228914 1.655669 -2.534352 -3.051461 -1.909997 -0.128339 -0.132300 0.940738 2.677474 -2.589112 -1.868800 -2.991710 -2.372994 -2.584823 3.217658 3.141553 2.173200 0.753166 -1.869340 3.091892 1.382367 -2.142289 -1.296155 -0.085179 -2.134421 -0.533214 -3.144787 1.730135 -2.501770 1.793165 3.007503 2.618766 0.128587 -0.034993 1.657359 -1.447508 -1.046839 -0.090900 0.875220 -0.471574 2.898953 0.492103 1.339516 1.148937 1.664553 -3.191600 2.230209 -2.185491 1.080504 -2.917925 2.129824 -2.766743 1.875588 -1.570068 3.075361 0.930536 -3.147227 3.024871 2.552387 -1.389100 1.649572 -0.755032 -1.562939 2.373635 -2.988450 1.576609 -1.166659 0.843316 -0.563042 -0.431578 1.791556 -1.215142 -1.256950 -0.518413 2.758362 -1.396244 -1.225569 2.944979 1.888890 -1.051682 -2.084284 1.534216 -3.187970 3.058156 -2.697442 1.868505 0.042830 1.338803 1.546289 -0.428949 -1.248475 2.847048 2.321277 2.360134 -1.197619 -1.984180 2.786229 -2.761893 -2.847786 -2.424890 -1.828234 -2.434480 2.906504 -3.211794 -2.881367 -0.341315 2.622210 -1.195991 -0.313575 2.350105 2.311153 0.325320 -2.559884 -1.754980 0.160646 2.826726 1.927640 -1.671710 -1.222524 0.660889 -0.987002 1.389855 0.202246 -2.947005 -1.993262 1.866352 1.135496 -2.763008 0.409459 0.761937 1.827787 -1.622622 -1.844605 -0.378988 -2.266366 -2.331981 -1.521514 -2.012406 0.912532 -1.813801 -0.143483 3.084239 -0.546382 -2.077002 2.396867 -1.053305 2.368199 1.179252 -2.933767 -0.792221 -0.466457 0.781496 3.086725 0.122188 0.532154 1.073778 1.959970 2.027113 1.465005 -2.511372 2.918468 -1.683780 2.143633 -0.059819 -0.171515 -1.238811 -3.058795 0.184068 1.255055 -0.725969 2.414771 -2.176475 -2.664554 -1.718371 0.769842 1.900458 2.038600 -1.809397 0.031777 -1.450300 1.311427
-1.583164 -0.294684 0.259434 1.316316 -1.108899 -0.450283 2.757844 2.477530 1.838198 2.900039 -0.226983 2.324022 0.665807 -1.917556 -1.142175 0.944412 -1.249014 -0.901922 -0.691842 -0.249935 -2.876755 1.423604 -1.684354 0.809043 -2.923713 -2.316238 -1.915547 -0.127951 -0.773012 2.418370 2.392027 -2.540958 -2.986544 -0.559678 0.385314 -0.906272 2.509777 -0.076157 2.759313 -2.969104 -3.073356 -2.399940 2.055097 -1.889415 -2.363110 -2.710157 -2.350006 0.996582 1.903358 1.683930 0.418841 2.199661 2.906762 -0.361581 -2.219773 1.698791 -1.631206 -1.008410 1.669433 -0.912358 -0.366224 -2.549179 1.920170 3.146375 -2.299950 0.985477 -0.747924 3.146488 2.064367 -2.355066 1.610571 -2.609629 -3.102596 -1.008474 -2.991048 -1.892362 -1.175882 -0.732124 -2.476891 1.835940 -1.165716 -1.799151 -2.622869 -0.403761 -0.397758 -0.229040 -2.029773 2.241139 0.931861 1.149648 -0.390575 -1.893241 0.318486 1.167407 -1.860699 1.842745 2.553619 0.078863 2.053913 -2.284454 1.184534 0.959104 1.272865 1.167015 -2.319984 -1.161633 -2.744883 -2.094158 2.177087 -2.293008 -0.431932 0.173729 3.002160 0.755486 -0.466445 -1.664210 -1.475860 -0.224422 -1.091790 1.634655 2.287698 -1.858166 2.873610 2.636577 -0.833317 0.904222 -1.494316 -0.448369 2.098007 1.100496 -1.235476 -0.433037 2.911805 1.337311 1.050902 -0.878579 -1.908206 -3.017897 -2.589103 2.701901 1.549487 -2.373705 2.406555 1.159682 -1.443233 -2.546563 -1.982693 2.174466 3.131805 0.544273 -0.793989 -2.247674 -0.897204 0.619277 -2.378468 -0.644580 -2.244054 -1.946757 2.256194 -2.734029 2.447595 0.243456 2.919349 -2.268704 1.800615 0.310724 2.829765 -0.529029 0.690815 3.174439 -2.589420 0.228374 -1.188137 -3.017702 2.502526 2.265450 -2.476251 -2.243746 0.015290 -1.170025 -1.279256 0.078857 0.033156 -0.409130 -2.200888 0.172630 0.555227 -2.142913 2.808178 0.616883 0.472605 0.566768 -0.210379 -0.946697 -0.969052 1.828975
-2.359304 -2.071674 -2.253964 -1.111800 0.604892 2.349856 -2.065609 2.446012 -0.910200 2.070646 -2.378078 1.492108 -0.106499 -2.645272 0.995707 1.880773 -0.999402 -0.389805 -2.053886 -1.069496 1.085272 -3.145477 0.078917 -1.054844 1.661905 0.386210 1.624994 -1.204865 -2.604099 -0.244042 -0.807860 -2.851159 2.084246 2.564785 3.189368 -0.007323 0.364410 1.029503 0.344517 -1.278265 -1.613170 -0.851526 -2.656408 3.141738 1.531439 -3.074389 0.478462 2.965524 -1.900581 -0.107609 -2.735142 -1.074370 0.406251 -0.177593 1.387010 2.782936 -0.876124 -1.911839 2.050304 0.230882 -3.005666 1.497785 -1.063140 -2.771258 3.022790 2.299453 1.944234 -1.122192 2.133970 0.598835 2.356502 -2.735993 1.146912 -0.151223 1.134207 1.987939 0.462313 3.152905 -0.958909 2.999281 -1.880794 1.069567 -2.883583 3.116433 0.972991 1.527262 1.310525 -2.349626 0.938025 -1.265822 2.805423 -1.184945 -0.765662 2.089995 -1.382155 -1.786535 -1.745525 -0.607400 -1.614765 -1.366171 0.333576 -3.137188 0.988919 0.996064 -1.167292 2.851833 0.997421 1.013650 0.480311 2.715170 -1.274411 0.765710 2.978616 1.754328 -0.314161 0.717476 0.680275 -2.279247 2.412795 -0.753642 2.036409 -0.529064 -1.065287 -2.692125 -1.798073 -2.250322 -0.825785 -0.724224 1.805982 -1.489626 1.870553 0.508254 -1.396438 2.621753 -1.067319 -3.022098 -1.921306 -2.920912 -0.485684 1.130422 2.267154 1.885150 -0.164425 1.869577 1.887902 -1.014671 -2.100348 1.677380 -0.381282 0.477473 -0.817246 0.299652 -2.214231 -2.939597 -2.495899 -1.354246 -2.571974 0.244498 2.056683 -2.877444 2.237382 2.171681 -2.697004 -1.209882 2.313212 0.241812 -3.190464 -2.533677 1.985046 1.588662 -0.504573 -1.835681 -0.716539 2.421234 1.541691 0.134006 0.961946 -2.576125 2.337256 -1.504599 -0.883268 -1.539016 2.039644 2.482514 2.353569 1.405124 -1.951798 2.847322 -2.098964 -2.864182 2.866240 0.240632 1.367256 -2.983516 0.855055 -3.071514
-1.891072 1.897857 1.651672 0.557875 -0.248601 -2.637945 0.814558 2.627349 2.107152 0.223047 1.994098 1.430748 -3.177182 -2.950989 -1.837477 -0.743976 0.606462 0.646095 0.329989 -1.149496 -1.070016 -2.211424 -0.721146 1.116984 2.772716 2.773957 -2.623826 1.760420 0.110537 -0.683487 -2.923750 -2.768110 2.167054 1.409704 2.559071 1.831761 -0.933974 2.802125 2.862960 -0.288959 -2.179426 1.523555 -0.753814 0.823326 -2.754374 -2.091194 1.833329 -2.878770 1.625057 -0.498844 0.884896 2.317299 2.833705 0.359423 -0.250257 -2.634829 1.581429 -1.270244 -0.700883 0.341720 1.636147 2.592668 -1.066116 2.148941 -0.980029 -0.564238 -2.629261 -0.051415 -0.363169 0.580635 1.705205 -0.969077 1.740014 0.298791 -0.053468 0.716790 0.056385 -0.960069 -0.964747 1.080982 0.446751 3.094682 0.796365 -1.923286 -1.681655 2.554073 1.646035 -0.356222 -2.530297 -2.578458 -3.132281 1.365301 2.521262 -0.529491 1.438355 1.869597 -0.347070 2.093705 -2.642401 1.237993 2.279758 -0.736081 -1.890370 -1.285311 1.026989 2.272460 -0.992415 -3.098917 2.205288 -2.497855 -0.861257 2.050719 0.067130 -2.265337 1.201864 -2.724040 -1.568298 -1.755588 0.305626 -2.593084 -1.456099 -2.307691 -1.219858 -1.647468 -1.859243 1.489824 1.352937 -2.818498 2.474670 1.244634 2.856908 3.121455 0.072279 -0.328477 0.070143 2.093176 -0.875066 -2.483632 -0.676267 -2.397801 -2.254962 -1.905653 -2.390016 -1.404206 1.655549 1.706415 -2.037731 -0.148634 -0.208885 -1.188806 -1.098095 0.351532 -2.527079 -2.893386 -1.985984 -0.782043 2.654740 -0.011175 1.781917 1.718881 0.937741 0.277325 -1.667892 1.452260 0.125113 1.988318 0.862790 1.678538 -1.097476 2.518044 -0.733453 -2.372066 0.957751 -1.384603 2.557103 -2.970005 -2.152575 -2.719359 1.677029 1.206164 0.514942 0.169311 -0.884027 -2.704091 2.824734 -2.113858 -0.770681 1.883211 3.104439 1.652007 -1.146721 1.603330 2.653362 0.582271 2.955052 -0.713017
-3.024955 1.426090 -2.996377 1.028161 -0.602424 -1.440092 1.633943 0.618233 1.852515 -1.066345 -3.163148 -2.860729 0.013374 -1.010498 -0.209443 0.947789 -2.596262 -2.321698 -2.238405 1.205188 1.012601 -1.579387 0.132803 -0.615739 -0.959101 2.542704 3.136817 -2.570389 0.697235 0.886420 -1.009690 -0.405446 0.083833 -2.205957 -2.172656 2.923959 2.559308 1.848082 -1.056947 2.379178 -2.933662 1.180740 -1.882920 -1.498416 -2.277554 -3.161451 0.512159 -2.047916 -0.671804 1.119568 2.266725 1.250736 -2.635378 -2.613086 3.077598 -2.331262 -1.758268 -0.513385 2.397439 -1.354046 -1.748643 0.835638 0.967681 -0.854388 2.072191 -0.899155 -1.021031 -1.155758 -0.927533 -0.114366 1.325498 0.106575 0.117514 0.690866 -1.594836 -3.104407 -0.382439 -1.119824 1.706350 0.341571 2.482459 -2.864404 -2.128453 0.702887 2.827711 -2.302237 0.017584 -0.282721 1.051944 1.930322 -1.635713 -1.273563 -1.543767 -0.213246 -1.851980 2.364411 2.984996 -0.150006 -3.081325 -0.297188 0.283231 -2.429679 -1.562580 2.663873 -1.856177 -1.372556 1.958186 -0.631332 -0.318191 2.050206 -0.832413 0.542647 -0.844799 1.569506 -2.495947 -1.883632 -2.726903 1.098095 0.981286 2.067918 1.205290 3.120447 0.274876 2.814763 2.225448 -1.320788 2.127875 2.190569 2.979871 2.362583 1.316254 -0.315847 0.751786 0.543622 2.826539 2.442333 -2.895750 2.442217 -2.193260 1.876950 -0.681287 0.975757 3.211265 -3.154449 2.983885 -2.866837 -1.685098 -1.965586 2.426432 1.528280 1.954256 0.353603 -0.185004 0.645975 -3.139357 -3.031157 -0.136727 -3.037897 0.732449 1.912841 1.916974 2.614716 0.161105 0.207516 2.823502 -2.951617 2.564531 0.559811 2.248463 2.184914 0.604378 -0.863818 0.372902 2.605297 2.047082 1.050150 -2.952033 0.853483 -3.084307 1.306072 -2.217951 -1.567441 1.270138 -2.496020 -2.234650 1.775178 0.632521 -3.087418 -0.900283 2.309365 -0.268959 -2.670203 -0.098516 -1.866394 3.201996 -1.865444
1.719326 2.511400 1.617650 -0.003579 0.121915 3.079047 2.792946 -0.096129 -0.162985 -1.792362 -1.752874 2.899731 -0.121438 -1.980236 0.981633 2.118176 2.989839 -1.189457 0.726982 -0.512906 0.007373 -2.817722 1.651579 2.357986 -0.662558 -2.127356 2.534674 3.007631 1.561766 0.167304 2.094361 1.023475 1.359864 1.800124 -0.433075 2.152080 -2.171017 1.625719 0.979623 -0.425656 1.185678 -0.068933 -2.415058 0.375448 1.128307 -2.380637 0.148645 -0.284950 0.010996 2.663940 0.458984 2.299527 -0.494394 0.649701 1.948559 -1.878762 2.666839 -2.337216 -2.747303 2.656519 3.020916 1.136736 -1.072529 -2.537917 -3.116512 -2.246102 -0.412935 -1.299246 3.131444 -1.950047 0.069908 -0.263769 2.241722 0.138902 -1.407408 0.506844 -2.022745 -0.086901 -0.694290 -3.026919 -2.781462 0.654565 -0.195265 1.527379 1.409670 2.068583 -2.002709 2.759289 1.101419 -2.790499 2.568153 1.033515 -1.158250 -1.235617 2.173475 -2.085707 2.789904 -2.922723 0.652046 1.820221 1.984261 -0.664758 -1.956741 -0.241751 0.431708 0.699045 1.207319 1.486712 1.256123 -1.324537 2.969280 2.411087 2.564757 1.266511 1.380389 2.019816 -3.166720 -2.942173 1.789252 -0.041046 -0.513058 -2.499425 2.822490 -2.095571 1.045650 2.222711 1.198186 0.091145 -2.634601 -3.129664 -1.576432 3.133841 2.931619 2.046894 -0.571860 2.198266 -1.502701 1.520096 2.115572 2.795268 -1.470278 3.003978 -0.297026 0.642813 -2.567351 -1.472423 1.439777 -0.050806 1.914592 -2.514725 -1.289416 3.037880 -1.790075 1.634986 -0.816661 -0.434049 0.962559 1.472882 -1.991986 0.866768 2.642529 0.852246 -2.027783 -2.269855 -3.025416 -2.851642 0.600191 -0.541124 -0.802486 -1.472553 -1.166299 0.003609 -0.303829 -2.927473 -1.857795 2.863451 -2.492260 -2.048811 2.583031 1.578996 1.093253 3.120379 -2.668273 -0.363875 0.143307 -1.360662 2.442428 1.626053 -2.525881 -1.891928 1.385592 -1.398070 -2.824902 -2.755303 1.590362 -2.631060
-0.283380 0.292307 -0.105720 2.186265 1.405038 -0.696931 2.605191 1.069248 2.598801 2.042699 2.401111 2.506459 0.753916 -0.332336 -2.045577 1.739055 0.060021 -3.135162 -2.625214 -1.406701 -0.919710 -2.655101 -2.057977 0.395567 -2.317269 0.137530 -1.393018 1.150476 -2.701201 0.606095 2.346760 -1.482254 -1.373590 1.599403 0.324806 -2.000777 1.538108 -1.395344 -1.959303 -0.295882 2.374500 -1.073666 -2.633781 -0.607957 2.286641 2.667826 -2.820826 2.976650 -2.359468 3.007553 2.383263 -2.360179 -1.058042 0.304261 -1.187657 1.701579 0.761352 -2.296317 -2.600640 0.664604 -2.177282 1.748537 1.318124 -0.003792 -0.598919 -0.656697 -2.684071 -2.516269 3.195855 -1.708261 2.030752 1.478633 1.851515 0.614038 0.179601 -2.244238 1.920515 -1.082363 -1.829470 -1.969383 2.005663 -2.671904 -0.934757 -0.318740 0.704490 1.207343 3.094631 1.617893 -2.611373 -0.116557 1.912903 1.615335 -2.698675 -2.945306 1.094250 -0.488138 1.238712 1.653921 1.296236 3.029745 -2.765368 2.685574 2.281338 1.300165 1.986874 2.396324 -0.065447 -2.146112 2.306385 1.311970 -1.324530 -1.906926 -1.079083 1.360775 1.862943 -0.033955 -2.787496 0.957203 2.871826 -0.873656 0.127959 1.439515 -1.864415 2.148677 -2.535966 -1.639222 -2.486714 -2.305396 -0.378606 -0.821887 2.061069 -1.940266 -2.050282 -2.612537 1.966936 2.321118 2.001211 2.505189 -0.441670 -1.660005 -2.866063 1.822001 0.456000 -2.072200 1.967699 -0.373008 -1.403349 1.591478 0.239802 -0.550991 0.892681 0.805207 -2.975782 -1.878925 -1.317648 2.712963 0.740080 -1.263974 -1.075751 -0.183227 -2.602407 2.617248 -2.057893 -3.117707 -2.237864 1.722015 -1.166148 -0.887717 -0.162909 -2.257490 -2.377036 0.766602 0.530197 1.766759 -2.092814 -2.019841 -0.011206 0.270476 1.000609 -1.295092 2.693926 1.832641 -3.079070 -2.282243 1.816204 0.478106 0.737816 2.366798 -0.887787 0.131891 -0.453267 0.430376 -0.834032 -3.109155 2.830120 -1.294915
-2.863671 0.296058 -2.529916 0.082427 -1.339804 2.510772 -0.089151 2.986351 -2.982481 2.996217 0.006837 0.414990 -2.978965 -1.149092 2.039534 -2.710098 -1.315327 2.071612 -1.100637 0.636077 -0.229160 0.513044 -1.915423 2.296141 0.908140 -1.961703 -0.885241 1.437091 -0.246482 1.541056 -0.635462 2.406457 -1.819848 0.341006 0.123792 -0.038367 0.295234 1.615251 -0.528610 -0.973375 0.562531 -1.753272 1.277023 -0.227466 0.018864 -0.081307 1.937409 -1.924781 2.927231 1.066447 0.457269 3.105678 -1.058713 0.082486 1.876477 -0.573759 1.833299 -0.039201 -0.258527 1.896503 1.406265 -0.442588 0.750177 2.934761 -1.599651 -1.946124 1.287759 2.549419 -2.235721 -0.996311 -1.206158 -1.422082 3.215973 -1.116911 -2.349177 0.956960 1.481896 -1.366216 -0.092050 0.032655 2.083901 0.366295 -1.876242 -2.994918 0.905826 0.528573 2.365104 2.096802 1.819259 1.847390 -2.988109 -1.888271 0.157357 -2.562644 0.612938 2.206308 1.153559 1.655970 0.648301 -2.369475 -1.722933 -1.108213 -2.521307 0.241671 -1.637894 -0.396474 -1.421306 -1.796114 -2.620861 -0.616715 -0.905126 2.892190 0.542665 -2.809263 -0.649408 -1.007426 -1.781237 1.529285 1.617826 0.861480 2.550797 2.553582 -0.414659 -0.605654 2.722358 3.111573 -0.994846 0.622944 -0.258250 -0.661570 3.049805 3.027798 1.008091 -2.144124 -1.309493 1.860406 2.917557 -0.992282 0.064411 -0.821687 -2.041337 1.840482 -2.892477 0.131208 1.468217 0.776075 -0.397053 -0.032510 1.472987 -2.686991 -3.044733 0.628177 -2.501763 0.893403 -1.697969 1.271853 -2.034630 1.085178 -1.401439 1.463274 -2.389866 -1.070801 1.478138 1.301339 -2.860775 2.800164 1.759153 1.339269 0.014258 -1.609136 -2.647827 -0.172101 -2.371861 -1.731480 2.395804 -2.312284 -0.772193 -1.589801 -0.044816 -1.820292 -0.497585 -2.508262 -1.738692 1.329455 -2.190051 1.121335 0.085980 0.846470 0.646843 -0.317844 -2.775624 0.738460 -0.963599 -1.885592 1.794390 2.704436
-1.375015 1.730774 0.880059 2.828405 -2.025142 -0.243973 -0.715809 -0.988680 -1.019719 -2.075736 0.202129 -2.965496 1.111483 0.731686 -0.024967 -1.789494 -0.362136 -0.048305 -1.623314 2.996504 2.831062 2.336586 3.070425 0.929763 1.930515 3.016184 0.759987 -0.132774 1.759191 2.889396 -2.406246 -0.115996 -0.937749 -2.692672 -0.566723 0.978689 2.812115 3.071687 -2.123007 -2.188079 -2.711374 -0.070162 -1.511189 1.980183 2.174618 1.701118 1.518529 2.103330 -1.248015 2.488859 0.247196 1.984995 1.874137 1.600976 -1.422452 -2.404492 2.342221 1.153475 -2.270349 -1.793601 -1.782151 -3.071436 2.525861 1.597395 -1.507220 -0.780095 0.461845 1.805282 -1.606205 -1.453705 -1.968198 -1.496535 -0.148743 -2.568965 -1.972495 -1.655304 1.355900 -0.539450 1.513571 1.992555 -2.818878 -3.199736 2.516130 -2.673057 -0.359724 -2.999905 -1.535858 -2.932645 1.119650 -2.708987 -0.309519 -1.980017 -2.546070 -2.422539 2.850891 1.847890 -2.595698 2.772386 1.782919 0.025555 -2.003689 -2.204519 -1.517085 2.449991 -2.751635 3.121749 -1.975504 -1.140112 -1.476197 2.151167 -2.767566 -1.851990 -2.789163 -3.140473 -1.256166 1.309314 -1.624742 0.321047 -1.881439 -2.592509 0.995730 2.541995 -2.208998 1.028833 -1.988411 -1.944756 -1.610012 -2.166378 -2.018077 1.583819 2.682153 -2.964779 2.689648 2.062885 2.245510 -1.040035 2.057812 0.617226 0.946150 0.055014 2.662891 -1.135283 -0.225320 -0.649089 -0.650543 -1.260902 -2.284032 0.919901 -0.865096 0.914774 -2.672758 2.015694 0.841985 0.237043 0.931432 2.341576 2.471207 -0.506221 -0.162963 -2.497599 2.408597 0.673385 1.728100 -0.027950 0.130087 0.231519 0.693475 2.627462 0.728757 -1.067168 1.196650 -2.040783 1.302373 -2.078403 -0.012928 -0.860695 2.236705 -2.123845 -0.107241 2.735365 -1.226544 -1.233132 -0.649694 0.716432 0.269210 0.120523 3.040870 -3.075900 2.663409 -2.391176 -1.611288 2.572614 -0.799506 1.163612 1.946957 -2.507072
2.170001 -1.507476 1.236547 0.222563 -0.278069 -1.945371 -2.723009 2.209934 -1.574990 -2.106992 -1.903573 -1.164734 2.167023 -2.343036 1.227011 -2.275585 -1.442052 -0.511061 -1.960288 -1.320418 0.384515 -0.484770 0.343973 0.260489 1.199962 -0.076472 -2.684657 -0.815718 -2.768424 2.809482 2.856110 -1.091020 -1.017981 -1.964152 2.025954 -0.146689 -1.462005 -0.659283 -0.580689 -1.019855 -1.131420 1.755520 -2.773438 1.958347 1.600812 -2.481524 2.858603 -0.358540 -1.768438 -2.970091 -2.421969 -2.345445 1.976993 2.833692 -0.139041 -2.666718 -1.335227 2.628199 -2.410322 -2.867192 -2.694707 -1.641481 1.425016 2.196140 2.042916 0.607722 0.330194 1.217168 1.651762 -1.766786 -3.169162 -1.638386 0.746781 0.553266 -2.441277 -2.274977 2.525408 3.055000 -0.969126 0.532467 2.210365 0.769951 0.844497 -1.068431 2.273326 2.427905 3.021342 1.589402 0.879717 -0.909373 -0.289976 2.050369 -2.559100 1.370558 -0.609776 -2.749365 -1.142574 -1.398690 1.918360 -0.363956 2.408625 -1.320991 2.531948 -2.623376 1.749535 2.918889 0.862422 -2.868914 -2.119841 2.127150 -2.967771 1.118147 -0.965145 -1.577595 3.142335 1.311362 -0.142766 2.689160 -2.480906 -1.043091 -1.167254 -2.693521 -0.705318 -1.657220 1.689597 -2.598044 2.896784 2.135858 -3.095069 2.702512 -1.066982 1.588862 -3.145575 -0.594303 -0.489914 -1.712728 2.076887 1.228391 0.818178 -1.764140 -0.775875 0.302416 0.430270 -2.282002 1.535439 1.854515 1.467772 -1.947959 -1.978376 1.258364 -1.082915 2.390151 3.206971 -0.311478 2.367489 -1.180687 -2.947268 -1.845548 3.137912 0.670683 -1.387010 -0.359103 -2.649363 1.294515 2.683525 3.021172 -0.103000 0.787789 0.479640 -2.012819 -1.863600 -2.959643 -2.473289 -0.231117 0.267582 -0.783231 0.225196 -1.598331 0.624689 0.573495 1.523410 1.126351 -0.833336 0.902252 -0.556896 2.412291 -2.997479 1.696502 0.598635 -1.394238 -1.522027 0.443895 0.188999 0.848544 2.331430 0.292183
-0.058091 1.199612 0.656148 -0.055734 -1.077702 -2.299080 -0.055435 1.826584 -1.328508 -0.357235 -0.888936 1.490152 -0.317082 2.797949 -3.067378 1.378974 -0.762326 2.564355 0.905971 2.283615 -1.028380 -2.670505 1.046290 -1.549172 -1.713288 -0.802444 2.028787 -1.697773 -0.766819 -0.177501 -3.120830 -2.769254 1.138955 -1.789135 2.541043 0.651406 2.384723 -1.307218 1.287551 0.940805 0.559933 2.917657 3.125644 -1.177456 3.154718 -0.663957 -1.826763 -0.738956 -2.339385 -2.932885 2.211994 2.197630 0.530764 0.625689 1.996824 2.626915 -2.826515 -0.561850 0.321499 0.596418 -0.778284 -0.556088 -2.981838 2.161821 1.158440 0.999975 -0.683430 0.139967 1.689363 0.480939 -2.559508 1.702142 -0.712781 -1.388251 -1.253643 0.038465 -0.434073 -1.743343 1.907036 1.827776 -0.547521 2.075971 0.942752 -1.821445 0.588955 0.209475 1.457988 -1.141209 0.776887 1.293348 1.203277 0.092404 -2.354724 3.004625 -0.953193 -2.291194 3.099036 2.164441 2.453487 -2.664931 2.584058 1.748024 1.764013 0.299877 -3.044612 1.799179 1.579788 2.071006 -0.911032 2.227965 0.571805 -2.755937 -0.740359 -1.453967 0.687469 2.567261 1.562801 -1.547173 1.747872 2.523854 -1.442689 1.495133 -1.964733 -2.697710 1.016557 -0.129155 0.057602 -3.020074 -0.098050 -1.065098 2.676763 -3.076405 -0.891608 2.336768 -1.712249 2.463508 1.459369 3.038402 1.184775 1.208667 -3.073368 -1.457101 0.529757 -2.547039 0.085921 2.450265 1.791851 1.576222 1.086934 -2.154544 -0.120554 1.897285 -1.340374 -3.081328 -0.155983 -1.094873 1.046929 -1.580988 -0.252018 2.804258 1.763541 0.530313 -0.175637 0.093288 -2.210996 1.660390 -1.897719 2.871685 -1.171316 1.638845 -1.505476 2.066453 2.443112 0.793978 2.693490 -2.950394 3.116624 -1.764077 0.240974 -0.924176 1.752654 -2.647409 1.568513 0.875446 -3.080403 -1.411484 -1.875860 2.155091 2.721510 1.187035 -0.595436 -1.879479 -2.557305 -0.812730 2.345628 2.670724
-0.196579 -1.664476 1.212638 -2.023702 -3.042775 1.365798 -0.439060 1.207042 -2.686192 -0.700903 -1.185220 2.117712 2.265301 1.176399 0.537510 0.570558 -0.748962 -0.270749 -1.154891 -2.433383 2.017936 -2.441540 -2.628199 1.826638 2.214429 2.250087 2.431045 -1.813141 -3.005289 -0.255406 -0.683171 2.651412 -0.955210 -0.264957 2.533610 -0.579587 0.306407 2.599745 1.380524 2.989451 0.938783 1.880809 -2.057635 1.642338 -2.420752 2.766621 -0.020790 1.708129 -2.298314 -1.632750 -2.519053 -0.490028 -1.762199 -2.192948 -0.426653 -2.850214 0.004574 -2.219422 0.799516 -2.426790 0.417102 -1.281615 -2.411962 -1.901456 2.101001 -0.146481 -1.255997 0.994105 1.830904 -1.546299 -0.766577 -2.076816 2.034318 -1.158886 1.555781 1.722387 2.705410 2.476301 2.759774 -2.862299 -3.135573 -0.843490 2.850850 -0.015792 0.095097 0.042927 -3.171810 -0.056778 -0.742216 -2.505189 0.214775 2.299019 -0.240027 -3.061234 -1.115701 1.936242 1.504593 -0.752958 -1.372438 1.839496 0.818590 0.765807 2.794867 1.044731 -1.464515 -2.402434 0.025737 -1.839973 2.378827 1.442592 -1.267640 2.408382 -1.689472 2.435487 -1.897915 0.673615 -1.431996 -3.149233 -0.146176 -1.987623 -2.984404 2.784981 0.398573 -0.545370 0.712734 1.776115 1.641297 0.954073 -0.204702 -2.979585 -1.948526 -0.243077 -0.983481 -1.786117 2.744616 -1.328323 0.747014 -1.924997 -0.044862 2.636908 -1.931408 -2.426791 1.752348 -0.508693 -0.572941 -0.552894 1.283539 -0.575071 1.433291 1.517334 -1.724927 -0.623636 -2.227332 -1.469518 -0.305326 2.246754 2.236350 -2.909183 -1.672714 -0.334365 1.099264 0.146457 -0.713474 2.891885 1.528791 -2.857298 1.533579 1.613812 -1.107283 -2.662243 3.024550 0.815077 -0.145445 -1.625291 2.363429 2.851368 2.953559 -1.519928 -2.943454 3.112348 -0.517163 -2.533211 0.665817 0.987341 0.678098 -3.118607 1.422056 -2.121705 -1.487230 1.126012 -0.192449 2.584951 -0.010979 1.639526 1.994280 -0.231437
2.742168 1.333345 -0.042960 -0.761040 2.536999 2.512938 -2.878065 -2.147489 -2.496334 0.429933 0.522585 0.773654 1.019950 -1.058263 0.998549 -3.183112 -3.049425 1.442584 -0.114500 1.022308 -0.922038 0.295839 -2.401153 -1.221418 -1.017467 1.705967 -0.853239 1.701808 -2.235014 -1.651886 2.692808 0.575247 -1.002421 -1.643938 -1.248427 -3.001076 -2.765478 0.600557 -1.779152 -1.096996 2.977938 0.520297 -2.825678 1.711408 -0.430791 0.327943 0.938822 -1.665145 1.276031 1.205549 -0.789111 -2.955028 -0.870499 2.866308 2.930577 -1.352597 3.171199 -0.254395 0.969534 2.926427 -0.724533 3.007303 -2.544259 -0.948718 -2.456069 0.667287 2.258525 3.037417 2.497762 2.216556 -1.330737 1.972735 -2.819446 -1.083574 1.389686 0.007709 1.882512 -2.652586 0.566691 1.006133 -2.955713 1.536904 0.962552 1.450669 -1.372289 1.451345 2.627639 -0.152216 0.399897 -1.286786 -0.811290 -2.134550 2.797575 0.142705 0.969995 -2.048741 0.240149 0.272844 0.505459 -1.366686 -0.712445 2.178962 2.539589 1.385207 -2.764662 -1.983077 3.026138 -0.324518 3.058300 0.656451 2.374769 -1.771664 -1.564013 -0.105817 -1.850587 -1.671228 2.263805 1.330559 0.087956 2.242918 2.284462 2.413835 -0.111787 -0.772478 -2.512964 2.509627 -1.671632 -0.250883 -1.912436 -2.818384 -2.609393 -0.065116 1.413399 2.778712 -2.563648 1.318454 -0.014197 -0.871700 0.626735 1.543854 -2.831069 0.517249 -1.035421 2.706372 -1.054651 -2.481249 -2.003332 -1.974872 1.155224 -1.086058 -2.656730 -0.257494 2.276295 1.905950 1.505130 -2.018087 -0.939719 2.919238 -0.770287 0.748757 -1.309903 -3.122849 3.096213 0.076034 -1.023128 0.187735 -2.673169 0.691170 -1.615921 -0.705896 2.632417 1.389891 -2.348560 -1.289806 -1.066632 1.295389 2.790155 -2.807241 0.828105 2.569396 -2.328722 1.577771 3.174244 2.670040 -1.594561 1.535488 -1.275548 -0.899648 -0.560981 -2.565892 -1.260250 0.030954 2.748558 -2.666334 -1.286569 -1.167113
-1.475480 -2.704852 -2.077629 0.795844 1.816668 0.500411 2.483776 -1.084358 0.405283 -3.170454 2.154523 0.256867 0.208175 -2.712623 0.941953 -3.077143 -0.719256 2.313872 -0.105067 2.963729 -1.491860 -0.747536 -1.732642 -1.457235 2.907892 -2.280807 1.164441 2.337878 2.177381 2.456658 2.999946 -0.086438 -1.809870 1.432968 -0.238762 1.994336 -0.459992 -2.482600 0.715900 3.054409 0.622966 -1.044563 3.155671 1.637765 -2.874730 0.071435 2.583976 2.701872 0.938241 -0.817567 0.331976 -1.946035 0.456614 1.686679 -0.288512 -2.211751 -2.800626 1.319298 2.098624 -0.199029 -2.170588 -2.116251 -2.640847 -1.129181 -3.150977 1.785156 -2.072216 -1.818231 -2.054912 -0.613499 0.323419 2.358320 2.746500 2.602486 3.154584 0.424592 0.339906 3.158105 -1.045683 1.937041 1.658395 0.070172 -0.006760 1.822610 2.793624 -0.373812 1.071304 2.435166 2.688994 -3.088786 1.396459 1.029924 0.331279 -2.811696 2.845811 0.860713 0.075341 -0.256093 2.686554 -2.059778 -0.606273 -2.998641 -0.110598 -0.550926 -2.883961 -1.140859 2.054396 0.837536 -2.368321 -0.196706 -1.874690 -2.477262 2.898681 -2.223207 0.882156 2.787140 -0.621135 2.861014 -2.196062 -0.439764 -2.658708 2.676285 0.703406 -2.886227 -1.301747 1.086957 -2.839414 -1.723807 -1.425301 2.640012 -0.349483 1.732786 2.237559 1.418326 -1.491823 0.073183 -3.027059 0.485453 -0.453262 -1.237249 -1.819968 3.102579 0.651314 2.082904 -1.755539 2.036416 -0.941781 -2.308073 0.384746 -0.616004 0.551446 -0.759552 -0.732116 -0.518582 -0.926914 2.805708 0.676264 0.164166 0.878544 -2.169520 3.075651 -1.157997 -1.961425 -1.859526 -0.301262 -2.150373 0.387449 1.986361 1.610239 -0.596513 -1.996812 -1.141752 1.136112 -2.037540 1.887006 -2.168499 -2.283177 -0.051396 1.204715 -1.641903 2.677647 0.874054 -2.201151 3.124338 0.828145 -2.161836 0.569932 2.250979 1.761626 1.066697 0.393760 -3.063700 -2.517410 2.934651 -1.355757 1.266428
-3.186011 2.158433 -2.408016 1.928867 0.434252 -1.924961 -0.676202 2.550326 -0.202422 3.048365 -2.645009 3.136385 -2.700749 1.769469 0.426511 -3.008167 -1.491268 1.100851 2.519065 -2.574360 -3.053950 0.296043 0.640456 1.367392 -3.185302 1.246073 -2.715795 -2.505164 2.541104 -2.390217 1.105865 -0.551157 -0.530192 -2.707122 1.186901 -2.064910 -2.326458 -1.091700 0.074125 2.865932 2.329485 -2.914623 -0.467480 0.375153 -2.547339 -1.930895 -1.756367 1.051482 1.434725 -2.195587 1.669991 0.851580 1.257293 1.579306 2.295428 1.698466 2.468007 1.344183 2.390264 1.161493 1.855045 0.665758 -1.062431 1.285711 -3.036739 -2.979600 0.407248 -2.931979 -0.774330 0.757699 -0.390852 0.629954 -2.653112 2.511797 -3.153102 1.592322 -0.048032 1.879970 -0.341970 0.850301 -1.452050 1.628432 1.009725 -2.098987 0.925608 2.033043 -0.714021 1.934139 0.263836 2.188023 2.006339 -1.051241 -2.356936 2.397076 -0.168600 -2.923361 -1.931103 2.343542 0.470568 0.193673 1.494774 -2.403779 -1.942137 1.854713 -0.764203 2.562827 1.099466 0.747567 -0.666490 2.414741 2.811960 0.992360 0.137167 -1.107696 2.782568 -1.835579 -0.683002 -2.694306 -1.112805 0.286047 -2.179573 1.355450 1.775587 -0.062748 -2.736710 1.788413 1.703785 -2.088095 1.923838 -1.594362 -1.211520 2.037802 1.814556 1.442629 1.208766 -2.810995 2.069065 2.268158 -2.587095 1.166999 -2.707848 2.035135 -3.146785 -0.008116 -2.872724 0.193889 0.714984 -0.897147 -0.874096 1.208944 -3.174403 -2.525361 0.961007 -2.409770 0.404054 2.293878 -2.887196 0.537169 -1.712862 1.132091 -2.747348 2.819791 -2.309845 -2.532072 0.011548 2.198190 -0.423252 0.885470 0.133461 0.729720 2.337297 1.136835 2.530920 3.133766 0.067612 -0.652493 1.612225 -0.600757 -2.308463 -3.117665 -2.725493 1.573973 -0.393761 0.331665 1.403099 0.374378 -1.651959 -0.081950 2.920483 0.696992 1.741807 0.656898 -1.796123 0.974651 1.003825 2.160037
-2.784561 0.850188 -2.923507 -2.961987 -1.803115 -0.894691 0.148075 -0.646863 -1.138621 -0.552766 0.121493 -1.561311 0.197189 2.021752 -0.199431 2.908011 0.034038 -1.876044 1.969554 -1.668024 -3.059233 0.248056 1.204999 -1.298014 2.419193 1.828026 -0.716925 0.461442 -1.529761 1.217409 -0.661453 -1.300403 1.077170 1.918006 2.323511 2.772200 0.348276 -1.027535 0.071971 -2.695467 2.672050 -1.346113 2.873681 -1.483694 -2.104645 -0.579365 -1.206758 2.319017 -2.911804 -1.357380 -1.003459 2.832490 3.124521 0.786661 -0.510143 1.166775 0.976863 0.528104 0.893510 1.081332 -2.068166 3.173977 1.022974 2.031593 0.299347 1.837087 2.492662 -0.305809 0.154410 -2.756642 -2.402636 2.074676 1.012525 -2.344924 2.364362 -2.319494 -0.929888 1.671399 2.564290 -0.115199 0.659378 0.453373 -0.662337 -0.729861 -0.472024 -0.290263 2.342133 2.910285 -3.166411 1.319986 -1.891861 -1.019095 2.503243 0.195033 2.908296 1.206081 2.801843 -1.365063 2.233686 2.834325 -2.003202 -0.705890 -1.972470 0.246708 2.052395 -0.006976 2.585553 -2.248349 1.027332 3.085942 1.919995 -2.407445 -0.958982 -2.097908 2.202515 -1.826771 -0.547518 0.011404 -2.035250 1.777603 2.567019 -0.940868 1.520676 -1.434557 1.273903 -1.433652 2.935120 -1.527412 0.483518 1.498343 -2.718368 -0.444254 -0.604315 -1.572141 1.685646 1.294980 2.814467 0.838347 0.509549 -1.969920 -2.727353 1.345292 -1.496808 -3.085821 -3.005420 -2.966876 1.902203 1.803585 2.452140 0.125975 1.772558 -2.825354 -0.279380 1.379251 0.558257 0.461088 -0.750843 1.972350 -2.897308 0.040727 1.301230 -3.038227 -1.863686 -1.229177 1.503699 -3.059147 1.877084 -1.670904 -0.909553 -1.672212 2.390397 -0.671052 -0.004221 -0.514354 -0.383747 -1.897195 1.871387 2.805895 2.284526 0.062911 1.927690 2.451153 2.994902 1.949731 -0.603066 2.281242 -2.587864 -1.846627 2.659936 -2.421863 2.881949 2.851088 -1.607189 1.864779 -0.997756 -0.020876
-1.418747 0.055888 -0.697179 1.739551 -1.445725 -2.856232 2.438835 -2.586798 -0.970230 -1.472823 -1.916355 2.589744 -3.192797 -2.009814 -0.008455 -3.136400 -0.015646 -2.099488 0.956397 -2.640468 1.468940 2.891227 1.307583 2.870607 -2.372676 1.948668 2.196358 -0.587631 -1.875004 1.895771 0.490885 2.625871 0.186397 2.175377 -1.616032 -0.346663 -1.268511 0.313201 -2.503654 1.159227 -2.481129 -2.650189 0.698892 -3.014363 -1.003891 2.816353 0.258426 0.448455 0.785465 -0.896402 2.624830 -2.845196 0.948400 0.440252 2.206481 -1.036448 2.383692 -0.171630 1.082283 0.303315 1.340171 -1.869062 0.565503 2.788159 -1.349111 2.249296 -2.231870 0.051167 0.095896 1.768356 -2.162926 0.167093 0.224193 3.048338 -0.634731 2.710064 -0.988043 -2.583592 2.634034 2.760979 2.249213 -2.907423 -2.403769 -2.902853 2.838037 -2.990350 -0.943275 1.900605 -1.086343 0.279497 -2.734848 2.773577 -1.524954 0.996502 -0.480004 -3.014421 3.107249 1.773838 -1.750593 2.292679 1.154466 3.168357 -1.160792 2.277733 0.056260 -0.680352 2.355432 -2.659765 0.355685 -0.221211 1.412194 2.398898 -0.984333 1.679159 -2.785397 2.933698 -0.669408 -0.917618 0.440367 -2.164492 -0.888988 -3.035235 3.128914 1.349520 -0.160034 1.149381 1.073114 0.462126 -2.936968 -1.094996 -1.794971 2.566084 0.530904 -0.320849 0.729217 2.658350 0.931987 -0.189223 -0.235264 -0.361268 -1.907346 2.526168 0.785546 2.714702 -1.993370 -1.673669 2.860158 -3.036499 -2.189374 0.764629 -1.756844 -2.706300 0.984432 -0.467430 2.544577 2.644489 2.254478 2.323413 1.852748 0.012978 1.536209 -2.813013 1.692833 0.453791 -2.835237 -0.795048 -1.497777 -1.362080 -2.011824 -2.356775 -1.627487 2.227018 1.036799 2.560530 0.451283 -0.091976 2.837448 -1.729477 2.685222 1.050108 0.105954 2.954016 1.304870 0.984680 1.889627 0.324440 0.930731 -0.210751 0.528749 1.076111 1.467817 -0.792717 1.922192 1.007874 2.187756 -0.998500
2.521343 0.777116 -0.195266 -1.221693 -0.523616 1.784906 -0.409506 -1.878982 2.301547 1.896323 -1.204329 1.729601 2.838161 -0.750781 -0.752729 1.180392 -2.658191 3.047169 -2.608018 2.597045 -1.136081 -1.180299 -2.842379 0.507623 -1.197698 -2.752046 -0.107148 -2.961588 2.604023 -2.176439 -1.532916 -0.533072 -2.283211 -1.934592 -2.818271 -1.545368 -2.839650 1.218420 -0.507361 -3.049269 -0.561810 -1.630999 -1.369310 3.154930 -2.827977 -0.935765 1.755991 -1.873257 0.626252 -0.194091 3.041615 2.412879 0.317427 0.149503 2.079580 1.760570 2.801774 -0.623969 -1.807138 1.112954 -1.215639 2.710212 -1.959216 2.796370 0.874062 -1.633651 -0.375874 0.902611 -0.016286 -2.771666 -2.999993 -0.935230 1.458901 0.378555 0.163678 -1.383630 2.397740 -2.231364 -1.397548 -2.204126 -2.466200 2.544574 2.772831 -1.134091 2.539472 2.079627 -0.015518 0.347645 -2.417215 -1.145224 -0.451811 -2.657842 -1.655305 -0.189319 -3.051323 -2.537886 -0.111668 2.897767 0.410432 -0.462145 1.936945 1.562049 1.613102 0.560182 -3.163257 -2.428584 2.134522 -0.092482 2.314359 1.681923 -2.819030 -2.074025 -2.685971 -0.377081 -1.358263 1.319714 2.543935 1.200649 -0.254411 0.523245 1.188463 -2.384699 -2.150237 -1.057882 -2.169895 2.438268 -0.071143 -3.101551 -1.729955 -0.026364 1.629367 -0.258430 1.180294 3.161173 2.816347 0.501886 -2.929387 2.654946 2.210430 2.249250 2.176570 -2.861590 0.400290 -0.197386 0.299535 -1.372852 1.756155 -2.135960 1.690028 0.865821 -0.520912 2.338387 -1.208674 1.183982 -1.961840 -2.399788 0.476471 2.917706 0.965487 -2.900094 0.395964 2.166187 -0.522079 -1.149128 -0.107759 -1.939550 1.003413 -0.047358 2.862228 1.113045 0.590891 -2.545261 1.793781 -1.816460 0.901308 0.969824 -1.357537 0.209521 -1.776654 0.107245 -2.521108 -2.184420 2.620057 -2.357354 -1.037489 -2.949144 0.178933 -2.090637 1.218876 -3.133667 2.003628 2.649044 0.429834 2.587828 0.806931 -2.868322
0.949414 2.039770 -1.564536 -2.184071 -0.045306 -1.261550 3.087371 1.171181 1.831678 0.020667 -1.786127 -2.415529 -2.721827 0.593809 2.585007 2.911998 2.482915 -0.261213 -2.520395 1.689321 0.132239 -1.101651 -1.579101 -0.562880 2.519233 0.808951 -1.961454 -3.229130 -2.188278 0.617401 -3.199846 -1.124852 1.668297 1.171748 -2.665870 0.678247 -1.600471 0.932518 2.441012 2.055689 1.836111 0.950207 -2.427183 2.817259 -1.867704 0.596688 2.625868 -1.839669 -1.701375 2.112787 -1.918055 1.256641 0.477578 1.691444 -1.933884 -0.030838 -2.159509 -0.031520 -2.773540 -2.326766 2.590723 1.543593 -0.474888 0.216529 2.930011 -2.797873 1.380269 2.501934 1.733350 -2.909572 -0.950681 0.596902 1.896291 -3.243873 -0.291816 -2.454907 2.831812 1.614591 -2.842651 -2.782732 -0.441591 -0.295213 -2.055514 3.224490 2.943356 2.325293 2.242587 -2.147311 2.495669 -3.118835 -0.889769 1.587383 -0.656269 -0.387430 1.283189 -0.120577 0.352236 -0.216011 -1.401264 2.352983 -0.400611 -2.624739 0.747285 0.796963 -2.552541 -2.597107 -2.660153 -0.905656 1.480307 -0.713299 2.342474 -1.382002 2.433806 2.562047 -2.916887 -0.236971 0.132295 -0.934147 -1.032257 -0.882161 1.013277 1.516840 2.323309 -2.126500 -0.128293 1.681474 -3.015772 3.045658 -0.081676 0.782232 0.079355 0.237673 1.752441 -0.462741 1.508965 -2.556567 2.783605 1.378148 -0.663515 2.063267 2.476163 -0.467378 -2.858835 0.047762 -1.585126 -1.395306 0.962929 1.461050 0.623475 -2.188176 2.013512 0.924612 -0.751324 1.596292 3.071351 -0.313114 -0.685939 -2.879534 -2.496976 -2.267225 2.097167 -0.996163 -0.042919 -1.202098 -3.032627 2.270830 -2.507744 -0.835823 1.078949 0.794625 2.984947 1.878812 -1.513855 -0.358759 1.035634 1.543948 -2.041860 -1.259364 2.270435 -0.608171 1.281823 0.065960 -1.972616 -1.297452 3.009536 -2.542954 -2.721240 -2.944200 -2.018352 -2.112593 -2.758754 2.222322 -1.700776 -0.818236 -2.425691 2.512994
-1.906828 1.982181 -1.406925 2.431281 2.953070 -1.165951 -2.029686 -1.573970 -0.129551 -1.928823 2.099120 1.112374 -0.078322 -0.218351 1.929562 1.737373 1.692976 1.899015 0.057076 1.043064 -3.166785 2.920981 -1.568644 0.517835 2.985537 -1.802023 1.232976 2.136119 -1.608891 2.559812 2.225372 0.298714 -1.786187 1.171586 0.022558 1.581104 0.634843 -0.985077 2.911560 1.790116 0.379924 -2.884703 1.014771 -1.685793 2.361494 0.670343 0.177541 1.823804 -2.490323 -1.038352 -0.457618 0.533101 1.870979 0.912200 -1.100998 0.328249 2.364587 2.136393 3.009329 -1.761457 1.697542 0.804372 1.985004 3.021718 0.171624 -2.461356 0.226556 -1.876299 -2.859234 2.066787 1.255633 -2.549863 -0.557193 -2.284776 -0.557132 2.917682 2.995216 1.473249 -2.399586 -1.017095 2.915174 -2.758844 -0.922143 0.090078 3.038317 -0.684310 2.624030 -2.651543 -0.334543 -2.303152 -2.327723 -2.351979 -1.247054 -1.642317 1.618851 0.059933 -2.497358 1.724392 -1.641135 0.847458 -1.615748 2.574561 -0.739909 -0.613552 1.434765 2.291481 -3.149395 -3.072743 -1.781802 2.820113 0.899400 -3.068679 2.249655 -0.345363 2.827267 -0.407879 -1.663542 2.980650 0.115892 2.228685 2.405938 2.944245 3.045505 2.611179 1.186803 -0.223747 1.298638 1.058380 -0.604246 -2.018640 2.732927 2.994964 -1.031123 -2.939539 -1.292903 -2.584295 2.672270 -1.053783 -0.937947 -0.375112 -0.895933 -1.469206 -2.476710 0.005220 2.109675 3.146388 0.987954 2.385748 -2.017328 -1.086820 1.745610 -2.388513 -0.950039 1.974149 -0.257796 -0.475008 2.297509 1.738051 -2.452296 3.090041 -0.834113 2.931149 1.512453 -1.298766 -2.834420 -1.325370 -2.361396 2.864905 2.351898 0.779962 2.812839 -1.543085 -1.076783 1.869473 0.546326 -0.024365 0.913698 -2.816625 -0.688795 -3.179084 1.486782 0.257962 -1.563796 -1.991294 1.587953 1.037670 -1.950953 1.074233 -1.825472 -0.205563 -2.293453 1.759239 -0.693066 2.532333 2.571396 1.999116
-0.789673 -2.026634 -0.731577 -0.554578 -2.959550 0.706617 -2.156437 2.408794 -1.604562 -1.309234 -0.002672 0.237488 1.190228 -0.432867 -1.221648 0.260911 -2.981224 -1.604879 3.109319 -1.428356 0.648105 1.987150 -0.427288 3.175954 -2.345752 2.298543 2.402033 3.129366 -0.148281 1.242072 2.289939 -2.421677 -1.785022 2.654715 -2.861099 -1.277618 2.612719 2.138417 -2.857872 1.385786 -0.153732 -0.604822 1.420506 1.627211 2.282349 1.203946 -1.056109 2.030260 -0.582878 -1.975527 -2.417159 -2.863116 2.255429 2.326582 3.070221 -2.964966 2.276147 0.384564 0.078683 0.770527 -0.382592 -3.174101 -3.177106 2.650073 -1.245966 -2.512365 -2.842140 1.105937 0.902115 0.380576 1.998693 -1.044477 -2.095560 0.614117 -0.916954 -0.489015 1.353227 1.269469 1.960265 -1.312624 0.301973 -1.026053 0.837638 1.914168 1.260057 0.322614 -0.749708 0.996696 -0.900424 2.769349 1.728585 -1.194635 2.356089 1.202084 0.767853 2.204084 -1.787115 2.353716 -2.519301 -0.761136 0.168574 -1.851811 -0.042702 -0.023693 -0.138731 0.920736 1.691426 -1.107032 2.226910 0.803342 -2.854955 -1.467180 0.692132 -1.482253 -1.640892 -2.433260 1.305086 1.933760 0.250103 -2.620537 1.003209 2.497385 0.639308 1.690430 0.106472 -0.798926 -2.627221 1.589636 2.102916 3.134982 0.887881 -0.963200 2.542767 1.754141 -0.817463 2.898871 2.362402 -0.617390 -0.725488 2.748495 0.280724 0.883384 0.863314 1.815325 -1.221575 1.375222 0.376614 1.930557 -2.118909 -0.539241 -3.037272 1.813004 1.325483 -1.095737 2.700195 -0.003132 -1.136939 -0.775167 1.066028 -0.053533 0.707136 1.180029 -1.338994 -1.296208 1.076508 2.816603 1.778853 1.463356 2.416705 -0.887043 -2.421648 -2.540421 1.521602 0.304650 -0.348245 2.496531 1.423829 3.062525 3.028358 1.230477 -2.551933 -1.389989 -1.147315 1.770124 2.387107 2.194529 -1.546657 0.058632 1.580415 -0.134033 1.450729 -0.527524 -1.319097 -1.916059 0.240788 -0.544230
-2.223127 -3.038590 -2.546703 2.490379 -1.418617 -0.555447 0.240196 -0.676423 1.290488 2.766784 -1.114638 -1.642703 0.217981 -2.954208 1.119636 0.670895 -3.112693 2.185681 2.249900 -1.680885 1.447305 2.926231 -3.161632 -0.088884 -1.673852 -3.031271 -1.251670 0.312713 -1.835940 1.747574 -0.167020 0.343953 2.475739 2.527647 -1.448873 0.334103 1.321906 3.170909 1.877792 2.706789 2.277236 0.772411 -1.492997 -2.408183 -2.792284 -1.352527 -3.140836 -1.411286 1.241843 3.074004 0.713849 -2.870309 -1.372188 -2.060450 -0.343637 -0.215785 1.780816 -0.740234 -3.038547 1.773960 -2.783172 -1.493835 -2.088648 2.829712 -2.785005 -2.136071 3.066764 -0.198402 2.010716 2.554672 -0.889507 1.427899 1.626545 -2.812420 1.399383 0.905682 1.370098 0.214405 0.816088 2.343171 0.422682 2.953353 2.242287 -0.226685 1.298852 0.614151 0.836559 2.796466 -0.465719 -0.868212 -1.788254 0.483765 1.390493 -2.574044 1.135895 0.560249 -1.202792 -2.348520 2.033529 0.991489 -3.099714 3.156083 -2.800005 -2.314199 0.065246 -2.264668 1.854306 -0.533791 1.686478 -1.175417 -1.304853 0.506049 2.466286 2.678845 -2.832855 -0.039661 -1.131103 1.950479 -2.866013 0.287578 1.874065 0.565217 -2.720385 -2.485566 -1.992038 -1.707638 2.235585 1.056946 -0.111195 -2.545566 0.790015 -2.988678 -1.841013 -1.736284 0.558841 1.570234 2.639916 -2.221100 -0.337041 3.187885 1.574506 0.756729 2.042734 0.522066 -2.800968 2.866499 1.527684 -1.804531 2.486192 2.104122 -2.945213 2.323777 0.653288 2.390681 1.375058 -2.671743 0.863322 1.053225 2.556050 0.363085 -0.613753 -0.482558 1.152620 2.554921 -2.269909 -1.546181 -0.905847 0.564172 1.541942 2.445612 2.916780 1.451377 -0.965365 0.786887 -2.630780 1.867857 1.102688 1.383207 0.217368 -3.061448 1.550102 -2.672651 2.786489 -2.326506 -3.041047 1.739890 -2.869096 1.035402 -0.494839 2.395582 -2.033330 0.761389 2.840929 -0.269787 2.885390 -2.325927
1.028694 2.563712 2.711076 1.614661 1.993175 2.279281 -1.114844 -1.120683 1.982124 0.897460 -0.086423 1.577177 -1.375850 -2.539813 0.157805 -1.480904 -0.782790 3.007023 -1.348792 2.177952 -0.128395 2.603665 1.505976 -2.027538 -1.396597 -1.667003 2.026369 -2.250389 0.539772 0.757297 -0.386915 1.904080 2.551567 -0.317578 2.363727 1.181195 -1.810057 -2.463487 -1.278432 1.073242 1.892796 2.840410 -0.913120 -0.033264 0.676236 2.335067 1.507051 -2.362900 3.070703 -0.956317 1.592096 -0.933244 1.569413 2.535117 -0.880102 -0.142410 -1.172358 -0.510459 2.633930 -0.138648 2.795742 2.529482 1.761334 -2.884544 -1.184797 0.159921 -0.527004 2.006693 0.909662 -0.914977 -2.716200 -1.028308 2.382031 -1.759578 1.800397 -0.199027 1.993000 -1.259927 -0.876295 -1.018186 -2.728400 -0.487070 -0.199501 0.078561 -0.693926 0.702372 0.784787 -3.024324 -2.310640 -0.951365 2.417309 -1.676211 -2.255343 -0.280592 -2.440219 -2.512452 2.811337 0.424754 -2.806144 -2.925525 -2.697280 1.719535 0.850048 -1.585717 -0.897038 0.335102 -0.175618 -1.426924 1.958237 1.751269 2.203412 1.279707 2.433221 -3.071440 -1.395167 2.588706 2.080753 -0.369471 -0.033979 -1.975555 -1.674767 0.003926 2.958624 -0.073920 -0.194412 -1.344689 -0.572736 -0.440975 0.384801 2.750741 2.759134 2.599027 0.908844 1.628117 2.216086 -1.319754 -3.001330 -0.969915 1.534647 -1.768012 1.226114 -3.012175 -2.680890 -1.049024 -0.073741 -0.240539 0.682603 1.667395 1.101298 -2.970945 2.014438 2.073205 2.429913 -0.938409 2.416348 1.974274 -2.922306 -2.504449 3.088778 -2.467737 1.602151 -0.945482 -2.595252 -0.695953 -2.659028 1.519807 1.499399 -1.517719 2.747755 -3.119105 1.898097 0.774475 -2.594677 -0.815552 -0.281351 0.873933 -2.611400 -2.915576 -1.679329 -1.464357 -0.028450 0.857200 -1.960597 1.335285 2.601615 2.663674 2.209023 -2.245410 -0.280398 1.455693 0.621067 -1.560580 -0.534654 1.253112 -3.092062 0.170371
-0.333582 -1.565159 1.582415 -2.981166 2.315953 -2.200836 0.372031 -0.479812 2.636336 -0.769641 -0.928963 0.430813 1.111209 -0.431913 0.549978 -2.414456 -2.535446 -1.001227 -1.246862 1.563651 1.319191 -2.338752 0.713260 -2.428021 2.173421 -2.355233 2.212179 -0.925032 -1.126304 0.819564 3.045778 0.994173 1.449954 -2.440146 0.781447 0.967780 0.683208 -0.223480 -0.386458 1.321066 -3.122312 0.882829 0.632204 -1.251835 -2.340789 -2.174395 -2.868891 0.205409 1.638097 -2.333370 -0.687335 2.519464 0.798593 1.425977 -1.978939 -2.535444 -2.791966 1.820685 -1.405766 1.963717 2.249920 -1.994118 0.732445 -0.080621 -0.216644 0.007734 2.740567 -1.642447 1.476407 1.308161 0.001598 0.137537 2.481223 -2.192526 2.086167 1.000802 2.626517 2.496654 -2.513104 1.790802 1.616875 2.107896 1.749785 -1.050039 1.520341 0.499931 -1.884644 2.548837 -1.057401 0.533469 0.128964 1.258070 1.437897 1.551257 0.352468 -2.190699 2.648711 0.077757 0.717705 1.099119 -1.768095 -0.816624 -0.932214 -0.342595 -2.578327 0.484166 0.323446 -1.767219 -2.021175 0.912621 -1.760478 0.556081 1.390131 2.945383 -2.315142 -2.558652 -2.202196 -1.099424 1.577453 -2.534461 -1.133608 -1.886173 -0.821447 1.008893 -0.838732 2.155598 -0.463484 -1.402679 1.174048 -0.319750 1.529333 -3.023355 1.979924 0.490745 -1.474524 0.809755 0.864496 -1.151914 2.903734 -2.964921 -0.600669 -1.177848 -1.681709 -2.233122 -1.376212 -1.601012 2.960112 1.730540 -0.824282 0.280060 -2.673350 -2.118919 2.305323 -1.025054 1.486065 -2.723635 -2.771448 -1.604870 -1.221711 2.328891 -2.237796 2.435626 0.026561 -1.458037 1.099345 0.156872 -0.379406 -0.471625 1.119952 1.230251 0.886368 0.407311 -1.651970 1.576174 2.089450 2.341921 1.036244 2.148752 1.097039 -3.058045 2.543394 -0.659405 -2.278073 -0.228890 -2.825592 0.429622 1.842780 1.204360 -1.601698 -0.189480 -1.183271 2.258106 -1.511916 0.712409 1.134306 1.090655
2.629140 -1.220149 0.574901 1.566314 -0.272673 1.365767 -0.824240 -2.201067 3.144338 2.422566 0.095099 0.559322 0.203999 1.380181 2.333438 2.416946 -1.354927 -1.664476 -3.214709 2.317519 0.847913 -2.380952 0.824370 2.379702 -2.016819 2.873983 -2.084079 0.507923 1.727993 -2.615610 -1.601884 -2.612241 3.168995 2.202542 -2.444288 -2.620184 -2.904727 3.213990 -1.691908 1.596292 -2.665565 0.343336 -1.978007 -2.124239 -0.668813 0.735869 -2.455932 3.041610 -1.228248 -2.937557 0.318319 -2.022789 -1.152581 -1.027423 1.036921 0.803241 0.827474 -2.769774 1.494896 -2.114995 -2.825690 -0.339288 1.647123 -3.115563 -2.015744 3.028108 -0.790552 0.939696 2.722446 -1.842985 -1.190143 -1.780076 0.564040 -2.331161 2.003615 -1.042714 2.490302 -2.535825 0.604000 2.270276 -0.684475 -0.698935 -0.447510 0.639041 2.143325 -0.405009 -1.941888 -2.960571 2.956244 -2.207780 1.990509 1.894876 2.269357 3.155431 1.213045 0.167252 0.053969 -2.063459 2.902367 -1.054699 -1.198294 -2.959129 -1.573271 -1.868766 2.367272 -0.141861 -1.833947 1.069287 -0.514376 2.162130 2.193709 2.500256 -1.615306 1.819564 0.482971 -2.317551 3.022427 -1.387455 -2.710459 0.575222 0.980304 -0.267569 2.896532 -0.390224 -0.941131 2.284601 -1.004123 -2.165140 2.774531 -1.828888 -2.060528 1.280534 -3.060807 -1.566239 1.432363 2.632698 0.545772 2.779881 -1.339374 -1.039244 -1.738394 -0.383924 -2.486833 2.281462 2.921369 0.032776 3.137404 -1.355775 -1.199301 2.827794 -2.998341 -1.898326 2.838850 0.468705 -1.288070 -0.799208 2.604460 2.097601 -2.610103 0.756705 -1.486656 2.527140 -0.998213 -0.322593 2.325467 -2.517671 -2.944172 0.036522 -2.644886 0.766519 1.676999 1.424319 -1.977286 2.343351 -0.454482 2.103729 -1.615728 2.768650 -1.635366 0.431572 -2.564542 -0.933223 -1.312024 2.226811 1.473064 -0.833198 -2.858419 0.704163 -0.621176 3.082354 -2.935359 0.197084 1.087589 2.473672 -2.620453 -1.556514
1.044567 -2.401703 -0.722169 -1.665824 -2.019899 -1.481332 -0.461513 -0.749020 -0.669687 1.535419 1.636673 -0.119353 1.657607 -2.946867 -0.596577 0.420745 -1.166346 2.301323 -2.364602 2.567774 2.713557 -2.260977 0.150092 -1.758170 2.080245 -2.531913 -1.937996 -2.216907 3.038412 2.867332 0.751838 -0.413072 -0.150973 1.148296 2.067645 -0.113171 1.183822 0.475918 1.210277 2.312865 0.779473 2.534831 -2.447902 -0.606690 1.682988 2.964319 -3.023217 1.746503 3.008442 1.021713 2.361741 -1.406636 -0.072511 2.166740 3.079174 -2.739265 -2.126710 -0.926173 1.446876 0.920126 -1.714752 0.057495 -2.799248 0.186017 -2.210463 -2.715566 -0.369932 1.190992 1.068005 1.250868 -1.450634 3.156654 1.554794 2.059795 -1.121384 2.615230 0.526256 2.885042 -0.346028 -0.167747 -1.153203 -0.062306 0.906621 1.354998 0.998750 1.375510 1.023274 -3.015691 -2.235882 2.437936 -1.992768 0.131697 1.163371 -1.650834 1.211972 -2.033636 1.128113 2.647390 -1.500214 1.065856 0.114034 2.494885 2.594371 -1.871507 1.472927 -1.468936 0.297925 -0.663867 -1.032218 1.562987 -1.923191 0.743233 1.572279 -0.278519 1.529851 -1.846782 1.828371 -0.037139 -0.093463 0.961947 0.033060 0.537491 -1.823005 2.355127 2.732418 2.155714 3.188932 -0.386535 2.155782 -0.195145 -1.912399 -0.955182 -2.306171 -1.335904 2.417949 -0.837032 -1.841897 2.975292 -2.236068 -1.592040 -1.316403 0.364610 -2.530180 1.881551 -1.458280 2.799158 -2.175067 2.868660 0.026508 -1.411492 0.734020 1.311153 0.816149 2.681981 -1.935820 -2.906915 -2.651687 1.765772 -2.131325 1.438028 0.828295 2.079695 1.842717 1.244295 1.380500 -1.837727 2.048153 -1.636796 -3.148201 0.074667 0.201640 0.770807 0.435095 -2.580694 1.386664 -2.801643 0.825014 -0.676498 2.908390 3.079575 0.389246 1.263694 -0.146581 -3.136419 0.719688 -2.892783 2.296931 1.780322 -3.148349 2.000490 1.926213 0.250324 2.413256 1.737930 -3.183523 -2.839161
0.975331 0.366760 -2.637190 1.210066 -1.759304 -2.912623 -1.195441 0.496655 -1.425538 0.887753 0.496135 -2.880564 1.417857 2.197954 1.077880 -1.202296 -2.851829 -1.883962 2.168220 1.690771 0.729371 -0.244397 1.915923 3.079066 -1.333728 0.315000 2.010173 -2.701736 -0.542029 1.487030 2.166567 2.916402 -2.404002 1.142455 0.885167 -0.594188 1.851839 1.483185 3.088828 -0.529704 -2.437039 -1.306453 1.315470 2.213586 3.134281 3.024793 1.142053 -1.597643 -0.540336 -0.188342 -0.656457 1.355473 1.081818 2.235140 -0.061369 0.790707 -0.599583 0.943199 2.145154 -1.954582 -1.679344 1.063508 2.075889 -1.404424 -3.101405 -3.206471 -2.614139 -0.528884 -0.839111 -1.133237 0.156560 2.450788 3.158713 -2.752381 -0.796972 1.472009 0.282564 1.772308 -3.003277 -0.651514 -1.483140 2.429885 0.877027 0.247684 0.693097 -2.649830 1.892853 -2.757205 -2.877995 -2.589781 -1.427747 -0.424581 2.348440 2.066246 -1.669202 -3.130637 -2.398320 1.195301 -0.523904 -2.193999 -1.032258 0.156937 2.063592 0.666703 -0.920900 0.777332 -3.093728 2.027290 -1.143336 -1.588595 3.209448 2.381113 -2.122418 2.495102 0.759577 -1.624685 0.756431 1.391189 2.504759 0.825118 -0.847002 -1.725045 2.587827 -0.708504 3.045098 -3.024354 1.168140 1.534320 -2.967175 2.685107 0.373799 -2.710633 2.564167 2.242503 3.089842 -1.366419 -0.319241 1.320747 2.453907 1.307793 1.127617 2.397768 -2.825679 -2.008648 0.461359 -2.699038 -2.253338 1.184168 1.515518 0.882127 0.527761 0.867561 1.186339 -0.876380 0.637705 0.702762 -1.730870 -3.030447 1.759474 3.151921 -0.878591 1.880289 0.677326 -1.235342 -2.408432 -0.336078 -1.948117 0.718799 0.040654 2.087209 0.934902 0.937086 -0.239845 2.918316 -2.158755 -1.948338 2.214960 -0.235729 1.604151 -2.678666 1.013078 0.301448 -2.688877 -0.700821 1.822242 1.261467 -0.285891 0.892690 0.948099 0.095502 -3.069341 -0.079731 -1.720337 1.485372 -2.115292 3.158589
1.078367 -0.580238 -1.766434 1.532328 -2.271810 -1.033231 0.384493 -1.601799 1.120854 -2.035263 1.856524 -1.336475 -2.830322 3.124993 -1.309690 2.557675 -1.485438 1.511499 -2.738809 -1.930473 -3.122152 2.560135 3.011164 1.321275 -1.331348 1.416082 1.711385 2.583976 2.303400 2.758143 1.532811 0.521530 -0.169885 0.927454 2.645517 -0.755240 -2.773210 0.676290 -2.669264 0.237255 0.422049 2.956747 -1.068122 -0.258543 -2.993385 1.414857 -2.621726 2.192512 -1.151590 -2.355197 -1.330362 -0.713737 -0.605141 0.824221 -2.208231 1.203922 1.058976 2.696964 2.631508 -2.712218 -2.419882 -2.540412 -0.784451 -2.795971 0.385664 1.047053 -1.327361 0.979208 -2.324594 2.719139 -1.254966 2.716976 -2.593748 0.155222 -1.000203 0.927964 1.848749 1.498274 1.074628 0.600387 1.035072 2.679995 2.011495 2.721054 -0.496138 -2.131038 -0.043388 0.772972 -2.289041 -2.458468 -1.790008 -2.949085 -0.804848 -0.278387 1.376380 -2.852248 -0.025402 -0.410377 2.290996 1.511524 -1.238953 -0.513181 -2.526250 0.343104 0.527415 -2.781037 0.249330 1.533972 -2.585796 -1.804253 0.915382 -1.887907 2.981012 -0.828538 0.073823 1.387614 -2.859095 -2.399758 -0.006518 -2.089395 -1.302181 0.453389 3.033644 -2.574723 2.118719 2.055669 -0.155238 -1.391878 1.134377 3.083785 -1.733874 -3.191955 -1.434740 -0.041185 -1.567608 2.417167 0.774640 -2.525184 -2.047200 2.790025 -2.746072 -1.574241 -2.850551 -3.104171 -3.188700 0.037705 -2.250008 -0.720125 0.482143 -1.309852 -0.239932 -2.993754 1.588961 -2.811660 -0.644272 -0.538728 0.308847 -1.094797 0.729998 0.113754 -1.987494 2.416261 -1.457666 1.814374 3.104391 0.735127 1.533430 0.276991 1.813098 1.620679 2.608977 -3.175166 3.105241 1.206026 1.749735 0.291058 -1.344219 -1.147652 -2.647426 2.623642 0.554293 2.696455 -0.372973 -0.524388 0.445802 -2.720696 0.637879 -2.708807 -3.015945 -1.016310 1.436373 0.451910 -1.229619 -0.491240 2.348232 2.522415
